doc_0 -0.046802007 0.13143878 -0.05002679 -0.0010496516 -0.0333759 -0.033241946 -0.03088678 0.13524808 0.13957968 -0.03890144 0.1362472 -0.038772676 -0.034582496 0.13778932 -0.016539114 0.13005362 -0.036232725 -0.040775765 -0.0518956 -0.04900198 0.13999972 -0.0012516554 0.13204868 0.12509479 0.13580982 0.110846706 0.10523513 0.12449512 0.12732282 0.13331777 -0.04183489 0.1448421 -0.055728067 0.1312287 0.048343007 -0.041038614 -0.03898537 -0.02961035 -0.0348625 -0.047230463 0.13426395 0.13711888 0.14724173 0.12864931 0.12927806 0.12539846 -0.049461514 0.10745872 0.14871895 -0.037482295 -0.060190465 0.14267655 -0.053908106 0.13308251 -0.042329658 0.030471798 -0.016834212 0.10649131 -0.051216494 -0.037497193 0.13029799 0.10732213 0.13907859 0.13509573 0.14058718 0.13168746 -0.06412894 0.1290492 -0.054404538 0.123895004 0.1260103 0.12647186 0.12930933 -0.06246405 0.11506593 0.14875038 0.13114429 -0.026643928 0.13422334 0.13228293 -0.04619716 0.12910488 0.10870955 0.11246296 0.11828728 0.10995589 -0.04877667 0.12969953 -0.030954279 0.13740227 0.13471675 -0.05471056 -0.05418472 -0.04304836 -0.048657168 0.120413005 0.12064896 -0.055527657 0.14384054 -0.063592054 0.12840633 -0.043007534 0.12408091 0.124941066 0.13370784 -0.059645087 -0.033804733 -0.037476063 -0.024317881 0.13902634 -0.014400714 0.13670516 -0.022768835 0.13710059 -0.059659123 0.11231513 0.0523354 0.123860344 -0.05716897 0.13932472 -0.054909047 0.13757566 -0.048150543 -0.043155573 -0.045305368 -0.049219295 -0.05405272 0.13911021 -0.037478145 0.105896816 0.14234017 -0.054492198 0.016857788 0.116061956 0.14375907 -0.021560509 0.12513375 0.027311118 -0.04961742 0.12321735 0.13849002 0.1386886 -0.03512044 -0.016258828 0.12148729 -0.0056897197 0.1337355 0.008472048 -0.0412866 0.11447816 0.12942326 -0.060922448 0.1261163 0.13440199 -0.05868855 0.011652617 -0.044962086 0.12485982 0.12972067 0.124011464 0.116224915 0.13106425 0.1362205 0.09568604 0.12041624 -0.02350989 0.13806531 0.13862586 0.11723873 -0.038463134 -0.042796 0.13347986 0.1286215 0.11977566 0.1264722 0.12050089 0.13303062 0.13349248 -0.02339354 0.14033929 0.10823966 -0.055181954 0.13595276 -0.05311827 0.0075777825 0.14467934 0.12070932 0.12790655 -0.04463415 -0.050955173 0.024299666 0.10859592 -0.04621807 -0.003009185 0.12851155 -0.04200149 0.12964681 -0.04586224 -0.050710358 0.12623245
doc_1 0.024271969 0.016000275 0.024252133 0.02905327 -0.008063441 0.0005003525 -0.004223149 -0.0024151523 0.0071293907 0.022466958 0.0014093546 0.04188756 0.007037294 0.0019544056 0.032859482 0.010477204 -0.021257907 0.018197132 -0.015527902 0.041399326 0.01077143 0.02550854 -0.001180104 0.00031594 0.0043931864 0.00271771 0.00018543005 0.008178431 0.008655626 0.007349978 0.021388425 0.005999128 0.02519285 0.0024927966 0.05681698 0.028675398 0.018040724 0.035869222 0.03617498 0.030156987 -0.00038874615 0.008255636 0.005681017 0.009366973 0.006362658 0.005917494 0.04028785 0.00022373628 0.009753924 0.05261506 -0.0279283 0.0067211264 0.04246363 0.013041548 0.026775911 0.05461061 -0.024379056 -0.0031484785 0.028179597 0.021151979 0.014344713 -0.002509836 0.015930224 0.0069311624 -0.00071225036 0.009805791 -0.0010712445 -0.0003655115 0.03143771 0.013714724 0.0068287626 0.0075309714 0.006134961 -0.017245518 0.003033827 0.0118240435 0.0022610016 0.0426928 0.012693698 0.017984953 0.007652987 0.0072121727 0.035660528 0.012826137 0.0026280629 0.0037192414 -0.0001571998 0.016962297 0.03516741 0.009608393 -0.0018892363 0.022729106 -0.026300892 -0.02772278 0.038924668 0.004322647 -0.0022107288 0.02423229 0.012498807 -0.009330126 0.0043071574 -0.017618865 0.0010109376 -0.004499104 -0.0016222317 -0.019869272 -0.009512462 0.03180778 0.02872296 0.014399646 0.042858846 0.0062573142 0.018954914 0.0127444435 -0.017220257 0.00089211296 0.047615275 0.0015456472 0.022063926 0.008930078 -0.0055799 0.011539331 0.014905631 -0.0126296105 0.015340668 0.023303738 0.014034254 0.008032821 0.037873995 0.013786897 0.009232684 0.028766297 0.034572795 0.0020258138 0.014903348 -0.014240675 0.007695252 0.034513365 0.024769133 -0.005823656 0.009247165 0.0012350967 0.012926571 0.017717388 0.010223741 0.023930412 0.006830056 -0.017991269 0.031165477 0.015203305 0.0070094345 0.00826749 0.0026588095 -0.0028731134 0.018645037 0.043386385 0.025062902 0.0062903035 0.0063540544 0.015314797 -0.0033510365 0.0063871094 0.0030906824 -0.008844338 -0.0028471276 -0.014126237 0.012082297 0.0068178065 0.007488852 0.038839817 -0.022038314 0.006213637 0.009433245 0.016196191 0.014970547 0.006896366 -0.0013830923 0.0009882338 -0.004887133 -0.00068947487 -0.0026363712 0.009401422 0.009400234 0.03313494 -0.0022757738 0.0038592508 0.00040567294 0.012321498 -0.027275585 0.025313647 0.035035584 0.013596899 0.030450912 0.03693474 0.011032641 0.02322898 0.009110886 0.021668334 0.007149346 0.0069038356
doc_2 -0.055551827 0.144915 -0.033394437 -0.07864335 0.01641666 -0.025424287 -0.04052867 0.13589895 0.15785456 -0.061618764 0.146582 -0.050139308 -0.06262523 0.13319662 -0.06390526 0.15226361 -0.043233484 -0.056940995 -0.026421778 -0.061137363 0.15938497 -0.07568011 0.16262557 0.15180159 0.14725049 0.15301843 0.14303571 0.15580519 0.16330637 0.13264818 -0.06571094 0.14412124 -0.04249545 0.1550765 -0.013500159 -0.06974071 -0.06836767 -0.07014505 -0.06597882 -0.04234638 0.13098179 0.14107262 0.13555162 0.16204776 0.13403428 0.14035714 -0.08748267 0.15046647 0.14896274 0.13808383 -0.03188297 0.158191 -0.045683187 0.15646131 -0.047874074 0.2077973 -0.03249815 0.15298022 -0.052830875 -0.04773668 0.12002003 0.14295177 0.12622353 0.13630493 0.15759249 0.13260552 -0.050771505 0.16666178 -0.044931814 0.1368724 0.1232519 0.14004092 0.14005412 -0.040118936 0.14084637 0.1457064 0.14825419 -0.073290564 0.15303291 0.13327496 -0.05586929 0.16687045 -0.07812387 0.11766155 0.14400889 0.14086127 -0.06774269 0.14763975 -0.07022223 0.14031363 0.1414799 -0.057860464 -0.034430187 -0.030219728 -0.0632463 0.14994463 0.14669749 -0.03957122 0.16458362 -0.06063851 0.14441149 -0.025753906 0.14316773 0.13933589 0.15377955 -0.049120534 0.16937423 -0.042374976 -0.021431088 0.14524104 -0.030527173 0.14792223 -0.06429622 0.14659582 -0.02751351 0.15981828 0.099701695 0.15544854 -0.057216637 0.1560145 -0.064762935 0.14612947 -0.049727745 -0.04674028 0.22024876 -0.06453053 -0.02043791 0.14079471 -0.048155323 0.15484978 0.13169816 -0.06122272 -0.06553891 0.13985644 0.13725872 0.17120792 0.13530928 -0.07403768 -0.057644725 0.14687654 0.15898484 0.15302458 -0.034732446 -0.041065533 0.15351835 -0.0829448 0.15800716 0.10031168 -0.04233348 0.16293764 0.13567749 -0.049018614 0.1302509 0.15460658 -0.054499064 -0.06451187 -0.036119305 0.13383207 0.1328784 0.14330828 0.17793956 0.1494635 0.15015532 0.15279114 0.16704047 -0.0023670369 0.15244448 0.14695913 0.14331552 -0.07502317 -0.039074253 0.12801005 0.15923926 0.17196926 0.15318522 0.124306425 0.14771101 0.15621254 -0.0025650878 0.14092681 0.14480206 -0.061329443 0.16384755 -0.0613961 -0.008573368 0.15241826 0.13665278 0.13429512 -0.022201043 -0.048497282 -0.041697357 0.15383753 -0.077427566 -0.07355296 0.15941983 -0.061915375 0.13668998 -0.051473055 -0.06379088 0.16239111
doc_3 -0.06051269 0.1466484 -0.037862625 -0.081493214 0.014428632 -0.027069965 -0.03951014 0.13660643 0.15922685 -0.06460295 0.14540419 -0.052545108 -0.061482538 0.13164562 -0.059218623 0.15305738 -0.041835412 -0.05531233 -0.025952974 -0.06349889 0.16294178 -0.08124014 0.15904798 0.15137552 0.14688592 0.15169166 0.14689384 0.15628503 0.16800576 0.13529901 -0.07296616 0.14006591 -0.044534627 0.15393063 -0.016100705 -0.07299992 -0.06959289 -0.07745469 -0.07021623 -0.04679254 0.13057667 0.13993907 0.13805503 0.15969415 0.13877109 0.14035675 -0.094513215 0.15395953 0.15064049 0.1159386 -0.03257899 0.15294358 -0.040695556 0.15778239 -0.047058847 0.19968653 -0.037253365 0.15291691 -0.052329928 -0.046559572 0.12261737 0.1425458 0.12948962 0.13864426 0.15603237 0.13195954 -0.049275838 0.1629768 -0.04908698 0.13970381 0.12086387 0.14024077 0.13784792 -0.041001044 0.1410911 0.14804345 0.14730695 -0.085146576 0.15263192 0.1328042 -0.05404899 0.16656527 -0.089971505 0.11801535 0.14519784 0.14041206 -0.066954754 0.14814608 -0.076503344 0.14328033 0.14027871 -0.06063762 -0.034177493 -0.030193526 -0.059066 0.14916354 0.14889897 -0.04120318 0.1664236 -0.054396383 0.14288513 -0.026742982 0.14230916 0.13541731 0.1532271 -0.04817229 0.17493315 -0.047305893 -0.02863674 0.1497201 -0.033923 0.14534323 -0.062073223 0.14341326 -0.027987812 0.15977372 0.08832588 0.15330574 -0.064087115 0.15818493 -0.06803952 0.1493959 -0.044835944 -0.044791616 0.21307021 -0.061155498 -0.023688398 0.13830699 -0.052355975 0.15217754 0.1318718 -0.06666181 -0.07752195 0.13945903 0.1360463 0.17169811 0.13928236 -0.07655658 -0.06770712 0.14654669 0.15520613 0.15469645 -0.030315306 -0.04495247 0.15074383 -0.08262853 0.15652567 0.08068836 -0.038622074 0.16367269 0.13892508 -0.0495421 0.1317943 0.1523516 -0.05190298 -0.06880937 -0.036842544 0.1341192 0.13614672 0.14601475 0.17602447 0.14756015 0.15239991 0.15361479 0.1685427 -0.006568983 0.15307477 0.14950126 0.14202173 -0.07937553 -0.034034807 0.13115951 0.1578206 0.17145997 0.15225388 0.12784393 0.15022892 0.15609854 -0.0027306285 0.14095967 0.14611743 -0.06218184 0.1609476 -0.059419535 0.01575517 0.15373394 0.13826865 0.13388152 -0.024799157 -0.04602653 -0.042371526 0.15002955 -0.0821053 -0.0721362 0.15841214 -0.061025396 0.13595755 -0.046997495 -0.057959396 0.1597465
doc_4 0.0073832786 0.12142015 -0.038225807 0.06125272 -0.028910847 -0.025233453 -0.04315448 0.12609877 0.12765229 0.006715074 0.119281314 -0.019718088 -0.049522545 0.12421412 -0.0035801954 0.11766834 -0.033749882 -0.037592325 -0.03971098 0.030161442 0.11403324 -0.03360178 0.12302973 0.11539574 0.12663834 0.108855814 0.10924191 0.11644958 0.116245136 0.1070948 -0.014916645 0.1261373 -0.031230748 0.12375433 0.11036827 -0.026278885 0.08900772 -0.029025551 0.05180388 -0.018064525 0.119088314 0.119547635 0.117427506 0.122624926 0.11397196 0.12433833 -0.01406261 0.11142519 0.12204279 0.119486235 -0.045101803 0.11558676 0.038470335 0.12340427 -0.0336462 -0.06055351 -0.038247738 0.12791592 -0.002229996 0.045769997 0.119966656 0.10701245 0.12502563 0.12236718 0.119744286 0.10799736 -0.021837814 0.12439904 -0.032793555 0.12923206 0.11747073 0.1175788 0.12235433 -0.0420204 0.123030394 0.12388629 0.1134124 0.0024573947 0.118296236 0.113358706 -0.040558457 0.12595569 0.05277681 0.12543912 0.12136566 0.10855028 -0.041748345 0.11683611 0.017940342 0.121913455 0.129541 0.026904255 -0.035935037 -0.0430918 0.011737306 0.1173062 0.11847924 -0.034608155 0.12580673 -0.05078853 0.119994186 -0.030031493 0.12406053 0.11898492 0.12329781 -0.044583865 -0.033644125 -0.02873443 -0.027406443 0.10912331 -0.0058485274 0.12909332 0.0014081523 0.12046714 -0.041335907 0.11502836 -0.06535749 0.1261555 -0.028474096 0.12723349 -0.03957441 0.119862705 -0.040079422 -0.044492453 -0.014004502 0.011181677 -0.051163986 0.118347324 -0.024026543 0.12445605 0.12430605 0.042331252 0.040575966 0.12681371 0.11929791 -0.044182595 0.11661062 0.007261702 0.013494758 0.12266138 0.1191075 0.1238091 -0.017170174 -0.036201186 0.120949395 -0.031915475 0.12007435 -0.031171873 0.05954784 0.13260354 0.12318438 -0.03157341 0.11301644 0.11798987 -0.04010814 -0.014944327 -0.04206744 0.11779629 0.10977294 0.11800971 0.116436325 0.11980416 0.12746735 0.12717 0.12834682 -0.03934595 0.11512279 0.116835594 0.116021916 0.054486334 -0.037718523 0.117467776 0.1232599 0.10626245 0.11472238 0.1268916 0.12416112 0.12269372 -0.029813794 0.12379585 0.12639499 -0.03459589 0.11993037 -0.026616707 -0.03978901 0.12304455 0.11711678 0.112172395 -0.042374697 -0.030382542 -0.033925682 0.11921278 -0.032146234 -0.031001104 0.120295286 -0.025419734 0.12158282 -0.036955632 -0.043502428 0.118040875
doc_5 -0.07814014 0.15564187 -0.07739183 -0.06410399 0.031282045 0.03306375 -0.08644549 0.13390252 0.17572145 0.036619913 0.1424872 -0.06796462 -0.075245105 0.16172937 -0.036777817 0.15259501 -0.06829368 -0.07578844 -0.07751025 -0.05533257 0.14989685 -0.066092715 0.14382316 0.15126257 0.12469379 0.10701416 0.0991907 0.17340945 0.16801216 0.15753102 -0.057378978 0.16693856 -0.087097555 0.12110335 0.08253026 -0.065468274 -0.06557973 -0.056382112 -0.091600366 -0.075855464 0.15175639 0.1780943 0.18273765 0.14975815 0.17167245 0.16857705 0.002527178 0.11588493 0.14241473 0.19406825 -0.10064148 0.13305375 -0.06460455 0.14805943 -0.062489364 0.13819288 -0.09728227 0.17182185 -0.09163707 -0.03340464 0.14568973 0.18568574 0.16827819 0.1484236 0.13177319 0.17117302 -0.09397601 0.14794633 -0.09066869 0.118110836 0.15600324 0.17756063 0.14315821 -0.09852337 0.17002364 0.116761625 0.09916051 -0.07286214 0.17807978 0.16095793 -0.106004424 0.16127269 -0.03904517 0.18094663 0.15726876 0.1564391 -0.11016174 0.13320792 -0.08392297 0.19773912 0.15456086 -0.07832059 -0.1015678 -0.07544597 -0.0505918 0.14560375 0.12417027 -0.055231147 0.1418789 -0.1051883 0.16902995 -0.064832576 0.17168409 0.11351283 0.1762632 -0.12230625 -0.024631862 -0.07089345 -0.05006222 0.14477545 -0.0780381 0.18590146 -0.0676164 0.1332504 -0.0828746 0.13863386 0.14197284 0.13690278 0.055195704 0.12152635 -0.087904796 0.15843847 -0.11732354 -0.082101926 0.22289546 -0.06722922 -0.11001417 0.1436836 -0.047504768 0.13588588 0.14791301 0.061250616 0.05604994 0.17230482 0.14313123 -0.010243434 0.1699521 -0.06369673 -0.06837786 0.18496993 0.16278741 0.14724082 -0.051681835 -0.06647863 0.17599675 -0.08713383 0.17249192 -0.054508008 -0.057161365 0.14879148 0.19942921 -0.09030631 0.18081659 0.14666106 -0.06880436 -0.04332431 -0.064493306 0.17452206 0.17241763 0.16269772 0.12455138 0.14268929 0.18075977 0.14707586 0.14032778 0.06919573 0.16063824 0.17060338 0.1737435 -0.056705263 -0.08926077 0.14333005 0.1667772 0.114922084 0.12237252 0.17151128 0.1681999 0.16994984 -0.027997136 0.14410059 0.17598407 -0.06990618 0.18579997 -0.07354953 -0.015598095 0.14640331 0.16143514 0.16846654 -0.10123931 -0.06416219 -0.07535371 0.10361381 -0.08546388 -0.07287217 0.1614327 -0.06698256 0.16422968 -0.08357601 -0.099307746 0.14198942
doc_6 -0.060355842 0.0868179 -0.016452013 0.013669204 -0.05222875 0.11701799 0.00924866 0.08561863 0.11572796 -0.016565768 0.095972136 -0.020245034 -0.12113576 0.07832663 -0.023021188 0.060168736 -0.07365019 -0.035697818 -0.0875383 0.06000816 0.01588245 -0.07951823 0.044543386 0.082287945 0.08255199 0.035583027 0.028919106 0.112091504 0.08635043 0.09741585 -0.0027644762 0.11107112 -0.008486208 0.058398504 -0.030181851 -0.0052307337 -0.025147535 0.005611104 -0.012591048 -0.008370959 0.109992385 0.091715 0.1175131 0.04733076 0.11492316 0.08341863 0.058593925 0.02882758 0.10247245 0.14529085 -0.09285363 0.044414483 -0.046660453 0.022137413 -0.0328761 0.2240263 -0.07907375 0.112156704 -0.008502179 -0.022179624 0.105155 0.10176031 0.07022187 0.091194466 0.084644206 0.078810595 -0.047874145 0.089120954 -0.030016586 0.076832145 0.1100092 0.11173031 0.10767341 0.003636593 0.08306322 0.021998547 0.021590607 0.05733934 0.095806144 0.10792917 -0.1069637 0.07606093 -0.040161584 0.0944295 0.09644198 0.10637496 -0.09640956 0.047417115 0.017545445 0.10362912 0.09174697 -0.019914156 -0.09320409 -0.044437993 -0.010973112 0.03151005 0.029105663 -0.0076018963 0.07017967 -0.11603718 0.107201114 -0.08001548 0.12379622 0.08447044 0.1073565 -0.14723928 -0.038864825 0.0020685527 -0.004828395 0.0882298 0.033709593 0.10030524 -0.04934018 -0.0065326956 -0.08891176 0.062012903 0.14350931 0.03666699 0.044682015 0.042657986 -0.08806414 0.058608808 -0.041841608 -0.081116304 0.28090233 -0.037637226 -0.0016892535 0.09168021 0.0050222315 0.047557376 0.078361064 0.05606112 0.01780721 0.085114226 0.11910677 -0.036882073 0.13497515 -0.07005978 -0.0063286284 0.12221584 0.077895775 0.05675256 -0.056273874 -0.020475442 0.11382989 -0.06250539 0.0911222 -0.04983875 -0.0014156841 0.047968164 0.10157622 -0.06995466 0.106764935 0.04215747 -0.051994696 0.051395353 -0.053349245 0.09321078 0.09051343 0.1526648 0.061352164 0.102738045 0.11113555 0.03324631 0.08368417 0.051536433 0.0923346 0.108296044 0.12508227 0.03178911 -0.07778001 0.10003857 0.10688783 0.028723504 0.07227161 0.09875252 0.09211072 0.0552034 -0.066646054 0.10167591 0.09426656 -0.052515157 0.095929034 -0.069129236 -0.03882596 0.08175105 0.113610044 0.098940775 -0.09560555 0.018126693 -0.03093692 0.04961136 -0.045492403 -0.008235624 0.09404674 -0.047667038 0.08546249 -0.07315612 -0.098967224 0.050902303
doc_7 0.0054634428 0.08173071 -0.018311035 -0.014769248 -0.007132991 -0.024488227 -0.022031447 0.0809372 0.07567263 -0.009096291 0.07897452 0.0006134085 -0.029324658 0.07537469 0.015059964 0.07543956 -0.02268293 -0.004306625 -0.030576237 -7.768639e-05 0.075254045 0.006632183 0.06990674 0.068969294 0.08279247 0.07033991 0.061475113 0.06919564 0.081863694 0.0825203 -0.008952855 0.07818686 -0.024445493 0.07510848 0.08401665 0.0013594363 -0.008016909 0.010505251 0.0006833975 0.024876313 0.08275762 0.07844024 0.084346786 0.08022895 0.079084165 0.07528644 -0.0069248956 0.060516644 0.085510485 0.0006435815 -0.03409033 0.08556994 -0.0004597368 0.08150943 -0.008312556 0.051304877 -0.022682514 0.066019684 -0.0020270518 0.006155856 0.08088372 0.072365806 0.08734168 0.078182034 0.07806298 0.075469926 -0.035021435 0.074842356 -0.02368635 0.07362614 0.07580347 0.0772707 0.07976758 -0.03033929 0.07992135 0.08289265 0.072600216 -0.0023391647 0.0760284 0.08030799 -0.031523734 0.07926449 0.04943137 0.07775506 0.077067435 0.07206851 -0.020438192 0.08047869 0.013939873 0.085555 0.074111775 -0.019437993 -0.03572621 -0.034989685 -0.008222748 0.08084732 0.07154046 -0.02690452 0.08609751 -0.03806482 0.07843212 -0.028905187 0.07590056 0.07847243 0.08220986 -0.040007066 -0.010705238 0.0057811737 0.021920223 0.07914948 0.025105616 0.08492381 -0.0144840265 0.078675844 -0.033973746 0.0767726 0.069177136 0.07142443 -0.016574921 0.07579001 -0.035474323 0.076524645 -0.028878972 -0.029152995 0.019584807 -0.011261295 -0.03585283 0.08218221 -0.0036852248 0.07224838 0.07995065 -0.0046648732 0.024215432 0.07719007 0.08150541 -0.0034097647 0.082117796 0.026763663 -0.0031409608 0.07443513 0.090829805 0.08168904 -0.01958827 0.014979677 0.07290124 0.00767888 0.08091782 0.028423313 0.0060450053 0.06934277 0.08085064 -0.035768535 0.08071371 0.076999225 -0.024352156 0.031810332 -0.026910495 0.081088774 0.080823354 0.07879607 0.07509528 0.0773338 0.07568362 0.068627305 0.0656903 -0.014527317 0.08066843 0.08572655 0.078138076 -0.0037671574 -0.032363474 0.08168133 0.0798528 0.07291625 0.07561294 0.06821451 0.0753393 0.08228994 -0.00810575 0.07404663 0.0743834 -0.02526218 0.07395017 -0.0010450834 0.034776464 0.07941897 0.0767984 0.077584326 -0.03625676 0.006614376 0.01823435 0.07323912 0.0028786787 0.022491826 0.07938277 -0.0049040522 0.07947795 -0.018896522 -0.026749274 0.07430231
doc_8 -0.0047263186 0.09625782 -0.032283757 0.008950262 0.006377547 -0.0015357896 -0.04734078 0.09187369 0.099408284 -0.0021652342 0.09900779 0.002633696 -0.033964474 0.09519941 0.018717587 0.10939749 -0.03147942 -0.033863883 -0.03446541 -0.0031155257 0.10250181 0.0017365927 0.09310146 0.094372384 0.09524908 0.10548678 0.09367195 0.09827947 0.102530554 0.09751766 -0.019663919 0.10522114 -0.009200841 0.103940375 0.033268787 -0.009520344 0.0036012568 0.0025885333 0.004758437 -0.010645952 0.1022874 0.095570914 0.10031793 0.10069331 0.09787872 0.103869796 0.010846407 0.098125175 0.10812988 0.11315095 -0.044313267 0.10591676 -0.02171691 0.09875678 -0.016511854 0.07089809 -0.044341687 0.10328408 -0.017441554 0.0135857 0.095635384 0.09416442 0.10537091 0.09860337 0.104297705 0.09342946 -0.042766888 0.10198335 -0.017283924 0.10021362 0.10039208 0.10363356 0.09663062 -0.044099685 0.09649282 0.10663613 0.1016226 0.0010490704 0.09407659 0.09822202 -0.030920934 0.09727101 0.0045655146 0.10376794 0.10061315 0.10759258 -0.030380655 0.096422225 -0.0015449203 0.098640166 0.102618635 -0.012542651 -0.041751586 -0.04098975 0.019391254 0.098038234 0.09848931 -0.0074016713 0.09722158 -0.040697325 0.102593146 -0.04052564 0.09957972 0.0992304 0.09730215 -0.050488267 -0.0067684487 -0.011021202 0.0076364554 0.105476834 -0.014653427 0.104905464 -0.014388711 0.09824038 -0.039748255 0.10196527 -0.00034171034 0.09631777 -0.01917952 0.104490355 -0.034262016 0.100412905 -0.03667491 -0.04954322 0.14679581 -0.0008337889 -0.03932955 0.093975134 -0.009690466 0.10824582 0.09649479 -0.008787507 -0.011422635 0.09649847 0.09931082 -0.02875102 0.103603564 -0.0030888538 0.0002776584 0.09807139 0.099527925 0.09051629 -0.028757935 -0.028213985 0.09318691 0.00038367056 0.10290662 -0.02875502 -0.014756261 0.11122394 0.10046984 -0.035806358 0.100825265 0.10012064 -0.035507347 -0.011973359 -0.026101869 0.099109456 0.09261533 0.09864582 0.09901984 0.101286165 0.10284519 0.088476345 0.09669693 -0.00019104482 0.10259818 0.10275491 0.108436756 -0.008886755 -0.043126732 0.100862995 0.09961137 0.10389734 0.098386146 0.09685674 0.10047936 0.10646975 -0.019681174 0.09610597 0.09625601 -0.027559888 0.09799509 0.0029378643 -0.01205971 0.09636387 0.10265692 0.09689662 -0.04957184 0.0095124515 -0.007713107 0.0977994 -0.011729074 -0.014186065 0.106032 -0.0045419526 0.10320206 -0.020944837 -0.02113587 0.100786515
doc_9 -0.049320042 0.15913124 -0.001117038 0.015080985 -0.0004234731 -0.038606748 -0.026549092 0.09806167 0.17134917 0.047583133 0.14945103 -0.009219077 -0.08642888 0.19686955 0.06657896 0.15660474 -0.07786382 0.026915174 -0.093060195 0.018016929 0.10560298 -0.022404948 0.10547885 0.1634244 0.1524241 0.098628655 0.094007775 0.16187274 0.15335418 0.1633038 0.054766145 0.15555853 0.1371765 0.12112316 -0.042185396 0.04130764 0.036746833 0.03657281 -0.012238345 0.08657899 0.17643778 0.18804094 0.16546968 0.13537578 0.16996695 0.14549914 0.16971558 0.10650157 0.17342834 0.041860353 -0.09974925 0.12473397 -0.025311416 0.14131963 0.047650952 0.053649537 -0.1122764 0.14382446 0.104094766 0.055110715 0.17362836 0.1678371 0.164238 0.19763108 0.14423354 0.15267515 -0.053577986 0.16335063 -0.058230627 0.13156766 0.18783833 0.17720787 0.1413599 -0.015579482 0.16250624 0.105616495 0.112030886 0.039363172 0.14534211 0.17992474 -0.021024304 0.12261967 0.060510334 0.16470543 0.15870327 0.16046219 -0.0076060575 0.12476471 0.096986406 0.1853361 0.15769169 0.12472972 -0.09948436 -0.10948331 0.03450005 0.13934468 0.122178145 -0.0034385473 0.15858956 -0.05839879 0.1784044 -0.093178615 0.13707097 0.13817152 0.16723706 -0.11530684 -0.033152062 -0.0005087468 0.07369297 0.17488213 0.046816297 0.16711086 -0.014142064 0.1175551 -0.10377425 0.123326525 -0.05208615 0.12135 0.15260355 0.1257634 -0.061705757 0.116567425 0.031667225 -0.1030492 0.20733307 0.012240088 -0.03261947 0.17971879 0.0054626283 0.11829501 0.14937319 0.05989897 0.0292934 0.1712207 0.15455087 -0.06990496 0.16281594 -0.0602818 0.05578601 0.17787847 0.16422798 0.12968774 -0.077160105 0.03121258 0.16643453 0.10780198 0.16435765 -0.076024845 0.026649209 0.13186985 0.18274082 -0.08821394 0.19293776 0.12533627 -0.010614338 0.039206803 -0.032494113 0.18276371 0.17685622 0.1875612 0.1375043 0.17371799 0.15521374 0.12389873 0.12212796 -0.025649982 0.17054619 0.1791443 0.1573013 0.12216972 -0.10957944 0.18581153 0.18260597 0.05129843 0.14225516 0.18058038 0.18287787 0.15683112 -0.06380828 0.15992329 0.17905755 -0.03617339 0.15709738 -0.0410426 -0.029382534 0.14959025 0.15152 0.17966826 -0.10861654 0.040590085 -0.01708359 0.11640928 0.03920932 0.03335213 0.12993605 0.050372045 0.16562738 -0.04925298 -0.07224028 0.08171303
doc_10 0.016659342 0.051159643 0.002172973 0.0076471874 0.02755006 0.009679584 -0.0173416 0.048393387 0.047869544 0.00861002 0.048413754 0.008590301 -0.014302392 0.044477332 0.03092727 0.044922296 -0.018137392 -0.010793653 -0.018230893 0.0075569386 0.052326404 0.009299504 0.05231027 0.043662876 0.048920583 0.057532847 0.048203785 0.044102583 0.04525509 0.04431011 0.002769765 0.049825057 0.0008271724 0.052011933 0.03648719 0.0024988605 0.012645157 -0.0015250884 0.005805188 -0.012644576 0.04615156 0.049926586 0.045819055 0.050307304 0.04688883 0.047784626 0.0198062 0.053818572 0.0520095 0.08601745 -0.023568962 0.05080081 0.0058299126 0.046691336 -0.0001429927 0.054925185 -0.023371618 0.048919674 0.0127868075 0.007816567 0.04679981 0.04889346 0.04689668 0.04590762 0.05098314 0.04911602 -0.023824515 0.04672241 0.014252727 0.04908583 0.05207214 0.04765859 0.046431705 -0.023044594 0.050341744 0.049303275 0.054393332 0.014913145 0.050729323 0.049863137 -0.017142387 0.046125196 0.013506186 0.049517993 0.046996254 0.053347576 -0.012730928 0.053471304 0.010201734 0.05014028 0.04569243 -0.011944578 -0.022165855 -0.014472 0.0117098605 0.048630536 0.052315548 -0.0029695728 0.04884433 -0.018061696 0.04719616 -0.0076190056 0.049596764 0.05029506 0.04880833 -0.02623598 -0.011490111 0.011862855 0.008873789 0.05036111 0.0056833103 0.04537754 0.0057736468 0.046163127 -0.022516979 0.04521825 0.024077548 0.052507933 0.009087956 0.048303116 -0.009486541 0.052493233 -0.010999236 -0.016754488 0.09880561 0.0005855544 -0.010273667 0.04903262 0.014758159 0.054780625 0.044406638 0.016345086 0.012524418 0.04872621 0.04615189 -0.001238415 0.045617644 0.023155589 0.007006409 0.04450238 0.04754453 0.0495728 -0.015773086 -0.002394818 0.049185563 0.009161458 0.049172778 9.636156e-05 -0.0016948684 0.050574735 0.051465638 -0.0135485465 0.04970651 0.051478203 -0.009002414 0.0058493013 -0.006493854 0.04545716 0.043652907 0.047244824 0.053085364 0.044887144 0.049442958 0.04326292 0.04509666 0.026731644 0.048196975 0.051373977 0.04757673 0.0015068585 -0.019375246 0.051510945 0.045391247 0.057837073 0.054196857 0.049617417 0.050446954 0.051682424 0.006242479 0.05017584 0.050572403 -0.009098647 0.04835981 0.016984634 0.03279266 0.046934124 0.04540534 0.046693955 -0.023852339 0.008417378 0.01599128 0.04675633 0.016723676 -0.0006324799 0.048531223 0.014472367 0.04490861 -0.0055325422 -0.011733668 0.05043629
doc_11 -0.15355861 0.29686043 -0.14732248 -0.14078987 -0.08093508 -0.09886615 -0.14976631 0.22934707 0.3376895 -0.16150375 0.28697863 -0.16700591 -0.14902931 0.3130836 -0.07322639 0.30185664 -0.11488501 -0.061381962 -0.12873337 -0.12767604 0.24841262 -0.13490522 0.26223397 0.28941473 0.28375134 0.171315 0.21403162 0.31447345 0.31341442 0.332079 -0.14826454 0.28495237 -0.15958858 0.24534057 -0.02111638 -0.13379546 -0.14235497 -0.164084 -0.17130934 -0.16420814 0.31485394 0.3401635 0.2880955 0.2699273 0.31722194 0.3148779 -0.17153054 0.18995747 0.292386 0.05866786 -0.16040546 0.25015408 -0.15463775 0.2688721 -0.15717995 0.05683522 -0.13885312 0.31518418 -0.15103073 -0.1512257 0.33377525 0.300606 0.3041794 0.32362363 0.25696534 0.29597828 -0.13022645 0.26810098 -0.1481345 0.26793042 0.33396345 0.31790498 0.32082754 -0.15928702 0.31934112 0.24536814 0.20113344 -0.17331675 0.275836 0.33601058 -0.16976479 0.274639 -0.06710686 0.33577546 0.28965855 0.32618883 -0.15353446 0.24283643 -0.15608689 0.31666267 0.3112059 -0.16015281 -0.14046262 -0.11963557 -0.1589997 0.28870392 0.26296484 -0.13966511 0.31265256 -0.16074495 0.31927067 -0.1368644 0.2688272 0.29518107 0.31756604 -0.15835744 -0.097706966 -0.15322658 -0.15887591 0.30903432 -0.17244136 0.33047378 -0.10339454 0.24055114 -0.10581281 0.2839701 -0.0003440093 0.25439116 -0.1310298 0.25373453 -0.15599093 0.24364002 -0.16246702 -0.14083084 0.07293485 -0.1595219 -0.15717876 0.32107872 -0.15994996 0.25802076 0.27484986 -0.11897313 -0.112155005 0.3336601 0.3165899 -0.08683323 0.30306363 -0.16389792 -0.13117643 0.31839007 0.2797949 0.2855293 -0.1373673 -0.1600987 0.3263578 -0.15774432 0.32366928 -0.10334242 -0.08242722 0.286386 0.30342117 -0.15642993 0.30726016 0.26038674 -0.1513178 -0.10396451 -0.1488893 0.3186956 0.323351 0.31621087 0.23838969 0.32704923 0.28935212 0.23671228 0.26448545 -0.07852732 0.29413936 0.3248179 0.2956933 -0.13815662 -0.1073969 0.33904177 0.3066168 0.09118864 0.21951576 0.30559257 0.30103323 0.28489867 -0.104787685 0.31601262 0.33552986 -0.16782698 0.29651904 -0.12903602 -0.06877981 0.26926023 0.3191876 0.3181237 -0.11286082 -0.1339561 -0.16565311 0.22822574 -0.16246189 -0.14994688 0.28864455 -0.13079081 0.32633284 -0.13322029 -0.15387718 0.22585182
doc_12 0.048355833 0.015443282 -0.023414697 0.068444476 0.11129717 0.0013362527 -0.062633276 0.012610638 0.04365802 0.094619446 0.013662973 0.10729604 0.016883446 0.050789263 0.08656172 0.017915621 -0.0693396 0.020352604 -0.07088706 0.10501176 -0.006071384 0.05325046 0.014509805 0.020311065 0.016109023 -0.00021216972 -0.022133859 0.0067088064 0.027356938 0.059652504 0.091889516 0.053425413 0.09036076 0.015227322 0.01684688 0.037967507 0.07193515 0.06195557 0.08333278 0.024572257 0.027836123 0.05274237 0.06290329 0.037863962 0.047103815 -0.0013457155 0.10802235 0.0033116569 0.02184009 0.16914374 -0.08672902 0.019656371 0.033986576 0.0074532186 0.042081144 0.20294899 -0.083377644 0.041343734 0.07783506 0.013268378 0.042633455 0.052037053 0.034230758 0.025615262 0.045929547 0.022833599 -0.076887116 0.01700222 0.055768702 -0.016316634 0.056326233 0.060272556 0.02636819 -0.101209395 0.046683617 0.0021236646 0.014176778 0.08378506 0.01548323 0.036093455 -0.0023890575 0.01939307 0.061494045 0.06313969 0.04285835 0.03624951 0.022881761 0.016942447 0.09154593 0.052505992 0.015390157 -0.0518793 -0.09136019 -0.070257686 0.07327151 0.029419944 0.029181173 0.07562096 0.006122359 0.008173512 0.051643874 -0.0633371 0.01876189 0.03248343 0.029458383 -0.091057315 -0.021683132 0.1164276 0.010567906 0.044361927 0.0881847 0.056213114 0.085003 0.0206651 -0.06629496 0.003921843 -0.003172054 0.027384335 0.11385524 0.0043721744 0.008957449 0.0039813854 0.026944533 -0.103443965 0.22638893 0.062572286 -0.063453056 0.043716867 0.048361942 0.014888875 0.03027399 0.13130568 0.11110637 0.07642232 0.022151591 -0.0236306 0.056263305 0.0409099 0.076789394 0.03169277 0.035618026 0.0231023 -0.060945876 -0.037531476 0.043573417 0.030598402 0.054842178 -0.053587683 0.08588837 0.037633475 0.06501325 0.059962902 0.049020912 0.008006743 0.019297991 0.06303671 0.04315007 0.04522404 0.043956775 0.058573972 0.011981228 0.031150185 0.025421092 0.0070471447 0.011880888 -0.04934748 0.02175479 0.03692487 0.04334896 0.07643174 -0.07930702 0.06283774 0.05425703 0.041358814 0.0068693296 0.038611613 0.03239728 0.03940286 -0.031388342 0.042309012 0.03431147 0.024200354 0.046124525 0.05042138 -0.028190203 0.005439799 0.030212523 0.05762489 -0.09378119 0.09854494 0.05945202 -0.011982925 0.049220294 0.08238982 0.032098927 0.04800852 0.035492897 0.016791433 0.013426137 -0.030784454
doc_13 -0.057313446 0.121878855 -0.064962626 -0.05236977 -0.007965842 -0.06498045 -0.042216685 0.13487282 0.12986034 -0.0352074 0.12956923 -0.018380284 -0.052882783 0.124803334 -0.015271183 0.117751025 -0.045089684 -0.03737121 -0.04027728 -0.033487655 0.11721765 -0.028368048 0.13729118 0.12635955 0.124388345 0.13482441 0.12715332 0.11553074 0.12393307 0.1227979 -0.04364891 0.1074745 -0.045448612 0.11638067 0.026725069 -0.018452333 -0.041590285 -0.023047518 -0.016137727 -0.059027076 0.13411652 0.12778664 0.12555443 0.13137183 0.1301218 0.138473 -0.031216012 0.12162485 0.117624365 0.11625892 -0.055429798 0.13391735 -0.055516876 0.13099164 -0.03988663 0.09056081 -0.042257782 0.1347514 -0.04049139 -0.050671738 0.12972826 0.120724194 0.11772927 0.11287343 0.12846501 0.10633923 -0.06606917 0.13618626 -0.039750826 0.13221341 0.12081874 0.13179967 0.12614033 -0.06047237 0.13316952 0.13969007 0.13071181 -0.032809593 0.13497391 0.12322842 -0.06150944 0.13914561 -0.04016393 0.118124716 0.11910833 0.14056578 -0.051414113 0.13391061 -0.01959886 0.12562308 0.115506604 -0.060442407 -0.054537367 -0.049849782 -0.043045804 0.13224149 0.111265525 -0.025463417 0.11864888 -0.055628818 0.13130137 -0.044775497 0.1355533 0.12112941 0.13514405 -0.063968785 0.08283861 -0.03179275 -0.05820164 0.12685606 -0.03184669 0.12370623 -0.051019818 0.13691938 -0.033805564 0.13053285 0.034766812 0.12391491 -0.040872335 0.1329844 -0.057787716 0.12976 -0.07239992 -0.037865076 0.17993158 -0.056869317 -0.055613693 0.13310663 -0.019385476 0.12064801 0.13332348 -0.0532606 -0.04162884 0.11681033 0.13226424 -0.020040764 0.13722004 -0.055701062 -0.036934488 0.13531375 0.12804323 0.12744415 -0.04995963 -0.056809895 0.121656254 -0.048556194 0.11966703 -0.038980223 -0.041690305 0.13566199 0.11881298 -0.05414684 0.12670276 0.13081284 -0.0569873 -0.06359725 -0.04925912 0.13279824 0.13122973 0.119611554 0.12897924 0.13012664 0.13660437 0.14254823 0.14206024 -0.038319975 0.12886328 0.13386208 0.13383472 -0.037010163 -0.042412687 0.11656099 0.13060465 0.14593905 0.11783488 0.12897211 0.1206104 0.13387081 -0.035614613 0.12357958 0.13297999 -0.034397356 0.13942145 -0.052305292 -0.03999778 0.12942758 0.12500188 0.13740093 -0.051168818 -0.027235184 -0.052974377 0.131616 -0.045903567 -0.02898128 0.11926239 -0.040222473 0.12612055 -0.045360945 -0.05784075 0.11646808
doc_14 -0.0034512593 0.07420327 -0.014397667 -0.0076199896 0.0039881067 0.031820454 -0.013755718 0.087111846 0.07176176 0.014407048 0.07550013 -0.02390995 -0.023978593 0.05025795 -0.011103614 0.06738463 -0.017429609 -0.015145065 -0.015042437 0.007975824 0.07252619 -0.017620247 0.0837422 0.07209883 0.079569936 0.07418853 0.07442714 0.06825389 0.07495098 0.062883854 -0.010406011 0.070786476 -0.020724043 0.07087727 0.084800035 -0.008714478 -0.014639778 -0.01015375 0.01717972 -0.012691558 0.06266254 0.058924943 0.0662698 0.08109624 0.079273924 0.08755152 -0.0027276822 0.074478075 0.063193664 0.06797567 -0.02852824 0.07398142 -0.0013308888 0.06865436 -0.018228061 -0.04039846 -0.0135358935 0.0688075 -0.007713221 0.0062284465 0.063477464 0.068812765 0.07703213 0.067800514 0.07738896 0.06737326 -0.018893488 0.07341568 -0.024228407 0.0797394 0.0770434 0.07623772 0.07522773 -0.017383393 0.0690798 0.09026561 0.080701366 0.0022393726 0.08212274 0.07877921 -0.022772834 0.08687638 0.020520791 0.075284556 0.08253307 0.06500906 -0.020644221 0.07891028 -0.016210563 0.07547912 0.06752239 0.0029822364 -0.019314764 -0.015415662 0.0021665245 0.08033922 0.07985203 -0.017926577 0.08354726 -0.022771746 0.06789444 -0.016671512 0.0694868 0.07843007 0.060461394 -0.020751927 -0.011774083 -0.0047235666 -0.0055880384 0.08439095 -0.022596905 0.07401592 -0.02347895 0.082083836 -0.008853498 0.075948104 -0.03864968 0.070853084 -0.013085796 0.07890731 -0.016855258 0.09481128 -0.02560379 -0.028237568 0.045687333 -0.01739949 -0.015757835 0.07395528 -0.018749272 0.06867132 0.07741159 0.011802081 -0.012240638 0.080402195 0.0705127 -0.011743507 0.06018828 -0.021210458 0.0118048545 0.0781582 0.08888054 0.07030294 -0.011263889 -0.021155693 0.079186395 -0.009099467 0.080410406 0.05160626 -0.008286563 0.08184897 0.07612663 -0.03215248 0.060405575 0.07395314 -0.017813131 -0.013621721 -0.023050625 0.07025208 0.0681612 0.0670549 0.06410896 0.0718129 0.06584111 0.08414665 0.081386134 -0.030132618 0.085780784 0.07821764 0.07113754 0.01981439 -0.018878095 0.067751095 0.07097651 0.07740753 0.0801336 0.07225042 0.07457546 0.078271426 -0.012123188 0.06961006 0.07853271 -0.020368826 0.05364295 -0.024412114 0.048630707 0.073894516 0.06944841 0.085105136 -0.030230382 -0.01230732 -0.011012553 0.0734195 -0.019717593 -0.012406975 0.06761703 -0.01596773 0.07869334 -0.027722135 -0.01982344 0.07910249
doc_15 0.03551913 0.07912078 0.01491133 0.022265498 0.02584513 0.023799954 -0.035772566 0.079103395 0.09077444 0.06648982 0.093911916 0.046400383 -0.03924777 0.0947242 0.046780474 0.09585255 -0.069014385 -0.010561082 -0.06477788 0.07389145 0.0808792 0.027267775 0.09469545 0.0956573 0.08199687 0.07696296 0.07071581 0.09567764 0.08917245 0.09677187 0.02734407 0.095070235 0.006861861 0.08325114 0.009510397 0.011205207 0.028817032 0.017430855 0.038621243 0.017288756 0.085086115 0.10262194 0.0965288 0.09024899 0.10047246 0.087762326 0.07112111 0.07380992 0.09819087 0.14209148 -0.07898028 0.09819385 0.04209975 0.08280212 0.012689056 0.16950643 -0.074205756 0.08886075 0.03836479 0.049580827 0.09859362 0.09161779 0.097688965 0.09753055 0.084642135 0.09329981 -0.016091758 0.089057215 0.023332274 0.07827036 0.08884998 0.09724152 0.08444488 -0.049549635 0.099405825 0.08319257 0.07598191 0.07079334 0.087471396 0.09813817 -0.03391531 0.092708424 0.046524085 0.10185355 0.09185368 0.09720931 -0.03632614 0.08942262 0.06448086 0.09585666 0.08201941 -0.018684104 -0.08039782 -0.07271409 0.022286428 0.087502144 0.08119348 0.009810319 0.08967746 -0.050413556 0.10819511 -0.07487053 0.099272884 0.08321761 0.08935917 -0.095436044 -0.022881042 0.042243917 0.04686606 0.09661359 0.034611784 0.10547437 0.024735268 0.07090227 -0.079196334 0.082739085 0.09443097 0.082371764 0.05187617 0.08510722 -0.019867824 0.08527243 -0.017354526 -0.045665544 0.22764993 0.0048296335 -0.024211545 0.08422894 0.03915073 0.08944111 0.07934099 0.074449524 0.051113673 0.0989805 0.09609373 -0.028233172 0.09799692 0.03807885 0.023858096 0.09858629 0.0905716 0.0769065 0.005853527 -0.010965381 0.09924389 0.015737176 0.09961047 -0.013886064 0.029885106 0.08482592 0.10189511 -0.028448656 0.096772715 0.08429519 0.012993581 0.053716548 0.0161825 0.0957264 0.08886043 0.10053411 0.08578859 0.08525899 0.09024281 0.07609198 0.08554688 0.05785828 0.09723858 0.0958917 0.098176934 0.03483835 -0.05585993 0.103663266 0.097125314 0.10782302 0.08153477 0.097474925 0.09755491 0.10149958 -0.043910664 0.09431826 0.089221366 -0.010409498 0.09938272 0.017576458 0.0029035402 0.09053227 0.08999754 0.101424426 -0.082864664 0.03302381 0.04109951 0.084098704 0.02418004 0.012625026 0.09156008 0.024209848 0.082023755 -0.008379291 -0.015857302 0.08208965
doc_16 0.05363738 0.0923683 -0.0577607 -0.016045507 0.012949203 0.009492165 -0.059729606 0.06503386 0.13544512 0.054221362 0.091076404 0.068846844 -0.07940461 0.118684635 0.021709368 0.091614224 -0.085882686 -0.031347908 -0.077080116 0.07944853 0.078505896 -0.023679204 0.08153195 0.10507604 0.09753391 0.059232876 0.07416672 0.11480758 0.10845846 0.1299979 0.0795937 0.10645327 -0.02865906 0.072790615 0.033305403 0.068614624 -0.016218133 0.08371453 0.018960537 -0.039045043 0.12015292 0.14905703 0.13031426 0.1195251 0.14021479 0.13325341 0.077568166 0.043521866 0.108686045 0.044683766 -0.09613738 0.08878288 -0.0044552535 0.094952 -0.020028662 0.048695404 -0.087278806 0.10529095 -0.020625595 0.0017144538 0.10695987 0.12812173 0.12541749 0.10411673 0.10330703 0.10030214 -0.0870929 0.10192419 -0.035102975 0.08695023 0.108634114 0.12870571 0.11458536 -0.081806935 0.12146279 0.054076254 0.041505467 0.07098694 0.11157367 0.12566887 -0.085140504 0.1173276 0.12845409 0.14694329 0.101932034 0.09619262 -0.068678446 0.09182063 0.012042126 0.13319704 0.1190569 -0.061282035 -0.08824647 -0.085399956 -0.010406841 0.07915768 0.09249322 -0.043836027 0.10269547 -0.09303661 0.14097212 -0.057209976 0.10282612 0.09306859 0.09797653 -0.10093401 0.012569692 0.08380472 0.010339893 0.12056289 -0.002329703 0.12876342 0.004498879 0.08057775 -0.07096255 0.09669175 -0.019506643 0.08828646 0.037096173 0.07726346 -0.082109414 0.08860013 -0.06677226 -0.0796518 0.16552405 -0.01621836 -0.068238445 0.121596284 0.007474883 0.08835419 0.11795117 0.03921894 0.021236692 0.14202115 0.104011506 -0.007929214 0.15774067 -0.0027900068 0.09867919 0.11650993 0.09320481 0.07548944 -0.053327262 -0.050467268 0.119364426 -0.0351513 0.14005025 -0.07292626 -0.010401896 0.08022842 0.1271865 -0.0735978 0.13132162 0.089491494 -0.031815648 0.06762147 -0.04391881 0.118232876 0.12096905 0.109506406 0.081634246 0.11917981 0.13175161 0.07376588 0.08832827 0.024600245 0.13797289 0.14022204 0.09814909 0.06119401 -0.09116726 0.14173806 0.11098426 0.04389602 0.050026137 0.11821161 0.11782075 0.11946247 -0.009869602 0.118930735 0.12326817 -0.055395704 0.12301746 -0.035005685 -0.028196923 0.08443445 0.10029681 0.14834988 -0.10183472 0.037238713 0.015535168 0.051928435 -0.018006902 0.067458495 0.07629746 0.01251951 0.09602792 -0.02784962 -0.04824541 0.065420784
doc_17 -0.0029975213 0.10107844 -0.0172787 -0.008093547 0.0975733 0.04714647 -0.0145945735 0.10999011 0.09432436 -0.025881242 0.08647312 -0.00953453 -0.014789684 0.08078798 -0.0035679191 0.08804867 -0.0029653993 -0.0071855607 0.01705577 -0.02304843 0.09767854 -0.0018774882 0.10415397 0.08869154 0.09917704 0.10344154 0.09869182 0.08566903 0.08939178 0.088293515 -0.008957577 0.0805438 -0.016273163 0.10090477 0.10633734 -0.0026356345 -0.001223214 -0.009570904 -0.023573836 -0.00786426 0.08015046 0.07523634 0.0851094 0.09392064 0.08184681 0.091389254 -0.038726576 0.10875075 0.08470938 0.07217035 -0.017483734 0.08954766 -0.00891488 0.09082902 -0.008626307 0.10615261 -0.017396674 0.095716655 -0.019300682 -0.010580536 0.087670416 0.09453828 0.07691369 0.08707478 0.09021052 0.10298421 -0.009931924 0.101827845 -0.007369197 0.101848036 0.076880336 0.09432542 0.08238349 -0.027774127 0.099374406 0.08446128 0.103374675 -0.019931145 0.09866408 0.08458224 -0.011299706 0.091797195 -0.014884437 0.08263679 0.10093855 0.08350847 -0.020063525 0.10247934 -0.026739862 0.08607629 0.0891765 -0.0057743317 -0.012512812 -0.011237161 -0.0129441675 0.09427871 0.103335 -0.015284317 0.095319405 -0.013844403 0.08915573 -0.015255606 0.100753866 0.10971796 0.09312713 -0.020297766 0.007360971 -0.012129006 -0.016954746 0.079962 -0.008425615 0.08145593 -0.02032654 0.09471123 -0.018840613 0.11259948 0.08538886 0.105976954 -0.026329923 0.10023367 -0.021998886 0.102042004 -0.010027392 -0.015534908 0.12643886 -0.0069141444 -0.026324179 0.0880691 -0.005829097 0.11111645 0.092118286 -0.025205689 -0.021359509 0.08430602 0.07850747 0.05571063 0.09015162 0.00026745163 -0.009755728 0.09616611 0.09424585 0.10421856 -0.0111145135 -0.004136135 0.08180282 -0.017847655 0.095210426 0.0095878355 -0.012114924 0.0905543 0.08203057 -0.013857439 0.07738013 0.10756949 -0.0051318607 -0.02778474 -0.013761409 0.08748393 0.08171917 0.08925256 0.09836902 0.09439021 0.0939977 0.09989898 0.09300156 0.09763116 0.09370797 0.096163526 0.10568825 -0.024144309 -0.017298814 0.088917375 0.09925917 0.10496618 0.09835738 0.09612804 0.09496505 0.094122335 0.11730564 0.08847253 0.08111811 -0.016391123 0.08694549 -0.014646032 0.00034965063 0.080009095 0.08728123 0.08033327 -0.022092557 -0.012571827 -0.011020003 0.10189248 -0.0012250233 -0.0039635627 0.10125044 -0.004283189 0.08390023 -0.015536755 -0.017339867 0.09911586
doc_18 -0.15490294 0.2620316 -0.1611026 -0.14556266 -0.10679037 -0.098727815 -0.15900624 0.20976786 0.33129078 -0.17399165 0.28096646 -0.17159782 -0.14252503 0.31210318 -0.12111145 0.29287016 -0.10999506 -0.11176 -0.13067824 -0.1522076 0.20544976 -0.139809 0.2345277 0.2740543 0.24931537 0.12857796 0.16848855 0.30794916 0.31364733 0.32422337 -0.14574054 0.2738167 -0.17752723 0.20952983 -0.052233305 -0.16323957 -0.15920798 -0.16285357 -0.17156176 -0.17459813 0.3110139 0.34042975 0.26803815 0.2559104 0.30157056 0.31393924 -0.16607422 0.1402896 0.2708308 0.037176754 -0.17324008 0.2064151 -0.1717596 0.24468793 -0.1718362 -0.035216 -0.13974142 0.29778045 -0.17049265 -0.16481626 0.32920572 0.28391322 0.30736643 0.33648893 0.24013048 0.284647 -0.17526807 0.24258474 -0.15706372 0.23412524 0.31787387 0.32463098 0.31261724 -0.18295044 0.31303158 0.19620703 0.15544492 -0.18497878 0.25125253 0.32270044 -0.17380677 0.253286 -0.12727056 0.33530992 0.2853877 0.31484413 -0.17389412 0.23273064 -0.15954655 0.306449 0.30411568 -0.18054071 -0.15635039 -0.11325975 -0.1711142 0.25482816 0.21976727 -0.15465602 0.29248232 -0.1660979 0.3138762 -0.14686704 0.25864553 0.27353776 0.3010464 -0.16864553 -0.10049109 -0.15748645 -0.17415115 0.29022384 -0.17370073 0.33419174 -0.123905614 0.19308217 -0.109419286 0.25916815 -0.032364767 0.21352331 -0.1370927 0.21188182 -0.16333449 0.23134859 -0.17853121 -0.14411038 -0.076850235 -0.17485276 -0.18302232 0.3182479 -0.17438272 0.22553395 0.26574 -0.15336177 -0.1379121 0.3239232 0.30226862 -0.096631676 0.2842149 -0.16399984 -0.1378033 0.3194307 0.26480812 0.25424057 -0.14732416 -0.18616654 0.3237726 -0.1732055 0.32276085 -0.11911795 -0.101922326 0.24944876 0.2987402 -0.15721656 0.31817988 0.24509059 -0.17642435 -0.12361458 -0.1607522 0.29956546 0.31406182 0.3040291 0.22248524 0.31894845 0.2961993 0.20657186 0.22409888 -0.08781725 0.2787002 0.30797645 0.28937346 -0.16139044 -0.11903211 0.33243242 0.30028412 0.017022124 0.18498145 0.3012528 0.27540532 0.27219772 -0.11599374 0.2958237 0.3187029 -0.17706355 0.27179706 -0.1497426 -0.08670069 0.24850631 0.30986437 0.33048794 -0.11983488 -0.14802802 -0.16948618 0.19323432 -0.16319102 -0.15030037 0.2707353 -0.14939524 0.3215493 -0.1421612 -0.1629578 0.17189343
doc_19 -0.02300676 0.12033385 -0.024984593 -0.03546409 -0.011683647 -0.005767798 -0.012685199 0.1312768 0.1153982 -0.046491794 0.1061497 -0.030741384 -0.025898503 0.10753855 -0.013747168 0.1187916 -0.016494632 -0.0243012 -0.017222142 -0.050689813 0.11257264 -0.010830183 0.13596646 0.11406903 0.10591325 0.12174245 0.11648617 0.12323719 0.10023885 0.11318809 -0.032126687 0.11449788 -0.024166202 0.12053581 -0.011444502 -0.035268288 -0.034745414 -0.03935603 -0.037461348 -0.043643992 0.109373964 0.10126886 0.093439646 0.12289014 0.095242925 0.11148887 -0.05302074 0.13329485 0.105373755 0.14721753 -0.0091779195 0.11371175 -0.03928948 0.114160895 -0.036829308 0.11083728 -0.017863378 0.105766535 -0.051803134 -0.0055478616 0.10347517 0.10153268 0.09572965 0.11481943 0.112918444 0.12608838 -0.009433981 0.114317834 -0.018581953 0.1268787 0.08776677 0.112955585 0.10809443 -0.025293835 0.11147388 0.116262 0.11332159 -0.03500866 0.10268127 0.100661986 -0.018250167 0.11443944 -0.045069948 0.101821706 0.11558333 0.1015472 -0.025554707 0.1265452 -0.038403753 0.08977555 0.1257435 -0.028192231 -0.024876188 -0.020187115 -0.033810593 0.120966926 0.12316303 -0.024713324 0.11187559 -0.010970828 0.11499742 -0.010418788 0.11197003 0.11469402 0.11367546 -0.009818921 0.103589535 -0.02623912 -0.021587614 0.09252416 -0.03252591 0.12060025 -0.029397633 0.10618892 -0.0059803333 0.115393475 0.11312686 0.12487228 -0.037095707 0.11446429 -0.023424894 0.11458038 -0.015971966 -0.011034966 0.15811309 -0.029886 -0.010709849 0.107487306 -0.032338087 0.120446675 0.119118944 -0.045490056 -0.044214614 0.112631805 0.10411171 0.07776187 0.113926545 -0.04003252 -0.038742512 0.10513383 0.12001708 0.10982695 -0.026676334 -0.01828061 0.1094106 -0.037387934 0.097153194 0.027593272 -0.037317287 0.11278875 0.105119884 -0.02186469 0.1013516 0.12124281 -0.029461011 -0.042711653 -0.034306522 0.11104346 0.10524701 0.09247583 0.122274876 0.10572781 0.10587531 0.112593226 0.11435031 0.0146139655 0.10876104 0.110942066 0.10666869 -0.05198508 -0.027500777 0.103732824 0.1071614 0.123046935 0.11408721 0.120401315 0.11210086 0.11565681 -0.0048625693 0.12902653 0.11590082 -0.01848723 0.122042686 -0.020321354 0.036318112 0.119209245 0.11260786 0.11096318 -0.018655516 -0.054859303 -0.013720801 0.12207441 -0.035553977 -0.02760601 0.11954855 -0.0320345 0.10776469 -0.027536087 -0.024871048 0.12470639
doc_20 -0.031884294 0.16409889 -0.04245213 -0.052652195 0.074496105 0.061961364 -0.030006923 0.17411059 0.16852708 -0.037883442 0.16245382 -0.027647398 -0.07130297 0.16630436 0.017007409 0.16620147 -0.06795268 -0.05967261 -0.06565603 -0.037233964 0.16619572 -0.049022302 0.17038117 0.1752501 0.16467424 0.15706603 0.17132965 0.17386843 0.16554667 0.16415435 -0.044050075 0.1814961 -0.042158674 0.15980624 -0.0036938745 -0.052651122 -0.05076791 -0.06385813 -0.065242976 -0.06518206 0.17244056 0.16069195 0.18126099 0.15957093 0.17059106 0.17820989 -0.012768859 0.17410415 0.17237888 0.20984346 -0.07438502 0.17415127 -0.025484629 0.16125852 -0.04260221 0.19800873 -0.069246516 0.16157973 -0.054872055 -0.015265478 0.17095487 0.17220247 0.16476035 0.1532354 0.17457576 0.17232333 -0.06582039 0.16426075 -0.053084068 0.16008994 0.1741288 0.177998 0.16122147 -0.05661573 0.16958003 0.15738003 0.1624207 -0.055483557 0.17589395 0.16398576 -0.07247505 0.15735774 -0.056489877 0.16565888 0.15764837 0.16554618 -0.062907524 0.17259613 -0.03810002 0.17176534 0.17795667 -0.04489241 -0.07987909 -0.06318492 -0.016014526 0.15703718 0.17611071 -0.03230513 0.16535468 -0.085756585 0.17861803 -0.03949281 0.17964846 0.16811231 0.18097335 -0.088798426 -0.04900642 -0.042955592 -0.010012532 0.1759443 -0.059742626 0.1753857 -0.033669315 0.14486343 -0.07033116 0.16497585 0.08566989 0.15680623 -0.037978165 0.1695725 -0.063446715 0.17945454 -0.052493718 -0.05381931 0.2576836 -0.066073015 -0.060896527 0.16498551 -0.02079822 0.16219102 0.16392793 -0.020870065 -0.05514334 0.16978833 0.16680902 -0.008748644 0.16451152 -0.029305983 -0.06741588 0.16695231 0.16011494 0.16694233 -0.06169731 -0.03352282 0.18513894 -0.062140055 0.17038672 -0.04705081 -0.048156414 0.16060738 0.16934374 -0.062339876 0.17114125 0.16869688 -0.047463622 -0.038058937 -0.042624947 0.167577 0.15932634 0.17263176 0.1704719 0.17288189 0.16957815 0.15252548 0.17144018 0.07930529 0.18099144 0.18181014 0.16916132 -0.043920413 -0.069849476 0.17370202 0.1693752 0.17640878 0.1726275 0.17260809 0.16342114 0.16415226 -0.023898948 0.16208848 0.17655222 -0.04196758 0.18108653 -0.05225197 0.0029924158 0.1773309 0.15896522 0.16841675 -0.08070582 -0.02810274 -0.028885387 0.14992967 -0.041651294 -0.065831654 0.17624846 -0.040744405 0.16333516 -0.058848668 -0.07039339 0.15443996
doc_21 -0.057909653 0.24092053 -0.092759274 -0.031142531 0.006928045 -0.03613464 -0.08187202 0.214076 0.2829207 -0.02256999 0.24635528 -0.048372347 -0.11796572 0.30026326 0.032737736 0.2597002 -0.09203452 -0.09180916 -0.07722112 -0.013014543 0.20298016 -0.085078835 0.20525101 0.2690269 0.27025834 0.205943 0.2000002 0.27748102 0.26549593 0.25549662 -0.0628056 0.241624 -0.031219812 0.22583729 -0.02680478 -0.021054035 -0.045797355 -0.06238208 -0.039737605 -0.04137647 0.26189792 0.27541018 0.26914048 0.24416889 0.24593446 0.24177852 0.067246385 0.20000483 0.2732467 0.11107253 -0.15071033 0.24690844 -0.08099059 0.22972102 -0.09076565 0.13713816 -0.14520366 0.25224355 -0.011742134 -0.035552114 0.25719243 0.2677249 0.2667208 0.29090717 0.20941979 0.22863288 -0.105654426 0.24804369 -0.08389189 0.23178607 0.29342765 0.27870834 0.2729124 -0.13195336 0.24151139 0.22450432 0.19971168 -0.03079167 0.24510719 0.29608557 -0.13257548 0.2637411 -0.022093741 0.27028757 0.24090773 0.25569704 -0.10806872 0.20706207 0.0019290452 0.26681086 0.2724178 -0.050195884 -0.14704703 -0.14947382 -0.05611734 0.24042284 0.2256222 -0.07953123 0.24767157 -0.12797147 0.26880872 -0.12751395 0.22667414 0.2510662 0.25097382 -0.16017851 -0.0447482 -0.028427435 8.3560066e-05 0.2709732 0.0021897634 0.2659775 -0.05291016 0.2184669 -0.08633934 0.24683844 0.056281522 0.20084615 0.0027502934 0.21588032 -0.12569799 0.21053754 -0.08928765 -0.11272791 0.2808162 -0.04101903 -0.12932956 0.2818917 -0.077980354 0.20075414 0.26602072 0.0008545961 0.029242797 0.26882187 0.2655031 -0.06960263 0.24563485 -0.08328379 0.009071303 0.25132632 0.2689929 0.24442929 -0.06367616 -0.09297418 0.26327702 -0.005040611 0.2397829 -0.08501062 -0.05679509 0.20636861 0.284226 -0.10310354 0.27761516 0.19622436 -0.088070214 0.027858319 -0.100213416 0.2766006 0.25953287 0.28290728 0.20905706 0.26644278 0.22012585 0.22965911 0.19089672 -0.043612886 0.28439993 0.2860555 0.26637486 0.034574173 -0.12077306 0.28262103 0.26528683 0.17916219 0.22671957 0.29062566 0.26268077 0.25426176 -0.06584939 0.2637012 0.27366668 -0.114232 0.2667024 -0.08953343 -0.061144058 0.24148683 0.23076329 0.28964308 -0.14228843 -0.0127048455 -0.07885113 0.21029443 -0.058422185 -0.042736933 0.21999459 -0.0488196 0.24084896 -0.07284929 -0.11615445 0.19298309
doc_22 0.07146859 -0.008033315 0.050220247 0.063126616 -0.017441425 0.002964213 -0.002662899 -0.012546452 0.016004458 0.08421757 0.010406727 0.068419196 0.023421785 0.016990555 0.079690754 0.0068581593 -0.036988847 0.04521006 -0.03983371 0.05467035 -0.0052808365 0.054173645 0.003591103 -0.0056312084 -0.0037043842 -0.009212791 0.00069098274 0.00022711341 0.0036448673 0.0038003142 0.06763695 0.005705701 0.054179363 -0.00052548305 0.07050013 0.06575233 0.07428173 0.06655894 0.069017105 0.050731882 0.0037135757 0.022436935 0.0132262055 0.0077457223 0.011377958 -0.009301585 0.084016286 -0.0001997622 0.0024708167 0.055200275 -0.05408683 -0.0017610174 0.06786424 -0.000965449 0.048618965 0.06631401 -0.04888756 -0.009448136 0.07116571 0.06653503 0.005805932 0.009635276 0.021077506 0.010759174 -0.0063234917 0.00013774895 -0.018497504 0.0041905367 0.033707667 -0.0034089596 0.018999854 -0.008311717 0.004055095 -0.038912892 0.008402442 -0.000319054 -0.005926741 0.083826296 -0.0015400646 0.013643893 0.015805634 -0.007057177 0.085922904 0.012648273 0.0068152095 -0.0021537335 0.018783297 -0.015323774 0.07883041 0.01174413 -0.005805686 0.039619885 -0.052227363 -0.045397673 0.05488814 -0.0042060367 -0.004401023 0.06284313 0.007191304 -0.032672245 0.019904999 -0.038430724 -0.0018667867 0.0070618237 0.0069065136 -0.05431558 -0.009924265 0.06959363 0.057918273 0.021459036 0.05894281 0.0015153474 0.06551283 -0.009697624 -0.035808966 0.003813055 0.043789204 -0.012082305 0.07130865 -0.0059664343 -0.0157584 -0.0043354603 0.030991755 -0.030231897 0.06857377 0.07418513 -0.019245801 0.0027060416 0.07277827 -0.004757041 -0.010732555 0.08994376 0.0770969 0.0053027454 0.0071980567 -0.0036204308 0.011782767 0.06403726 0.06510993 0.003722827 0.0047618435 -0.0062921126 -0.003412704 0.02830287 0.0055617895 0.055712547 -0.0035594625 -0.017258337 0.064728685 -0.0012837292 0.00900101 0.019916778 0.018020375 -0.012521609 0.04435265 0.083778806 0.064517945 0.018544244 0.0075112656 0.0052800905 -0.0043790475 0.011698138 0.0038351375 -0.01230306 -0.009120325 0.004796115 0.0058813277 0.016247272 0.013031354 0.085705616 -0.041082337 0.02297642 0.0047882865 0.01839255 -0.021267766 0.009093554 0.0067231487 0.010911387 -0.04016882 0.0016739372 0.0015639944 0.027851641 0.0030794814 0.06620235 0.12708908 0.00080672465 0.009629461 0.013631919 -0.04932887 0.04897616 0.06895908 0.00023639514 0.07066418 0.056867227 0.008758281 0.06825748 0.0061393566 0.05057184 0.027110528 -0.007768319
doc_23 -0.037099615 0.0902311 -0.033510666 -0.033833962 -0.012761559 -0.029391108 -0.02004163 0.09449708 0.08723839 -0.026600536 0.08978885 -0.038442597 -0.033707753 0.080689535 -0.022001937 0.08938078 -0.03201366 -0.029147979 -0.02877728 -0.028294545 0.083774924 -0.023151234 0.08860368 0.08452298 0.08852431 0.08751659 0.085827604 0.07798822 0.08872168 0.08459089 -0.02740668 0.08576896 -0.032473538 0.08599005 0.06694612 -0.037849963 -0.029820953 -0.041174285 -0.04122253 -0.030644506 0.08989178 0.082368985 0.079637624 0.09363869 0.08830303 0.08618035 -0.056906708 0.08109314 0.08397511 0.059306752 -0.035051644 0.09059206 -0.031344824 0.08836501 -0.029236041 0.0786751 -0.02406506 0.09146199 -0.04213617 -0.029401127 0.085503496 0.082300946 0.08801891 0.08098504 0.09078489 0.08514487 -0.026507998 0.0893915 -0.027239723 0.09336276 0.08444329 0.085658774 0.09409093 -0.028555375 0.08418497 0.080062136 0.08846255 -0.029026434 0.08840022 0.08309546 -0.03899514 0.09064285 -0.03303136 0.08296808 0.08441532 0.08509706 -0.028852036 0.09290411 -0.04285568 0.08318484 0.09022569 -0.026562393 -0.0393037 -0.036968034 -0.026909936 0.09650321 0.09019585 -0.022348154 0.075746775 -0.035269532 0.089613214 -0.02046931 0.08691978 0.09115745 0.09452018 -0.039056566 0.0617074 -0.036880568 -0.033864252 0.08719072 -0.03508958 0.08278207 -0.031346425 0.09073079 -0.011179867 0.08664747 -0.01723125 0.08421819 -0.029612472 0.0906256 -0.034717467 0.08735633 -0.027433155 -0.028736088 0.13942827 -0.027220596 -0.0314993 0.092707664 -0.030891586 0.08794047 0.084795654 -0.026309645 -0.026430096 0.08597458 0.08095718 -0.017207563 0.090301745 -0.03499977 -0.020790434 0.09023855 0.08459511 0.08192907 -0.008709954 -0.029475676 0.08985284 -0.027648991 0.08201099 -0.024200523 -0.027485846 0.091012865 0.08452969 -0.020706847 0.081438325 0.08606912 -0.027447093 -0.031563792 -0.034596942 0.09048829 0.08549665 0.08009468 0.091328695 0.08868955 0.089903176 0.09489466 0.08843627 -0.008103035 0.08203811 0.08700474 0.09067601 -0.02888456 -0.029785445 0.08491933 0.08583599 0.08872878 0.08240527 0.08084179 0.08555644 0.08830405 -0.017936451 0.086759254 0.090155795 -0.029146018 0.08802595 -0.021622334 -0.013840262 0.086622715 0.088911414 0.08344595 -0.036277223 -0.029325016 -0.0286989 0.08823263 -0.030615443 -0.034023657 0.089517094 -0.030381445 0.09134061 -0.028941333 -0.0315667 0.0858181
doc_24 -0.08953419 0.15765761 -0.05440089 -0.0744594 0.08070264 0.025894597 -0.041011147 0.16283675 0.15377188 -0.09750108 0.15767455 -0.08082019 -0.05779492 0.13282539 -0.05940731 0.15188363 -0.00907553 -0.04611209 -0.040296733 -0.06660708 0.17351544 -0.05404242 0.16887067 0.14552172 0.16730997 0.15812951 0.16175412 0.14169663 0.1539536 0.14363334 -0.0769104 0.1573378 -0.052380584 0.15842916 0.20135704 -0.06917337 -0.074860126 -0.05837711 -0.056581415 -0.09063401 0.15518539 0.14366767 0.15736698 0.15836275 0.14090665 0.1584676 -0.065436356 0.17194451 0.15262641 0.057279922 -0.048446495 0.15883172 -0.04896396 0.148326 -0.06897772 0.1806552 -0.04974295 0.13569549 -0.0930642 -0.05641237 0.15533969 0.14056799 0.12620303 0.1377325 0.14522496 0.15335709 -0.06168703 0.16568993 -0.045015953 0.15697025 0.12664182 0.15679461 0.13853124 -0.04602059 0.15109494 0.14527363 0.14957537 -0.0768579 0.14862674 0.14820959 -0.062154397 0.16304481 -0.071045786 0.15000871 0.14503956 0.14437918 -0.059129357 0.18033911 -0.082706265 0.15098043 0.15992945 -0.089608885 -0.05140923 -0.050991815 -0.054224186 0.1629616 0.16318765 -0.0502279 0.15378092 -0.05349123 0.13660124 -0.034688942 0.14598417 0.16513537 0.1746215 -0.049383547 -0.039004985 -0.05192878 -0.06841784 0.15840416 -0.05991522 0.15245737 -0.053509783 0.16466698 0.05951921 0.17722616 0.07496179 0.16534843 -0.080880016 0.14632308 -0.058412865 0.16747326 -0.05914108 -0.05865015 0.11975011 -0.123970784 -0.056731597 0.16387871 -0.05943097 0.18303421 0.15437883 -0.08972748 -0.049620073 0.14366351 0.14039508 -0.0032966277 0.15681386 -0.06250441 -0.072409794 0.17400818 0.15924565 0.1624617 -0.046720743 -0.05718946 0.16697598 -0.07614188 0.15172084 -0.029229112 -0.057907663 0.1509246 0.14816144 -0.056691602 0.14330092 0.1727739 -0.08122071 -0.09627467 -0.029975496 0.14934756 0.16593328 0.15502694 0.15486898 0.14474092 0.15916711 0.14456528 0.14842863 0.15324554 0.14851229 0.14942305 0.16616265 -0.07116523 -0.045914374 0.14834125 0.15807182 0.16788429 0.14768961 0.15374118 0.14751215 0.1679957 -0.030622564 0.16688392 0.15844741 -0.053646356 0.15197465 -0.064696655 0.16244254 0.1636066 0.14187156 0.1315924 -0.05197442 -0.079208136 -0.10309416 0.16609295 -0.085001715 -0.07636245 0.16599543 -0.07398919 0.14773588 -0.072694175 -0.050275743 0.17968458
doc_25 -0.008568022 0.09107479 -0.028039819 -0.030600483 -0.010334623 -0.024786064 -0.029919641 0.089490704 0.0864454 -0.017293818 0.087944984 -0.011701191 -0.04126953 0.08151437 -0.00036082417 0.086561754 -0.025829991 -0.015158796 -0.033718612 -0.014284885 0.08829544 -0.0116218645 0.079612374 0.07720772 0.093254596 0.08396806 0.072517425 0.07810857 0.09270611 0.0915354 -0.020602567 0.08830675 -0.033186626 0.08690498 0.094288506 -0.011364654 -0.021821244 -0.010071137 -0.0105231535 0.012717571 0.09070845 0.0883911 0.09477173 0.092666276 0.088431 0.08630651 -0.018078284 0.07325007 0.09770181 0.029424004 -0.035338122 0.09461388 -0.010724696 0.09313934 -0.02162521 0.075202934 -0.026170477 0.07526877 -0.015336572 -0.009420215 0.08845785 0.081212975 0.094806194 0.087134324 0.0888347 0.08416635 -0.042525556 0.085103594 -0.032674745 0.08497878 0.08502484 0.088910796 0.089932464 -0.03790088 0.090376645 0.09141422 0.08368297 -0.014697626 0.08554381 0.090539664 -0.03931827 0.08755893 0.029120408 0.08595402 0.08606384 0.08099741 -0.027796086 0.09145608 -0.002824535 0.0959906 0.08547279 -0.033571675 -0.03845032 -0.03736045 -0.020105515 0.09184882 0.082938306 -0.030651053 0.09643638 -0.046243366 0.08948724 -0.028965238 0.08575116 0.08965975 0.09417351 -0.042142536 -0.007463323 -0.005106581 0.0054522473 0.090974666 0.009743746 0.09526557 -0.02827664 0.09162926 -0.035212755 0.08737972 0.0861598 0.08219868 -0.022978932 0.08831861 -0.041998513 0.08637149 -0.03479414 -0.035615917 0.037715983 -0.027545482 -0.040216524 0.094814904 -0.015674353 0.08259069 0.089278035 -0.01802663 0.0055007404 0.08567001 0.090090625 -0.0046442724 0.089899085 0.008062298 -0.016314715 0.084884435 0.10118271 0.09296437 -0.03202158 7.85907e-05 0.086817525 -0.008981137 0.091003425 0.023493782 -0.007561693 0.0773379 0.08945865 -0.041767232 0.08980194 0.08977122 -0.032686707 0.01396304 -0.036045276 0.08753151 0.08970836 0.088107705 0.08580621 0.08730471 0.08485564 0.07900148 0.075646535 -0.018232912 0.0889866 0.09645336 0.087726615 -0.01586668 -0.03976341 0.08886548 0.088412635 0.087484844 0.08536718 0.07906177 0.08936535 0.094223894 -0.00868192 0.08527222 0.08443923 -0.036153946 0.08508393 -0.01605104 0.030418819 0.08853668 0.08510867 0.086114414 -0.0381515 -0.010679068 0.0010891398 0.08524638 -0.00824087 0.0048881965 0.09056899 -0.021031065 0.0896625 -0.030129187 -0.03471489 0.08373308
doc_26 -0.009211116 0.092819065 -0.025638644 0.0028473856 0.010357547 0.010652541 -0.040380202 0.0864998 0.090757705 -0.0050846674 0.0944477 0.0030788681 -0.026954146 0.08467232 0.02742958 0.10061582 -0.028202837 -0.027754892 -0.033736855 -0.006246159 0.09557279 0.006547451 0.08776161 0.08853736 0.08864285 0.096840724 0.08771243 0.09267975 0.09244301 0.08790701 -0.009230379 0.09895418 -0.0013551038 0.09550106 0.039264847 0.0061313976 0.004528809 0.00069648685 0.0067257453 -0.016326733 0.096059486 0.08868532 0.09594971 0.09207264 0.0906611 0.09504012 0.009101632 0.09170754 0.10059761 0.11191496 -0.039173163 0.09808088 -0.009513409 0.090731815 -0.007208667 0.06282547 -0.038882997 0.093870826 -0.008041114 0.025408892 0.08709086 0.08659207 0.09453193 0.08623277 0.095651776 0.089927495 -0.036171775 0.09491635 -0.018845383 0.09276509 0.09361887 0.09774734 0.09070571 -0.037894826 0.08896086 0.09468294 0.094961144 -0.0026965789 0.09344654 0.09206862 -0.032672096 0.08928948 -0.0005601731 0.094924256 0.09086853 0.09831345 -0.025669955 0.08800675 0.0040549277 0.09053807 0.09456527 -0.01016112 -0.038214333 -0.039416738 0.009416994 0.09225102 0.095211156 -0.005180577 0.09326071 -0.034375828 0.0945869 -0.03630117 0.09136935 0.09259937 0.09429145 -0.045545142 -0.008991616 0.0041742204 0.015698215 0.09781894 -0.0011806355 0.09511651 -0.009668759 0.089843445 -0.03725079 0.095705606 -0.010883719 0.093544796 -0.009220439 0.09975503 -0.030020209 0.090794176 -0.030151637 -0.04323491 0.13970813 0.013912291 -0.036202572 0.08854802 0.0012170422 0.098486826 0.0913699 -0.00047852646 -0.0045256363 0.090595566 0.088897966 -0.02536442 0.09537289 0.010674959 0.010933042 0.08863432 0.090129666 0.08619714 -0.020890484 -0.02263151 0.081203744 0.00097111723 0.09630062 -0.026386688 -0.011731962 0.10054465 0.09421365 -0.027790274 0.09263119 0.091460265 -0.028672874 -0.00025990052 -0.018927997 0.09177831 0.08345424 0.09009927 0.09276594 0.09497123 0.09307926 0.082672454 0.085786186 0.0061429357 0.094891846 0.095512345 0.09825888 0.0005728267 -0.037302464 0.090325385 0.0938483 0.09541134 0.0898697 0.08696449 0.09236268 0.09982153 -0.014244766 0.08653843 0.091381356 -0.020964038 0.092773676 -0.0052811583 -0.014168068 0.09262504 0.09938318 0.08937323 -0.042476017 0.0067837588 0.00064651016 0.0912838 0.0005603557 -0.0046688854 0.10104659 0.0055702436 0.094875306 -0.012733952 -0.0145915765 0.08762441
doc_27 0.080388464 -0.010375454 0.09003331 0.09007836 0.022975298 -0.016733442 0.07780407 -0.010143194 -0.012804395 0.09689997 0.001159688 0.077767745 0.05829537 -0.015064513 0.0668631 -0.014183696 -0.01889493 0.086416535 -0.021846998 0.09351749 -0.011796952 0.07069941 0.0064572073 -0.013796044 -0.0004525776 -0.0036665685 -7.1609393e-06 -0.022401784 -0.015537105 -0.009086909 0.08796011 -0.008320505 0.091718756 0.0050728917 -0.02637533 0.091530934 0.084822804 0.08729992 0.076683804 0.0972024 -0.004302309 -0.0106877405 -0.008102943 -0.011061411 -0.01564291 -0.016586203 0.09029747 0.0019879602 -0.00030869502 0.040973812 -0.020884769 -0.003367975 0.07906348 -0.00083550625 0.076514795 0.0072072875 -0.012461774 -0.011847569 0.08916254 0.08808735 -0.014896864 -0.010923268 -0.011730861 -0.010565052 0.000736095 -0.015397986 0.0900711 -0.004932441 0.088099204 -0.0030092378 -0.017445382 -0.022556841 -0.019193962 0.08874333 -0.0077794036 -0.0037740765 6.919773e-05 0.09125242 -0.020569798 -0.015882418 0.07885206 -0.00334185 0.077933475 -0.021143489 -0.011187457 -0.015006203 0.07131033 -0.022397367 0.09171052 -0.017488662 -0.009548774 0.077171 -0.022617254 -0.02033842 0.08322801 -0.0073339753 0.0032877773 0.0895852 -0.01446238 0.06723026 -0.017193869 -0.015786598 -0.015285066 -0.0011197841 -0.002014974 0.052911956 -0.009400108 0.082109414 0.07915666 -0.01712086 0.07955387 -0.017828818 0.084694706 -0.004673209 -0.023617407 -0.008334924 -0.012860957 -0.0033340505 0.082399264 -0.005674707 0.07034069 -0.0040998133 0.08613721 0.016725825 0.07918907 0.08765068 0.07765635 -0.014149923 0.07103442 -0.005543761 -0.012600117 0.07960489 0.083544865 -0.023071684 -0.011499783 0.0007227557 -0.019532863 0.067954466 0.07989496 -0.008493561 0.0020416589 -0.0123008 0.051022336 0.076477595 -0.011466269 0.07958646 -0.016205873 -0.013067298 0.086175 -0.0045432397 -0.024997745 0.005973029 -0.016424758 0.0022252537 0.08596408 0.08840879 0.07513966 -0.019160211 -0.0018869238 -0.0055561075 -0.008959457 -0.0060210433 -0.0044481186 -0.0058143334 -0.00072167395 -0.021866156 -0.005018342 -0.022401845 -0.007877713 0.08643928 0.040820926 -0.017451502 -0.015167808 -0.0035649324 -0.002585984 -0.02105775 -0.022733945 -0.0050251987 -0.027687564 -0.008171878 -0.0059495596 0.084975794 -0.013610385 0.05936744 -0.021884918 -0.00846357 -0.017028421 -0.006984439 -0.01919866 0.09466541 0.060100608 0.0064505376 0.09036949 0.07485776 0.002268413 0.080980696 -0.015168416 0.0827454 0.0802291 0.0047792327
doc_28 -0.009589788 0.10078448 -0.0039057056 -0.008048503 0.078461684 0.06595965 -0.0124033615 0.10533047 0.1020509 -0.011454975 0.099034354 -0.007953392 -0.030828658 0.088134296 -0.008879303 0.10708588 -0.031096604 -0.017657451 -0.035270188 -0.0007633334 0.10045652 -0.03436751 0.11417417 0.098100275 0.099303335 0.1047547 0.106705956 0.091071524 0.09240115 0.08405943 -0.014607944 0.10463466 -0.0042624613 0.101293296 0.052725323 -0.007173522 -0.0045286613 -0.0049865907 -0.01155585 -0.0022946298 0.09806387 0.08926561 0.086846754 0.099021494 0.08772552 0.08941704 0.003484495 0.10042901 0.0968072 0.086467646 -0.035783492 0.101220146 -0.025479164 0.09264178 -0.02004356 0.1380264 -0.032563 0.10415815 -0.0021697162 -0.014276497 0.09190486 0.09333108 0.08531118 0.09455239 0.10247687 0.09204883 -0.014899241 0.10103296 -0.005783081 0.09822158 0.09186269 0.087225646 0.095841154 -0.015867544 0.096510775 0.10449183 0.09719696 -0.0073955245 0.09661413 0.09387971 -0.0248084 0.10172537 -0.0073868204 0.09846938 0.09529254 0.0919084 -0.010851836 0.096292354 0.0133831855 0.09019222 0.09868811 -0.019240927 -0.031849205 -0.01628472 -0.012891236 0.09856736 0.10590029 -0.016328339 0.105241075 -0.035949558 0.09136133 -0.014205378 0.098055124 0.09800214 0.09772959 -0.03629736 0.0017761802 -0.008460764 -0.011444006 0.093997456 -0.0054360647 0.079233155 -0.0060001854 0.09488012 -0.026569337 0.096928835 0.11128415 0.08869803 -0.0026694182 0.10969494 -0.029174019 0.09433299 -0.018972008 -0.02752263 0.18278933 -0.014202388 -0.018684294 0.08213663 -0.009570419 0.097005546 0.09347737 -0.0021933457 -0.022427136 0.09136233 0.087086566 0.04603148 0.09363206 -0.008571003 -0.0020671142 0.09211217 0.110982075 0.10130352 -0.020143772 -0.012452912 0.09702951 -0.003565941 0.08816576 0.043210197 -0.005134668 0.10057161 0.08704342 -0.0046389922 0.09190843 0.10647393 -0.005207494 0.0043805707 -0.0020407122 0.08498279 0.089436606 0.08514387 0.10276847 0.09745883 0.103373125 0.10287316 0.0968944 0.027335826 0.0975927 0.08873693 0.08996673 -0.0056038895 -0.04675973 0.088709876 0.10440403 0.1148767 0.09952155 0.09064621 0.09434579 0.09473337 0.009453797 0.09465115 0.09816485 -0.0055153104 0.09337285 -0.020688117 0.007390988 0.09904929 0.088969395 0.09402559 -0.034068905 -0.0053999247 -0.013550033 0.11088244 -0.010240645 -0.015111317 0.10436374 -0.020709436 0.096230485 -0.021991368 -0.0422813 0.11066301
doc_29 0.13795513 -0.028696205 0.1732263 0.1834119 -0.037377674 -0.016565366 -0.038201302 -0.034238003 -0.037530906 0.09686119 -0.04179258 0.16283727 0.121787 -0.048684217 -0.0013990789 -0.056624286 -0.031686146 0.15549105 -0.049376313 0.1808678 -0.02564969 0.14177543 -0.027824637 -0.03573552 -0.04055066 -0.0013838634 -0.024171542 -0.020827044 -0.055555604 -0.044281926 0.064836234 -0.05581784 0.14405742 -0.024404675 0.09686548 0.13976853 0.15782067 0.18202153 0.070971996 0.17119268 -0.041418027 -0.02499304 -0.036054745 -0.0400876 -0.018973198 -0.026076928 0.17323886 -0.0144397225 -0.018352821 0.10564845 -0.020909214 -0.030619174 0.15698789 -0.06568121 -0.0012766425 0.1338778 -0.048007898 -0.041712344 0.15998189 0.14962903 -0.023887666 -0.05865125 -0.053295214 -0.038083185 -0.03551163 -0.03680967 0.16373365 -0.020623859 0.17108351 -0.03455698 -0.044161037 -0.030952733 -0.034868713 -0.024055831 -0.038550768 -0.02848992 -0.03475608 0.17222835 -0.011326671 -0.055406664 0.18076506 -0.032639775 0.044433184 -0.014480281 -0.038670518 -0.036720324 0.1429847 -0.05986329 0.13517414 -0.023436809 -0.05075492 0.15691613 -0.055161517 -0.057297423 0.16655254 -0.032190222 -0.024972003 0.077087246 -0.051016904 -0.09554162 -0.049643774 -0.019395033 -0.03480898 -0.038979683 -0.04542793 0.14208014 -0.050238274 0.16050251 0.12035346 -0.04152175 0.15619098 -0.033976182 0.10768704 -0.049126074 -0.022711648 -0.027583353 0.070493326 -0.030500444 0.18519446 -0.015969435 0.07695852 -0.03751163 0.16199185 -0.07009203 0.090224326 0.0054259473 -0.07900193 -0.05377071 0.1744146 -0.031198736 -0.047427766 0.09922543 0.12509778 -0.05910881 -0.0399601 -0.009207586 -0.041954353 0.16150868 0.11462454 -0.027368499 -0.05292961 -0.035639774 0.038061373 -0.034917183 -0.03679777 -0.056346703 -0.027599256 -0.046793688 0.17446378 -0.03141675 -0.03067527 0.04040706 -0.043766737 -0.042027906 0.16278848 0.1681628 0.17071079 -0.049083985 -0.0366883 -0.032064304 -0.02279535 -0.063249744 -0.034784697 -0.049334217 -0.035365522 -0.03097447 -0.036097966 -0.04309561 -0.019145831 0.16614704 -0.041667514 -0.040253643 -0.031792007 0.00013917405 -0.002115503 -0.038545135 -0.05263956 -0.040990844 -0.023815406 -0.021855064 -0.051284067 0.16681565 -0.03517352 0.14630294 -0.03412938 -0.019207928 -0.054905828 -0.038883187 -0.0671141 0.16878517 0.1636876 -0.01786896 0.16789402 0.13403447 -0.030512834 -0.03508063 -0.038407836 -0.044539552 0.17140715 -0.008900265
doc_30 -0.048959415 0.15963548 -0.04788288 -0.07501513 0.038275298 -0.03335617 -0.050593395 0.16766438 0.16395873 -0.113648735 0.1561782 -0.05022578 -0.051197708 0.12759422 -0.03216897 0.14062996 -0.018026648 -0.052616775 -0.02985021 -0.093933195 0.18283965 -0.041181467 0.17550793 0.16571096 0.160582 0.18305282 0.1480027 0.15620308 0.14343883 0.16235323 -0.055000894 0.14895834 -0.050552413 0.17395078 0.12932622 -0.059852272 -0.060127907 -0.098019846 -0.05461528 -0.055609956 0.15425472 0.1359928 0.12154047 0.15366773 0.14234291 0.15415946 -0.054933056 0.16165856 0.1586607 0.12915944 -0.045399025 0.17388347 -0.058841854 0.1652353 -0.04452996 0.17264491 -0.047287915 0.16161239 -0.09847047 -0.024144571 0.1421516 0.1442291 0.14011075 0.15137617 0.17759524 0.16983451 -0.05736635 0.1655183 -0.04156869 0.15622988 0.14005366 0.14846131 0.15773225 -0.05626049 0.16645311 0.17692198 0.17257416 -0.05191397 0.167063 0.15723556 -0.0608707 0.16266994 -0.0771958 0.13783427 0.14214514 0.1421518 0.0060532093 0.16694823 -0.043844346 0.15072341 0.14364527 -0.06453442 -0.04268334 -0.039911654 -0.050682966 0.13694552 0.1608709 -0.044442926 0.15738785 -0.054444324 0.15350947 -0.037513178 0.16023633 0.16813724 0.15638205 -0.06429959 -0.037455536 -0.041035287 -0.030245423 0.13505277 -0.06756341 0.15205793 -0.044868965 0.17681263 -0.045320712 0.14068414 0.14067 0.1662359 -0.04239487 0.16533537 0.0017234588 0.13655451 -0.035236493 -0.048931904 0.20089361 -0.089276254 -0.055581335 0.15217185 -0.02814946 0.16557619 0.15801369 -0.047737315 -0.10481182 0.14869705 0.15252578 -0.007879699 0.14555357 -0.037093308 -0.039013814 0.14861761 0.15842533 0.1631739 -0.03557656 -0.042873688 0.15462038 -0.07417944 0.1486378 -0.0023398956 -0.03540369 0.16973197 0.13174953 -0.03734161 0.14422995 0.18469194 -0.052782226 -0.056694422 -0.04665312 0.14405973 0.15391529 0.14173725 0.1421559 0.14786729 0.16564998 0.16872218 0.16922233 -0.002517656 0.15519646 0.16236691 0.1548273 -0.052909326 -0.05667157 0.13688765 0.16226354 0.17345037 0.15941784 0.1515955 0.16581826 0.1631606 -0.030174818 0.14432535 0.16101785 -0.030583637 0.16386753 -0.022051675 -0.012684972 0.15872985 0.15751013 0.14925703 -0.06260669 -0.08379943 -0.060020797 0.16945654 -0.028376814 -0.07665068 0.15838788 -0.03729945 0.14349446 -0.0294975 -0.06502247 0.16827798
doc_31 -0.057312157 0.24465781 -0.09198111 -0.03296734 0.008137324 -0.035519723 -0.08221044 0.22243981 0.2880535 -0.01767314 0.24655366 -0.047641594 -0.12479142 0.30710688 0.03557724 0.2646378 -0.09702791 -0.09187905 -0.07971411 -0.018031694 0.20970945 -0.08876744 0.2084876 0.27179587 0.2743879 0.21079867 0.20095848 0.28447342 0.27362502 0.2600004 -0.061588872 0.24526723 -0.03274751 0.22945786 -0.029920602 -0.0209519 -0.041027065 -0.058223974 -0.03753925 -0.035730377 0.26736432 0.28352857 0.27839392 0.24931543 0.2533243 0.245684 0.06842905 0.20214489 0.2784303 0.10956009 -0.15532266 0.25033787 -0.08023687 0.2358682 -0.092067644 0.13830444 -0.14743678 0.2574368 -0.014249244 -0.029591948 0.2637777 0.27818817 0.27169174 0.2989724 0.21211989 0.23140974 -0.10471804 0.25156513 -0.08843417 0.23316519 0.30051327 0.2820954 0.27758363 -0.13427107 0.24544127 0.2288356 0.2006134 -0.029473834 0.25168 0.30143446 -0.13576132 0.2696108 -0.015390988 0.2774494 0.24272388 0.26065284 -0.10889824 0.21130669 0.0068039284 0.27720788 0.2800178 -0.04578725 -0.15311147 -0.15543929 -0.053328115 0.24627498 0.22766985 -0.078988515 0.25473934 -0.13108796 0.2727548 -0.12971936 0.2329778 0.25621995 0.2575458 -0.16598968 -0.05511089 -0.024352493 0.0039645303 0.27625304 0.004420401 0.27245146 -0.05122661 0.22333199 -0.087357625 0.25089103 0.06453125 0.20721506 -0.0010515116 0.21850662 -0.13048376 0.21337496 -0.08897361 -0.119939595 0.27951196 -0.039305586 -0.13101918 0.28499323 -0.0770493 0.20697078 0.2726741 0.004689076 0.03199725 0.2756191 0.2709804 -0.0714447 0.25458366 -0.080250606 0.01787632 0.25844964 0.27436417 0.24610907 -0.064064264 -0.092306815 0.268063 -0.0027018022 0.24422303 -0.08565362 -0.051653814 0.20719066 0.28932625 -0.10480089 0.28270188 0.20162813 -0.08942717 0.031377546 -0.1018716 0.2828456 0.26294592 0.28950247 0.2151646 0.27321786 0.22697318 0.23381317 0.19737989 -0.05072603 0.28915885 0.29118016 0.27101368 0.03436519 -0.123977445 0.2925227 0.26905328 0.18291964 0.23001416 0.2951288 0.2693804 0.260077 -0.07698752 0.27095997 0.28159088 -0.11580342 0.27129444 -0.08702043 -0.068368934 0.24689871 0.23649974 0.29531053 -0.14649966 -0.0058895876 -0.07790526 0.21579726 -0.053850923 -0.039769925 0.22294301 -0.04829423 0.2449084 -0.07284535 -0.12058754 0.19909433
doc_32 0.07403699 -0.18497472 -0.06923793 0.12458131 -0.07340771 0.037268028 -0.047744244 -0.16619802 -0.18379253 0.15589435 -0.16412237 0.24279045 0.12250556 -0.20281002 -0.009781592 -0.1680757 -0.07913961 0.20219293 -0.032084092 0.22405617 -0.14553829 0.057874806 -0.13854522 -0.18411861 -0.16897397 -0.13129349 -0.16162099 -0.17226873 -0.18693553 -0.1485716 0.18222393 -0.18679014 0.17466581 -0.16088757 -0.05938411 0.12651038 0.091652796 0.21503623 0.1203327 0.12017946 -0.19406372 -0.17974712 -0.15926854 -0.19213223 -0.15529469 -0.15673697 0.14880532 -0.15131184 -0.1825993 0.18839899 -0.06848917 -0.1544359 0.13534693 -0.17301619 0.1573329 0.40010312 -0.09944311 -0.17389536 0.16063054 -0.01534904 -0.16207519 -0.18443708 -0.20177354 -0.13693254 -0.1675467 -0.17461401 -0.11072243 -0.18259223 0.13943376 -0.15926987 -0.182102 -0.15640917 -0.1640572 -0.053600132 -0.15083699 -0.15643261 -0.16945727 0.19648099 -0.15365852 -0.18444373 0.1502918 -0.16315292 -0.07016795 -0.17807923 -0.18930675 -0.18266538 0.018738085 -0.19473165 0.13669866 -0.1489238 -0.17693527 -0.043754686 -0.10733229 -0.078549385 0.095128134 -0.18163936 -0.16056234 0.20196751 -0.16746356 0.016932406 -0.16458356 -0.11161157 -0.14840245 -0.1908792 -0.18543969 -0.12074297 -0.03765873 0.19009617 -0.016162165 -0.17068478 0.21465974 -0.15029569 0.17265688 -0.1653876 -0.10221872 -0.14956605 0.44331726 -0.17530197 0.23277088 -0.1470021 0.18878624 -0.15270151 0.031536505 -0.06431749 0.2858374 0.114155896 -0.12067435 -0.20198016 0.21739079 -0.14993455 -0.15216905 0.23285766 0.22676852 -0.15488409 -0.18686652 -0.08180999 -0.16005234 0.03003502 0.07719413 -0.15427977 -0.14678285 -0.155999 -0.025597865 -0.022357006 -0.18086769 -0.014133657 -0.18281125 0.012670123 0.21897149 -0.13127473 -0.1650309 0.15381473 -0.17400114 -0.16463979 0.21510714 0.17299587 0.21890248 -0.18462168 -0.16862634 -0.17800881 -0.15914595 -0.17474867 -0.17651063 -0.17152832 -0.14876394 0.3425433 -0.15920101 -0.15289745 -0.18143134 0.116558485 -0.04622049 -0.1776385 -0.18102494 -0.10524416 -0.14416212 -0.19034718 -0.18828443 -0.19006391 -0.08757475 -0.17255262 -0.18332237 0.20036201 -0.16369483 0.030843887 -0.015650548 -0.17998056 -0.18155567 -0.16150624 -0.06763453 0.17484488 0.21979915 -0.1322492 0.08082929 0.15905413 -0.14821261 -0.027515382 -0.16630849 0.079871945 0.13274595 -0.13106619
doc_33 -0.050381433 0.10740948 -0.052592035 -0.057795715 -0.014422472 0.13079768 -0.007053955 0.08072568 0.07294083 0.046606973 0.07390843 -0.025864188 -0.050180323 0.096311055 -0.031364962 0.072675504 -0.023526028 -0.06787986 -0.036181577 -0.007680116 0.07763625 -0.01747124 0.08609037 0.092972316 0.046257243 0.03426406 0.04456526 0.09714935 0.09934387 0.08979407 -0.074532226 0.096079305 -0.046744253 0.06940077 0.12286504 0.03573841 -0.032932363 -0.0070847273 -0.015640238 -0.062671036 0.080276 0.08811267 0.1000781 0.082826264 0.095432386 0.092425875 0.00097514596 0.04037391 0.09609179 -0.038297612 -0.04688952 0.0736295 -0.040842522 0.09581135 -0.07318732 0.01901671 -0.042647436 0.10401133 -0.06993169 -0.066969335 0.10687906 0.09955702 0.10375224 0.092534386 0.057814647 0.069319844 -0.061269224 0.091609366 -0.027410397 0.07622686 0.077496715 0.10721386 0.066247396 -0.05665771 0.1047781 0.09268695 0.07324966 -0.015127519 0.08957172 0.092202455 -0.043074403 0.095715605 -0.01718778 0.07266457 0.09610336 0.059185363 -0.059647802 0.101866946 -0.020919975 0.09074203 0.09101761 -0.055339925 -0.04244595 -0.02473779 -0.050835993 0.06141059 0.092223965 -0.035847433 0.079895265 -0.028495053 0.104454584 0.1199999 0.09756918 0.096645206 0.058893293 -0.04738358 0.11490463 -0.06314576 -0.06494374 0.1233433 -0.07880714 0.10703095 -0.032226656 0.09435896 0.07351186 0.090010844 -0.042464312 0.08274454 0.004380591 0.0589499 -0.049277615 0.05641611 -0.059370827 -0.037607804 0.042288255 -0.07005465 -0.056449156 0.10105159 -0.058425248 0.06601784 0.079955 0.07008489 -0.015109563 0.11311643 0.09626715 -0.017579539 0.09356556 -0.07906998 0.008720749 0.096606106 0.0897375 0.08963784 -0.034381244 -0.07500929 0.109129734 -0.05281703 0.09452729 -0.008358914 -0.05168821 0.09123771 0.10393091 -0.035949994 0.10913514 0.07329273 -0.062204167 -0.012694465 -0.025076875 0.08180748 0.08432936 0.08609973 0.061179604 0.11266456 0.10133422 0.0844233 0.06911871 -0.07312339 0.10717506 0.08445778 0.08052235 -0.0011900454 -0.03801687 0.104398385 0.10827215 0.060276337 0.10296809 0.10573537 0.08094414 0.069493316 0.13678281 0.09394933 0.091297984 -0.04770478 0.107086085 -0.04379136 0.15126865 0.05854094 0.07357471 0.09715337 -0.04957793 -0.084679484 -0.05250784 0.049355976 -0.07276394 -0.08136049 0.087506436 0.01877055 0.08068661 -0.06300883 -0.032284178 0.059139356
doc_34 -0.00037555536 0.07967411 -0.020381039 -0.00046243172 -0.0014649811 0.014873435 -0.025014646 0.081622235 0.0815207 -0.0017720622 0.07996674 -0.014570553 -0.01935297 0.077051036 -0.0037879073 0.07578874 -0.023004264 -0.024409004 -0.020111145 -0.011465707 0.07585506 -0.016175238 0.08013802 0.07552679 0.08119618 0.06948723 0.074979015 0.06834563 0.07960222 0.06894431 -0.016470224 0.08449228 -0.019578405 0.08630833 0.07736308 -0.015168662 -0.0028397096 -0.020174699 0.0017403233 -0.013587242 0.07707074 0.07373048 0.079373755 0.08070243 0.07689338 0.0830821 -0.009440478 0.08045191 0.07800831 0.07961564 -0.024535578 0.07846844 -0.00021209783 0.07697786 -0.019498305 0.016695876 -0.026392594 0.07930737 -0.005307005 0.011362928 0.07052586 0.07236722 0.07766224 0.07574634 0.08389369 0.074733324 -0.0066702147 0.07831964 -0.019496372 0.08549428 0.075560614 0.07624239 0.077645056 -0.023380289 0.07751386 0.085840575 0.082041115 -0.008866232 0.07747634 0.071316175 -0.015428317 0.08134675 0.0073305527 0.07987924 0.078567535 0.06765755 -0.01654484 0.07499947 -0.008714235 0.07952024 0.07592002 -0.0053256974 -0.02046816 -0.021998744 -0.004472834 0.0747065 0.07746938 -0.021511598 0.0759525 -0.017034337 0.080917016 -0.018685367 0.07857652 0.07398652 0.0763588 -0.029333375 -0.013693199 -0.009573582 -0.0005222338 0.08113581 -0.012623788 0.079202384 -0.01425994 0.081202835 -0.027873296 0.07594694 -0.019679468 0.07554101 -0.017345266 0.07859415 -0.023050329 0.08275946 -0.01378845 -0.024794763 0.06837759 -0.0185276 -0.02261409 0.0723344 -0.008347923 0.08026872 0.07270483 -0.0061742933 -0.015685817 0.07615067 0.07683488 -0.022641934 0.07620683 -0.0064616282 0.0071624704 0.07752444 0.0763569 0.07771558 -0.0041378234 -0.017416907 0.074770264 -0.014230674 0.07918359 0.018703768 -0.014635099 0.085351124 0.07735042 -0.023183709 0.06726929 0.08101646 -0.019884473 -0.0048944424 -0.018377108 0.07073787 0.07356604 0.07283259 0.077434026 0.07520322 0.07384849 0.08816639 0.08127671 -0.019636707 0.08140399 0.07422094 0.0793196 -0.016354892 -0.013486654 0.07231801 0.07621749 0.073437884 0.07568389 0.07879164 0.078957394 0.07826841 -0.025392983 0.07507204 0.079634696 -0.016987588 0.07783982 -0.015812358 -0.0155347865 0.07590085 0.07281857 0.07906489 -0.032609235 -0.019352147 -0.01056652 0.08001757 -0.014668272 -0.020356633 0.0808724 -0.015231848 0.079719774 -0.01813966 -0.02176953 0.08155346
doc_35 -0.017103206 0.04707109 -0.007900387 -0.050900176 -0.0632889 -0.021777507 -0.018398086 0.06809982 0.09968445 0.003989065 0.072596066 -0.040542997 -0.016310317 0.10552171 0.015629638 0.05474814 -0.03889019 -0.04625486 -0.04344106 -0.0061034895 0.047087573 0.010609514 0.07012169 0.059256747 0.06019422 0.048262775 0.033469312 0.055021234 0.053034525 0.05838124 -0.022471448 0.10172102 -0.03258399 0.09001808 0.013528449 -0.027177494 0.014273483 -0.011101874 -0.04563865 -0.042237863 0.06001031 0.08828586 0.06617735 0.09804813 0.07574112 0.05666061 0.05528619 0.06018602 0.050856397 0.08726379 -0.029690798 0.047142643 -0.023879576 0.027664583 0.022597553 0.024868768 -0.0391306 0.040237576 0.01956119 0.12734097 0.06710278 0.0631848 0.082791336 0.0851396 0.06028562 0.037729464 -0.03467328 0.05900825 -0.01565099 0.040507704 0.08030671 0.05893242 0.071024075 -0.059822015 0.05848421 0.05283112 0.06234537 0.043850005 0.07275378 0.08921205 -0.032239754 0.07313226 0.048953038 0.084673636 0.114204094 0.07846361 -0.026994267 0.02561722 -0.012460861 0.071044594 0.05688308 -0.030222993 -0.04372344 -0.026904598 0.016876064 0.0586518 0.09663568 -0.028247837 0.058505926 -0.04450803 0.09506906 -0.018156275 0.07619042 0.07357831 0.085718036 -0.049770728 0.08166222 -0.03353588 0.06332329 0.06810101 -0.044456884 0.07980038 -0.031934097 0.039900016 -0.03510181 0.051837906 0.1270475 0.059273966 0.038756922 0.06417672 -0.03219509 0.07555553 -0.042230118 -0.031863693 0.115949534 -0.05545668 -0.02829509 0.030562915 -0.01847417 0.039694797 0.09657464 0.027960923 -0.01937958 0.08021359 0.07794912 -0.03792258 0.07862467 0.010973819 0.00030030124 0.0916728 0.09827531 0.052666314 0.06250246 0.032968007 0.052590333 -0.003276484 0.06476719 -0.017324299 -0.033240207 0.030610204 0.0906305 -0.022175342 0.07706478 0.06926344 -0.011037849 0.010070577 -0.009746365 0.08703268 0.09387204 0.06541778 0.04647988 0.07603376 0.0801382 0.050271742 0.03997478 -0.0074510854 0.102539934 0.07456637 0.05556558 0.02232237 -0.049568947 0.075065896 0.092461444 0.090067424 0.030961372 0.03993225 0.058086794 0.09077306 -0.03491538 0.06173588 0.08510172 -0.049565844 0.08839635 0.005419638 0.1354738 0.044623837 0.10378264 0.064873636 -0.043726187 0.016369522 -0.0059176516 0.043320283 0.029168777 0.005067583 0.0951691 0.04486122 0.064603075 -0.0056504225 -0.019018952 0.05473373
doc_36 -0.019317534 0.14861917 -0.041265663 -0.008646012 0.025702326 -0.013153012 -0.066332035 0.11344578 0.17059015 0.09473994 0.14081109 -0.022389535 -0.056964952 0.15110475 0.068473935 0.14705035 -0.06130137 -0.049232036 -0.07724016 0.011142811 0.16075374 -0.019289734 0.13670373 0.14923415 0.12169001 0.123475134 0.12251257 0.1638604 0.15971556 0.15836635 0.024950631 0.15833008 -0.005467886 0.12820141 0.090637624 0.022117404 0.0037115181 0.002998356 0.03446334 -0.015956987 0.15687189 0.16514583 0.1524293 0.13897872 0.15197036 0.1485037 0.0984788 0.1246662 0.14896894 0.11331599 -0.090676256 0.14113688 -0.025793415 0.1362602 0.033741012 0.08778112 -0.08366273 0.14671786 -0.029229125 0.11276535 0.14056274 0.16613837 0.15496895 0.16529667 0.13241194 0.13046034 -0.0804197 0.12980945 -0.055080872 0.13545029 0.13760076 0.16076319 0.15957628 -0.069219574 0.12756643 0.120813705 0.12708019 0.026037652 0.15520239 0.15346022 -0.08002625 0.13971722 0.084077224 0.1766505 0.16935048 0.15907992 -0.06655593 0.13457951 0.06898888 0.14669421 0.14626902 -0.034770325 -0.073273115 -0.0769612 -0.004546315 0.13678773 0.13696623 -0.020217355 0.14821938 -0.075620525 0.1557546 -0.07857773 0.15437803 0.11930045 0.15872702 -0.093723424 -0.031471465 -0.0007112073 0.030262781 0.16264297 -0.017147634 0.16187304 -0.027086759 0.11701937 -0.07286984 0.13715832 -0.08744706 0.11586181 4.7930516e-05 0.13159595 -0.08221923 0.14817858 -0.055016916 -0.08145167 0.18184987 0.0284406 -0.06255919 0.15978174 0.02231342 0.13387787 0.1543554 0.07184467 0.0015379002 0.17559955 0.1721362 -0.036288988 0.16229266 0.046255924 0.01561696 0.17085363 0.1344279 0.13990013 -0.049101714 -0.04563112 0.1650315 0.009833391 0.17117895 -0.058857277 0.0018245475 0.14023058 0.17409253 -0.06323086 0.1577055 0.12741576 -0.029880961 0.038977638 -0.04195799 0.15666889 0.14651094 0.15541647 0.119663276 0.1487536 0.1458517 0.11241177 0.13307486 -0.0245377 0.16202858 0.1665303 0.1670011 0.08036886 -0.080272034 0.1625075 0.17582648 0.13334872 0.12952211 0.1659208 0.15882146 0.15255184 -0.016172962 0.1487742 0.15144056 -0.039977208 0.15568429 -0.009657091 -0.032249287 0.14225475 0.16539373 0.16556077 -0.08298409 0.017446281 -0.014772927 0.1345116 0.005013395 0.0066333017 0.15755983 0.019167304 0.15421306 -0.029788706 -0.07463488 0.11850539
doc_37 -0.008796148 0.07308469 0.0027110255 0.0065331813 0.07067192 0.044974532 0.006550557 0.07206682 0.06759399 -0.004333901 0.071375504 -0.002875545 -0.005215657 0.05117753 0.0077833375 0.06938551 -0.018112144 5.8238278e-05 -0.01472294 0.00062361243 0.07029195 -0.013037783 0.080190375 0.06694189 0.068872206 0.07543432 0.07332015 0.05988667 0.06718551 0.06266997 -0.0064161383 0.06255689 0.005658609 0.07463849 0.058090735 -0.0019692115 -0.0006901305 0.002752494 -0.007200079 -0.0023579062 0.07031828 0.057239823 0.058142677 0.06444819 0.057252806 0.06244751 -0.0026161568 0.06797443 0.065693505 0.09406709 -0.023019066 0.07074683 0.0015959858 0.0685543 -0.00326367 0.09318344 -0.01957604 0.061219722 -0.008717583 0.0018696024 0.06063485 0.061708845 0.05436907 0.0639468 0.0829986 0.06320048 -0.012236832 0.06880824 -0.01071375 0.072207674 0.060435712 0.060396887 0.06601038 -0.0064076157 0.06668726 0.06967834 0.07767564 -0.0016125683 0.06435609 0.06293498 -6.3011306e-05 0.063128196 -0.0110023385 0.06058298 0.060258314 0.06473092 -0.004665528 0.070721634 -0.0018279159 0.064359635 0.061015524 -0.007790068 -0.021665603 -0.01891284 0.008129714 0.070169516 0.0656817 0.0022990739 0.07509892 -0.016409092 0.059392318 -0.011416212 0.06658588 0.069225624 0.06676966 -0.025558326 0.012225909 -0.007900672 -0.0048940876 0.059831068 0.0010271717 0.056428142 -0.008501603 0.06775068 -0.02122543 0.066618 0.07396922 0.07353568 -0.0054209335 0.070512444 -0.01905356 0.06935465 -0.0041056373 -0.01193538 0.11555767 -0.005916548 -0.008058247 0.062351298 0.0036340246 0.07223532 0.06791012 0.0052286186 -0.009311846 0.05965974 0.063069806 -0.009099339 0.06159074 -0.00702179 -0.003661857 0.06567057 0.07095571 0.06417177 -0.019377753 0.0064909086 0.07033619 -0.00044724718 0.06326021 0.059100907 0.008172555 0.07238579 0.060593687 0.0035350868 0.06344369 0.07087989 -0.005059578 9.019859e-07 0.0051978696 0.06338045 0.0653501 0.06534574 0.07147915 0.06085224 0.06561102 0.07202534 0.068510436 0.021050278 0.06903381 0.0662071 0.05571983 0.00063392153 -0.020829014 0.05896222 0.06770936 0.08055499 0.076569974 0.06342916 0.06332105 0.069520056 0.017643683 0.06991561 0.06282511 0.0066326265 0.07089079 -0.0075627645 -0.0015826186 0.06855932 0.06604097 0.065623835 -0.027251568 0.0030558065 -0.0025420827 0.07876901 -0.0027715717 0.0030685747 0.067152485 -0.004630534 0.06798547 -0.014102633 -0.010004187 0.07734036
doc_38 0.07807948 -0.005980958 0.09103714 0.0899598 0.024796363 -0.016176805 0.08327061 -0.004186595 -0.014802291 0.1007999 -0.0058551473 0.08143155 0.05637327 -0.013918042 0.068662964 -0.01079189 -0.018145021 0.08592249 -0.01963611 0.08805878 -0.009090355 0.06848477 0.0064589647 -0.019178476 -0.0055995816 -0.004480955 -0.0034580976 -0.022646323 -0.017601598 -0.011162497 0.092874706 -0.0071406774 0.088003695 0.008781454 -0.021492401 0.0877465 0.0870539 0.08405489 0.08213134 0.09577298 -0.0073682927 -0.010970973 -0.005011917 -0.0141830295 -0.017960746 -0.010201701 0.083438374 0.00096302945 -0.003471797 0.038176175 -0.027943304 -0.0014770324 0.06690364 -0.0011296347 0.08140274 0.012449286 -0.01683537 -0.014206954 0.088508375 0.09030223 -0.019881126 -0.016713828 -0.0153865535 -0.0053592687 -6.976724e-05 -0.013606187 0.08291788 0.0011747018 0.08867335 -0.0023456751 -0.014375714 -0.016369682 -0.016699702 0.08544186 -0.0034435627 -0.0036609822 -0.0011266614 0.09114456 -0.019058116 -0.014100905 0.0786729 -0.0036388673 0.07213027 -0.023397055 -0.0091181565 -0.008017022 0.076827645 -0.020715073 0.08976102 -0.013357777 -0.0066555254 0.0815642 -0.02489591 -0.018253533 0.08441968 -0.005520572 0.0033248188 0.08962374 -0.015854029 0.065347604 -0.019320467 -0.016941266 -0.015587266 -0.0036015408 -7.497845e-05 0.05089008 -0.013877737 0.086012185 0.07885495 -0.009817331 0.081870764 -0.018012704 0.08289346 0.0023385182 -0.020726677 -0.009624122 -0.00928841 0.0012683491 0.07322878 -0.008149566 0.07731115 -0.0052102227 0.08390639 0.016451161 0.07734909 0.08519632 0.07839992 -0.016722005 0.07928562 -0.007204592 -0.012397889 0.08275303 0.0886562 -0.019871857 -0.013438843 -0.00045726355 -0.013529601 0.061747488 0.081591114 -0.011282252 0.0014333366 -0.011347737 0.05316961 0.06987272 -0.01593826 0.075503565 -0.01579808 -0.015024155 0.087753974 -0.0028565857 -0.021907106 0.009927125 -0.017038465 0.008064329 0.08666968 0.08836389 0.07385628 -0.019449906 -0.008358002 -0.0036030172 -0.006564031 -0.00016458612 -0.0081049595 -0.0013071569 -0.0076676356 -0.017525358 -0.006623899 -0.0241935 -0.014214259 0.08487098 0.041033577 -0.01532731 -0.010116035 0.00091343187 -0.0026852454 -0.015413643 -0.019729638 -0.01008564 -0.027544487 -0.009985663 -0.0058580833 0.0882995 -0.010427568 0.05598186 -0.017987154 -0.00982063 -0.017803434 -0.014425173 -0.024335066 0.09435861 0.061629515 0.008820727 0.094146505 0.08161157 0.0023661787 0.08380571 -0.010611318 0.07701382 0.08445226 -0.0018569985
doc_39 -0.0076067112 0.06697939 -0.007715294 -0.0055160597 -0.007637846 0.012086431 -0.012226463 0.066693395 0.065744705 0.0015496835 0.065262675 -0.0057471422 -0.023066197 0.059239253 -0.0052034296 0.06142936 -0.02059409 -0.008688191 -0.024711136 -0.00048305187 0.06556371 -0.017952433 0.064437106 0.06560869 0.06226748 0.057341795 0.063240066 0.058386106 0.05484521 0.056539588 -0.0044436585 0.058306865 -0.0061695576 0.05999784 0.0037740748 -0.01272019 -0.008732209 -0.004416913 -0.012167417 -0.0015743878 0.056712054 0.058204487 0.06143806 0.054314435 0.059124716 0.053358257 0.003482081 0.06417583 0.059556454 0.07377255 -0.025869193 0.062074546 -0.0033118566 0.06282306 -0.012231819 0.09241514 -0.021244103 0.06303507 -0.01362952 -0.008435035 0.053938404 0.05883775 0.05565175 0.06258368 0.05879808 0.059544113 -0.01409868 0.06432378 -0.015249605 0.059671815 0.05943411 0.058280718 0.061042428 -0.0068828044 0.06557511 0.05996415 0.06869845 -0.009182055 0.056990754 0.057333864 -0.0150637375 0.057251938 -0.01255564 0.0559134 0.061583083 0.06072758 -0.019502722 0.058663167 -0.00036384817 0.05925072 0.05285545 -0.0087007675 -0.02572171 -0.021019246 -0.0009752074 0.057579007 0.066597335 -0.0017772028 0.06249697 -0.01801936 0.05456062 -0.01596151 0.06773939 0.06356104 0.061068207 -0.030649379 0.020017307 -0.012866883 0.0011262223 0.05660733 0.0009134095 0.059465896 -0.02343699 0.055499136 -0.023185492 0.058505733 0.07883283 0.05802512 0.0033165114 0.06389301 -0.019553985 0.053310703 -0.01093263 -0.01786813 0.12096011 -0.009782451 -0.0037391884 0.05232377 -0.004310062 0.054769192 0.05691842 -0.000724528 -0.0025247447 0.05931063 0.06121946 -0.0015538407 0.055425312 -0.020387733 -0.013738596 0.056260187 0.0625843 0.05120932 -0.029052006 -0.0013204422 0.060025115 -0.008082281 0.063259944 0.024560926 -0.0057537965 0.059579637 0.059072513 -0.0028298888 0.053773347 0.06473483 -0.0028005065 -0.005916546 -0.0071956664 0.06302481 0.05273137 0.06372898 0.057014063 0.05576424 0.06122267 0.060715284 0.064649895 0.024278257 0.06385417 0.058062658 0.06676953 -0.0031604087 -0.039184727 0.059223894 0.06306536 0.06830138 0.066073716 0.06080182 0.061127238 0.05685265 0.0033340962 0.066543706 0.06088526 -0.0057780417 0.06373934 -0.013438463 0.03196309 0.056415364 0.062757134 0.05755458 -0.020736039 -0.004798186 0.0036445735 0.06594426 -0.011806848 -0.005139797 0.06846626 -0.0099528115 0.05823484 -0.01727394 -0.026309166 0.060152724
doc_40 -0.044177957 0.1546896 0.0014474822 0.017994951 -0.0030874207 -0.039400496 -0.026130209 0.092618406 0.1676394 0.054050036 0.14372544 -0.008008516 -0.08772495 0.19718987 0.07634194 0.15046206 -0.078347385 0.026836421 -0.09086975 0.022913931 0.10448282 -0.02185821 0.10207966 0.160548 0.14430344 0.095397 0.085426524 0.15705092 0.14985247 0.15748335 0.054988872 0.15175678 0.13878603 0.11550875 -0.04330375 0.046084505 0.043922666 0.03880961 -0.002205445 0.0887062 0.17093757 0.18494213 0.16343899 0.1329381 0.16560031 0.14290118 0.17936595 0.10172115 0.16931435 0.039655853 -0.10064416 0.1218402 -0.021183332 0.13743708 0.054676767 0.048707172 -0.110619955 0.13783269 0.11055143 0.06458923 0.17014445 0.16170788 0.16218953 0.19289048 0.13859542 0.14714086 -0.055251107 0.15806893 -0.059261378 0.12563679 0.18677999 0.17344424 0.13905345 -0.016160171 0.16009015 0.098555475 0.10725536 0.048183963 0.14300594 0.17906035 -0.023897557 0.119030744 0.07194324 0.1626915 0.15471894 0.15721296 -0.008081613 0.11860572 0.1015828 0.18569776 0.15603964 0.13401929 -0.09998438 -0.10838892 0.040536627 0.13538983 0.11537431 -0.0034029912 0.15207744 -0.05949874 0.1764341 -0.092561334 0.13311179 0.13556053 0.16311233 -0.11735624 -0.032959208 0.008060798 0.08240288 0.16998248 0.05367226 0.16625318 -0.01748783 0.11219045 -0.104675926 0.11835716 -0.058081593 0.11986429 0.1570393 0.12219825 -0.061358083 0.1131041 0.033598468 -0.102464765 0.2018738 0.0169696 -0.031262867 0.17493746 0.012158227 0.11378016 0.14753471 0.06489013 0.036185056 0.1694303 0.1518338 -0.068817414 0.16156155 -0.055075012 0.06733764 0.17491329 0.16077018 0.1273806 -0.071741804 0.036044966 0.16362369 0.11518989 0.16193661 -0.07318899 0.03006069 0.12673774 0.18072523 -0.08456833 0.19100277 0.1206222 -0.008539244 0.044182494 -0.03200495 0.17932284 0.17414133 0.18706012 0.13542607 0.16942692 0.15260282 0.121273875 0.116902016 -0.03056179 0.16773222 0.17711338 0.15528415 0.13305503 -0.11034103 0.18363358 0.17884867 0.047846813 0.13996303 0.1783786 0.18054272 0.15365492 -0.06343042 0.15774345 0.1758974 -0.03666324 0.15404886 -0.036510132 -0.030209571 0.14528291 0.14903997 0.17792857 -0.11002148 0.046208855 -0.014606198 0.11283397 0.041865155 0.04046634 0.12845232 0.059800632 0.16241758 -0.050681904 -0.071542844 0.07829551
doc_41 -0.15808845 0.1309455 -0.08594937 -0.12911125 -0.01887719 -0.00073738676 -0.037987016 0.18344681 0.17340925 -0.15576994 0.16795945 -0.0892841 -0.07398613 0.1604524 -0.068354554 0.18643753 -0.03294321 -0.069299035 -0.013707476 -0.11404279 0.17496175 -0.08871115 0.14724731 0.16238815 0.20036013 0.16992816 0.16449645 0.1615949 0.15952303 0.12947527 -0.06968918 0.17746909 -0.06464173 0.16015117 -0.041162405 -0.09754448 -0.087599896 -0.10269333 -0.16574654 -0.08324399 0.17789555 0.16502608 0.1602525 0.17577507 0.1628255 0.17563751 -0.118182704 0.14798532 0.18508576 0.21169573 -0.073534 0.2059904 -0.15066694 0.18487287 -0.061679803 0.0804612 -0.063076094 0.16098176 -0.12791763 -0.098994285 0.18048193 0.15624298 0.16054632 0.15686005 0.17238817 0.20725337 -0.07474063 0.18277836 -0.10132635 0.16991213 0.17119703 0.16825591 0.16672339 -0.062739715 0.1623923 0.17459 0.14812787 -0.17136209 0.18612567 0.17238937 -0.031764846 0.18777439 -0.1636929 0.17380777 0.17128007 0.18126096 -0.06803979 0.17901926 -0.08560036 0.15897407 0.16073771 -0.10430217 -0.068536095 -0.05135196 -0.08255464 0.16139108 0.18441565 -0.067464925 0.18294737 -0.047892388 0.16524275 -0.040541627 0.17476444 0.19835049 0.15962218 -0.02985785 -0.039739657 -0.15060902 -0.093004316 0.18984567 -0.12117545 0.1768747 -0.059066895 0.13956018 -0.005893122 0.17468531 0.113759324 0.16103287 -0.118905574 0.17349802 -0.05346351 0.15730344 -0.055220265 -0.0586372 0.10920073 -0.11308571 -0.075300954 0.16628937 -0.10629498 0.19840844 0.1816039 -0.09920263 -0.12254241 0.16335352 0.17044657 -0.03562078 0.16339013 -0.16489837 -0.13149731 0.14815387 0.19629197 0.18159978 -0.03833335 -0.08332636 0.1681772 -0.17887804 0.16233693 -0.009074679 -0.11240922 0.18808791 0.14456113 -0.040538672 0.15153183 0.16868415 -0.0605267 -0.18873055 -0.03809614 0.17498128 0.14768872 0.16240023 0.1832725 0.17732531 0.19170731 0.1883558 0.18985379 -0.03502605 0.18632792 0.18264765 0.158211 -0.15621208 -0.034652926 0.16470765 0.16587627 0.13682817 0.17507453 0.1557524 0.14496744 0.17691003 -0.054370753 0.18279023 0.14510676 -0.064813234 0.17206858 -0.13825266 -0.024470644 0.16837089 0.17506874 0.14659953 -0.05000414 -0.10952964 -0.086254016 0.15301892 -0.099164024 -0.13835056 0.1971708 -0.10775855 0.16519246 -0.07048975 -0.07378993 0.160337
