doc_0 0.13906257 0.17000669 -0.029422972 0.15749794 0.21174806 -0.06875512 -0.0452045 -0.06156782 0.14596522 -0.042741735 0.19382474 0.13570595 -0.022234445 0.032912552 -0.025774218 0.21139988 0.17230399 0.131191 0.22451867 0.03965295 -0.013563855 0.09375769 -0.018316805 0.15601435 0.058584817 0.20999426 -0.016802004 0.2902183 -0.085499026 0.0821242 -0.024893282 0.10998885 0.012250652 -0.021531926 0.010217953 0.17210975 -0.00995327 0.030763082 0.14441063 0.15306088 0.14382844 0.036653806 0.13856204 -0.071831636 0.063914895 -0.067007974 0.065343775 0.016444657 -0.008539313 -0.057012167 -0.02867977 0.19567955 0.028210899 -0.05922447 0.2592783 -0.06388006 -0.057836816 0.1466566 0.13815804 0.028721476 0.038205 -0.06428129 0.2600128 -0.012127525 0.13616219 0.07957965 -0.04264282 0.19248743 0.25502303 -0.08811589 0.2337584 0.11628218 0.06513707 0.14453603 0.009477744 0.005239358 0.064478256 0.15762357 -0.0072477683 0.021646822 0.10134793 -0.020926261 0.16013975 -0.06580699 -0.0036404636 0.20849301 0.0514889 0.11844788 0.062138844 -0.052106686 0.19591446 0.14217265 -0.065603316 0.14488302 0.062403433 -0.026772922 0.19945024 0.22537722 0.13653798 0.071472354 0.005021261 0.02442371 0.2359311 -0.037496824 0.06269932 0.1464659 0.049325135 -0.029208563 0.0099988235 0.07918054 0.084280685 0.25931025 0.04591016 0.031244125 0.175219 -0.04050836 0.022074295 0.10178596 0.23506372 0.22765616 0.13950114 0.19898885 -0.04911843 0.16950543 0.12902084 0.09180232 0.029060893 0.0070426725 0.03726957 -0.028844768 0.22174947 -0.054551844 -0.024883047 -0.054225262 0.08888369 0.089172795 0.14885426 0.17264171 -0.048181683 0.0065752952 0.07335751 0.07693805 -0.029350799 0.0777327 -0.069757186 0.0041947174 0.23014128 0.075499184 0.2512144 -0.016989807 -0.058356863 0.046417862 0.20724626 -0.07970511 0.09619702 0.1400551 -0.0559275 -0.054414634 0.14113657 0.012095632 0.11879477 0.033805586 0.119246274 0.15202126 0.17846242 0.049034804 0.24229315 -0.04110358 0.14720367 -0.007923115 0.0158842 0.104776606 0.018716633 0.21250372 0.24001634 0.07227857 -0.04732466 0.041962784 0.07924082 -0.020507723 0.19743985 -0.08411285 -0.010476405 0.10812817 0.13578685 0.15999977 0.045682207 -0.035484437 -0.02559201 0.17566824 0.058069658 -0.057966214 0.0038375438 -0.01208579 -0.04064694 -0.0105916485 -0.05932965 0.16390762 -0.032428317 0.15914889
doc_1 -0.0733677 -0.018069457 -0.04980833 -0.005156208 -0.1011529 0.2990566 0.069210626 0.042885605 0.3349423 -0.088425465 -0.014313219 -0.06230608 0.23941028 0.11392089 -0.0455813 0.2630257 -0.112507544 0.030688105 0.3201342 0.12428007 -0.025207805 -0.03992569 -0.016927414 0.02455055 -0.037898935 -0.09588726 0.15139304 -0.0090363715 -0.022870593 0.03604896 -0.03564516 0.02580098 0.25225678 0.060463205 0.22244279 -0.030923767 0.03375622 0.012544266 -0.08788458 0.22096753 -0.0191915 -0.058514267 -0.01621694 0.19988437 -0.031296626 0.21064891 -0.011756137 0.042327587 -0.004671482 0.13004884 -0.051068366 0.094838634 0.02862154 -0.06079176 0.060286 0.19308087 0.5037881 -0.03579189 -0.046381555 0.058942623 -0.018285371 0.3921988 -0.08131393 0.09518208 0.0027613943 -0.03016783 0.04541712 0.00335724 0.5087201 0.026327414 0.3944223 -0.0010312095 -0.011414102 0.018407952 0.037892524 -0.016294267 -0.005174041 -0.049683083 -0.058121283 -0.016214944 0.0014189674 -0.020437509 0.020392668 0.15839878 0.17368108 0.0028633913 0.019594703 0.040709265 -0.0149340015 0.008609986 0.024621043 0.05970199 0.24940905 -0.026697202 0.012453357 -0.04528011 -0.05595247 0.09815228 -0.07081001 0.079449594 0.06302147 -0.043812018 0.053289793 -0.03396714 -0.042798292 0.02717277 -0.018498803 -0.04309789 -0.032340445 -0.050003782 0.012657621 0.027688662 -0.063368805 0.002670708 0.044481914 -0.006626876 -0.061633885 -0.046286754 0.07752245 -0.02253357 -0.0002817905 0.18961148 -0.016063938 0.14153178 -0.05908581 0.10687138 0.12287139 -0.033706762 0.22150414 -0.033179983 0.48485532 0.008984962 0.012813558 0.54850584 -0.012610508 0.03721367 0.0012740962 -0.019489106 0.514762 0.26202598 -0.037148822 -0.06861739 -0.08569233 -0.030014066 0.53977036 0.026335027 -0.02413654 0.08695941 -0.07704905 -0.04673732 0.13171434 0.07500592 0.000731759 0.2517666 0.013190611 0.03603618 0.021467805 0.0046227174 -0.06290317 0.12640777 -0.020164931 -0.02187212 -0.01400788 -0.034925453 -0.040381577 -0.046913356 0.042500455 0.25469705 0.13807602 -0.0076716733 -0.033411723 -0.046324313 -0.013559583 -0.0024199844 0.27595013 0.14554377 0.16901088 0.09286595 -0.020489173 -0.028882204 0.41034493 0.51079094 0.00607861 0.0605747 0.039843384 0.037632212 -0.028593766 0.070988186 0.28741357 0.062414307 -0.009959404 -0.048767447 -0.051743656 -0.04827984 -0.033956405 0.062090997 -0.058809094 -0.044398427 0.025210746 -0.028366141
doc_2 0.14558099 0.16537057 -0.025257189 0.13320015 0.23808123 -0.09961898 -0.19112799 0.016599642 0.195998 0.007498838 0.07383749 0.11891629 0.034370482 0.05479067 0.004238806 0.14730725 0.17452836 0.13882102 0.21557918 0.17622772 0.066358455 0.122818865 0.06639222 0.13819939 0.095827356 -0.052381966 0.12548433 0.097488165 0.08517001 0.095257685 -0.027586758 0.08429562 -0.11672533 -0.094940536 -0.041286238 0.12206659 0.11038632 0.053597827 0.14812607 0.16385065 0.104063556 0.09828758 0.11128243 0.023687584 0.0843846 -0.11199675 0.06545167 -0.096474946 0.23750229 0.051219072 -0.019574346 0.1058944 0.08880096 -0.04607497 0.21488515 -0.025648199 0.16030748 0.14566584 0.13811848 -0.060897294 0.118343666 -0.13061914 0.22596616 -0.036077034 0.13383664 0.095462196 -0.051737342 0.14446373 0.2126638 0.00063038006 0.24224612 0.085694544 0.110692695 0.17631154 0.08869984 0.09540081 0.06561695 0.1271765 0.066249534 0.08627555 0.13200709 0.05002199 0.15364549 0.025999941 0.030941593 0.18119657 -0.037686333 0.14313187 -0.05138939 0.11178797 0.11994052 0.1829842 0.1794293 0.13360423 0.07808087 -0.02097462 0.19171256 0.25936782 0.12919265 0.10069703 -0.0015630074 0.06912196 0.13461538 0.12735128 0.06824302 0.12392333 0.094244145 -0.13735121 -0.040597524 0.09672054 0.103894964 0.13851999 0.19743277 0.10596978 0.16896531 -0.046475526 0.05572093 0.13114981 0.25442263 0.074391186 0.14052741 0.19269104 -0.061767653 0.07074247 -0.04716783 0.18377478 0.109155335 0.045806922 0.13805243 0.0029919085 0.19623141 0.11028148 0.030056532 -0.03882315 0.114448845 0.10743269 0.124806695 0.12995169 -0.007750703 -0.06327113 0.055892598 0.10885697 0.05029309 0.09978388 -0.06039938 -0.18328068 0.19243664 0.14794776 0.19592232 -0.0051718615 -0.06913297 -0.027374653 0.18285792 0.034495145 0.09566826 0.16145632 0.0943767 0.068011 0.1426496 -0.01814822 0.11971113 0.10381297 0.11447966 0.14034075 0.14508478 0.09607082 0.1683716 -0.015287357 -0.05503712 0.059647556 0.004947469 0.107037485 0.02134832 0.13793866 0.22146688 0.10734525 -0.11832432 0.13344353 0.11276141 0.07452004 0.07832016 0.063250795 0.07009282 0.1691634 0.05343328 0.17956342 0.080463596 0.07695224 -0.13462281 0.19598679 0.059402958 0.021555558 0.072843485 -0.07073142 0.0956654 0.051095348 -0.005498261 0.050314937 0.012857718 0.17794523
doc_3 -0.043251146 -0.043268494 -0.021870283 0.11798925 0.025395144 0.17942902 0.11088456 0.009174652 0.17919493 -0.043942396 0.086323544 -0.021838926 0.0068421727 0.11964717 -0.021229185 0.18284865 0.069761954 0.07544767 0.19049123 -0.012182211 0.03643237 -0.032719653 0.044621363 0.131694 0.0115145985 0.10079413 0.11788871 -0.0057093045 -0.010364184 0.11456025 -0.016169786 -0.0041543627 0.22057928 0.00037261107 0.1492073 0.07361347 0.10324455 0.11815895 -0.052595083 0.14493646 -0.012826323 -0.037074436 -0.032813314 -0.0038761373 0.04090792 0.020922858 0.018058889 0.065506734 0.051542073 0.20934257 -0.02520161 0.05354377 0.09168306 -0.037778106 -0.001353237 0.1414084 0.21189865 -0.03520017 -0.04107436 0.14455685 0.067939736 0.20169489 0.003920366 -0.0013845789 0.06120583 -0.010474743 0.121685185 -0.03792168 0.20011972 -0.034808233 0.18674728 0.03750615 0.05089948 0.059405264 0.09268541 0.041542683 0.06348084 0.045684118 -0.03383828 0.08938677 0.10493765 0.09805811 0.1235007 0.0032987113 0.008359434 0.01757458 0.12536474 0.09362614 -0.02586141 0.07060657 0.1467758 0.024374725 0.212002 -0.02155517 0.098972574 0.0893229 0.011085842 0.004595728 -0.020713888 0.0805437 0.12248069 0.05092343 0.036758423 -0.054648366 -0.03577828 0.1473261 0.074322 0.043932125 0.054270666 0.021617124 0.06948355 0.023965241 0.09793068 0.013798874 0.08252571 0.0103783645 -0.029528324 0.028009035 -0.0012160734 0.110150486 0.11209411 0.04506777 -0.05258144 0.18330647 -0.055215165 0.12864475 0.15207277 0.02852832 0.14438762 -0.018193746 0.18842159 0.09590879 0.045222454 0.17351598 0.09681011 -0.021226112 0.080923155 -0.040451363 0.18810688 0.18583359 -0.025637053 -0.026556421 0.09986499 -0.0033202579 0.18956475 0.09478388 -0.018038033 0.16210443 0.007866322 -0.008614164 0.1039097 0.12397825 0.027177306 0.06525499 0.07061232 0.093875654 0.1017378 0.11974646 -0.04212503 0.10675962 0.019311601 0.03492805 0.018050354 0.044074208 -0.038336452 0.04765291 0.035673946 0.005435003 0.19708088 0.062332083 -0.014352757 0.023403242 0.1020615 0.124175295 0.19321688 0.13798507 -0.002766392 0.14879096 0.00047412267 0.027423091 0.049807668 0.21028 0.13021754 0.079061694 0.11545835 0.07410924 0.055361573 0.16892067 0.003585806 -0.02696286 0.111443855 -0.03126334 -0.034578126 -0.015765015 0.054256808 0.13058533 -0.021633148 0.099321134 -0.004930604 -0.032912314
doc_4 0.2318686 0.08842906 -0.054927822 0.1302533 0.119382724 0.010029753 0.055564407 0.24494882 0.16731362 0.07303076 0.075307764 -0.04918149 0.4386112 -0.13881513 -0.050550897 -0.07122115 0.23556042 -0.022479666 0.14619103 0.32043082 0.014634593 0.1273316 -0.015824504 0.03829195 0.009328798 -0.061723374 -0.03374201 0.18005732 0.5243771 -0.1136779 -0.0523469 -0.124924965 -0.064720154 0.16310735 -0.06376937 -0.081053436 -0.015809247 -0.0625575 0.12836048 -0.1207421 -0.037260633 -0.026577389 -0.11569967 0.49575487 -0.05373285 0.13185698 0.06587313 0.019094504 0.1259362 0.6808915 -0.051847 0.0447258 -0.10659429 0.24025938 -0.01111484 -0.04649607 0.046386395 -0.04135748 0.092011765 0.23371078 -0.0066746194 0.1586057 -0.117487736 0.03552355 -0.029929925 -0.043626115 -0.010547157 -0.04326005 -0.018789057 0.64580864 0.051318668 -0.11873049 -0.0017524868 0.030668607 -0.086874776 -0.031008106 0.008231422 0.15896003 0.11993031 0.009846636 0.19119321 -0.07863437 -0.007799186 0.41206205 0.21595764 0.31080472 0.21912912 -0.018745927 -0.05599558 0.3458796 -0.07920535 0.2216585 0.570021 -0.080277346 -0.07454032 -0.0646963 0.16800007 0.42770955 -0.05803503 -0.031568103 -0.13802397 0.02878039 0.42036635 0.3050898 -0.086117186 0.2670584 -0.051166687 -0.12532927 -0.08794158 -0.046184357 -0.1122774 -0.15576072 -0.04724997 -0.037448127 -0.114157714 -0.0021221193 0.3236144 0.13532464 0.20281851 0.09823849 0.06023992 0.4101962 0.06047307 -0.10858902 -0.13622862 0.25099486 -0.030856181 -0.11184118 0.023828242 -0.046827212 -0.025548888 0.4768691 0.014331691 0.0442954 0.14609587 -0.13253386 -0.09126736 0.058994334 0.12909253 -0.0646581 -0.13699712 0.21575904 0.5234587 0.084476486 0.37032846 -0.0773837 -0.03113315 -0.026104297 0.6901683 -0.06929328 -0.0858828 -0.1179541 0.07381969 0.46833917 -0.120057255 -0.12604234 0.4573217 0.37912428 -0.027670696 -0.09290977 0.0036256523 -0.017572382 -0.10992692 0.28383967 -0.019449314 0.048547678 -0.009126094 0.44922885 0.059968133 -0.0863036 -0.054137737 0.0009345155 -0.049097497 -0.037278052 0.14712948 -0.02581022 0.26326582 0.103179455 -0.08383339 0.121858634 0.024958013 -0.008841518 0.024284294 0.018407743 -0.051193707 -0.07105319 -0.06292198 0.31753707 0.26549095 0.14796741 -0.10543073 0.4808199 0.3082379 -0.085348 0.14961615 0.105626814 0.41616827 -0.061017327 0.19962415 0.07663953
doc_5 0.019959632 -0.07154437 -0.011560585 0.031891804 0.052325122 0.18200272 -0.006480434 0.19930646 -0.05938519 -0.013387132 0.25367567 0.14028932 0.024477871 0.006354252 -0.019896565 0.17664126 -0.065377705 -0.009413373 0.09330346 -0.048308652 0.07801243 0.0028306087 0.1191887 0.08887306 0.050525982 0.10171976 -0.019278599 0.12559974 0.13267846 0.024158264 -0.008930629 0.17407125 -0.081231475 0.13978049 0.028345402 0.06964679 -0.05586481 0.032731157 0.119336516 0.115784265 0.092440195 0.09618054 0.14401406 0.1744944 0.12175 0.16369517 0.17948315 0.10173524 0.23467046 -0.03607312 -0.024346355 0.23056485 0.0015294631 0.19820349 0.11165638 -0.04625667 0.12325298 0.14207049 0.097077996 0.21706423 0.07187123 0.251554 0.10451378 -0.044935517 0.03595923 0.1290841 -0.016125198 0.14657053 0.00042023274 0.26027453 0.06129224 0.0040597026 0.040496632 -0.00030692597 0.057224587 0.108580224 0.095954746 0.18833244 -0.033904348 0.100969836 -0.0027310643 0.00084891333 0.009027076 -0.08368352 0.03132004 0.05115272 0.24558325 0.051418085 -0.065679565 -0.027558759 0.14901175 -0.016263619 -0.0498494 0.04502511 0.08232509 -0.022648154 -0.02177748 0.19234964 0.14511056 0.0016032988 0.08785769 0.115223676 0.09975636 -0.042448156 0.119296804 0.17963421 0.15213521 0.3334742 0.14011784 0.12552112 0.019282585 -0.035459682 0.16622657 0.07078751 -0.0077079744 -0.09389481 -0.07389511 0.019868158 0.12256896 0.26744494 0.07515814 0.18889584 -0.030820131 0.2359237 0.036156345 -0.050686363 0.10267413 -0.0897846 0.1462616 -0.022726921 0.17602286 0.28402752 0.042754576 0.19930449 0.045687985 0.17597489 0.12096995 0.017179819 -0.00362329 -0.0019987873 0.1014636 0.21923557 0.07262431 0.052719973 -0.029547404 0.2769776 0.03560118 0.19182765 0.11269885 0.16112198 0.15723579 0.1408413 0.24358007 0.13387042 0.024323074 0.06526028 -0.012381059 0.18882251 0.063459344 -0.072314516 0.0905389 0.036740005 0.11041911 0.16748226 0.025967011 0.10928412 0.025637822 0.19480337 -0.040858142 0.02372939 -0.00051617826 0.088062935 0.09379896 0.029872019 0.07339529 -0.03878823 0.16532996 -0.025428921 0.0174545 0.07034114 0.021951945 0.20662732 -0.05063944 -0.049875252 0.14640807 -0.05672407 -0.0035630814 -0.054619238 0.1822058 0.003854313 0.024711706 -0.079074845 0.16042383 0.1940423 -0.06555705 0.016479699 -0.07801653 -0.053363502 -0.0043147895 0.0060636518
doc_6 0.03654709 0.23833884 -0.025536137 -0.049729068 0.06921041 -0.0050399587 0.32626072 -0.039037284 -0.004123668 -0.002029345 0.38428396 -0.012679851 0.28840348 0.13838351 -0.034574907 -0.0018116314 0.050856326 0.1462145 -0.045621116 -0.0038576615 0.06285743 0.11853112 0.04520004 0.110405125 0.021974042 -0.011291282 0.08465705 0.0062073423 0.1640613 0.08870236 -0.030214144 0.26115754 0.3992026 0.31680056 -0.033406716 -0.031160451 0.15553051 0.025666228 0.0009913818 -0.019207358 0.13032018 0.053209588 0.036690585 0.2509664 -0.0079122055 0.28995878 0.019377321 0.37885964 0.058109246 0.08082121 -0.03145038 0.12153377 0.09044221 0.06563497 0.16790326 0.14131193 0.3136731 0.1591373 0.09225633 0.03911992 0.026218204 -0.050277896 -0.0040805875 0.31128982 0.03397073 0.062252935 0.029133411 0.21470477 0.361178 -0.054727662 0.01424703 0.16084117 0.06926518 0.04673369 0.122457676 0.073296964 0.09290811 -0.051583484 0.12162793 0.032138456 0.015037508 0.06728006 0.06907659 0.2968551 0.01506423 0.3597537 0.06894395 0.16389266 0.30769408 -0.011297968 -0.02082506 0.08597929 -0.065014794 0.15376881 0.10369585 -0.032433398 0.19396797 -0.026437692 0.017202852 0.04838584 0.028166324 0.05503108 0.26686826 0.09947403 0.12186069 0.0015099284 0.045321696 0.37184864 0.044628534 0.008879525 0.059463724 0.39337468 -0.051990632 -0.025924208 0.08069281 0.3452923 0.24604118 0.007405157 0.036944192 0.381283 0.04826012 -0.04935288 0.28431866 -0.009676663 0.30158806 0.13118257 -0.01383578 0.38585225 -0.04659921 -0.031906445 0.104369804 -0.052649643 0.09921816 0.21190052 -0.065834254 0.14028156 0.09987584 0.15869609 0.031958688 0.27359048 0.022287726 -0.0277883 0.051739383 -0.00043945748 0.040136598 0.38215193 0.19869354 -0.03496628 -0.05118016 0.1777257 0.11557907 0.20021002 0.06541552 0.2964874 0.1296705 0.11363912 -0.02330733 0.03419141 0.086723946 0.13418014 0.035079822 0.015570479 0.06746466 -0.060428884 0.22743018 0.040829197 0.41006437 0.0023811094 0.3582642 0.094529785 -0.030305922 0.063346766 0.039569438 0.0007407281 -0.016000075 0.024760019 -0.011210183 -0.0013273369 0.10718731 0.02797127 0.36284643 0.28879547 0.09638241 0.19837436 0.16913751 0.1242894 0.076225 0.15228052 0.04719107 0.006408658 0.078461744 0.27072236 0.03157639 -0.026250953 0.112373695 0.007551888 0.33459404 -0.03640469 0.07869961 -0.011779569
doc_7 0.021436151 0.00073377555 -0.016716316 0.03171125 0.042662542 0.2030106 0.001941964 0.17914464 0.03929411 -0.01154097 0.22885528 0.111310974 -0.039407674 0.01712424 -0.025298819 0.23077834 0.08412543 0.1009887 0.19189616 -0.035917945 0.042834006 0.0027270238 0.08579535 0.12685163 0.022559676 -0.026240349 0.079194404 0.0805575 0.09666244 0.066938594 -0.020511156 0.18076439 0.029157193 0.18249366 0.14635879 0.109939486 -0.0027317535 0.03418846 0.13096581 0.13937515 0.11706317 0.07884894 0.13027813 0.12049039 0.06830259 0.17769608 0.15475978 0.0059036 0.032629292 0.00028605014 -0.01762602 0.24462163 0.02627061 0.088664554 0.03944109 0.0047618635 0.14072753 0.13190499 0.09385935 0.19942513 0.043952156 0.045658715 0.04674627 -0.0018045725 0.05419724 0.07275589 0.02787723 0.15572491 0.12394403 0.15360627 0.08697235 0.010883912 0.034119982 0.032482345 0.06717395 0.09535136 0.12658785 0.1926902 -0.0030770246 0.08958309 0.035790164 0.00719555 0.036791466 -0.041554686 0.11060028 0.108430795 0.18798766 0.08645341 -0.010001085 -0.02343735 0.18682559 0.00701805 0.015940726 0.06688312 0.072486855 -0.017144697 0.023132103 0.23950966 0.103029504 0.0106977625 0.04044879 0.08189508 0.04490009 0.02694192 0.13292646 0.23316772 0.118936814 0.2048339 0.10056915 0.084397994 0.038471233 0.019543923 0.1554209 0.024818342 0.08049261 0.015913619 0.004825879 0.018224223 0.23760086 0.22307155 0.11309414 0.21259104 -0.009952299 0.2368903 0.0073079467 0.0039572925 0.09105985 -0.0059111025 0.20467323 -0.015716363 0.23604718 0.231969 0.044461355 0.15992303 0.07319029 0.12605134 0.124212265 0.051431734 0.07142707 0.0001185406 0.055540014 0.1288187 -0.04977732 0.07128662 -0.012706187 0.19213028 0.008762793 0.18040352 0.0372187 0.11832548 0.09379695 0.15239485 0.2087372 0.14102505 0.06189283 0.0909532 -0.009755868 0.12532565 0.08777511 -0.000838873 0.073019125 0.0050924066 0.09013571 0.20526755 0.0705744 0.09162571 0.13003983 0.15814446 -0.004975328 0.0061982265 -0.014361754 0.06035665 0.06781457 0.029558815 0.15022348 0.006661106 0.17319734 0.00788534 0.030439613 0.034026638 -0.025515372 0.17424667 0.019953258 0.0010173828 0.19132732 0.033952333 0.00444036 -0.002547088 0.12879932 0.014876101 0.015356321 -0.025266793 0.11559452 0.15920894 -0.0097204 0.002262217 -0.011338754 0.03487748 0.0069226557 0.034014046
doc_8 -0.021320345 -0.007040983 -0.044138 0.05601979 0.20525318 0.21412486 0.00042692243 0.1723422 0.00030837842 0.062149666 0.41913494 0.13481554 0.14429308 0.04421348 -0.008806413 0.24303685 0.19669141 0.07160308 0.110923186 0.030373618 0.06081294 -0.021187367 0.09600959 0.13419574 0.041729204 0.081701234 0.1417119 0.029923975 0.14678317 0.05443781 -0.021477908 0.25585452 0.09668928 0.29281873 0.2471048 0.14771034 -0.023276223 0.042670313 0.12156068 0.215954 0.08745071 0.14104857 0.13553381 0.29221418 0.111980036 0.2519304 0.13565825 -0.0070616147 0.020825237 0.11642617 -0.041836772 0.17380515 0.03869699 0.20971474 0.0760522 0.02616959 0.06704203 0.09277129 0.09243361 0.40433863 0.0541946 0.052302614 0.15326077 0.07056643 0.046216987 0.08579375 0.068388164 0.11055412 0.045148715 0.276838 0.072696164 0.007973799 0.035896305 0.059218645 0.074764155 0.101915866 0.16982524 0.21534416 0.010658354 0.103321984 0.021792345 0.027167039 0.05884338 -0.0328683 0.03362366 0.11425681 0.3826575 0.091099426 0.11982493 -0.01010908 0.216617 0.005881466 0.07406225 0.08270249 0.05769342 -0.036718853 -0.008026014 0.34196126 0.12178493 0.029110698 0.108257346 0.08472822 0.07202272 0.030755257 0.20384651 0.11485583 0.16305678 0.43325365 0.17688246 0.11891857 0.05035039 0.1334769 0.31377056 0.11198393 0.08805863 0.09873925 0.1854237 0.033191454 0.23378025 0.26268962 0.09176301 0.21778335 -0.027281325 0.27587748 0.1611923 -0.0104411775 0.121837944 0.18212186 0.27142844 -0.027787123 0.25029743 0.44050208 0.045432832 0.34682524 0.11305569 0.23371118 0.101021536 -0.018084474 0.11199915 0.08642753 0.10418367 0.18465103 0.053590167 0.08883813 0.0017690996 0.45295477 0.028551096 0.24869032 0.10517463 0.24039571 0.19032168 0.22605804 0.29349682 0.3159554 0.05228969 0.07037428 -0.011698132 0.21455425 0.06951017 0.025458718 0.058231454 0.04253602 0.10048566 0.23287703 0.027761262 0.11742338 0.046124235 0.24190813 0.15891142 0.046521474 -0.03420225 0.0327388 0.069874845 0.009289938 0.11821458 0.011946061 0.21639958 0.0040039886 0.03726368 0.060839284 0.010928528 0.14543255 0.029398495 -0.018112702 0.1626899 0.017109292 0.030753562 0.015328968 0.2569919 0.06610771 0.01749986 -0.05050229 0.13777284 0.32090995 -0.03082978 0.0038358567 0.027600985 0.16548543 -0.019176131 0.044456147
doc_9 -0.044009976 -0.050007015 -0.023063695 0.11398614 -0.035398442 0.18601055 0.11897666 0.008946265 0.17292313 -0.04917566 0.06024561 -0.022969369 0.011046039 0.11981786 -0.024130723 0.17951 0.04065942 0.07569507 0.18448627 -0.015750756 0.037947346 -0.030992093 0.04984464 0.14163692 0.010499125 0.1255932 0.12027113 -0.015349652 -0.01211058 0.11689543 -0.013353292 -0.004385709 0.22145413 -0.0090554925 0.15135854 0.07672513 0.1103693 0.123371996 -0.06317159 0.14680223 -0.011380294 -0.03393373 -0.03453289 0.0014103373 0.03494585 0.02497987 0.020227224 0.06944081 0.023099372 0.21345256 -0.022771887 0.039320663 0.09192514 -0.037764587 -0.029231938 0.1417423 0.21609005 -0.038608823 -0.045298427 0.13488103 0.064824305 0.2027726 -0.02749076 -0.001987394 0.05297326 -0.01305046 0.11925865 -0.044535335 0.20547009 -0.030237222 0.18623534 0.03568228 0.04996621 0.05855434 0.095675185 0.04017921 0.060692627 0.039522223 -0.028953694 0.08968436 0.10109903 0.108023204 0.12962922 0.0056419973 0.013739153 -0.012492512 0.11443461 0.09815399 -0.027108705 0.07258567 0.14387988 0.02049563 0.21188469 -0.03101697 0.10134515 0.09792858 -0.01397406 -0.0010941953 -0.03011492 0.08222941 0.13222384 0.055021282 -0.012919128 -0.05702474 -0.029057642 0.15315215 0.07458262 0.07223338 0.056883123 0.022294536 0.06671347 -0.034350812 0.10210042 0.010080881 0.082704894 0.014290211 -0.02038713 0.03031095 -0.002136113 0.112717345 0.113372795 0.049132872 -0.051509988 0.18031603 -0.052063644 0.13340698 0.15024886 0.048676386 0.15085575 -0.01731055 0.18988353 0.06631735 0.050348878 0.18848187 0.099857196 -0.02699678 0.08070626 -0.03897316 0.19420883 0.19581677 -0.019849094 -0.02282219 0.06431672 -0.0045073493 0.1877891 0.10806116 -0.026288759 0.16520804 -0.01713857 -0.009621477 0.10979107 0.13309388 0.014679607 0.07515121 0.0725522 0.08933183 0.10164361 0.12282676 -0.04622368 0.11720094 0.02242294 0.03280572 0.019001137 0.038223904 -0.047270246 0.051470704 -0.0038435732 0.0054337634 0.21590479 0.06735614 -0.010097884 0.025296716 0.1120318 0.12847602 0.1936325 0.13817263 -0.0054094745 0.14945732 0.0053789364 0.02651864 0.04156204 0.21452563 0.13095516 0.077580966 0.113855146 0.06894373 0.05880394 0.17103383 0.0050650504 -0.03888591 0.10991027 -0.02346855 -0.035601407 -0.013563843 0.059955627 0.13242352 -0.021645725 0.10196135 -0.024411662 -0.036301885
doc_10 -0.04450549 -0.076560274 -0.018865198 -0.07125147 -0.071547784 0.2987009 -0.006178125 0.34480318 0.0012751641 -0.047423046 0.024393443 -0.002517617 0.33411208 -0.020067679 -0.039701562 0.019927664 -0.07925429 0.014077589 -0.024012145 0.12375661 0.0024431334 -0.045076877 0.10996185 -0.05705005 -0.032776505 -0.00133113 0.06558267 0.021210356 0.21430477 -0.046304673 -0.007863353 0.031239858 -0.033947438 0.08070602 0.12752078 -0.05635079 -0.04070921 -0.046435628 -0.04315053 0.15070152 -0.024199279 -0.00992824 0.04839085 0.36786047 0.06139265 0.38829586 0.185682 -0.0303845 -0.029966574 -0.006565845 -0.024724677 0.3558153 -0.040274717 0.049138237 -0.024389943 0.00082885026 0.20516832 -0.041277166 0.11254528 0.038678847 -0.03686833 0.24391149 -0.03185177 -0.007356626 -0.014898679 0.046369955 0.031183053 0.08974503 0.03343937 0.36593464 -0.006753805 -0.029068435 0.0064929877 -0.049429253 -0.010956603 0.022495003 0.10254911 -0.0434731 -0.0630013 -0.012103668 -0.036433157 -0.038607787 -0.046357717 0.073177144 0.3239057 -0.09411303 -0.007576419 -0.044001006 -0.018882543 0.029308433 -0.0389156 -0.019253558 -0.05794163 -0.04765084 -0.033741556 -0.030698203 -0.06922352 0.4121095 -0.018402847 0.09208862 -0.013537092 -0.02647579 -0.064041086 0.115013115 0.15154082 0.001446374 -0.008678617 0.059557717 -0.020521397 0.03877605 -0.0431141 -0.031485297 0.0044970526 0.07237893 -0.04079971 0.016967835 -0.02642953 -0.047649976 0.28360644 0.020503435 -0.06958957 0.36525616 -0.03253672 0.027631875 -0.02308498 -0.029695999 0.045799855 -0.04983907 0.26175126 -0.028797138 0.31626537 0.3119603 0.04871731 0.36100405 -0.051608782 0.21993373 -0.041688822 -0.032960266 0.25871077 -0.04389541 -0.020025477 0.03635512 -0.09842835 0.11325494 0.22829878 0.019493748 -0.07130263 -0.030498212 -0.023100838 -0.032754812 0.21364798 -0.03942189 0.3581523 0.3699243 -0.056622848 -0.0374904 0.018119445 0.13444452 -0.064712666 0.019985037 0.07224723 -0.012482388 -0.011325215 -0.022977259 -0.0603971 -0.015257933 -0.069310464 0.41117302 -0.0019005914 -0.057832588 -0.0057609165 -0.040168088 -0.010997979 -0.021452447 -0.036706608 0.0040808534 0.38783506 -0.018081669 -0.0441479 0.059506826 0.06941336 0.09846689 -0.05977109 -0.033053994 0.036648393 -0.050643057 -0.026654176 -0.05905711 0.37446752 0.18975644 -0.043645337 -0.036649264 0.12331318 0.2852928 -0.066194125 -0.0006421247 -0.015836436 0.018119665 -0.0029764054 0.057565257
doc_11 0.18584077 0.2072601 -0.020692522 0.15461712 0.2794084 -0.06326688 -0.055493448 0.20308639 0.13178742 0.20780632 0.27336612 0.042172875 0.17827548 0.023873849 0.07160874 -0.012740737 0.27415326 0.02927392 0.20650661 0.19412838 0.098533094 0.15724356 0.026352009 0.18795262 0.09098474 -0.015488541 0.1592025 -0.002801963 0.23049901 0.044055834 -0.029634045 -0.013176666 -0.00014295177 -0.010241161 -0.043453995 0.048355017 0.13657336 0.070132054 0.20800464 -0.0019259952 0.0475199 0.17163904 -0.03205924 0.22089893 0.06305829 -0.040142514 -0.03146886 -0.040882137 0.26042464 0.24970095 -0.02191694 0.058062848 0.022793094 0.21933025 -0.007841276 0.073116586 -0.015017492 0.1258049 0.11494879 0.017731983 0.14384335 -0.096038066 0.12059004 -0.0068703927 0.06715093 0.0403587 0.03650701 -0.04284238 -0.008615676 0.21009694 0.19280873 -0.020776413 0.06349095 0.17270537 0.075983405 0.14263608 0.00018225332 0.20437072 0.18416366 0.1293424 0.14424929 0.078110255 0.18272327 0.15759827 -0.010748558 0.25410172 0.062256254 0.16223198 -0.00023515384 0.16833843 -0.02543435 0.18657486 0.25456986 0.13708441 0.04055973 -0.029333973 0.24471678 0.16944031 0.07648958 0.0019194586 -0.015117931 0.10669219 0.23479103 0.19137268 -0.009297195 0.21987486 0.12743239 0.054458313 -0.016300006 0.04609005 0.020467037 -0.031334955 0.063094005 0.12821381 0.0734772 -0.0070729726 0.20150681 0.14459877 0.24082533 -0.0559712 0.17556763 -0.030599544 0.12685344 -0.04000404 0.027211173 0.18556136 0.12766215 0.20056604 0.08341985 -0.011642178 -0.034411963 0.29890308 -0.0031774393 -0.02380294 0.1883298 -0.0012399233 0.060292054 0.010148948 -0.067374125 -0.050251983 -0.020517068 0.001796747 0.2705576 0.043641068 -0.07125125 0.039373938 0.18220517 0.17781083 0.25251004 0.14341035 -0.026987309 -0.031136142 -0.019070443 0.25383994 0.04253655 0.03287617 0.18862458 0.20494229 0.14513735 -0.0390091 0.03226804 0.09339642 0.017743971 0.21674134 0.18826471 0.14246577 0.001491732 0.006245339 -0.012426915 0.09704317 0.01164165 0.09796384 0.015805691 0.07217881 0.21915719 0.0088426145 -0.027126018 0.14177124 0.03404613 0.11041829 -0.039247718 0.18485062 0.14693896 0.11904524 -0.043059163 0.07811788 0.08605154 0.21894735 -0.065010466 0.0962239 0.018167902 0.22893825 0.16817878 0.0068131 0.17834657 0.055963233 0.17353705 0.07005991 0.09687549 0.06529431
doc_12 -0.007481557 0.19807962 -0.01913562 0.1281509 0.0042967796 -0.030543273 0.22195953 -0.04266993 -0.049286485 0.18246873 0.1959528 0.070327535 0.18496221 0.16694394 -0.02103217 0.1997606 -0.01498634 -0.041508418 -0.031448543 0.09843784 0.12696704 0.16945417 0.13581103 0.17968741 0.1393391 0.16150421 -0.043313064 0.0063845403 0.13632685 0.0925062 -0.017650548 -0.026528036 0.0025498858 0.0016316976 0.15298337 0.08106707 -0.014630652 0.06332918 0.11440198 0.14732678 0.15394059 0.13182557 0.04057327 -0.0029017534 0.1156246 -0.03391741 -0.027919518 -0.006331021 -0.025086828 -0.008601243 -0.022382751 -0.010907711 0.12585136 0.11610027 0.22043604 0.07978195 0.03029707 -0.01093986 0.0876862 -0.0064171907 0.09146215 -0.015798647 -0.03614885 -0.00021179393 0.04702633 0.14783305 0.08941734 -0.045565758 0.03627888 -0.018638946 0.01295632 0.14148203 0.17085285 -0.032055043 0.12864375 -0.016057985 -0.018559162 0.17797342 0.10313967 0.05838821 0.07858217 0.1427474 -0.033098925 -0.014282901 -0.017693887 0.00687162 0.13328171 0.09679258 -0.0012131166 0.027252909 0.09514779 -0.007354827 -0.02905707 0.17222828 0.062324673 -0.018059803 -0.0132057965 -0.027282134 0.13136941 0.12183895 0.1537481 0.11225763 0.082900085 -0.045222312 0.12492694 -0.052850313 0.05061864 -0.030142225 0.1756536 0.04349725 0.12310207 -0.00848975 -0.025975924 0.13463034 -0.025002057 -0.017603602 -0.026264627 0.12826519 -0.03892817 0.06121787 0.029498938 -0.0019680741 0.23397955 0.16316494 0.19825992 -0.0432538 0.11353348 -0.023641877 0.13434663 0.10331338 -0.032670062 0.13652228 0.110436186 -0.04551511 0.058260914 0.19997954 0.07988411 0.07825962 0.14342675 0.18450809 0.12858306 -0.00075474195 0.24212949 0.14649978 0.061894428 0.09967448 0.24616617 -0.03178179 0.12124504 0.16218111 0.19940577 0.18177858 -0.028820487 0.016271027 0.10443417 -0.013299579 -0.032492746 -0.033949446 0.105475105 0.10031074 0.077109635 0.12008974 0.13396862 0.11363861 0.19332652 0.080025986 0.012396857 -0.0077493833 -0.0029876535 0.15955459 -0.022506345 0.123505875 0.04866755 0.06249883 0.00217353 -0.0020980523 -0.0055039576 -0.038244218 0.12364512 0.15837085 0.061261714 -0.033307374 0.01719974 -0.02856888 -0.039312564 -0.012704554 0.18951407 -0.024198513 0.1963489 0.07534385 0.15149683 -0.018591445 -0.044215713 0.17655256 0.11667931 0.17059478 -0.027439687 0.14856036 0.066804685 0.020951264
doc_13 0.14851823 0.11360693 -0.021260457 0.19755955 0.2929713 0.040425703 -0.1156256 0.026178434 0.25456572 -0.01093964 0.22921841 0.1764108 -0.043983303 0.004715842 -0.01882152 0.26882058 0.28937933 0.19108872 0.2862219 0.078935936 0.015903272 0.06846161 0.041812565 0.203867 0.045272585 -0.013196394 0.060921583 0.2929211 -0.04488063 0.096845075 -0.021360561 0.1964258 -0.112832025 0.014474428 -0.0059501943 0.19955193 0.04295927 0.052497495 0.19156365 0.21908177 0.1591203 0.068896286 0.20494303 -0.034985907 0.10519794 -0.04266907 0.16202325 -0.08588946 0.21782205 -0.02610699 -0.017494531 0.32169345 0.022859808 -0.02738258 0.29369465 -0.049594965 0.0049893623 0.19583346 0.16115695 0.036986284 0.07864142 -0.037316106 0.33724248 -0.08016898 0.12799723 0.074691564 -0.01580731 0.22589217 0.2980145 -0.0007519052 0.32171 0.07988789 0.042856622 0.19234703 0.03407947 0.0786061 0.108653255 0.22935675 0.0015088161 0.088795 0.1036895 -0.006882522 0.19353388 -0.08046433 -0.0026625372 0.23093623 0.03963474 0.16104782 -0.09758315 -0.006206807 0.26048973 0.15613268 0.07811411 0.1518388 0.054225314 -0.01949765 0.21816944 0.29350185 0.17309347 0.04502343 0.034057237 0.0648624 0.3578115 0.001036068 0.084955834 0.2531792 0.12067642 0.016340923 0.050705325 0.11348574 0.06820456 0.2360764 0.06518344 0.07328516 0.20224388 -0.08753333 -0.013938856 0.0877073 0.31050283 0.25229684 0.2067616 0.23150621 -0.07104385 0.22434184 -0.011548403 0.10222098 0.11050578 -0.06910785 0.16394766 -0.013190605 0.27642426 0.116320685 -0.018511936 -0.013234415 0.16218165 0.105431445 0.20527354 0.14641798 -0.0048234113 -0.049277347 0.084057696 0.041450508 -0.069991924 0.091835685 -0.06886817 -0.0017013759 0.23287633 0.2251459 0.32261416 0.03433654 -0.033935737 0.08037495 0.2623588 -0.039431635 0.07399784 0.17213674 0.006688754 0.016426018 0.15787432 -0.019362073 0.12952967 0.040390607 0.13048075 0.22335391 0.14014243 0.09944047 0.25964123 -0.0017593683 -0.10612627 -0.020725625 0.04375221 0.11324037 0.05134718 0.24697994 0.30325282 0.08390163 -0.016859388 0.10777878 0.060115144 0.0115948785 0.02103546 0.000924375 0.024504228 0.10719732 0.19885771 0.1491338 0.041936573 -0.022656327 -0.019546157 0.17324246 0.035925586 -0.062126897 0.097359315 -0.010491071 -0.016748408 -0.005573818 -0.075999975 0.16499814 0.041466042 0.2017775
doc_14 -0.020060506 0.16953452 -0.029669043 -0.03086389 -0.022291878 -0.00032723043 0.2387004 0.03370513 -0.04908695 -0.04209273 0.2104998 0.012272162 0.05306288 0.1334004 -0.023037814 0.10102631 0.08147062 0.15737401 -0.0030041775 -0.041194484 0.07612132 0.10137878 0.06933144 0.12561575 0.051172458 -0.054927483 0.057258736 -0.029532906 0.1779538 0.10364282 -0.014813013 0.16732039 0.2192798 0.23764867 0.0023970176 -0.008297281 0.12655881 0.03904472 -0.018722028 -0.056123752 0.13955414 0.06945728 0.02474692 0.10251337 -0.014226187 0.23631133 -0.013082568 0.22007273 0.118031204 0.1965911 -0.039890938 0.060161583 0.083136216 0.06978248 -0.036768097 0.13544674 0.08683676 0.14187549 0.09405899 0.059830662 0.04948153 0.011417838 -0.103372775 0.19796243 0.063200936 0.06931443 0.049836423 0.16462228 0.23094855 -0.018826602 -0.069690585 0.10856083 0.09778465 0.023439173 0.15316106 0.119694784 0.14030245 -0.025903672 0.11283634 0.086290516 0.037972573 0.067226306 0.06197351 0.17087516 0.020442085 0.21240854 0.0028777928 0.13333485 0.21521384 -0.04473261 -0.0045402655 0.05965075 0.016125452 0.120768756 0.11240236 -0.012646454 0.12061219 0.0050609503 0.010419876 0.054306105 -0.008274051 0.10821287 0.039556548 0.12315471 0.12527695 -0.0032942272 0.0730634 0.21851452 0.05963736 0.03679955 0.08172564 0.1796652 -0.0023219464 -0.045637485 0.06552443 0.2208666 0.12018479 0.041833445 0.06869273 0.23090997 0.07769021 0.0004258477 0.19214234 0.010579208 0.14730845 0.12618639 0.012423818 0.1906646 -0.0018130303 -0.020658895 0.09991124 0.040455956 0.105857976 0.12453456 -0.041620065 0.068991594 0.11791132 0.14170134 -0.011987997 0.15035203 0.02060495 0.14672272 0.14229764 0.05889026 0.025424687 0.2232306 0.1421742 -0.0003668982 -0.052165207 0.121031635 0.13262181 0.17511137 0.106559515 0.19991167 0.13761555 0.113554895 -0.047904603 0.12737942 0.103526615 0.12158804 0.06561933 -0.011584786 0.072357096 -0.004491375 0.17154254 0.097173326 0.22108209 -0.0051617348 0.22387561 0.11130387 -0.013833506 0.0655944 0.04966577 -0.06922187 -0.039199766 -0.013574453 0.02081236 -0.063873775 0.09617669 0.043740787 0.22809532 0.17767446 0.11767782 0.17307335 0.16958402 0.12183931 0.046412818 0.15012754 -0.015255054 -0.053404827 0.09626036 0.17081828 0.052007012 -0.020937182 0.1284094 0.026945246 0.1959458 -0.07647543 0.11155365 -0.040731695
doc_15 -0.0073607382 0.28088608 -0.027176712 0.20310071 -0.04302029 -0.078994624 0.31258276 -0.03805635 -0.11207288 0.26223248 0.24331895 0.11139194 0.31221142 0.23011373 -0.028098587 0.31868318 -0.05024838 -0.07509501 -0.08099403 0.13829152 0.20503105 0.22652113 0.17483634 0.28781274 0.21460651 0.30079776 -0.06645926 -0.05639122 0.14946428 0.13713485 -0.028305607 -0.075981095 -0.034518305 -0.01997456 0.24289806 0.14340064 -0.029778134 0.11911893 0.15689652 0.20797388 0.21813458 0.17630257 0.040959463 -0.0024711385 0.16096273 -0.09785109 -0.06481548 -0.0664981 0.1992564 -0.0104247965 -0.03347113 -0.029197264 0.1910043 0.123899154 0.3434214 0.09351062 -0.050400417 -0.002850201 0.11125218 -0.013332786 0.13535717 -0.12433917 -0.08716009 -0.028988626 0.10604726 0.20154601 0.1295075 -0.090976834 -0.05747772 -0.096355416 -0.06980237 0.23201077 0.21492185 -0.05660006 0.16324805 -0.026184242 -0.0422618 0.26573095 0.14985007 0.11198301 0.121541806 0.20162128 -0.058632303 0.013253811 -0.012210187 -0.0028045368 0.26329783 0.13572977 -0.11125444 0.015793618 0.17623553 0.016834691 -0.031387523 0.23740548 0.10494794 -0.038782034 -0.031045923 -0.010782561 0.18539394 0.20085825 0.1988431 0.14403647 0.12712082 -0.07996823 0.17987983 -0.0625902 0.066859774 -0.06840536 0.25345364 0.07698771 0.18185076 -0.08744264 -0.057951458 0.1920112 -0.045568813 -0.0793248 -0.0035344479 0.19398862 -0.053043686 -0.1184303 0.06295632 -0.072202705 0.29599053 0.25211638 0.28486514 -0.04469948 0.18694137 -0.07253521 0.20042853 -0.031965602 -0.091184475 0.20192325 0.14317045 -0.10106228 0.13406862 0.28811595 0.10027585 0.09477855 0.22651078 0.30935332 0.21947615 -0.059120983 0.36710855 0.21295932 0.24343444 0.1982071 0.334599 -0.046483446 0.038367897 0.27366212 0.28713378 0.25564107 -0.07732006 0.018924836 0.16517904 -0.010483603 -0.04672813 -0.035246145 0.15875314 0.14065993 0.1260701 0.16122545 0.17263155 0.16768576 0.29122153 0.11763833 -0.08640477 -0.0095474655 -0.06579233 0.2383563 -0.032734513 0.1835247 0.06429142 0.13820788 -0.055238638 -0.0352201 -0.08175735 -0.049324058 0.16986059 0.23328511 -0.085525535 -0.066076815 0.024413448 -0.00576692 -0.075918004 -0.035961468 0.2831339 -0.049159676 0.3359914 0.14484715 0.23331523 -0.06845206 -0.02727378 0.28565878 0.16611339 0.21080759 -0.083797626 0.25056452 0.26057586 0.044433493
doc_16 0.20132536 -0.03836068 -0.024285547 0.22496942 0.3386681 0.2889212 -0.057661835 -0.023275992 -0.046428572 0.3168468 -0.13585657 0.22077407 -0.13181108 0.0941019 -0.021804165 -0.023799155 0.3349884 0.141919 0.22941367 0.13618082 0.11610062 0.024724687 0.08889605 -0.050200667 0.19796264 0.35815448 0.2746478 0.27907756 -0.048112005 0.11072089 -0.017624147 0.31164515 -0.0657627 -0.048817992 0.33833504 0.2587601 0.16165899 0.22312632 0.2439805 0.07923907 -0.0438139 0.21047105 0.2682229 -0.08270225 0.1695942 -0.06850407 0.30962992 0.087351784 0.04267097 0.12337383 -0.029936608 0.21658681 0.18643336 0.201674 -0.04382131 -1.2227334e-05 -0.09133544 0.049990468 -0.02789592 0.23891518 0.11084722 0.09532092 0.35840434 -0.027416954 0.15504551 -0.003129585 0.19446331 -0.02507415 -0.09700753 0.3272301 0.23192853 0.20014164 0.0007454294 0.2298864 0.04373208 0.110378996 0.20931832 0.0019977856 0.20266464 0.14481801 0.08019276 0.2548206 0.24752621 -0.08791451 -0.014552241 -0.055239126 -0.076119065 0.0033713728 0.31542405 0.12316376 0.26271826 -0.023825401 0.25667775 0.10097787 0.11005954 -0.025432384 0.28352076 -0.096602045 0.14803962 0.08164711 0.24463801 0.0760115 -0.008666508 0.21474564 0.24119031 -0.05406193 0.17284504 0.37073317 0.23153721 0.22072294 0.18531942 0.3188172 0.3347969 0.2393828 0.27486956 0.32708803 0.32616466 0.1224949 -0.04972025 -0.12112442 0.10837175 -0.1091974 0.075313576 0.019933812 0.35632086 -0.02912695 0.056896545 0.36926925 0.053555146 -0.010432722 -0.116309516 -0.020014327 0.054871026 0.32800838 0.25628942 -0.011119487 0.0059526805 0.08238808 -0.012076376 0.33019325 0.24651162 0.31540102 -0.019765109 0.14570491 -0.1274126 0.28336596 -0.047517516 0.22539034 -0.028752778 0.29096827 -0.024440024 0.23809776 -0.11291279 -0.08556232 0.19013788 0.16512388 0.124066174 -0.01918821 0.19423679 0.24631155 0.0811329 0.1956914 0.11909321 0.10516239 -0.0023542668 0.09539348 0.18668771 0.08401155 0.24024206 0.23558499 -0.01227973 0.08552313 0.1756913 0.28955275 0.22645889 0.17460893 0.29446575 0.057194825 0.1973617 0.07240516 -0.007268699 -0.043687914 0.23275493 -0.049876705 0.09636806 0.1696997 0.20071153 0.24248469 -0.08155057 0.25332132 0.17091873 0.2704281 0.108953625 0.35578844 0.21757287 -0.016263844 0.3729931 0.3850847 0.016127503 0.2642421
doc_17 0.08260787 0.17811736 -0.02919393 0.15191159 0.103495315 -0.060357198 -0.034473613 -0.08182583 0.13756025 0.04031885 0.033791225 0.13999937 0.08331414 0.12522309 -0.033174533 0.2579042 0.110897295 0.07907956 0.20976411 0.16863197 0.07695417 0.11400569 0.041493647 0.131901 0.113852285 0.23821175 0.0046883635 0.18991973 -0.0414443 0.09644295 -0.03405256 0.07059303 0.03613069 0.02041362 -0.018735358 0.1509688 0.023952601 0.039154056 0.14762585 0.22481748 0.13407032 0.103601456 0.1737065 0.001485894 0.099281065 -0.11212486 0.053902857 -0.09833395 0.05055423 -0.08255375 -0.033094957 0.22407542 0.09295714 -0.033846598 0.35823902 0.052452274 0.11132411 0.095809035 0.13369487 -0.06598722 0.07768793 -0.15351968 0.21977265 0.041154753 0.14064766 0.09608385 0.013492289 0.1533289 0.24147363 -0.11554288 0.24563111 0.17640866 0.09811166 0.14369689 0.07817303 0.003398885 0.027841602 0.14191897 0.02446502 0.034663096 0.07641932 0.074847385 0.08907838 -0.12737368 0.0023669554 0.07158349 0.036367245 0.12532479 -0.06696874 -0.041970685 0.17964569 0.1270003 0.012290526 0.18594758 0.04161512 -0.026085678 0.13240801 0.2710698 0.15556568 0.13055685 0.11485979 0.01571887 0.14991847 -0.039212584 0.1064699 0.027196946 0.033402 -0.08982593 0.096783325 0.067062065 0.12982988 0.15455392 -0.04305729 0.13037178 0.16657832 -0.05394445 -0.07049066 0.11804367 0.24978365 0.11386374 0.09610949 0.18757641 0.009705907 0.18261884 0.28929996 0.051613145 0.080244064 -0.09490509 0.15146932 -0.023672843 0.21608381 -0.12586492 0.034720607 0.035316434 0.072849624 0.22649251 0.12749568 0.14167115 0.005254184 0.13969275 0.14150368 -0.054690573 0.00011823013 0.11554979 -0.070368685 -0.010229211 0.26848945 0.0642374 0.14368443 0.023923213 0.061621036 0.10782874 0.18170445 0.046077333 0.12203095 0.13160215 -0.04450065 -0.05811691 0.12495034 0.12965555 0.10535887 0.09028163 0.14917462 0.11879844 0.16189359 0.048341263 0.18400802 -0.056946665 0.008562237 0.094550036 0.00035889065 0.10054272 -0.00014310311 0.18652117 0.21969043 0.081671126 -0.09715998 0.04464397 0.13226545 0.058947615 0.28765142 -0.010035622 0.006910055 0.053317223 0.041884854 0.16513495 0.1442008 -0.0111582875 0.24393472 0.2592778 0.09708216 -0.07386718 -0.00015640374 -0.014332552 -0.015107851 0.04402577 -0.11604573 0.1107164 0.14569038 0.17343764
doc_18 0.12430252 0.19976452 -0.03484746 0.15264244 0.21399184 -0.11020067 0.0068535013 -0.11968232 0.06994315 -0.049805604 0.25660947 0.13007435 0.12737025 0.01441931 -0.032722127 0.23023371 0.16080359 0.14622325 0.21699081 0.008141732 -0.02349695 0.0973272 -0.027684806 0.17892641 0.04281822 0.019740975 -0.007604457 0.29342204 -0.017512154 0.07614483 -0.034686025 0.20461239 0.040791463 0.024807503 -0.07005702 0.19481333 0.0060900175 0.011695915 0.13213478 0.13862896 0.16858199 0.042353243 0.12713541 -0.04273732 0.022930378 -0.020670515 0.07603751 0.024218008 -0.07262666 -0.034859408 -0.03252844 0.2636722 0.0015049665 -0.07096787 0.30362058 -0.052441224 -0.0732804 0.17946966 0.14312686 -0.025284883 0.0054396307 -0.16291314 0.32048324 0.0148947835 0.12729493 0.039157756 -0.039739873 0.21079443 0.30604672 -0.12322968 0.24760948 0.1316154 0.04322586 0.16059688 0.010668335 -0.025139153 0.09377732 0.14603163 -0.002094588 0.011945504 0.08398962 -0.03262291 0.15788123 -0.0027243714 -0.0489314 0.33679742 -0.05752063 0.13203296 0.15570828 -0.06316792 0.2275904 0.10618096 -0.041144736 0.16432974 0.04453447 -0.031819496 0.27541316 0.29031566 0.13699551 0.036748834 -0.008828866 0.00649306 0.31546825 -0.01679703 0.11652903 0.10411497 0.043426845 0.056856498 0.01642435 0.051445514 0.060308166 0.2949434 0.033430327 0.008247449 0.16312261 0.15511617 0.11539161 0.08365771 0.30168954 0.30926067 0.14474055 0.23036535 0.012579043 0.13219471 0.1807159 0.038278487 -0.013775908 0.07684964 0.017609514 -0.03088065 0.22610518 -0.13836423 -0.021913122 0.021512441 0.07894483 0.08234156 0.16254637 0.19752243 -0.074650414 0.055293284 0.061544508 -0.00071650615 -0.14150833 0.06903207 -0.11631086 0.14408915 0.30468684 0.083454974 0.27365223 0.023684993 -0.04669047 0.09271743 0.2562631 0.011351593 0.09557671 0.1433896 -0.06386174 -0.06483169 0.15974931 0.040124264 0.08833531 0.010845555 0.103539065 0.16308036 0.20416269 0.04728904 0.34707525 -0.045273613 0.047137823 -0.011886589 0.051072873 0.079562165 -0.019076299 0.21423395 0.25567296 0.030853186 -0.13789934 0.0024344623 0.0796042 -0.027231041 0.13768218 -0.13129376 -0.007089615 0.082064085 0.18154797 0.17270498 0.033056315 0.028007252 -0.05634831 0.14896123 0.044078678 0.010826397 0.011184555 -0.06439599 -0.021205092 -0.027823873 0.089731656 0.20168562 -0.075488664 0.15196939
doc_19 0.0037050417 0.10908435 -0.028822552 0.010207746 -0.033572108 -0.0020209793 0.17120199 0.010597439 0.010322895 -0.0020310585 0.13773477 0.005645033 0.13832442 0.08605247 -0.022089772 0.12565601 0.008910159 0.07785032 0.025130805 -0.0031502927 0.05426366 0.072681494 0.049547784 0.12372348 0.040164884 -0.0690991 0.053891033 -0.07569145 0.115580186 0.06869378 -0.026370423 0.09191441 0.16724373 0.1440825 0.0038009156 0.008346237 0.081712134 0.039049968 -0.010615204 0.007193758 0.076270156 0.0542516 0.0068810326 0.123254135 -0.0057794647 0.12666477 -0.0040521077 0.14834155 0.059268687 0.21032012 -0.023258751 -0.05002262 0.058840007 0.06091442 0.00868898 0.09818567 0.16149376 0.076491624 0.052966148 0.103135645 0.05389964 0.044439968 -0.14723018 0.13313805 0.04537468 0.043126702 0.044233847 0.082038425 0.15210094 0.012990068 -0.026832663 0.06993702 0.057016935 0.020276919 0.09819114 0.06992214 0.08349812 0.009108222 0.06964908 0.059893504 0.03868915 0.045810066 0.044232335 0.11730959 0.026417818 0.14449257 0.038340025 0.08734268 0.12324618 -0.0042271656 0.016233882 0.038420364 0.100168645 0.07765164 0.081061825 -0.024444217 0.073482566 -0.060916636 0.022174042 0.041948862 0.011829732 0.07305761 0.0053843847 0.06592989 0.05972675 0.05146672 0.053214334 0.12830667 0.053379394 0.02964635 0.055134665 0.09044929 -0.055184536 -0.011526889 0.04095468 0.13773236 0.096261084 0.04362362 -0.06127209 0.122258745 0.06997454 -0.02683626 0.13311414 0.046717003 0.100931406 0.09233709 0.048314527 0.12371426 0.029147523 -0.016182182 0.12010282 0.0075414497 0.07022833 0.091504544 0.012561514 0.04844722 0.07819167 0.07129214 0.08791232 0.12252966 0.010228723 0.028368218 0.1874295 0.037005406 0.09152657 0.15626267 0.09320832 0.025630303 0.041829158 0.08651755 0.09276999 0.12429936 0.04845429 0.14778712 0.087384194 0.06914399 -0.00661413 0.10165644 0.056459945 0.072146565 0.04440759 0.0027656304 0.040385205 0.015148152 0.115600176 0.06502374 0.13652715 -0.020999823 0.16372217 0.07457346 -0.023227358 0.042727172 0.051554207 -0.022849282 0.010822544 0.00470185 -0.021419302 -0.012288181 0.059185818 0.046662666 0.09805694 0.17670962 0.08425272 0.10958594 0.09528415 0.07110954 0.053923365 0.122553565 -0.009628522 -0.021921802 0.06973338 0.1130221 0.037318982 -0.013983064 0.084820405 0.056476578 0.1314246 -0.019164782 0.10286763 -0.0215209
doc_20 0.28968427 -0.046296 -0.05362763 0.23863736 0.34261695 0.25990108 -0.085819475 -0.037785433 -0.23520279 0.48766765 -0.03664117 0.33979866 -0.05161473 -0.0032953497 -0.05659164 -0.062220797 0.34365043 0.15391055 0.26083675 0.1522268 0.06418486 -0.050307624 0.028188488 -0.017777238 0.246778 0.3584149 0.377205 -0.02658942 -0.011205273 0.08734051 -0.07935487 0.42154512 -0.0008597903 -0.07732153 0.48451874 0.38232756 0.18689917 0.319361 0.3585519 -0.0016354707 -0.10298713 0.2814958 0.35035577 -0.0042495346 0.12354768 -0.057359103 0.43189782 -0.06590353 -0.053342734 -0.11762902 -0.035537116 0.37100068 0.23993991 0.26502538 -0.046072572 -0.10795158 -0.038225763 -0.010586372 -0.092775464 0.38157302 -0.009636637 0.1169611 0.52804 -0.05367114 0.17017502 -0.058385383 0.21876855 0.025744343 -0.0717266 0.4642691 0.24210164 0.2904605 -0.0496664 -0.04745527 0.0447318 0.15445387 0.3288686 -0.06408049 0.3199344 0.13499601 -0.030935908 0.29891664 0.3713339 -0.10910412 0.03304592 -0.05000582 -0.045195505 -0.06433115 0.31111413 0.10740972 0.33364987 -0.09361526 0.34841728 0.03616362 0.08677198 -0.00879576 0.45789465 -0.054120872 0.111351795 0.14230521 0.2597443 0.050473373 0.13749352 0.27748618 0.32342383 -0.056939397 0.20560057 0.45666334 0.27848595 0.31450525 0.24186489 0.28120378 0.5691539 0.26587725 0.32877764 0.48935062 0.4608864 0.13287857 0.0013092157 -0.040221438 0.07505374 -0.031590424 -0.048430607 0.018716 0.53590095 -0.1841042 0.00654556 0.31644657 -0.04895044 -0.057717614 -0.05427976 0.098138906 -0.04853072 0.41029492 0.34704474 -0.04959694 -0.016037552 0.13973087 -0.042975724 0.42097098 0.32172927 0.44802913 -0.028599845 0.13485155 -0.046717312 0.23641893 -0.066641435 0.23650387 -0.076785065 0.342209 -0.08461225 0.2395272 -0.07091716 -0.010177333 0.18972336 0.10660671 0.10934295 -0.06814852 0.27215168 0.20475261 0.040742096 0.20776501 -0.006640273 -0.008593477 -0.054043233 -0.019532312 0.23298298 0.06639743 0.40412298 -0.0069669024 -0.040501434 0.065371335 0.19665638 0.31866 0.2544776 0.20582058 0.29566312 -0.034791596 0.28149673 0.10802036 -0.107019775 -0.066138715 0.36820084 -0.09902476 -0.057265665 0.19993097 0.18178129 0.3542017 0.008416661 0.30636153 0.24156262 -0.038882844 0.11782876 0.44464773 0.30252197 -0.075282104 0.46644837 0.50995255 -0.058268797 0.32115698
doc_21 -0.015166033 0.16996528 -0.030306391 -0.03494773 -0.03065757 -0.0015576677 0.22693463 0.025665179 -0.05368444 -0.045361374 0.23479922 -0.00032433227 0.047389977 0.13919048 -0.015032664 0.08728469 0.07559929 0.15383396 -0.0054282313 -0.05082906 0.06602701 0.099275365 0.077270985 0.12663114 0.059449922 -0.053554103 0.06367228 -0.037879355 0.18050168 0.10745036 -0.015783865 0.17610793 0.22305995 0.18463022 0.0022426154 -0.011310916 0.12595327 0.027150854 -0.02879985 -0.041291468 0.12998648 0.07604301 0.024596661 0.09943882 -0.014948877 0.22117643 -0.008272233 0.21564381 0.09747854 0.17818804 -0.033911876 0.08073216 0.089153886 0.066058405 -0.032922823 0.14523305 0.0993311 0.13953528 0.10163346 0.058359664 0.06028184 0.020904362 -0.08981741 0.23310255 0.06120597 0.06140033 0.061027605 0.17633933 0.20877568 -0.018399147 -0.080894135 0.11026782 0.083364874 0.03048781 0.15399443 0.11223185 0.13459387 -0.014694682 0.12108929 0.067096554 0.038983498 0.05257389 0.057156894 0.17099737 0.01796521 0.2041623 0.011230076 0.13098754 0.19950303 -0.049043577 -0.018935986 0.053236797 0.013235595 0.12633152 0.10852893 -0.012780931 0.13548225 0.02571739 0.02169279 0.04733426 -0.012348718 0.097148456 0.06479024 0.115741216 0.11818239 0.007819591 0.06592287 0.22024219 0.053619124 0.041675825 0.078860976 0.17889257 -0.010903203 -0.05084521 0.06392923 0.22897083 0.112545475 0.042905826 0.09880439 0.22367704 0.08435726 0.005618865 0.19718002 0.009806523 0.16659075 0.11776779 0.013973136 0.18728979 -0.0015825466 -0.016104117 0.09560859 0.024716953 0.116399996 0.14241146 -0.04289754 0.07438922 0.10613261 0.13619637 0.0008444651 0.1500837 0.017714677 0.15372533 0.1614417 0.049895726 0.022748875 0.23062937 0.13858104 -0.0060050525 -0.047701318 0.13081692 0.121176645 0.18347624 0.09626344 0.22097544 0.13708405 0.10600772 -0.056893013 0.1273548 0.09792567 0.11004634 0.06700552 -0.013326855 0.0639195 -0.0014814443 0.17572618 0.0880384 0.2333717 -0.0046051056 0.22653383 0.107232764 -0.011479912 0.069910884 0.05694036 -0.06647718 -0.038376633 -0.01091736 0.014347355 -0.050846938 0.10695317 0.06144344 0.227332 0.17523919 0.121586174 0.19541478 0.17627862 0.117532186 0.033870824 0.15150757 -0.018634858 -0.05447355 0.08358521 0.18690446 0.055262342 -0.014640489 0.122365616 0.03998119 0.18667462 -0.070109665 0.101731114 -0.028585425
doc_22 0.16281427 0.18069728 -0.029419515 0.12337842 0.21685007 -0.043461263 -0.033683244 0.19466525 0.14630999 0.17160293 0.23619156 0.031776275 0.117742546 0.017165331 0.1497343 0.057036966 0.241087 0.023864089 0.18799008 0.19037732 0.09340334 0.1372295 0.018040678 0.16463909 0.08255238 0.0075118006 0.14405662 0.027955648 0.19700907 0.039666563 -0.017866122 0.01579251 -0.023977367 -0.021779932 -0.043110684 0.039616555 0.122651696 0.05507145 0.2006231 0.012270807 0.030317176 0.14542238 -0.01652043 0.17900206 0.05934352 0.00092032825 -0.01752329 -0.046389684 0.22226718 0.21658681 -0.026797405 0.10717415 0.026196927 0.18047664 0.039925292 0.08212274 -0.025756847 0.0988955 0.11094432 0.046314385 0.14131816 -0.051106438 0.05851182 -0.01952318 0.056470186 0.040646754 0.047225364 -0.024753168 0.046873137 0.19166085 0.15606381 -0.016210357 0.07046932 0.153146 0.072619624 0.13238913 -0.0044502704 0.19000505 0.15677103 0.1162243 0.1351794 0.07367663 0.15281637 0.12320358 0.075994104 0.20666188 0.092613555 0.13807485 -0.006967371 0.15837103 0.0121923825 0.16783017 0.2310127 0.11953539 0.040950503 -0.025798209 0.21293399 0.17197274 0.07519941 0.00060114736 -0.017483318 0.088270575 0.2202447 0.16507617 -0.005070491 0.20463252 0.11130034 0.040001392 -0.009949362 0.046535786 0.024315 0.033010002 0.07474353 0.13174963 0.05929583 -0.007283172 0.14036229 0.13181408 0.21342406 -0.054180656 0.17074725 0.009586534 0.07875877 -0.022648675 0.035531662 0.16067193 0.11886317 0.13836107 0.08054266 -0.011114631 0.018909933 0.2587704 -0.00906888 0.04390245 0.16682205 -0.0012737234 0.04896969 0.011185825 -0.04049787 -0.030877879 -0.023494225 0.006159184 0.22417326 0.04509777 0.06308081 0.04894834 0.13838765 0.16310228 0.222586 0.107835166 -0.030159425 -0.027670538 0.043302014 0.22426277 0.022748694 0.031092437 0.16373844 0.18447644 0.12151247 -0.028489823 0.028899083 0.08222057 0.0032936928 0.20129119 0.1596325 0.12056316 0.013913066 0.10820644 -0.026811456 0.08089352 0.00097014406 0.09518415 0.018031972 0.06461495 0.18433544 0.011675228 0.062654905 0.13727123 0.027510209 0.09747902 0.026302034 0.13556285 0.1361395 0.107661486 -0.02328937 0.07775797 0.06186353 0.1903028 0.024186023 0.096619464 0.013957503 0.19286947 0.16236539 0.011333185 0.15717213 0.055026893 0.08355014 0.07892014 0.011712995 0.061844904
doc_23 0.17432514 0.10237982 0.032538023 -0.0109563125 0.026576057 0.20998447 0.27716693 0.19476572 0.24248476 0.22303003 -0.00955916 0.05674242 -0.0012781437 0.035077613 -0.02978307 -0.04275727 0.20165761 0.06323214 -0.019937487 0.16484624 0.09907463 0.15338919 0.110059544 -0.024490338 0.07959012 0.20629518 0.0027269244 0.31360158 0.12753929 0.049667582 -0.032566268 0.027846932 0.08998179 0.13348314 0.062095013 -0.010482156 0.17754602 0.09433723 0.1477191 -0.043943923 0.040513128 0.013244293 0.14295483 -0.052230112 0.074855745 0.016864283 0.16508015 0.29552418 0.06116061 0.05527637 -0.033840198 0.014140756 0.12568143 0.1482959 0.03587436 0.11191954 -0.06272137 0.1420189 0.093634605 0.054561473 0.119782396 0.27617535 0.08283894 0.12048239 0.05613424 0.13942038 0.05328199 0.19226395 -0.033071276 0.22091495 0.008696923 0.17719609 0.111036375 0.04241625 0.023134327 0.07282195 -0.006790101 -0.037087545 0.1116111 0.028349875 0.05290241 0.15327658 0.05713758 0.24748425 0.20871222 -0.007554525 0.03627629 -0.012917218 0.27520907 0.15280756 0.04512644 0.12228027 -0.019064672 0.061307225 0.11132226 -0.029309392 0.07481183 -0.041902896 0.10229284 0.08289602 0.07618312 0.11188684 -0.0010174848 0.17311594 -0.015273932 0.18287851 0.017102038 0.20100811 0.04810568 0.05999613 0.0483962 0.10386749 -5.8219022e-05 0.029295763 0.022163285 0.21015775 0.034325566 0.0347254 -0.027471723 0.25871903 -0.01147131 0.19352527 0.25523078 0.0420694 0.072343625 0.16686876 -0.0074803554 0.11082009 -0.04670093 -0.028500985 -0.10452307 -0.02658383 0.15181394 -0.01106318 -0.0100638075 -0.016919553 0.122753344 0.16129375 -0.03857107 0.059028238 0.10465229 0.30068168 0.12744105 0.019709496 0.24790405 0.0791627 0.07571806 -0.036432236 -0.026827946 0.014007887 0.012712761 -0.020161401 0.15850931 -0.029065818 0.052023996 0.0687425 0.20551749 -0.016767813 0.042045146 0.040114287 0.128134 0.12055748 0.08502398 -0.02603623 0.09549678 0.0218226 0.08098392 -0.008117894 0.17799848 0.037289813 -0.026563337 0.15780455 0.14245212 0.15101863 -0.0015765066 0.12512845 0.25219426 0.205704 0.0709618 0.07647614 0.2767984 -0.10948113 0.078790635 0.21085215 0.11360591 0.10083328 0.17862624 0.0134376 0.20322593 0.041997734 0.12879874 0.27320364 0.10061952 0.0143326605 0.110097475 0.14039895 0.26274228 0.05972179 0.21577613 0.07708062
doc_24 0.15651026 0.125266 0.020914875 0.067389674 0.17835213 0.06839096 0.06514253 0.20146038 0.17920275 0.21468021 0.21163449 0.07500332 0.12951468 0.021622263 -0.021718264 0.07586288 0.30480117 0.017729156 0.13461173 0.1428639 0.08004949 0.12162746 0.06111401 0.09915944 0.06745594 0.08082347 0.06709553 0.053744704 0.13864957 0.039575618 -0.026035154 -0.018897563 -0.024579993 0.047355585 0.056227934 0.040144026 0.13503762 0.07380066 0.21094374 0.03009149 0.043060422 0.074998334 0.07133754 0.18900841 0.06703907 -0.10634583 0.055777602 0.07746475 0.24269357 0.19607916 -0.030182721 0.07885526 0.06718233 0.16195011 0.06396041 0.07564725 -0.0045517576 0.1394422 0.08488065 0.12312055 0.1306307 0.13723265 0.13354594 0.021671565 0.03922403 0.09426443 0.027281146 0.071041 -0.059828814 0.20662361 0.13187447 0.07343438 0.06234566 0.11745844 0.022083344 0.098211385 -0.010722734 0.13059229 0.13351102 0.06798245 0.0746054 0.111993745 0.110205054 0.18594535 0.050004642 0.11865796 0.11829621 0.058631614 0.03990507 0.14616498 0.07768293 0.12801099 0.20375757 0.09061806 0.059798244 -0.027744671 0.14255 0.11917268 0.099222615 0.018665258 0.050944943 0.10150415 0.15351821 0.13311121 -0.0042782817 0.24669631 0.064536855 0.063574985 0.05020135 0.048442774 0.027444491 -0.09184823 -0.0068879407 0.060560793 0.04489495 -0.02191545 0.093781434 0.07137377 0.21020304 0.12225486 0.09329045 0.060047857 0.13379799 0.10726461 -0.0023743473 0.1499459 0.06410679 0.07535514 0.053239085 -0.015018232 0.0034768526 0.2561708 0.06555153 -0.03511171 0.10041936 0.010557301 0.11263227 0.061601393 -0.017344112 -0.027816942 0.06328566 0.09252371 0.27494276 0.023608878 0.11309884 -0.050302543 0.1272131 0.09712717 0.18564229 0.06509982 0.005325811 -0.010146148 0.07499643 0.19015063 0.023893027 0.052385826 0.17768538 0.09595131 0.06829166 -0.021102645 0.06690713 0.081029825 0.0599865 0.14027888 0.1331317 0.077734955 -0.014177178 -0.013635016 0.012330796 0.04956355 -0.014137786 0.116473794 0.07879714 0.15213653 0.18907544 0.05969321 0.066780664 0.16446808 0.030535735 0.06540925 -0.012876015 0.069266155 0.08493625 0.12043136 0.0352088 0.06443525 0.14566635 0.08968474 0.027254526 0.024348985 0.08024998 0.18344231 0.11235416 0.009657802 0.11563447 0.10311448 0.12954843 0.06344944 0.19051985 0.041766457
doc_25 0.16744995 0.17972946 -0.027064698 0.12053455 0.229721 -0.04099348 -0.10547041 0.18958934 0.14312197 0.17234263 0.23065268 0.027053172 0.103619374 0.024529703 0.13575417 0.051146667 0.23065957 0.0209503 0.19002067 0.1752394 0.093239054 0.1356955 0.021321027 0.15063122 0.08074219 -0.0027705466 0.14236298 0.048401386 0.1845409 0.038746875 -0.014959482 0.007492225 -0.023881542 -0.023285808 -0.04099439 0.029974062 0.115202315 0.055856634 0.19059388 0.0060010427 0.03527359 0.13872285 -0.028675385 0.16503572 0.060342778 -0.032916583 -0.020775845 -0.120445214 0.22359814 0.22282225 -0.024624404 0.13270947 0.028937738 0.1781264 0.043242674 0.07092088 -0.030912293 0.10122459 0.12081694 0.022561133 0.13231878 -0.08751915 0.07622454 -0.041590374 0.058029257 0.03562594 0.032624546 -0.02396337 0.07561264 0.1921905 0.17552222 -0.012647223 0.062456984 0.15865831 0.069474064 0.11965362 -0.0038346034 0.17014578 0.15118174 0.10853378 0.1312088 0.06258033 0.15218736 0.12573221 0.043305777 0.2082953 0.062503844 0.14126208 -0.021067075 0.14871761 0.010088191 0.16944784 0.21800499 0.11689731 0.032807328 -0.022561489 0.21173547 0.18880545 0.067861885 -0.00074666657 -0.016497048 0.08513832 0.21714282 0.16698849 -0.013784441 0.19820794 0.10141859 0.023168532 -0.021110795 0.040582016 0.021851938 0.03838642 0.05352865 0.119431324 0.06065184 -0.04234155 0.13052063 0.12659448 0.23030925 -0.053123653 0.15730003 0.04498152 0.07218968 -0.027850252 0.017614938 0.16074973 0.109526716 0.1324428 0.07850659 -0.01998193 0.030073484 0.24663171 -0.013980976 0.025043352 0.17067541 0.009716924 0.048592255 0.0067322594 -0.034421373 -0.035546236 -0.02094307 0.006644361 0.21573433 0.03356821 -0.018345447 -0.0027391117 0.14032198 0.1457512 0.23169643 0.1011444 -0.029413914 -0.03521528 0.04357221 0.2165655 0.022375446 0.022808257 0.16228762 0.17616363 0.112959296 -0.035418395 0.03131963 0.0748082 0.0070016007 0.1938047 0.16091031 0.12619033 0.026106803 0.10731552 -0.021940175 0.07313032 -0.005772605 0.08639603 0.02155163 0.05603701 0.1889979 0.009072228 0.041715786 0.13554163 0.03146501 0.086925134 0.040503815 0.12928796 0.12776178 0.106519796 -0.029196845 0.07539028 0.0625048 0.17879067 -0.010416207 0.0864759 0.018632153 0.19276968 0.14837258 0.006478238 0.14237885 0.043637533 0.08342417 0.059320603 0.0053362213 0.06346192
doc_26 0.30425155 0.1462775 -0.022794697 -0.04495775 0.28113955 0.2991625 0.3758925 0.36848888 0.34957835 0.36374336 -0.027453277 0.18666202 -0.083824456 0.08285585 -0.012955304 -0.12856036 0.4475408 0.12253743 -0.060061894 0.28989843 0.2241288 0.30674696 0.23365816 -0.059453886 0.16690896 0.40139925 -0.014265984 0.35764313 0.21694165 0.10972159 -0.02494756 -0.014021026 -0.08554119 0.08967054 0.035384163 -0.023024363 0.2791204 0.20888107 0.31705967 -0.06726079 0.13417724 0.010983983 0.2969065 -0.10878833 0.21944496 -0.09045862 0.2809163 0.41496325 0.39465404 0.06626889 -0.035435155 0.14151944 0.25060958 0.31918922 0.25540742 0.25641823 -0.09733567 0.32515803 0.22580239 0.30952084 0.28151914 0.37604076 0.29815617 0.0053275945 0.101848036 0.28189155 0.11828781 0.35916638 -0.08715051 0.3360276 -0.070710674 0.2859274 0.23670265 0.09047064 0.05996848 0.21455172 -0.036317524 -0.06250039 0.22236092 0.066741444 0.10805762 0.2775388 0.117513955 0.291857 0.29118484 -0.08669414 0.17145555 -0.027072314 0.3362481 0.27896726 0.12588368 0.22407883 -0.038788557 0.12774865 0.22584702 -0.016020242 0.12628978 -0.14465322 0.24325983 0.18145578 0.21971396 0.2502823 -0.070187114 0.30513853 -0.06347254 0.41836917 0.05842424 0.20991829 0.20499404 0.14577998 0.13253278 0.05341081 -0.028465386 0.088823885 0.09657494 0.20098488 -0.027372137 0.03789276 0.025814125 0.40646386 -0.035410676 0.23776743 0.37185478 0.2349827 -0.094387054 0.2924569 0.05641441 0.079751685 -0.059197005 -0.03163682 -0.1254189 0.13792175 0.29478174 -0.13689874 -0.047629803 -0.03795368 0.27816653 0.29500788 -0.09619729 -0.086248495 0.28097248 0.36625582 0.3892155 0.036821414 0.28636563 -0.11862193 0.15209323 -0.053799056 -0.030878507 -0.05865389 0.020829104 -0.0738779 0.25481632 -0.15293159 0.074548945 0.1794959 0.32415208 -0.016558029 0.06326066 0.0054622213 0.24936163 0.23163824 0.20741224 -0.039984353 0.24447417 0.09459989 0.079235315 -0.081378415 0.32591382 0.08828492 -0.03415256 0.32474446 0.29866314 0.28921133 -0.08789307 0.24535954 0.33663425 0.3615287 0.14684045 0.19089739 0.24483252 -0.11701153 0.14599575 0.33913687 0.22959274 0.15938106 0.3344637 -0.020748692 0.32255417 -0.027855422 0.25386602 0.34150037 0.24181546 -0.02090406 0.24409321 0.28888875 0.24018502 -0.09332536 0.37484562 0.11647631
doc_27 0.20186716 0.24462831 -0.014086448 0.18014306 0.23303843 -0.042455625 0.00022428804 0.014963067 0.27071068 0.0560755 0.26481232 0.17598577 -0.028431457 0.06436967 -0.021965424 0.2630154 0.29353234 0.16667762 0.2616385 0.14293095 0.050302662 0.17371753 0.026323438 0.21728119 0.09394913 -0.0054152035 0.023557324 0.2991709 -0.012210402 0.12859683 -0.034438044 0.11791749 -0.08819294 -0.04335789 -0.0805851 0.17737949 0.1053283 0.06286059 0.22702985 0.1989517 0.1826124 0.08336625 0.17975569 -0.0691476 0.10209029 -0.17008664 0.08826 0.15017109 0.30403456 -0.02180059 -0.022250377 0.2803656 0.063776374 -0.0019334834 0.32541457 -7.462197e-05 -0.06737667 0.22720763 0.20468554 -0.1220325 0.12037808 0.008637712 0.29812175 -0.030531682 0.16493091 0.114324585 -0.020358615 0.25706318 0.32126805 -0.05482867 0.2833833 0.17578623 0.121815324 0.23141585 0.05418228 0.07858407 0.05796956 0.22283429 0.053875744 0.0660726 0.15185557 0.03573232 0.20375597 -0.059813812 -0.007458054 0.29424202 -0.07529565 0.18908927 0.061091088 0.027067011 0.21564458 0.2303454 0.080716416 0.22798395 0.09274603 -0.030790478 0.27603728 0.30439627 0.19326669 0.10824572 0.022071451 0.08909047 0.29779726 0.053609934 0.064676814 0.25136298 0.087463245 -0.06104413 -0.0054002544 0.10464802 0.10365217 0.2699859 -0.055797018 0.07116105 0.19651602 -0.059056934 -0.009958355 0.14875963 0.30145717 0.27653682 0.18853796 0.25317338 0.046593912 0.21984299 -0.04251581 0.1778607 0.09225578 0.03212494 0.095610514 -0.024008853 0.23403485 0.04438611 0.020820908 -0.1318031 0.11140242 0.14375848 0.22608532 0.22890007 -0.080696605 -0.06836096 0.10745215 0.12947026 0.030623656 0.10067267 -0.022061706 -0.12643085 0.31411502 0.1452223 0.3219073 -0.01622006 -0.05843473 0.007833519 0.2821692 -0.046983745 0.116712734 0.18213621 0.032845758 -0.03190755 0.1814801 0.007998199 0.15204328 0.07960168 0.160708 0.20743054 0.24739811 0.11138627 0.31219614 -0.12712614 -0.055483308 0.011190524 0.10469032 0.15483347 0.037997693 0.2522352 0.2933005 0.12252012 -0.08213367 0.16243583 0.11102427 0.031086637 0.22755022 -0.043394167 0.04054053 0.18939391 0.17345712 0.21301553 0.11886421 -0.009218615 -0.11477372 0.22300781 0.10871239 -0.0052937404 0.07046102 -0.0869504 0.022481686 0.04469568 -0.030567577 0.059619997 0.35291982 0.20105648
doc_28 0.10509725 -0.03135372 -0.028885428 0.12868476 0.2552594 0.2079156 0.027688295 -0.094699435 -0.0633031 0.20944932 -0.0851367 0.12337593 0.09036843 -0.0008991951 -0.026370883 -0.106220804 0.21504842 0.042291827 0.13897482 0.09530798 0.014226097 -0.012015771 0.009617822 -0.03958428 0.10145859 0.25501367 0.17965552 0.21298587 -0.0240902 0.041087978 -0.027620332 0.19827227 -0.009300642 -0.00751122 0.24555402 0.1522896 0.06213389 0.14734605 0.1582619 -0.038297705 -0.044395167 0.104933664 0.13651201 0.09839039 0.0737589 0.1130436 0.22006635 0.0336154 -0.033145763 0.2330719 -0.020644723 -0.127785 0.08820348 0.10448251 -0.106771015 -0.009100881 0.0011149165 -0.022944935 -0.055728912 -0.035622686 0.042518657 -0.020992976 0.26759613 0.0107081635 0.08428407 -0.020300575 0.14006154 -0.040774543 0.0077550435 0.28506395 0.11776001 0.0822554 -0.024925927 0.14351265 0.0059617325 0.028891604 0.11910114 -0.038039286 0.12735537 0.053006966 0.026142258 0.1419382 0.16885765 0.06808756 -0.03549421 -0.0005124114 -0.050080426 -0.042210806 0.14588018 0.057657827 0.11940634 -0.043961965 0.2004555 0.009366232 0.039569266 -0.024821497 0.21085449 -0.15765032 0.03463005 0.015315522 0.110765636 0.00816178 0.048514817 0.15182456 0.11438336 -0.03608941 0.07594224 0.19516349 0.10385864 0.13113892 0.11222327 0.20873718 0.2536653 0.12597598 0.1616005 0.24783741 0.28444862 0.059264038 -0.1020055 -0.05581121 0.025432508 -0.13480225 -0.00057320006 -0.05983491 0.23594949 -0.036727615 -0.020203993 0.2357729 -0.049115773 -0.0259514 -0.09624965 0.060617313 0.0106206685 0.260704 0.16850208 -0.05325334 -0.02725622 0.015962929 0.09533043 0.23177692 0.17653598 0.17202215 0.0497822 0.050989784 0.019471316 0.07332355 -0.04283461 0.10213915 0.112075254 0.12390338 -0.03760539 0.076528884 -0.116581514 0.05845595 0.09059637 0.04970527 0.12807077 -0.004703054 0.09391047 0.14904363 0.020337773 0.10740356 0.011776208 0.052417833 -0.018821351 0.015938504 -0.008553261 0.013562509 0.031963386 0.15036945 -0.03753869 -0.010146321 0.11198936 0.19894303 0.022803608 0.08562133 0.22760634 0.034166485 0.13343732 0.008934351 0.10750926 -0.098128006 0.13842663 -0.039836943 0.010783624 0.088311516 0.057567567 0.19428304 -0.09301679 0.1857595 0.07360368 0.23158994 0.035449985 0.23737204 0.13262452 -0.021557024 0.282291 0.22265103 0.00019349204 0.16042577
doc_29 -0.063876845 0.14052176 -0.04297317 -0.010892495 -0.09600268 0.028751101 0.11418489 -0.11327188 -0.017059233 -0.14111966 0.27459592 -0.024533875 0.38133568 0.067663155 -0.04157479 0.09476634 -0.07944115 0.11797393 0.11330484 -0.025109408 -0.049239524 -0.012951791 -0.024408521 0.1342924 -0.04822571 -0.2233395 0.10840467 0.05113574 0.030910166 0.061189555 -0.038922735 0.23923343 0.35237372 0.18658789 -0.00043578155 0.0052040652 0.030932749 -0.017698238 -0.04287023 0.07273739 0.08061122 -0.022718033 -0.0080465935 0.31235644 -0.052085157 0.33572286 0.013584645 0.22546498 -0.03768996 -0.043655246 -0.045067426 0.18259165 0.0012184979 -0.04142541 0.100235 0.065669864 0.26484305 0.0860375 0.029543888 0.03773412 -0.04854753 -0.07158664 -0.09264809 0.20550631 0.0013956263 -0.034030948 -0.015706014 0.11623448 0.43575323 -0.022663325 0.12882404 0.03000081 -0.02384625 0.025893703 0.055908848 0.009509767 0.0856887 0.0021167258 -0.010094153 -0.011808797 -0.010530267 -0.051242813 0.03880209 0.20871475 0.016486853 0.27669975 0.06547619 0.10673587 0.12645507 -0.09716764 0.05371454 0.0042751417 -0.015573527 0.05461961 0.034418438 -0.045730975 0.11143333 0.053706326 -0.020445878 -0.009217446 -0.012864269 -0.03029796 0.11720702 -0.054739308 0.09955579 -0.00090471766 0.025658153 0.2601996 -0.0028621224 -0.030336345 0.0101284245 0.29198846 -0.12844452 -0.055057965 0.07129105 0.24041027 0.15612175 -0.04212713 0.07547579 0.2745667 0.054241795 -0.0029213545 0.08125725 0.04273747 -0.008900438 0.03559596 0.0012118176 0.20764752 0.061545532 -0.04039488 0.3172284 -0.02421843 -0.0042708544 0.41682354 -0.032681283 0.08833369 0.060971376 0.057782657 0.22163758 0.20390247 -0.051266454 -0.13865438 -0.19847175 -0.039409675 -0.05457969 0.3589411 0.097866826 0.09470517 -0.10794113 0.08543257 0.11770818 0.20128703 0.063590065 0.4040338 0.06984526 0.074423075 -0.087948546 0.033158325 0.020992503 0.090203635 -0.018428829 -0.06906102 0.014330487 0.014309138 0.12084365 -0.007077034 0.34227705 0.005937852 0.24640861 0.006088791 -0.027497564 -0.044394538 -0.026115589 -0.015127702 0.09294499 -0.023455655 -0.07551221 -0.028917015 0.014689688 -0.05333846 0.33703905 0.2685468 0.013371111 0.071989544 0.15884097 0.080527976 -0.046924002 0.1321037 -0.032335058 0.0143899545 -0.008487928 0.03209531 -0.026504964 -0.06666408 -0.01923081 -0.044113245 0.20152144 -0.12165152 0.07183861 -0.045989115
doc_30 -0.042401247 -0.04126313 -0.028750481 -0.035047855 -0.068370104 0.12101114 -0.05523615 0.13807732 -0.066967465 -0.026750706 0.29418743 0.055973064 0.008382766 0.0002513039 -0.014340833 0.15552881 -0.04535079 -0.0049017575 -0.0102584455 -9.025633e-05 0.0047066715 -0.03953188 0.05899103 0.06230854 -0.018689465 -0.12022428 0.043787405 -0.047372133 0.0058720578 -0.017126033 -0.026238717 0.17557234 -0.0012830654 0.16740043 0.12517773 0.03645948 -0.057930477 -0.027342528 0.04196826 0.12500523 0.06381639 0.07946669 0.1007428 0.24112774 0.049616773 0.27398887 0.054183524 -0.07443762 0.021845004 -0.12739913 -0.03373336 0.054138526 -0.029689288 0.14755307 0.09158712 -0.034438573 0.023405539 0.07893513 0.053133596 0.19001387 -0.01488582 -0.0562483 -0.07866399 -0.03542998 -0.02536211 0.05819928 -0.033206582 0.119449496 -0.040531084 0.16980273 -0.032827392 -0.045605734 -0.019676704 -0.026855448 0.019183008 0.04378364 0.07216943 0.1286679 -0.04370174 0.02685661 -0.04595957 -0.04202319 -0.03318237 -0.046016462 0.122415945 -0.07200721 0.28435093 0.014611404 -0.04662905 -0.032921646 0.087189175 -0.03055367 -0.06501005 0.011967327 -0.011682974 -0.031230364 -0.07641336 0.17739892 0.07493028 -0.018547045 0.045379672 0.023664745 -0.09406499 -0.01594102 0.16386342 -0.004035154 0.09657757 0.2798045 0.115060315 0.043990653 -0.012487101 -0.07912102 0.03118873 0.04958232 -0.020907536 -0.008749502 -0.03688873 -0.025771644 0.115152635 0.2654568 0.0078028487 0.13822117 -0.054370627 0.17963566 -0.034435805 -0.05380961 0.03157729 -0.056638256 0.14108427 -0.013634154 0.12536782 0.24039537 -0.0069328034 0.23149209 0.022295663 0.21927175 0.038926646 -0.045167293 0.01481423 -0.032322153 0.053793527 -0.019871382 -0.098241866 0.008182996 -0.09111789 0.32442495 -0.052240387 0.14230365 -0.10844958 0.21298319 0.153275 0.18261649 0.21108392 0.2350121 -0.019097554 -0.007646245 -0.033703838 0.074629396 0.011398546 -0.04474656 -0.00063811033 -0.025728496 0.05845077 0.107453816 -0.022472426 0.045178898 0.00049917377 0.1381978 -0.0034805527 -0.031255823 -0.011119022 -0.013004775 -0.00910528 -0.061342854 -0.01229868 -0.051508646 0.18464157 -0.037922885 -0.029156681 0.0044161947 0.035083137 0.077177204 -0.038082972 -0.040141888 0.071606085 -0.048201226 -0.031155083 -0.03911061 0.26006094 0.024484504 -0.046500392 -0.088908106 0.043915637 0.22095418 -0.056513064 -0.048422612 -0.09628094 -0.074162655 -0.082872525 -0.02651042
doc_31 0.109403715 -0.0010428 -0.015123205 -0.050559416 5.228445e-05 0.2297415 0.20427254 0.24856928 0.23978984 0.060216058 -0.005292614 -0.0012667608 0.17067833 -0.0044558044 -0.003539948 -0.029264156 -0.0056732316 0.016829168 -0.018400224 0.23234312 0.040357552 0.08575883 0.076454595 -0.021082962 0.014290208 0.039398953 0.007435194 0.20760791 0.12204664 -0.012023208 -0.022497872 -0.0026745158 0.0013990859 -0.0064635687 0.00032750051 -0.050843958 0.059396364 -0.008304046 0.0025428869 -0.021736547 0.0029318389 -0.018135099 0.032199915 0.17058112 0.018317439 0.26261842 0.13761064 0.20235997 0.0010044281 0.12367715 -0.02456079 0.006491374 0.014277612 0.044180766 0.00655134 0.082127325 0.029113777 0.0048750676 0.073852085 -0.006855324 0.026575238 0.29715735 -0.043734416 -0.005451355 0.01252484 0.067107804 0.028476672 0.11950739 0.019131294 0.27157223 -0.018080873 0.018762063 0.08098487 -0.00987656 -0.0034847243 0.0030485345 0.0016790667 -0.043052487 0.0048152665 -0.01868559 0.008311534 -0.00506474 -0.022411954 0.28114074 0.2561296 -0.0051026195 0.0027401987 -0.01124736 0.024586588 0.15994884 -0.03534545 0.11775747 -0.006945662 -0.013811443 0.01599042 -0.021159658 -0.008031946 0.19329555 0.00055985013 0.09836076 -0.01132065 0.018146543 0.049517564 0.17203389 -0.024060355 0.061667494 -0.027168445 -0.001609819 -0.020046977 -0.00015343307 -0.010849974 -0.01650854 -0.0071294326 0.0007934668 -0.025470246 0.11618638 0.0022992752 -0.011014523 -0.012252204 0.010647519 -0.0391678 0.28689426 0.16137068 -0.023327902 0.0027590357 0.14896908 -0.010653705 -0.0009838846 -5.053589e-05 -0.003594399 0.0932482 -0.024828868 0.13087387 0.13835391 -0.0411839 0.0091918465 -0.0012054078 0.10924475 0.14380448 -0.0006002225 1.2248522e-05 0.2354067 0.018195458 0.038020417 0.2961458 -0.0008300571 0.0012773479 -0.04044374 0.08360739 -0.015825132 0.039084435 -0.013742129 0.17071871 0.078940354 -0.012088551 -0.0076969257 0.18303795 -0.021948155 -0.023941949 0.021157313 0.09375609 0.059909925 -0.002051076 -0.038715433 -0.0030161329 -0.014451642 0.005866072 0.24970946 -0.00038384454 -0.019951802 -0.0005507774 0.07673908 0.06952418 -0.012584146 -0.007668828 0.09692636 0.30379587 0.14358954 0.00011105143 0.05823533 0.25519818 -0.00826858 -0.00631731 0.14643475 0.04401354 0.013572996 -0.003475911 -0.0026615579 0.3024184 0.14568242 -0.003312075 0.17947075 0.08186881 -0.0070603313 0.010719673 0.10074245 0.17295912 0.0018531345 0.05633127 0.08117674
doc_32 -0.04801259 -0.039824374 -0.01982197 0.097660825 -0.040688984 0.1794347 0.1040648 0.019500779 0.17312689 -0.040131688 0.03156871 -0.022695938 0.045812283 0.113124 -0.023160707 0.17465973 0.032784786 0.06307517 0.17985207 -0.012091413 0.03590129 -0.027715994 0.041000653 0.121034905 0.012780984 0.0813501 0.11772927 -0.027400862 -0.003409353 0.10414831 -0.015883228 0.0021574371 0.21467963 0.020390991 0.14376394 0.05565857 0.097819865 0.11107743 -0.06211209 0.14131483 -0.018442152 -0.030149685 -0.030838065 0.0287938 0.031414345 0.049882285 0.0139763 0.09446187 0.04178257 0.20504202 -0.023706425 0.05386661 0.08143457 -0.029989813 -0.018893823 0.13607685 0.21650986 -0.036524482 -0.046226207 0.12379131 0.060181845 0.19953954 -0.035232987 0.014487916 0.047051605 -0.015936999 0.11417048 -0.040972326 0.19401091 -0.028244434 0.17784704 0.026884455 0.041575793 0.053771913 0.091466755 0.040389944 0.055018768 0.035093807 -0.029058222 0.08057131 0.093612716 0.09169762 0.10846368 0.021066025 0.031709105 0.005794719 0.10880874 0.083905205 -0.019954966 0.06608716 0.12101327 0.025962066 0.20390645 -0.02837133 0.0938729 0.06616484 -0.00713062 0.009609137 -0.028447425 0.07643777 0.12034607 0.044282004 -0.015143191 -0.050872803 -0.030985802 0.1308745 0.06801327 0.057290576 0.03751733 0.0142618865 0.056831274 -0.04684255 0.06931074 0.0073599103 0.068186164 0.018665824 -0.012641463 0.015313594 0.011052643 0.08955325 0.09668514 0.06261405 -0.044433806 0.16952957 -0.051144976 0.12350256 0.13961974 0.03899369 0.13997667 -0.016302139 0.1855277 0.073036015 0.04339035 0.19025333 0.087047465 -0.019906878 0.06858531 -0.03715522 0.1945241 0.17886327 -0.022247553 -0.017234728 0.08188516 -0.005320625 0.19525388 0.07228172 -0.020541241 0.15542646 -0.015451233 0.010292413 0.11188781 0.117140226 0.038683824 0.10229336 0.06349576 0.08179953 0.092926756 0.11290397 -0.040097598 0.102915294 0.013069442 0.022146428 0.01110772 0.03058359 -0.044867985 0.036555562 -0.0015367642 0.02586118 0.1768391 0.049316928 0.010895715 0.014223981 0.09406973 0.10287186 0.1834849 0.13280083 -0.0033061153 0.14129472 -0.0037032533 0.020379135 0.074329175 0.2104208 0.110422365 0.07363319 0.1044713 0.064794704 0.04245038 0.15971784 0.008286463 -0.036104567 0.09739129 -0.020174192 -0.022839306 -0.014976612 0.045118403 0.12328252 -0.00043140491 0.0660927 -0.01649852 -0.03436778
doc_33 0.023012174 0.1633119 -0.024290167 -0.010797251 -0.0050885556 -0.029899726 0.2999176 -0.026050614 -0.0031981552 -0.01611907 0.2067109 -0.005099159 0.098096155 0.1275299 0.00318156 -0.031581942 -0.024258291 0.15762775 -0.044219185 -0.00448801 0.06353167 0.10167053 0.07014814 0.11575979 0.055378057 -0.042437132 0.046176724 0.27350494 0.07092144 0.09121982 -0.005396211 0.26852435 0.35736337 -0.004715018 -0.070844956 0.02900406 0.1359918 0.056346737 -0.019246247 -0.016929768 0.1696882 0.04076893 0.07369606 0.043029364 0.03113179 0.2906425 0.04078357 0.30158928 -0.00089483336 0.00076816604 -0.022478908 0.024312707 0.08931809 0.042083137 0.21081173 0.16384837 0.27425286 0.18335503 0.06921214 0.07972202 0.038795203 -0.013270993 -0.007435493 0.12535924 0.06995799 0.077794984 0.043154687 0.13623556 0.2570582 -0.10347831 -0.015153661 0.13617095 0.0759283 0.03066607 0.14317092 0.09830654 0.06987284 -0.008435406 0.09537532 0.07017717 0.015154067 0.07874316 0.03971729 0.21420987 0.13989104 0.19721618 0.28423893 0.13614906 0.25870514 -0.01210348 -0.05755624 0.053840395 -0.030665148 0.16819835 0.11734362 -0.015967358 0.11263034 -0.08111457 0.059374418 -0.016917093 0.05444508 0.06013481 0.023186818 0.0668406 0.1318154 -0.042821914 0.07722611 0.27906072 0.058570165 0.036955435 0.09928482 0.27035466 0.1056398 0.00010466389 0.06578089 0.25949338 0.11377664 0.042131793 -0.017290076 0.22480986 0.06648246 -0.0741026 0.23644625 -0.05703917 0.17212783 0.06871332 0.019910377 0.29744822 -0.0112971645 -0.014142178 0.111381695 -0.022156417 0.07598001 0.16741048 -0.038227342 0.13222082 0.0770429 0.11967847 0.057510007 0.28565922 -0.023684334 0.15527341 0.030691441 -0.008252071 -0.00872862 0.24951714 0.17971668 -0.004185347 -0.04273508 0.14397383 0.15959242 0.22985914 -0.006079614 0.0896823 0.15521766 0.11102738 -0.03683474 -0.013006879 0.10455976 0.13598046 0.069904335 0.0021917913 0.09266253 -0.040945347 0.18318786 0.068596154 0.27624178 -0.0453349 0.2021324 0.12522045 -0.015121819 0.050599903 0.03581837 -0.04775634 -0.040696852 -0.003918159 0.02443013 -0.005884884 0.14204894 0.043449927 0.26192302 0.25565505 0.09400035 0.20055997 0.16147086 0.14783536 0.07587029 0.07909109 0.03829501 -0.007541034 0.0925271 0.15645112 0.0031518894 -0.04274225 0.08790038 0.020275436 0.18984509 0.03486262 0.2824099 -0.02055852
doc_34 0.13741028 0.16986907 -0.026841767 0.15798187 0.21292588 -0.071930334 -0.044515066 -0.065364994 0.14513023 -0.040159475 0.19147083 0.13507931 -0.02245285 0.034046136 -0.026330069 0.21183406 0.17088498 0.1309642 0.22186546 0.03979048 -0.011915058 0.09272945 -0.01611901 0.15258594 0.0568242 0.20983747 -0.019050766 0.28711265 -0.082792066 0.08586813 -0.028174251 0.10797028 0.012739261 -0.020896751 0.0114503605 0.169727 -0.008526278 0.028483149 0.14594664 0.15254076 0.14531212 0.033707567 0.13825619 -0.07349644 0.06326475 -0.06811931 0.06569534 0.017078534 -0.008423654 -0.05578276 -0.0256027 0.19500475 0.025155624 -0.05938121 0.2551679 -0.062315673 -0.06088307 0.15121366 0.13968457 0.026945332 0.036291584 -0.06497373 0.2613035 -0.013248622 0.13736567 0.07910185 -0.041349508 0.1949389 0.25510716 -0.085613884 0.23413934 0.11550605 0.06738942 0.141789 0.007342545 0.0016813481 0.06349852 0.15474612 -0.008606639 0.021066377 0.102559365 -0.018914705 0.15814789 -0.063760564 -0.0042248517 0.20984904 0.051043473 0.11750142 0.06239796 -0.049975064 0.19433308 0.14222325 -0.06600996 0.14521314 0.06251701 -0.030168569 0.20063023 0.22646444 0.13881665 0.069885924 0.004329125 0.028077856 0.23536086 -0.03959268 0.05967622 0.1438429 0.0486425 -0.025819022 0.009331142 0.07897681 0.081040405 0.26326904 0.04848743 0.031908706 0.17724466 -0.036624674 0.024410037 0.10136018 0.23749167 0.2307435 0.13797155 0.20054731 -0.04741031 0.17108785 0.128575 0.08945698 0.03162871 0.0071205646 0.036288213 -0.02668961 0.22170745 -0.054397635 -0.023530286 -0.054375064 0.08661327 0.08754154 0.14791298 0.17152385 -0.0493895 0.010079214 0.07265178 0.07985451 -0.030883495 0.07974732 -0.06768021 0.0002295184 0.2301065 0.07455238 0.2532169 -0.015383836 -0.060534902 0.0505308 0.20503616 -0.07957933 0.0946954 0.14109792 -0.05514672 -0.054897957 0.13767605 0.012138633 0.118752204 0.030353539 0.11948258 0.14988557 0.17717099 0.052068427 0.24535793 -0.037113667 0.14675708 -0.009369266 0.0173901 0.10527934 0.015936974 0.2154751 0.23893107 0.074871324 -0.051561218 0.04480062 0.07657991 -0.016371414 0.20052232 -0.082022786 -0.012860785 0.10762277 0.13344125 0.15949589 0.045636278 -0.037470844 -0.025213648 0.17613044 0.05939083 -0.057124235 0.0009091606 -0.013060556 -0.0367342 -0.009936716 -0.05822015 0.16331534 -0.029825717 0.15588017
doc_35 0.12028105 0.13288938 -0.02448539 -0.017048078 0.12072854 0.13337597 0.24545571 0.13314067 0.13355169 0.14035654 0.16556525 0.035030015 0.0722764 0.09967757 0.010535585 0.06578833 0.13545081 0.12548831 0.011523316 0.11058761 0.09648859 0.14880598 0.10598742 0.056310784 0.08279123 0.1404098 0.061518326 0.27990618 0.17089273 0.08056204 -0.017953007 0.15042686 0.25461936 0.02490607 0.10358535 0.0034364015 0.15743148 0.069030784 0.087773636 0.050328385 0.117490105 0.06546927 0.08575074 -0.0063045924 0.07658184 0.22465481 0.13764212 0.26070923 0.19066794 0.16000919 -0.0123070385 0.15931982 0.097295515 0.14133593 0.20780706 0.12980199 0.19397761 0.15269513 0.11729847 0.10168073 0.10617579 0.20456146 0.18410113 0.082743905 0.07794349 0.12403752 0.07295661 0.19592395 0.2127454 0.0860185 0.10178093 0.1404591 0.12152626 0.08131008 0.095241375 0.08971937 0.060230896 -0.009366988 0.12745415 0.070663 0.07793416 0.11014853 0.090593725 0.22018932 0.22677831 0.0957524 0.0928267 0.09569606 0.22948727 0.1155347 -0.012895033 0.11617785 0.011292479 0.13885675 0.11470792 -0.025134858 0.11507156 0.02094324 0.08083404 0.06814411 0.0598128 0.11980223 0.046630353 0.14477159 0.038809538 0.0849884 0.072790086 0.2127881 0.049120255 0.0609249 0.072280124 0.19717011 0.10665418 0.049728516 0.06683123 0.27186787 0.070289426 0.06378665 0.13520646 0.24316029 0.037305493 0.09929906 0.24351357 0.019546807 0.18729804 0.1472164 0.06629845 0.25642952 0.053089216 0.009984947 0.14780195 0.022399426 0.12373325 0.098417714 -0.009880229 0.14026852 0.08118134 0.15044464 0.080777414 0.19209762 0.03731614 0.2969789 0.13539492 0.049731318 0.19010788 0.18199773 0.1317086 0.005281344 0.11480869 0.09668981 0.08719727 0.104007035 0.16010165 0.030873302 0.10708887 0.109658934 0.13058186 0.035738993 0.06334162 0.08408249 0.11458919 0.07930505 0.09212135 -0.020837432 0.1584063 0.058631822 0.21984501 0.082617946 0.17777215 0.1043638 -0.0032390535 0.1214596 0.10608755 0.050457902 0.062148903 0.098401144 0.20402782 0.11950982 0.10366997 0.087251976 0.19872022 0.21484055 0.10160558 0.19366598 0.13738884 0.122702725 0.117987454 0.06544364 0.19270982 0.059336536 0.099310815 0.23484555 0.11316491 0.070887275 0.117118716 0.105148226 0.26612642 0.14973845 0.25798792 0.059843644
doc_36 0.06902123 -0.02123393 -0.029614253 -0.02543459 -0.015145294 0.32967263 0.08153908 0.35363787 -0.050692867 -0.05316701 0.40342173 0.35941815 -0.06189823 0.09903978 -0.077001065 0.1784687 -0.052003022 0.25964275 -0.0058343834 -0.048721414 0.22196174 -0.036165416 0.28333464 0.2507504 0.1499679 0.07935436 0.26544827 -0.098582186 0.35169014 0.18428154 0.27315938 0.40806058 -0.038175687 0.38230634 0.19417366 0.23864375 0.0018832233 0.20984314 0.36956125 0.31367797 0.32924807 0.26120207 0.31895962 0.44469655 0.28483835 0.4252028 0.38478547 -0.04438484 -0.01645279 -0.04307992 -0.025800548 -0.11333345 0.094476625 0.42466345 -0.013738889 0.04288519 0.28681022 0.3663775 0.34273896 0.4994053 0.2122523 0.14884774 -0.107179634 0.39848652 0.12829205 0.29965207 0.22986543 0.3650523 0.024716191 0.38467106 -0.033351667 -0.0051135514 0.14029449 -0.063690946 0.17059827 0.3379551 0.26711413 0.3283524 0.14838538 0.33339646 0.017657982 0.105503194 0.12755461 0.07787696 0.20634793 0.31719065 0.28429487 0.26190698 -0.05056564 0.18131417 0.31739664 -0.05774347 -0.041903354 0.18866448 0.227715 -0.057439186 -0.08860336 0.38293245 0.31081867 -0.009794801 0.2581273 0.3067102 -0.030675175 0.26558557 0.33421686 0.43363902 0.26366425 0.50762093 0.36351457 0.28626093 0.15667194 -0.0917353 0.4687694 0.25892273 0.07036452 0.19206056 -0.14293678 0.09958713 -0.12623408 0.5719449 0.2928038 0.39457774 -0.01990821 0.33337098 -0.113936804 -0.033185177 0.29004183 -0.1348894 0.35550928 -0.046491258 0.38879573 0.4851671 0.20207116 0.37745064 0.20550494 0.3476057 0.34072462 -0.01663969 -0.014985754 -0.052224416 0.28659815 0.3672815 -0.038990773 0.2778648 -0.046546962 0.5312033 -0.019874604 0.49309948 0.26055294 0.36644062 0.34500673 0.34926528 0.44705668 -0.10965113 0.06443529 0.19774711 0.15310605 0.41290528 0.2834205 -0.0046310253 0.20455126 0.08275278 0.27652392 0.4042994 0.17346312 0.25624958 -0.07059574 -0.066623434 -0.013912776 0.14933077 0.23808174 0.17151438 0.24894905 0.038231533 0.10487412 -0.014193675 0.38912895 0.07241401 0.12169975 0.2426149 -0.011108681 0.38919845 0.12634553 0.02931297 0.39560357 0.073899575 -0.0021889044 -0.026310524 0.31596527 -0.041723732 0.008358772 -0.06621992 0.34460333 0.36739647 -0.013530956 -0.012882604 -0.0398015 -0.06984653 -0.061794557 0.09307034
doc_37 -0.04440989 -0.043767042 -0.026044987 0.091794774 -0.07578016 0.19945724 0.07745367 0.072880305 0.19230917 -0.062549464 0.0072401306 -0.027498746 0.06652717 0.1171832 -0.02174736 0.17993042 -0.007944687 0.05850175 0.20066065 -0.009764211 0.027958145 -0.03086807 0.029669538 0.10277359 0.0026609157 0.01084876 0.124197476 -0.038028903 -0.0041330275 0.10260655 -0.014228233 -9.905198e-06 0.20598054 -0.0036308847 0.15588412 0.041056044 0.09665326 0.10781017 -0.06935999 0.1542566 -0.017165577 -0.032875735 -0.04093229 0.08821342 0.028179867 0.092890695 -0.0003286138 0.035147984 -0.0028527859 0.19299771 -0.024735907 0.081664786 0.083520055 -0.03186623 -0.038954653 0.14904821 0.24275677 -0.038638067 -0.0516548 0.04030677 0.05171175 0.22326325 -0.05508468 -0.0048782155 0.04536992 -0.015415948 0.11687417 -0.042992283 0.21746843 -0.018496193 0.198758 0.016300257 0.038596746 0.05633082 0.09326812 0.037471015 0.045017492 0.00466753 -0.03133603 0.0827287 0.09468679 0.08101372 0.10095154 0.036493357 0.06880136 -0.005398118 0.004952883 0.07949919 -0.02891797 0.06889269 0.10784765 0.032665867 0.21774171 -0.032525167 0.095232874 -0.007995558 -0.02757983 0.059451994 -0.030017538 0.079762585 0.11863734 0.028829934 -0.04260489 -0.04696028 -0.03344946 0.117035545 0.056523405 -0.00068925926 0.022687191 0.0042992514 0.060922615 -0.025501437 0.0058434876 0.0107508125 0.07063072 0.0006882296 -0.005686865 0.011621111 0.038384482 -0.002710671 0.084992364 0.12379617 -0.048997942 0.17615823 -0.03704147 0.135077 0.14864446 -0.0032529724 0.15089779 -0.01926249 0.2126691 0.010665279 0.038544714 0.21676534 0.078499466 -0.03168639 0.050462063 -0.044392202 0.21197565 0.18493512 -0.02410827 -0.02885403 0.0013450569 -0.005424305 0.22278014 0.0017136023 -0.03375585 0.15862085 -0.03610004 -0.006327914 0.11697958 0.10718795 0.08196976 0.143812 0.058706246 0.08592991 0.096515566 0.10827141 -0.04566446 0.11046392 0.0114627965 0.01867166 0.00919399 0.010383625 -0.046982385 0.027345426 -0.0035196375 0.08507533 0.13148709 0.041238442 -0.0023146786 0.008214174 0.0862976 0.09044979 0.19061358 0.14059542 0.041710123 0.14515692 -0.00021866587 0.014628208 0.106904946 0.22801088 0.10838264 0.073231794 0.08710081 0.065936744 0.02013196 0.15077354 0.07156807 -0.03913172 0.09067462 -0.016506711 -0.025122197 -0.017659662 0.031114155 0.12470923 -0.010279017 0.013878138 -0.06518399 -0.034347244
doc_38 0.1028765 -0.029293561 -0.011920826 0.10636757 0.19189063 0.16462393 -0.058101516 -0.06726844 0.06341171 0.18419251 -0.06724207 0.122993365 -0.0461531 0.026296938 -0.029523492 -0.06774242 0.15751791 0.044027064 0.10326673 0.11380584 0.037844583 0.03153067 0.037594557 0.022493768 0.10627781 0.23088126 0.09507882 0.23439975 -0.06718241 0.06304396 -0.02225276 0.14530994 -0.06752054 -0.037945576 0.18248689 0.14049762 0.060954116 0.12516671 0.15158123 0.02823336 -0.033214003 0.09125249 0.181462 -0.058246218 0.101854935 0.031931747 0.18340193 0.077496186 0.11486347 -0.05258804 -0.025153982 -0.021647962 0.10132839 0.06478992 0.11458892 -0.006752847 -0.059057172 0.033872396 -0.04579566 -0.039286196 0.051851958 0.08836208 0.21901108 -0.026608933 0.095233865 0.009005132 0.10935113 0.0073588635 -0.07975041 0.11227675 0.09676376 0.14721298 0.0022832039 0.10256558 0.0185069 0.03167482 0.09543814 0.041264366 0.09810234 0.06168718 0.03752984 0.13081911 0.11935102 -0.040921092 -0.017550452 -0.09653871 -0.03411809 -0.013153781 0.19501022 0.047646597 0.13004601 -0.023989914 0.06668709 0.052543983 0.048775837 -0.019622808 0.1315148 -0.07951932 0.08277013 0.055166386 0.1129583 0.039017513 -0.07297277 0.07765379 0.103435636 0.067594804 0.067447655 0.12232739 0.09459112 0.12770909 0.10096301 0.19497521 0.18829843 0.12217594 0.13754258 0.152916 0.15589094 0.05289179 -0.011179624 0.16500755 0.02962965 -0.05867663 0.0079088295 0.07250276 0.19634812 -0.034815885 0.023997668 0.17273058 0.05161331 -0.02030963 -0.029469116 0.06575212 0.040904272 0.12019913 0.1360569 -0.000109903514 0.018682562 0.048780672 0.05989205 0.16054457 0.16908908 0.16188952 0.0610924 0.08818263 0.040354 -0.08687888 -0.041176047 0.06858822 -0.03180851 0.100815795 -0.04166374 0.0856474 -0.044230126 -0.079227716 0.09362697 0.07387711 0.064630404 -0.022788342 0.08701286 0.11694703 0.06072039 0.10342409 0.06423746 0.076306686 0.033717573 0.020996116 0.08263714 -0.007928474 -0.08917267 0.11895147 -0.025899172 0.051900435 0.10664882 0.1880146 0.12793663 0.10100147 0.18871236 0.0537133 0.11080307 0.043349773 0.13399413 0.009637759 0.08862253 -0.009344741 0.055429775 0.09014647 0.095149726 0.049413133 -0.042604044 0.17451677 0.09594219 0.09134808 0.021770062 0.18557 0.09356662 0.004627689 0.14116208 0.16944873 0.050265484 0.14392126
doc_39 0.3561329 0.40425172 -0.013041567 0.31127787 0.3825158 -0.081142575 -0.07096752 0.41798046 0.3326564 0.44994754 0.40121397 0.13537979 0.28003165 0.10025136 -0.036976784 -0.08367671 0.37764162 0.0645433 0.41530266 0.3980566 0.26484302 0.33679265 0.13006335 0.3751414 0.2517255 -0.110547096 0.32379603 -0.03434246 0.4606351 0.048912082 -0.012417387 -0.107847005 0.107264325 -0.0487374 -0.070170745 0.03247127 0.34923816 0.22051385 0.3879517 -0.033834368 0.08147514 0.3490878 -0.06958623 0.38637498 0.089733616 -0.10648394 -0.08996822 -0.086155534 0.5081011 0.44698858 -0.03478797 0.037624434 0.06803029 0.40829712 -0.08385273 0.2374559 0.031559676 0.24039365 0.2577798 -0.01850808 0.33231914 -0.06360958 0.19696029 -0.008810043 0.1303506 0.14951892 0.1235582 -0.0927724 -0.038422987 0.46947315 0.34932214 -0.045439005 0.21730603 0.35310617 0.19573908 0.30938542 -0.0039402787 0.38054252 0.41917813 0.2872031 0.27751562 0.1579967 0.3369158 0.30994558 -0.16898413 0.47983512 0.14913869 0.30542094 -0.077912815 0.4018237 -0.081451915 0.39381003 0.47827494 0.22634378 0.06859111 -0.040243216 0.41698563 0.2762895 0.14976236 0.06397618 -0.059348367 0.25362927 0.31079653 0.4027711 -0.038801737 0.3710133 0.24092951 -0.11534391 -0.065523095 0.14045885 0.038099147 -0.111701846 -0.062398564 0.28219005 0.13554865 -0.08819212 0.38175055 0.35538244 0.39923477 -0.15732265 0.34986326 -0.23149627 0.30116746 -0.088729426 -0.08258437 0.33898604 0.2724125 0.3190871 0.20705535 0.3448405 -0.056635994 0.41761494 0.0334932 -0.15022637 0.3554773 -0.049303677 0.13141258 0.011624376 -0.067332216 -0.08712584 -0.02771 -0.010363734 0.43394965 0.09223869 -0.009377195 -0.17173873 0.3303373 0.30969644 0.4144669 0.2439413 -0.05810426 -0.076066315 -0.24077567 0.34284413 0.0841962 -0.02153084 0.44005868 0.46005818 0.2715435 -0.061388083 0.122439 0.21093947 -0.037137005 0.36288032 0.3435507 0.2906782 -0.08899054 -0.025012642 -0.016078223 0.23184875 -0.017156124 0.23959354 0.02638554 0.11610581 0.42416778 0.05219006 -0.17668435 0.38293603 0.10422109 0.27980536 -0.026055994 0.33038223 0.2946596 0.318354 -0.103495605 0.18145965 0.20003122 0.44620523 -0.3204484 0.14401773 0.048650056 0.42411363 0.36611888 -0.09380151 0.38882932 0.26010603 0.28854945 -0.088638246 -0.005220942 0.16273777
doc_40 0.09364622 0.1840436 -0.038530473 0.16249241 0.18712787 -0.046785075 0.024275202 -0.060074627 0.20602022 -0.063819066 0.35332024 0.13748734 0.014234507 0.04556505 -0.033197913 0.32540753 0.2252386 0.14895086 0.2866557 0.04168052 0.0010091251 0.07698652 -0.0025897713 0.2216324 0.040064152 0.033213623 0.01287496 0.29800808 -0.034459837 0.09739324 -0.037709665 0.15864848 0.0723913 0.1775196 -0.028639648 0.19823425 0.027145585 0.00991365 0.13824977 0.232341 0.1596346 0.037588734 0.13450344 -0.02950237 0.058677703 -0.085407026 0.059135713 0.02726994 0.15994598 -0.0028666127 -0.033480342 0.3380164 0.020960858 -0.06450738 0.3727585 -0.0062279203 0.044298362 0.16714066 0.14894097 0.17524666 0.036911964 -0.04823401 0.33658218 0.054395225 0.13798565 0.07485372 -0.03293578 0.23890033 0.3737043 -0.12596431 0.32884496 0.1289691 0.04563321 0.17467739 0.034974467 0.020383818 0.078773044 0.20934021 -0.019156821 0.024823293 0.09520362 -0.016303787 0.1558726 -0.054506 -0.04212602 0.3350657 0.13858193 0.14561822 -0.051937446 -0.044086095 0.26605776 0.13042757 0.010010258 0.1692517 0.047524214 -0.0407701 0.22125043 0.32082197 0.14901786 0.07658982 0.029764203 0.030742066 0.31997496 -0.06256088 0.06633678 0.21896775 0.066329695 0.081223585 0.033502333 0.06004248 0.06811094 0.3090595 -0.05912951 0.02691025 0.18299352 -0.11427952 -0.11625611 0.09049388 0.36148253 0.35712922 0.1742884 0.25818375 -0.02330064 0.25819224 0.072934195 0.093194224 0.06275518 -0.031176077 0.1043738 -0.03399689 0.3344351 0.14690135 -0.015683815 -0.016912047 0.07208802 0.12415975 0.1899504 0.16722561 -0.008220291 -0.019470876 0.06418504 -0.06739843 -0.023193412 0.07187529 0.06956449 0.049560573 0.32584798 0.12866575 0.31100345 0.012216533 -0.005104403 0.06847398 0.3021996 0.029461531 0.09614463 0.15841216 -0.043186393 -0.01365036 0.12249088 0.02603945 0.10485897 0.016280025 0.13050386 0.20603515 0.19385867 0.062495723 0.3519468 0.020119088 0.14177044 -0.018354578 -0.024195097 0.082047336 -0.0064443857 0.19639847 0.32634237 0.08082235 -0.07066151 0.082832366 0.06478931 -0.016164614 0.25265914 0.008123737 -0.011145232 0.09357421 0.18708403 0.17090368 0.044989202 -0.02558319 0.060151227 0.1453682 0.058213364 -0.11676581 -0.0015924393 -0.012836442 -0.048350845 0.006551891 -0.12289815 0.038623296 0.08692898 0.14112508
doc_41 0.16958392 0.1933149 -0.0241543 0.13635904 0.262419 -0.055647172 -0.04001999 0.19328341 0.117251396 0.18996385 0.25313115 0.034417745 0.17596278 0.030902164 0.07667895 -0.013384804 0.25463614 0.02776752 0.18284978 0.17489104 0.089975804 0.14793485 0.02552789 0.17257234 0.08525504 -0.028015709 0.15293269 -0.018769097 0.22128502 0.038288083 -0.028160783 -0.006099064 0.02680567 0.0038960872 -0.044738363 0.03825814 0.12914166 0.06514404 0.19060902 0.0017231759 0.043825686 0.15761015 -0.028967094 0.21410768 0.058290306 -0.018285073 -0.02274475 -0.030801268 0.23976679 0.23832586 -0.021003038 0.04702656 0.025865609 0.19624086 -0.013973853 0.077433646 0.025670834 0.11946279 0.10564438 0.03774548 0.13682522 -0.08817905 0.09289271 0.0007697961 0.059965428 0.038544282 0.04151857 -0.03466909 0.0034927423 0.20373128 0.1747452 -0.02089174 0.06417118 0.15532708 0.07452187 0.13167535 -0.0024489395 0.18993057 0.16799845 0.11679415 0.13042508 0.069552064 0.16324899 0.15480363 0.003772105 0.23802972 0.08117428 0.15086293 -0.008897113 0.15781856 -0.023977509 0.17139281 0.24339823 0.12963265 0.036512643 -0.030101283 0.22189622 0.15828541 0.07444941 -2.5516376e-05 -0.016017018 0.09756348 0.21963695 0.17911778 -0.0047462285 0.20046398 0.115439996 0.0390903 -0.015774285 0.04361898 0.024232483 -0.026741557 0.059349164 0.11280917 0.06648563 -0.0106212245 0.18412283 0.1345651 0.21738996 -0.030516544 0.16202995 -0.022660121 0.12455453 -0.031511415 0.012174601 0.17203477 0.11924403 0.18709849 0.07458523 -0.0052857483 -0.013795311 0.28511652 0.0006910119 -0.0101618655 0.17064665 -0.006275099 0.052623704 0.009938839 -0.060103837 -0.051167753 -0.023727536 0.0003089388 0.2464763 0.038523287 -0.061044727 0.03525167 0.16295154 0.16048722 0.22998603 0.13454722 -0.02234631 -0.025838414 0.0003308847 0.24793775 0.034441568 0.025961634 0.17372999 0.19577187 0.1261757 -0.036316685 0.026179727 0.08604708 0.012677709 0.20074278 0.17303993 0.12601441 -0.0019797608 0.024551762 -0.012238673 0.09454925 -0.0018900342 0.08885841 0.012108723 0.061525036 0.1978917 0.009586592 -0.01221476 0.1270449 0.0330124 0.099759616 -0.020682387 0.18423834 0.13420446 0.112554446 -0.03221964 0.068761654 0.07984221 0.20713034 -0.060900684 0.07660865 0.022720214 0.20739827 0.1581797 -0.0062104748 0.15981409 0.0576924 0.16800578 0.056821052 0.07830715 0.055275254
