doc_0 0.12314674 0.16000126 -0.16055375 0.2400878 -0.16310143 -0.17437682 -0.18049103 0.26891318 -0.17837204 -0.16803505 0.18375385 0.22270527 -0.18549916 -0.16946612 0.23777643 -0.13369006 0.19755366 0.1411411 -0.18021972 -0.15717465 -0.16404608 0.23763628 -0.19348973 0.23872003 0.23191828 -0.17584309 0.119131066 -0.16338454 -0.19257851 0.18825044 0.19916956 0.25141284 0.24537544 0.17398259 0.24523678 0.24812238 0.22883093 -0.18309912 -0.15726914 0.24847442 -0.1744766 0.21712157 -0.024266727 -0.14341082 -0.16724044 0.22658536 0.14852448 0.2272669 -0.16814977 -0.15622447 -0.15685217 -0.14507794 -0.03887893 -0.03455035 0.23878203 -0.1882278 -0.17067729 -0.18049972 -0.16633683 -0.1704255 -0.17337777 0.23873499 -0.17107895 0.24041447 0.21662164 -0.20213723 0.2256471 -0.1779661 -0.04949757 -0.057161223 -0.17859492 -0.060304374 0.25597736 -0.19358148 0.22954983 0.21743831 0.23118898 -0.17854816 0.25457233 -0.16368803 0.26879793 -0.040489282 0.25329816 -0.1560099 0.19790658 0.18101993 0.19190544 0.23401466 0.25005615 0.23667204 -0.15951511 -0.16086572 -0.16771214 0.19261399 0.2437258 -0.15623677 0.24708638 -0.16684031 -0.17584378 -0.17718042 0.21213791 -0.19440268 -0.18097138 -0.18652067 -0.17534482 0.1972121 0.17332122 0.22184062 0.22248748 0.2519813 -0.18508513 -0.14670555 -0.04487705 -0.17816731 0.26010996 -0.19650094 -0.15983474 0.24575548 -0.16856846 0.2223241 0.21925172 -0.17913087 -0.17211527 -0.15572195 0.2159421 0.22058868 -0.13850759 0.16407956 0.25667974 0.2596171 -0.066977546 0.22266516 -0.17886674 -0.16881475 0.20885807 0.25328794 -0.17631894 -0.17395091 -0.0039326292 -0.1910213 0.21605448 -0.18966936 0.2053715 0.22982979 0.1377401 0.22690013 0.23580119 -0.17733642 0.22655055 0.25466353 -0.18835537 0.16959506 0.24723777 -0.19224694 -0.15349618 0.25079927 -0.19611709 0.25921044 -0.17814435 -0.16386153 -0.17849348 -0.16106632 0.19792347 0.15597709 0.09189125 0.2579768 -0.16521229 -0.024391904 0.22391109 -0.14713323 -0.18897651 -0.17765939 0.1954292 -0.18466933 0.24116653 0.23917386 0.24416243 -0.16620894 -0.17887224 -0.17435902 -0.16968177 -0.1687366 -0.16974825 -0.048581403 -0.16889763 -0.17669857 -0.16760412 -0.17267498 -0.17867139 0.23247671 0.21862109 -0.1683465 -0.15533414 0.24927686 0.19586542 -0.15900233 -0.02893753 -0.17809394 -0.15819013 -0.19408351
doc_1 -0.0260596 -0.021653958 0.028411612 -0.014812767 0.01759311 0.02075323 0.031863745 0.02176505 0.0028409334 0.002676796 0.04108716 0.021407787 -0.018809492 0.010581228 0.008176354 0.013045644 -0.01584897 -0.03757677 -0.00061603566 0.01262402 0.02573237 -0.019946352 -0.008896839 0.03497306 -0.040472545 0.0067839003 0.022045396 0.005415021 0.0097670555 -0.021245759 0.017366998 0.00504495 -0.014327877 -0.018611822 -0.026301866 -0.024604117 -0.026938602 0.013028218 -0.011337623 -0.027616158 0.01649845 -0.022555873 -0.03265497 -0.0042376304 0.003339456 0.050017215 -0.033478167 -0.018887945 0.01767444 -0.005480266 0.010197495 0.009227692 -0.022607546 -0.02677263 0.011182902 0.02609634 0.0053094197 0.0070902724 0.004575394 0.021587431 0.010364004 0.028599316 -0.019720294 0.0526015 0.023637567 0.0087290825 0.035924714 0.015971635 -0.029786792 -0.021649268 0.010109402 -0.02778425 0.040311553 0.0044448115 -0.03521238 0.040054873 -0.03272244 0.00838267 -0.030193081 0.016174847 -0.008500602 -0.023019288 -0.02930011 -0.023556212 -0.027576441 0.005217414 -0.015316337 -0.031761263 -0.033685468 0.030468114 0.021527516 0.012977894 0.014502538 0.030531984 -0.028598968 -0.004950258 -0.021968983 -0.008281758 0.018750781 0.016147098 -0.035421032 -0.016238315 0.03322758 0.022596424 -0.0008811231 0.002674745 -0.02103165 -0.039536413 -0.024781585 -0.016695611 0.0070158816 -0.003372862 -0.027849095 0.0007313902 0.050586257 -0.0006815125 0.014151724 -0.004295311 0.027850732 -0.02031631 0.059567433 0.023460984 -0.0079177115 0.016841548 -0.03301735 -0.024119563 0.0093741845 0.022496458 -0.024924835 0.0038202298 -0.037240516 0.0583999 -0.0154924095 0.009379382 0.0020797723 -0.03619584 0.007217319 0.026755331 -0.009765882 0.00032842346 -0.028024364 0.0064286264 0.020001419 0.026805552 -0.022001473 -0.027843157 -0.036130205 0.006328052 0.005918733 0.05704456 0.012615701 0.014329884 -0.020549623 0.019564854 0.0008035512 0.032191094 0.01266171 -0.021505853 0.027600035 0.018804027 0.028630108 -0.013364971 0.050353125 -0.040444218 -0.043372054 -0.024600925 0.019054733 -0.03302659 0.029788487 0.012411242 0.01506574 0.023760747 0.0046325233 0.016668718 -0.03677594 0.022209255 0.029989922 -0.016352063 -0.0037462574 -0.00075788796 0.024094824 0.03097293 -0.0022872607 -0.009958485 0.02593925 0.011690452 0.0032350789 -0.0010784878 0.020714324 -0.0017309518 -0.018529028 0.012856127 -0.010602624 -0.04291678 -0.029704556 -0.0004944883 -0.039037395 0.016366681 0.010998337 -0.0042156014
doc_2 -0.0545653 -0.063142836 0.1804473 -0.072396785 0.17414923 0.17360838 0.13065505 0.019411888 0.17154013 0.14402646 -0.025012778 -0.016872939 0.16646099 0.18309566 -0.021477442 0.1394059 -0.042350374 -0.056196783 0.14357975 0.17555545 0.14672461 -0.061997324 0.15033078 -0.045480516 -0.07105701 0.13408421 -0.044315025 0.14958635 0.17124987 -0.043171294 -0.0119355135 -0.045886196 -0.054877203 -0.018174974 -0.04911637 -0.0630252 -0.020798428 0.17627522 0.17289093 -0.05712996 0.15444395 -0.06294136 -0.036384236 0.14765416 0.17851265 -0.0018601307 -0.07705751 -0.053439755 0.15312362 0.17663522 0.15311907 0.15253836 -0.044311393 -0.048004154 -0.05581158 0.14378567 0.15063348 0.16970095 0.13883904 0.16334495 0.16389446 -0.0008434816 0.1340103 -0.06884171 -0.024682943 0.1669512 -0.03490477 0.13875762 -0.07012115 -0.04985088 0.15965982 -0.009021782 -0.019230947 0.1700077 -0.04400504 -0.015884457 -0.054960508 0.1691609 -0.052232794 0.16264515 0.01882862 -0.0031669522 -0.021247743 0.13200743 -0.051152892 0.018593932 -0.03690575 -0.06575986 -0.060242735 -0.04229329 0.15587689 0.14654519 0.15164723 -0.015744053 -0.01062044 0.16964717 -0.05959657 0.1313962 0.1640355 0.15319934 -0.06891933 0.16243385 0.15300542 0.15691605 0.16443339 -0.064748615 -0.063737705 -0.07200284 -0.06330169 -0.060560662 0.15574327 0.15970396 -0.058996033 0.13417804 -0.024174605 0.19421583 0.14523734 -0.0581591 0.14095679 -0.0600379 0.0017662786 0.14183344 0.17453107 0.14682515 -0.069790974 -0.06890033 0.17655157 -0.006262771 -0.063831784 -0.059693985 -0.06020867 0.027713561 0.15916099 0.1642437 -0.026572272 -0.06375649 0.16332746 0.14453207 -0.00834576 0.17045939 -0.055348575 0.15388927 -0.041058343 -0.024549156 -0.07224877 -0.06280211 -0.052615218 0.17130417 -0.061266437 -0.035404038 0.15419681 -0.03512864 -0.07044933 0.1477137 0.1733327 -0.045503825 0.17371613 -0.06789965 0.15485501 0.1516467 0.14050591 0.13872637 -0.05801653 -0.026734538 -0.05807504 -0.06894732 0.14079623 -0.054192968 -0.022853035 0.18395664 0.17216375 0.12053853 -0.06568204 0.15636952 -0.058593586 -0.047971267 -0.0563181 0.16847533 0.17660195 0.15108667 0.17384577 0.15005767 0.1670126 -0.0076047345 0.13282685 0.14793149 0.14922094 0.1388613 0.13934037 -0.0017328205 -0.008470517 0.16048613 0.141895 -0.0768244 -0.058608573 0.12711076 -0.04297939 0.16536349 0.15268905 0.17265637
doc_3 -0.042614244 -0.018336372 0.050988834 -0.00850744 0.041571982 0.040124327 0.057452682 0.019312967 0.040635094 0.032382764 0.027498163 0.011911074 0.009710483 0.040828604 0.008718716 0.055185534 -0.0126133505 -0.030373894 0.049403988 0.039412808 0.05859569 -0.0054370835 0.02786183 0.008572905 -0.04680144 0.015444363 -0.02213859 0.045485996 0.042336278 -0.029300893 -0.023493866 0.018370435 -0.01161981 -0.009186027 -0.018654436 0.0119932275 0.00029734056 0.046329703 0.014202314 0.02287372 0.041325815 -0.032245353 -0.059348874 -0.003486443 0.05754749 0.051685367 -0.037104987 -0.028774668 0.05112185 0.04508666 0.040067513 0.05236125 -0.046169724 -0.053428568 0.015023431 0.061186697 0.054858282 0.03404573 0.019814156 0.03753168 0.048303697 0.028408399 0.0070292754 0.017004931 -0.010357947 0.024734354 0.028181111 0.04435824 -0.057692185 -0.044767033 0.05221525 -0.048684403 0.026713233 0.04865316 -0.034490902 0.007146271 0.0029399954 0.024944587 -0.024998194 0.05247793 0.044150878 -0.044363856 -0.027285218 0.023168314 -0.026929624 -0.0082703065 -0.04330155 -0.023228332 -0.020803032 0.020176338 0.04112056 0.07130142 0.032364957 -0.0036427802 0.0039261356 0.012250336 -0.027033912 0.02172242 0.035349853 0.054701563 -0.03876519 0.010940206 0.044807132 0.055446878 0.008185797 0.009501379 -0.0066816965 -0.032777566 0.015390507 -0.0048644706 0.04248883 0.03802076 -0.0479115 0.0316201 0.020917734 0.028681232 0.041736264 -0.0061185816 0.03361979 0.009676122 0.045066375 0.07190598 0.029312063 0.047465693 -0.021932255 -0.021088433 0.022337742 -0.019418757 -0.019914808 0.01367056 -0.011295636 0.036115646 0.034709707 0.021418078 -0.0052206027 -0.0300989 0.04979054 0.059782185 0.02706989 0.050313048 -0.00955522 0.032562032 0.0037438257 0.0035352986 -0.02416221 -0.028772697 -0.03289719 0.039684616 0.016906533 0.07379547 0.041093737 0.020812608 -0.023858126 0.034339756 0.015417947 0.050330054 0.04796249 0.0035189625 0.037218347 0.049251452 0.06636941 0.014531854 0.021126345 -0.032336984 -0.050673924 -0.011250014 0.054431003 -0.044515263 0.0018669777 0.04338862 0.0364577 0.058141485 -0.02071899 0.06884272 -0.046563856 0.013018841 0.0038369321 0.0062034754 0.026568826 0.038966037 0.05068734 0.054305032 0.059400033 -0.045473516 0.04456448 0.03885076 0.042048637 0.024942584 0.034577824 0.02197897 -0.0153523125 0.03850408 0.011680519 -0.03459679 -0.026982654 0.024611833 -0.05443503 0.043891944 0.047131605 0.030950688
doc_4 -0.056561828 -0.05092771 0.12311919 -0.03228034 0.10719858 0.123940855 0.12726319 -0.021001054 0.115733676 0.11401232 -0.01455082 -0.0065130135 0.084462 0.110066645 -0.007290012 0.11799347 -0.04067311 -0.053512614 0.1117104 0.11313232 0.122871585 -0.041653946 0.09082759 -0.020497903 -0.0630211 0.08792612 -0.030365553 0.12290127 0.117752604 -0.052859396 -0.020252764 -0.0048184674 -0.027743546 -0.03999457 -0.040340886 -0.03181089 -0.040237904 0.11414322 0.09033487 -0.018986993 0.116552494 -0.052407928 -0.07176295 0.06946939 0.13036045 0.020454248 -0.04710883 -0.03388975 0.1253224 0.10079387 0.11273902 0.13017704 -0.07302816 -0.07203618 -0.023461103 0.12687472 0.11476483 0.11086955 0.0781165 0.11200665 0.109960414 -0.0029621937 0.07197695 -0.005976705 -0.02561711 0.111367695 -0.014144231 0.10892462 -0.077719666 -0.06518985 0.11860398 -0.056093708 -0.004024757 0.11518277 -0.059874043 -0.007463943 -0.043749195 0.10825313 -0.03996433 0.12108071 -0.020706229 -0.06513525 -0.046572335 0.088810064 -0.047949355 -0.030179745 -0.041576393 -0.04418589 -0.049811393 0.0017328953 0.13805373 0.13115543 0.090182275 -0.0297224 -0.0283878 0.08798409 -0.03769579 0.09708795 0.090331376 0.12617946 -0.047582343 0.06969822 0.113034904 0.129754 0.099277176 -0.0042247786 -0.026153702 -0.060221687 -0.03724978 -0.035506334 0.12083876 0.09785629 -0.060971484 0.104425676 0.009367626 0.091025986 0.106834106 -0.02700883 0.12192545 -0.042972613 0.018503994 0.12950368 0.10950536 0.12110914 -0.05262099 -0.05238347 0.09877526 -0.0329423 -0.046352386 -0.011719464 -0.029526316 0.009480434 0.112146616 0.10411166 -0.02970399 -0.047267877 0.116740435 0.12296364 0.05829869 0.11910538 -0.03269544 0.11318587 -0.013860627 -0.015117214 -0.04749645 -0.05473631 -0.047678996 0.100497484 -0.008714246 0.07612958 0.11855803 0.0018999334 -0.045334 0.115118876 0.10417724 0.035154097 0.1296715 -0.030180242 0.112084195 0.1061327 0.13425386 0.089727096 -0.0070634964 -0.0684254 -0.07158653 -0.037290927 0.12130647 -0.05572056 -0.018506834 0.1050676 0.1099054 0.13010697 -0.02743329 0.13842355 -0.051647548 -0.0109774005 -0.012789758 0.08226324 0.09569515 0.10938743 0.10815804 0.12220323 0.12454879 -0.06683582 0.12495717 0.10095326 0.10601477 0.09843702 0.1168667 -0.017016567 -0.036502715 0.106619574 0.0816171 -0.040976577 -0.04359953 0.10130388 -0.082563296 0.117486805 0.12065005 0.10683058
doc_5 -0.058393545 -0.06669832 0.15608075 -0.06508242 0.16327341 0.15697983 0.16105148 -0.07525941 0.16446756 0.17383549 -0.062606595 -0.07019339 0.15004946 0.1607841 -0.07458715 0.17111403 -0.06702285 -0.049911514 0.15445226 0.16907749 0.14029281 -0.04882304 0.17114851 -0.06186017 -0.07033368 0.17390873 -0.06561022 0.13824788 0.1521205 -0.05365811 -0.07623384 -0.07961349 -0.07419675 -0.04959621 -0.06661705 -0.054132495 -0.07503019 0.15221372 0.17106168 -0.056606486 0.17450225 -0.058299344 -0.05130833 0.15800804 0.15570171 -0.055394787 -0.07433375 -0.056314804 0.15705596 0.16494091 0.1497969 0.17040727 -0.058683414 -0.04920372 -0.07230208 0.14614502 0.16373354 0.16149853 0.16485967 0.16577542 0.15904921 -0.09201965 0.15675178 -0.06776065 -0.07136143 0.17134352 -0.06619258 0.16705501 -0.056239553 -0.044228554 0.14473404 -0.0412053 -0.06813233 0.16009633 -0.048321366 -0.057292715 -0.06008245 0.17672259 -0.04340472 0.17163482 -0.06476732 0.004329352 -0.0695679 0.15022863 -0.053888183 -0.0595378 -0.043392427 -0.075792424 -0.053238586 -0.08228659 0.15105122 0.17262915 0.14582486 -0.06455802 -0.073205374 0.16197889 -0.06317562 0.166986 0.15744272 0.16622646 -0.054837786 0.17330815 0.159784 0.15721641 0.15779151 -0.092099965 -0.07027185 -0.04858554 -0.060487766 -0.06934993 0.1501779 0.17405742 0.08368581 0.16754554 -0.0688 0.18114328 0.1467585 -0.07059101 0.16102682 -0.05886773 -0.035226297 0.16588649 0.15540458 0.1497787 -0.048626292 -0.07415395 0.15271671 -0.06411734 -0.06313408 -0.07305026 0.042113874 -0.08212496 0.14791223 0.16732168 -0.08004352 -0.06606965 0.15567213 0.1591922 0.058910266 0.17083097 -0.06962831 0.16081251 -0.056140736 -0.06576765 -0.057246372 -0.055950686 -0.057839893 0.15059388 -0.058752585 -0.05011735 0.15268242 -0.08237887 -0.05744857 0.18250863 0.1560648 -0.07409848 0.16856396 -0.06489074 0.16915259 0.16412249 0.16037177 0.18865678 -0.07438877 -0.050077252 -0.07092033 -0.050541043 0.15273298 -0.033663616 -0.080657616 0.1659284 0.15323217 0.16422744 -0.06929114 0.17489094 -0.039394464 -0.05668306 -0.06548084 0.16332747 0.17975794 0.16739753 0.16504982 0.15984926 0.16620874 -0.037619848 0.14734143 0.15177928 0.17540403 0.16345926 0.15955861 -0.07053935 -0.05778816 0.15609604 0.1666036 -0.0713999 -0.055445075 0.157747 -0.063328356 0.17224365 0.15690115 0.16385974
doc_6 -0.05366486 -0.038899217 0.08046711 -0.014937933 0.07676555 0.067756645 0.07524878 -0.0031893007 0.08237766 0.062043495 -0.0083844755 -0.0075144223 0.03246279 0.06411795 0.015192462 0.07692771 -0.039168313 -0.025495466 0.056848466 0.079656534 0.07786842 -0.013993788 0.042031046 -0.002496844 -0.033600427 0.0469668 -0.019615183 0.07933718 0.08499505 -0.030434152 -0.013735003 0.005168044 -0.013707462 -0.0010030728 -0.030575316 -0.027536985 -0.018583296 0.06633457 0.05429716 -0.022944052 0.06956656 -0.02761785 -0.05788913 0.05416242 0.09493758 0.028656937 -0.024351409 -0.019587483 0.07008042 0.068331406 0.070467174 0.09376304 -0.04819614 -0.05234646 -0.018438218 0.08025204 0.072812036 0.069393635 0.0624774 0.075351655 0.07827274 0.019118547 0.048577 0.035822336 -0.024001712 0.06329395 0.006115727 0.07017014 -0.052500013 -0.043622117 0.07253937 -0.042165432 0.016898481 0.08010286 -0.037974153 0.044929363 -0.026177088 0.0694246 -0.023818143 0.08073374 -0.01886057 -0.05331291 -0.023806227 0.05691368 -0.015620682 -0.0294919 -0.009476852 -0.028507635 -0.02304534 0.0017985185 0.08140542 0.08638017 0.051008455 0.0052921516 -0.039511777 0.046639625 -0.025837539 0.046967816 0.04266374 0.08501372 -0.01678104 0.045950394 0.070806265 0.08679736 0.05131584 -0.014072839 -0.016540447 -0.016996333 -0.034634553 -0.019235952 0.07188183 0.060680997 -0.05137311 0.056372136 0.023315271 0.065530464 0.06927388 -0.0019095966 0.074221656 -0.021203669 0.009202572 0.09944259 0.067889735 0.07216565 -0.0017245056 -0.03263867 0.06473658 -0.013170538 -0.012031892 -0.008204632 -0.027175749 0.023934355 0.058397293 0.051378045 -0.008131539 -0.027679607 0.06994726 0.09343826 -0.0010015946 0.092205495 -0.016350921 0.072641134 -0.0019634538 -0.009716446 -0.037801344 -0.019967858 -0.015217475 0.058150962 0.0004112227 0.051522404 0.08502636 -0.008324179 -0.017730497 0.0700339 0.069312446 0.03539632 0.09236697 -0.00010335585 0.068764076 0.06802749 0.081467174 0.049568083 0.0150482515 -0.04786778 -0.04876273 -0.029521883 0.068733975 -0.044231597 -0.010425663 0.06034383 0.06957371 0.08405429 -0.029615846 0.085096605 -0.034827374 -0.00894244 -0.020183023 0.043296654 0.06534566 0.07818211 0.070432626 0.07691279 0.075891614 -0.04764598 0.08694244 0.08548112 0.065399565 0.05887475 0.06802182 -0.0053665536 -0.031215096 0.07281278 0.04367157 -0.027026415 -0.032756317 0.06474484 -0.05491523 0.07987996 0.0832939 0.05725373
doc_7 -0.015929466 -0.01452332 0.038953904 -0.012651466 0.05787542 0.052233644 0.05911202 0.0016743816 0.058293425 0.050876085 -0.006966573 -0.005555328 0.04496153 0.05497607 -0.008069392 0.053268835 -0.0074069747 -0.014727796 0.057598244 0.056261186 0.043543797 -0.016760843 0.049561895 -0.009914905 -0.002465022 0.058922775 -0.00674956 0.044204533 0.053566027 -0.01658785 -0.014146914 -0.003645447 -0.009070752 -0.011043965 -0.0116104875 -0.018881261 -0.021186732 0.051425792 0.048196718 -0.0077338815 0.05265765 -0.006205442 -0.01812556 0.055082314 0.05302567 0.0027667864 -0.013265662 -0.016232993 0.05763936 0.05779382 0.05325882 0.056428716 -0.018724892 -0.017045466 -0.00092607853 0.060460605 0.05116521 0.05183807 0.056867093 0.054589503 0.05483368 -0.0065729385 0.058252193 0.00030927832 -0.011118917 0.061504133 -0.009036732 0.049791224 -0.019738061 0.0050900145 0.053904854 -0.009639796 -0.0069719185 0.05377265 -0.008487212 -0.0077385656 -0.0079079885 0.057584386 -0.011634967 0.058545 -0.0054854723 -0.017327648 -0.013450388 0.055803265 -0.014144606 -0.0056596724 -0.012852924 -0.015986167 -0.012092578 0.0019200944 0.056345426 0.05286087 0.0507782 -0.011244709 -0.0144687435 0.054558307 -0.0059076715 0.048757583 0.047382474 0.061895628 -0.0038109664 0.047360435 0.047091626 0.05701606 0.054105222 -0.0035982188 -0.012202881 -0.00490559 -0.009495146 -0.01825906 0.05915252 0.047940936 -0.010530382 0.050675105 -0.0099865785 0.053607285 0.047162656 -0.017274266 0.0558415 -0.006298209 -0.0005239849 0.056776155 0.048780072 0.056751315 -0.021721289 -0.01655921 0.061542768 -0.016170295 -0.015885811 -0.0032905813 -0.008205567 -0.011825961 0.05658955 0.06365535 -0.0052730003 -0.013144342 0.05408206 0.058110528 0.048078664 0.055288117 -0.011962109 0.051494353 -0.0026317756 -0.01276586 -0.014795722 -0.015129275 -0.01036649 0.05461145 -0.010724731 0.0011013327 0.051119257 -0.0043520858 -0.012473753 0.048640925 0.056624413 -0.00084928377 0.048247807 -0.0058212597 0.051568188 0.05333904 0.060515907 0.04508242 -0.007476422 -0.020120116 -0.015632212 -0.014366608 0.050952427 -0.019495666 -0.010301335 0.05681625 0.052410915 0.053533334 -0.0075713797 0.054305445 -0.008320134 -0.005693934 -0.013952142 0.056171436 0.058286883 0.05158607 0.05053937 0.057169415 0.049249157 -0.011985693 0.056213476 0.056795284 0.050044265 0.05799014 0.053167444 0.0009056722 -0.008527155 0.05309692 0.050644945 -0.006983596 -0.015246224 0.052923452 -0.014802261 0.052400894 0.050387576 0.0555287
doc_8 -0.027389191 -0.027616467 0.08112379 -0.020264195 0.07856012 0.08340802 0.07416147 -0.007191779 0.07372195 0.071079105 0.0040283427 -0.002165419 0.07475718 0.07902269 -0.0026246468 0.07824297 -0.031075794 -0.025483882 0.068987094 0.081683576 0.08318012 -0.028972477 0.066425 -0.007439778 -0.030491572 0.07141256 -0.008596658 0.079209 0.07836902 -0.033804268 -0.004996699 -0.008907608 -0.01988995 -0.017902326 -0.027899696 -0.023951259 -0.025158681 0.082978435 0.062467463 -0.015880771 0.078559294 -0.031491593 -0.03154796 0.070209436 0.08089287 0.019689418 -0.028885849 -0.029857218 0.07494806 0.07752452 0.06628466 0.07715345 -0.02489658 -0.030782 -0.006743905 0.078393914 0.0757377 0.07440192 0.06370011 0.07660942 0.0797852 -0.007992365 0.067167 0.012141652 -0.012051841 0.080788545 -0.01018672 0.07389755 -0.028397422 -0.026762323 0.0770027 -0.028080411 0.0040756427 0.0634058 -0.030878913 0.019634493 -0.019717848 0.06460058 -0.025530742 0.07544386 -0.020097777 -0.030087234 -0.02424803 0.0690607 -0.029152993 -0.00041541876 -0.0083852 -0.028381081 -0.02505964 -0.014454937 0.06977649 0.07664334 0.0692569 -0.013914864 -0.022420712 0.06738271 0.0034924266 0.0734252 0.077094175 0.08203673 -0.02865145 0.06425554 0.07612718 0.0799616 0.07101175 -0.005411035 -0.027410705 -0.034414507 -0.020305784 -0.014122493 0.07207655 0.07730142 -0.03354447 0.06535564 0.019328434 0.07882101 0.06957978 -0.009453992 0.07399471 -0.0014405497 0.0053645195 0.07486403 0.06646886 0.085518934 -0.02548663 -0.03393578 0.07659201 -0.012050707 -0.020335978 -0.008679143 -0.017568268 0.014677651 0.0733051 0.072498344 -0.019099668 -0.023938395 0.07838448 0.06948786 -0.009320816 0.07616377 -0.029258875 0.07487279 -0.00029926194 -0.009349921 -0.030496703 -0.021286529 -0.03296617 0.07161575 -0.008765077 8.707098e-05 0.08312039 -0.0148571385 -0.03133097 0.07520766 0.06966563 0.032062456 0.07010862 -0.0049944273 0.081052735 0.07979443 0.075525284 0.067686334 0.009949048 -0.03672867 -0.028828757 -0.029863741 0.077893704 0.047817484 -0.009232927 0.07297977 0.07634428 0.069560535 -0.0007099967 0.07578086 -0.033969793 -0.009286179 -0.022107411 0.06775057 0.07808506 0.076403625 0.06461723 0.08838336 0.07589716 -0.024936398 0.0886799 0.07121856 0.08012783 0.06983374 0.070514984 -0.016918067 -0.03121093 0.07221313 0.070691474 -0.026852231 -0.021078803 0.0782972 -0.0332735 0.0839333 0.08305893 0.07475018
doc_9 0.12767072 0.1272979 -0.05250422 0.13145219 -0.059520308 -0.05729814 -0.051033806 0.12848236 -0.05409559 -0.07483965 0.12184218 0.13962853 -0.07638287 -0.07195338 0.13520654 -0.067515165 0.1320664 0.11910759 -0.069303624 -0.040944614 -0.047333755 0.12716433 -0.062985115 0.1361403 0.12487181 -0.07165591 0.12927027 -0.048856698 -0.060356382 0.10257491 0.116645314 0.13723592 0.13196361 0.13223642 0.119406514 0.12018779 0.13040589 -0.05654585 -0.06961078 0.1341467 -0.058886595 0.11589349 -0.02028774 -0.06294803 -0.048878334 0.13476 0.12346217 0.12915361 -0.06249359 -0.06267091 -0.062990025 -0.04548365 -0.03903011 -0.034160838 0.13300745 -0.056146707 -0.06868034 -0.0686044 -0.08343427 -0.07118352 -0.05857923 0.13992389 -0.07619806 0.13624074 0.1392198 -0.07774982 0.13599779 -0.084638976 -0.032687422 -0.054172665 -0.06611731 -0.040588874 0.1302319 -0.05408258 0.13642521 0.13247418 0.12814158 -0.053511173 0.11747968 -0.053666398 0.13917594 -0.04391922 0.12236416 -0.08450294 0.12707207 0.11778501 0.14039342 0.12862891 0.13065407 0.1441191 -0.08023841 -0.04950023 -0.05008827 0.14157961 0.13252802 -0.0625547 0.12558818 -0.094047345 -0.057134893 -0.07731777 0.13171649 -0.06795148 -0.0478573 -0.072016455 -0.05904753 0.12813601 0.13633524 0.13153264 0.12998253 0.12956361 -0.0738167 -0.05622551 -0.029569544 -0.06073193 0.14023791 -0.06672381 -0.062775284 0.13650256 -0.06404832 0.12169371 0.14369147 -0.062955834 -0.07979873 -0.05359382 0.12950166 0.13141227 -0.055012707 0.1259863 0.13090035 0.1291328 -0.03852645 0.120936856 -0.07904511 -0.0845739 0.13908863 0.1267249 -0.08297877 -0.05224589 -0.028514003 -0.050927136 0.12318414 -0.05952752 0.13258162 0.13534111 0.14142345 0.13031994 0.11705738 -0.079787426 0.12614298 0.13902229 -0.07740029 0.13672093 0.12382026 -0.05826365 -0.057306368 0.1358824 -0.053876314 0.13613594 -0.054310128 -0.06300461 -0.07385778 -0.04909591 0.121999614 0.10905394 0.12776552 0.14140214 -0.05260746 -0.03393158 0.12111888 -0.05717391 -0.050091233 -0.06097516 0.13652186 -0.040840037 0.1271752 0.13455783 0.13125241 -0.07540243 -0.04931943 -0.068026684 -0.047916755 -0.051284477 -0.060220156 -0.036139034 -0.04333853 -0.06816636 -0.05766416 -0.054157387 -0.063737445 0.13412136 0.12005448 -0.051112656 -0.07148835 0.12688158 0.12145214 -0.06814364 -0.027583664 -0.046180747 -0.05035656 -0.07372621
doc_10 -0.018926546 -0.024295438 0.06689675 -0.026842896 0.06474416 0.05827094 0.07228372 -0.0006045748 0.07255619 0.06105346 -0.01833207 -0.02288987 0.054896817 0.06662721 -0.019303719 0.0657068 -0.020389454 -0.024302598 0.07078651 0.06528022 0.07156565 -0.024254816 0.067689985 -0.024783744 -0.024093349 0.063789584 -0.0042273407 0.06061106 0.06466054 -0.012361626 -0.016691135 -0.020929754 -0.02207903 -0.016611595 -0.02294748 -0.013572457 -0.021113018 0.06920528 0.072091505 -0.020527031 0.07045816 -0.024554685 -0.012261703 0.060881615 0.06804304 -0.016499901 -0.026560415 -0.021870518 0.07141572 0.06735733 0.07071134 0.06496017 0.015898578 -0.01111067 -0.011930683 0.06630792 0.06391989 0.06660421 0.06821379 0.072848074 0.06612084 -0.017376158 0.06270332 -0.013087884 -0.015199505 0.07114719 -0.010227503 0.06255439 -0.027000308 -0.018626714 0.069770366 -0.01257942 -0.017860452 0.059948787 -0.01609824 -0.004051181 -0.029110631 0.06747746 -0.0221749 0.07187665 -0.01398869 -0.014834076 -0.027568983 0.06775741 -0.016821487 -0.0116265165 -0.02120605 -0.023980794 -0.023084823 -0.008674853 0.06463592 0.06807569 0.06470103 -0.013717868 -0.02488802 0.076514356 -0.024867171 0.07098064 0.064347625 0.07088544 -0.021749621 0.067447186 0.06702556 0.064338565 0.06858976 -0.020847809 -0.028921546 -0.017128645 -0.022345055 -0.026505336 0.059924956 0.06854157 -0.01221063 0.065382004 -0.014304744 0.066014215 0.070197456 -0.020566218 0.06708712 -0.013918003 -0.0141535755 0.07425383 0.073578924 0.06988952 -0.024964973 -0.016042031 0.0629783 -0.010453943 -0.011737355 -0.02308966 0.05596647 -0.0031124814 0.06854823 0.07282814 -0.012346045 -0.024907967 0.06692969 0.068551965 -0.0075243376 0.067644544 -0.026690345 0.06420025 -0.01169638 -0.01686016 -0.018401662 -0.022205971 -0.023183044 0.056090936 -0.012689872 -0.006392502 0.07966972 -0.02205398 -0.02867891 0.07347131 0.06905931 -0.0035480014 0.06537905 -0.016827 0.0676176 0.06781684 0.06661572 0.06572215 -0.014528064 -0.025436727 -0.028141879 -0.0155886635 0.07527294 -0.019160416 -0.024332222 0.07188426 0.0635455 0.07248144 -0.011903191 0.065132074 -0.021033064 -0.011251059 -0.006208086 0.06739172 0.067372315 0.068470635 0.07282649 0.06433207 0.057259925 -0.023309333 0.06636855 0.07240988 0.0727129 0.07509044 0.064408325 -0.009884834 -0.02277001 0.069506586 0.06612598 -0.026766492 -0.027212 0.06519182 -0.014379592 0.059511196 0.065715216 0.07147423
doc_11 0.1108253 0.10687499 -0.06574758 0.11875527 -0.07515247 -0.06590779 -0.06628148 0.11913264 -0.06026233 -0.076945856 0.114117965 0.1236602 -0.087056816 -0.08163795 0.122851275 -0.07449892 0.11899274 0.11119693 -0.076646775 -0.06241275 -0.0575804 0.12207474 -0.069470875 0.12053019 0.11247641 -0.08000793 0.12113443 -0.060261548 -0.07505352 0.09423696 0.1115581 0.11961916 0.119041584 0.11594791 0.11554163 0.11331243 0.11330894 -0.06318438 -0.07242783 0.12427116 -0.06632148 0.11478963 -0.008971655 -0.06923426 -0.057879694 0.122697674 0.11489452 0.1157134 -0.084796414 -0.071404345 -0.0753128 -0.057728443 -0.036686864 -0.02698918 0.11750699 -0.061744403 -0.07563793 -0.0709563 -0.09131697 -0.07101425 -0.071831055 0.12464928 -0.072926834 0.12686825 0.12054908 -0.07981768 0.12468739 -0.08870341 -0.026883475 -0.03883601 -0.08752907 -0.038616963 0.1251674 -0.06169839 0.121594675 0.12276919 0.119633295 -0.064125255 0.1188775 -0.06410575 0.11818877 -0.037534937 0.12067645 -0.090948895 0.11201268 0.10923208 0.12187372 0.11768702 0.12498117 0.12641542 -0.07797549 -0.06864997 -0.070093 0.12419247 0.12312713 -0.07380223 0.11521936 -0.09129881 -0.068654604 -0.08555556 0.12246255 -0.0740259 -0.053707138 -0.08015734 -0.07322487 0.11867092 0.12250384 0.11901185 0.117602944 0.1192633 -0.0870881 -0.061406597 -0.02734036 -0.07440476 0.12880535 -0.0725991 -0.071569204 0.12194397 -0.072293885 0.119089946 0.13054417 -0.073142126 -0.07810752 -0.06893105 0.11998351 0.117440104 -0.061335035 0.11522921 0.11719341 0.11426034 -0.03263629 0.10613038 -0.09339937 -0.09187398 0.12441953 0.110445656 -0.083460204 -0.059170038 -0.0356888 -0.05828097 0.111812636 -0.07790031 0.121143974 0.13056082 0.12571217 0.11497533 0.11476292 -0.08572163 0.11210927 0.11819748 -0.08634223 0.12085054 0.1092858 -0.075032525 -0.07484798 0.12103166 -0.062477324 0.12370004 -0.06502179 -0.08092996 -0.08546066 -0.06765319 0.11078912 0.11017626 0.111904055 0.11871908 -0.07102382 -0.03471605 0.113178246 -0.057419457 -0.057674527 -0.07416196 0.12595151 -0.049252886 0.116393216 0.12315216 0.11711377 -0.08003545 -0.062026914 -0.08107515 -0.051612634 -0.06956255 -0.06863333 -0.031614017 -0.05208098 -0.07923016 -0.070345506 -0.069909364 -0.07003172 0.12431922 0.11666946 -0.06584846 -0.08227737 0.10747185 0.11129129 -0.07693242 -0.020104313 -0.061028857 -0.056363676 -0.07725858
doc_12 -0.034528196 -0.032942183 0.06444611 -0.021280248 0.086350456 0.068230055 0.078262396 0.002242519 0.08050212 0.0767573 -0.016290994 -0.025172018 0.07727231 0.07373377 0.004250326 0.081961125 -0.029243492 -0.024704438 0.08270861 0.092289895 0.08079111 -0.023523182 0.078262866 -0.028000917 -0.027464192 0.088465825 -0.025126548 0.07372335 0.078777045 -0.02728355 -0.016261417 -0.021026075 -0.010851607 -0.024129882 -0.03258489 -0.01925967 -0.013404734 0.08007884 0.08732037 -0.018710054 0.07873063 -0.015438781 -0.023267554 0.076700225 0.086725265 -0.0073989537 -0.024444781 -0.024268359 0.08425843 0.082937494 0.08040485 0.07095414 -0.035149805 -0.029913103 -0.019234002 0.07668209 0.07658513 0.08555526 0.07425065 0.07652891 0.088596284 -0.019342614 0.072083235 -0.016193287 -0.028224414 0.08956237 -0.001023015 0.08565767 -0.025178753 -0.01048563 0.07872382 -0.02485549 -0.0122191375 0.07225696 -0.030700723 -0.007954188 -0.021560673 0.08595938 -0.025754437 0.08206069 -0.019213874 -0.024418224 -0.028102465 0.07943434 -0.028753743 -0.001208578 -0.030098876 -0.030546296 -0.02911003 -0.028713703 0.07595047 0.06907832 0.08377187 -0.030432599 -0.025744848 0.08109011 -0.032024145 0.07902597 0.07854317 0.074487716 -0.028707461 0.07716568 0.084792614 0.08504423 0.076342255 -0.012576245 -0.02777888 -0.026445309 -0.016352994 -0.026602685 0.080806404 0.08357923 -0.024714366 0.07070076 -0.005570964 0.08726616 0.07732716 -0.025040502 0.08447191 -0.032155324 -0.008917224 0.08065142 0.08838855 0.07376825 -0.019970084 -0.031890016 0.08037566 -0.024856292 -0.024786383 -0.015606564 -0.014014246 -0.010327168 0.08779988 0.08475515 -0.027801502 -0.02398867 0.087034196 0.085133284 0.07616232 0.08460708 -0.01841894 0.07892529 -0.019279994 -0.011708433 -0.025475092 -0.028668426 -0.016504299 0.0758033 -0.019941147 0.00026864558 0.07447861 -0.0041513676 -0.023821928 0.085465506 0.07140195 -0.008400635 0.06979272 -0.022821454 0.07203 0.08682544 0.08098141 0.08814304 -0.013011754 -0.020918168 -0.028380278 -0.025812268 0.069296464 -0.025492672 -0.017096348 0.07935145 0.08663763 0.0868853 -0.025597436 0.07133241 -0.028415155 -0.023800531 -0.016780477 0.079023674 0.09208597 0.08053927 0.07333155 0.0790509 0.0807517 -0.026221361 0.08102308 0.07784702 0.078693524 0.08072211 0.07945664 -0.02025102 -0.024810862 0.08602072 0.07891728 -0.026995003 -0.030859664 0.089097254 -0.026664566 0.08284837 0.086782195 0.08210771
doc_13 -0.05754138 -0.042680394 0.08225561 -0.016561748 0.07092242 0.08565077 0.09935655 -0.014376423 0.075889476 0.08073651 0.013363938 0.027554285 0.053623017 0.07003968 0.020461988 0.08911968 -0.024102157 -0.045236904 0.08122213 0.08359717 0.092560776 -0.033960365 0.076282695 0.0031757941 -0.05312924 0.06684316 -0.02872823 0.090156235 0.09256506 -0.042979293 0.006562379 0.011630328 5.4636737e-05 -0.0057272795 -0.03286562 -0.007840387 -0.023160452 0.076781906 0.055095904 -0.023450255 0.08122898 -0.0366613 -0.06449422 0.024240425 0.09166817 0.039306622 -0.06121055 -0.03578069 0.08382863 0.06728678 0.08137079 0.10148057 -0.060025975 -0.06340607 -0.025378425 0.10026988 0.09918002 0.083752684 0.044374608 0.07521853 0.08399735 0.027706586 0.03349441 0.028472086 -0.001965132 0.07519742 0.01898582 0.07238904 -0.067907505 -0.061461627 0.093497805 -0.05188862 0.005128545 0.09498892 -0.05260447 0.024060171 -0.02715859 0.079898626 -0.009348492 0.09082206 -0.01908756 -0.05874277 -0.0423657 0.055656057 -0.049851716 -0.023591734 -0.03563128 -0.052692138 -0.047257215 0.026636627 0.09815087 0.10235674 0.058950838 -0.010165025 -0.030850751 0.049394354 -0.032954767 0.055915076 0.070539266 0.09659115 -0.03508247 0.033412937 0.103495665 0.09069941 0.050331645 0.013293835 -0.019248996 -0.033093408 -0.009900256 -0.025188295 0.087458976 0.069094665 -0.056370705 0.06739313 0.01877105 0.05845719 0.082622 -0.018435357 0.078328356 -0.02973171 0.029341517 0.094146505 0.07545778 0.0912499 -0.040521037 -0.036560353 0.07697865 0.0048186467 -0.037864912 -0.008468543 -0.038597476 0.036857057 0.059929952 0.06682893 -0.01374187 -0.051297836 0.07488351 0.10183696 0.066775315 0.09922023 -0.025864573 0.07637048 -0.010590689 -0.019851312 -0.040967684 -0.046669587 -0.04599454 0.07315603 -0.011088833 0.07780519 0.08558426 0.0055380575 -0.034445602 0.069589555 0.077727586 0.05331107 0.095347956 -0.01963234 0.07136956 0.07474431 0.096389934 0.0607884 0.024342468 -0.062333483 -0.059781134 -0.03247043 0.10464399 -0.056652956 -0.0043559913 0.07290976 0.08290044 0.097461715 -0.007322289 0.10086795 -0.05441153 0.013555201 -0.0070960093 0.047535356 0.07012568 0.09118104 0.088237844 0.08737097 0.08327787 -0.053537287 0.10420024 0.06049005 0.06952455 0.057296794 0.089720964 -0.0019702194 -0.03354184 0.08925049 0.05004964 -0.044925466 -0.024415443 0.059257895 -0.07117292 0.09014463 0.099941984 0.064456195
doc_14 -0.0403668 -0.044248894 0.1313921 -0.04045374 0.14577517 0.13155755 0.13219444 -0.040533885 0.120909266 0.12987402 -0.042140566 -0.0534486 0.13929369 0.13983443 -0.077893496 0.1337789 -0.03798005 -0.04743061 0.15060559 0.14653076 0.14421073 -0.03627553 0.13771382 -0.0368374 -0.03773343 0.13541384 -0.06990081 0.12308966 0.122185856 -0.031850807 -0.02697061 -0.03833416 -0.037874438 -0.03760405 -0.05119106 -0.057975702 -0.042407844 0.14245571 0.12857169 -0.07846698 0.1327 -0.043691523 -0.036277756 0.11049451 0.13327748 -0.089212075 -0.032456957 -0.04121636 0.13384095 0.15818511 0.1304269 0.14790028 -0.036380634 -0.03530685 -0.043436743 0.13977955 0.12577829 0.14289904 0.13475156 0.14198759 0.13368484 -0.053257644 0.14159846 -0.06797092 -0.036751814 0.14280608 -0.044065665 0.13949199 -0.0476797 0.10242464 0.1366066 -0.04819733 -0.080929756 0.1275446 -0.039389614 -0.06582761 -0.038236544 0.14049917 -0.044572733 0.13358596 -0.06367454 -0.028731456 -0.03555446 0.15058556 -0.028181521 -0.036758237 -0.042348534 -0.04834483 -0.032643043 -0.07240583 0.14479864 0.13930689 0.12571448 -0.075268544 -0.042898767 0.13875532 -0.037547212 0.14272839 0.13743232 0.13522999 -0.049780462 0.123728335 0.14941391 0.14636956 0.15088814 -0.051583543 -0.07556468 -0.045219615 -0.033064447 -0.034263503 0.1456628 0.14276436 -0.03481422 0.13509196 -0.06973238 0.14065158 0.12809047 -0.034603227 0.13514653 -0.047643047 -0.065377325 0.12297244 0.13406567 0.14087401 -0.046162795 -0.060986966 0.13854271 -0.048187084 -0.03886175 -0.07477759 -0.0122760795 -0.06692086 0.15530968 0.14063968 -0.04323599 -0.044999696 0.124448135 0.12937117 0.10765944 0.14472115 -0.068625025 0.15457213 -0.05186935 -0.05473269 -0.048960984 -0.05725414 -0.050500527 0.1343105 -0.040143117 -0.10819693 0.12220593 -0.050622456 -0.040598653 0.14516014 0.11923304 -0.0813193 0.1361822 -0.033690173 0.13567299 0.14100763 0.13214034 0.13293372 -0.080708034 -0.039596207 -0.051231198 -0.04706959 0.12232092 0.08312118 -0.05831482 0.14000621 0.14265132 0.12696259 -0.050636232 0.14594397 -0.059602387 -0.06384352 -0.040659945 0.12368415 0.15709144 0.12304858 0.13135764 0.12121431 0.13851427 -0.040058196 0.12534022 0.1337583 0.13591152 0.12866974 0.14865033 -0.045171235 -0.05442685 0.15233824 0.13773641 -0.045208022 -0.03793017 0.14492117 -0.054164346 0.14504094 0.14197013 0.15831596
doc_15 -0.035859343 -0.03438219 0.11207286 -0.043656822 0.10712835 0.10999209 0.10435578 -0.0100449575 0.112748325 0.11052715 -0.037822537 -0.02021047 0.09204899 0.0941696 0.0031746887 0.1134114 -0.028357442 -0.031305693 0.09963504 0.08724137 0.09243475 -0.058162324 0.10464379 -0.018156573 -0.03680775 0.11194994 -0.021414127 0.11018719 0.106521934 -0.03211727 -0.02800222 -0.026269527 -0.03323073 -0.033056896 -0.0333447 -0.030273104 -0.025367044 0.09407457 0.09541352 -0.034116685 0.10897039 -0.021999288 -0.041040897 0.10290177 0.0987412 -0.0156086255 -0.02911773 -0.023678178 0.09841199 0.11463922 0.11087873 0.09938181 -0.034124777 -0.040693216 -0.023327047 0.10698262 0.102400355 0.10232186 0.107507184 0.09895532 0.0899744 -0.020396233 0.09557244 -0.032229997 -0.034314964 0.098194495 -0.020125385 0.11368081 -0.035135046 -0.006789121 0.10551945 -0.03160644 -0.026627516 0.10512647 -0.026281457 -0.023684204 -0.02446125 0.09469179 -0.027890712 0.10241957 -0.025929421 -0.028915871 -0.039781358 0.113790855 -0.029521372 -0.031481825 -0.02553229 -0.04394145 -0.027162312 -0.014470469 0.102003254 0.10303188 0.0955987 -0.018694498 -0.020409223 0.10526576 -0.0368186 0.10911945 0.10116174 0.102605864 -0.032780923 0.081644036 0.099080116 0.10345742 0.10300005 -0.02292115 -0.05949106 -0.039045148 -0.03382139 -0.031696163 0.11581539 0.08667202 -0.008509244 0.08956708 -0.017048672 0.10301702 0.09393134 -0.020457087 0.09566206 -0.052230902 -0.00862213 0.114318505 0.11384946 0.10158459 -0.03976856 -0.047831684 0.10588891 -0.03234738 -0.025416695 -0.026569624 -0.022682514 0.017257217 0.11549671 0.09941512 -0.030223757 -0.0311073 0.100152165 0.10682322 0.028486012 0.1031573 -0.030738328 0.11170802 -0.03230223 -0.04593681 -0.031921614 -0.035740923 -0.034016915 0.096897684 -0.017765887 0.0064676125 0.10349139 -0.026043922 -0.035524823 0.09838972 0.106180444 0.0007239785 0.11126 -0.028999459 0.10561577 0.10742937 0.106919505 0.11090742 -0.03561733 -0.035357993 -0.042844824 -0.02805186 0.09809317 -0.02857862 -0.027162112 0.10411071 0.10164441 0.09734298 -0.028802978 0.10703976 -0.0306801 -0.042408805 -0.026166193 0.09013657 0.10745187 0.103789166 0.10404052 0.1024156 0.09553385 -0.037807055 0.10375172 0.107645005 0.111084305 0.10159483 0.1061377 -0.028077673 -0.02147297 0.10382989 0.09059792 -0.037350398 -0.024562128 0.10059789 -0.041366316 0.0959555 0.100860335 0.0993857
doc_16 0.22834104 0.20868802 -0.10193656 0.23375791 -0.11986964 -0.11545847 -0.09984953 0.232954 -0.097534895 -0.14835767 0.23272577 0.24938267 -0.12659241 -0.13225384 0.23877163 -0.13524552 0.24866666 0.21588966 -0.13360813 -0.07775519 -0.08423089 0.2261083 -0.09592236 0.24168898 0.21170288 -0.12412376 0.25521117 -0.089028314 -0.10919144 0.18022162 0.22211109 0.23259152 0.23583828 0.22725043 0.22632484 0.22210172 0.23636955 -0.105855085 -0.14013034 0.24237484 -0.102347866 0.1952859 -0.054412927 -0.114041165 -0.101263575 0.24339306 0.22960742 0.23141184 -0.120283484 -0.12727661 -0.124580204 -0.09311528 -0.06836555 -0.06390923 0.24007633 -0.102158256 -0.13679338 -0.13648757 -0.15288325 -0.14539859 -0.12454822 0.24127346 -0.14161462 0.23727311 0.24510556 -0.13407472 0.24139959 -0.15715306 -0.06633864 -0.08428119 -0.12424852 -0.057357594 0.22522649 -0.09101448 0.23751983 0.23884143 0.2298131 -0.08836232 0.21287133 -0.11298615 0.23907991 -0.064553365 0.1999347 -0.14840527 0.22958376 0.21873724 0.23767671 0.21866876 0.23355575 0.2449767 -0.12792125 -0.10130819 -0.07986515 0.25717732 0.25080264 -0.11711873 0.22815846 -0.15660958 -0.11174411 -0.1318328 0.23896518 -0.13500932 -0.090442 -0.12654077 -0.09890511 0.22043122 0.24013595 0.23243868 0.23754568 0.2440622 -0.13477908 -0.11637462 -0.040909156 -0.101308204 0.24462508 -0.11917492 -0.12341157 0.24859712 -0.10349838 0.21193582 0.23997322 -0.14418635 -0.13838841 -0.10117749 0.23180299 0.24066243 -0.09019046 0.21420927 0.21553369 0.23051858 -0.07320388 0.21882948 -0.1488812 -0.15545046 0.24724111 0.22947972 -0.14686832 -0.097579196 -0.07611756 -0.09858566 0.22679408 -0.12548795 0.22886875 0.24305367 0.26535076 0.23331092 0.2084714 -0.14317603 0.21454778 0.23018064 -0.14114782 0.2503348 0.22196707 -0.11429634 -0.10605754 0.24128112 -0.101966426 0.23940733 -0.10581205 -0.1434334 -0.13135959 -0.105805546 0.21783006 0.18838014 0.21492073 0.23833352 -0.115712464 -0.057259772 0.20447299 -0.07806458 -0.08781516 -0.12606117 0.24486294 -0.08380136 0.21677688 0.2330358 0.2300034 -0.1452388 -0.08595753 -0.12887071 -0.08572446 -0.09399923 -0.107980244 -0.047554746 -0.09476458 -0.13335463 -0.09486838 -0.10118418 -0.12411219 0.2316688 0.22354618 -0.10665246 -0.124015614 0.21878564 0.22363296 -0.1304178 -0.03160889 -0.09641871 -0.08552374 -0.13390733
doc_17 -0.028795067 -0.05772136 0.12770218 -0.0431347 0.14843147 0.13795377 0.14113054 -0.051635582 0.15493752 0.14823557 -0.043782175 -0.049416203 0.13601111 0.14682989 -0.04573343 0.15580349 -0.0648017 -0.065600686 0.13611841 0.1434928 0.13050088 -0.05493974 0.15131614 -0.053924486 -0.059472475 0.14459392 -0.04098191 0.13906448 0.14468087 -0.0396186 -0.04657589 -0.02850948 -0.047991805 -0.05562797 -0.04944913 -0.021393886 -0.046587564 0.14434871 0.14251697 -0.048517376 0.15117836 -0.052558403 -0.054022674 0.13943999 0.143327 -0.04216204 -0.050826993 -0.041783754 0.1432991 0.1495452 0.15354781 0.122455575 -0.0463766 -0.032207213 -0.044504687 0.15029807 0.14751345 0.14687711 0.15522042 0.15573287 0.15403222 -0.042483464 0.1287421 -0.04655499 -0.045104206 0.15059052 -0.040791973 0.15365957 -0.054608203 -0.018484466 0.14673884 -0.050182983 -0.043206576 0.14091071 -0.046693172 -0.046954468 -0.054707944 0.14869605 -0.06330734 0.14346457 -0.043293707 -0.047657438 -0.06569849 0.15388216 -0.04818934 -0.048536837 -0.043886885 -0.045504402 -0.056394607 -0.049383078 0.14317529 0.15119967 0.15270713 -0.050230842 -0.06208817 0.13169679 -0.055743538 0.14926791 0.15283589 0.14172885 -0.050899684 0.13934325 0.14224845 0.14226037 0.15052302 -0.049366966 -0.048988108 -0.048543155 -0.043527465 -0.05862857 0.15202646 0.14493243 -0.02255379 0.14644322 -0.051529955 0.14323567 0.15180296 -0.04943109 0.1429485 -0.046156935 -0.041834623 0.1489973 0.1517304 0.1439046 -0.05142694 -0.054118246 0.16074 -0.04528936 -0.05875158 -0.050168447 -0.025779352 -0.050608706 0.15424271 0.15016626 -0.050518505 -0.044684153 0.1505704 0.13674362 0.0381386 0.15200263 -0.05550448 0.13969098 -0.058216915 -0.028426507 -0.059324373 -0.06145308 -0.057470724 0.14484425 -0.044016447 -0.039339755 0.14805338 -0.036379423 -0.05542026 0.1513272 0.15330485 -0.034890395 0.13892563 -0.05175235 0.1450976 0.15589103 0.14354038 0.14800906 -0.043094855 -0.04216687 -0.05453499 -0.052802823 0.14453736 -0.038216386 -0.044740725 0.15083186 0.1329984 0.15676922 -0.04501162 0.12665975 -0.056256335 -0.043811735 -0.03328956 0.13154465 0.13223884 0.15124568 0.14475372 0.15286945 0.13773276 -0.04170911 0.14932366 0.15642194 0.15525502 0.15567644 0.15175748 -0.038796864 -0.059877627 0.15212125 0.14689665 -0.052287266 -0.05274297 0.13640831 -0.03412655 0.16157414 0.1502282 0.14829043
doc_18 -0.02160389 -0.021354457 0.05025588 -0.020133164 0.058097497 0.06444278 0.050569516 -0.014233288 0.049712956 0.06637351 -0.017883647 -0.012792397 0.049026202 0.04746983 -0.00870553 0.06140734 -0.01928885 -0.025388598 0.06153611 0.063627765 0.06013619 -0.03177242 0.051074594 -0.019110132 -0.017986443 0.04799424 -0.018663503 0.051308136 0.065678984 -0.03139966 -0.015617347 -0.014777379 -0.010143951 -0.018950954 -0.025575038 -0.015464192 -0.024097104 0.061844114 0.0591782 -0.020605028 0.064101815 -0.016222088 -0.022718346 0.04887236 0.055208296 -0.0077179167 -0.019228816 -0.010572017 0.054395366 0.048931062 0.06370056 0.061127435 -0.020644208 -0.025629159 -0.016114242 0.050617658 0.051829167 0.06440954 0.053004697 0.06163059 0.059260078 -0.003349848 0.054270737 -0.01765215 -0.020657271 0.053354368 -0.021160996 0.05564261 -0.022910044 -0.01818376 0.06927593 -0.03168074 -0.0106301345 0.058808293 -0.025404213 -0.010212803 -0.016266096 0.04430217 -0.033559866 0.06301687 -0.008886274 -0.017504975 -0.02187122 0.048205152 -0.018048035 -0.0182067 -0.015403202 -0.023948006 -0.02456371 -0.011825171 0.06240205 0.054571345 0.052624978 -0.02436023 -0.021702945 0.05821356 -0.019373149 0.053872243 0.059739664 0.060342878 -0.030676942 0.045500614 0.061730683 0.058864854 0.04310239 -0.01437204 -0.022369973 -0.019151619 -0.027718002 -0.027438264 0.060642995 0.063857384 -0.016499143 0.054828502 -0.0131353745 0.052145604 0.06111002 -0.027728518 0.048095554 -0.028057512 0.00017126743 0.057078805 0.04984895 0.0563465 -0.010944942 -0.026781559 0.047221456 -0.0168643 -0.016503586 -0.014024721 0.075237155 -0.013631573 0.04970105 0.05659682 -0.023919692 -0.022089355 0.05777469 0.055698358 0.01393045 0.06509067 -0.021689007 0.045986168 -0.0135789765 -0.0235987 -0.025061045 -0.03286639 -0.028253771 0.05158338 -0.025006294 0.01121184 0.058987737 -0.012155652 -0.024812862 0.0663911 0.056474753 0.00026893523 0.056954287 -0.028554922 0.056273993 0.05732522 0.053924978 0.03396594 9.223446e-05 -0.019216835 -0.028821975 -0.020984637 0.06543137 -0.023298012 -0.017179705 0.050972357 0.057829242 0.06156372 -0.017724995 0.05270999 -0.022843594 -0.015405072 -0.025667094 0.045133337 0.05450733 0.059535347 0.061275613 0.058196772 0.05773551 -0.016096776 0.069158085 0.0508974 0.06184291 0.060163304 0.057530403 -0.011210846 -0.021017807 0.055498388 0.04569535 -0.020160032 -0.033321448 0.056995675 -0.030195827 0.06336683 0.053916965 0.057973772
doc_19 0.086354405 0.08614753 -0.04213535 0.09117808 -0.045643125 -0.039683823 -0.04202174 0.089982495 -0.044238087 -0.04958204 0.08571381 0.09677242 -0.057865128 -0.058304787 0.092051715 -0.049417797 0.09305148 0.085945815 -0.0500963 -0.037176855 -0.03873812 0.09048878 -0.049966276 0.09438764 0.08869985 -0.05393058 0.09069706 -0.039034557 -0.049815293 0.07244087 0.08343215 0.094252564 0.08709899 0.08936699 0.08762599 0.086298905 0.08994244 -0.042475794 -0.050928857 0.09383791 -0.044165477 0.085781135 0.00016906485 -0.04485674 -0.0389172 0.09239673 0.08985326 0.08822399 -0.054121695 -0.04667088 -0.055077087 -0.038655575 -0.026966237 -0.0242542 0.09384155 -0.040421885 -0.051264975 -0.04508232 -0.060179282 -0.046367735 -0.044316392 0.0978131 -0.05083322 0.09494069 0.09319173 -0.056984402 0.09313102 -0.06231699 -0.022076331 -0.031726617 -0.057746463 -0.029560808 0.092933975 -0.043247335 0.09386765 0.09035447 0.0905673 -0.04401798 0.09113047 -0.04105469 0.09225959 -0.03375916 0.08852777 -0.06456432 0.087884896 0.081155546 0.095984384 0.09285185 0.09585412 0.09667714 -0.057319917 -0.03810849 -0.042507477 0.09511537 0.09466389 -0.049666673 0.090051435 -0.06502786 -0.047159385 -0.059571233 0.096593075 -0.04778543 -0.039014004 -0.056607924 -0.04494421 0.08902655 0.091632634 0.089366 0.08835029 0.08956673 -0.061290238 -0.04014856 -0.02456049 -0.046389166 0.09930468 -0.0491954 -0.040535334 0.09243786 -0.052504666 0.08919844 0.09780422 -0.046530563 -0.058930997 -0.043524947 0.08883862 0.08974596 -0.043039504 0.088471465 0.08828164 0.087320685 -0.024646208 0.08075131 -0.06441395 -0.0626795 0.09624889 0.08670443 -0.059048586 -0.039692584 -0.02579949 -0.038385335 0.08451899 -0.04621966 0.09478073 0.09838952 0.10021956 0.09178544 0.087969 -0.057527874 0.08726383 0.091968894 -0.058670096 0.0932731 0.08649359 -0.046958327 -0.04849418 0.09205587 -0.04124669 0.09192802 -0.041656666 -0.05110815 -0.057066366 -0.04297167 0.08372288 0.08271048 0.08993934 0.09402207 -0.04544511 -0.02730974 0.088333234 -0.040895086 -0.039814904 -0.049587972 0.094585486 -0.03577115 0.089404866 0.09621279 0.09342282 -0.053631395 -0.036702838 -0.050897915 -0.03841506 -0.042061765 -0.047676433 -0.024219565 -0.034949 -0.052450363 -0.04618288 -0.04680355 -0.04653084 0.09388649 0.08725534 -0.04279624 -0.055279754 0.08725686 0.08633707 -0.05098344 -0.021138584 -0.03880264 -0.04013805 -0.048366636
doc_20 -0.034303393 -0.03842957 0.06869129 0.045846034 0.066687964 0.07495725 0.07746838 0.080203496 0.0625554 0.0536362 0.077822864 0.089703605 0.043558747 0.058423378 0.05139814 0.07561427 -0.008637818 -0.045133322 0.070662774 0.060944133 0.06295818 -0.022018962 0.05894076 0.062276356 -0.02506714 0.03440094 0.031457048 0.076984204 0.060978893 -0.013128011 0.059719715 0.097570546 0.04669135 0.15644738 -0.023962032 -0.028752275 -0.0072118333 0.06859897 0.039252914 0.05662876 0.07109608 -0.005519642 -0.046129864 0.04449926 0.04819374 0.08105659 0.027469946 -0.03870881 0.064752504 0.06772433 0.06193832 0.07490443 -0.038092297 -0.050453305 0.08421137 0.0888703 0.061412748 0.05004985 0.05077505 0.066778794 0.06528056 0.05347136 0.047753196 0.06643894 0.016179955 0.054591678 0.079376645 0.06765671 -0.04382975 -0.04573175 0.06388427 -0.01733706 0.07757134 0.060600128 -0.014032597 0.0816605 0.0403712 0.0713621 -0.023131363 0.06243509 0.013015462 -0.038871054 -0.017573182 0.04615897 -0.04685513 0.083188504 -0.014612778 -0.016235437 0.025987871 0.031224255 0.043159887 0.07134862 0.043651275 0.017789718 0.06373475 0.04217394 0.059863508 0.03658005 0.049360957 0.06309058 -0.014718722 0.061880026 0.064194575 0.057069965 0.04280302 0.03368554 0.015802268 -0.026479546 0.0055871196 0.024472151 0.046584714 0.05876277 -0.036584757 0.070071526 0.06807513 0.06424673 0.0748169 0.05308187 0.07564336 0.011463736 0.08734272 0.06561959 0.041199297 0.071229324 -0.02137052 0.045741305 0.06986591 0.055297527 -0.020540513 0.09929576 -0.02370689 0.06185161 0.08408632 0.030349232 0.007981621 0.031474385 0.06410872 0.06404235 -0.022817224 0.059576653 0.035274602 0.064996846 0.0646653 0.020175753 -0.03184099 0.022784285 -0.020168182 0.052089315 0.10721997 0.043621868 0.06933215 -0.0017593515 -0.03238721 0.07127231 0.03356497 0.070651956 0.055603363 0.0006008963 0.065015234 0.07559796 0.0630713 0.0396336 0.07056203 -0.02036287 -0.043485925 -0.00091320416 0.063397355 -0.009457406 0.027460398 0.08256724 0.07008092 0.06201569 0.04979053 0.09474372 -0.023302138 0.074777484 0.00890355 0.04454243 0.071914874 0.069530755 0.039143983 0.07731984 0.07542037 -0.041908488 0.068502694 0.069951676 0.060174126 0.05870504 0.048031185 0.050422393 -0.019531615 0.058177166 0.04380951 0.05076146 0.05056804 0.07026465 -0.04371103 0.0840569 0.08009972 0.051043257
doc_21 -0.0028680167 0.0025576567 0.04935147 0.007714237 0.048507683 0.04632856 0.043443386 0.013814894 0.044813853 0.053508174 0.013299738 0.021251142 0.03654594 0.0468717 0.010871068 0.042390153 -0.002527868 0.0022912417 0.046002425 0.043046024 0.04680571 0.0011689779 0.04005599 0.006628199 0.0013539265 0.031453535 0.00035007438 0.04050795 0.04295308 -0.009001983 0.003939955 0.013233255 0.014417335 0.017495718 0.010909904 0.011082518 0.0017964449 0.046319235 0.04320998 0.013631884 0.037195735 -0.00086723594 -0.026197214 0.033863917 0.05228084 0.033773985 -0.0015871562 0.0065085553 0.051250096 0.051619053 0.04665801 0.05374874 -0.03069194 -0.029835483 0.017286545 0.0479836 0.04580143 0.040936034 0.039941475 0.04458654 0.039294403 0.006083104 0.027655657 0.019870287 0.0027952222 0.045652024 0.009706646 0.036275264 -0.02971619 -0.026401231 0.04172875 -0.020664955 0.022157956 0.040252466 0.0026345747 0.008628763 0.012856455 0.05000725 0.0029705619 0.046592414 0.015521837 -0.0246697 0.004230883 0.045240708 -0.004597564 0.0027402358 -0.006707924 -0.0073008956 0.0027480065 0.027713506 0.051385403 0.052798487 0.04835402 0.010989676 -0.0011738641 0.026639212 -0.0052602333 0.04073608 0.04242859 0.052858643 0.0065839607 0.0359819 0.049035627 0.056226496 0.030233975 0.01752082 0.009898887 -0.005452322 0.016172236 0.014782207 0.0447051 0.038889784 -0.02785991 0.04375073 0.019372713 0.037496857 0.034898385 -0.0039443607 0.050520618 0.0010982137 0.026616221 0.041378412 0.03378235 0.048106045 -0.0065315966 -0.004091375 0.03970743 -0.005869454 -0.00433232 0.012795003 -0.0100690015 0.015545545 0.04119575 0.045987353 0.0035896203 0.012671279 0.03821311 0.041524947 0.031681817 0.042836532 0.00920586 0.042138815 0.015277064 0.0021560912 -0.004605272 -0.0026464425 0.0032048596 0.04311934 0.024856538 0.0478338 0.045498 0.020928051 0.002235996 0.03758793 0.037848882 0.027876848 0.0533501 0.0004153736 0.0501243 0.043007743 0.050796673 0.034764346 0.00928597 4.370138e-05 -0.010269606 0.0070465077 0.043136373 -0.01911238 0.006549256 0.04603337 0.041709676 0.048288435 0.0033288572 0.053266022 0.0010634148 0.020013435 0.004057269 0.028729435 0.04681712 0.04698507 0.04789855 0.04167324 0.044600017 -0.024743745 0.04795802 0.038441807 0.04729489 0.044929575 0.05074569 0.021627614 0.008884792 0.04957218 0.04234215 0.011998642 -0.00424989 0.044783816 -0.03126042 0.045799114 0.048253484 0.0436086
doc_22 -0.029838001 -0.020478204 0.076856904 -0.012480145 0.07689926 0.0829743 0.08310065 -0.007852755 0.073243596 0.07506986 -0.0006587894 -0.0039721425 0.078015596 0.073438466 -0.012966426 0.07690821 -0.02314177 -0.020937147 0.07518498 0.07775221 0.08109225 -0.023333965 0.07253146 -0.014373691 -0.028338904 0.06857572 -0.015728742 0.08123823 0.07748086 -0.028232777 -0.012411208 -0.010019253 -0.013369534 -0.009091403 -0.023058182 -0.01621545 -0.011890949 0.075629786 0.07073107 -0.011218642 0.084703036 -0.020913001 -0.035399444 0.06990819 0.07768037 0.011803577 -0.023625704 -0.02167109 0.08012129 0.07535668 0.07496617 0.082790636 -0.031256534 -0.035696525 -0.008138736 0.07467771 0.08093847 0.07206839 0.07000943 0.07002393 0.073347405 -0.006595344 0.068380944 0.0009845169 -0.0095018465 0.07653566 -0.0028486133 0.073398665 -0.03617083 -0.032244686 0.08273725 -0.028576894 0.0036315895 0.06778013 -0.024925763 0.007013015 -0.014271516 0.0758198 -0.016306067 0.07817047 -0.014278495 -0.026824972 -0.018229045 0.07328485 -0.024497781 -0.0060451785 -0.0125680575 -0.023108901 -0.024665609 0.002564691 0.08241129 0.08059585 0.07305831 -0.01901709 -0.004925439 0.071842715 -0.015985526 0.07562611 0.08045784 0.07936048 -0.021156773 0.066306725 0.0731073 0.07654536 0.07029682 0.0004216237 -0.022554854 -0.022589507 -0.021146556 -0.01190819 0.07401448 0.07663455 -0.030771965 0.077008836 0.004474933 0.07059475 0.072281234 -0.019675711 0.06711594 -0.021808816 0.0027121578 0.079035245 0.07017117 0.080708124 -0.02323918 -0.026940813 0.08276432 -0.011771312 -0.010653203 0.0009340234 -0.015507888 0.0020264827 0.07554391 0.07870556 -0.013890527 -0.021633364 0.074078426 0.07912755 0.016048059 0.07812436 -0.014017214 0.07010782 -3.931811e-05 -0.0144379465 -0.029959485 -0.018671935 -0.026831735 0.07102591 0.0039839176 0.0075359168 0.082313135 -0.013548595 -0.024285747 0.07255697 0.076206945 0.024723997 0.07729873 -0.010731631 0.07509364 0.07870038 0.07333261 0.06662034 0.0033432832 -0.03257342 -0.025432756 -0.015483093 0.07178425 -0.013532915 -0.01207493 0.074474044 0.073048174 0.07826487 -0.010310737 0.08055583 -0.025690025 -0.006098706 -0.014487297 0.074026674 0.07478529 0.08129615 0.073080406 0.08352436 0.07318102 -0.031379562 0.08634478 0.06794348 0.081915036 0.07253894 0.07377926 -0.008498269 -0.022076875 0.07750589 0.07257046 -0.0151641555 -0.015232044 0.07960214 -0.034246195 0.07894936 0.08441526 0.07630816
doc_23 -0.025161434 -0.016112767 0.044632975 -0.005568086 0.04322948 0.04608162 0.04781366 -0.0022324761 0.04158053 0.038810752 0.006283074 -3.7823338e-05 0.03877958 0.0453785 -0.0055231284 0.04376627 -0.014972037 -0.017280543 0.04810075 0.047652017 0.049855907 -0.017935261 0.03549674 -0.0037336282 -0.019135272 0.038857058 -0.012322358 0.047001116 0.04864361 -0.021058839 -0.004587068 -4.677917e-05 -0.004091194 -0.0037422995 -0.016659116 -0.0142542785 -0.013958995 0.041353915 0.040161826 -0.009221172 0.051419906 -0.010425223 -0.021097519 0.03786537 0.043890577 0.013743567 -0.01794486 -0.018156413 0.04643241 0.04628769 0.03848712 0.04825313 -0.020014426 -0.019990448 -0.0031031067 0.04659893 0.047845885 0.04082709 0.036424644 0.04368989 0.03769297 0.00063827727 0.03711634 0.00015405472 -0.008006277 0.04476357 -0.0023897137 0.04354037 -0.023633434 -0.019809632 0.047202557 -0.019882003 0.00529017 0.04029641 -0.0171674 0.0027929298 -0.011360738 0.043473832 -0.012076632 0.04292444 -0.0032916546 -0.019499758 -0.02004926 0.040404856 -0.017196715 -0.002089389 -0.017269121 -0.016891515 -0.014990637 0.00028144545 0.04543538 0.047095407 0.03789299 -0.0075216005 -0.012468521 0.03855037 -0.0045728255 0.044200007 0.042754225 0.046020202 -0.017388958 0.037657328 0.043886214 0.04735999 0.039120026 -0.0056109848 -0.014453858 -0.02193059 -0.011690721 -0.0070995493 0.041054346 0.042423572 -0.021549191 0.043069266 0.008366883 0.042782404 0.04201974 -0.008862798 0.039342657 -0.011975786 0.007291643 0.045984134 0.036168497 0.042466767 -0.016476428 -0.013783636 0.044173297 -0.004999097 -0.011294756 0.004696765 -0.008241439 0.0034969416 0.046735812 0.040623818 -0.004117376 -0.016115416 0.045834478 0.04338191 0.010264745 0.043965314 -0.0136709465 0.042857014 0.0023451506 -0.006788061 -0.02111412 -0.012674686 -0.020057088 0.039212443 0.0021854783 0.0064706774 0.049343754 -0.006980951 -0.017906738 0.04104174 0.04002196 0.012999997 0.04547556 -0.014200108 0.04770566 0.045270693 0.045955718 0.036980413 0.0010053491 -0.01985638 -0.02376258 -0.010477567 0.042157814 -0.0065915105 -0.006738384 0.041788407 0.043054808 0.048794948 -0.004816776 0.047452565 -0.02037622 0.0016270918 -0.010567276 0.039330795 0.046341144 0.047026776 0.037194237 0.0504452 0.042993113 -0.018744662 0.05009713 0.04250207 0.046210177 0.040457115 0.042683132 -0.008665577 -0.015171135 0.04390726 0.03310731 -0.012772253 -0.012652564 0.0445067 -0.022112245 0.04820471 0.048316482 0.04382139
doc_24 -0.03037212 -0.037954044 0.11273276 -0.029277623 0.1050155 0.10868138 0.10327545 0.0036343513 0.11124631 0.11244989 -0.027557036 -0.014120512 0.09672354 0.09262035 0.013818108 0.1091594 -0.02100613 -0.025420474 0.09801267 0.0860892 0.08892976 -0.046153374 0.10386204 -0.010854708 -0.018873826 0.11205072 -0.025532324 0.108236454 0.10459387 -0.026573246 -0.022376982 -0.015275111 -0.017960927 -0.023445975 -0.018214678 -0.022092463 -0.012780375 0.09811326 0.099563226 -0.019409474 0.11107378 -0.011605069 -0.040845763 0.096916094 0.094511375 -0.0093327 -0.023543105 -0.015415523 0.102483824 0.11336156 0.10665947 0.100587115 -0.0322501 -0.04342325 -0.0068331286 0.10742198 0.10148976 0.10362013 0.11255121 0.10061105 0.09145388 -0.011751304 0.096640974 -0.011045729 -0.026287526 0.09534629 -0.011922973 0.11498316 -0.03569907 -0.0045164516 0.10287829 -0.03218727 -0.014335411 0.106175244 -0.019849796 -0.014521074 -0.0152453 0.09416655 -0.016151857 0.1050436 -0.020850535 -0.028390259 -0.029636826 0.116202354 -0.024439052 -0.028382273 -0.01803412 -0.034221973 -0.014322011 0.003091976 0.10288954 0.10044144 0.09800982 -0.012998939 -0.008211638 0.108757645 -0.023916092 0.10684841 0.09967369 0.1006545 -0.02104667 0.0799683 0.103087075 0.10630723 0.10038432 -0.018932877 -0.05506043 -0.0220455 -0.030226955 -0.019251736 0.11075953 0.08178382 -0.010900648 0.08969948 -0.0047201077 0.10447249 0.09580196 -0.0053319316 0.09324347 -0.042111143 -0.0010901801 0.113570414 0.1128521 0.098145455 -0.029011274 -0.03630119 0.10733969 -0.026464995 -0.0070425346 -0.007721875 -0.0274999 0.023902506 0.1116825 0.09903837 -0.027169876 -0.014907952 0.10244554 0.106916174 0.023566358 0.103409596 -0.023563847 0.11108523 -0.02800319 -0.037204627 -0.029851947 -0.019967208 -0.025686763 0.09978803 -0.0021572253 0.015128898 0.10575867 -0.021101773 -0.009412263 0.101065725 0.103496715 0.010734716 0.1122728 -0.013002507 0.10630246 0.10901642 0.10990128 0.11068533 -0.02755146 -0.02870255 -0.04397281 -0.0118071465 0.09851252 -0.030416902 -0.022122424 0.1041701 0.10146695 0.09465289 -0.02269725 0.103032686 -0.01652878 -0.025144834 -0.020566277 0.09012441 0.10481362 0.10189301 0.10654846 0.10162548 0.097795084 -0.034063004 0.107826345 0.10502351 0.109150685 0.101208284 0.104577735 -0.026782103 -0.016007084 0.10864878 0.08755624 -0.028985519 -0.01608774 0.09627366 -0.042727858 0.09926247 0.10147806 0.09801278
doc_25 -0.039181076 -0.03144037 0.07530295 -0.017652078 0.08494675 0.07510937 0.08764434 -0.013004968 0.08921671 0.08702421 -0.014764988 -0.02874202 0.05475561 0.07759878 -0.016851602 0.07771261 -0.028952045 -0.024566602 0.0870031 0.093797356 0.07423656 -0.019578077 0.07207876 -0.020836316 -0.037386652 0.07961015 -0.039197024 0.07646897 0.09474202 -0.035615996 -0.028823344 -0.02179418 -0.035487615 -0.033646118 -0.02376117 -0.022697873 -0.049455542 0.085701115 0.07335682 -0.029651713 0.070514835 -0.045558322 -0.051311374 0.08038606 0.0951283 -0.0074658333 -0.022694547 -0.03034829 0.08221805 0.074642114 0.09066092 0.087450355 -0.04608121 -0.039198626 -0.021859592 0.08027094 0.089752614 0.082193136 0.08335839 0.084682465 0.07665504 -0.007431548 0.075418875 -0.01809572 -0.033289842 0.08196923 -0.013753094 0.07663141 -0.04096456 -0.03267881 0.09291588 -0.03616235 -0.016781516 0.08495183 -0.04529074 -0.018415669 -0.033154976 0.077547036 -0.022811858 0.0913697 -0.033350784 -0.039508544 -0.024909372 0.088156775 -0.03408648 -0.03221462 -0.034253944 -0.030377887 -0.03221029 0.005843993 0.09079888 0.09712784 0.070504546 -0.038853996 -0.03344765 0.067757234 -0.04431355 0.080431335 0.08091594 0.09221665 -0.04079541 0.06934177 0.085428275 0.091619365 0.07627044 -0.033484828 -0.022743369 -0.029929316 -0.03400837 -0.040798254 0.07282041 0.0836313 -0.03539757 0.08646898 -0.022159329 0.06907175 0.08435638 -0.023486326 0.08660422 -0.029623985 -0.0016227143 0.09731184 0.08208951 0.08051757 -0.042501923 -0.03677281 0.0681635 -0.026290588 -0.030143064 -0.027652448 -0.030637408 -0.021080764 0.08570902 0.08666053 -0.030458627 -0.022746371 0.08977277 0.08198886 0.009982585 0.08177842 -0.017803285 0.09185086 -0.010369311 -0.020160222 -0.03709055 -0.03128123 -0.025890209 0.07017459 -0.023301836 0.02538833 0.08350899 -0.030394737 -0.03197582 0.0866559 0.07095006 0.0022786807 0.08174884 -0.030180732 0.086373106 0.0813881 0.0905684 0.07867043 -0.03116931 -0.048550665 -0.04119119 -0.030754533 0.08012552 -0.045248006 -0.030547485 0.09278372 0.09247544 0.088076696 -0.023800848 0.096641 -0.041402254 -0.02905031 -0.018420177 0.0696548 0.08148186 0.087644204 0.079156086 0.10140604 0.09486534 -0.030091824 0.10130364 0.07842384 0.08753122 0.084512234 0.09281236 -0.019941064 -0.023137858 0.073487625 0.076075025 -0.03088967 -0.033258338 0.07498426 -0.051338173 0.0902942 0.09129099 0.08475739
doc_26 -0.028448906 -0.024225395 0.03143722 -0.018949194 0.030200625 0.019284401 0.02680326 -0.00035952777 0.027959492 0.01973911 0.00019501097 0.0018675011 0.014462075 0.016592365 0.012506881 0.027839592 -0.016308261 -0.023845315 0.027422145 0.024008188 0.034524735 -0.020393742 0.016718699 -0.0010973923 -0.025162673 0.019233927 -0.004338913 0.029899761 0.025325226 -0.020839807 -0.004028021 -0.0013686793 -0.010768654 -0.015431909 -0.019229474 -0.008993257 -0.01061875 0.019915197 0.01788317 -0.004977915 0.028128205 -0.013591075 -0.027194647 0.011678502 0.033884346 0.005056266 -0.021572903 -0.01769151 0.024806723 0.027227294 0.020546287 0.034534704 -0.02285097 -0.018815272 -0.0074770004 0.028141815 0.023240589 0.019337194 0.015771944 0.033478647 0.022124315 0.00959421 0.020466307 5.8116653e-05 -0.006860556 0.024054116 0.002516347 0.015591508 -0.021908734 -0.017937865 0.021981588 -0.00890985 0.0070858668 0.026189025 -0.021236958 -0.004682513 -0.0060549723 0.01914387 -0.013066098 0.027471855 -0.0053036045 -0.013505001 -0.018812396 0.011383798 -0.02141342 -0.00627725 -0.020750975 -0.028672304 -0.015822638 0.0066363844 0.030600864 0.030718666 0.009794908 -0.000540828 -0.020627346 0.012472983 -0.0031861512 0.014610263 0.022614641 0.027500484 -0.023432558 0.00641524 0.030518364 0.03269347 0.015410599 -0.0069054584 -0.018422205 -0.0268935 -0.012478838 -0.013817049 0.03216164 0.008807545 -0.020304838 0.022950698 0.0040639048 0.014011934 0.027395543 -0.008397692 0.028085241 -0.02207522 0.016306179 0.033112094 0.018893985 0.031234212 -0.015350135 -0.0110857915 0.025546437 -0.009241025 -0.011800908 -0.007335473 -0.007259272 0.0064999084 0.014994358 0.021527443 -0.010165948 -0.018741937 0.033878926 0.027150942 0.054211058 0.03243652 -0.010081161 0.020576674 -0.0001912126 -0.009316151 -0.02526781 -0.02191966 -0.029753143 0.027823243 -0.0047309594 0.02785176 0.02762782 0.0036849743 -0.01797318 0.017249243 0.01354743 0.018866709 0.0315557 -0.019612156 0.022918448 0.023321537 0.025805932 0.011617897 0.00089788076 -0.023508301 -0.026862377 -0.018356863 0.028402384 -0.019377567 -0.00027577323 0.017822944 0.026283663 0.024154268 -0.0076941503 0.027427437 -0.02641994 -0.009834424 -0.014759279 0.011483535 0.020494621 0.019583043 0.027816601 0.026137948 0.03359966 -0.019830192 0.021607284 0.023874762 0.017384198 0.013110535 0.026894398 0.0002766482 -0.00976655 0.01848168 0.014633017 -0.0189553 -0.018758828 0.01726012 -0.027218934 0.03426728 0.029532537 0.020946179
doc_27 -0.052000765 -0.055181306 0.14929487 0.010689818 0.12798297 0.1283386 0.15516235 0.04107465 0.1287446 0.065281816 0.02399186 0.09279833 0.022323802 0.08598633 0.032987572 0.11719201 -0.10479608 -0.059706613 0.10917938 0.11235614 0.15648207 -0.061421108 0.036011733 0.041244432 -0.06261445 0.048690736 -0.055651974 0.12811558 0.14554258 -0.06155241 0.01665834 0.03196049 0.016292917 -0.053618588 0.0007776504 -0.049985718 -0.04585772 0.08983194 0.05769363 0.068612516 0.09206507 -0.09347179 -0.1284649 0.014019085 0.16064957 0.09783415 0.013546066 -0.008075824 0.14587815 0.10411653 0.12448357 0.14597054 -0.13199435 -0.13859531 0.022862015 0.16389632 0.12802179 0.09332595 0.040557746 0.10096885 0.09954859 0.0012655878 0.0056513343 0.047885813 -0.028464222 0.08251276 0.055623464 0.08886584 -0.13662954 -0.11753002 0.1261675 -0.08127848 0.07862542 0.08859757 -0.10725424 0.051611837 -0.016080817 0.09332564 -0.059521757 0.14380337 0.0022429046 -0.1104519 -0.054163437 0.038427077 -0.08958886 -0.045401454 -0.073469214 -0.056640495 -0.04160314 0.04564371 0.16191418 0.1682767 0.04995629 -0.015363865 -0.028863523 0.0049384143 -0.10009273 0.06637492 0.05174881 0.15409446 -0.06975342 0.012038412 0.12645714 0.15645541 0.049516488 0.04791126 -0.036100794 -0.07812188 -0.03098502 -0.032135308 0.12205773 0.058799714 -0.1070674 0.11278304 0.037228514 0.061935112 0.117756106 -0.0451371 0.113248244 -0.017205453 0.09484359 0.13209052 0.08088714 0.17033769 -0.06749345 -0.04849761 0.080499984 -0.02171079 -0.060911845 0.060567487 -0.06899782 0.03210641 0.07585457 0.07018222 -0.016612474 -0.030863483 0.10370106 0.119688004 -0.0003204328 0.13198909 -0.035776 0.11580507 -0.026349664 0.014231138 -0.04757549 -0.058318485 -0.052272744 0.08627355 0.038350973 0.17969678 0.14241841 0.06061107 -0.048696633 0.10619106 0.06766333 0.105145104 0.14794178 -0.062830046 0.118940935 0.06565749 0.14674361 0.04639638 0.09790469 -0.10753479 -0.123114444 -0.035062447 0.14895184 -0.14209719 0.0036299317 0.07264232 0.1329853 0.14766017 -0.036948804 0.13914886 -0.043603856 0.033791397 0.002420425 0.013553579 0.05160728 0.11942529 0.14108963 0.1385236 0.1348796 -0.12415937 0.16258459 0.0988512 0.08481727 0.04710377 0.12005352 0.026042257 -0.05625888 0.112625994 0.018464578 -0.033563618 -0.09912665 0.07647993 -0.15088895 0.10876088 0.14228389 0.0802516
doc_28 -0.14235584 -0.1275397 0.19769458 -0.10770919 0.2030412 0.18048011 0.209995 -0.07967964 0.20926377 0.21377537 -0.066266805 -0.031557523 0.117199644 0.20246303 -0.038430233 0.2183408 -0.10117533 -0.10106672 0.20119283 0.21023928 0.24638104 -0.12753804 0.13175184 -0.07195442 -0.14026882 0.1252601 -0.094123505 0.21806684 0.20179455 -0.109415516 -0.07510088 -0.0775322 -0.082993016 -0.095206775 -0.11501683 -0.062333193 -0.1123555 0.18032919 0.1298682 -0.08540338 0.17658478 -0.10804399 -0.12855394 0.07702688 0.24231595 0.04026007 -0.12906368 -0.120821364 0.24792996 0.17546609 0.19263779 0.21770172 -0.13753709 -0.10033033 -0.082747854 0.24634151 0.21340854 0.17721505 0.16874841 0.19768028 0.19914633 -0.07099404 0.09950419 -0.021192912 -0.08289661 0.19356413 -0.058844633 0.22201851 -0.13967426 -0.11330589 0.22592787 -0.093732946 0.00027065398 0.21200967 -0.11257718 -0.00020054867 -0.110284835 0.18470623 -0.09983334 0.22893919 -0.07264733 -0.10047821 -0.1278034 0.15509073 -0.11987159 -0.100581504 -0.08061351 -0.11250389 -0.12530786 0.013496695 0.23481855 0.25591603 0.15784821 -0.04152033 -0.07572054 0.10145786 -0.10199277 0.13004948 0.15514372 0.23485038 -0.14749436 0.11379888 0.21946588 0.24096093 0.16390894 -0.060112223 -0.104359634 -0.14705643 -0.11419584 -0.082783364 0.22659135 0.17376049 -0.103888944 0.18299614 -0.06383487 0.17857905 0.18995307 -0.11147237 0.23133126 -0.11935015 0.03356444 0.25615722 0.15791795 0.22767207 -0.10449103 -0.09314353 0.18665503 -0.07212505 -0.12543745 -0.097528785 -0.04130514 -0.0043901494 0.17424645 0.17141548 -0.061487615 -0.12734091 0.21772648 0.20678192 0.05805432 0.22904082 -0.12705919 0.196812 -0.05601907 -0.08943547 -0.11043732 -0.11484505 -0.12968923 0.15264454 -0.017072296 0.15384823 0.23390672 -0.033747967 -0.12282664 0.17541228 0.14785442 0.038237855 0.23610118 -0.06451181 0.23168488 0.21349569 0.25646505 0.13553026 -0.05143362 -0.13772559 -0.15756018 -0.123385295 0.25393236 -0.115833916 -0.06361873 0.18526569 0.22231807 0.22527234 -0.08769109 0.23634496 -0.13055484 -0.060381427 -0.05534297 0.1206057 0.18772413 0.2029259 0.2054541 0.20620489 0.2258981 -0.089930795 0.2074534 0.21471246 0.15612671 0.18310757 0.20774603 -0.046182197 -0.118052036 0.196735 0.13465409 -0.10819467 -0.11124907 0.15801342 -0.14922686 0.23204982 0.22697487 0.18465713
doc_29 -0.0044137496 -0.0037576742 0.044894136 0.024793733 0.045105208 0.040709116 0.050251678 0.076228455 0.038143244 0.029185735 0.04573557 0.060044892 -0.00981845 0.030958664 0.050832387 0.05326141 0.032269645 0.0036663404 0.029255835 0.04530115 0.06280154 0.0062069097 0.019485354 0.053855315 -0.017807793 0.018448524 0.030279031 0.054264586 0.0462785 -0.020042803 0.03504124 0.08653992 0.04060598 0.036874443 0.0151485745 0.03743921 0.009423679 0.03715438 0.020176383 0.03718441 0.030028429 -0.0069838874 -0.06893321 0.0010714091 0.06293556 0.09416949 0.006394787 0.01577997 0.059972774 0.034650564 0.051024117 0.0620043 -0.06598904 -0.06650424 0.053922113 0.06725631 0.040980082 0.046362225 0.008459841 0.045872927 0.04893346 0.07129012 -0.008998604 0.059461962 0.054323014 0.030386683 0.08407374 0.04214149 -0.07934066 -0.06803007 0.05795489 -0.064373955 0.09137947 0.04323523 -0.01695614 0.05213128 0.03517849 0.038834624 0.01943363 0.05558648 0.05947633 -0.06449155 0.0024202801 0.013320223 0.004945754 0.04071677 -0.002600791 -0.007316761 -0.0019524291 0.11177993 0.061190046 0.06047431 0.012481783 0.043443963 0.039046314 0.008906975 0.0015263744 0.0056132535 0.030830534 0.06718906 -0.0004045166 0.008445494 0.057213016 0.056114513 0.014491383 0.07765647 0.013616489 0.001533749 0.027381524 0.018356947 0.046087064 0.03286083 -0.0636037 0.023463544 0.07428312 0.016344717 0.038666416 0.008777877 0.050537556 0.017670533 0.11560588 0.06069389 0.027927622 0.060578376 0.0039973157 0.0040138466 0.02911484 0.020955222 0.014752319 0.055034004 -0.032139726 0.073807925 0.032871526 0.038209695 0.042994037 -0.006731052 0.041123863 0.056370135 0.06779719 0.051207505 0.0074363737 0.045922358 0.06375522 0.0375335 -0.0045836875 -0.003460901 -0.007391332 0.03867691 0.07654415 0.15393066 0.04766833 0.07698935 -0.006786219 0.029526124 0.028346876 0.10682529 0.057467483 0.046762224 0.042532336 0.034030866 0.06081304 0.010939334 0.028416147 -0.018511854 -0.04627707 0.0047300803 0.060546387 -0.061122444 0.048901033 0.03199476 0.04095636 0.062269416 0.053260047 0.06979528 -0.02458803 0.06451527 0.046026517 -0.008712826 0.004837914 0.030093709 0.05822591 0.05601064 0.050018433 -0.062326778 0.06365244 0.028502999 0.028919298 0.018590026 0.044387486 0.062248558 0.0012718505 0.0376037 -0.0030463317 0.02521674 0.02154068 0.030873645 -0.07913902 0.041917063 0.04844363 0.026670486
doc_30 -0.046971057 -0.049082972 0.12375182 -0.053543147 0.14459401 0.12472013 0.13032895 -0.05630227 0.11842479 0.12585998 -0.056805946 -0.06469513 0.1395663 0.1342188 -0.091275856 0.1323258 -0.05053042 -0.060449414 0.1467915 0.14337769 0.13560095 -0.049584627 0.1337258 -0.05490035 -0.044400074 0.1290153 -0.07943714 0.11925902 0.1170769 -0.04269489 -0.041953575 -0.05550591 -0.05188193 -0.051136345 -0.062847495 -0.065891646 -0.05739142 0.14115143 0.12705918 -0.0887115 0.12823786 -0.05723057 -0.037283644 0.110750034 0.13153578 -0.104340956 -0.044376474 -0.056032702 0.13302816 0.1490523 0.12677984 0.14472416 -0.039630476 -0.03552871 -0.053639147 0.1371142 0.123248786 0.1409379 0.13056749 0.13708122 0.12780653 -0.06480315 0.13869956 -0.08264056 -0.055950478 0.14087719 -0.056325644 0.13196677 -0.0439404 0.09064112 0.13715044 -0.042297788 -0.090898424 0.120988175 -0.047932453 -0.07579611 -0.052234553 0.13921013 -0.056040924 0.12650351 -0.06863134 -0.0280585 -0.050743703 0.1409704 -0.046265867 -0.05217351 -0.049587075 -0.051134594 -0.044810034 -0.08370549 0.1397167 0.13714078 0.12285308 -0.088976175 -0.059496813 0.13624315 -0.048783444 0.13787752 0.14028424 0.12885179 -0.057080753 0.12256901 0.14199586 0.14086014 0.14701882 -0.06273165 -0.08384885 -0.049092613 -0.049642846 -0.044525344 0.13761482 0.1406092 -0.029477613 0.13069074 -0.078116044 0.13474496 0.1264388 -0.051762134 0.13413654 -0.06066028 -0.076933056 0.116628945 0.12576613 0.13417438 -0.05825299 -0.07906455 0.13669184 -0.05893246 -0.04843814 -0.0822362 -0.011970701 -0.07756272 0.1478036 0.14311123 -0.057435744 -0.054907322 0.12434227 0.12649581 0.11624719 0.14325027 -0.07742253 0.15001598 -0.066396445 -0.06372584 -0.05554288 -0.06141291 -0.05945979 0.12563089 -0.05618839 -0.114136666 0.12330243 -0.06447137 -0.057239085 0.14206627 0.11876328 -0.095299184 0.13039345 -0.049286135 0.1316711 0.14035043 0.12993726 0.12759113 -0.08810994 -0.04895825 -0.04932692 -0.060684234 0.123630315 0.072844386 -0.071529195 0.13654071 0.14126751 0.12304412 -0.062178377 0.1450506 -0.06902601 -0.07556607 -0.051725514 0.12142189 0.15168525 0.12386214 0.12864678 0.11741947 0.13556132 -0.0375099 0.120942 0.12839556 0.13100827 0.12938884 0.14459097 -0.060993746 -0.06481055 0.14589113 0.1373969 -0.048885934 -0.050128937 0.14362063 -0.051772907 0.14138277 0.14261743 0.15296216
doc_31 -0.1131437 -0.09990112 0.16533291 -0.07832321 0.16469184 0.15606213 0.1574003 -0.058453858 0.17064482 0.15914227 -0.056490593 0.0038597693 0.092503674 0.15348658 0.023271205 0.16812448 -0.08347161 -0.10048075 0.14756808 0.16361916 0.18597637 -0.09604225 0.11513313 -0.05270081 -0.104107 0.111239925 -0.07119503 0.18649152 0.1792587 -0.06670444 -0.07038866 -0.055282224 -0.04324556 -0.08342554 -0.098731935 -0.062908724 -0.092758335 0.13829371 0.119286925 -0.0559281 0.16362378 -0.10319044 -0.10064112 0.07294907 0.20029314 -0.031237878 -0.101058684 -0.0926984 0.1865185 0.14412458 0.16636002 0.18009442 -0.10105568 -0.107562974 -0.07756798 0.18382743 0.18276554 0.16166575 0.13975835 0.1617741 0.17357688 -0.009482966 0.100791514 0.019198775 -0.067086466 0.14908351 -0.059145708 0.16873696 -0.10067318 -0.06869562 0.17643693 -0.08516049 -0.024447644 0.19660537 -0.08262139 -0.015515731 -0.09135311 0.17758626 -0.07227857 0.17986488 -0.054732516 -0.09419422 -0.09182942 0.13647154 -0.09635718 -0.07820973 -0.047925983 -0.103141315 -0.09366717 0.01989501 0.1922969 0.19827788 0.11489273 -0.04585811 -0.078147106 0.11792688 -0.07780445 0.13490283 0.14209904 0.20302923 -0.10300646 0.09437672 0.18446304 0.16146065 0.14128126 -0.050753802 -0.075035915 -0.10235285 -0.09701971 -0.082693495 0.16216323 0.14447415 -0.0970345 0.16063984 -0.04831038 0.14162567 0.16613093 -0.06445941 0.18359938 -0.06946334 0.015127229 0.17703062 0.14851543 0.17478116 -0.073075265 -0.09609425 0.12977378 -0.08406825 -0.09747686 -0.0528502 -0.038521323 0.0011731389 0.16235411 0.15272845 -0.060527645 -0.08342669 0.16607675 0.19298424 0.0023135785 0.19815855 -0.095911674 0.1446366 -0.06182095 -0.075889684 -0.08322426 -0.09781593 -0.10416777 0.136645 0.018439166 0.14859384 0.19121504 -0.05622334 -0.08331921 0.15056138 0.13273194 0.0109967375 0.20076011 -0.0522483 0.15658453 0.14835253 0.20037359 0.12393267 -0.03575733 -0.10417924 -0.11402495 -0.098982856 0.19625404 -0.07421019 -0.030603739 0.14555916 0.18431172 0.19389755 -0.07823656 0.1828937 -0.10054234 -0.030967947 -0.0689239 0.10406358 0.14095214 0.16220951 0.15643503 0.15659724 0.18465254 -0.07506943 0.18019663 0.14640345 0.13248773 0.13636345 0.17751825 -0.055620424 -0.10102857 0.16140829 0.107643336 -0.097611494 -0.10154004 0.15024763 -0.1135032 0.15925725 0.1840761 0.13996533
doc_32 -0.040069178 -0.03671226 0.0933321 -0.027739624 0.09592539 0.101211414 0.09143103 -0.021338556 0.09095008 0.0970602 -0.024193345 -0.0200185 0.08729688 0.09090098 -0.027080456 0.095935985 -0.029854095 -0.032424647 0.09106256 0.09795431 0.09944025 -0.033681203 0.096810795 -0.029144483 -0.037181873 0.09270864 -0.024945676 0.091049396 0.10245817 -0.035208475 -0.017530356 -0.0155556295 -0.027124876 -0.019520352 -0.03834395 -0.035911012 -0.029176855 0.093982734 0.09549027 -0.032055166 0.09474529 -0.036296852 -0.04032715 0.08336932 0.09889234 -0.00684491 -0.034458097 -0.035410337 0.09773764 0.10158426 0.08848996 0.10365985 -0.03602263 -0.03623394 -0.023358043 0.102241024 0.10257414 0.0995724 0.088444985 0.09187482 0.094763964 -0.007216493 0.08645603 -0.020035446 -0.022245927 0.094166875 -0.016875872 0.10160836 -0.041036356 -0.036606405 0.096175484 -0.028262407 -0.0100565525 0.09685172 -0.037676215 -0.030334279 -0.030607421 0.09159677 -0.03428526 0.09015139 -0.025934547 -0.0315305 -0.042830527 0.09138236 -0.027771302 -0.023479342 -0.03127793 -0.03824519 -0.040272806 -0.023007216 0.10123878 0.10107773 0.09042572 -0.027073761 -0.029516838 0.088623494 -0.039696 0.0945403 0.09072817 0.10224104 -0.031906895 0.08815516 0.10124896 0.09168378 0.08636969 -0.026315793 -0.035054307 -0.035663143 -0.029221654 -0.03203091 0.09543062 0.100110255 -0.03548586 0.0903391 -0.015186648 0.09168504 0.0921122 -0.03154137 0.088858165 -0.03769051 -0.006871953 0.09405841 0.087935075 0.09690208 -0.044288985 -0.037720557 0.09831001 -0.02708696 -0.025299266 -0.023613708 -0.01946788 -0.016601428 0.10252298 0.08997459 -0.019790404 -0.03662891 0.08207697 0.092588924 0.06286369 0.09679622 -0.03578906 0.09051952 -0.023471981 -0.032064773 -0.035568576 -0.025220474 -0.033904675 0.08834056 -0.02267412 0.020645874 0.10049614 -0.02092513 -0.038296394 0.087808065 0.0959589 -0.00018196623 0.09490634 -0.03223451 0.09040968 0.09021258 0.09970555 0.08844719 -0.025224073 -0.041067556 -0.03917695 -0.03090923 0.10244158 -0.03716822 -0.027652796 0.09720503 0.10200401 0.096036874 -0.02415594 0.093268596 -0.039218515 -0.022438848 -0.030045923 0.08567832 0.089595966 0.09231428 0.10088903 0.098422475 0.09205288 -0.035901166 0.09456085 0.09228339 0.092174314 0.08756856 0.10188568 -0.024148049 -0.034056388 0.09574471 0.09064787 -0.02895199 -0.034051284 0.09093333 -0.04081867 0.10174443 0.0976599 0.09635997
doc_33 -0.014602322 -0.012224416 0.020188263 -0.0044830507 0.020293353 0.018342668 0.018666415 0.0021404405 0.022707501 0.015515117 -0.0017456315 0.0052279974 0.009987992 0.0106996875 0.0014936791 0.021110771 -0.0062733414 -0.01866964 0.023981106 0.022860875 0.026558293 -0.011263311 0.021498093 0.0011705325 -0.020766307 0.012482158 0.0020122807 0.020947333 0.02083471 -0.010200631 -0.0053662662 0.0069777123 -0.0062262043 -0.011544965 -0.014908709 -0.00317104 -0.01005619 0.017058665 0.008945942 0.0019465876 0.023230467 -0.011348722 -0.02325997 0.006564812 0.02511432 0.009030902 -0.012040797 -0.00925138 0.024260722 0.021356745 0.016131135 0.024880346 -0.023447154 -0.021678261 0.0024613573 0.021860128 0.019123688 0.022317717 0.014456369 0.023985889 0.020303022 0.00663791 0.011597266 0.0022016298 -0.0056955796 0.019150868 0.006826616 0.011078125 -0.022496896 -0.016253833 0.017681833 -0.017932454 0.005786531 0.025493033 -0.016333172 0.0073611313 0.0018513063 0.021496983 -0.012265789 0.022337902 0.0018697307 -0.01949837 -0.006728482 0.010129473 -0.01144323 0.0035224599 -0.009835484 -0.015927777 -0.009466929 0.0064379256 0.020350896 0.023674386 0.010038556 0.0014906055 -0.0031916895 0.011623394 0.001422606 0.012045982 0.01071587 0.025798794 -0.020051116 0.015193966 0.02275378 0.02286592 0.010213601 -0.0016873006 -0.008394284 -0.01200926 -0.0041396148 -0.0041013933 0.02357155 0.010960277 -0.015318373 0.021205451 0.0008980511 0.014784485 0.017739575 -0.00379825 0.022202767 -0.00794035 0.013841147 0.02157464 0.0154206855 0.018500654 -0.0038561984 -0.012469526 0.019145384 -0.0031667778 -0.008071953 0.0066054445 -0.0033828449 0.009271504 0.0123026855 0.021772038 0.003490007 -0.018247861 0.018602751 0.023193281 0.026695406 0.025818992 -0.009948503 0.01859761 0.0018706671 0.0013679089 -0.009632233 -0.011203696 -0.015010996 0.02099894 0.00444295 0.024258893 0.025225475 0.0017480869 -0.012943643 0.016834741 0.014011276 0.009914476 0.027232284 -0.006292084 0.02744412 0.015961222 0.02263139 0.0060889106 0.00075385766 -0.02004482 -0.024101619 -0.003724329 0.020705799 -0.017697232 -0.005202514 0.024016213 0.016214628 0.026126316 -0.0022568624 0.018413939 -0.016373612 0.004823006 0.0020625046 0.006043672 0.015113 0.020654961 0.02240018 0.030450422 0.03086666 -0.02041752 0.026986387 0.017989123 0.01080941 0.011378485 0.017500365 0.0075366977 -0.004271863 0.0124917785 0.020130811 -0.011743701 -0.010788647 0.014196606 -0.023896955 0.01566616 0.022055214 0.014366635
doc_34 -0.07679976 -0.06975617 0.2067007 -0.08688176 0.21270496 0.22851282 0.20810458 -0.08160794 0.20781717 0.21400289 -0.07670631 -0.07738817 0.2269167 0.21739052 -0.0852266 0.2078566 -0.08105458 -0.073912255 0.21313965 0.22407325 0.19717933 -0.08131878 0.21915098 -0.080134764 -0.07689845 0.2291683 -0.0714761 0.2007853 0.20894471 -0.07560027 -0.07380592 -0.07824753 -0.07523881 -0.0821095 -0.08489937 -0.08956282 -0.090354785 0.2234044 0.19840857 -0.078206465 0.20691884 -0.079280786 -0.07715887 0.20243225 0.22330067 -0.056240026 -0.0857259 -0.0778323 0.21083665 0.21606152 0.20645678 0.20698929 -0.07415302 -0.08275593 -0.07557217 0.20605461 0.21848468 0.22535577 0.22345418 0.22644457 0.2062251 -0.07592554 0.21309742 -0.037974603 -0.06112898 0.22176036 -0.05727057 0.22807609 -0.071777366 -0.057386257 0.19614908 -0.07749547 -0.07120814 0.19897865 -0.06355002 -0.07909928 -0.09093325 0.21637481 -0.07867852 0.202906 -0.08387663 -0.074125506 -0.085348405 0.21121515 -0.056239676 -0.06941038 -0.063416585 -0.08326496 -0.06147867 -0.078684025 0.21320584 0.20623435 0.22766475 -0.08496014 -0.07544412 0.22461683 -0.056568615 0.22989167 0.19991142 0.2140949 -0.08394412 0.22791483 0.2125664 0.20970537 0.21708666 -0.04389844 -0.07905446 -0.08381459 -0.08357707 -0.084955655 0.20644899 0.20825808 -0.05958008 0.2094881 -0.07607642 0.2296861 0.18627426 -0.07830543 0.20997024 -0.08102609 -0.06604758 0.20656282 0.21276495 0.21354793 -0.07796072 -0.04778301 0.21056318 -0.08115547 -0.07924466 -0.07132084 -0.0031244652 -0.06983913 0.202153 0.22506858 -0.08083675 -0.084610544 0.19172283 0.2168617 -0.015086378 0.21131784 -0.08083063 0.2071314 -0.011421934 -0.036913093 -0.07324333 -0.08458056 -0.08086487 0.20427464 -0.08280313 -0.07137801 0.20973593 -0.07283125 -0.0811412 0.20396686 0.22738038 -0.077796936 0.21874881 -0.07934145 0.20694037 0.2330274 0.20920566 0.23268415 -0.046760168 -0.07660718 -0.08737511 -0.09372566 0.21503848 -0.05650419 -0.049055576 0.19461457 0.21176554 0.20270121 -0.074870676 0.20194426 -0.08029191 -0.058150046 -0.07708126 0.21246324 0.21077317 0.20540828 0.20388779 0.21016105 0.20057584 -0.049361486 0.21374474 0.21576592 0.22131018 0.21702781 0.21336901 -0.06623708 -0.080725625 0.21924156 0.22489908 -0.08175627 -0.08045914 0.20933867 -0.074808866 0.21588995 0.20759875 0.20817105
doc_35 -0.023681022 -0.025671205 0.08772108 -0.02059587 0.07758956 0.072557874 0.06983593 -0.030853868 0.081495054 0.084463954 -0.024347823 -0.030016981 0.07404803 0.0722571 -0.025060024 0.08046198 -0.02105951 -0.019949611 0.086606145 0.08524419 0.085262075 -0.023723427 0.07324589 -0.025290167 -0.02259637 0.07261826 -0.032315135 0.08384241 0.063590586 -0.019849874 -0.028817821 -0.027416192 -0.03398844 -0.025828954 -0.022242382 -0.020593047 -0.043553747 0.08020611 0.060649984 -0.026843857 0.08324673 -0.02628428 -0.020343374 0.06790651 0.08313739 -0.025244365 -0.01777191 -0.020704571 0.07122776 0.075155765 0.07242724 0.06809018 -0.01659775 -0.019169562 -0.031394456 0.0735334 0.07118289 0.07873422 0.07651229 0.08158552 0.07202597 -0.031680524 0.089441314 -0.035301954 -0.026396481 0.077907786 -0.0296029 0.085986406 -0.01816217 -0.019071274 0.084316716 -0.014594872 -0.023662867 0.074058935 -0.02542553 -0.024610978 -0.026025113 0.08618863 -0.020408608 0.08225083 -0.03127972 -0.014775778 -0.020398062 0.089398496 -0.025464483 -0.022425072 -0.026759475 -0.020853493 -0.025072973 -0.029923694 0.07199713 0.08377015 0.08384507 -0.028376926 -0.026457854 0.07424969 -0.03338225 0.08819449 0.08003328 0.07961519 -0.006118412 0.06737141 0.07892759 0.07842611 0.062029198 -0.032343246 -0.018813564 -0.019949822 -0.020651208 -0.0243809 0.075347334 0.08164611 -0.02437343 0.07563846 -0.028005525 0.090148345 0.07293767 -0.02182007 0.080331504 -0.020940006 -0.030577686 0.08584453 0.071870886 0.07896095 -0.027222414 -0.026421055 0.06883477 -0.015504802 -0.014391565 -0.03108941 -0.014987068 -0.03038418 0.09688462 0.08322872 -0.030791935 -0.030858256 0.06713389 0.08333301 -0.009143846 0.08307323 -0.025921915 0.07998139 -0.025496833 -0.026529998 -0.02543417 -0.025483128 -0.013359338 0.08384209 -0.03214703 -0.028360344 0.07507734 -0.03585576 -0.017295422 0.08512102 0.080883875 -0.026245771 0.0727179 -0.031329393 0.07828108 0.07876846 0.080769494 0.073837236 -0.0302112 -0.017641073 -0.024565373 -0.03629993 0.073306926 -0.0110548865 -0.02926812 0.08404723 0.072128445 0.06755754 -0.02965244 0.07805328 -0.01966058 -0.026224485 -0.020106252 0.08460415 0.08071892 0.07379923 0.062270314 0.07565278 0.07351644 -0.009799257 0.090233564 0.06709477 0.07598802 0.06862467 0.06487482 -0.02796186 -0.014103092 0.065719225 0.0845315 -0.023408398 -0.011556629 0.07520149 -0.016513353 0.074865595 0.07554975 0.08005308
doc_36 -0.045765437 -0.041052125 0.11081563 -0.036974944 0.11402473 0.11445438 0.10480573 -0.032140415 0.10530182 0.112948306 -0.038783576 -0.037089236 0.10174783 0.10437123 -0.044639837 0.11070496 -0.042212564 -0.03937667 0.10748729 0.11619419 0.111776605 -0.042878874 0.11079541 -0.043479554 -0.044042576 0.110590644 -0.03949565 0.10534488 0.1182546 -0.03986443 -0.03255503 -0.0267821 -0.03681654 -0.03215617 -0.044271085 -0.043267924 -0.03693688 0.10791926 0.11027222 -0.0439947 0.107477784 -0.046892878 -0.04479273 0.097431205 0.114253774 -0.022349587 -0.039535437 -0.04934902 0.11338751 0.1176609 0.1052652 0.11721642 -0.037084986 -0.04062395 -0.034319773 0.1188689 0.11679964 0.11697928 0.10646394 0.10436566 0.10875621 -0.017804002 0.10384669 -0.033600822 -0.039661117 0.111867525 -0.030689878 0.1160133 -0.04401144 -0.041476246 0.11078219 -0.030591208 -0.02723646 0.11326858 -0.041266505 -0.043057293 -0.04367407 0.109341584 -0.047254924 0.10307682 -0.03876979 -0.032962173 -0.05344637 0.10976481 -0.035790488 -0.04011431 -0.042020503 -0.04245366 -0.04954713 -0.037226632 0.11456686 0.114795 0.10741884 -0.039763156 -0.037397567 0.10717878 -0.053248417 0.109746225 0.10834993 0.11504371 -0.035817977 0.1062664 0.11612256 0.10504453 0.10321642 -0.045646455 -0.04579893 -0.04209374 -0.039235223 -0.04292055 0.11265656 0.11852659 -0.04132612 0.1076209 -0.027826441 0.109509274 0.10421331 -0.041022845 0.10574809 -0.048015915 -0.024454622 0.110392235 0.10550868 0.11030133 -0.05768106 -0.047237765 0.11556465 -0.041012123 -0.03643925 -0.04139499 -0.024329854 -0.030011231 0.11846034 0.10772381 -0.03360765 -0.044755463 0.097977966 0.1051955 0.08121369 0.111618616 -0.043578297 0.107872926 -0.039943267 -0.043747496 -0.04508932 -0.033501048 -0.041335728 0.101734005 -0.037407205 0.007547995 0.11535318 -0.038720604 -0.041605413 0.09925646 0.11215596 -0.014747626 0.10935811 -0.042476047 0.10290645 0.10611594 0.112546526 0.10693498 -0.038783267 -0.045039624 -0.042138956 -0.04177631 0.114739336 -0.042312384 -0.043014165 0.11301814 0.116646886 0.11018914 -0.037764836 0.107864834 -0.04597526 -0.03329481 -0.03748521 0.10200899 0.10556259 0.108421475 0.11447022 0.112901196 0.10627586 -0.03613444 0.107684545 0.10885643 0.10969105 0.10633323 0.11900805 -0.036468882 -0.04105372 0.11054784 0.10675599 -0.03876318 -0.04121868 0.10905334 -0.044026114 0.11888815 0.1132282 0.1102474
doc_37 -0.040576592 -0.03860743 0.085286155 -0.023317225 0.086795956 0.09186187 0.08112659 -0.013642795 0.084912084 0.08785745 -0.019838326 -0.013983956 0.07348243 0.083094634 -0.025065849 0.08836077 -0.026170583 -0.035097793 0.07843384 0.086341456 0.091023855 -0.028404564 0.08712002 -0.02283335 -0.04197966 0.08136507 -0.017576272 0.08493218 0.09514404 -0.034770265 -0.013490668 -0.0073719784 -0.024519073 -0.019435825 -0.035931125 -0.029019086 -0.025214711 0.084928565 0.086921714 -0.03026944 0.08367969 -0.040551927 -0.043532886 0.071170576 0.0922738 -0.003996417 -0.039132945 -0.033897214 0.087614894 0.09296096 0.078258716 0.09247178 -0.037081078 -0.039035607 -0.016787997 0.09475243 0.09453397 0.08978914 0.07936566 0.08225765 0.08503042 1.2765522e-05 0.074873276 -0.016381655 -0.01634712 0.08398722 -0.0124065075 0.09273166 -0.04089705 -0.037055615 0.08703359 -0.027390208 -0.003362396 0.08736532 -0.039547905 -0.024036162 -0.026830047 0.08258591 -0.031970404 0.082819454 -0.018423151 -0.031496413 -0.040015157 0.082610324 -0.02738937 -0.020881463 -0.032520927 -0.03913922 -0.03945872 -0.016183075 0.09126108 0.09381998 0.080251694 -0.017913956 -0.0250036 0.07747816 -0.036975216 0.08123446 0.07891028 0.09264657 -0.0300204 0.08050544 0.09539691 0.08041063 0.07694446 -0.021812413 -0.03258491 -0.04010795 -0.020211319 -0.028179104 0.08679836 0.0870671 -0.039578184 0.079301484 -0.008437146 0.07942162 0.085039675 -0.029367978 0.08168975 -0.03566881 0.0019259099 0.08650931 0.0802002 0.08774865 -0.039931733 -0.037088815 0.08602205 -0.027188743 -0.021122243 -0.019585343 -0.018809848 -0.013423541 0.092604555 0.07945505 -0.012746167 -0.035616033 0.07116075 0.086049184 0.06817807 0.08611841 -0.034588695 0.080450855 -0.018145047 -0.02645028 -0.036962897 -0.025972733 -0.037176285 0.07782274 -0.010427419 0.032731604 0.09060081 -0.015376904 -0.037463237 0.074678496 0.082700014 0.010406227 0.08739926 -0.030530153 0.07981612 0.07922905 0.09241767 0.07898465 -0.021211283 -0.04383837 -0.04375274 -0.031241415 0.093197085 -0.041483395 -0.022367097 0.089541964 0.09129642 0.08730691 -0.018235689 0.085149795 -0.037251618 -0.018636571 -0.023468439 0.07809683 0.0801105 0.08369638 0.09319072 0.089949444 0.08645762 -0.03816185 0.08868302 0.08205439 0.08431558 0.07984995 0.09309402 -0.019622492 -0.03212583 0.08227912 0.08206491 -0.03322997 -0.030606274 0.082605235 -0.040962804 0.09228221 0.08978968 0.083616905
doc_38 0.13633925 0.14403304 -0.060284033 0.13854755 -0.06377337 -0.051743157 -0.056015447 0.14709361 -0.06458053 -0.07088725 0.13793795 0.14847688 -0.07574356 -0.07187797 0.150857 -0.07088479 0.14914009 0.14206235 -0.07841349 -0.045865096 -0.047907762 0.14905539 -0.06001247 0.15349995 0.13099973 -0.07434811 0.14482073 -0.05466685 -0.06930684 0.12385228 0.13807306 0.14148362 0.13478644 0.1321123 0.1431373 0.14143705 0.13861547 -0.06274567 -0.059140287 0.1490124 -0.056318015 0.13875498 0.00010757829 -0.060425833 -0.0535801 0.14961147 0.14206932 0.13737357 -0.0779364 -0.062224966 -0.08212062 -0.065759785 -0.036539935 -0.029143201 0.14249142 -0.052973658 -0.06782101 -0.0779202 -0.07684466 -0.08095434 -0.06705515 0.15231 -0.06738695 0.14729066 0.14880691 -0.07268346 0.1543103 -0.084510684 -0.030145695 -0.053321518 -0.08664468 -0.047870744 0.14666012 -0.056506112 0.14841023 0.15241332 0.14099686 -0.052155424 0.12832054 -0.06617743 0.14456385 -0.036901042 0.14392997 -0.081596 0.14005332 0.12715432 0.16152014 0.1515162 0.13862178 0.14566423 -0.077830434 -0.05254409 -0.050795496 0.14369616 0.1539679 -0.057857785 0.14917731 -0.08746987 -0.05837924 -0.07662022 0.14395614 -0.06570169 -0.061486196 -0.080884725 -0.054602142 0.14137234 0.14971165 0.1411593 0.14689039 0.1433182 -0.0733398 -0.05769159 -0.03086952 -0.054437246 0.15713486 -0.062051684 -0.054794658 0.1518548 -0.07966005 0.13953581 0.15341502 -0.071457356 -0.07826199 -0.044351522 0.13404173 0.14530516 -0.056502998 0.13384983 0.1407793 0.13170747 -0.03774418 0.12949553 -0.08032182 -0.08248565 0.14715645 0.136304 -0.07911392 -0.051071618 -0.04107574 -0.060694393 0.12199521 -0.074688345 0.14918306 0.14691404 0.15497586 0.14200853 0.13780634 -0.08079816 0.13178101 0.14896491 -0.073435545 0.14873102 0.1433825 -0.056089558 -0.06525558 0.15151481 -0.05552422 0.13854909 -0.06241147 -0.07818867 -0.0796675 -0.054527212 0.1261971 0.12301935 0.1360824 0.14497548 -0.0576716 -0.032515164 0.14402653 -0.05891181 -0.06156988 -0.060560603 0.15180151 -0.05118834 0.14008194 0.15287878 0.14399464 -0.069129564 -0.046440776 -0.06834597 -0.05814602 -0.06728403 -0.07252068 -0.03379142 -0.045316987 -0.06860204 -0.06248296 -0.06208727 -0.07209648 0.15421797 0.14005996 -0.06187349 -0.06520589 0.14025407 0.13057628 -0.06890069 -0.024382342 -0.05229542 -0.052620854 -0.07136295
doc_39 -0.030344402 -0.01996826 0.06808835 -0.01347564 0.06299757 0.063496515 0.06678773 -0.019587733 0.07311115 0.07418086 -0.012753471 -0.007107311 0.043884646 0.053466253 -0.021559287 0.06721308 -0.018514602 -0.021052811 0.07177014 0.06971092 0.056807235 -0.01708734 0.059044704 -0.013603982 -0.031553134 0.05761988 -0.020847142 0.061769314 0.060695127 -0.025955373 -0.017955808 -0.013152682 -0.015504766 -0.020669833 -0.023812002 -0.020652235 -0.013165502 0.057244085 0.060218178 -0.016698524 0.06352136 -0.023233905 -0.027683655 0.042073198 0.06872035 0.009074565 -0.03422636 -0.020160228 0.060541946 0.060356703 0.059507105 0.070248045 -0.02682827 -0.036834948 -0.017329337 0.06678189 0.06674455 0.06146597 0.05959127 0.060833454 0.07045303 -0.013784387 0.045041192 -0.014082741 -0.021346327 0.06811974 -0.012722301 0.07330959 -0.03111694 -0.017917035 0.067583665 -0.020602364 -0.015795931 0.058281623 -0.018182365 -0.005502746 -0.023229215 0.058830027 -0.01973698 0.06986961 -0.018381972 -0.027949955 -0.020387381 0.05639751 -0.01867627 -0.023714526 -0.01657262 -0.023180421 -0.027921125 -0.0035134656 0.067431495 0.068721905 0.055085115 -0.020428628 -0.021249082 0.050617106 -0.0147424005 0.054357253 0.05842056 0.056241233 -0.026565349 0.05161613 0.06528295 0.07181551 0.060698587 -0.0102692 -0.012383049 -0.030404553 -0.020284897 -0.017832417 0.07521732 0.058952454 0.055199157 0.059423678 -0.012559826 0.06333442 0.061440624 -0.017551705 0.06811901 -0.016257625 -0.0011582449 0.07260037 0.06259295 0.06029841 -0.021751842 -0.017368905 0.06501268 -0.01620834 -0.027313288 -0.013506845 -0.015555684 -3.79649e-05 0.059961624 0.059089106 -0.019430742 -0.02396934 0.06320213 0.06686901 0.08227174 0.06800503 -0.020052245 0.060401928 -0.013408929 -0.022892587 -0.024489053 -0.03269267 -0.023720145 0.053686686 -0.018474896 0.016183747 0.070020206 -0.017105587 -0.024087965 0.0631689 0.059654348 0.007202437 0.07570951 -0.013415258 0.066635154 0.06500689 0.06898664 0.052152593 -0.017734692 -0.02574392 -0.028162494 -0.0162852 0.05994169 -0.02538272 -0.010203252 0.06688945 0.07080184 0.076051846 -0.018260485 0.07281207 -0.02405875 -0.016095368 -0.017102111 0.060008302 0.069291666 0.06052624 0.057599634 0.06202972 0.072884195 -0.012922038 0.059059005 0.06223953 0.0686847 0.048541337 0.06059456 -0.015271195 -0.01808739 0.06171321 0.049283538 -0.019857652 -0.019499147 0.066753566 -0.0333407 0.06745318 0.055664666 0.060806073
doc_40 -0.026083618 -0.027658913 0.05120976 -0.023707086 0.050074264 0.04699768 0.0626672 -0.013905771 0.05615692 0.055898003 -0.007948145 -0.013485778 0.037426736 0.054868117 -0.007965741 0.04562604 -0.02310322 -0.03324738 0.055742584 0.06287858 0.06662763 -0.023208957 0.04019495 -0.019545602 -0.037738115 0.03633573 -0.020219378 0.048257552 0.05399272 -0.017751064 -0.018270534 -0.0038532782 -0.023682304 -0.031600162 -0.027418727 -0.025396861 -0.03595092 0.055120636 0.06069863 -0.029896071 0.057317976 -0.029312018 -0.025167562 0.043577407 0.055229116 0.0021549892 -0.01951261 -0.030567462 0.05367037 0.056089412 0.049791243 0.059475835 -0.043531258 -0.030282453 -0.010996306 0.0692306 0.061780233 0.04886277 0.05330579 0.0468014 0.05201104 -0.005265964 0.03654217 -0.014774385 -0.03400075 0.04981228 -0.018977242 0.051478848 -0.028613377 -0.022554 0.04382132 -0.02674367 -0.006560508 0.04638905 -0.02087103 -0.01715373 -0.013816063 0.05021454 -0.017829051 0.04642576 -0.025127506 -0.030075338 -0.022105632 0.04798434 -0.022990514 -0.027416961 -0.036177535 -0.025700476 -0.018426323 -0.008311325 0.057202555 0.057767984 0.043055918 -0.029745791 -0.019481245 0.03388763 -0.014040168 0.044473644 0.04982214 0.056299422 -0.031162225 0.025350545 0.05788752 0.054217506 0.04641249 -0.0149992015 -0.02615272 -0.03677393 -0.021990273 -0.032790814 0.043372743 0.049277093 -0.024348699 0.051183674 -0.013749702 0.0442588 0.05274712 -0.02993242 0.061467852 -0.014391348 0.0037048254 0.06529515 0.055322528 0.057084814 -0.02571792 -0.03201656 0.037180312 -0.03534101 -0.019504428 -0.006018825 0.008422044 -0.0033613453 0.0513625 0.06319911 -0.016880907 -0.019448468 0.061440077 0.06397509 0.067822844 0.058107495 -0.022221228 0.041529786 -0.011646629 -0.034190208 -0.028238796 -0.027026832 -0.027761802 0.05223117 -0.009943071 0.016867168 0.06417168 -0.019760292 -0.032429636 0.056300115 0.057063 0.004536461 0.058091782 -0.012830389 0.0560037 0.049281433 0.050587054 0.034578748 -0.019520879 -0.025096934 -0.04208734 -0.025629707 0.051213887 -0.021951057 -0.027351655 0.04335317 0.051325865 0.067417815 -0.017728679 0.05665808 -0.014693757 -0.01831716 -0.021944124 0.043036528 0.048092615 0.04355587 0.053616714 0.06622538 0.054731812 -0.025097575 0.062668875 0.053496104 0.056817994 0.050786763 0.05277064 -0.017420221 -0.02265097 0.046358697 0.032842215 -0.024228763 -0.018160274 0.048115373 -0.036182582 0.051327016 0.057665188 0.056943536
