doc_0 -0.07265558 -0.045253884 0.15215164 -0.03581296 0.14327627 -0.03949755 -0.07427695 -0.09292784 0.13799118 0.14836422 -0.052360076 0.13804848 0.15231797 -0.051859036 -0.07089987 0.13964084 -0.046166457 -0.041486464 -0.04675066 0.1370882 0.14567941 0.13339268 0.14085345 0.144277 0.1408731 -0.049077824 0.13816854 -0.05360986 0.12515496 0.13740075 0.15192647 -0.045042455 0.15131783 0.14150798 -0.078567296 0.14598404 -0.05569638 0.1309518 -0.040232316 -0.050629176 -0.054358438 -0.0746218 -0.046307944 0.14398055 0.14543341 -0.041627713 0.123288125 0.12865214 0.13888255 0.14005753 -0.047216836 -0.050408863 0.1288544 0.123782486 0.12840098 -0.04292608 0.14616786 -0.03353505 0.14750507 0.1466672 -0.044705935 0.13770485 -0.07097344 0.1367639 0.18283544 -0.052557968 -0.042050105 0.127084 -0.045169324 0.13396344 -0.06494188 -0.054242603 0.13812439 -0.0926331 0.14222845 -0.046697922 0.1359404 -0.03873952 0.14546709 -0.06741207 -0.07871801 -0.051312234 0.14628683 -0.039614603 -0.049863055 -0.07645564 0.13368422 0.11956653 0.13779028 -0.057277896 0.13674888 0.14202166 -0.029711168 -0.08665407 0.13797385 0.14389758 0.14143842 -0.087969415 0.13714233 0.13572654 -0.0614587 -0.056476224 -0.06482158 0.13823321 0.11435445 0.13717556 0.14941037 0.1327057 -0.03920209 0.13439758 0.13272104 0.13424563 0.13499112 0.12984918 -0.046017405 0.15465832 -0.06410545 -0.049902122 -0.047398806 0.13984686 -0.054924197 -0.054515786 0.13004082 0.13796392 -0.09767677 0.15637578 -0.04651307 -0.05210097 0.13964619 0.1424814 0.13889226 0.13855907 0.12412598 0.14882934 -0.045403887 -0.042628817 0.1477196 0.14617357 0.12369308 0.13749796 0.13850641 -0.059368566 -0.06596365 0.094957486 0.1425362 -0.066206545 0.12717375 0.12388811 -0.047182918 0.14029166 0.13922378 -0.067207605 -0.04863184 0.1324268 0.14068443 -0.043752633 -0.043886952 -0.049848497 -0.06881118 -0.05523046 0.14352866 0.14731425 -0.05573973 0.12529731 -0.06341777 0.13458158 0.14959574 -0.046501916 0.14222996 0.14802624 -0.04754739 0.1568799 0.14012855 0.14542027 -0.09273806 -0.042522054 -0.02520756 0.14779837 -0.058445685 -0.052702643 -0.028793711 -0.053048395 0.14621031 0.14360304 0.14834331 -0.045174085 -0.09982176 0.14704084 -0.06244614 -0.047927294 0.123849854 -0.05358943 -0.07304361 -0.061181232 -0.042794015 -0.0679896 0.14795886 0.13541846 0.12794277 0.14493802
doc_1 -0.007569928 -0.020802854 0.08895171 -0.026205363 0.0905879 -0.01774517 -0.011034552 -0.018482165 0.08459838 0.08758595 -0.017189777 0.09129591 0.08719069 -0.0052841753 -0.0013718801 0.08721435 -0.012281645 -0.018922618 0.0018607393 0.09330579 0.08989027 0.08680414 0.08004713 0.08850015 0.088769704 -0.027421525 0.09028421 -0.008985422 0.09262067 0.08882892 0.09717205 -0.014927103 0.09127506 0.0837804 -0.02389768 0.0845518 -0.018008484 0.0868643 -0.021670043 -0.0080137085 -0.01410688 -0.0140824 -0.018619573 0.09567999 0.090811804 -0.021192482 0.079529844 0.085422955 0.09112695 0.08189985 -0.020339094 -0.004223548 0.09162856 0.083616726 0.08771092 -0.017836783 0.08877285 -0.020804226 0.09261101 0.09287066 -0.022402516 0.079075314 -0.01905042 0.08732456 0.13009247 -0.018480228 -0.015851848 0.080030404 -0.02107824 0.08907554 -0.020599239 -0.016071396 0.087579735 -0.028117593 0.094838604 -0.014692884 0.08229244 -0.026949376 0.095814526 -0.024604032 -0.011970421 -0.008154716 0.08816073 -0.011228796 -0.01297481 -0.023879334 0.08219094 0.087828904 0.08766875 -0.0018644722 0.07712334 0.08865578 -0.026891071 -0.016602721 0.087156035 0.092645474 0.101876594 -0.0036535 0.084729634 0.08849701 -0.011252081 -0.020406932 -0.02124835 0.08903283 0.08626508 0.096034676 0.096267015 0.08703658 -0.023793813 0.08699053 0.09105612 0.087059304 0.08566409 0.08451137 -0.011798842 0.08869602 -0.0119151 -0.014902351 -0.0026976124 0.08791123 -0.011833772 -0.013806384 0.08027302 0.091128044 -0.0130833555 0.09060955 -0.012641133 -0.0054184897 0.0816632 0.08709851 0.091260985 0.08859876 0.0860567 0.09083903 -0.019030761 -0.021508886 0.08194368 0.09335002 0.08207033 0.08298907 0.08498325 -0.018414415 -0.013184538 0.14700598 0.09387814 -0.014458582 0.081460826 0.08337464 -0.021265117 0.15640038 0.08641541 -0.016318545 -0.02386036 0.08198104 0.101952225 -0.028552974 -0.0071469434 -0.018093871 -0.016558431 -0.012558502 0.09056228 0.08928676 -0.013956698 0.08865918 -0.015118763 0.07920934 0.08908338 -0.010828263 0.090820625 0.09798352 -0.018825294 0.095954716 0.08329925 0.07929449 -0.013307758 -0.022488676 -0.021783374 0.09361358 -0.019327775 -0.0025441425 -0.028429622 -0.009141572 0.09790952 0.09207748 0.08962204 -0.0148197515 -0.01812627 0.09274201 -0.011291508 -0.022232044 0.08002805 -0.017450005 -0.031281486 -0.014008212 -0.004138804 -0.015056167 0.09470664 0.07876414 0.084963866 0.08985012
doc_2 0.018622585 -0.011699248 0.06593174 -0.029378736 0.07112655 -0.0002596574 -0.011324738 -0.0056618094 0.079576455 0.076030314 -0.0069976896 0.05479141 0.067109436 -0.016276212 0.004435643 0.07068036 0.012466977 0.0011480884 -0.019842785 0.07800916 0.06686004 0.072400376 0.06537569 0.07519642 0.06151275 -0.009475796 0.05962219 0.0017982745 0.0619153 0.06556454 0.06674283 -0.012660885 0.06949521 0.07400125 0.05922657 0.06642394 -0.00092729414 0.07197665 -0.009389399 0.0051086536 -0.0021612938 0.028695477 0.007591181 0.061567474 0.06494323 -0.0039058337 0.063696235 0.07051707 0.054934457 0.066733174 0.003614944 0.031507127 0.07139157 0.06913483 0.06883424 -0.005626985 0.07852956 -0.024553683 0.06733511 0.068096675 0.007373752 0.063393086 0.018711165 0.07035364 0.0792763 -0.0015674965 -0.015724966 0.06321163 0.0018092347 0.065507784 0.0041703023 -0.02005336 0.06681571 -0.016476456 0.072693914 0.0013937913 0.07185543 0.052927673 0.061794102 -0.008022772 0.041017145 -0.009112215 0.06666542 -0.008047146 -0.0054068197 0.019270688 0.072071254 0.0559358 0.06657635 0.012817541 0.059224032 0.070580244 -0.017741753 -0.004048614 0.06673924 0.062229797 0.04104539 0.027682567 0.06337359 0.072387286 -0.0028300267 -0.008100291 -0.012496216 0.06740469 0.06629464 0.07226987 0.07001636 0.07530627 -0.01860607 0.070190825 0.06750413 0.067309566 0.06962285 0.0595982 5.610194e-05 0.0700885 -0.007474598 -0.0018823831 -0.009931069 0.061295144 -0.0022749342 0.013531898 0.073650874 0.07327355 0.015732685 0.056754943 -0.015959155 -0.009654844 0.077582784 0.06591049 0.05859179 0.07913445 0.055022255 0.0676204 -0.0090959575 -0.013572338 0.070244275 0.06802189 0.06147705 0.07509446 0.066902235 0.04654513 0.025071006 0.014644235 0.07935805 0.035319164 0.06613587 0.06638573 -0.009934283 0.061538875 0.06533446 0.023003373 -0.01697775 0.07002705 0.07649914 -0.016474526 -0.012797038 -0.0068715853 0.026115792 0.013564781 0.063283995 0.061702676 -0.01638768 0.06567865 -0.016958477 0.069756724 0.06941931 -0.0073214956 0.06768659 0.06250714 0.030833673 0.06266436 0.07778755 0.071002364 -0.006265686 -0.008995717 0.02590269 0.06482617 -0.004121118 -0.004827651 0.0064912504 -0.017683728 0.075272396 0.06902063 0.07214089 -0.015274046 -0.0012526121 0.062065527 -0.005747331 -0.0133408755 0.07617934 -0.013810745 -0.005402172 -0.0024146633 -0.0062873038 0.011146364 0.07455288 0.06362301 0.06859275 0.0641171
doc_3 -0.027309755 -0.016327031 -0.039770167 0.23349153 -0.00093318895 -0.10290826 -0.036860116 -0.028987484 0.20507841 -0.0070902593 -0.0059136823 -0.03385534 0.31079867 -0.1036115 -0.10092181 -0.021773418 -0.019486846 -0.103513144 -0.014383949 0.3102198 -0.006324876 -0.026935704 -0.008198228 0.24495734 -0.03459481 -0.03727639 -0.03418528 -0.06431107 -0.010915145 0.22283757 -0.004138984 0.2660711 0.29831675 0.23371448 -0.11720221 0.21420786 -0.033414394 0.32505643 -0.0016250163 -0.00086771324 -0.10981101 -0.108611174 -0.015964111 0.29704037 -0.009885926 -0.032888025 -0.0070082135 -0.04008685 0.3099714 0.28648773 -0.008267969 -0.12589353 0.30046648 0.21580794 -0.03380725 -0.10990682 -0.00749984 -0.024165768 0.22818558 0.33072546 -0.1386895 0.2792059 -0.025691472 0.30142456 -0.03197989 -0.0128494 -0.14229922 -0.033514716 -0.12440604 0.29849383 -0.023028428 -0.006647695 0.27727076 -0.0054506026 0.2414628 -0.023203006 -0.03521127 0.23811089 -0.019874047 -0.104441315 -0.0039576255 -0.018995011 -0.035314675 -0.08924321 -0.117912926 -0.038229838 -0.0020332448 -0.0043592714 0.2875205 -0.017471422 -0.010996344 -0.028040359 -0.1014583 -0.018919209 0.22241811 -0.029050492 0.31141 -0.13786301 -0.030793965 -0.033893578 -0.010489678 -0.0252649 -0.011808319 -0.034131 -0.013850005 -0.018822094 -0.01379225 0.32795885 -0.0816269 0.2874658 0.3265766 0.30520785 -0.012143798 0.30710444 -0.005194932 -0.008789934 -0.009698622 -0.09506061 -0.088714406 -0.005089719 -0.13370712 -0.005397152 0.1790688 -0.014712982 -0.021166315 0.32270664 -0.094250195 -0.14156064 0.26873627 0.3365493 -0.006105434 -0.033976305 0.25667956 -0.007346995 -0.102067724 -0.08235769 -0.03325013 0.30041546 0.28743592 0.2653706 0.28875193 -0.13049899 -0.10701125 0.2880933 -0.006982714 -0.114004955 0.26128286 0.17700532 -0.09668938 0.29185772 -0.0060676485 -0.014784211 -0.00622195 -0.03228638 -0.0138659775 -0.037710965 -0.13607754 -0.02394209 -0.006500952 -0.039331052 -0.03243852 -0.024738995 -0.08428617 -0.016555455 -0.033584762 0.23458989 -0.0049688816 -0.1152612 0.30440247 -0.0179739 -0.13052939 0.35966337 0.32071343 -0.010871664 -0.11979464 -0.03350168 -0.112631254 0.26154146 -0.0105430335 -0.11605157 -0.102291144 -0.12898779 0.29910678 0.29691106 0.26984236 -0.025106093 -0.09966862 0.35287604 -0.029179148 -0.0992857 -0.004215341 -0.10250088 -0.0039140843 -0.10708033 -0.12977782 -0.017315554 0.31333485 0.23996471 -0.026899178 -0.006887432
doc_4 -0.008363188 -0.025044125 0.11523574 -0.031629328 0.11199393 -0.026970044 -0.03787714 -0.022407776 0.105457455 0.100218 -0.025970204 0.116120696 0.11035161 -0.036502574 -0.022512458 0.10548249 -0.03920694 -0.03192315 -0.0297713 0.11172162 0.114280604 0.10558747 0.10298627 0.11105675 0.11378151 -0.03675861 0.11270595 -0.032491647 0.120640025 0.12099094 0.12258501 -0.038895156 0.11335898 0.11111064 -0.03159126 0.10580458 -0.04693239 0.10681604 -0.033273138 -0.018882543 -0.045242224 -0.02730078 -0.023875406 0.12030159 0.11014534 -0.039989352 0.10365115 0.10757416 0.10899918 0.11231356 -0.023957506 -0.032006536 0.114111476 0.10659859 0.112766534 -0.038767003 0.11559242 -0.028267672 0.11583371 0.11776354 -0.027229037 0.119122826 -0.026276622 0.10700007 0.19915709 -0.018643381 -0.03637326 0.10808753 -0.024734892 0.10963165 -0.029634027 -0.026751965 0.108316846 -0.04303542 0.114068106 -0.025320923 0.11163075 -0.04270383 0.11849908 -0.03601844 -0.028308019 -0.023493364 0.10087007 -0.02851271 -0.045010384 -0.029412884 0.10808881 0.097081296 0.10242669 -0.0362139 0.100751944 0.10588477 -0.0393439 -0.029820144 0.10732975 0.11566223 0.116048776 -0.0293354 0.11542407 0.11622147 -0.03996705 -0.040544726 -0.026206693 0.122820936 0.10575512 0.10963014 0.11981101 0.11094239 -0.0331957 0.11531453 0.110519916 0.10960017 0.102594145 0.110196605 -0.042034607 0.110595405 -0.030649662 -0.029618131 -0.023774236 0.109618135 -0.030129636 -0.039082784 0.10242223 0.1213834 -0.032746337 0.114242636 -0.024345065 -0.031546805 0.10394348 0.111358784 0.109809265 0.11370311 0.11048124 0.11084594 -0.026812145 -0.029875375 0.10643537 0.114363454 0.10568266 0.11810625 0.10732689 -0.025262598 -0.02073341 0.066934496 0.12077607 -0.021813806 0.11666212 0.11437157 -0.04118261 0.14694476 0.10907181 -0.029165527 -0.035146285 0.10226191 0.117844135 -0.027103389 -0.025696257 -0.026093708 -0.030288594 -0.02463055 0.11185193 0.10775899 -0.022902679 0.10691123 -0.04410946 0.11377071 0.11016039 -0.044320974 0.11479925 0.11837457 -0.023193188 0.11449985 0.10874038 0.10369743 -0.022690479 -0.034394763 -0.039656747 0.11708636 -0.031111332 -0.008120544 -0.032749474 -0.031703252 0.11096303 0.12188603 0.11334605 -0.03242401 -0.030515544 0.116669714 -0.019601375 -0.020752382 0.11202471 -0.026052859 -0.018919624 -0.022665229 -0.03264004 -0.030632598 0.11648523 0.10734889 0.107644856 0.11486454
doc_5 0.09979458 0.002379234 0.1269576 -0.106570795 0.10909344 0.04130602 0.05574439 0.028934205 0.122568384 0.13299258 0.0016715224 0.09952232 0.14258263 0.06977874 0.04364277 0.12921388 0.02446879 0.015301767 -0.010803184 0.10355608 0.1242823 0.1523578 0.14018428 0.08069661 0.13768442 -0.1029582 0.09894651 0.07396001 0.10746839 0.08923038 0.10742653 -0.07915647 0.13722964 0.12150728 0.064004086 0.14127192 0.041612398 0.1737927 0.06576415 0.047998372 0.09373818 0.0785457 -0.05947305 0.10579958 0.12994793 0.026822979 0.16651326 0.13160428 0.1355873 0.1142162 0.024119342 0.036716178 0.16502124 0.17298199 0.09622713 -0.08409004 0.11418519 -0.07080665 0.119996354 0.10618078 -0.00696499 0.14618315 0.057630297 0.14134172 0.15042225 0.034896 -0.026793476 0.16496933 -0.013047148 0.1562979 0.065295085 -0.00086475915 0.14484751 0.08571426 0.12119929 0.022214035 0.15518719 -0.078590885 0.094701946 0.091999695 0.059282206 0.03274829 0.12718196 0.0058960887 0.04653224 0.13686092 0.16981703 0.14878978 0.12666512 0.036316797 0.1538457 0.15150355 -0.07872925 0.11775217 0.13056457 0.07194831 0.0547247 0.07763034 0.13697341 0.1260474 0.060376666 -0.0026739961 0.022110682 0.080994725 0.1650311 0.14497901 0.095964946 0.13559999 -0.07593373 0.15781522 0.13214 0.13639368 0.14903219 0.13340883 -0.016435891 0.10188586 0.05629953 0.017946223 0.010115738 0.14037135 0.06512719 0.04519265 0.15251265 0.11119492 0.12106362 0.089245684 0.04342218 0.04162922 0.1631683 0.11629467 0.12550516 0.12800094 0.14206417 0.1066338 -0.007915511 -0.045270965 0.15177608 0.10071876 0.16209814 0.15607686 0.13707142 0.02625498 0.019810047 -0.026790833 0.11454887 0.05243974 0.14176454 0.14076151 0.064377196 0.15428255 0.15155719 0.05099241 -0.011719921 0.14756474 0.08521929 -0.081614986 -0.012654671 0.0073058726 0.10000125 0.047362924 0.12652452 0.14731745 0.036600567 0.13660017 0.043213226 0.14590909 0.14954175 0.03846674 0.13725919 0.1128278 0.008455452 0.12837231 0.13857846 0.13102756 0.05201417 0.0046758945 -0.081949495 0.09390455 0.0522741 0.04126805 -0.08156272 0.0013425054 0.12842762 0.1085799 0.13137309 0.04621689 0.09377591 0.08103646 0.06518193 0.067196436 0.13196856 0.019179592 0.107820965 0.066823654 0.01370132 0.046391074 0.12950563 0.14640117 0.17354378 0.088263765
doc_6 0.015869003 -0.003712289 0.10435458 -0.071978875 0.074777335 -0.044305753 0.012298137 0.16105562 0.12669322 0.12573722 0.010505293 0.06433344 0.11118274 -0.01575327 0.06255244 0.13367477 -0.0011822376 -0.049433947 -0.01769976 0.07080424 0.13217786 0.12246532 0.12012236 0.082328476 0.13679244 -0.0636673 0.0846347 -0.049212433 0.0832564 0.08421546 0.10045323 -0.05600833 0.08115328 0.10409934 0.034043245 0.1199161 0.10453449 0.13188961 -0.054769997 -0.022155594 -0.012507902 0.05788798 -0.00072665093 0.09691625 0.09721965 -0.03768685 0.1318268 0.14089948 0.09050166 0.08266648 -0.050457913 -0.023908943 0.1287173 0.16514958 0.07016209 -0.076495804 0.11165707 -0.04468735 0.07542093 0.12719452 -0.07242308 0.16031866 0.09622088 0.10804894 -0.005246019 0.15546504 -0.06758182 0.13834415 -0.04821058 0.15580676 -0.025198508 -0.022693114 0.14382772 0.14872861 0.103244305 -0.038821373 0.12331141 -0.03927509 0.08667238 0.039294124 0.035300337 -0.004418966 0.11955958 0.0021445234 -0.039201517 0.11172128 0.13933858 0.12781948 0.10828324 0.21018216 0.13764478 0.13406157 -0.043202106 0.21179387 0.10514703 0.07164629 -0.023005953 0.052357677 0.123442695 0.10129436 0.03573097 -0.040211808 0.26924637 0.068294175 0.16522042 0.112953246 0.06413024 0.1236182 -0.06987486 0.15395428 0.08185167 0.12378459 0.13613544 0.10422267 -0.026291266 0.09362639 0.07883863 -0.030475693 -0.020038867 0.096087076 -0.03207224 -0.04932853 0.13377711 0.066423684 0.07602624 0.08883914 0.24098171 0.048335247 0.14855692 0.0658469 0.12114899 0.12655503 0.14596325 0.08067143 -0.036528125 -0.00956789 0.13953811 0.07331691 0.14296556 0.14235215 0.14218639 0.008980525 0.01110226 -0.038287714 0.05135212 0.12020421 0.16085662 0.1303669 -0.018025273 -0.07441184 0.12952244 0.13041484 -0.048088018 0.14285783 0.046397332 -0.05046116 -0.036354594 -0.0267548 0.044161256 0.13300605 0.12175776 0.11022016 -0.0017614751 0.10994067 0.08013787 0.15406922 0.11852389 -0.026305001 0.12238944 0.10288861 -0.044764496 0.07310141 0.107308105 0.1333417 0.010354951 -0.022301279 -0.08840124 0.048003092 -0.033787936 0.21654093 -0.029799353 -0.004831765 0.08432101 0.08339577 0.12528042 -0.039462216 0.09098016 0.07704561 0.050165437 0.17360333 0.15208259 -0.017983014 0.111106075 0.09585222 -0.05015551 0.08122444 0.09915106 0.14146036 0.12681846 0.04934436
doc_7 -0.0385548 -0.0135902865 0.17397763 -0.04766463 0.15057003 -0.015021546 -0.004397774 -0.05604621 0.14961426 0.16984713 -0.007961315 0.17157263 0.16615695 -0.025839476 -0.002954321 0.15041707 -0.04454611 -0.009219239 0.0040963297 0.15742481 0.13294813 0.14180571 0.11355117 0.14572063 0.17685874 -0.03622267 0.17427869 -0.029775038 0.17733929 0.17950466 0.17574391 -0.042705648 0.1624468 0.14320964 -0.12556969 0.14207079 -0.0028288406 0.13948965 0.009316139 -0.01332067 -0.040720962 -0.031137787 -0.040021107 0.17056441 0.15469691 -0.024242338 0.13248813 0.115877874 0.14156461 0.14586607 -0.02842388 0.0033123223 0.14402202 0.13837607 0.1615931 -0.038013175 0.15640256 -0.028670512 0.17957284 0.17713965 -0.0028297678 0.13468029 -0.025645018 0.13812342 0.24104883 0.009674368 -0.046911694 0.14568794 -0.01620685 0.15932204 -0.011577648 -0.010524026 0.13564453 -0.06424058 0.156744 -0.052915387 0.16679522 -0.019511815 0.13188235 -0.0038720425 -0.0069395257 -0.02542948 0.1532598 -0.011412451 -0.01668153 -0.027802676 0.14244835 0.13115504 0.14543568 -0.020390416 0.1391493 0.14384997 -0.019613974 -0.026464723 0.13283835 0.15580972 0.16882843 -0.03300132 0.15145594 0.14901163 -0.036639135 -0.041787863 -0.06499559 0.1702511 0.13510703 0.14475444 0.16021489 0.13980596 -0.026249683 0.144477 0.15784931 0.14149499 0.13670412 0.14385402 -0.06167654 0.15950543 -0.03784669 -0.006795048 0.006638681 0.16023406 -0.007351905 -0.024124082 0.1351193 0.16353936 -0.028856102 0.15932053 -0.014194616 0.0045655435 0.15243211 0.17268686 0.16764845 0.15684777 0.14248395 0.16903391 -0.024137463 -0.042719547 0.136893 0.18156707 0.13139978 0.13818581 0.14870971 -0.04719715 -0.029956942 0.0017214268 0.15118843 -0.010753132 0.14277057 0.12363922 -0.014242484 0.17748043 0.1470316 -0.013809836 -0.029593535 0.13367483 0.17482835 -0.014935795 -0.023916993 -0.011784893 -0.004765737 -0.0152811585 0.15946406 0.16635692 0.0009876522 0.13639852 -0.008860428 0.15601891 0.14717218 -0.083318435 0.15778436 0.15749839 -0.0280882 0.1568964 0.154313 0.14521852 -0.020485116 -0.014908177 -0.016896125 0.16248073 -0.01733933 -0.01960688 -0.04963984 -0.053498715 0.16024612 0.1534685 0.15185274 -0.031303503 -0.04348481 0.19080815 -0.014343248 -0.015435353 0.13699542 -0.0028352244 -0.06424001 -0.0049719512 -0.0010447972 -0.0073446436 0.17736557 0.14928299 0.14045282 0.16282791
doc_8 0.16289636 0.11600658 -0.06406494 -0.032650106 -0.07541138 0.11850968 0.07311054 0.16145393 -0.05677593 -0.07364351 0.17404833 -0.08023781 -0.082076795 0.14646477 0.08038421 -0.059752997 0.16945103 0.15544337 0.13076428 -0.067594744 -0.07237568 -0.060437903 -0.06203579 -0.077542245 -0.06560048 0.01223506 -0.06701488 0.14343321 -0.084044755 -0.07975992 -0.082509555 -0.046910197 -0.064292304 -0.06668359 0.07475754 -0.0626195 0.15082136 -0.0553224 0.13304915 0.16211905 0.1559675 0.15162191 0.15383878 -0.07274887 -0.054783497 0.15350914 -0.04484722 -0.07034083 -0.07981391 -0.0813994 0.17479406 0.13556425 -0.041580297 -0.04917784 -0.06842183 -0.03278098 -0.07289625 -0.040581033 -0.085257374 -0.05898929 0.14097518 -0.09336612 0.09263031 -0.072848246 0.004227034 0.18530355 0.13479333 -0.0546979 0.15655968 -0.056058414 0.13670477 0.14245957 -0.0604476 0.12616697 -0.06794588 0.15247935 -0.05243274 -0.037773058 -0.09057245 0.14239529 0.14836493 0.15988433 -0.06616716 0.17642473 0.15254703 0.18510753 -0.06989852 -0.07472848 -0.07552423 0.15831995 -0.062439468 -0.07347403 -0.039775014 0.18576084 -0.06652597 -0.09163442 -0.055019274 0.13732542 -0.06164238 -0.075924486 0.14537457 0.12922138 0.14831235 -0.087369524 -0.06872316 -0.073547296 -0.07999962 -0.071876325 -0.02914841 -0.083269045 -0.055912677 -0.06535547 -0.05775999 -0.07221371 0.150216 -0.062490445 0.12938696 0.15432727 0.14059475 -0.04447017 0.14893909 0.13576414 -0.055087868 -0.0796343 0.17053752 -0.08241338 0.17855075 0.15876696 -0.06975868 -0.07620383 -0.073791526 -0.06259148 -0.060635075 -0.08023044 0.12866737 0.13184553 -0.08116558 -0.072136894 -0.051251877 -0.068175495 -0.066332646 0.1482564 0.14347678 -0.023827251 -0.077773124 0.16763133 -0.07006667 -0.06049241 0.16549039 0.012268645 -0.07329578 0.16945748 0.15620345 -0.048864126 -0.087045886 0.12587251 0.16115315 0.16615863 0.15039746 0.14706276 -0.06686709 -0.079279184 0.14680868 -0.0609352 0.1584082 -0.06375277 -0.06749437 0.13999656 -0.05047103 -0.07917915 0.1272849 -0.085677534 -0.069958664 -0.06642412 0.16687065 0.10772377 -0.034371383 -0.066938244 0.1590448 0.1564482 -0.04170237 0.16029033 -0.066249035 -0.06805626 -0.052372172 0.15318292 0.14056355 -0.070338584 0.14440794 0.13483386 -0.0542457 0.1352204 0.16378158 0.16001023 0.15055273 0.17305787 -0.06660065 -0.051336236 -0.068302445 -0.05109201
doc_9 -0.033490103 -0.039283626 0.10540725 -0.047958594 0.11310193 -0.03421147 -0.044454526 -0.04338383 0.11494933 0.103052616 -0.0294411 0.101733066 0.098552406 -0.04388676 -0.049484722 0.11578811 -0.03998413 -0.039949566 -0.03884939 0.10213621 0.11526061 0.11099318 0.10989235 0.11068539 0.107296236 -0.028745355 0.1132042 -0.04150592 0.10556538 0.11246781 0.112195954 -0.030459767 0.096575916 0.11149949 -0.02838483 0.107728854 -0.03503799 0.11496709 -0.037946627 -0.044717062 0.09995723 -0.06406328 -0.036786266 0.11625711 0.11021844 -0.043154363 0.11668448 0.11038774 0.10731477 0.11452879 -0.0371916 -0.04327935 0.110762686 0.10746579 0.11376041 -0.033109717 0.12098365 -0.040703535 0.10989379 0.10429751 -0.045814145 0.111202665 -0.04913537 0.110961914 0.014071585 -0.06378401 -0.036027085 0.09710015 -0.043835916 0.11842316 -0.03511497 -0.029214455 0.09868765 -0.0076697185 0.10575384 -0.038668767 0.111796685 -0.037821446 0.11685137 -0.042138617 -0.043303423 -0.026572825 0.113093436 -0.04291619 -0.038672768 -0.06569286 0.102874815 0.106712386 0.11957597 -0.041605886 0.103486426 0.10944325 -0.03364742 -0.07160026 0.11425714 0.11027621 0.083904676 -0.02930778 0.113334216 0.10954613 -0.014525058 -0.037029993 -0.0506545 0.10074007 0.10535016 0.109570935 0.1014472 0.11327189 -0.035099182 0.11043295 0.107228614 0.110268824 0.101803884 0.10702438 -0.042836495 0.11023706 -0.069828965 -0.039525248 -0.04075282 0.098552376 -0.039250698 -0.040628415 0.10353093 0.1066256 -0.049202878 0.10350376 -0.0522534 -0.044409916 0.11174091 0.100178525 0.09291048 0.12043307 0.116742305 0.12002698 -0.04330809 -0.033597663 0.10846895 0.12315421 0.111280695 0.10632281 0.11235832 -0.041955587 -0.03530084 -0.02805766 0.11109893 -0.040635455 0.10387617 0.11327806 -0.027931046 0.04094499 0.112222895 -0.06586045 -0.033258278 0.102223 0.09958767 -0.045897607 -0.038258545 -0.03675703 -0.049227275 -0.045769233 0.10597527 0.09872273 -0.06807778 0.11208498 -0.03676453 0.115822025 0.105599895 -0.03170573 0.11926434 0.1050688 -0.03686902 0.11559755 0.10955188 0.11187734 -0.055077545 -0.041608226 -0.03450696 0.10341025 -0.03851988 -0.04015204 -0.03663874 -0.03726733 0.10332832 0.1137544 0.104874834 -0.042048626 -0.07454406 0.10188244 -0.05114302 -0.060371388 0.1003139 -0.037739284 -0.04314725 -0.03796029 -0.037089594 -0.07061885 0.097457126 0.109777376 0.11427669 0.09933261
doc_10 0.1543727 0.035034884 0.09414234 -0.07169861 0.05227189 0.07184141 0.074221045 0.16240288 0.06412454 0.07952914 0.086743824 0.08240418 0.09240906 0.12921971 0.09077029 0.054947477 0.07120482 0.0735681 0.050386243 0.06876955 0.07341106 0.09590498 0.063907735 0.08393763 0.07672583 -0.04258005 0.08272994 0.13434687 0.086369514 0.0603869 0.0707274 -0.057849403 0.062101442 0.067352585 0.09859076 0.06027431 0.11660197 0.059883304 0.15345874 0.11873634 0.054348186 0.089364834 0.0728111 0.092056595 0.06830107 0.012832395 0.062600985 0.08143326 0.054994058 0.09822806 0.07975571 0.08853753 0.08765465 0.114030205 0.07848095 -0.057391126 0.06240323 -0.05251475 0.06433487 0.090792 0.10312725 0.06767981 0.103183284 0.070515566 0.12089258 0.12559037 0.07144774 0.08710953 0.12621027 0.07526186 0.037130166 0.114366114 0.07247785 0.17443691 0.07174183 0.05456591 0.102369204 -0.065185644 0.077894405 0.104167834 0.098620385 0.12490374 0.060343474 0.093240745 0.05704815 0.1502872 0.063953206 0.050264463 0.10527053 0.14370795 0.0929829 0.06798319 -0.057492673 0.1310903 0.09391993 0.068919994 0.061346952 0.079572566 0.0547988 0.07653325 0.01826099 0.043164104 0.09381462 0.05922791 0.08744906 0.061057117 0.06308948 0.06872848 -0.06869192 0.07034174 0.0699348 0.06663891 0.09961754 0.09580164 0.054213166 0.0656596 0.15072124 0.0027095417 0.06905664 0.04519303 0.14308095 0.07924354 0.08051414 0.07114178 0.1086484 0.077730894 0.1018204 0.13685976 0.085799485 0.04690428 0.07044515 0.04252488 0.079658516 0.06879677 0.08747437 0.0776062 0.100956455 0.04046378 0.08107018 0.07171923 0.07423084 0.10368211 0.05112802 -0.080867104 0.07463634 0.078795284 0.08270866 0.081413865 -0.0005838047 0.16007672 0.07700705 0.104556486 0.11733072 0.067472294 0.034654003 -0.022600679 0.08325547 0.12518224 0.15279576 0.16501388 0.06265489 0.10656011 0.10212338 0.11081939 0.1609817 0.07472251 0.06740639 0.11310571 0.090779096 0.08781851 0.056174695 0.08462584 0.10592308 0.07635179 0.14184344 0.14243789 -0.08528607 0.082503356 0.12301643 0.14657322 -0.07103354 0.087965116 0.08507748 0.07374417 0.098610975 0.04364409 0.13847837 0.098792896 0.15889995 0.122088976 0.0870297 0.087035894 0.08977566 0.08415525 0.099959865 0.08670807 0.082853824 0.08229799 0.072610125 0.062128086
doc_11 0.30742028 0.25621775 -0.21055424 -0.052934717 -0.18554495 0.29491982 0.26871988 0.36693597 -0.2061248 -0.20850876 0.25648805 -0.21200083 -0.23294672 0.3297838 0.36199424 -0.20671837 0.32906044 0.19092262 0.33682156 -0.21558736 -0.20139125 -0.21802363 -0.21858846 -0.19638547 -0.19190088 -0.07475593 -0.19677992 0.13119763 -0.19119887 -0.20617123 -0.1899006 -0.061947405 -0.2097984 -0.18952249 0.10176145 -0.20892717 0.3272074 -0.18537712 0.23982595 0.34441373 0.27936086 0.19829588 0.11950151 -0.19209905 -0.20890875 0.22287378 -0.19128847 -0.21513239 -0.20778663 -0.22004268 0.2957938 0.14507188 -0.22246057 -0.20396937 -0.20062676 -0.011708925 -0.21552181 0.18959695 -0.20242561 -0.20006132 0.036783207 -0.20394765 0.29912847 -0.21493712 0.11340898 0.36235464 0.086335994 -0.19693556 0.08317457 -0.21236756 0.28333798 0.13218872 -0.19924758 0.09067459 -0.22195129 0.2980122 -0.20512378 -0.048689455 -0.18404087 0.096030265 0.27207476 0.32209882 -0.21652384 0.08798527 0.16158994 0.23866035 -0.20064068 -0.20015728 -0.21096933 0.36482677 -0.1909459 -0.21391223 -0.047403958 0.3276707 -0.21635865 -0.20231587 -0.1949055 0.13036141 -0.21292256 -0.21432744 0.117506 0.30924657 0.33982414 -0.20089671 -0.20821698 -0.19692786 -0.21070303 -0.2179026 -0.042934157 -0.19581172 -0.2052072 -0.21303077 -0.22588916 -0.21546131 0.26282844 -0.20240681 0.32461232 0.22254828 0.09053207 -0.20416865 0.23526907 0.2856043 -0.2118388 -0.21139213 0.3261695 -0.19796525 0.3676546 0.34598053 -0.22072604 -0.2149207 -0.2097762 -0.19842163 -0.2102823 -0.20685355 0.32679462 0.13587075 -0.20244248 -0.21190159 -0.20558447 -0.21882714 -0.21180609 0.28528255 0.22464418 0.19752233 -0.20193754 0.32227668 -0.19913091 -0.20867285 0.2506565 0.19090503 -0.19037057 0.12112857 0.098146 -0.20143595 -0.18823421 0.030882109 0.20347126 0.11552293 0.3604115 0.34335917 -0.20803764 -0.2116396 0.28840026 -0.20458382 0.31205657 -0.20779103 -0.19971399 0.27629453 -0.18427081 -0.20101303 0.36253643 -0.20162657 -0.21019514 -0.21048771 0.2592819 0.052516438 -0.04978027 -0.19090126 0.22981082 0.37505782 -0.042300083 0.2365556 -0.20268583 -0.2106596 -0.19488196 0.31222296 0.33213678 -0.21268931 0.26384887 0.35379374 -0.21808717 0.30351526 0.31406277 0.29758984 0.0853036 0.2045865 -0.20822884 -0.20115094 -0.19972149 -0.17265208
doc_12 -0.025249932 -0.0072998283 0.08751025 -0.022180652 0.0982625 -0.013440197 -0.014363663 -0.010765121 0.08047041 0.091079466 -0.02148857 0.0950205 0.08917594 -0.026956964 -0.022074785 0.08955796 -0.015813105 -0.00560631 -0.0029591075 0.09122321 0.093881465 0.07733989 0.07862669 0.09247361 0.08674268 -0.020917375 0.096818715 -0.009976562 0.090685494 0.08476339 0.08676289 -0.0015462711 0.09386878 0.08428794 -0.018264733 0.07897003 -0.011298751 0.08232594 -0.010567537 -0.015698824 0.0010144062 -0.009210464 -0.009629535 0.093715124 0.082919896 -0.019485503 0.080870345 0.08049246 0.079071335 0.08925122 -0.017412554 -0.005176041 0.084290996 0.075821824 0.09384988 -0.014386686 0.08575565 -0.019284913 0.089597024 0.08543787 -0.009149151 0.073966846 -0.027310772 0.08697313 0.11838317 -0.011445187 -0.0044707456 0.0756473 0.001689208 0.09030407 -0.011878354 -0.0023819692 0.082522005 -0.0029107593 0.07981086 -0.016198337 0.07717312 0.0018525952 0.093268685 -0.015660595 -0.030538693 -0.028280813 0.08988206 -0.0129405735 -0.0041749575 -0.020314474 0.083645314 0.08585241 0.078977674 -0.021048358 0.07289469 0.08683768 -0.011492543 -0.020864157 0.07567179 0.099304006 0.1063573 -0.006991294 0.089545004 0.086499006 -0.017439378 -0.014883114 -0.02887781 0.09435641 0.074042484 0.09341074 0.09206695 0.07790365 0.03180882 0.09014549 0.09419145 0.075216986 0.08260838 0.080880806 -0.010460797 0.091214314 -0.02237735 -0.0052914554 -0.0041306233 0.080603674 -0.0230471 -0.010669012 0.0792544 0.08316983 -0.028235171 0.08689508 -0.022066312 -0.019151255 0.07908006 0.090310365 0.08836014 0.09124705 0.08559927 0.095018834 -0.009538857 -0.0028669136 0.08028986 0.096424796 0.07708071 0.08474441 0.08489627 -0.02327211 -0.005741797 0.119416736 0.08704023 -0.020436803 0.07863993 0.08093386 -0.0018134499 0.079799384 0.087768555 -0.0131409485 0.003907838 0.069657706 0.10222381 -0.02973513 0.00050502736 -0.0037895008 -0.024559457 -0.019450523 0.083099484 0.085251175 -0.020863142 0.08159323 -0.025764687 0.084207125 0.0845941 -0.013294922 0.080510326 0.08264902 -0.01178768 0.08941689 0.080243334 0.08174481 -0.030033445 -0.016517354 -0.019618463 0.0866933 -0.00098557 -0.01781615 -0.0005133487 -0.01140257 0.09460413 0.08507661 0.08067985 -0.0070116776 -0.02441852 0.090533696 -0.01702201 -0.025218714 0.07891959 -0.012188173 -0.027396876 -0.014390894 0.0074606403 -0.019691275 0.09564256 0.083460435 0.08110088 0.10338389
doc_13 -0.016831875 -0.021828225 0.1761749 -0.10427563 0.11288003 -0.011752143 -0.05355198 -0.009733853 0.16628118 0.17233881 0.017642941 0.11340759 0.17586891 -0.007047465 -0.04108072 0.15049033 -0.01600734 -0.047708854 -0.047590934 0.12060857 0.19524816 0.18742941 0.20066765 0.16872117 0.17478043 -0.09847139 0.1478158 0.009998938 0.15886617 0.12643576 0.1800417 -0.10000804 0.15999936 0.16142803 -0.017706597 0.15993653 -0.023047576 0.17943375 -0.006533632 -0.012889658 0.005480315 -0.00852333 -0.026086167 0.12719056 0.17217664 -0.0083523365 0.20262256 0.19187075 0.16311167 0.16691943 -0.0075474028 0.02501057 0.18738475 0.19322862 0.17863533 -0.10831013 0.1562085 -0.09558572 0.16167726 0.18420845 -0.068491764 0.21023864 -0.00463141 0.15647514 0.23901255 0.021729842 -0.04705344 0.18968731 -0.022745365 0.18094167 -0.012083182 0.025532179 0.1751961 -0.04670779 0.15891248 -0.047894113 0.19246243 -0.07813782 0.16431737 0.0029515817 -0.008581789 -0.02336339 0.16640033 -0.042263854 0.012315775 -0.002653346 0.19481432 0.18810855 0.16400643 -2.0828214e-05 0.1907721 0.1740225 -0.083055645 0.01121934 0.17098673 0.10760441 0.047780056 -0.0119594205 0.17867821 0.16135272 0.011591973 -0.04149732 -0.006644763 0.07151694 0.17697299 0.17369762 0.11484696 0.18500395 -0.08895465 0.18400192 0.16004506 0.18186128 0.17522238 0.15102956 -0.033920154 0.15459959 0.003059219 0.007407377 0.0097222775 0.18243134 -0.013940206 0.007760652 0.17929277 0.1489807 0.00643767 0.13099279 0.012948911 -0.006608001 0.19399963 0.1432577 0.17885372 0.16899544 0.1896644 0.18065615 -0.026583638 -0.049183294 0.167837 0.10179145 0.19198392 0.19113638 0.17856206 -0.018769119 0.0063013956 0.28583184 0.14300296 0.03653231 0.1825067 0.16605558 0.0061764726 0.26131955 0.1857142 0.0028868886 -0.04314303 0.17539713 0.10197327 -0.1000547 -0.044584576 -0.007112866 0.0067424746 -0.0013671297 0.15535267 0.16039675 -0.01235257 0.1522718 -0.011031544 0.20534635 0.1622452 0.0029404399 0.16755857 0.18543635 -0.030713769 0.12545668 0.17604814 0.15710771 -0.00659159 -0.017285673 -0.09377881 0.10331941 -0.004734707 0.030668866 -0.095715374 -0.074867554 0.15883173 0.16610427 0.15388049 -0.015683819 0.014750178 0.08210452 -0.02404508 -0.024873976 0.17155118 -0.009518148 0.0040438497 -0.03721846 0.016124118 -0.01928702 0.1652339 0.1734635 0.18775664 0.105006434
doc_14 -0.013287653 -0.0065297624 0.075156055 -0.03193271 0.07232589 -0.008407982 -0.022297367 -0.02423606 0.07320917 0.070553824 -0.013989447 0.06743242 0.07125291 -0.021407414 -0.011076964 0.068679474 -0.028755669 -0.028365606 -0.023849053 0.06975933 0.08060374 0.07864993 0.0682405 0.07417306 0.07058786 -0.020303696 0.075840056 -0.0044709635 0.0701996 0.075838484 0.074551485 -0.020590795 0.07560847 0.07458636 -0.0049674455 0.05702562 -0.023188502 0.07490436 -0.0247454 -0.029979793 0.09867577 0.0033446737 -0.013312766 0.07741774 0.07536685 -0.016920123 0.08106086 0.06826381 0.07501065 0.07606576 -0.028057823 -0.008900173 0.083828114 0.068505816 0.07591721 -0.021657385 0.0740346 -0.024071338 0.078314364 0.0636863 -0.013035016 0.07540144 -0.015098646 0.06907075 -0.0019118157 -0.0058352994 -0.024941513 0.066147126 -0.019753417 0.07216136 -0.020786576 -0.010607635 0.070758544 0.00028199842 0.07257478 -0.012285606 0.06636999 -0.023485102 0.07822538 -0.025654793 -0.0245618 -0.016133603 0.070416585 -0.013467338 -0.020204026 -0.019574877 0.07625951 0.07687891 0.07352074 -0.025169639 0.073480375 0.081515715 -0.02674719 -0.024476754 0.07489111 0.06826018 0.05502296 -0.026624672 0.079098776 0.07963203 0.01286733 -0.021717507 -0.025804475 0.07179454 0.07732577 0.076615125 0.07261199 0.07048579 -0.008023264 0.07959261 0.07516522 0.06796783 0.06337495 0.073408455 -0.0156566 0.08430188 -0.010494648 -0.020783352 -0.027841706 0.07083814 -0.022283 -0.024748832 0.065111995 0.07461938 0.00274328 0.07215494 -0.023361392 -0.025141824 0.07127304 0.06611138 0.061883762 0.078733474 0.07605383 0.08241343 -0.028725337 -0.02157869 0.08221176 0.07876754 0.076870486 0.07703939 0.06822446 -0.025766812 -0.0016675666 -0.023464154 0.07590736 -0.017538387 0.07020121 0.07645129 -0.016558783 -0.015624053 0.07530638 -0.016219953 0.0058551016 0.07091478 0.07015519 -0.030716367 -0.026494725 -0.011557629 -0.026165722 -0.010960005 0.065927796 0.0587214 -0.0057282583 0.06603385 -0.02214238 0.07075866 0.06747221 0.002543842 0.076703675 0.078569815 0.0063750474 0.07500175 0.06752149 0.080097295 -0.020129777 -0.02607992 -0.026026174 0.068545446 -0.025038091 -0.025367167 -0.021935131 -0.010108595 0.063963786 0.07566193 0.065991364 -0.012244553 -0.02997271 0.06732081 -0.030443525 -0.015436303 0.061085045 -0.0067076045 -0.008152676 -0.020194946 -0.0116757145 -0.0050229356 0.06369004 0.077286474 0.077976905 0.06763241
doc_15 0.09285983 0.05079628 0.12091428 -0.09035696 0.110047564 0.022918327 0.06740951 0.039973512 0.13149469 0.100222185 -0.017364766 0.12406487 0.12012306 0.06171044 0.0498057 0.14743361 0.02469952 -0.01811907 0.053694528 0.075907886 0.11497525 0.11424217 0.10860331 0.09308905 0.1205978 -0.09219394 0.085511915 -0.014497637 0.1259128 0.102374636 0.09569213 -0.08282079 0.12006277 0.12879086 -0.041765977 0.14498317 0.07444876 0.14211828 0.0052048173 0.0034696744 0.13174148 0.057436347 0.03160713 0.08306161 0.11058946 -0.021727063 0.14431223 0.14302208 0.12978055 0.13347761 0.012521555 -0.033130556 0.13642742 0.124698654 0.057595078 -0.07664107 0.1379532 -0.07232117 0.09892742 0.11204968 0.030655809 0.10943902 0.04486996 0.12032378 0.04959809 0.07159648 0.005242489 0.14378811 0.063839495 0.11283496 -0.0071135545 0.07472071 0.12570313 0.09139555 0.12594104 -0.020249866 0.14025073 -0.09076949 0.10251572 0.11511663 0.055337805 0.0031688737 0.157111 0.04614318 0.008829875 0.06859325 0.12097 0.12929127 0.08510588 0.13246368 0.14495008 0.13264926 -0.06358223 0.09569431 0.13656376 0.062183145 0.07636137 -0.027849438 0.114961125 0.107455 0.004484457 -0.023892172 0.095837295 0.10352726 0.15354235 0.13870165 0.089191705 0.13675748 -0.020119708 0.14755924 0.13105698 0.1607842 0.1399496 0.14090258 0.025367972 0.14132355 0.055516724 0.0006949282 0.05501129 0.119401224 0.008713612 0.010138431 0.1319304 0.067421034 0.12251808 0.07795905 0.019416252 0.01365642 0.18170534 0.06757355 0.11852588 0.11034018 0.12808451 0.07325478 0.028007397 -0.01202081 0.14669237 0.06974347 0.18155998 0.14293823 0.12197115 0.03405301 -0.02690614 0.31021982 0.105631225 0.07527966 0.12577717 0.118064374 0.079219855 0.10190779 0.12930936 0.028287226 0.02366191 0.14475176 0.077355444 0.021344785 0.034584485 0.018999923 0.09859543 0.10943011 0.098411836 0.10344329 0.052324913 0.11190802 0.074236736 0.15481438 0.116058506 0.0019714055 0.12595056 0.12622645 0.04380173 0.08035215 0.113036156 0.092846066 0.051350378 0.124879055 -0.08863463 0.0827179 0.00458764 0.057014294 -0.063498326 -0.013633853 0.12306751 0.102383666 0.11712653 0.026431177 0.05560285 0.039713662 0.02152593 0.051822722 0.1486473 -0.0010866541 0.1050458 0.11661108 0.028499218 0.0019336839 0.114431314 0.13177125 0.13725205 0.049354702
doc_16 -0.0060934373 -0.018642591 0.096152246 -0.011529972 0.11258032 -0.016135214 -0.015289446 -0.008283582 0.07821302 0.100562066 -0.018362653 0.08967691 0.10060357 -0.017763214 -0.017440043 0.09046297 -0.02308552 -0.02394048 -0.023808526 0.10623454 0.09183167 0.08025291 0.077911004 0.09048718 0.08443969 -0.025743328 0.089119226 -0.006915369 0.091946185 0.09552366 0.09411964 -0.020508662 0.10113513 0.093846455 -0.023045478 0.08204422 -0.020746449 0.092124514 -0.026055977 -0.022289876 -0.01932292 -0.007658085 -0.023302004 0.107110836 0.08986147 -0.013797173 0.07946007 0.084174454 0.09956412 0.09436852 -0.020570766 -0.012612405 0.08690608 0.07478257 0.10225059 -0.017397635 0.09899841 0.07835967 0.11457326 0.10005714 -0.02278237 0.08538671 -0.017480262 0.08966147 0.13773571 -0.018674836 -0.020757666 0.08699643 -0.021381777 0.085966885 -0.012033006 -0.0032201158 0.08954595 -0.030186731 0.08822827 -0.023900902 0.09249062 -0.017336618 0.09435375 -0.009439075 -0.012361284 -0.016001929 0.084943205 -0.009378546 -0.017513223 -0.013239734 0.079676434 0.08605286 0.09428049 -0.023850936 0.08075503 0.08771043 -0.009061723 -0.008089777 0.09038573 0.10652957 0.104531385 -0.008059245 0.07795016 0.08287254 -0.003764587 -0.023510158 -0.0075060683 0.113043055 0.085537486 0.08795107 0.10290215 0.08936496 0.0026557995 0.09060958 0.08447781 0.088733144 0.0868305 0.08547547 -0.027106911 0.100064926 -0.017475307 -0.005605215 -0.024500856 0.09148092 -0.012770571 -0.020121003 0.080670126 0.09805253 -0.04116759 0.10958401 -0.02137977 -0.018803228 0.085153095 0.10394922 0.07697029 0.08441517 0.079009466 0.09221099 -0.025186984 -0.011884253 0.089165986 0.09863962 0.08035328 0.09067068 0.08212059 -0.019687586 -0.0104136 0.13767752 0.082306996 -0.0064562634 0.09227459 0.09447035 -0.005319665 0.1282019 0.07834878 -0.014322881 -0.026868843 0.087011635 0.0928275 -0.0147541445 -0.021556292 -0.016783264 -0.018216027 -0.018762974 0.08394543 0.0916342 -0.01999866 0.077217676 -0.013866706 0.09126264 0.085796624 -0.008155563 0.104068995 0.09332792 -0.027304081 0.096077986 0.08689686 0.09068949 -0.007850038 -0.009254272 -0.01369325 0.0884834 -0.015953131 -0.01780838 -0.012802839 -0.01699726 0.08620918 0.098686814 0.09452792 -0.02941041 -0.014487007 0.10319067 -0.018487466 -0.025078183 0.090600215 -0.018700315 -0.010585941 -0.023164906 -0.014074146 -0.023121323 0.101555675 0.0904704 0.07854258 0.10858042
doc_17 0.2331696 0.20076653 -0.0886793 -0.038542643 -0.09811203 0.22630808 0.21227734 0.23746108 -0.10057756 -0.09976608 0.21192084 -0.08660977 -0.08556105 0.20837355 0.21976654 -0.09507416 0.21326314 0.23472579 0.19695522 -0.09741243 -0.08317895 -0.07392573 -0.09054223 -0.096868 -0.0990597 -0.040230263 -0.092756346 0.23203394 -0.08715618 -0.09620918 -0.09651689 -0.030920785 -0.07945815 -0.090389326 0.20945446 -0.0882574 0.20847614 -0.08842684 0.2269938 0.23248681 0.17317909 0.21552293 0.21727015 -0.091144964 -0.09313117 0.16782604 -0.08743126 -0.08503448 -0.09729887 -0.093398646 0.2038425 0.234444 -0.080890335 -0.086798385 -0.08921174 -0.019235129 -0.08792096 -0.026273258 -0.088437974 -0.084883146 0.21081418 -0.09150236 0.22123742 -0.08690607 -0.029133137 0.23138435 0.22262469 -0.09236877 0.24187374 -0.08539587 0.15827303 0.2311266 -0.09035392 0.19638412 -0.08990742 0.23119317 -0.08868887 -0.064882144 -0.092113 0.21275653 0.19951972 0.22136763 -0.08759003 0.17520648 0.24259394 0.22716342 -0.08251828 -0.086334534 -0.084735565 0.24061263 -0.08223936 -0.09840903 -0.02245022 0.22293332 -0.101122536 -0.09206364 -0.088869445 0.21091123 -0.086971335 -0.09528369 0.18449803 0.22168717 0.22083062 -0.095570676 -0.08628917 -0.0978043 -0.093853734 -0.08704925 -0.037755556 -0.09829762 -0.09439142 -0.09025617 -0.08576543 -0.09378224 0.23566172 -0.10374964 0.22962405 0.1808333 0.22095379 -0.08641575 0.23159981 0.20870371 -0.08929179 -0.097439036 0.23756446 -0.094224826 0.22734836 0.22020099 -0.07992315 -0.097030774 -0.08393483 -0.09115228 -0.082320824 -0.09788962 0.20805795 0.20951153 -0.0871252 -0.097914174 -0.081165716 -0.079985864 -0.089978 0.23501402 0.2119035 0.008955445 -0.08614877 0.17311564 -0.08172781 -0.092493854 0.16555166 -0.03923675 -0.09019156 0.2179638 0.2369825 -0.08355643 -0.093837276 0.043124504 0.21218394 0.22162057 0.22663358 0.23464999 -0.09307499 -0.10035378 0.21360643 -0.09398968 0.23533925 -0.090570554 -0.08870098 0.22150789 -0.09033178 -0.090749204 0.16588785 -0.09985925 -0.096694626 -0.09535759 0.22301255 0.1916305 -0.04246903 -0.10514999 0.24119952 0.23190337 -0.044903252 0.2528691 -0.087013155 -0.0940507 -0.089075744 0.21823998 0.20554474 -0.09427018 0.22987346 0.22037351 -0.08677343 0.21801707 0.21275234 0.21551335 0.24133837 0.2239898 -0.106541425 -0.09288053 -0.09485822 -0.09821505
doc_18 -0.016050473 -0.014772917 0.08604448 -0.037136793 0.08788219 -0.006731701 -0.010128927 -0.026235867 0.08641052 0.0796304 -0.0051313373 0.07733888 0.080494545 -0.011497977 -0.023432197 0.0875299 -0.014802672 -0.025822002 -0.027458955 0.0796373 0.09057381 0.088722706 0.08437051 0.0856979 0.08342502 -0.029142916 0.087766096 0.010897197 0.0856083 0.08509393 0.09162347 -0.02498403 0.08059807 0.08328868 0.032697253 0.07653946 -0.016597416 0.09119275 -0.026190953 -0.03384057 0.09583101 0.0009011403 -0.023774737 0.09016124 0.088342875 -0.018250678 0.09153756 0.085366726 0.08553426 0.09122351 -0.029357623 -0.01726837 0.0923956 0.078002244 0.09071909 -0.026140966 0.08842782 -0.030053109 0.08796315 0.083739944 -0.0278843 0.08675107 -0.01362029 0.08269402 0.044227634 -0.003878974 -0.030516256 0.07651039 -0.026990509 0.08917085 -0.0010376377 0.025729403 0.08187441 0.016100742 0.081932284 -0.0145878615 0.08489561 -0.028832031 0.090208635 -0.019360363 -0.0080051385 0.009404298 0.08281659 -0.013877342 -0.015755286 -0.018664539 0.093045086 0.08732119 0.09197452 -0.024708098 0.08969888 0.09368523 -0.027358394 -0.015262052 0.085621506 0.08511524 0.070335686 -0.0042172438 0.090915956 0.08495101 0.033054203 -0.022083746 -0.015783446 0.08637201 0.08784344 0.08871039 0.08226196 0.08509999 -0.013190603 0.090797886 0.08587097 0.08369299 0.079710744 0.08433656 -0.023444725 0.09207706 -0.015552797 -0.004795588 -0.03077533 0.08127961 -0.015970323 -0.012866055 0.08004009 0.0877906 0.0030957144 0.08284327 -0.024382778 -0.017942602 0.088028066 0.077490956 0.07011167 0.090660155 0.09094103 0.095385164 -0.03389549 -0.03278521 0.093700156 0.091541216 0.089088716 0.08631324 0.08141666 -0.014140714 0.0058644637 -0.0046802503 0.08580323 -0.015389869 0.084558696 0.08674607 -0.0022666336 0.047525905 0.08613611 0.0044932254 -0.0020782722 0.079475306 0.0829977 -0.037891682 -0.029424055 -0.0064613563 -0.021720408 0.0023632199 0.08124905 0.07791038 0.015084492 0.079686694 -0.017249303 0.091051325 0.07978703 0.017401807 0.08704567 0.08175062 -0.0014589776 0.091253296 0.07995834 0.09188412 -0.00027241465 -0.027218241 -0.03351331 0.08206426 -0.023664335 -0.02029124 -0.033609074 -0.011864604 0.08370697 0.08823836 0.08248259 -0.021435324 -0.014500242 0.07550803 -0.014750378 -0.025753511 0.08042376 -0.01047937 0.0023581157 -0.01860942 -0.027248643 0.0129168965 0.07699889 0.0873399 0.09283631 0.07748159
doc_19 -0.014772638 -0.02692281 0.08844108 -0.032258764 0.092905335 -0.02680243 -0.008705696 -0.011323919 0.086451344 0.085065946 -0.02873229 0.092098534 0.09831871 -0.006967662 0.0043485314 0.09252262 -0.03162492 -0.02464457 -0.028319374 0.086684875 0.09613116 0.08997802 0.09150537 0.08675286 0.08964535 -0.0351865 0.087561 -0.021239964 0.08886504 0.08806017 0.09107225 -0.03167141 0.09067399 0.09342512 -0.01333311 0.091628596 -0.009549002 0.08818538 -0.027117766 -0.025060924 -0.0060910224 -0.019801334 -0.030246148 0.09043301 0.09185914 -0.03062259 0.0862612 0.084832154 0.0864087 0.08721413 -0.038900472 -0.026149144 0.084394336 0.084526114 0.08783318 -0.03607031 0.08785782 -0.025693282 0.091514304 0.09723646 -0.025682146 0.09594199 -0.030118097 0.08730539 0.11697239 -0.02099086 -0.02899187 0.083360344 -0.017241819 0.09017302 -0.012347963 -0.023506295 0.08755171 -0.03727464 0.09092994 -0.03244597 0.08556794 -0.028696721 0.090354115 -0.015704304 -0.004948321 -0.020375218 0.08668937 -0.027372291 -0.024565335 -0.011704627 0.0890691 0.082895756 0.08225356 -0.018135482 0.08291545 0.0930772 -0.0318276 0.0033090736 0.08696458 0.08628395 0.08335176 -0.0191861 0.08430274 0.087673 -0.02873373 -0.02874884 -0.010043979 0.08608712 0.08134615 0.09397143 0.094314605 0.088295914 -0.025802016 0.08885465 0.090128586 0.08915022 0.08608346 0.08675855 -0.036810283 0.09508002 -0.00986151 -0.028806638 -0.01978149 0.087902114 -0.012262983 -0.029373284 0.07946527 0.09413506 -0.018428035 0.09808932 -0.030762648 -0.024528619 0.08652928 0.09265227 0.07800106 0.091931015 0.0887074 0.09506243 -0.0303445 -0.0270565 0.08810517 0.09797469 0.08192931 0.08835371 0.091010526 -0.023228392 -0.02924327 0.012890156 0.09521989 0.0062588267 0.08010369 0.089450166 -0.035352007 0.02757663 0.09288211 0.0034597057 -0.022402955 0.09250196 0.08248155 -0.018844258 -0.030875508 -0.020783726 -0.014004787 -0.010702107 0.09468103 0.08504486 -0.0131910555 0.08068898 -0.030351676 0.09250683 0.09231997 -0.027297603 0.089663126 0.09066138 -0.029147249 0.09417091 0.0920762 0.08497929 -0.014781993 -0.010037243 -0.028043848 0.08777245 -0.045331735 -0.020289127 -0.024518905 -0.024023255 0.093027875 0.09482512 0.08297816 -0.03318226 0.013109976 0.084787294 -0.014813423 -0.02029045 0.09491541 -0.029733509 0.005816474 -0.025658626 -0.026528805 -0.00034909946 0.090262376 0.08830599 0.084456936 0.093962334
doc_20 0.11622966 0.114134215 -0.032362767 -0.025311068 -0.039138235 0.107812665 0.07517289 0.108759694 -0.036538877 -0.037048284 0.08659516 -0.04151559 -0.033790316 0.0927237 0.105133675 -0.040071264 0.07264725 0.0809325 0.08188865 -0.03929294 -0.028634224 -0.03154268 -0.02598437 -0.03864409 -0.03024179 -0.021441543 -0.038423054 0.115970954 -0.041887276 -0.039555266 -0.039149385 -0.022549057 -0.042453624 -0.033817023 0.121016875 -0.031778105 0.11797239 -0.027764577 0.08623725 0.13681374 0.08859857 0.13864233 0.0950571 -0.045873404 -0.02813711 0.09188888 -0.02080619 -0.029286452 -0.038534604 -0.033191524 0.12923273 0.12550253 -0.03320962 -0.033263676 -0.04211199 -0.0148586705 -0.03705793 -0.019732691 -0.0347803 -0.04144376 0.105060734 -0.023705767 0.10926837 -0.041132063 0.034096528 0.118540294 0.11338225 -0.028657693 0.108496234 -0.031113666 0.07903793 0.07301819 -0.03282923 0.009543763 -0.042395584 0.11312726 -0.031370893 -0.041313685 -0.040134054 0.11589329 0.1280839 0.1202973 -0.038886122 0.09314097 0.09451306 0.118797705 -0.03298046 -0.03383781 -0.034342676 0.13436683 -0.03441605 -0.03461672 -0.015633013 0.08347215 -0.035675116 -0.045919925 -0.053935397 0.11138952 -0.02398289 -0.037497222 0.12662493 0.08294009 0.09011231 -0.0357644 -0.02561702 -0.03606138 -0.041206803 -0.0317652 -0.019649083 -0.02901917 -0.0336723 -0.029574051 -0.03299012 -0.027172148 0.12395543 -0.033065356 0.07314649 0.085865 0.12466161 -0.036356654 0.108708926 0.13892685 -0.028921053 -0.033596367 0.1255841 -0.04779675 0.09239377 0.12074791 -0.026870698 -0.038397588 -0.04528536 -0.03182528 -0.032153554 -0.04277493 0.06348377 0.089883074 -0.027293056 -0.036467753 -0.034001276 -0.028509151 -0.038873896 0.12577942 0.12682062 0.013216784 -0.029528026 0.11723503 -0.042999715 -0.027448423 0.06671867 -0.03531775 -0.035716116 0.10442268 0.103665605 -0.02372054 -0.05347472 0.043767586 0.12345061 0.07470551 0.12606093 0.123495996 -0.03720261 -0.041399375 0.09195122 -0.02849077 0.07268595 -0.01979975 -0.036123037 0.087703034 -0.031118713 -0.028124724 0.10718704 -0.04183112 -0.019472547 -0.03175826 0.10705507 0.07508154 0.0011278735 -0.04196506 0.09900108 0.1396253 -0.019053966 0.10725656 -0.040889632 -0.030488402 -0.02847762 0.093714505 0.14075802 -0.04784701 0.07621376 0.13671836 -0.026374236 0.08032687 0.10511319 0.14405625 0.10638476 0.120382115 -0.039991293 -0.034248967 -0.04390912 -0.043484416
doc_21 0.018745068 0.014746869 0.03985224 -0.053620957 0.03839949 0.06130363 0.037720636 0.023351468 0.048207246 0.042394597 0.02124886 0.03682283 0.06707567 0.0044601182 0.028018123 0.04552213 0.036280703 0.060662936 0.012214889 0.029804613 0.055592094 0.055311117 0.087596685 0.045505315 0.049961094 -0.06529609 0.04255423 0.057114396 0.0642675 0.034454476 0.040033363 -0.056276146 0.04341947 0.038281728 0.04920841 0.06780072 0.03237104 0.07216671 0.017335868 0.00563158 -0.0006038345 0.020591069 0.055326737 0.036043163 0.036580417 0.02451349 0.06145209 0.04607399 0.01982165 0.045067392 0.04266807 0.0066769966 0.057917513 0.07627815 0.0746321 -0.056214266 0.04356543 -0.045155767 0.052403767 0.06460139 0.0067920117 0.08590843 0.04081239 0.04790044 0.19020957 0.029686207 0.045332044 0.062238544 0.017821196 0.087094225 0.053938534 0.036141608 0.048671123 -0.04268274 0.054234173 0.046757232 0.06063332 -0.03769128 0.03535652 -0.023344832 0.021652393 0.050149817 0.07112591 -0.017557124 0.025332564 0.035948023 0.08526509 0.06974044 0.07762935 0.032364413 0.05547473 0.069909565 -0.044108327 0.032755163 0.053556465 0.050353788 -0.035378836 0.0047093346 0.058429245 0.048293784 0.037469804 0.02131008 0.056953415 0.014100421 0.05630511 0.05911913 0.066910155 0.061495643 -0.05523655 0.07509769 0.04694031 0.04272692 0.060117505 0.038802974 0.03629652 0.02689136 0.03657484 0.043647468 0.017062632 0.046973504 0.016180186 0.041074693 0.0592768 0.011656906 0.037436523 0.03845676 0.034641083 0.038802885 0.06718996 0.04365628 0.06998795 0.057325505 0.060977988 0.053461626 0.01457676 0.0108866505 0.06795111 0.02284218 0.072493814 0.08572422 0.07056852 0.04191401 0.015339732 0.2769836 0.042377457 0.035577215 0.057987582 0.04427493 0.04103064 0.2044876 0.05527716 0.02886383 0.020438354 0.063525155 0.036316402 -0.04207465 0.014206579 0.030189972 0.043269947 0.034704488 0.05300834 0.03389698 0.038429398 0.059238337 0.046287965 0.0642696 0.06448803 0.03197954 0.06482408 0.056816913 0.021072093 0.026359938 0.04929424 0.034114253 0.037070185 0.024549883 -0.04893989 0.026080642 0.028575737 0.035105884 -0.05463138 0.05432537 0.039560605 0.04961987 0.046282038 -0.016909208 0.009510535 -0.014754607 0.027174333 0.03619862 0.045024205 0.026488028 0.037264314 0.0073025245 0.006230315 0.07158354 0.025815934 0.07490527 0.06287289 -0.01694838
doc_22 -0.038180597 -0.025583528 0.116104 -0.04604151 0.1130775 -0.023200134 -0.03731162 -0.04067036 0.11362224 0.104706585 -0.022632057 0.109293565 0.111182116 -0.037279915 -0.03469527 0.11057158 -0.040110946 -0.0448204 -0.0379236 0.11153295 0.12355975 0.11730488 0.108996674 0.11292866 0.1089935 -0.0342998 0.113786906 -0.024312561 0.11363582 0.11367259 0.11407928 -0.027692046 0.1102383 0.1142441 -0.006112449 0.100929834 -0.040388525 0.112667635 -0.039058253 -0.042502802 0.14708883 -0.01222349 -0.031268533 0.11566949 0.117063046 -0.035107493 0.11648029 0.1055702 0.11014097 0.117630176 -0.044575326 -0.029982518 0.12160945 0.101311825 0.1148358 -0.03832257 0.11333792 -0.03194197 0.114234 0.10016456 -0.04178737 0.11628146 -0.03889147 0.10587903 -0.004320206 -0.032103498 -0.042370114 0.10688765 -0.03609273 0.10928844 -0.03290046 -0.016749118 0.10629737 -0.014977533 0.112788945 -0.0259921 0.10615014 -0.035917737 0.11489104 -0.039596114 -0.04572332 -0.025705539 0.11242297 -0.035573304 -0.03303186 -0.044332787 0.11474484 0.11124061 0.11596559 -0.043078713 0.109638914 0.12273238 -0.03664476 -0.042678036 0.111814424 0.1100011 0.093037926 -0.031495944 0.1177889 0.11536048 -0.00010119332 -0.036478575 -0.042763837 0.10866484 0.11214697 0.11915007 0.10567482 0.11410773 -0.016559022 0.11493422 0.112247005 0.10614251 0.09957512 0.115364075 -0.033991504 0.123105496 -0.038680818 -0.034078974 -0.042363223 0.10519697 -0.036773495 -0.035773855 0.1110388 0.113139026 -0.019781848 0.109610155 -0.04066879 -0.03734165 0.10845697 0.108065635 0.097794965 0.118247025 0.122547105 0.12324759 -0.042379424 -0.035993345 0.12625669 0.114694566 0.11049628 0.11582214 0.107864544 -0.036876712 -0.015856095 -0.040984534 0.10767763 -0.034440223 0.11357052 0.11642266 -0.027958795 -0.022496112 0.111961216 -0.031553917 -0.012600339 0.10695247 0.101763666 -0.05061931 -0.0379484 -0.03174796 -0.045846425 -0.024570337 0.10839616 0.09170113 -0.03007837 0.10539146 -0.035852447 0.11766261 0.10828116 -0.015112208 0.115949914 0.1116208 -0.008593509 0.12050193 0.1063356 0.120548666 -0.043230046 -0.039191663 -0.040240046 0.1075202 -0.04142922 -0.045916878 -0.036325682 -0.03435023 0.108377874 0.11429672 0.102755085 -0.037434418 -0.047318745 0.099959135 -0.04773774 -0.03148651 0.09787268 -0.024339583 -0.030296903 -0.034499135 -0.026751934 -0.023166878 0.09678259 0.1158808 0.12297042 0.101130396
doc_23 0.010822363 0.0045913826 0.15908618 -0.10721173 0.097286806 0.019380163 -0.029815802 0.011995843 0.15277624 0.1586514 0.03998475 0.08966443 0.16207033 0.025602583 -0.006617696 0.13449925 0.015221125 -0.030412821 -0.009374027 0.102752455 0.18759322 0.18134245 0.19042534 0.15490548 0.15658501 -0.10612181 0.1334976 0.041609567 0.14627959 0.11106129 0.16434135 -0.105914995 0.15089636 0.14080435 0.014450336 0.14651425 0.017372312 0.16523688 0.024331853 0.009948233 0.017924992 0.0199685 -0.017470907 0.11311352 0.15841381 0.031737518 0.19112745 0.18032672 0.14555945 0.1519843 0.03150017 0.04454131 0.1764254 0.18758044 0.1649807 -0.11019417 0.13599873 -0.10354957 0.13763593 0.17154317 -0.052276533 0.20547663 0.025245432 0.14179033 0.26845503 0.044358596 -0.0055330596 0.17801633 0.0050947387 0.17437248 0.029753285 0.06111516 0.1560513 -0.024976846 0.1465262 -0.0112115815 0.17972356 -0.082183026 0.14225481 -0.00022411789 0.017113255 0.027628738 0.15577379 -0.011200751 0.047097314 0.03247359 0.18311118 0.17848833 0.15437254 0.0352232 0.1816299 0.16264877 -0.0878262 0.026859863 0.1492925 0.092042856 0.004574352 0.019650145 0.16277425 0.15088327 0.042424683 -0.0050584236 0.0141976895 0.047900695 0.1630771 0.1569611 0.09506692 0.17772537 -0.09370971 0.17279139 0.1457161 0.16750805 0.16106588 0.13564532 0.0021956265 0.12565772 0.026952941 0.052774243 0.029694824 0.16614984 0.019220896 0.031878795 0.1740296 0.12325846 0.028022144 0.118535124 0.053547174 0.019766789 0.18059647 0.12457665 0.16496883 0.1544898 0.17153461 0.16572767 0.008765004 -0.031459562 0.15395966 0.07839568 0.17657842 0.18290435 0.17049836 -0.004070422 0.044878468 0.31197974 0.13127212 0.06729539 0.16267352 0.15492484 0.026931537 0.29507434 0.16749455 0.021810006 -0.028092634 0.17065813 0.08321862 -0.101383604 -0.021475777 0.021349926 0.03476199 0.028303223 0.13571347 0.13627025 0.01523653 0.14293103 0.010838748 0.19440952 0.151677 0.035615202 0.15398857 0.16985373 -0.0021835454 0.11245764 0.16010371 0.14339821 0.0288562 0.009227035 -0.0978318 0.08638981 0.021914078 0.052513022 -0.100448065 -0.025696069 0.1443333 0.15386094 0.13716182 0.0030289348 0.04240768 0.06276349 0.007401269 0.012808321 0.15509109 0.023669975 0.0328157 -0.013315807 0.0480453 0.025998145 0.14555927 0.16560444 0.17550883 0.074118085
doc_24 0.062058784 -0.035192564 0.12855214 -0.07733409 0.08951767 0.008704416 0.015162034 0.019066406 0.141612 0.13425653 -0.04757401 0.1015009 0.15561771 0.0051935534 -0.0061654164 0.14764021 -0.04331459 -0.025271919 -0.043007363 0.12612918 0.14183788 0.15223946 0.15328404 0.13341929 0.14033766 -0.069322236 0.1087757 0.01026659 0.13332398 0.09738554 0.11992304 -0.06458861 0.13635455 0.15379542 -0.03599002 0.14225417 0.013271084 0.1617808 -0.037515834 -0.02203113 0.042535678 0.056634385 -0.05143675 0.12521295 0.13892056 -0.047413375 0.16037478 0.14769274 0.15317178 0.13865729 0.010230424 -0.031094177 0.15628831 0.16547221 0.11859899 -0.06093774 0.12949915 -0.0672668 0.122696675 0.12984584 -0.05953246 0.148578 0.08031998 0.14036213 0.09599556 0.020990308 -0.060512237 0.14924234 -0.035064097 0.15371537 -0.0070648957 0.034189563 0.16092065 0.14002337 0.14351271 -0.044365108 0.14586124 -0.060279824 0.11349002 0.06868706 0.012815174 -0.026212648 0.13768196 -0.0045380965 -0.020521762 0.014793566 0.13267948 0.15721366 0.15809646 0.029573932 0.17233078 0.1534638 -0.06373486 0.041043103 0.15053143 0.08202488 0.08584834 -0.06166579 0.14391178 0.12224105 0.01394128 -0.064226694 0.021719385 0.09631975 0.14608027 0.1376049 0.13204806 0.1736811 -0.056818537 0.167202 0.11881552 0.14810549 0.15529343 0.14320453 -0.054783173 0.13579737 0.014068534 -0.00885083 -0.048004728 0.14268352 -0.010313738 0.022118304 0.17650227 0.10474386 0.032615207 0.12434029 -0.037238713 -0.014617957 0.14706445 0.13049008 0.13353297 0.129842 0.14762665 0.10713971 -0.061183587 -0.06249315 0.16245545 0.104750335 0.17372401 0.13624649 0.14800718 -0.011259539 -0.02791786 -0.01787242 0.12850381 0.027339334 0.1555965 0.1452036 0.054287367 0.09323887 0.12232468 -0.0024330479 -0.04198153 0.1496728 0.08616651 -0.047086217 -0.043587662 -0.029852105 0.07655343 0.02436916 0.14414644 0.116621345 0.06292834 0.15295431 0.005965325 0.15229343 0.13249391 0.017654337 0.1459075 0.114308104 -0.033812582 0.11443792 0.14561832 0.15705232 0.020071052 0.005294597 -0.06350883 0.08360429 0.0113613885 0.06862014 -0.049349856 -0.0487344 0.11368132 0.11528962 0.13090535 -0.010785185 0.039741807 0.096247494 0.044418357 0.035021644 0.1420572 -0.030971203 0.08279456 0.037759576 -0.020098202 -0.005740534 0.116509646 0.16957785 0.16022435 0.096129596
doc_25 -0.0645006 -0.04480265 0.17827885 -0.014452347 0.18209842 -0.02606994 -0.06662787 -0.055865802 0.1668239 0.15990971 -0.055257898 0.16642779 0.1753003 -0.053088643 -0.051800452 0.15640873 -0.06880864 -0.05416944 -0.029355584 0.17662941 0.15929909 0.17272349 0.18005739 0.19105121 0.17619157 -0.05171477 0.17521271 -0.06950528 0.18149757 0.17131054 0.16911219 -0.04257377 0.15828085 0.17511845 -0.06614527 0.15104246 -0.06537931 0.15582642 -0.055430576 -0.049569365 -0.083739504 -0.056521196 -0.04762295 0.19330221 0.17655653 -0.054167226 0.16370979 0.15892886 0.16763759 0.15923227 -0.05971861 -0.019698499 0.18529545 0.16302963 0.17269933 -0.041059755 0.17346227 -0.016201744 0.18873282 0.18342721 -0.05491376 0.15867703 -0.06110465 0.1651806 0.20919088 -0.05923986 -0.06117191 0.1363046 -0.036716327 0.1820516 -0.05384903 -0.048403274 0.17274396 -0.04644449 0.1568144 -0.04811855 0.16691044 -0.029758591 0.15843785 -0.045747332 -0.09217916 -0.062461954 0.18504414 -0.049136482 -0.053289473 -0.11035663 0.17193152 0.17854781 0.17536148 -0.051691245 0.14152622 0.1715406 -0.0121751055 -0.07013442 0.17306443 0.17529742 0.16338708 -0.03584984 0.15883413 0.17501995 -0.03137233 -0.05998088 -0.09473583 0.1868571 0.16782835 0.18333578 0.18675649 0.15990087 -0.044739 0.17839883 0.16898987 0.17160025 0.16218744 0.1713789 -0.047151405 0.16955897 -0.10229889 -0.038641226 -0.05205888 0.17200023 -0.036997978 -0.059426375 0.15538001 0.17291285 -0.08747568 0.19857945 -0.06515118 -0.05323904 0.16855131 0.15711898 0.16631497 0.18285477 0.17071627 0.17752233 -0.028208083 -0.05103322 0.16747905 0.17936559 0.15803187 0.16944405 0.1945176 -0.054157123 -0.04126644 -0.005681808 0.16819088 -0.092507906 0.172944 0.17744046 -0.053557437 0.21808156 0.18273869 -0.07466712 -0.037455857 0.161629 0.1663257 -0.05060975 -0.03948564 -0.049139325 -0.09319226 -0.06264435 0.17724578 0.19037014 -0.09056392 0.1754619 -0.09189697 0.15085916 0.16894165 -0.037598517 0.16882415 0.18573529 -0.052840516 0.18519633 0.16431807 0.17074986 -0.055488624 -0.05136729 -0.03745639 0.16697377 -0.027695732 -0.074216455 -0.046401564 -0.0514023 0.17236805 0.1885698 0.16410603 -0.043979455 -0.11210171 0.1768954 -0.065488756 -0.084200636 0.17312282 -0.050938327 -0.11611236 -0.054736327 -0.0059341416 -0.07031015 0.18725124 0.16172208 0.16933902 0.17841312
doc_26 0.01793509 0.0030392748 0.113318205 -0.08044444 0.09856964 0.051878836 0.04137336 0.011724228 0.10662468 0.12443325 0.040213898 0.11684297 0.12542526 0.046910428 0.014436143 0.12488359 0.021311805 0.033382364 0.036125526 0.099575855 0.14583306 0.12961122 0.13046649 0.10322605 0.12085246 -0.08232549 0.10882376 0.057495385 0.11377383 0.13127908 0.11810328 -0.071446724 0.12198486 0.10792561 0.067379855 0.13137494 0.030058634 0.13604799 0.051743343 0.038560554 0.030969465 0.04931607 -0.014270751 0.09761954 0.13000531 0.05274567 0.1272692 0.13177596 0.11416184 0.12344359 0.047849238 0.07663893 0.13289289 0.1279397 0.1121221 -0.076819964 0.12174286 -0.05979586 0.10767199 0.12677698 -0.04426057 0.13594839 0.030117195 0.121188045 0.19313352 0.024038086 -0.014620858 0.120409645 0.013669534 0.1205214 0.02213525 0.042553578 0.14244255 0.022009268 0.1369413 0.055451654 0.12394231 -0.06444617 0.10532355 0.06632888 0.040887836 0.026054047 0.12732652 -0.00014538865 0.07122902 0.050183184 0.13511948 0.119536065 0.111167885 0.0017511938 0.14061768 0.13100451 -0.06952675 0.06653793 0.12727337 0.107845075 0.09139673 0.04287584 0.12071741 0.11551708 0.06179669 0.037449665 0.048583705 0.10817841 0.14226559 0.13164257 0.11281621 0.12270347 -0.06746532 0.13763879 0.11093937 0.13014847 0.1265449 0.11770952 0.032052845 0.12902537 0.06141023 0.042079102 0.024546232 0.1164464 0.050486475 0.029738037 0.12748303 0.10774861 0.081104256 0.10744123 0.020605803 0.054362018 0.13413952 0.07310853 0.10488793 0.112603866 0.13317288 0.11716571 0.065309875 0.0065043275 0.12547188 0.1109778 0.1400564 0.14197446 0.12650248 0.04009285 0.05996448 0.14666064 0.10920121 0.014693617 0.124949396 0.12462983 0.04689661 0.15311272 0.12979728 0.030444965 0.01551931 0.13152705 0.12630808 -0.055028513 -0.014552927 0.062919706 0.0356214 0.012902216 0.12088464 0.11166478 0.025992256 0.12681438 0.041888356 0.124218315 0.1151617 0.034141384 0.12828463 0.139046 0.0040830546 0.118054986 0.120451726 0.089154586 0.01232252 0.010648853 -0.076740794 0.098106705 0.0937304 0.05369169 -0.0732076 0.043507498 0.11457486 0.10414079 0.12348074 0.058700815 0.072652705 0.106136285 0.0343128 0.038754836 0.11951661 0.04563507 0.08051326 0.03507701 0.003992484 0.011009902 0.12501135 0.12716484 0.12800509 0.10481025
doc_27 0.03053322 -0.012669768 0.093015246 -0.03635674 0.10066124 -0.007025613 0.061586946 0.043827157 0.099920385 0.09084447 0.007651295 0.093043715 0.09712168 0.029084092 0.010199404 0.096523546 -3.8486323e-05 -0.026482886 -0.028205013 0.08907924 0.093344525 0.09554998 0.09394796 0.10222017 0.09642343 -0.031939477 0.09398755 0.012454881 0.08528693 0.08767146 0.09279879 -0.029852793 0.10112947 0.09434942 0.049785744 0.09398312 0.023367535 0.10052808 -0.013644804 0.010810277 0.035089947 0.037472725 -0.026240773 0.09800877 0.09128242 -0.013828567 0.089703806 0.0911566 0.09642084 0.082679056 0.0020448503 -0.017849779 0.08794387 0.088511035 0.08753454 -0.032058544 0.10255504 -0.0243729 0.09087992 0.092845626 -0.027809815 0.094307 0.00014049816 0.08802965 0.08580303 -0.012580916 -0.026635155 0.08006753 -0.018833257 0.094019845 0.025937902 -0.022742469 0.09430716 0.03071817 0.10082785 -0.0149848405 0.0882684 -0.03230149 0.09877604 0.020653335 0.05626554 -0.013893539 0.09800974 -0.026261566 -0.010812997 -0.0042054546 0.09030782 0.07843264 0.098864034 0.008070858 0.09282592 0.09559153 -0.033506893 0.017874064 0.09291202 0.097911604 0.08787271 0.041045755 0.09407139 0.08647454 0.016100833 0.05398784 0.043029487 0.09328082 0.0825881 0.09505697 0.095533386 0.09019955 -0.015986051 0.09530815 0.08944358 0.098714694 0.08935548 0.091817655 -0.018588597 0.10115376 0.012291746 0.008505423 -0.024009869 0.09608151 0.03577419 -0.004601812 0.088876404 0.09629536 0.03985311 0.09759727 -0.013052731 -0.00834702 0.08557496 0.09555573 0.09747536 0.09451786 0.092822455 0.08835661 -0.008686252 -0.02303762 0.09677674 0.09646062 0.085200936 0.09486438 0.09347583 -0.013968037 0.024536682 -0.014838713 0.09143515 0.020577587 0.08725083 0.09683082 -0.0124142375 -0.0028189868 0.09144557 0.057161495 -0.004321514 0.09431993 0.0924928 -0.028683262 -0.021032017 -0.015179275 0.026649809 0.010754694 0.09050627 0.09309064 0.01788733 0.08574778 0.027078934 0.08996381 0.09296345 0.017674427 0.09666742 0.09538827 -0.024139825 0.102545395 0.08938501 0.098394714 0.011367889 0.03599734 -0.017680697 0.09778705 0.01777125 -0.013646798 -0.02032053 -0.0061022723 0.10259355 0.099768125 0.08215337 -0.014116319 0.026596049 0.0903311 0.019740487 -0.007873069 0.08665943 -0.019472979 0.056383863 -0.015042423 -0.0164247 0.028099313 0.091196276 0.09436203 0.08562904 0.095223404
doc_28 0.0035541987 -0.026252652 0.10583129 -0.028453842 0.10535422 -0.005141948 -0.030303933 0.0050003235 0.08999432 0.06858686 -0.012745991 0.075318664 0.09503285 0.012512713 -0.015881991 0.08842136 -0.00088848546 0.015900375 -0.01892617 0.09989451 0.095962174 0.10487877 0.08898406 0.099365845 0.09584004 -0.028757673 0.10877968 0.004523561 0.098146625 0.098739944 0.0904741 -0.034219947 0.09965051 0.10262095 -0.023338905 0.098628044 0.009347314 0.11534887 -0.020022623 0.018867042 -0.02038918 0.010733807 -0.008546071 0.1082936 0.09516403 -0.014019128 0.103160776 0.0960202 0.092680395 0.08862525 0.0065993117 0.015717769 0.10143682 0.102718756 0.10984857 -0.037427507 0.08215421 -0.02875936 0.09727655 0.11443953 -0.023822863 0.106872484 -0.006349409 0.09611805 0.19150418 -0.011747027 -0.0010970831 0.088222995 -0.012735568 0.12070206 0.005360307 -0.018787723 0.11460417 -0.021081809 0.0817619 -0.004283001 0.104237184 -0.01636919 0.082227826 -0.026448056 -0.030143335 0.0027523758 0.09808345 -0.006030239 3.4676865e-05 0.024210386 0.08980241 0.104227945 0.097458765 0.022490269 0.10289922 0.095443234 -0.005092861 0.020632345 0.091772035 0.094933026 0.11055952 0.00202407 0.09801872 0.09963691 -0.012990681 -0.025209814 -0.016559478 0.08724815 0.09870572 0.10240333 0.09908294 0.093875974 -0.03151191 0.092185706 0.09844701 0.08781029 0.09829498 0.11146808 -0.017291091 0.09487659 0.015935143 -0.005076336 -0.018047558 0.09263159 0.0011764192 0.00069972407 0.086483955 0.089300215 0.0109655 0.096532695 -0.0062168045 -0.004623495 0.09827313 0.074978255 0.09695795 0.097903475 0.088774346 0.09690247 5.249586e-05 -0.013303905 0.084442586 0.10359483 0.090521336 0.094958216 0.114815675 -0.0044883895 -0.0025354186 0.0930808 0.099785775 0.013789156 0.087989435 0.09680917 0.021465175 0.15694195 0.10205603 0.0216661 -0.0072132796 0.102293245 0.10123291 -0.045243513 -0.0042068944 -0.0022695276 0.024774436 0.0036299007 0.11725744 0.09435494 -0.020002766 0.08989055 -0.0025443584 0.09204705 0.1057208 -0.031927112 0.10204709 0.10223786 -0.016369842 0.109527424 0.08840783 0.10534749 0.0031269365 -0.04170669 -0.027192216 0.09546542 -0.032185417 0.04831543 -0.02958346 -0.0021496261 0.09017881 0.09499381 0.09852562 -0.016959436 0.016765807 0.10391195 -0.005332168 -0.020525543 0.089756444 0.0011291229 0.0050182096 0.014133577 -0.010274728 0.023298882 0.10073888 0.09544889 0.10082773 0.11868149
doc_29 -0.065275505 -0.031889003 0.11146995 -0.019719087 0.097721726 -0.028229607 -0.03980518 -0.057900365 0.101736285 0.10247949 -0.040065397 0.10811041 0.11615902 -0.041181393 -0.030605508 0.10965227 -0.044058237 -0.03000978 -0.028912744 0.108234264 0.10631186 0.097024545 0.096608154 0.10752044 0.105849154 -0.028942876 0.11369278 -0.04166958 0.10820919 0.098568544 0.09326263 -0.009686584 0.105630465 0.10789492 -0.05343581 0.08952141 -0.051485848 0.10457731 -0.042565893 -0.036478855 -0.051896468 -0.040540457 -0.031144055 0.11084333 0.106921785 -0.05570063 0.09642421 0.09848072 0.10287807 0.10421157 -0.033037107 -0.04245236 0.10544666 0.09638819 0.11276821 -0.021044357 0.10729729 -0.020632133 0.106190555 0.11139986 -0.026629206 0.09255009 -0.04274668 0.10423879 0.15424587 -0.046356868 -0.023613049 0.09225503 -0.032714494 0.09901314 -0.043762047 -0.035194255 0.09190631 -0.048024323 0.09512611 -0.04274083 0.09604087 -0.0093811015 0.10006603 -0.04408926 -0.047482822 -0.054626413 0.09896138 -0.031562682 -0.045923773 -0.051235393 0.09684948 0.10702515 0.10058966 -0.061927933 0.10004539 0.097745195 -0.011339474 -0.053924154 0.10446835 0.10769063 0.103459224 -0.059166368 0.09027388 0.100778796 -0.054275922 -0.050063845 -0.052190315 0.09709933 0.09478614 0.10515475 0.09754557 0.10173492 -0.00053727394 0.100007586 0.10353268 0.08912922 0.09962084 0.092295766 -0.03703655 0.11055531 -0.039038178 -0.031510733 -0.03228806 0.106762104 -0.051110823 -0.035113137 0.098475516 0.09598036 -0.047018543 0.10527445 -0.038036365 -0.04834292 0.101979405 0.107803084 0.101624124 0.09789253 0.09328516 0.10300805 -0.051591083 -0.035670675 0.09966712 0.09750183 0.10023256 0.0992694 0.10033206 -0.04950526 -0.047000937 0.095690675 0.11154466 -0.040581323 0.09567345 0.11046324 -0.034279745 0.1260517 0.103129 -0.05962999 -0.029825404 0.09733111 0.10380379 -0.038848564 -0.0330515 -0.027277296 -0.05754554 -0.05372961 0.093256965 0.103934735 -0.0380973 0.09290337 -0.041346792 0.088557094 0.104234725 -0.03697726 0.10207288 0.10863576 -0.03046829 0.11291798 0.09354821 0.09517852 -0.056454666 -0.028192736 -0.024135748 0.100341536 -0.05727079 -0.028310953 -0.011567883 -0.041517723 0.10714384 0.10693827 0.10457363 -0.036358383 -0.055344284 0.10654324 -0.05902001 -0.047613505 0.08571212 -0.044146713 -0.049047586 -0.042401172 -0.034272093 -0.07071724 0.10335806 0.09742012 0.098721154 0.103042625
doc_30 0.035999794 0.01645603 0.07219988 -0.06431552 0.03636304 0.023522396 0.11833541 0.05256481 0.08718967 0.084041335 0.043452576 0.05992809 0.092297964 0.02630188 0.080209166 0.0832269 0.01954816 0.01940411 0.012930644 0.026829157 0.08480471 0.08966749 0.09824605 0.05483909 0.081171036 -0.06508336 0.056526974 0.07230468 0.079908885 0.06428528 0.039622635 -0.05857057 0.060612567 0.09487468 0.14527513 0.08285769 0.072565876 0.10618976 -0.0057590003 0.048808333 0.13303056 0.013910618 -0.02695384 0.04488689 0.058911283 -0.017345931 0.10969108 0.097237825 0.07190697 0.07400362 -0.0010649529 -0.008066824 0.10379489 0.10746747 0.071980566 -0.060600277 0.07630091 -0.04744218 0.04973544 0.05224139 -0.06562744 0.108959 0.058647837 0.08163419 0.04387018 0.04302191 -0.02635583 0.10168441 -0.024375912 0.035995413 0.036245048 -0.010950899 0.092560984 0.04829309 0.06889749 0.03883538 0.06452986 -0.074853815 0.06792753 0.018990455 0.050464224 0.005731291 0.093373016 -0.05359385 0.0410522 0.045305405 0.11987834 0.082104355 0.07745698 0.029265156 0.097405724 0.10048346 -0.056702465 0.117901534 0.0717804 0.030172825 0.05175761 -0.017089874 0.07737707 0.047607455 -0.028301965 0.04352045 0.10491564 0.02848625 0.09016035 0.041876394 0.017845554 0.11888055 -0.061501015 0.10677668 0.05330163 0.083734505 0.08877308 0.0801479 0.017117755 0.076615095 0.12375121 -0.010130304 -0.033326708 0.07190949 0.039134417 0.028393574 0.10790124 0.050900914 0.10489787 0.047072574 0.067358546 0.0436039 0.11114332 0.08010417 0.051053975 0.03680937 0.08376938 0.07105117 -0.031007858 -0.033809625 0.093922734 0.06213137 0.10181912 0.09015489 0.10604025 0.03988129 0.0069145802 0.04810709 0.054485798 0.06512298 0.112655096 0.07515407 0.005206127 0.11782723 0.10949685 0.09353011 0.012303522 0.11459809 0.03314288 -0.057784624 -0.036661536 -0.03429307 0.082128674 0.017719049 0.068913385 0.03151892 0.039983124 0.06412263 0.03366569 0.10192097 0.07087973 -0.021787802 0.08149827 0.07242651 -0.009147111 0.03021262 0.085997105 0.0697615 0.015469248 -0.048794903 -0.06301481 0.026995959 0.08303014 0.029790597 -0.05725171 0.0646045 0.0436543 0.09625018 0.05659255 0.07330389 0.0857787 0.029837802 0.028753757 0.059021022 0.09497178 0.05958689 0.1018339 0.118532196 -0.0055363337 0.018241523 0.0348555 0.09960219 0.12274008 0.028916426
doc_31 -0.031877555 -0.017844949 0.09544784 -0.029274441 0.09484834 -0.019953895 -0.017677521 -0.02767861 0.08973417 0.08518872 -0.021531045 0.08787467 0.0863178 -0.011214686 -0.009520651 0.08712056 -0.022937631 -0.02419698 -0.018307198 0.09512374 0.0878658 0.089961156 0.08035705 0.09082961 0.088328436 -0.024788298 0.096582755 -0.015575325 0.08872611 0.09411583 0.09201871 -0.025713481 0.08776915 0.08333168 -0.028573928 0.0941717 -0.017683439 0.08586559 -0.017958658 -0.015065978 -0.013214548 -0.02054448 -0.03261907 0.09775778 0.09000928 -0.02353485 0.08008431 0.0794147 0.08166814 0.08680621 -0.013052771 -0.016542723 0.08932851 0.08632071 0.09058447 -0.02901698 0.09119952 -0.015112658 0.09282562 0.0927503 -0.018404026 0.083190694 -0.014649551 0.09128948 0.142237 -0.02003439 -0.029512422 0.09045782 -0.020206198 0.09138242 -0.016444374 -0.012778036 0.08597732 -0.03862528 0.090539545 -0.039254047 0.08630927 -0.020333515 0.08280122 -0.017186109 -0.019454367 -0.022038989 0.087572694 -0.025315892 -0.023659186 -0.014126951 0.08125781 0.08718735 0.09338073 -0.006558162 0.08574473 0.08260576 -0.014741367 -0.013740391 0.087128185 0.09407295 0.093538046 -0.02447574 0.08575618 0.09392723 -0.021944277 -0.029065553 -0.02567267 0.09452258 0.079695016 0.0923689 0.09120209 0.081011884 -0.023806961 0.085458875 0.08994381 0.08534804 0.082394704 0.08613145 -0.032914776 0.090836346 -0.01841088 -0.02778961 -0.012967877 0.08627453 -0.01795691 -0.021872677 0.08230517 0.09197929 -0.014514266 0.09212101 -0.015002275 -0.0166545 0.08555304 0.091077514 0.08743288 0.08692354 0.080260545 0.09331286 -0.023672268 -0.03140959 0.08664465 0.09605755 0.08506814 0.08736479 0.09116192 -0.023062458 -0.024568865 0.038280975 0.08643933 -0.016588034 0.08538252 0.08548576 -0.022571938 0.10377994 0.089115225 -0.018635325 -0.021372939 0.08457688 0.09531762 -0.020644292 -0.018342778 -0.019243088 -0.025462711 -0.011279728 0.08617375 0.09288965 -0.01801136 0.091231294 -0.0189499 0.080225505 0.08234773 -0.022957996 0.09087978 0.09431953 -0.01715709 0.093460016 0.08360506 0.093435764 -0.019915836 -0.022876002 -0.027871765 0.09028033 -0.01841365 -0.014707847 -0.026004037 -0.03245588 0.10029852 0.088969536 0.08570006 -0.021364663 -0.0184424 0.093183525 -0.010747424 -0.017285747 0.0776441 -0.015283357 -0.028787132 -0.00755391 -0.015850682 -0.013506248 0.08852184 0.08340369 0.085442156 0.09220889
doc_32 -0.01924658 -0.033958185 0.12993573 -0.03700771 0.13959305 -0.023015637 -0.021893356 -0.035217308 0.12285635 0.12368603 -0.03305219 0.12928407 0.13472103 0.014530042 -0.0139356945 0.12864055 -0.0061001135 -0.033304304 0.0067800586 0.13764456 0.13346581 0.13225657 0.12528132 0.11705056 0.13177885 -0.03358177 0.12947789 -0.022494975 0.14071666 0.13867216 0.1351583 -0.02498569 0.14224514 0.1271627 -0.018739644 0.12915544 -0.034203675 0.12087108 -0.04193077 -0.017586151 -0.029072685 -0.024418613 -0.034418263 0.13606472 0.14386596 -0.03265635 0.122933134 0.12121329 0.12890173 0.12594862 -0.034704834 -0.013908615 0.13846692 0.12201494 0.12757298 -0.031281367 0.13941012 -0.03170651 0.14542001 0.14497298 -0.040971365 0.11470932 -0.03468492 0.12815641 0.14211553 -0.036119558 -0.027887456 0.11409208 -0.029303012 0.11998607 0.007376872 -0.038883083 0.12586257 -0.048746236 0.1449035 -0.028562622 0.11943176 -0.044217527 0.13734005 -0.040355913 -0.018360121 -0.0067700236 0.12847145 0.03247511 -0.027990319 0.009435635 0.12029165 0.1268825 0.13010104 0.009124013 0.123897165 0.13576972 -0.038658794 -0.030596996 0.12685817 0.13605532 0.13704962 -0.012145305 0.13133548 0.13002746 -0.026832512 -0.04368071 -0.03502574 0.13058293 0.1324298 0.13676031 0.14829096 0.13033465 -0.030621631 0.13101813 0.13148448 0.12411773 0.1238325 0.11984619 -0.027349172 0.1322876 -0.01233338 -0.027272427 -0.021598762 0.13560079 -0.023652108 -0.035502203 0.12674627 0.13159403 -0.0056233397 0.13142619 -0.030662522 -0.02423691 0.12461172 0.13493206 0.1325595 0.13342555 0.1283002 0.13688058 -0.043432385 -0.040390346 0.114732206 0.14338371 0.12710038 0.12401976 0.13655058 -0.02686375 -0.025444526 0.17212789 0.13486029 -0.027736677 0.12320675 0.12964095 -0.026138317 0.14557062 0.13107911 -0.038362317 -0.04009043 0.11778306 0.14318904 -0.04687569 -0.03989052 -0.027191851 -0.041778512 -0.012721013 0.13474676 0.12803356 -0.028674448 0.1259589 -0.042717755 0.1152644 0.13776858 -0.023405239 0.13278271 0.14037451 -0.02850591 0.1299556 0.12668392 0.12177161 -0.03604833 -0.024769338 -0.013907741 0.13384964 -0.031069225 0.0039287214 -0.047438763 -0.012400072 0.13955979 0.13242014 0.13023435 -0.027991261 -0.03562256 0.13735373 -0.02854876 -0.045279514 0.13071297 -0.017670818 -0.053418644 -0.030147657 -0.011745847 -0.032373555 0.15043859 0.120254494 0.12439673 0.123282954
doc_33 -0.11008112 -0.061473746 0.13702337 -0.054028634 0.15489475 -0.075059436 -0.10838499 -0.082249075 0.12158092 0.12830816 -0.054870605 0.15977944 0.18515983 -0.05171475 0.01778438 0.14434405 -0.06331145 -0.06435656 -0.06518332 0.16109294 0.15172254 0.17465603 0.17145573 0.14662191 0.1364605 -0.056542818 0.15364999 -0.09104456 0.17812046 0.16680814 0.16047281 -0.047518037 0.15713875 0.14080985 -0.090453446 0.13068774 -0.099631116 0.16720879 -0.06188159 -0.05565699 -0.030609261 -0.0763816 -0.07306506 0.14935799 0.1286614 -0.09046238 0.15082745 0.15325882 0.14689314 0.15735844 -0.066250026 -0.06104825 0.13229083 0.14802392 0.14065605 -0.04764333 0.15257601 -0.057760604 0.16725951 0.15134217 -0.061073255 0.16975112 -0.060912903 0.14093484 0.01378466 -0.06348511 -0.060341984 0.1271963 -0.08522821 0.16868648 -0.084366366 -0.055955183 0.18267544 -0.09725226 0.16186732 -0.040670406 0.15146954 -0.046855453 0.15286951 -0.07764636 -0.09245228 -0.07040129 0.17018043 -0.06582602 -0.06608008 -0.088608064 0.14191225 0.14096084 0.15758365 -0.10289575 0.12385341 0.15953363 -0.05198056 -0.11937177 0.13737915 0.15713444 0.15507933 -0.08505503 0.14225674 0.16326118 -0.077651344 -0.059962127 -0.091972314 0.17967127 0.15251346 0.15516233 0.16306148 0.16167536 -0.016217483 0.16233948 0.14028692 0.13313662 0.13341035 0.16763587 -0.070439756 0.18293107 -0.086221285 -0.065689676 -0.07795968 0.16293828 -0.058949277 -0.060115717 0.15288743 0.13855018 -0.11016947 0.14196196 -0.08202817 -0.06733109 0.15050322 0.14092235 0.16649072 0.1335593 0.16252077 0.17174116 -0.058270954 -0.06084603 0.1557599 0.16122855 0.15548418 0.15247002 0.15055028 -0.06265695 -0.062399637 0.17570055 0.122613385 -0.07685918 0.14795215 0.14317374 -0.061928604 0.122912735 0.15432164 -0.10085431 -0.06881894 0.15733197 0.15731119 -0.042881653 -0.051995467 -0.06371062 -0.095235474 -0.064811096 0.14349172 0.14626458 -0.09158486 0.17251308 -0.117656484 0.16061845 0.13589104 -0.052388422 0.1649897 0.14826061 -0.060633127 0.15787822 0.14688466 0.13636987 -0.064788096 -0.05461107 -0.044556938 0.16573831 -0.078131996 -0.05896791 -0.052022412 -0.04989267 0.18331012 0.15840735 0.16688378 -0.06648238 -0.10634345 0.13617164 -0.07409174 -0.11375568 0.14665048 -0.08870603 -0.10343679 -0.09703001 -0.06813436 -0.071659796 0.15322036 0.15067849 0.14386858 0.18015194
doc_34 0.029382726 0.028065603 0.038240887 -0.02675016 0.044737898 0.03493859 0.04888559 0.016967392 0.036944874 0.036500737 0.04672104 0.03460032 0.03670543 0.04694019 0.014250648 0.047442287 0.05621669 0.022680426 -0.00078251376 0.037418824 0.04121669 0.03507907 0.040773075 0.039774083 0.035218004 -0.024994984 0.038580533 0.060674857 0.035719424 0.042062484 0.039742786 -0.022320528 0.034663886 0.037695672 0.082607746 0.03604881 0.02441373 0.0372434 0.01059401 0.005194393 0.08668191 0.069297284 -0.018598838 0.04190986 0.038871642 0.014555052 0.044082798 0.037456784 0.036263805 0.04477497 0.015671825 0.020457469 0.042686142 0.031876817 0.040382646 -0.021796823 0.04792078 -0.018355124 0.04154452 0.041957002 -0.019490015 0.045182683 0.03862444 0.039158277 0.01806515 0.044191357 -0.022852262 0.03471665 -0.021090891 0.040725134 0.06515641 0.08377713 0.04572197 0.041770577 0.034777384 0.03135959 0.038216926 -0.02270389 0.039542604 0.027451323 0.060075283 0.06124784 0.03530171 0.03340015 0.029134115 0.041070983 0.045222975 0.044533305 0.045051496 0.017725099 0.044979714 0.04321934 -0.023969507 0.060214195 0.03996621 0.04321142 0.04182343 0.053027872 0.039064877 0.038731568 0.080325015 0.02044098 0.055010147 0.046886146 0.048490472 0.029359907 0.031137804 0.04637319 -0.011536429 0.046271995 0.037915178 0.040368248 0.031210968 0.040472787 0.00798451 0.04713813 0.04443579 0.039695557 0.005739871 0.032528598 0.048193596 0.043757625 0.043292183 0.041026037 0.059570745 0.038771234 0.022768397 0.02752519 0.04239555 0.029995965 0.02511257 0.034750894 0.046986483 0.044217706 -0.004915698 -0.014223121 0.040046774 0.042114146 0.046289854 0.035026096 0.036383368 0.037840787 0.056729015 0.018372864 0.0368158 0.03032893 0.03381894 0.04165886 0.0334723 0.047356743 0.034531884 0.07197429 0.016999865 0.03324104 0.04450021 -0.03324898 -0.023332555 0.014333036 0.03441911 0.05547266 0.041663244 0.035769477 0.082479335 0.036440134 0.03140819 0.042241264 0.03933254 0.06364457 0.039267283 0.03958933 0.0046663187 0.04396064 0.0397412 0.043901607 0.07671457 -0.018104332 -0.030649094 0.03779197 0.023887761 0.026866052 -0.02749938 0.042700727 0.041955758 0.040608913 0.034854017 0.020260148 0.057732977 0.03512186 0.053885825 0.023130905 0.04360225 0.023367327 0.06262395 0.02061413 -0.0009171802 0.072714865 0.03515061 0.04288854 0.048408438 0.036447883
doc_35 0.028518874 -0.035672545 0.013288336 -0.04562383 0.029962176 0.019595267 -0.007826186 0.053608146 0.014378207 0.029890163 -0.019242521 0.015580099 0.023444816 0.03835553 0.04164423 0.019902114 0.024156727 -0.04435542 0.016303457 0.0054385364 0.035894178 0.012336759 0.019729009 0.013309607 0.045191266 -0.043649774 0.00614018 -0.076487705 0.028931221 0.001545588 0.042990703 -0.048513617 0.017379772 0.041844286 -0.059965447 0.02659702 0.032996636 0.02426383 -0.018596813 0.03258232 -0.007755968 -0.023453357 -0.0621683 0.04117169 0.03301541 -0.052404433 0.023065306 0.018058646 0.013335522 0.012764165 0.0055715684 -0.07128583 0.008928506 0.02827817 0.027684545 0.0026539708 0.015956521 0.17653115 0.028805025 0.023418237 -0.027246278 0.024127992 0.007733278 0.013050237 0.15638451 0.054830454 -0.04759209 0.029391022 -0.04828187 0.018891625 -0.01057135 -0.0706735 0.033927646 -0.04559611 0.012468696 -0.0076499362 0.026463736 0.0002980146 0.023518153 -0.068635605 -0.001616529 0.016064817 0.008751415 -0.051274765 -0.079067945 -0.011555659 0.03299405 0.03879539 0.027977716 0.04444588 0.030690543 0.0320532 -0.038399808 0.028483609 0.0054127984 0.014961003 0.0037108073 -0.06342368 0.017877672 0.023754504 -0.08365168 -0.0017650933 0.031806745 0.016790632 0.027774384 0.031595115 0.0004464737 0.02349968 -0.03209504 0.02772702 0.030550336 0.023038859 0.0058297184 0.018020855 -0.021588128 0.01796196 0.037871264 -0.04335492 -0.07119391 0.020219918 -0.0278099 -0.0033771135 0.0069856574 0.015393248 0.061888177 0.032014232 0.04246665 0.028653178 0.015175283 -0.0021710782 0.0034992655 0.038177215 0.028784528 0.010800287 -0.004294518 -0.09221574 0.024187699 0.015089279 0.019256564 0.02168557 0.03223483 -0.010880187 -0.046289477 0.266172 0.021499433 0.038846277 0.03962001 0.021800948 -0.031808343 0.25449747 0.04176314 -0.06590615 -0.07427879 0.036973123 0.01496718 -0.13539805 -0.032062672 -0.08798393 0.058055792 0.0286564 0.02342885 0.014043342 0.009781135 0.015530702 0.022675436 0.033728022 0.021574346 0.001460951 0.038216073 0.033734675 0.024259306 0.018245073 0.011054926 0.0317529 -0.0049782237 -0.031948566 -0.037772126 0.013004622 -0.044348527 0.038604952 -0.024497308 -0.03795771 0.027855495 0.013186034 0.016622705 0.00045636017 0.029257698 0.021209976 -0.009059537 0.053179026 0.023229081 0.013621993 0.031797886 0.0153428335 -0.05056235 -0.03357443 0.0145952115 0.029339505 0.021231037 0.021400936
doc_36 -0.0073481314 -0.024441056 0.11312732 -0.023874039 0.11188302 -0.022326779 -0.02239932 -0.020329194 0.10018462 0.10335034 -0.020147499 0.11122394 0.113836996 -0.017304732 -0.025638059 0.102529116 -0.027267065 -0.030928709 -0.019587537 0.11473341 0.114684485 0.107046194 0.101900324 0.11105641 0.116025634 -0.036414362 0.10972483 -0.018422408 0.12093383 0.116690904 0.12405223 -0.03610356 0.11510833 0.10711759 -0.019418089 0.1090843 -0.02495301 0.105537586 -0.019818561 -0.01885876 -0.023158526 -0.027347896 -0.028535279 0.12076856 0.10647443 -0.030863754 0.10290657 0.10776913 0.10732131 0.11174705 -0.021283094 -0.020746127 0.11395986 0.11150693 0.11009268 -0.03671025 0.10801494 -0.031089775 0.11548551 0.11596201 -0.02669682 0.120575905 -0.036922015 0.11352471 0.19889113 -0.018020276 -0.03575176 0.103955984 -0.032544687 0.110861965 -0.018608766 -0.034648582 0.107718036 -0.039788984 0.106878065 -0.028696088 0.110025205 -0.03718487 0.11678643 -0.029986737 -0.019866457 -0.024287894 0.10374508 -0.034808774 -0.03098324 -0.027446147 0.10490917 0.096803516 0.10280742 -0.027931588 0.09889376 0.10914214 -0.03673827 -0.0168237 0.10962582 0.109866224 0.10670123 -0.019148722 0.11320904 0.11223044 -0.027167633 -0.036006942 -0.012556601 0.11659491 0.10663334 0.1089578 0.117793076 0.10945761 -0.03512699 0.11247022 0.11311226 0.10675748 0.09911214 0.10984627 -0.031011539 0.10648602 -0.017552327 -0.02468132 -0.028903464 0.1157933 -0.023823678 -0.026355108 0.102824025 0.120251074 -0.021732427 0.11527389 -0.017698627 -0.034234866 0.10481832 0.11546846 0.10956819 0.105331846 0.11150996 0.11751346 -0.025890816 -0.026746258 0.10337866 0.113318175 0.10515204 0.115203656 0.10466857 -0.016193343 -0.019110082 0.047514647 0.117048614 -0.014338172 0.112435065 0.11588995 -0.018874606 0.13458662 0.107410304 -0.018861571 -0.029113563 0.11191906 0.116219155 -0.034747295 -0.030136405 -0.020977937 -0.02246856 -0.019936582 0.10540025 0.10171036 -0.019064594 0.114168815 -0.04163649 0.115063764 0.10216914 -0.033279013 0.1088106 0.11510444 -0.023074936 0.11102143 0.106053166 0.1011885 -0.020257894 -0.03352338 -0.04415401 0.116935134 -0.023574088 -0.012343979 -0.03353138 -0.019942263 0.11548734 0.11155432 0.10656463 -0.022219844 -0.014362471 0.113972805 -0.020600893 -0.023761915 0.10575795 -0.024344834 -0.014182804 -0.01999528 -0.028310625 -0.02151321 0.11446773 0.10666205 0.10336773 0.11603116
doc_37 0.017643463 -0.035921477 0.075063124 -0.040719055 0.035905562 -0.03630417 -0.004288959 0.0076307585 0.037395664 0.050099812 -0.02293563 0.054002207 0.05498628 -0.028725842 0.0038473937 0.052584007 -0.016698116 -0.03979395 -0.022455087 0.03391151 0.062314022 0.06362801 0.06617799 0.052035097 0.071522206 -0.052834824 0.07069844 -0.026844995 0.033987995 0.05992891 0.058340136 -0.047296908 0.032057516 0.08132435 -0.023095865 0.07643964 -0.0044083106 0.07202317 -0.07173304 -0.029053103 -0.019040884 -0.010888474 -0.043637972 0.043081302 0.053869072 -0.025103338 0.076562025 0.06774574 0.055996448 0.08216545 -0.01756664 -0.043067038 0.09555908 0.0841932 0.02987109 -0.050861795 0.06355496 -0.037820544 0.07000813 0.038332283 -0.05153971 0.07669776 -0.0042119483 0.051683668 0.19945085 -0.013065122 -0.031697076 0.08251449 -0.053845085 0.07471165 -0.027668506 0.004003125 0.06861868 -0.08920353 0.0456918 -0.026930453 0.05671531 -0.045902293 0.05568036 -0.048808053 -0.017660853 0.008322426 0.05362707 -0.043187954 -0.044301998 0.019458864 0.06780278 0.071587 0.062249947 -0.008728112 0.08423604 0.085140884 -0.046720173 -0.018415716 0.046745673 0.030033125 0.0035030763 -0.049633496 0.071357936 0.05131217 -0.05001849 -0.04275271 -0.010271313 0.042405408 0.0758113 0.07638778 0.032243233 0.08181375 -0.040372673 0.09947317 0.06240072 0.055915758 0.077247374 0.06072783 -0.028702356 0.069501966 0.0025948496 -0.058602743 -0.020069385 0.06599151 -0.033985205 0.0096387705 0.07623419 0.064016566 0.0028281459 0.03263631 -0.01785982 -0.025157265 0.08361667 0.03443606 0.069329314 0.089408554 0.07325075 0.05758618 -0.015987722 -0.053661823 0.060060192 0.053089026 0.07877455 0.08044144 0.0707572 -0.021938752 -0.02367018 0.11620823 0.053655908 0.00397477 0.06398513 0.06193948 -0.031536758 0.0911375 0.071750164 -0.0119787445 -0.035419133 0.07465369 0.030987933 -0.043390144 -0.03665382 -0.05605942 0.017293293 -0.0137973735 0.08171587 0.06687549 -0.0023609605 0.0643933 -0.019276481 0.06253311 0.05606219 -0.02073218 0.0710559 0.05047746 -0.025540948 0.028153954 0.05299691 0.06415792 0.0043185595 -0.06096445 -0.05275304 0.07467119 -0.022903835 -0.015663367 -0.04111642 -0.041601118 0.08437435 0.04444556 0.05185626 -0.041514535 0.012182713 -0.0052122506 -0.031795338 0.010212926 0.07998545 -0.027182521 0.017152594 0.012116844 -0.046426773 -0.009593137 0.033405617 0.06625875 0.09483136 0.0029653162
doc_38 -0.04057553 -0.05903836 0.15345581 -0.040590882 0.14117596 -0.052216906 -0.064651154 -0.029153392 0.12636888 0.123097055 -0.05665786 0.14135088 0.13892108 -0.047885396 -0.04845544 0.13872638 -0.06277365 -0.04782236 -0.047079522 0.1217997 0.13604563 0.12744375 0.13027158 0.14627464 0.13391499 -0.051572103 0.13048588 -0.06538763 0.13146132 0.13231629 0.13534574 -0.03899419 0.12656353 0.124464676 -0.05808292 0.13889407 -0.04085807 0.13678384 -0.06422863 -0.03687221 -0.046126295 -0.055008043 -0.043210305 0.14058669 0.1254733 -0.035111632 0.13072397 0.1146144 0.13724259 0.12730125 -0.068000525 -0.052267846 0.13203904 0.12701766 0.13973162 -0.03748568 0.13800904 -0.013768241 0.14222603 0.13698891 -0.048645046 0.140032 -0.04367397 0.12754406 0.2042721 -0.034242157 -0.038312066 0.11644451 -0.030169295 0.13043085 -0.049176082 -0.01074731 0.1173215 -0.05097589 0.12883538 -0.08078056 0.13072446 -0.030370535 0.13517816 -0.03940566 -0.04195006 -0.039983626 0.12983279 -0.02766965 -0.043913722 -0.057095677 0.12586425 0.122733 0.13014026 -0.026273584 0.13422413 0.124376334 -0.018400468 -0.04520241 0.1413775 0.13697682 0.13115299 -0.051197972 0.13994326 0.1266208 -0.050763823 -0.06424329 -0.04623415 0.12977941 0.124938205 0.13673285 0.1336121 0.13361105 -0.037430532 0.12373462 0.11907225 0.12815233 0.13223992 0.1306363 -0.048780985 0.12186997 -0.053945262 -0.05255826 -0.040337168 0.12468739 -0.04823259 -0.03697697 0.12518117 0.12269251 -0.053438008 0.13408501 -0.04376579 -0.04476568 0.12358066 0.12034747 0.14010113 0.13329485 0.13624823 0.12995264 -0.038254682 -0.05383046 0.12773989 0.12800643 0.12233339 0.1301127 0.12574689 -0.025404355 -0.05770433 0.05647724 0.1298729 -0.02307605 0.12464152 0.1279042 -0.043074917 0.14590156 0.1333116 -0.06268392 -0.053317133 0.12412443 0.14920595 -0.051063668 -0.04447331 -0.055714868 -0.057810538 -0.036585063 0.1346872 0.14127211 -0.05266344 0.1342932 -0.048771273 0.1229504 0.12921654 -0.036206167 0.1417281 0.1431346 -0.034842756 0.13048662 0.13760158 0.12533826 -0.04410686 -0.034444615 -0.035653617 0.14770283 -0.05059327 -0.047556955 -0.026063634 -0.06856764 0.1348696 0.13851939 0.12835638 -0.051250372 -0.05633479 0.14588955 -0.06575395 -0.038174003 0.13310586 -0.04078786 -0.055340532 -0.03866819 -0.050684214 -0.049892057 0.13854453 0.11858506 0.13394797 0.13639617
doc_39 -0.0724501 -0.036425516 0.2011495 -0.062089775 0.2133607 -0.06757728 -0.055361025 -0.052907642 0.182817 0.17740953 -0.015296264 0.20936264 0.19047393 -0.071684964 -0.054026555 0.19790839 -0.06718802 -0.053964462 -0.060437795 0.19353995 0.19862512 0.20257016 0.18607229 0.19750857 0.20089594 -0.069711 0.21351124 -0.042414386 0.207181 0.2162421 0.20800729 -0.054298144 0.21178539 0.20507656 0.0073193884 0.17723396 -0.0579599 0.1958008 -0.05581951 -0.06704577 -0.050791644 0.033025138 -0.04416605 0.19267777 0.19227017 -0.055186644 0.19609132 0.17846777 0.19226022 0.19304669 -0.06683104 -0.0568763 0.19620803 0.2014325 0.20141482 -0.033225313 0.19068682 -0.054838542 0.20880084 0.20932057 -0.071357064 0.19650213 -0.055089973 0.20103572 0.12915643 0.056756157 -0.072092205 0.19203296 0.01572221 0.1870699 -0.047936622 -0.06001459 0.19598319 0.026555467 0.18492004 -0.07001949 0.19516303 -0.03597512 0.21902326 -0.04399963 -0.04882298 -0.021513801 0.19581895 -0.068924755 -0.053028155 -0.05362214 0.1897842 0.19729729 0.19978452 -0.044505656 0.17001902 0.19500001 -0.04179748 -0.046710484 0.1773481 0.20226566 0.17633533 0.025287585 0.20849161 0.20345347 0.0069371914 -0.07039052 -0.02941345 0.21579173 0.18850237 0.2124706 0.2035613 0.1954279 -0.052273028 0.18174538 0.19604628 0.19857183 0.20086682 0.19314274 -0.080168426 0.2053859 -0.068744 -0.04750453 -0.024903683 0.19833232 -0.04136289 -0.06471355 0.19241941 0.1833012 -0.05375381 0.19047959 -0.06250601 -0.04445227 0.19764367 0.2123755 0.1936292 0.20540527 0.2059468 0.20627701 -0.050574377 -0.069040164 0.19373369 0.2064638 0.19051687 0.17819421 0.19276576 -0.041883327 -0.031997032 -0.025885887 0.20156875 -0.06770162 0.1897386 0.19858366 -0.059892245 0.06774151 0.20249934 -0.0014788371 -0.069492415 0.16913664 0.20041502 -0.06929442 -0.058181632 -0.06474774 -0.055497445 -0.06037117 0.1692289 0.19292171 -0.02966144 0.19643469 -0.037141442 0.18464088 0.1565644 -0.04695449 0.168922 0.1799945 -0.07023731 0.18026945 0.20408468 0.19427796 -0.05057941 -0.03267033 -0.060125604 0.2001138 -0.058966007 -0.051958013 -0.060500514 -0.057784576 0.20170115 0.20832652 0.19611055 -0.07539049 -0.05059193 0.18743607 -0.053700455 0.02311348 0.18193083 -0.056074835 -0.015879005 -0.051880352 0.002077423 -0.056287587 0.21836933 0.18674411 0.18959707 0.18741813
doc_40 0.30777332 0.2552024 -0.21027076 -0.052114647 -0.18535455 0.29502988 0.26852065 0.36754358 -0.20555295 -0.20953189 0.2562231 -0.2111842 -0.23236308 0.33035964 0.3613247 -0.20628907 0.3297723 0.19121796 0.33724853 -0.2157997 -0.20182937 -0.21881804 -0.21809182 -0.19653723 -0.19274232 -0.074943386 -0.19707493 0.13271382 -0.19183883 -0.20572877 -0.19108567 -0.06154116 -0.20927265 -0.1901525 0.10237921 -0.2084244 0.3287999 -0.18627504 0.23927669 0.34481907 0.27835298 0.19852726 0.1186161 -0.19218715 -0.20863977 0.22315243 -0.19157788 -0.21536179 -0.20745854 -0.21906912 0.2959247 0.14537503 -0.22279441 -0.20434053 -0.19997872 -0.010918325 -0.21452427 0.18981451 -0.20220949 -0.20080343 0.036601085 -0.20385058 0.29853824 -0.2135764 0.112625316 0.36141866 0.087721124 -0.19671172 0.08331005 -0.21311304 0.2826999 0.13304363 -0.19830512 0.09077645 -0.22117238 0.29837954 -0.20521824 -0.048948143 -0.18504825 0.0953356 0.27195567 0.32099763 -0.21646555 0.088488854 0.1606173 0.23855922 -0.20065463 -0.19987962 -0.21139011 0.36473837 -0.19162992 -0.21431185 -0.047737706 0.32662365 -0.21565422 -0.20178263 -0.19562374 0.13009578 -0.21330729 -0.21550046 0.118193254 0.30826405 0.34013706 -0.20071775 -0.20748673 -0.19758773 -0.21158032 -0.21737328 -0.043490108 -0.19504954 -0.20607878 -0.21250597 -0.22607298 -0.21497713 0.2639063 -0.20213893 0.32452825 0.22148183 0.09137736 -0.20558181 0.23592252 0.286298 -0.21102636 -0.21118402 0.32684422 -0.19702688 0.3675941 0.34498304 -0.2206858 -0.21498424 -0.21067935 -0.19828436 -0.21074395 -0.20750417 0.32657754 0.13725379 -0.20214878 -0.2122781 -0.20627782 -0.21838439 -0.21089013 0.28478777 0.22437982 0.19719343 -0.20129004 0.3221962 -0.198514 -0.20781064 0.24970207 0.1899378 -0.19101591 0.12167556 0.09880446 -0.20109896 -0.18845503 0.030765481 0.2038103 0.11692769 0.36007398 0.3426785 -0.20745936 -0.21025586 0.28793767 -0.20530416 0.3123093 -0.20746674 -0.20047265 0.27503377 -0.18497764 -0.2010353 0.36337817 -0.20206073 -0.21017809 -0.2094268 0.25922596 0.051163524 -0.050102692 -0.1916032 0.22953215 0.37618417 -0.04241106 0.23627412 -0.20174237 -0.21071392 -0.19583839 0.3115641 0.33237457 -0.21196291 0.26309443 0.35397053 -0.21918985 0.3045116 0.31325585 0.2972948 0.08522895 0.20483306 -0.20875277 -0.20003416 -0.20012431 -0.1720436
doc_41 0.0034638438 -0.022122111 0.09648133 -0.03271945 0.10364056 -0.017663369 -0.005451975 -0.004089496 0.08939682 0.09786901 -0.0060810293 0.10395633 0.102118336 -0.0034763257 0.003269216 0.10163973 -0.017515011 -0.020943308 -0.01091245 0.09205444 0.097731754 0.10185203 0.10054506 0.08645409 0.099789344 -0.042380925 0.09468995 -0.019165691 0.09434089 0.1024764 0.10040664 -0.042536315 0.10148661 0.104259 -0.014289506 0.09831262 -0.005824244 0.0965245 -0.017795483 -0.011272075 -0.002896582 -0.024873264 -0.029727431 0.09930674 0.09573771 -0.018662017 0.08802128 0.09549032 0.09231322 0.09424847 -0.012737515 -0.021438185 0.100304864 0.094019994 0.09054275 -0.04199265 0.089739844 -0.04021205 0.09838802 0.10322629 -0.023789069 0.10076521 -0.016079001 0.09473144 0.16560464 -0.016929202 -0.020769946 0.08974335 -0.024560168 0.098845355 -0.00894944 -0.02069018 0.0974884 -0.038657725 0.10194923 -0.023105312 0.09013718 -0.0017891608 0.09643044 -0.0059319083 -0.007412929 -0.011210812 0.093733914 -0.024716176 -0.019427136 -0.0021525614 0.09168783 0.0864314 0.08487407 -0.012846039 0.0892942 0.10009319 -0.038018137 -0.0030809944 0.0924736 0.088060245 0.09901696 -0.02104946 0.09007983 0.09338881 -0.029218726 -0.012587786 -0.015967926 0.08735113 0.09809373 0.09965087 0.095173895 0.09416289 -0.032742005 0.09481624 0.09015015 0.097119056 0.09442479 0.08743347 -0.017838402 0.0975717 -0.0049189753 -0.029728642 -0.018792002 0.09205942 -0.00087971427 -0.013855833 0.093675986 0.094420016 -0.016432034 0.099271215 -0.010243867 -0.022129426 0.0971383 0.086700484 0.096052036 0.095952556 0.09213606 0.104497835 -0.015681542 -0.017595043 0.090074964 0.10409717 0.0939482 0.096697465 0.10198754 -0.012799093 -0.025680479 0.07894305 0.105126776 0.010745677 0.09536604 0.10077709 -0.03066014 0.08128728 0.089869834 -0.002307523 -0.016273022 0.10060315 0.09947963 -0.036664203 -0.019374901 -0.0067068953 -0.0067790262 -0.006678576 0.099657826 0.090896256 -0.007123729 0.08985479 -0.020938829 0.0951651 0.09638509 -0.01801939 0.098555945 0.09625557 -0.012627423 0.09351019 0.10582568 0.09182106 -0.008087916 -0.024316238 -0.033628058 0.09517653 -0.019203003 -0.007162555 -0.035197586 -0.005465056 0.10300252 0.09949171 0.089774765 -0.012454601 0.0247612 0.09142617 -0.014350701 -0.0029617099 0.10118692 -0.018857535 0.011457415 -0.017280847 -0.01926297 0.0024835072 0.09388322 0.09596076 0.083048254 0.0958203
