doc_0 -0.14129716 0.23839125 0.23469032 0.22809304 -0.13515602 -0.1354462 0.2343982 0.1637309 0.15378961 0.20518732 -0.14959677 0.2199215 0.22895852 0.24502772 0.23917109 -0.04227993 0.18837433 -0.13962218 -0.1409872 -0.12535182 0.22047932 0.12695295 -0.15153931 -0.12631482 0.22964494 -0.09804797 -0.10106294 -0.12805767 0.1719277 0.2489638 -0.032481194 0.24797344 -0.0025406517 -0.15218373 0.21388079 0.12439324 -0.14692275 -0.14308201 -0.13296258 0.24030021 -0.12255971 0.22758335 0.23987976 -0.13596135 -0.056969993 -0.14512485 -0.15145592 -0.1582705 -0.16316482 -0.13418514 0.020419607 -0.01903058 -0.11163712 0.22490796 -0.16098033 -0.11246241 -0.12017129 -0.11352495 -0.10647705 -0.11694406 0.020428518 -0.16170183 0.21782313 -0.058827687 -0.09511326 -0.12488166 -0.13365671 -0.14032222 0.21901235 0.22451985 -0.15651219 -0.132091 -0.019322446 -0.021484958 0.21390282 0.2394569 -0.14894931 0.24332955 -0.12777342 -0.15516277 -0.15048653 0.23696195 0.13997762 0.24702846 0.22203006 0.2444537 0.23135996 -0.1460171 0.10700094 0.22544791 0.24504033 0.22820018 -0.14632317 0.24940568 -0.10871753 -0.040847085 0.241509 0.24261135 -0.093272954 0.24086033 -0.11156045 0.21382359 0.2586224 0.2369945 0.23595464 -0.119097546 -0.052498776 -0.018749755 -0.13361202 0.24621725 0.08607727 0.08649471 -0.12089422 -0.14777978 -0.14678746 0.19209425 -0.15278146 -0.14300771 -0.05119251 -0.13104211 -0.067586415 -0.13697164 -0.05099057 -0.13172418 0.003126857 -0.07192788 -0.1144996 -0.14488031 -0.15080194 0.1870751 -0.14146729 -0.12375705 0.24081275 0.23060259 -0.15346998 -0.15093136 0.238038 0.22626223 0.24920319 -0.14097755 0.23971726 -0.14397317 -0.02802824 -0.114241295 0.22130117 0.24060419 0.22599655 -0.1496002 -0.14468908 0.23204663 -0.109741956 0.23294109 0.22560184 0.24397704 -0.16110243 0.2126818 0.22127482 -0.15084341 0.22551085 -0.117564104 -0.104656436 0.23669924 -0.16645488 -0.14428934 -0.150947 -0.14821954 -0.15129447 -0.1518551 -0.06438325 0.23402226 0.23960897 -0.15726583 -0.16478664 0.22979264 -0.14420234 0.21437396 0.18061472 -0.15548995 0.00043001503 0.24037343 -0.14144957 -0.11706828 -0.14116545 -0.13927746 -0.16452545 -0.14415678 -0.060617093 0.24341193 -0.1170329 0.21671623 0.2376333 -0.13538305 -0.06596399 -0.15007263 0.23893437 -0.10241594 0.20884067 -0.14417736 -0.030427875 -0.13037477
doc_1 0.066493645 0.008134373 -0.009612126 -0.009752964 0.07032482 0.06861976 -0.005540725 -0.0025085541 -0.011401816 0.019598464 0.06429402 -0.026575986 -0.0053810924 -0.0009627552 -0.01620672 -0.025690498 0.016481867 0.06926717 0.07128432 0.073545836 -0.00802994 0.023927873 0.06814088 0.06735177 0.013102892 0.067918904 0.062835954 0.07105369 0.0051777805 -0.00016298774 0.00337855 -0.010598457 -0.02458142 0.06722299 -0.0023114383 0.0014156355 0.064506605 0.069739796 0.06767892 0.022343397 0.067697465 -0.013470358 -0.020247111 0.06520388 -0.023607407 0.06969722 0.07048415 0.064572744 0.069700114 0.06356736 0.0038906983 -0.024729498 0.066154696 0.008744812 0.06570076 0.06619155 0.06750337 0.06713597 0.06746647 0.065140925 -0.01680469 0.06753937 -0.005991427 0.04079798 0.07000476 0.07291806 0.06425539 0.07171425 -0.013236723 -0.00018078275 0.06544106 0.07222262 -0.027270395 -0.011258522 0.026017101 0.0065816003 0.06782683 0.006586321 0.06273374 0.069655776 0.068852626 -0.0100627225 -0.016434724 -0.0013192203 -0.007938615 0.0018287823 -0.014835509 0.07167663 -0.0017409942 0.009281388 -0.0011129025 -0.0063926755 0.07057831 0.014134917 0.07261456 -0.01794237 -0.014492238 0.009441258 0.06121461 -0.0070478204 0.06725974 -0.006294321 0.0069170026 -0.0032300828 -0.011498988 0.07214314 -0.024878753 -0.01824288 0.06906242 0.0057267705 -0.004623604 -0.0245834 0.06836653 0.062508926 0.06545119 0.002113576 0.0648572 0.06548881 -0.018316804 0.06892141 -0.021981843 0.070462 -0.026378449 0.06748251 -0.018240713 -0.018160768 0.07260711 0.059303574 0.06456112 -0.008671715 0.07126891 0.06781914 -0.016907636 -0.008381394 0.06858886 0.06563077 -0.0070558637 -0.00071189017 6.693322e-05 0.06658198 0.0034122656 0.0696394 -0.008848143 0.06852303 -0.023467554 -0.0031129126 -0.00529299 0.069109514 0.064702675 0.00347309 0.07107404 -0.014867641 -0.016712505 -0.0064053256 0.07094066 0.0028651427 0.010063252 0.06566907 -0.007135301 0.07223616 0.067522734 -0.01657551 0.0695662 0.0669121 0.06524216 0.0697377 0.06152939 0.06939353 -0.018103002 -0.016477989 0.013588788 0.06769913 0.07037691 0.001123134 0.06547788 -0.01097681 -0.013660465 0.067403756 -0.016793415 -0.012107665 0.065198965 0.047589518 0.07079362 0.068130225 0.07221353 0.06378867 -0.014898813 -0.00023764069 0.072654545 0.0018900477 -0.014295045 0.070019655 0.005334474 0.07183162 0.00043613813 0.070927486 -0.025743669 0.06734099 -0.025824323 0.06589603
doc_2 0.071674675 -0.020230222 -0.052557327 -0.018784765 0.055010296 0.09425672 -0.016912667 -0.021062091 -0.050884333 0.08029673 0.10183479 -0.04501518 -0.045721665 -0.02444448 -0.032496117 -0.038469426 0.024392936 0.06573581 0.1016149 0.109011255 -0.04930374 -0.01707121 0.055883072 0.115024105 0.0022756457 0.102422506 0.10638468 0.10059209 -0.051097702 -0.043706242 -0.022463337 -0.031362157 -0.0616621 0.033108573 -0.024792574 -0.026938519 0.09647237 0.07446261 0.079056986 0.06525537 0.1050663 -0.04129526 -0.04581933 0.10338947 -0.037845425 0.10807846 0.10421764 0.037749536 0.088338844 0.084932595 -0.018039063 -0.06572682 0.11085054 0.029141724 0.09101444 0.08409511 0.08730048 0.0922856 0.08440776 0.080807604 -0.04787129 0.053617254 -0.04428169 0.064366356 0.09886505 0.10572462 0.08799381 0.0644988 -0.041066024 -0.01902132 0.060647488 0.07969721 -0.05189409 -0.036494873 0.039330494 -0.03233145 0.07963899 -0.043059114 0.07030365 0.0695658 0.10224561 -0.02884863 -0.013383115 -0.024598418 -0.046607196 0.045977645 -0.037268072 0.08916676 -0.020472186 -0.011061991 -0.016293515 -0.021842306 0.078630455 0.02923909 0.09152981 -0.018410658 -0.0076869614 -0.028443327 0.07142192 -0.044633806 0.086575866 -0.030704293 -0.03375709 -0.011503539 -0.01866628 0.0763575 -0.019916378 -0.034352593 0.10476965 -0.024011713 -0.022551646 -0.037330594 0.0820847 0.07710287 0.059637837 -0.042691927 0.073045954 0.11847624 -0.036559384 0.09990713 -0.03453742 0.044249177 -0.03746233 0.11035124 -0.011618122 -0.04109624 0.08128312 0.081643306 0.09678746 -0.018734138 0.0885457 0.065007 -0.061768025 -0.029772978 0.1081436 0.05832441 -0.045653973 -0.027574578 -0.03850785 0.07572223 -0.034815945 0.07365142 -0.047555253 0.069970354 -0.048844367 -0.027499653 -0.038709465 0.093513116 0.06542311 0.012995779 0.109283745 -0.027102599 -0.046416074 -0.03908978 0.086902045 0.00248616 0.0181156 0.08912052 -0.011670021 0.10440126 0.07800697 -0.042030185 0.101608194 0.07368448 0.07942757 0.052990593 0.09646936 0.060148906 -0.007972291 -0.05732702 0.023228388 0.08263296 0.09692878 -0.039462913 0.07531285 -0.030905142 -0.0024469574 0.0861862 -0.040478237 -0.031181995 0.1086027 0.007571466 0.084667206 0.094272986 0.09919935 0.09035808 0.047278035 -0.03358286 0.09056913 -0.025650887 -0.028328734 0.06639159 -0.010354936 0.096428126 -0.02067639 0.10924198 -0.03652481 0.06834204 -0.02269054 0.06977385
doc_3 0.06234938 0.009897549 -0.014559533 -0.011816528 0.06346844 0.06544632 -0.0026643546 -0.0030284834 -0.010929296 0.018069165 0.06038061 -0.023735946 -0.008247402 -0.0028593638 -0.016955357 -0.024802059 0.012626964 0.065148 0.068887286 0.06900155 -0.011996087 0.025357796 0.0631714 0.059374683 0.008597527 0.06281147 0.055191774 0.06501962 0.0016094618 -0.0014695325 0.001187945 -0.010769194 -0.02276516 0.06382092 -0.004284701 0.0015717223 0.06254514 0.065487154 0.061990716 0.020356722 0.062178887 -0.010075357 -0.019479956 0.061854243 -0.023721434 0.06227422 0.06426409 0.058985148 0.0678683 0.056547314 0.0031022467 -0.023599243 0.05950814 0.0067446884 0.05956355 0.060333878 0.06119636 0.059337113 0.0652348 0.059355535 -0.014795911 0.05923591 -0.0059255487 0.039297387 0.06427707 0.06760883 0.059095375 0.06608166 -0.009919578 -0.0034860664 0.06182754 0.06397663 -0.024842817 -0.0055429307 0.022054967 0.004211606 0.064249665 -0.0006991604 0.060511366 0.06344948 0.06190208 -0.008609325 -0.015464961 0.002155386 -0.009878319 -0.0003057639 -0.015995989 0.06720151 -0.004074284 0.010940279 -0.003923142 -0.004346753 0.062435843 0.008719446 0.06737604 -0.017640023 -0.015252241 0.007576476 0.056017406 -0.008770332 0.061617754 -0.0051461295 0.004108836 -0.0074787857 -0.0093921805 0.06637409 -0.019438405 -0.021555286 0.06485035 0.0012474726 -0.0047676023 -0.024101757 0.06347403 0.056034643 0.058312193 0.0012401543 0.062090512 0.061270114 -0.013852336 0.0631449 -0.021849485 0.06463859 -0.025450632 0.065504365 -0.01726865 -0.014613979 0.06715992 0.054885678 0.059737053 -0.010201487 0.06604351 0.06440617 -0.01464402 -0.008230353 0.061275914 0.059066467 -0.007759589 0.00026370375 -0.0025130424 0.06198481 0.00050704833 0.06173587 -0.008578177 0.06533791 -0.022485733 -0.0048802122 -0.006611583 0.06283747 0.05990257 0.0077917026 0.06461013 -0.013650961 -0.017655756 -0.007857623 0.06836207 6.7689456e-05 0.0059645018 0.060002856 -0.004184927 0.06742424 0.06001985 -0.016503982 0.06518861 0.059136648 0.059084974 0.06487585 0.056023326 0.061830506 -0.021006297 -0.017430853 0.008514277 0.06483909 0.06733836 0.0026570624 0.06036654 -0.008430508 -0.015438383 0.06291048 -0.017256146 -0.014341574 0.059692748 0.04596136 0.06496208 0.061293244 0.06710465 0.06262669 -0.014275488 -0.0013156163 0.06551219 -0.002049528 -0.009475193 0.06606138 -0.004890558 0.06519478 -0.0013685168 0.06563595 -0.021194039 0.06468524 -0.024489556 0.059272327
doc_4 0.021796666 0.058190364 0.029400527 0.044714097 0.024093878 0.01963092 0.048947845 0.039982233 0.0050646327 0.07291097 0.009758769 -0.002059569 0.029744022 0.036703754 -0.008908144 -0.028952412 0.05915438 0.031258725 0.011649599 0.021255706 -0.019649269 0.066648 0.021309134 0.020931048 0.07187069 0.026312385 0.02427965 0.024857882 0.039193172 0.044238728 -0.0027652658 0.04923922 -0.036926053 0.008678866 0.019330326 0.06361492 0.0040183007 0.018554918 0.018847674 0.081655174 0.029844297 0.020260606 -0.0056051826 0.017454853 -0.027762026 0.019703675 0.014982244 0.018239563 0.012632941 0.012884435 0.06938513 -0.0029674433 0.029703982 0.06770073 0.022946423 0.025709173 0.021598017 0.027268527 0.027491713 0.025553107 0.042681754 -0.0009722294 0.021125795 0.012773457 0.023137156 0.01919114 0.019570768 0.024901997 -0.03527154 0.063315414 0.011031048 0.026326688 -0.03085152 -0.020088924 0.08028312 0.051222548 0.0065523805 0.025976604 0.020264015 0.011199109 0.02850562 0.0074644308 -0.021132084 0.044156317 0.03267703 0.059456203 0.0026635756 0.021732543 0.063313074 0.055911794 0.042399 0.026196659 0.014020075 0.070264705 0.03097395 -0.02400032 0.0057123136 0.06444492 0.026233137 0.04167994 0.02932377 0.04854469 0.05973834 0.009361311 0.030743 0.023304842 -0.028963381 -0.013875706 0.015597637 0.054543156 0.042038087 -0.025842506 0.0142822955 0.009389725 0.0031180838 0.056087643 0.015344829 0.022673922 0.03758141 0.019571941 -0.03218726 0.020226397 -0.03519632 0.02751054 0.0046557332 -0.012326431 0.011995811 0.0038572145 0.01115479 0.04906962 0.020555679 0.021048414 0.0015453678 0.025690848 0.021159925 0.005158363 0.004428966 0.050730076 0.031185733 0.007346657 0.06296538 0.025349163 0.041271597 0.033034932 -0.040020864 0.06360605 0.046037164 0.020686701 0.016939478 0.04310403 0.023835089 0.008895421 0.020520568 0.04648484 0.029760055 0.0633482 0.050514027 0.01572085 0.014870843 0.029626217 0.022557925 0.032961346 0.019455664 0.025846463 0.02321931 0.013701851 0.002622601 0.007713603 -0.02549133 -0.02687527 0.07240229 0.014326185 0.022749411 0.029850176 0.015729627 0.03131904 0.016499553 0.015174851 -0.036098696 0.052166406 0.019495875 -0.0063645826 0.021094713 0.021050911 0.024813043 0.0127834035 -0.021338975 0.056045122 0.022032037 0.03413087 0.007536499 0.026572175 0.006797393 0.026872993 0.05593548 0.017862681 0.023140967 0.010541973 -0.027484002 0.016598241
doc_5 0.07201855 0.008287369 -0.011150583 -0.011187742 0.07633668 0.07682428 0.0008841725 -0.0012163555 -0.0070624524 0.022626132 0.07133669 -0.027514338 -0.005693394 -0.00017252681 -0.016769785 -0.031511933 0.014576048 0.07840357 0.08081797 0.080979824 -0.016143175 0.025871301 0.077771395 0.0719073 0.013178581 0.07839812 0.066437535 0.07623804 0.0039359434 0.0021944537 -0.006130686 -0.0115076825 -0.024829544 0.075400084 -0.007554832 0.0011772886 0.0735731 0.07787722 0.074491665 0.027078401 0.07625683 -0.012861885 -0.02157761 0.07126598 -0.027247932 0.074219465 0.07283816 0.06982966 0.0800694 0.067817755 0.011548098 -0.025689235 0.069721565 0.0062660105 0.073651746 0.07058756 0.07710697 0.071802005 0.07799458 0.07098909 -0.010133831 0.07094541 -0.00666254 0.048527144 0.07681012 0.08163898 0.07095453 0.077994026 -0.015086499 0.0004356359 0.071443126 0.0756066 -0.032591328 -0.009074499 0.03271961 0.009533466 0.07334363 0.00015371758 0.06845136 0.07082972 0.07336856 -0.012693289 -0.017428085 0.0015541026 -0.010918392 0.0020869123 -0.0115414895 0.07732338 0.0023496829 0.012382871 -0.0038037945 -0.0053442037 0.075116016 0.011798763 0.07830647 -0.01934426 -0.012799422 0.011195189 0.06970125 -0.009446355 0.07639819 -0.005185261 0.0056433138 -0.007705327 -0.009504193 0.07575222 -0.022994203 -0.023332963 0.07673009 0.002494338 -0.0032277263 -0.026831852 0.07827468 0.06408381 0.071723245 -0.0009515688 0.07695931 0.07607092 -0.014715122 0.07356487 -0.027749859 0.073813856 -0.03337325 0.07932909 -0.015335937 -0.018113958 0.079398595 0.061338894 0.069517046 -0.013403684 0.0805085 0.07424665 -0.014788089 -0.0057664774 0.071462885 0.07184398 -0.008015874 -0.000684025 -0.0012887511 0.07318171 0.005612065 0.072344825 -0.010638521 0.07529842 -0.02376311 -0.0052875183 -0.0065851994 0.07484494 0.07408993 0.004133205 0.077025004 -0.014554627 -0.014920413 -0.008187524 0.07978043 0.004223141 0.0073829424 0.0700424 -0.0033701388 0.075731866 0.072519265 -0.016012525 0.07151492 0.073671535 0.07078729 0.07435188 0.066075236 0.076076224 -0.023656031 -0.01282377 0.010475157 0.07673495 0.08017156 0.0014984354 0.06986254 -0.009195844 -0.015264908 0.07339213 -0.018774226 -0.012770776 0.069447145 0.052876733 0.07613835 0.07190195 0.075799264 0.07158395 -0.01426369 0.002064063 0.080159895 0.00062904414 -0.013365293 0.08015293 -0.0060785566 0.07931637 -0.00079695496 0.07939594 -0.023136567 0.072006896 -0.0321098 0.06885832
doc_6 0.3328868 -0.0647436 -0.12087545 -0.13758002 0.3329032 0.3338774 -0.12856033 -0.1086055 -0.10840966 -0.04964534 0.34101772 -0.1127474 -0.06867319 -0.12299444 -0.13782452 -0.079528175 -0.084610194 0.3535086 0.32158116 0.3316046 -0.11746164 -0.0821811 0.34715426 0.35524762 -0.027786236 0.3398539 0.34980994 0.34194744 -0.038718287 -0.11896147 -0.101625994 -0.07904787 -0.075666405 0.31677794 -0.099548995 -0.066501446 0.31778637 0.31717485 0.34366602 -0.03370507 0.3525585 -0.09008453 -0.097129144 0.3468035 -0.085351646 0.3411586 0.3553399 0.32231992 0.3508324 0.32001555 -0.13427489 -0.14307663 0.33184758 -0.095097154 0.3500163 0.34744784 0.34429348 0.35028157 0.33285645 0.33537441 -0.12382944 0.3033203 -0.1329321 -0.042676773 0.3311702 0.34414947 0.34457666 0.33561903 -0.12822042 -0.09534154 0.32521212 0.35477185 -0.13197897 -0.11358949 -0.05619985 -0.1050945 0.3368415 -0.10306681 0.35319096 0.34248835 0.3480928 -0.119340435 -0.09089653 -0.11158508 -0.1000157 -0.02959387 -0.12512659 0.30780762 -0.118828155 -0.1353617 -0.09643715 -0.14089653 0.31201768 -0.0047882437 0.34969565 -0.03800352 -0.133785 -0.10589347 0.34134492 -0.11511852 0.3427475 -0.070961796 -0.032531668 -0.11732653 -0.12657365 0.350105 -0.10007104 -0.121729046 0.334284 -0.06304312 -0.11550227 -0.12707737 0.34333426 0.30886376 0.34049392 -0.07467012 0.3324596 0.35099453 -0.12181064 0.34148434 -0.0933273 0.3531582 -0.123185195 0.3370718 -0.12719192 -0.028180705 0.3349343 0.25397554 0.33060294 -0.07858075 0.32505566 0.35308626 -0.11589183 -0.10424425 0.33964905 0.2915677 -0.091535345 -0.12486122 -0.12707324 0.30417255 -0.06998783 0.34309447 -0.14259882 0.33030522 -0.11549482 -0.13304883 -0.13354647 0.34485817 0.34251577 -0.11170813 0.34626856 -0.124945864 -0.07051826 -0.09452095 0.34554735 -0.05828489 -0.05909496 0.32218274 -0.062011678 0.31809145 0.35248232 -0.110101804 0.34928438 0.35264975 0.34014362 0.32061037 0.3115308 0.33031723 -0.09870421 -0.07860014 0.0051476504 0.3186299 0.3287046 -0.060384978 0.3105915 -0.14024341 -0.12766442 0.34304413 -0.123433284 -0.1245339 0.34377638 0.24354567 0.3272626 0.32896823 0.34841168 0.321073 -0.023303453 -0.012089993 0.34798717 0.005679044 -0.016533986 0.34853804 -0.0599195 0.34497494 -0.06949347 0.3160652 -0.13165326 0.31732032 -0.1408695 0.35927305
doc_7 0.09700702 -0.024044052 -0.04381472 -0.037798405 0.08735269 0.11054176 -0.029863736 -0.017624784 -0.025376845 -0.008603933 0.10177731 -0.03312195 -0.03353662 -0.01663911 -0.039489493 -0.03269709 -0.014220861 0.096284464 0.100724995 0.1102771 -0.018412046 0.00295146 0.118203804 0.11341138 -0.01039421 0.10184861 0.09744238 0.09991305 -0.008696721 -0.019734416 -0.018793516 -0.014686061 -0.03532583 0.11308918 -0.027053524 -0.021671053 0.10881178 0.10839239 0.11222869 -0.0010751644 0.11213675 -0.0143169975 -0.029455185 0.10760615 0.037549496 0.110375404 0.102243915 0.11127253 0.093342945 0.11227835 -0.011810946 -0.029373698 0.09532101 -0.02192584 0.10452621 0.09412821 0.08718299 0.10395898 0.10293744 0.12115099 -0.023703676 0.09697048 -0.034116242 0.003379797 0.09675653 0.100284785 0.08741404 0.11535917 -0.0298656 -0.007946841 0.096705616 0.10447123 -0.036021564 -0.03519783 -0.017458135 -0.01713844 0.11035816 -0.015685473 0.10559611 0.103316635 0.11557425 -0.017001806 -0.032367226 -0.018998003 -0.02782604 -0.021035278 -0.032242835 0.093966 -0.024918314 -0.0052535366 -0.016743746 -0.013989997 0.092732266 -0.012309999 0.11227027 -0.015484558 -0.012760878 -0.017676622 0.09619417 -0.013666846 0.098946035 -0.019374877 -0.007710263 -0.028633794 -0.0151843 0.10020784 -0.0054810075 -0.016310394 0.09878953 -0.028882304 -0.025351241 -0.012420694 0.09011407 0.115718566 0.09802641 -0.012831256 0.11159773 0.108263135 -0.024915455 0.1102221 0.025698677 0.1075375 -0.030290648 0.08867573 -0.03310641 0.06655342 0.10034373 0.08889497 0.099231996 -0.03172007 0.106748484 0.096482635 -0.0073657464 -0.029105239 0.10355098 0.09636651 -0.033594534 -0.00059585227 -0.034492414 0.100251 -0.015872382 0.13145095 -0.038862806 0.09679218 -0.037930638 -0.042075373 -0.029074775 0.09889225 0.092082255 -0.025962729 0.09004823 -0.010516504 -0.04976607 -0.03113589 0.109462775 -0.0193143 -0.02210138 0.097266965 -0.026350962 0.09720423 0.10820334 -0.024445407 0.10388238 0.091957845 0.11631237 0.09556005 0.103999645 0.10807696 -0.013053237 -0.03636532 -0.006424549 0.08378945 0.10008911 -0.0271743 0.112274766 -0.020546768 -0.02093825 0.09008515 -0.024439888 -0.03282491 0.08094215 0.08000754 0.11286315 0.105578065 0.11525094 0.11245289 0.09132907 -0.0139707215 0.103534415 -0.025705129 -0.0187332 0.08734398 0.052003007 0.104691826 -0.038419314 0.106122114 -0.011504799 0.09450702 -0.018305978 0.11087856
doc_8 0.19832258 -0.014869029 -0.0602853 -0.07179044 0.20476654 0.20863405 -0.06857147 -0.063862845 -0.06736002 -0.05016135 0.19708537 -0.06703666 -0.06112302 -0.054734536 -0.07787438 -0.04018683 -0.060261216 0.2019422 0.19595309 0.19411907 -0.06532222 -0.026315473 0.20828922 0.1932969 -0.060405985 0.20151432 0.19186899 0.18755698 -0.052936442 -0.059924558 -0.06576691 -0.0745489 -0.073336124 0.18320903 -0.056282386 -0.03494366 0.19967134 0.20193444 0.20417371 -0.05571244 0.18853243 -0.07007175 -0.06404389 0.21725662 -0.05925429 0.20242772 0.19312544 0.21141928 0.19989912 0.19749166 -0.053031057 -0.046312872 0.19899835 -0.046278223 0.20672253 0.19933811 0.18489268 0.18795262 0.19631095 0.21251807 -0.064710446 0.19952895 -0.07726042 -0.017240517 0.18961267 0.19207782 0.18970536 0.21486217 -0.070912346 -0.0628566 0.17644046 0.19871643 -0.048115246 -0.068471 -0.0406451 -0.047630835 0.20809153 -0.06571815 0.19982502 0.20214976 0.19716422 -0.068423964 -0.07090581 -0.055014756 -0.019564003 -0.060976647 -0.079036854 0.17064193 -0.063044585 -0.0728006 -0.07079961 -0.0761845 0.19617128 -0.017018676 0.20469062 -0.043860607 -0.07204032 -0.071860865 0.19279131 -0.07696711 0.20361827 -0.053944796 -0.005850964 -0.062529676 -0.07714267 0.19637626 -0.0593756 -0.068330295 0.17544153 -0.054414622 -0.07477335 -0.062670454 0.19041984 0.19757907 0.21084812 -0.057705257 0.19632238 0.1912989 -0.06618214 0.19352509 -0.06058786 0.19404294 -0.05894323 0.18966092 -0.061279763 -0.0067757047 0.19143632 0.16236861 0.19472043 -0.011295771 0.19426805 0.20318057 -0.06734728 -0.07259123 0.20657714 0.19965194 -0.06733571 -0.06896771 -0.06580052 0.18429251 -0.06767384 0.20698045 -0.080479905 0.17658904 -0.07115217 -0.08054083 -0.06701323 0.17752993 0.19408982 -0.06880564 0.19871233 -0.07509968 -0.07780047 -0.06749412 0.18770204 -0.06142653 -0.049708564 0.1893996 -0.01966237 0.17678718 0.195922 -0.07591724 0.18669274 0.19665688 0.20260054 0.21059525 0.17722607 0.18620397 -0.057324518 -0.07734389 -0.048287787 0.1832764 0.19017436 -0.05963022 0.20270099 -0.07403451 -0.06235415 0.19883657 -0.06631768 -0.06445222 0.20711336 0.14537385 0.21039711 0.20204711 0.20542705 0.19463588 -0.011390409 -0.061176524 0.1982393 -0.034373242 -0.06318912 0.21102746 -0.04925503 0.19952969 -0.051225364 0.19832589 -0.06492654 0.19499685 -0.069332674 0.2084247
doc_9 -0.055513684 0.19858968 0.17308594 0.10831584 -0.07271701 -0.011721169 0.23570292 0.16174872 0.20684682 0.2323998 -0.054857723 0.09550913 0.15864266 0.19724067 0.097226165 -0.061716106 0.23182216 -0.034148376 -0.068022124 -0.009865946 0.15877101 0.21079843 -0.058632247 -0.03858175 0.25412872 -0.033859357 -0.012972925 -0.0018608693 0.24981272 0.16058643 0.0027680653 0.15906844 0.044572957 -0.07434055 0.17307362 0.16573487 -0.072048075 -0.04326579 -0.03989648 0.22040862 -0.027998853 0.15613341 0.12478851 -0.031739872 -0.046767376 -0.017274506 -0.046826225 -0.046413086 -0.04235974 -0.063619085 0.18055673 -0.029313877 0.0047803093 0.18768217 -0.06262274 -0.0011036977 -0.022818284 -0.024194188 -0.032966923 -0.02249198 0.14969957 -0.06658608 0.13350888 0.04368694 -0.0037999218 -0.005425905 -0.027958784 -0.04253251 0.0761249 0.15041286 -0.05464014 -0.02809562 -0.07472849 0.053567763 0.23433167 0.17472973 -0.07036439 0.17125912 -0.03464709 -0.038227655 -0.0137491785 0.0939757 -0.04242808 0.13081415 0.10090237 0.17141816 0.082713 -0.01888576 0.1474936 0.17450093 0.13657948 0.11669786 -0.04499081 0.27696645 -0.0031452922 -0.06575988 0.1599145 0.27704364 -0.0468321 0.2089189 -0.04630374 0.10922501 0.20373298 0.24293222 0.14702399 -0.0076986924 -0.071326844 -0.050752874 -0.00854389 0.17118761 0.24050786 -0.07870152 -0.015575491 -0.097965725 -0.04561067 0.19604418 -0.057582453 -0.058853246 -0.059060246 -0.020814003 -0.0668524 -0.03137048 -0.074324 -0.026753075 0.06745094 -0.064465195 -0.014755116 -0.09296193 -0.08131566 0.10664785 -0.04872064 -0.026334323 0.16969164 0.16596864 -0.037957348 -0.05010528 0.20359015 0.18561329 0.14595954 -0.04164191 0.20679145 -0.07423098 0.09933654 -0.024906067 0.10310882 0.18916388 0.18336302 -0.043428745 -0.040174156 0.1489585 -0.018619914 0.14775921 0.13618807 0.185211 -0.030781845 0.19503765 0.22297981 -0.04075341 0.08471609 -0.024015782 -0.04362871 0.13025454 -0.02027427 -0.059174135 -0.04969827 -0.07668208 -0.06756929 -0.057915583 -0.06524463 0.19782293 0.20389983 -0.06389715 -0.034487456 0.21811727 -0.04979582 0.09979199 0.11811759 -0.060816184 0.13817385 0.14224745 -0.03284334 -0.11270676 -0.036389075 -0.040475894 -0.053416472 -0.04305757 -0.042684183 0.22731945 -0.014432597 0.15399344 0.09602949 -0.015316471 0.0371958 -0.03591799 0.16854964 -0.024819866 0.05756482 -0.0613926 -0.073963925 -0.03558702
doc_10 0.087980226 -0.014464948 -0.0038095384 -0.019738114 0.08331824 0.08584605 -0.0063579464 -0.013254967 -0.017556794 0.019341545 0.08452108 -0.030656857 -0.026028667 -0.017796455 -0.027961962 -0.026790759 0.008367049 0.08214773 0.08139348 0.08431522 -0.02728139 0.018286237 0.08776848 0.080497004 0.0018879795 0.083703555 0.0859451 0.08040178 -0.007087296 -0.010522809 -0.0049472284 -0.021913704 -0.028026529 0.075230785 -0.021157231 -0.008098833 0.077817 0.08309275 0.08679087 -0.0029602041 0.08517567 -0.010597034 -0.02794084 0.092382066 -0.026023204 0.08465513 0.078603566 0.08165369 0.08063982 0.08464351 -0.008723436 -0.036212347 0.08467703 -0.0038037864 0.083533816 0.08064108 0.08638834 0.08237505 0.0814868 0.08516599 -0.029662626 0.08281569 -0.02403776 -0.011779806 0.088278234 0.08243142 0.07929483 0.085775204 -0.027534828 -0.016268902 0.08349543 0.08730117 -0.028636208 -0.0220075 0.0047095264 -0.018131832 0.08218271 -0.01701388 0.08160169 0.08539799 0.08266987 -0.0015022447 -0.021826465 -0.013140846 -0.016087828 -0.014488784 -0.02859864 0.0772499 0.0015332662 -0.018730607 -0.013517891 -0.028404849 0.085792504 0.005060796 0.078721814 -0.020949848 -0.020458596 -0.012603901 0.08419968 -0.015276928 0.07841118 -0.015398981 -0.016255612 -0.012171447 -0.015291452 0.08226976 -0.025007421 -0.027387073 0.08272252 -0.014636627 -0.010021271 -0.028749924 0.08657697 0.08846284 0.08268303 -0.001884256 0.079478726 0.08576644 -0.023303313 0.07511173 -0.025225364 0.08329559 -0.02276387 0.086371206 -0.018586596 -0.023761436 0.08569741 0.0706663 0.08538583 -0.01824644 0.08067326 0.08318705 -0.021045147 -0.027032575 0.08131666 0.080011345 -0.0062302416 -0.012089754 -0.002485382 0.07980963 -0.013828761 0.08134165 -0.020721773 0.08894969 -0.02300134 -0.01699778 -0.0182373 0.08326971 0.081367254 -0.018152064 0.080883354 -0.022440488 -0.02555593 -0.01311632 0.079328775 -0.011700462 -0.008053326 0.08233762 -0.011315797 0.08465399 0.080816664 -0.029863931 0.085339464 0.0860014 0.07975882 0.08543324 0.0792404 0.08903425 -0.020679206 -0.030083116 0.012071392 0.085725844 0.083010554 -0.0241125 0.08638262 -0.023062304 -0.018650498 0.088860705 -0.03144612 -0.017462654 0.0800709 0.075585425 0.082983404 0.07929157 0.08407639 0.08550287 -0.02570367 -0.013643275 0.077505454 -0.012479884 -0.026241962 0.08490342 0.07798144 0.08099055 -0.0065958844 0.087691 -0.021541586 0.086386666 -0.028129034 0.08580522
doc_11 0.071789324 -0.013799138 -0.02959352 -0.017799692 0.064005345 0.074993216 -0.02445909 -0.02110849 -0.013231573 -0.01823138 0.07190383 -0.0231944 -0.01613599 -0.023171293 -0.02185511 0.014197383 -0.010512168 0.07311232 0.06688557 0.07297835 -0.015263697 -0.015671795 0.06544784 0.072568476 -0.02114741 0.06929516 0.069478035 0.06480951 -0.024731403 -0.015252364 0.057203986 -0.021336028 -0.024576694 0.06418578 -0.019653423 -0.014632781 0.07251471 0.071958855 0.06273301 -0.018879697 0.06696687 -0.02366834 -0.021881018 0.062018316 -0.005101875 0.060160734 0.068990216 0.07004892 0.071861334 0.07006898 -0.019137515 -0.020102682 0.06520854 -0.009716142 0.069476 0.069641076 0.069186494 0.06251961 0.07290702 0.070103176 -0.027944952 0.078607865 -0.026258282 -0.00058541517 0.06370627 0.074785255 0.06559275 0.06665323 -0.014287502 -0.010354863 0.070916556 0.066838354 -0.016118445 -0.026499175 -0.013904194 -0.019504176 0.077197835 -0.013111882 0.07083431 0.06747441 0.070493355 -0.011665491 -0.013684844 -0.015730241 -0.021933913 -0.011995092 -0.017698582 0.07314565 -0.020179352 -0.011004256 -0.026764657 -0.022735257 0.06328788 -0.02223662 0.05820881 -0.009963667 -0.027261885 -0.02296974 0.06549775 -0.026094157 0.070267856 -0.013795808 -0.021931458 -0.0169528 -0.021516427 0.064204134 -0.026844513 0.053570263 0.0624385 -0.01855353 -0.023656126 -0.010962214 0.06545534 0.069735035 0.069698095 -0.012516965 0.06982154 0.06869384 -0.01808495 0.057653338 -0.025953738 0.07086059 -0.012406848 0.06909394 -0.024893077 -0.022600727 0.07467584 0.06604817 0.069030724 -0.02277844 0.06881261 0.067625515 -0.025405992 -0.023311643 0.06605884 0.07336448 -0.013256529 -0.013558947 -0.022804163 0.06632203 -0.013043756 0.07187686 -0.017067637 0.06742828 -0.027270433 -0.016981727 -0.01408657 0.07593734 0.06081717 -0.01872329 0.072064415 -0.02961926 -0.012730632 -0.024480771 0.07112704 -0.019211117 -0.023825742 0.061680414 -0.022684602 0.073291264 0.065082274 -0.021894243 0.06338696 0.07863599 0.064792275 0.076992564 0.07083695 0.06832316 0.024501476 -0.02277863 -0.024500746 0.07536236 0.06814528 -0.026468776 0.08108635 -0.013207899 -0.01639289 0.07528171 -0.018360581 -0.012587015 0.06585304 0.053567287 0.06856344 0.06573953 0.059202336 0.07202404 -0.02601046 -0.010898343 0.06364611 -0.017242853 -0.023823878 0.06588514 0.05275942 0.06965115 -0.018994665 0.06986807 -0.022844473 0.068590015 -0.014930783 0.074335866
doc_12 0.074560106 -0.0019158833 -0.014994268 -0.0154082915 0.07039092 0.068233065 0.0016932162 -0.0067362795 -0.0070575518 0.021548368 0.072608985 -0.024694184 -0.02281305 -0.019092128 -0.026095152 -0.026944356 0.012894019 0.07003791 0.06902405 0.07090726 -0.028631054 0.018300198 0.0740254 0.069061905 0.01559097 0.07306445 0.07338459 0.07119306 0.0010735451 -0.002952165 -0.0012898657 -0.015128842 -0.028963182 0.065539785 -0.014691695 -0.002527888 0.06677914 0.06584666 0.0721372 0.013337839 0.06904266 -0.0062713344 -0.024852296 0.07749842 -0.020921305 0.07722685 0.06325983 0.07051275 0.07033809 0.065754086 -0.0015039264 -0.026965747 0.07124824 0.0122420555 0.06397629 0.06915363 0.06970449 0.07057684 0.06942363 0.07417637 -0.022702733 0.07435311 -0.017033136 -0.01659444 0.0771563 0.0670889 0.07545458 0.07088317 -0.02940335 -0.0068275128 0.07372539 0.07268553 -0.02805823 -0.008638462 0.014872422 -0.011459916 0.069410674 -0.01410847 0.07409745 0.0700595 0.06857931 0.0010143514 -0.018492356 -0.0085711675 -0.008999897 -0.0059830206 -0.02838736 0.06669817 0.0029155703 -0.0070594447 -0.010643862 -0.023821216 0.069734454 0.009391996 0.07167379 -0.0157115 -0.010888243 -0.0063099866 0.071393736 -0.011918788 0.067801185 -0.007918533 -0.0041419403 -0.009046763 -0.0069762245 0.06700662 -0.025851518 -0.024729548 0.07131025 -0.0031963747 -0.0007950036 -0.026986431 0.07587073 0.070232235 0.07060162 0.003743937 0.06279463 0.074679635 -0.013069891 0.06621529 -0.021147411 0.070734866 -0.02176045 0.073930435 -0.016274532 -0.022175495 0.07628639 0.062122416 0.06994048 -0.016081724 0.06501457 0.07442206 -0.015087776 -0.021444999 0.07044696 0.063900106 -0.0024067312 -0.013935528 0.009527478 0.06611307 -0.0058109164 0.07001691 -0.01834413 0.077433355 -0.024672883 -0.01562238 -0.016569613 0.06663992 0.07082927 -0.00605411 0.07028632 -0.015877461 -0.021703286 -0.013884558 0.06961322 -0.0025840495 0.004433189 0.0697854 -0.0073777265 0.076758966 0.074714154 -0.022018844 0.07596262 0.07581212 0.07228458 0.06787925 0.062957704 0.070748016 -0.021967482 -0.024468908 0.021713827 0.07543785 0.07118697 -0.012850868 0.06909493 -0.019823773 -0.012668506 0.07337151 -0.024377977 -0.007719718 0.063556865 0.05831908 0.07116048 0.06647906 0.069157965 0.07701913 -0.018374477 -0.004879571 0.069668956 -0.01473569 -0.018303286 0.07075365 0.06882491 0.07100395 -0.004526081 0.07736681 -0.015036822 0.07497563 -0.0238114 0.072796226
doc_13 0.069846235 -0.015565061 -0.023770303 -0.01857611 0.06837531 0.06721017 -0.020523094 -0.02590112 -0.016970297 -0.014814093 0.06595724 -0.028870197 -0.016832195 -0.014112689 -0.016219068 0.016690359 -0.009836491 0.07122554 0.0686669 0.06766643 -0.015116948 -0.005263487 0.06472043 0.06736029 -0.020291446 0.07060592 0.0734795 0.063996375 -0.024506595 -0.020582585 0.06636786 -0.028130528 -0.020915315 0.06947626 -0.016804613 -0.021601528 0.07231479 0.06446834 0.060726237 -0.018874638 0.06809534 -0.019827517 -0.025254086 0.059712656 -0.011583617 0.054942906 0.07322439 0.07068875 0.073824115 0.07396439 -0.020089006 -0.022712737 0.07069699 -0.012542887 0.06151981 0.0715486 0.063675106 0.06449008 0.0726367 0.066263296 -0.028603908 0.079361536 -0.026718793 -0.0047343546 0.063107476 0.07168612 0.062116984 0.07115034 -0.015908403 -0.01369106 0.068255484 0.06406951 -0.014137745 -0.028027054 -0.015045107 -0.023165343 0.07939663 -0.015416393 0.06503321 0.06746592 0.067657605 -0.016704798 -0.013979343 -0.01461444 -0.014790775 -0.020655842 -0.012227062 0.074388295 -0.028279282 -0.013975535 -0.025298443 -0.02666249 0.06916276 -0.018197488 0.061531037 -0.015219817 -0.02565339 -0.023653215 0.06776006 -0.02452711 0.06471732 -0.0146452375 -0.026414808 -0.012852008 -0.023270048 0.061491854 -0.02124087 0.042904016 0.059122078 -0.017021578 -0.023280032 -0.013882592 0.059439234 0.06612362 0.06740785 -0.01259507 0.068315014 0.0659388 -0.019565405 0.061868813 -0.019749418 0.06917423 -0.01546314 0.06878776 -0.022893194 -0.023964955 0.07786991 0.06712964 0.07519864 -0.024541466 0.073179275 0.07330067 -0.024250101 -0.020841336 0.069851615 0.073286735 -0.011219239 -0.021699224 -0.022501413 0.069510534 -0.016213182 0.06938034 -0.020420743 0.0714435 -0.026254555 -0.022690693 -0.024256242 0.07243515 0.059722263 -0.018708993 0.065760344 -0.024235614 -0.010581721 -0.020356253 0.06650347 -0.020793557 -0.022715695 0.059828557 -0.02486809 0.07082359 0.073286414 -0.026074737 0.069082476 0.07612243 0.06453718 0.08035085 0.0757259 0.06621912 0.018201485 -0.016445756 -0.020922333 0.07321658 0.06899705 -0.023308571 0.07451035 -0.01310041 -0.010552121 0.07376173 -0.016837517 -0.013076079 0.062756 0.053476714 0.07215896 0.06772734 0.06289673 0.07492989 -0.020645691 -0.01357341 0.06962359 -0.019653365 -0.024157483 0.06757322 0.04982115 0.07143791 -0.024761809 0.07127256 -0.02370503 0.071187206 -0.010760022 0.0719088
doc_14 0.26395783 -0.06869795 -0.09278018 -0.1064112 0.27318805 0.26531163 -0.08629877 -0.073591344 -0.0775531 -0.013844433 0.2664028 -0.0926391 -0.0722444 -0.08433359 -0.11109333 -0.07664089 -0.0341996 0.29335096 0.24954128 0.27661538 -0.09502904 -0.040510274 0.26802543 0.28364372 -0.00044815964 0.27771032 0.294875 0.27634662 0.024397776 -0.07819385 -0.08249649 -0.062389743 -0.06003708 0.26208508 -0.08591707 -0.0021566807 0.25559697 0.25282797 0.27323887 -0.041506287 0.28345624 -0.0682225 -0.08831357 0.28384763 -0.082832135 0.28660995 0.2843171 0.27426177 0.28060898 0.26157677 -0.08606097 -0.110917285 0.28110698 -0.069245465 0.2689774 0.2884666 0.2777223 0.288932 0.281178 0.26604566 -0.095439695 0.23803988 -0.10686562 -0.037602313 0.26692268 0.28238073 0.28179574 0.26774573 -0.10110486 -0.06746541 0.26057646 0.2876921 -0.11996326 -0.11090694 -0.022122776 -0.0777773 0.28106022 -0.08384817 0.28175804 0.27423048 0.288415 -0.08584312 -0.089031614 -0.06977825 -0.055275396 -0.016965011 -0.10057246 0.26381204 -0.06664505 -0.094963714 -0.060381036 -0.110843495 0.265975 0.0025237615 0.29029608 -0.044129055 -0.08586003 -0.057963945 0.2841124 -0.06780802 0.2904481 -0.069160566 -0.0027700062 -0.09185912 -0.080985494 0.2911815 -0.10173285 -0.111654416 0.27847362 -0.016358467 -0.078654744 -0.10950309 0.28799343 0.2527551 0.27900308 -0.058317527 0.2717363 0.2747515 -0.110589586 0.2827255 -0.08639525 0.29165363 -0.102094494 0.2850359 -0.09838098 -0.02856521 0.2843761 0.20129324 0.26179639 -0.06250924 0.26503092 0.29041684 -0.08548995 -0.06379203 0.2732561 0.2418665 -0.06441474 -0.08709271 -0.08545547 0.24603352 -0.05460905 0.27449155 -0.10847636 0.27181652 -0.09518642 -0.09911205 -0.098760754 0.2828344 0.28093562 -0.07706582 0.28463358 -0.10310041 -0.079042464 -0.05880996 0.2970342 -0.026184862 -0.024979379 0.26943818 -0.049759485 0.26874304 0.28577235 -0.0824129 0.27708596 0.2860949 0.28833926 0.2577542 0.25303695 0.2587931 -0.099151514 -0.05435935 0.04154139 0.2683595 0.27124807 -0.04995692 0.25624332 -0.109913446 -0.10601451 0.27933374 -0.09029496 -0.0951309 0.2764171 0.17917266 0.25594354 0.27338997 0.27701917 0.24635103 -0.03637267 -0.009036885 0.28415272 -0.012874702 -0.018896481 0.27995598 -0.03452202 0.28364608 -0.062055897 0.2605844 -0.108817026 0.25768238 -0.120093286 0.28442955
doc_15 -5.800929e-05 0.054770127 0.02091721 0.02343231 0.008031173 0.021032378 0.06140663 0.038544506 0.02940271 0.06595087 -0.003327949 0.008928419 0.02595259 0.036699854 0.00093726534 -0.022163989 0.06374964 -0.001313638 -0.004850326 0.008869298 0.012785775 0.04548315 -0.00011889171 0.008911444 0.06000627 0.006179876 0.029021464 0.014297625 0.06310664 0.043112464 0.015818542 0.034435976 -0.0072260527 0.00075777713 0.036680773 0.04089836 -0.010207872 0.011537366 0.016526366 0.06687094 0.015030663 0.022406977 0.025046065 -0.0038242843 -0.021540921 0.016702425 0.010582889 0.016995128 0.010853317 0.010036616 0.053192303 -0.024988871 0.017887883 0.04002721 0.0025878344 0.014155696 0.0024502138 0.02736537 0.0036879014 0.005243285 0.027908625 0.0030488796 0.017513026 0.0034353298 0.014473326 0.018584661 1.37169845e-05 0.008390935 -0.009072 0.03901769 0.0041722925 0.0139818285 -0.024181211 0.0052393414 0.074777246 0.034646064 -0.0077588554 0.051179647 0.006134071 0.012926198 0.010210955 0.016296763 -0.01693016 0.028272353 0.014242345 0.038332663 0.009120222 -0.0026072357 0.031985432 0.050729137 0.03292775 0.009937864 0.0044236775 0.088966936 0.014552932 -0.010154139 0.044315673 0.06781684 -0.0018586963 0.04864813 0.012237086 0.029836796 0.05434259 0.046962127 0.03835187 0.024390923 -0.02282985 -0.020461459 0.012962746 0.048285745 0.06220953 -0.016341766 0.0037382818 -0.015427224 0.011184455 0.04510548 0.014246747 -0.003945292 -0.021317406 0.015006666 -0.021854218 0.015147852 -0.022518197 0.006584188 0.00094334 -0.03176325 0.020577755 -0.0086666485 -0.0049471227 0.017788857 -0.0025017755 0.016781924 0.05022196 0.036089636 0.02076459 -0.002058118 0.035386886 0.051806346 0.041080058 -0.00386207 0.05311761 -0.00036080088 0.02935905 0.008745594 4.4576824e-05 0.03621449 0.037176885 0.004409465 0.012875109 0.042626128 0.02704199 0.0424731 0.022811243 0.04893922 0.013771377 0.052867748 0.06937592 0.00052191317 0.019936394 0.011731662 0.00665923 0.025802556 0.007354986 -0.002549964 0.002305185 -0.009066816 -0.014916651 -0.002378502 -0.020906545 0.033422686 0.049476754 -0.002729061 0.008915205 0.061999284 0.0022465084 0.0038064185 0.006210947 0.00477481 0.014552457 0.023583237 0.0032605566 -0.021562336 0.0072815754 0.013028201 -0.003984591 0.0048651486 -0.016486323 0.0629112 0.013772734 0.009155007 0.020376574 0.016029213 0.008889808 0.0045447396 0.024922157 0.017692931 -0.010492738 -0.009314237 -0.029636668 0.007838512
doc_16 0.029685145 0.036192488 -0.008419665 -0.005733977 0.04692449 0.038815137 0.044468615 0.02557497 -0.027761638 0.080704205 0.030356199 -0.03239554 -0.031235604 0.041170627 -0.0085779615 -0.05471959 0.011491012 0.03423836 0.017488938 0.06801658 0.008858528 0.028322618 0.045923945 0.051253833 0.092419215 0.026650334 0.068910755 0.068369396 0.040659737 0.015370438 -0.01786562 0.03276762 -0.058780152 0.030813929 0.005496724 0.028072804 0.01679917 0.03339993 0.02178376 0.07573028 0.066557094 0.01383838 -0.0056096497 0.031303678 -0.044340614 0.065856636 0.051452387 0.05056242 0.032464225 0.042500917 0.031627618 -0.055515252 0.044369258 0.05129376 0.02770814 0.039135806 0.048784412 0.059684616 0.040320292 0.038121123 -0.03896309 0.02016328 0.019776745 0.08271429 0.06947714 0.03527092 0.04224966 0.027864099 -0.035739932 0.03302355 0.016490217 0.04924175 -0.046877846 -0.051240347 0.080982044 0.01844257 0.047077686 0.014089274 0.06651609 0.028917268 0.059735194 0.013026113 0.01633832 0.038257375 0.041377254 0.06799292 -0.018364046 0.070301846 0.031805422 0.04442814 0.036203817 0.014882445 0.030604282 0.10808378 0.047666483 -0.047892176 0.019971682 0.069595605 0.05019848 0.053041317 0.02659671 0.02331798 0.06612525 0.033607826 0.051765755 0.06842979 -0.04856128 -0.04228259 0.058943726 0.052831747 0.009074694 -0.04820342 0.049946535 0.0016661047 0.017587505 0.010621465 0.018554388 0.047114152 -0.026820704 0.036572196 -0.03968555 0.06738088 -0.036464795 0.05064246 -0.06277708 -0.02647542 0.038156617 -0.0033840796 0.020018954 -0.0033243885 0.02615977 0.039536633 0.062549785 -0.0009758044 0.059314504 0.011783991 0.0030862777 0.059695303 0.031557918 0.04358082 0.05495831 0.04732007 -0.004595698 0.048174452 0.030918831 -0.004562345 0.037280776 0.012565868 0.04693092 0.041483358 0.042347975 0.003639472 -0.023913186 0.05000994 0.05447557 0.04919014 0.057938747 0.022138324 0.016145581 0.052557386 0.0608717 0.009070951 0.05527115 0.04285364 0.058564126 0.028408768 0.019418508 0.0318612 -0.041119907 -0.014602805 0.078975216 0.03316729 0.053280484 0.057210036 0.02633176 -0.0250432 -0.006654014 0.028484639 -0.043096714 -0.0024101841 0.045230307 -0.016349938 0.020523373 0.033687178 0.03131792 0.042424504 -0.026011266 0.050664987 0.044700205 0.014743602 0.061412066 0.060962208 -0.015014683 0.04936509 0.03128195 0.03121266 -0.024970612 0.0249346 -0.047027662 0.048946656
doc_17 0.075314045 0.13397276 -0.02230705 0.037359964 0.06869503 0.11606846 0.13683647 0.10850114 0.012003822 0.25526857 0.06664508 -0.075388946 -0.027141716 0.107163124 -0.09075558 -0.10324076 0.19501682 0.12648398 0.06817906 0.14034171 -0.07447534 0.17602286 0.097664475 0.105170354 0.26677343 0.12334653 0.13246273 0.1357648 0.17924385 0.10041019 -0.049171783 0.067885175 -0.08407372 0.04893772 0.036033828 0.16254407 0.035546657 0.08746373 0.101090126 0.24177204 0.11397871 0.01905796 -0.01827704 0.113131315 -0.095669985 0.13347507 0.074045375 0.080550015 0.104590625 0.09392039 0.16171654 -0.11186999 0.13606225 0.18648078 0.08486609 0.12749109 0.118736476 0.15288311 0.1162959 0.10144295 -0.06347612 0.03268845 0.006766873 0.015251792 0.14111573 0.11739373 0.12370428 0.08833127 -0.09789346 0.11817735 0.04134376 0.13372341 -0.106252976 -0.003093494 0.2702064 0.13024676 0.035509177 0.071053006 0.09718033 0.07125643 0.12104649 0.066639185 -0.07814038 0.10734857 0.048305456 0.14334944 -0.038986042 0.13527046 0.13232924 0.1333523 0.065729424 -0.04936025 0.098305464 0.24919559 0.14057209 -0.08159894 0.043485787 0.1883343 0.11780662 0.120015286 0.12713936 0.09910231 0.1719473 0.050946165 0.04991456 0.14790152 -0.10015132 -0.0933748 0.12984042 0.16164999 0.14235993 -0.101053394 0.10307159 0.045173995 0.099898055 0.13006778 0.061872017 0.100650065 -0.07801666 0.14066392 -0.095143065 0.12204175 -0.1038571 0.108001016 -0.043775737 -0.07424621 0.13331483 0.010043994 0.034863364 0.025259098 0.08565692 0.13478805 0.07935301 0.053497057 0.12971884 0.04914456 0.046977744 0.084604934 0.12497755 0.074330285 0.12737776 0.074233405 0.051107522 0.13067675 -0.082161404 0.01757617 0.056443624 0.09136406 0.058746226 0.12506875 0.13127553 0.07212555 -0.06735801 0.11019642 0.12652849 0.1637911 0.20099509 0.07217701 0.06297617 0.12255516 0.14595766 0.011573932 0.12052974 0.09725559 0.12853761 0.050407797 0.024719393 0.030815085 -0.10505817 -0.043225497 0.24443886 0.0667186 0.13692765 0.058297887 0.06751921 -0.010816349 -0.040957827 0.069237605 -0.08255064 -0.019096427 0.09320066 -0.030567108 0.07976048 0.10292938 0.08447403 0.070364 -0.09207271 0.103633314 0.11607407 0.024976289 0.050357483 0.1376631 0.03658831 0.110897966 0.101477765 0.12953869 -0.0665884 0.05952133 -0.1051717 0.10216491
doc_18 0.14540258 0.055608902 -0.053817276 -0.0255768 0.16370226 0.17379984 0.02174627 0.0037171943 -0.030886006 0.1571585 0.15334895 -0.07560629 -0.01493272 0.026710054 -0.06787961 -0.07756695 0.0870025 0.16844654 0.14125296 0.1875156 -0.06332032 0.094349444 0.15786251 0.17547072 0.14893502 0.19126946 0.16311623 0.18838467 0.035442375 0.0146908555 0.07186364 -0.028718257 -0.05075366 0.13809091 -0.0278615 0.07245538 0.11265009 0.1617562 0.16800193 0.13664304 0.1819834 -0.042350437 -0.0087183025 0.16435327 -0.076237075 0.17625728 0.15088211 0.14450708 0.1817899 0.1678822 0.031891692 -0.1026322 0.18631119 0.07936697 0.14385268 0.19084981 0.17161313 0.17849807 0.17220756 0.17602527 -0.04327702 0.12251574 -0.042299077 0.030690812 0.18934204 0.18904337 0.1783661 0.16591969 -0.04756688 0.05930043 0.14754108 0.17934796 -0.086472675 -0.06334255 0.1339789 0.07468124 0.12308294 0.0015577165 0.14635551 0.15162365 0.16463609 -0.04607631 -0.06883157 -0.0007230289 -0.0351858 0.07381783 -0.031124251 0.16928478 0.007721559 0.05099342 -0.010822179 -0.035435103 0.15247568 0.10003328 0.1877548 -0.07275255 -0.037004955 0.040624913 0.1810733 -0.002865294 0.16688494 -0.0061191306 0.038383316 -0.042858552 -0.022414545 0.19108129 -0.07215404 -0.06407554 0.15905228 0.059855968 0.021402255 -0.08787721 0.17175807 0.13291673 0.17421058 0.05100304 0.13857105 0.16693793 -0.04661702 0.18047154 -0.083811566 0.18084899 -0.09396573 0.1545204 -0.06341222 -0.06858581 0.19001006 0.1141014 0.13522306 -0.015432058 0.16030772 0.18882844 -0.04038347 -0.029619668 0.16232517 0.12107618 -0.030426033 0.027804716 -0.008413431 0.14891803 0.07107481 0.14489321 -0.016763216 0.17953499 -0.07947552 -0.004730308 0.010774057 0.18687141 0.13339688 0.0026452069 0.19053352 -0.029731488 -0.046716295 -0.004375458 0.20091854 0.02599954 0.06683638 0.14495711 -0.03772311 0.17900176 0.18679757 -0.038150698 0.1885613 0.17180979 0.1594134 0.13579813 0.12298656 0.118805535 -0.05864684 -0.056605253 0.07567436 0.13717055 0.17967361 -0.020351619 0.15335092 -0.016832286 -0.031868987 0.1596062 -0.071519956 -0.034763113 0.16296746 0.056403164 0.16721888 0.15790641 0.17860307 0.15734874 -0.08090985 0.042640354 0.1739354 -0.0042903656 -0.032933913 0.16951336 0.10421178 0.17463078 0.035472985 0.17022711 -0.04114044 0.11985779 -0.09311986 0.16625278
doc_19 0.059506357 0.058916543 -0.010349759 0.013481164 0.07503147 0.09397505 0.060157564 0.023481168 -0.020502293 0.121916056 0.06323604 -0.046997257 -5.560578e-05 0.045861423 -0.027958581 -0.048995424 0.09669188 0.09174957 0.0632488 0.09221759 -0.02852987 0.07042214 0.07868691 0.08849427 0.11683905 0.07769057 0.09962062 0.10330004 0.10008243 0.0607368 -0.012495493 0.03131282 -0.052734055 0.060898628 0.022130352 0.07090713 0.045222007 0.08144336 0.07585675 0.12753671 0.09709679 0.015209941 -0.018342704 0.09552264 -0.054146644 0.10060115 0.07245957 0.06737197 0.07782603 0.05363131 0.065413564 -0.06096714 0.1046096 0.08873857 0.06441049 0.09263892 0.09349454 0.09181217 0.09278694 0.086834736 -0.026428862 0.042610563 0.0038758572 0.013094097 0.10122423 0.083021134 0.091760054 0.059603494 -0.047828484 0.044428103 0.047072366 0.09029585 -0.05319161 -0.037968002 0.13041568 0.06742043 0.049662806 0.02825408 0.08273801 0.06740095 0.09175527 0.010548359 -0.030410264 0.04922481 0.008331367 0.066403 -0.022332152 0.09228163 0.041212764 0.06660624 0.04058327 -0.010336201 0.07202931 0.13070498 0.10816184 -0.042256534 0.021622961 0.079550415 0.08747179 0.043018613 0.09741824 0.032234184 0.06489099 0.004124377 0.031211603 0.10496137 -0.05055287 -0.058187615 0.09286743 0.07335157 0.051890824 -0.05452165 0.08660767 0.041990887 0.080880284 0.06343341 0.04741013 0.08580499 -0.045301147 0.09169703 -0.047392126 0.08659583 -0.056741424 0.084842876 -0.029515028 -0.043188546 0.07768985 0.03788002 0.04937704 0.0040612486 0.074552886 0.087746754 0.017679194 0.019364413 0.08388373 0.055292886 0.018368116 0.04077644 0.055627383 0.05808509 0.09528075 0.05069259 0.0066125877 0.095339306 -0.02987424 -0.0043383706 0.029886737 0.0888054 0.070465066 0.05437942 0.11068564 0.00842099 -0.038379136 0.045846038 0.08676975 0.05937083 0.1185726 0.070299305 0.032771446 0.0888248 0.08714424 -0.008628673 0.101055026 0.084357426 0.08180828 0.065413594 0.04343787 0.050625313 -0.050906602 -0.016524838 0.108566046 0.06004786 0.08549947 0.06731411 0.05975362 -0.007865373 -0.032415565 0.06776493 -0.046797145 1.8740655e-05 0.07848189 0.015516412 0.08151915 0.08386489 0.08515596 0.07060188 -0.041131776 0.07314252 0.08885398 -0.003093501 0.013474428 0.091659725 0.022848887 0.08001712 0.052837834 0.087902546 -0.036681287 0.04940229 -0.05108968 0.07849315
doc_20 0.07848114 0.0171781 -0.024654496 -0.002369972 0.07985017 0.10603803 0.022537246 0.034728535 -0.04174136 0.04153809 0.073847875 -0.035306416 -0.049099557 0.009111004 -0.030443385 -0.048397936 0.018612212 0.097827606 0.090043075 0.11576853 -0.019434368 0.05882427 0.07534434 0.103392035 0.04651341 0.065719225 0.095313124 0.10359363 0.045649536 0.008800559 -0.03673694 0.02122191 -0.00960836 0.06749226 0.031651616 0.044310056 0.100853905 0.09746592 0.0964342 0.057188462 0.07520287 0.02045563 -0.06175796 0.093900554 -0.017133659 0.11403749 0.1166282 0.11670637 0.08884819 0.09153431 0.040555574 -0.062857464 0.097772524 0.039367493 0.08006157 0.0824606 0.084776685 0.08121792 0.070738375 0.10450928 -0.05116934 0.092620976 0.011843024 0.044854235 0.096562274 0.07857841 0.09197664 0.07606736 -0.057777483 -0.0078199785 0.09387 0.0922152 0.04336118 0.0060132043 0.024459248 -0.007249995 0.09993513 0.009537777 0.09437115 0.07771439 0.08336913 0.011727296 -0.016752437 0.03817154 0.021410147 0.026167609 -0.05355927 0.10269798 0.008846449 0.05360984 0.0019679219 -0.027245097 0.1117219 0.046330176 0.09413543 -0.013648136 0.0032546502 0.037268244 0.09830691 0.014571762 0.10899748 0.04798563 0.01503337 0.0021218043 0.0076039284 0.11388768 -0.003488037 -0.030487247 0.10466985 0.038102884 0.046950202 -0.022469211 0.0966919 0.09426201 0.10019346 -0.0010331422 0.06267243 0.09974298 -0.04327065 0.09398279 -0.01629345 0.079502314 -0.022004224 0.09523908 0.013923673 -0.030080628 0.10795529 0.075548895 0.088301264 0.00538701 0.077631414 0.105079904 0.02320902 0.024065645 0.08465926 0.09891556 0.012025081 0.011348795 0.0057973918 0.08027589 -0.002725277 0.09398367 -0.012309102 0.09151403 -0.056746516 -0.020914564 0.011207098 0.08865039 0.096764654 0.02696063 0.11040097 -0.0003170576 -0.04842771 0.025194047 0.09122844 0.037601013 0.0006158147 0.088975236 0.018311635 0.100013405 0.11078379 0.040512692 0.089760184 0.08083592 0.09858611 0.064877495 0.07936523 0.097742304 -0.051582202 -0.048169985 0.04930876 0.09291178 0.10067062 0.042643428 0.07763371 -0.024636852 -0.04986826 0.09441219 -0.045891833 -0.027579004 0.10015813 0.02573186 0.10849659 0.09284864 0.100525744 0.08838892 -0.03769233 0.017729184 0.10684118 0.0018466534 0.018027335 0.0927406 -0.022848489 0.0916053 -0.013680097 0.099720605 -0.065879725 0.09326107 -0.053417265 0.0832921
doc_21 0.07193751 -0.020569194 -0.01861208 -0.02484584 0.06821246 0.07825154 -0.017862864 -0.0076108985 -0.011701075 0.0069181826 0.079886794 -0.021707231 -0.021702575 -0.015424467 -0.024083963 -0.029497398 -0.010074604 0.069081105 0.077968165 0.07548987 -0.017751563 -0.015574508 0.07257302 0.06987623 -0.0038363766 0.069453456 0.073827446 0.07366761 -0.006136324 -0.017102614 -0.02948725 -0.015014076 -0.02328557 0.076123506 -0.015393585 -0.015623344 0.073691174 0.0741502 0.071763314 -0.012830292 0.07380222 -0.016397806 -0.014781232 0.07331168 -0.025536986 0.07400617 0.07303974 0.07663908 0.07695611 0.07178178 -0.013926145 -0.027543135 0.07635675 -0.00859472 0.080720514 0.06759591 0.07814839 0.07793622 0.06687736 0.0770227 -0.017031731 0.06950741 -0.024724012 0.07204633 0.074486904 0.07288573 0.07514284 0.07441495 -0.026459659 -0.019706747 0.072656944 0.06877771 -0.027048368 -0.019837858 -0.0025649057 -0.014334239 0.07552456 -0.020200785 0.07462501 0.075343005 0.076741226 -0.02354453 -0.026363296 -0.018743418 -0.021112686 -0.01777296 -0.025888221 0.07412632 -0.022062395 -0.02178474 -0.025485653 -0.020079881 0.0733056 -0.011604251 0.08235976 -0.02740923 -0.024891581 -0.011673115 0.06493633 -0.020394254 0.07828539 -0.016616344 -0.013674763 -0.012169062 -0.021975204 0.06561658 -0.033506133 -0.031421855 0.06923698 -0.015133008 -0.008906466 -0.029198365 0.070442446 0.07330746 0.07926237 -0.015189625 0.07237456 0.076727934 -0.0206128 0.06862597 -0.03089542 0.070320874 -0.02969011 0.070095055 -0.02136753 -0.016476417 0.06885966 0.0660268 0.071418725 -0.020604849 0.06707987 0.07786194 -0.018846568 -0.018856434 0.07520551 0.06490519 -0.012328345 -0.014430567 -0.021123221 0.07454485 -0.008123967 0.06975326 -0.019376514 0.07181976 -0.026519386 -0.014190193 -0.016710032 0.06871245 0.075793006 -0.01943126 0.07318762 -0.018721728 -0.02591702 -0.010517374 0.071091585 -0.014170644 -0.012241165 0.06405174 -0.020164752 0.07443028 0.07228217 -0.01899156 0.07643763 0.06571665 0.077051654 0.06982549 0.07162262 0.076358 -0.03398249 -0.018537123 -0.008258984 0.07558306 0.073718704 -0.01138399 0.0765379 -0.017353931 -0.021196924 0.07726403 -0.019556964 -0.021144943 0.07604726 0.05480382 0.074253835 0.078107744 0.07072781 0.07711601 -0.01770726 -0.013756571 0.07550595 0.0045546005 -0.02349127 0.07098523 -0.0218775 0.06627087 -0.023112673 0.07516429 -0.029574009 0.07479014 -0.03613294 0.067107275
doc_22 0.061310694 -0.016501836 -0.039343514 -0.033667713 0.055666376 0.060839787 -0.02170674 -0.03229534 -0.03462961 -0.011086885 0.065065205 -0.038381107 -0.03704889 -0.031885862 -0.03373629 -0.014825391 -0.020188874 0.06258455 0.059755303 0.06810584 -0.03108565 -0.022062132 0.058785908 0.06952482 -0.009126192 0.057635706 0.06253431 0.077884585 -0.030469008 -0.022633051 0.018369697 -0.03545232 -0.04103692 0.059244715 -0.035968326 -0.018073525 0.044533856 0.05952008 0.054484855 -0.012717228 0.05925207 -0.031158954 -0.027409459 0.05609231 -0.017174743 0.06457961 0.06605805 0.06312252 0.05891711 0.057735924 -0.021788374 -0.025478061 0.06730902 -0.028361514 0.04337527 0.055812437 0.060240738 0.052564718 0.05470514 0.06433993 -0.038726337 0.047398265 -0.026805423 0.06527377 0.060112357 0.05955396 0.05522236 0.06244523 -0.03615491 -0.031423926 0.049924772 0.054471496 -0.013757272 -0.033262 -0.0022733822 -0.030742409 0.06866524 -0.03365851 0.05721107 0.061247274 0.06101048 -0.03903581 -0.017640166 -0.035332073 -0.034438908 -0.018063623 -0.034779776 0.059688292 -0.029607233 -0.02029543 -0.031451933 -0.030591462 0.05802019 -0.010054937 0.060109295 -0.015565578 -0.026215319 -0.023770722 0.05798691 -0.028345212 0.058155566 -0.023916975 -0.027612794 -0.022985894 -0.040656053 0.05880246 -0.016046852 -0.01451152 0.057742964 -0.027153106 -0.0327882 -0.017960997 0.05837442 0.061432824 0.062305868 -0.026239848 0.045870416 0.06739909 -0.026818104 0.060499165 -0.013299841 0.052516423 -0.019765586 0.058589708 -0.028035112 -0.012431356 0.06447079 0.049208496 0.05820301 -0.033130188 0.063893884 0.06292866 -0.026208865 -0.036854703 0.05890692 0.056313 -0.032814283 -0.027581517 -0.02751777 0.06311609 -0.014582157 0.060037214 -0.031566948 0.058496337 -0.02136262 -0.042878155 -0.0349159 0.06434192 0.050129637 -0.0197674 0.07001892 -0.039736077 -0.03377261 -0.021770881 0.06518077 -0.023268234 -0.009147346 0.056384236 -0.029987957 0.063942574 0.06941581 -0.030687725 0.06502799 0.061583415 0.063836396 0.051654577 0.05452967 0.0529996 -0.007356679 -0.031661686 -0.01647183 0.058251686 0.06251271 -0.023365902 0.06739856 -0.039234303 -0.039028652 0.058370408 -0.03410932 -0.033979587 0.058690697 0.054282717 0.062372383 0.061061893 0.065366015 0.05857078 -0.01231752 -0.029373592 0.053526834 -0.04415819 -0.024671447 0.062592186 0.02600204 0.059136428 -0.043023128 0.067445375 -0.0334906 0.06266666 -0.011108316 0.05916655
doc_23 0.08456601 -0.03047657 -0.037670627 -0.030269507 0.08441144 0.084723786 -0.029743472 -0.017920688 -0.024943765 -0.005812954 0.09287699 -0.0331139 -0.03341572 -0.025893606 -0.034870565 -0.02805115 -0.02417126 0.07955356 0.0923498 0.0830677 -0.03444932 -0.017137606 0.08220578 0.08096124 -0.01275497 0.086585574 0.089126915 0.08463543 -0.027085403 -0.027615061 -0.027859366 -0.024926528 -0.033926237 0.08737556 -0.026711125 -0.024335047 0.08342065 0.083080634 0.08633145 -0.026493894 0.0854915 -0.031986356 -0.032241363 0.08431766 -0.024810756 0.087355696 0.08307098 0.087094635 0.08438891 0.089766234 -0.028637888 -0.03189985 0.08655282 -0.02119993 0.08937261 0.07943026 0.08609858 0.09175918 0.072478056 0.085389555 -0.036544222 0.08661241 -0.025977734 0.074333206 0.08750522 0.080643654 0.084152244 0.090384185 -0.03322383 -0.03145254 0.09166991 0.074740455 -0.02638084 -0.024007449 -0.017504783 -0.026958814 0.08588336 -0.03008971 0.09090308 0.088832915 0.09037991 -0.037184976 -0.023477491 -0.027963929 -0.02938031 -0.026964989 -0.037063602 0.0834315 -0.0334877 -0.029546503 -0.022370402 -0.030683788 0.08947419 -0.02407994 0.08852971 -0.028159324 -0.03099763 -0.022250984 0.07528289 -0.030204764 0.08876045 -0.027150288 -0.027906815 -0.024330322 -0.035374794 0.079677835 -0.031420592 -0.03169459 0.07866284 -0.022904875 -0.018329954 -0.033611674 0.08485035 0.08422717 0.08613394 -0.028413558 0.084391914 0.086045794 -0.018572355 0.07631269 -0.031151947 0.080112785 -0.028732836 0.0801216 -0.025989175 -0.018015856 0.083859906 0.084101275 0.0894926 -0.03200477 0.0810209 0.08800653 -0.0332694 -0.03328339 0.08585378 0.08200256 -0.027733576 -0.01955622 -0.025807524 0.09134534 -0.013804065 0.08470374 -0.023853984 0.07952144 -0.03334329 -0.029018681 -0.026232764 0.08526646 0.08912057 -0.021208832 0.08706553 -0.026604109 -0.031894594 -0.018224116 0.08576261 -0.021269005 -0.014369281 0.07545406 -0.032174867 0.08895055 0.08506359 -0.022445919 0.08901636 0.082461044 0.087458976 0.082184434 0.08616474 0.09343473 -0.031086091 -0.02917024 -0.011239777 0.09383668 0.08551666 -0.012769947 0.0899575 -0.032728545 -0.025546635 0.08505291 -0.031585157 -0.029379304 0.09114068 0.07166326 0.080755055 0.08800137 0.08187958 0.0903277 -0.013155481 -0.03216925 0.081877775 -0.011261011 -0.029049937 0.0805941 -0.030472176 0.07246375 -0.025837818 0.086220995 -0.0342009 0.086573444 -0.030834071 0.07714587
doc_24 0.03714256 0.041995812 0.015049851 -0.006103806 0.044019 0.044710062 0.031659737 0.029100902 0.018000128 0.058361523 0.04514531 0.018168328 0.0053114025 0.042655412 0.00826345 -0.032630675 0.041001678 0.050091155 0.028098075 0.053969588 -0.0004030522 0.046753913 0.03308555 0.043686952 0.05663885 0.036673658 0.04733543 0.050200157 0.04654801 0.01996911 0.0057035526 0.01858751 -0.0023863576 0.02976662 0.013227619 0.036431618 0.026082393 0.027098075 0.044797096 0.051134903 0.037702724 0.022310691 0.016673243 0.049684126 -0.027105685 0.05389504 0.027846549 0.033267934 0.032180555 0.032991566 0.033578403 0.005136676 0.049776245 0.0416986 0.03406331 0.04653526 0.044777043 0.053764537 0.047087185 0.045894463 0.016872546 0.028254258 0.011490306 -0.016809124 0.046118036 0.046678282 0.04677376 0.03852901 0.0037458893 0.026814975 0.030206747 0.048217885 -0.030085428 -0.022123784 0.05635094 0.034921557 0.037839364 0.024581103 0.035714697 0.032871615 0.035979446 0.01759937 -0.02515024 0.023864646 0.010806323 0.036850847 -0.0106973415 0.04745972 0.037651934 0.02958278 0.01901524 -0.002440175 0.042271964 0.059755463 0.041622713 -0.025374247 0.03660059 0.0636272 0.040597353 0.043338872 0.044363365 0.009847097 0.05254093 0.0325667 0.016590917 0.051045466 -0.03576314 -0.021534678 0.050181404 0.03322148 0.042230174 -0.027269315 0.04531929 0.025826288 0.029752027 0.031105757 0.027710497 0.038352933 -0.023842191 0.04252189 -0.028730024 0.049123753 -0.028195336 0.046204023 -0.0131246215 -0.02821278 0.04399304 0.022773439 0.032191817 0.013261015 0.035290293 0.05026525 0.018464088 0.014525926 0.047854368 0.02689197 0.025885852 0.04710357 0.021827264 0.0362677 0.04732617 0.036762603 -0.014312798 0.045070678 0.0032886583 0.03151411 0.020848472 0.034499604 0.030005584 0.03547021 0.054129668 0.015676122 0.013002662 0.0325048 0.04177641 0.02816807 0.041173954 0.024827166 0.0088345725 0.032700177 0.04848634 0.026467102 0.050872527 0.03916875 0.035004936 0.022070872 0.029214572 0.021056214 -0.032612015 0.011088764 0.05359656 0.025498211 0.043914326 0.032653052 0.03664589 0.01771746 0.0019247932 0.035875134 0.011362573 0.01328703 0.031037452 0.013356429 0.036134616 0.03363683 0.033333886 0.038458306 -0.025931694 0.040466342 0.046482798 0.031431872 0.0148115605 0.048209786 0.03930462 0.035951477 0.04472729 0.041215625 0.0058165845 0.035825275 -0.029012587 0.04250013
doc_25 0.0464808 -0.0044477615 -0.017284736 -0.01622171 0.04563001 0.049107708 -0.006855931 -0.009056995 -0.025300704 0.013313998 0.04388586 -0.024483329 -0.025511209 -0.010532563 -0.02298582 -0.021714222 0.004752118 0.05071691 0.044603854 0.05167145 -0.023685427 0.0009996721 0.04509277 0.04821292 0.0117027555 0.04927544 0.049644776 0.055039432 -0.0033510933 -0.009284161 -0.015100291 -0.01342879 -0.020032402 0.047469713 -0.018306077 5.2569303e-05 0.042220037 0.051491395 0.051603876 0.0067884056 0.050018676 -0.018552396 -0.023749357 0.04888255 -0.015549507 0.049674273 0.045286883 0.04978295 0.054544926 0.051936828 -0.0035468957 -0.02374234 0.055825233 -0.0019537273 0.04797296 0.050343134 0.052792735 0.05760442 0.048069477 0.04813278 -0.027926479 0.037411466 -0.010806479 0.024520269 0.052327204 0.051453892 0.047179528 0.048540313 -0.02395806 -0.008153962 0.050264772 0.05332661 -0.019949766 -0.01140862 0.013109945 -0.0057798484 0.044078045 -0.011071174 0.04886043 0.046113078 0.0481522 -0.013160083 -0.018389907 -0.0095412275 -0.012321791 -0.0015434627 -0.025581243 0.048247483 -0.008753654 -0.0070186914 -0.0099786185 -0.022996016 0.04512016 0.012224993 0.054622218 -0.016166091 -0.013362895 0.0077846553 0.049249504 -0.0078247115 0.053633835 -0.01290507 -0.0004599808 -0.01545397 -0.0104491655 0.04919202 -0.020330887 -0.015115036 0.05003451 -0.0020961475 -0.0033046491 -0.021883901 0.048845373 0.0343957 0.04915616 -0.004291956 0.04619364 0.0524591 -0.016667556 0.05266732 -0.018669417 0.043320037 -0.018020825 0.04755872 -0.018268429 -0.013674139 0.05303694 0.038316734 0.039747458 -0.01966376 0.046574257 0.05498407 -0.011702768 -0.011171122 0.054028127 0.045851424 -0.012260276 -0.0083229635 -0.011238913 0.05162303 -0.004434632 0.052225996 -0.014691969 0.05390335 -0.024480209 -0.01872473 -0.014170628 0.047045246 0.04332303 -0.0005519799 0.04950055 -0.012700392 -0.017160976 -0.0004053777 0.05084835 -0.0067318603 0.0096535925 0.041896358 -0.016844437 0.04968087 0.051507987 -0.014333945 0.05358374 0.04738085 0.049513888 0.04238177 0.039695162 0.04477126 -0.01508823 -0.024595482 0.0150088165 0.048538845 0.053544268 -0.008407579 0.04467837 -0.013538415 -0.026113493 0.048828136 -0.023446135 -0.025285456 0.045920223 0.027987896 0.04783358 0.05050509 0.048412245 0.043852586 -0.012360382 -0.007768904 0.049251672 -0.012014142 -0.007904296 0.050392322 -0.0016762346 0.050147995 -0.011717023 0.052280486 -0.022900708 0.04627186 -0.019217998 0.045264088
doc_26 0.1473588 -0.057041463 -0.039769918 -0.05490843 0.15287001 0.15183277 -0.056922443 -0.04227168 -0.057395235 0.030239554 0.15897654 -0.015092491 -0.058038358 -0.061480355 -0.04236716 -0.020504054 -0.032670233 0.15165493 0.15654722 0.15481143 -0.05759766 -0.047659338 0.16586724 0.11401069 -0.046394143 0.13347526 0.14656536 0.15367126 -0.04788172 -0.067629114 -0.054252747 -0.057061244 -0.03312644 0.15622158 -0.025763396 -0.042777184 0.1462501 0.16202049 0.16166836 0.019702125 0.15210457 -0.057002638 -0.04247847 0.16596085 -0.020816972 0.13825409 0.1626817 0.16507436 0.14629239 0.149017 -0.055273023 -0.055991054 0.15836534 -0.056418717 0.15591967 0.13054614 0.1349359 0.1538225 0.1537107 0.15521361 -0.029849727 0.16236702 -0.0572622 -0.015416159 0.15399265 0.1339163 0.12622859 0.15267566 -0.06097107 -0.06372965 0.16117129 0.16048561 -0.053154934 -0.05441075 -0.04548486 -0.058665667 0.14980654 -0.058791403 0.15681504 0.16767621 0.1597526 -0.05317164 -0.054576367 -0.053244438 -0.061849244 -0.0628568 -0.028150372 0.14466542 -0.045684963 -0.060698297 -0.05811421 -0.056485306 0.16733114 -0.015516702 0.15691605 -0.031564992 -0.057506137 -0.056665838 0.15160935 -0.055174693 0.16216113 -0.0530354 -0.04839492 -0.0642298 -0.057548996 0.15442507 0.043243363 -0.011208028 0.14896916 -0.039787397 -0.042409487 -0.018828772 0.16196798 0.14709026 0.15805998 -0.03847327 0.14419326 0.15830539 -0.047337163 0.13959007 0.103172764 0.1540923 -0.05678228 0.1386341 -0.06270867 -0.05334268 0.16078997 0.14793332 0.131092 -0.050882123 0.14792389 0.15298589 -0.05331052 -0.054702863 0.13250779 0.13258697 -0.054448515 -0.053644728 -0.055002183 0.13632508 -0.05569702 0.16134626 -0.058123447 0.14905418 -0.032269277 -0.051470775 -0.056333084 0.14879401 0.15599096 -0.060306538 0.15385646 -0.054080777 -0.05222716 0.0028278437 0.14938155 -0.053117335 0.015372742 0.15565999 -0.06269731 0.1504057 0.14492181 -0.054361235 0.14834474 0.15306003 0.15629761 0.14250326 0.1407804 0.13601686 -0.047804374 -0.053225666 -0.03615203 0.15354347 0.1367672 -0.06480392 0.15595782 -0.060962945 -0.021016974 0.14337456 -0.05354605 -0.04920691 0.156924 0.13033777 0.16490659 0.15903616 0.15804006 0.16488461 -0.022948232 -0.030375162 0.14499676 -0.05015982 -0.05824861 0.14449945 -0.05552981 0.15488279 -0.05279995 0.15931243 -0.05968843 0.15509054 -0.05882843 0.16538137
doc_27 0.054766417 0.017539132 0.009630893 0.008011375 0.0502843 0.054879025 0.010173483 0.0050277035 -0.0029903823 0.018891595 0.058731515 -0.01057503 0.0029433272 0.008246763 -0.01807848 -0.021795677 0.009507758 0.054771673 0.061951086 0.06373942 -0.011833095 0.015059118 0.057337034 0.0559109 0.021787308 0.052994423 0.05856526 0.053624544 0.0076837833 0.016169578 0.0014410932 0.011851554 -0.017853443 0.059223145 0.0021979334 0.015953679 0.064416535 0.060925025 0.057448864 0.021842288 0.05732286 0.0028083366 -0.012860081 0.060629167 -0.020627478 0.060430847 0.060415346 0.050870672 0.062288463 0.053687137 0.013045188 -0.010043191 0.055461448 0.012898184 0.058478136 0.055081494 0.05460619 0.05069394 0.054213777 0.055131696 0.0040962608 0.053368755 0.008131028 0.015504026 0.05700654 0.057627793 0.05980548 0.051997207 -0.012180005 0.017851133 0.06043801 0.059177686 -0.023138804 -0.002348397 0.014853762 0.011191828 0.056824178 0.003547655 0.052509196 0.06334733 0.05460383 0.0010289019 -0.013852794 0.004283917 0.01274557 0.014416877 -0.005673932 0.06164821 0.009486301 0.013424816 0.0094472 -0.00013716472 0.061721973 0.010004892 0.05350883 -0.016320925 -0.0044582 0.010888658 0.05683037 0.012524953 0.05952517 0.0050761914 0.0068562506 -0.0019110232 0.009066259 0.054963816 -0.019233577 -0.021521758 0.05961413 0.013106938 0.0029369942 -0.022657381 0.063435264 0.056408543 0.062302183 0.0076303883 0.061126415 0.060349263 -0.0043110703 0.05242738 -0.020927131 0.05365181 -0.011520917 0.060134165 -0.0011914781 -0.017949205 0.056519456 0.05940183 0.05018285 0.010071888 0.05822059 0.054620974 -0.007235267 0.0029466762 0.05533166 0.05861769 0.0020542897 0.011286529 0.0032359995 0.06345255 0.0071756225 0.056591667 0.0028467672 0.055118985 -0.01950965 0.006372606 0.0049959775 0.057419583 0.04960163 0.013015369 0.053011164 -0.0064243404 -0.0086741205 0.010558276 0.058247 0.009837488 0.011583974 0.06227105 0.001515391 0.05902868 0.060778398 0.0046025394 0.059251156 0.056044586 0.055065352 0.061626244 0.05457263 0.059499633 -0.014881262 -0.017966328 0.016123682 0.055766165 0.05687135 0.008287827 0.055068746 0.0092812795 -0.0077155447 0.057825312 -0.01932177 0.0077825068 0.05947851 0.05769204 0.0574436 0.055910803 0.06308469 0.05371384 -0.014752522 0.011635235 0.056787565 0.0023077787 0.0035604096 0.05360476 0.03937713 0.060843665 0.011473824 0.05795621 0.004617469 0.06499544 -0.02274547 0.059570145
doc_28 0.075125515 -0.017844494 -0.028223991 -0.030978028 0.07433005 0.0774066 -0.026941191 -0.023482848 -0.026083946 -0.008547384 0.076933675 -0.025285956 -0.020909868 -0.023253916 -0.024032671 -0.014537297 -0.018541154 0.08017737 0.07329384 0.07228683 -0.02176809 -0.022500824 0.07513855 0.066142604 -0.017420854 0.066194974 0.07498263 0.07142423 -0.02665067 -0.026896026 -0.0027979494 -0.02349517 -0.024554092 0.073495276 -0.023765538 -0.025221096 0.075046316 0.07168993 0.072802305 -0.016082214 0.074395835 -0.028443731 -0.02205291 0.072924696 -0.02103343 0.075561196 0.07547639 0.07859268 0.0749076 0.072240725 -0.021708947 -0.024822721 0.0663775 -0.018473769 0.071159564 0.0729046 0.07073546 0.07105618 0.07519251 0.07166966 -0.024702936 0.07307831 -0.02997485 -0.004911734 0.073649056 0.07586843 0.070703395 0.077347115 -0.027929254 -0.01963705 0.07795782 0.0694642 -0.021250304 -0.030956246 -0.01584843 -0.023354251 0.07815963 -0.021477878 0.07412711 0.06924733 0.07635955 -0.02784075 -0.016008494 -0.027070437 -0.02669093 -0.019104727 -0.02493471 0.07131745 -0.025832003 -0.015016956 -0.025174873 -0.024605177 0.06952557 -0.0101429755 0.07835503 -0.01930221 -0.021358667 -0.024386117 0.07213807 -0.022373267 0.072690025 -0.027645808 -0.020496158 -0.02712298 -0.025857743 0.07159124 -0.019599568 -0.023189954 0.07547628 -0.02118777 -0.022224242 -0.020127095 0.07724738 0.075691976 0.072735935 -0.025594624 0.07845582 0.07638531 -0.019717975 0.07681637 -0.02239975 0.07206137 -0.023209903 0.07206462 -0.025518943 -0.016028449 0.077018164 0.07000162 0.07274704 -0.029887252 0.07373045 0.073344916 -0.028680786 -0.031429797 0.071910374 0.073384814 -0.0214971 -0.02549626 -0.028700758 0.074611604 -0.020734962 0.075602636 -0.024813153 0.066632114 -0.029161364 -0.019906344 -0.028730087 0.0754856 0.0702708 -0.024600752 0.06775174 -0.028206768 -0.026613556 -0.026124798 0.07338097 -0.021091368 -0.019966671 0.079773426 -0.028211825 0.07525597 0.07105948 -0.028994922 0.07047487 0.07424741 0.073985435 0.07510058 0.07394237 0.07097368 -0.020477388 -0.023209564 -0.014343629 0.075110964 0.07582222 -0.02642708 0.075011775 -0.028317796 -0.02174285 0.07284397 -0.03075572 -0.025655571 0.07743218 0.067378305 0.07570429 0.07241495 0.07302232 0.07456226 -0.0015404732 -0.019081842 0.07398882 -0.03146069 -0.030438032 0.072013885 0.020182684 0.07982912 -0.02386378 0.071353935 -0.023675926 0.06978436 -0.021299643 0.07183559
doc_29 0.03934482 0.102016464 0.05172113 0.027581863 0.06608827 0.0624735 0.0830242 0.036378056 0.06181517 0.15496911 0.04994525 -0.016606882 0.03635846 0.08355594 0.03634283 -0.0690229 0.11582072 0.06437479 0.03538307 0.08355293 0.05924958 0.12653083 0.056187853 0.07040845 0.16942978 0.062001385 0.078770235 0.10605096 0.11572449 0.06971192 -0.02276133 0.068826646 -0.030540159 0.036263213 0.08863409 0.0782179 0.018873263 0.06168729 0.04578193 0.14974377 0.07607111 0.06550815 0.040055357 0.070182405 -0.053954836 0.091032006 0.07774848 0.047941353 0.067208126 0.048804797 0.092955485 -0.07086319 0.10684905 0.094278455 0.051683497 0.069689505 0.07922993 0.08985795 0.09938839 0.06979788 -0.0026981195 0.038282685 0.03848914 0.020456562 0.082191594 0.06155908 0.08247703 0.07241235 -0.010102142 0.06775455 0.02994491 0.077411436 -0.06826172 -0.016331287 0.13739969 0.10270886 0.04818155 0.07097063 0.058653284 0.057533495 0.081012905 0.028472265 -0.04425094 0.08500719 0.06721405 0.09635301 0.0136039965 0.06823642 0.0643157 0.08915398 0.057754908 0.0076665473 0.055857215 0.15543512 0.08761552 -0.05796295 0.113167986 0.1364252 0.059546907 0.06767018 0.07855688 0.027369985 0.11322053 0.03671213 0.027844828 0.09288797 -0.060477063 -0.05875165 0.08920595 0.08812551 0.08927989 -0.06476082 0.061811786 0.019960543 0.06564061 0.08771755 0.027186563 0.05756037 -0.054794196 0.08573053 -0.06855492 0.074065045 -0.0667849 0.074277885 -0.019124078 -0.054186046 0.063682534 0.025380211 0.035809778 0.049712952 0.06483854 0.07307866 0.026903305 0.067080274 0.072068304 0.023125917 0.05951684 0.07238995 0.053937998 0.04937884 0.11738946 0.052145097 0.046481863 0.07418285 -0.012196816 0.026709627 0.06593914 0.074688144 0.04588239 0.067936994 0.09072163 0.02810032 0.025383573 0.050125957 0.07664908 0.09089856 0.14071879 0.044520777 0.014304335 0.056198135 0.08620305 0.026051953 0.08391856 0.05814363 0.08902404 0.04071884 0.01671969 0.03693081 -0.060531314 0.01613666 0.143887 0.040883806 0.083039604 0.06818229 0.043308817 0.0024219377 0.0052685924 0.042276118 -0.009992182 -0.013968754 0.068821795 -0.014002587 0.062108837 0.066303626 0.055564392 0.060475606 -0.014008324 0.08644954 0.08971361 0.07884841 0.013124639 0.089754894 0.03545689 0.078053474 0.04560014 0.06918288 -0.02365049 0.050324704 -0.071223244 0.065118454
doc_30 0.07313258 0.060296785 -0.028860226 0.034701165 0.0896521 0.090091005 0.054139312 0.047399584 -0.032717213 0.09341648 0.06655924 -0.05421743 -0.028837219 0.037553526 -0.049227785 -0.05195056 0.07382059 0.08938229 0.07952369 0.09510967 -0.04661107 0.060600124 0.09295798 0.08710536 0.097628675 0.09309741 0.09914531 0.098741725 0.08365431 0.05212901 0.031198855 0.032550246 -0.039202575 0.05294712 0.029128151 0.050598875 0.06446541 0.07895544 0.08000262 0.1013313 0.091164574 0.010959547 -0.04495315 0.079816066 -0.054194625 0.08623906 0.09693203 0.083928704 0.08133125 0.07226026 0.066413805 -0.070416585 0.09490586 0.068101555 0.07996406 0.10107661 0.08090243 0.10054878 0.09410211 0.097710446 -0.05536945 0.069669224 0.006793288 0.030855114 0.09944917 0.10169257 0.08646261 0.070950314 -0.055836495 0.042808447 0.0735272 0.096385024 -0.053958844 -0.014784754 0.108213045 0.03304018 0.056175068 0.04370927 0.07573837 0.07252582 0.08899207 0.014387318 -0.040755067 0.048658945 0.023513256 0.061126232 -0.038060583 0.09273581 0.060082544 0.045512788 0.04643194 -0.03294928 0.07925692 0.103857316 0.09791397 -0.04742632 0.029687427 0.07505883 0.08799701 0.04267655 0.09759124 0.041615985 0.07410591 0.009658575 0.03385477 0.10359084 -0.034190487 -0.056342106 0.10035359 0.061500646 0.05337912 -0.05547387 0.08237679 0.06726608 0.08831237 0.03553283 0.07581805 0.08726049 -0.049695324 0.10300714 -0.059230004 0.08719336 -0.05560205 0.08969464 -0.028865485 -0.049228158 0.09388478 0.053132784 0.06299439 0.007013582 0.084630534 0.103543386 0.029895242 0.020679656 0.08037488 0.06560113 0.004887562 0.05290245 0.040677473 0.07028326 0.057608455 0.069178894 0.03093062 0.09416263 -0.04676451 -0.014757006 0.02497159 0.09381826 0.07324808 0.041736927 0.0992778 0.043828476 -0.0454979 0.060880493 0.09625765 0.07314937 0.08438365 0.07498616 0.026607083 0.10133939 0.10731675 0.011161824 0.09347581 0.083678715 0.09553157 0.06564954 0.06499475 0.06498657 -0.049018007 -0.053628184 0.07882661 0.06356537 0.0892886 0.038612258 0.07490842 -0.018151876 -0.041293617 0.08076139 -0.05059875 -0.030624103 0.080150686 0.03374038 0.081763506 0.081982575 0.09473361 0.070281625 -0.001497857 0.06029432 0.08923615 -0.019040449 0.009357498 0.10084299 0.037566137 0.08277692 0.0044980245 0.103447095 -0.051320318 0.06338323 -0.058917798 0.080569185
doc_31 -0.02784232 0.10346899 0.110682994 0.09206855 -0.018935775 -0.035443686 0.10996265 0.124656014 0.12083596 0.11073837 -0.0022045262 0.11324788 0.10620946 0.11896001 0.10063676 -0.03175339 0.09209745 -0.046785086 -0.0093947835 -0.03248989 0.11146349 0.10135412 -0.033575274 -0.013427892 0.11223854 -0.031230137 -0.041137666 -0.030760791 0.11594769 0.12605885 0.0023523015 0.099271454 0.1128846 -0.024717513 0.110475 0.11560569 -0.042030673 -0.040411435 -0.03795737 0.11415109 -0.030937098 0.10968504 0.1100945 -0.0417709 -0.02763253 -0.035093408 -0.02556299 -0.03631589 -0.04825621 -0.022716094 0.1202535 0.10143683 -0.045168456 0.11093733 -0.047668435 -0.029368315 -0.043604754 -0.03428532 -0.052945316 -0.04399484 0.12038173 -0.01638677 0.112917244 -0.030150263 -0.035617087 -0.022589706 -0.046044078 -0.04199036 0.1126642 0.1179186 -0.030621592 -0.036691565 -0.029092368 0.10349092 0.10484409 0.120543234 -0.016501851 0.115881085 -0.03480152 -0.029910635 -0.038723923 0.10182913 0.006872771 0.10948761 0.112951696 0.109115764 0.10374674 -0.043696035 0.11077191 0.11159934 0.1026501 0.090737924 -0.04754522 0.11782855 -0.04704023 -0.026387839 0.12218058 0.114025265 -0.04221184 0.12134695 -0.03898484 0.07438861 0.115162544 0.1120473 0.09904805 -0.03718361 -0.0334582 -0.014814256 -0.04305894 0.11821142 0.11333464 -0.021067966 -0.020428997 -0.02400788 -0.03891662 0.08302433 -0.038361598 -0.038404375 0.05161854 -0.04268626 -0.035416685 -0.018955532 -0.019427724 -0.020559102 0.075334325 -0.03800452 -0.03448308 -0.032484435 -0.057854764 0.10902776 -0.029019922 -0.03689281 0.10423326 0.11691655 -0.040759314 -0.025443938 0.120521665 0.11029448 0.116980314 -0.039778274 0.11560278 -0.031257696 0.08216782 -0.03760141 0.10660887 0.11064312 0.109574676 -0.028597498 -0.029415123 0.116839215 -0.04028342 0.10468549 0.10815826 0.116028644 -0.053612836 0.11807821 0.10742193 -0.032327373 0.10234611 -0.039805748 -0.043587122 0.107317105 -0.026233595 -0.03021295 -0.034570325 -0.04983628 -0.019629452 -0.03580424 -0.03987264 0.1156617 0.10937095 -0.023716098 -0.021857502 0.10722972 -0.012335739 0.115372725 0.08861353 -0.013136986 0.11801799 0.11270285 -0.036359616 -0.0123746 -0.016551288 -0.054997817 -0.040858034 -0.024085488 -0.028292583 0.12022529 -0.0408703 0.0933478 0.10778971 -0.029841736 0.011503298 -0.025655698 0.11912221 -0.033230066 0.10380875 -0.016090015 -0.022394734 -0.03431323
doc_32 0.072763845 0.0061894357 -0.014617641 -0.0125349965 0.07598494 0.073873274 -0.006068317 -0.003198973 -0.012067299 0.014045745 0.07049784 -0.028179677 -0.0084562 -0.0017788471 -0.019328326 -0.025556512 0.010476973 0.0746146 0.0748678 0.076071315 -0.010265441 0.018048013 0.07492152 0.07170184 0.015031677 0.07406926 0.066231176 0.07460986 0.00070692925 -0.0046764854 -0.002833266 -0.01269199 -0.028494336 0.07245574 -0.0021804543 -0.0025224774 0.06710267 0.07583498 0.072457045 0.015883002 0.073292926 -0.0152790835 -0.021685906 0.06998727 -0.025385242 0.07506979 0.07639865 0.07387247 0.07365791 0.071202174 0.0105244 -0.029808791 0.06990622 0.0037614764 0.06974802 0.07292371 0.07314665 0.07031018 0.07308812 0.0736899 -0.021956014 0.071936555 -0.008576004 0.052374914 0.074251525 0.07824966 0.067771725 0.07820409 -0.015948044 -0.0057304497 0.071082965 0.0763293 -0.029641803 -0.016063174 0.026446579 0.0043572476 0.07595213 0.0010873277 0.07002075 0.07384515 0.07334085 -0.013500959 -0.017376743 -0.004687919 -0.012706476 -0.0024724198 -0.019024575 0.07705791 -0.004246572 0.0027227374 -0.005685446 -0.008727073 0.07711646 0.010069794 0.07971275 -0.020252982 -0.015043708 0.0073870365 0.067685686 -0.009260273 0.07225639 -0.009383541 0.0017597913 -0.004233825 -0.013757498 0.07440283 -0.023277553 -0.015709989 0.07364804 0.0018659146 -0.006422273 -0.028839586 0.076691255 0.06808289 0.06935144 -0.0008959649 0.07008942 0.06989548 -0.020905724 0.07349645 -0.025069702 0.07462796 -0.027640043 0.07528208 -0.020846581 -0.021799391 0.07727591 0.063812785 0.07160259 -0.014537606 0.07613948 0.07486418 -0.019583177 -0.007559579 0.07207048 0.07127869 -0.009900516 -0.0059636575 -0.003725892 0.07139372 -0.0009991697 0.07436133 -0.013978293 0.07551693 -0.02449621 -0.009308004 -0.010521405 0.07377659 0.07273045 -0.0006269254 0.075640336 -0.01950944 -0.018214973 -0.008001069 0.077120185 -0.0007515651 0.005393139 0.07198982 -0.007617115 0.08040133 0.07249714 -0.01859939 0.07514035 0.072973475 0.06953539 0.07857043 0.06527346 0.07418649 -0.019490462 -0.017026037 0.008261136 0.07347884 0.077037916 0.0018547555 0.06740286 -0.012458909 -0.016190741 0.07311556 -0.015549597 -0.01837847 0.07230773 0.053419784 0.07435991 0.07409589 0.077118784 0.07185172 -0.017015213 -0.0029395153 0.077799216 -0.004298381 -0.018314037 0.073253 0.013885567 0.07835905 -0.0024304928 0.07613549 -0.028018042 0.07018884 -0.029626645 0.071796365
doc_33 0.06971496 -0.024941815 -0.02869069 -0.025296953 0.06439864 0.06885193 -0.023084315 -0.01861953 -0.021647988 -0.008183464 0.070501655 -0.024003454 -0.0267155 -0.023044093 -0.024232855 -0.022883464 -0.023578428 0.06482167 0.07100827 0.068089664 -0.025324306 -0.018504437 0.06716054 0.06089345 -0.010237436 0.0671608 0.06714492 0.06456431 -0.019039739 -0.023346901 -0.020582445 -0.021241311 -0.02351569 0.070405014 -0.022625957 -0.02026552 0.06831003 0.06601169 0.06578425 -0.01895201 0.066295534 -0.027618527 -0.024839615 0.06569524 -0.018597312 0.06785823 0.06576237 0.066198416 0.069349624 0.06610879 -0.02209762 -0.02257085 0.06717265 -0.017614545 0.071072444 0.060569104 0.06797125 0.068144076 0.06056788 0.06673313 -0.025398256 0.0654563 -0.023386456 0.058555614 0.06587264 0.06455913 0.066211656 0.06817676 -0.028181702 -0.024853947 0.072682045 0.058959216 -0.020516085 -0.023675982 -0.012929003 -0.020314146 0.06861115 -0.023767328 0.06872287 0.06665385 0.06764193 -0.026363755 -0.01813329 -0.023642404 -0.023150433 -0.02414904 -0.02626321 0.06775964 -0.025346981 -0.025448 -0.02706126 -0.024228102 0.07023944 -0.017442273 0.07043361 -0.02542967 -0.024765756 -0.02133852 0.060360905 -0.02232131 0.06886369 -0.020543998 -0.02030448 -0.024411628 -0.027237743 0.058479138 -0.0245506 -0.022487033 0.061180435 -0.020969804 -0.017597048 -0.02176745 0.06638302 0.07012357 0.067350894 -0.023715723 0.067358606 0.0678787 -0.018721731 0.061384134 -0.023805428 0.06439009 -0.02221864 0.06463213 -0.022451375 -0.010504009 0.06289144 0.06448703 0.06579706 -0.02677059 0.06511265 0.06761253 -0.0267183 -0.02758122 0.065867625 0.06184106 -0.021972986 -0.022637064 -0.023478229 0.06899511 -0.016177362 0.06550886 -0.026773527 0.06302968 -0.027738571 -0.020908909 -0.020253226 0.06470856 0.0666567 -0.02095152 0.06525618 -0.02176894 -0.028713118 -0.020788897 0.06589656 -0.019329857 -0.021776583 0.061938155 -0.022352112 0.068232425 0.06713642 -0.022182332 0.06649569 0.059863824 0.06875937 0.06740682 0.06608993 0.07120552 -0.025487505 -0.02252297 -0.017727118 0.071740285 0.06786683 -0.018386165 0.07197358 -0.026304472 -0.021022446 0.06701522 -0.02462565 -0.022958966 0.07059408 0.052484233 0.06628072 0.067734405 0.06469796 0.068884246 -0.010022631 -0.02538598 0.0666119 -0.0070911795 -0.025761541 0.06673226 -0.018902868 0.05840754 -0.023199314 0.06364601 -0.026262056 0.06692011 -0.025261136 0.06448667
doc_34 0.01851442 0.017407283 -0.008028415 -0.0018552551 0.018079724 0.025554093 0.014204764 0.010572765 -0.016969616 0.04194175 0.014887424 -0.00820958 -0.014940616 0.010918188 -0.01361947 -0.017760357 0.03394632 0.026905306 0.016280174 0.028405627 -0.015940713 0.02346506 0.027581636 0.023434563 0.042062677 0.03242709 0.028159691 0.029118825 0.018705102 0.015974568 -0.006161568 0.003762756 -0.020903155 0.014336517 -0.0035149101 0.024838604 0.009084355 0.018310636 0.022789974 0.042052787 0.027026735 0.0034617952 -0.007204801 0.020718498 -0.015372042 0.029131815 0.019947728 0.019153263 0.024868578 0.023184601 0.025163017 -0.02484674 0.028577102 0.031144744 0.02041936 0.030877313 0.029141894 0.03258866 0.028615754 0.024626397 -0.0072200242 0.011824751 -0.0011744219 0.008318621 0.03184531 0.026509596 0.02596663 0.02344161 -0.02242671 0.019325882 0.01592499 0.027476663 -0.02129298 -0.0019306018 0.04999111 0.029398788 0.012859907 0.008747375 0.02593291 0.016216805 0.025516141 0.0065172096 -0.013774779 0.014613514 0.0073679592 0.020125277 -0.012461266 0.032930683 0.018091919 0.008046917 0.0029074503 -0.012589371 0.026853342 0.04792326 0.026583903 -0.010512815 0.005985227 0.035562553 0.027081348 0.011097764 0.025329247 0.0042002113 0.03294399 -0.0061851093 0.0016655781 0.0281033 -0.021911561 -0.020029573 0.030295312 0.03129415 0.009086884 -0.012468189 0.026197342 0.012274706 0.025211489 0.02490172 0.01814846 0.018967772 -0.017442545 0.031360053 -0.018319353 0.019641643 -0.021839388 0.02550454 -0.017644832 -0.015208049 0.029793147 0.00066074106 0.008094048 0.0026668948 0.020042121 0.03163708 0.002763167 0.007200451 0.030330064 0.012891969 0.0029017837 0.012395694 0.01595161 0.019884637 0.013730648 0.017452648 0.0021662274 0.023389425 -0.015649877 0.00095062796 -5.5556273e-05 0.021804472 0.017503807 0.012953964 0.031953454 0.008393716 -0.010447656 0.013705193 0.031687148 0.02166084 0.03899825 0.01804254 0.00144061 0.026759755 0.03004682 -0.00239879 0.024849512 0.018749038 0.026132405 0.011901544 0.014774184 0.005900709 -0.02210158 -0.006986321 0.046134237 0.017080413 0.030745741 0.008916022 0.02270897 -0.002942531 -0.013914708 0.018473238 -0.024990493 -0.0065973513 0.02455566 -0.0024193977 0.018172078 0.024935197 0.023440616 0.018748006 -0.019702116 0.011961805 0.030693537 -0.003867587 0.009999755 0.034707896 0.0044282586 0.026441775 0.0066196513 0.026760608 -0.012303188 0.018833125 -0.021028578 0.021906981
doc_35 0.049207848 0.07589381 0.053501204 0.0037072226 0.06518671 0.06753947 0.081373885 0.058250852 0.059390604 0.15659058 0.04771686 -0.007816914 0.037701126 0.07201707 0.011749646 -0.06077129 0.11197391 0.07993889 0.048680764 0.09324063 0.034480147 0.11230693 0.057758883 0.08433492 0.1414263 0.07650818 0.08448305 0.085640386 0.12203571 0.06335347 -0.014741802 0.04138648 -0.027668394 0.038349934 0.06264688 0.088779196 0.02275546 0.06532513 0.061794408 0.12550132 0.06422527 0.053055283 0.025417268 0.07605038 -0.054490782 0.08184029 0.06310782 0.06282438 0.067934535 0.04727471 0.087750666 -0.046967737 0.1012905 0.088755965 0.05059413 0.08616171 0.08164809 0.09218472 0.08454563 0.079629205 0.029284349 0.019158008 0.019860243 0.024684109 0.09929445 0.08183813 0.090360336 0.056496162 -0.023238163 0.068242535 0.04723835 0.07399202 -0.06635838 -0.0020805614 0.14025447 0.07905696 0.04695535 0.053188574 0.06712915 0.060675994 0.07570591 0.029768746 -0.04885424 0.049944066 0.020329576 0.08361016 0.008644613 0.07715571 0.06683775 0.08797 0.057448626 0.009064116 0.053100374 0.13780575 0.09618937 -0.027210211 0.072993554 0.13357562 0.066745855 0.06277423 0.082078174 0.04237415 0.11952963 0.06357116 0.039239734 0.08777543 -0.06716368 -0.0548811 0.08694039 0.07615099 0.08438309 -0.06890429 0.0746414 0.02815881 0.062870584 0.09021923 0.038367245 0.056123495 -0.034895033 0.08133933 -0.06283935 0.07486221 -0.06803445 0.07088078 -0.018193522 -0.033243746 0.0714564 0.020388594 0.034891706 0.022096904 0.060876727 0.07541939 0.040739063 0.032712318 0.079378806 0.038678512 0.060651507 0.07966971 0.049515676 0.04098345 0.1253676 0.044376217 0.022680696 0.07748908 -0.0048826905 0.035798308 0.035180423 0.064345986 0.051266216 0.07211952 0.079981804 0.03965261 0.011305744 0.047578234 0.08816643 0.0722153 0.1294696 0.05547931 0.016397383 0.07868868 0.093105495 0.02263125 0.07955076 0.05858469 0.078054406 0.041539043 0.02482364 0.02926532 -0.062507555 0.017808171 0.15394033 0.034571957 0.07225858 0.06803453 0.0511678 0.018342739 0.016215902 0.05225212 0.0035189923 -0.0056320084 0.06741647 -0.021456294 0.056490675 0.071444035 0.06693518 0.061751258 -0.04198223 0.09858824 0.07644536 0.0657676 0.009320648 0.07688931 0.036818765 0.062414344 0.07557478 0.06604929 -0.0004614687 0.04412518 -0.056563098 0.06641321
doc_36 0.081858605 0.032264315 -0.040181827 -0.017597461 0.091125 0.111218005 0.0061503197 -0.0055726347 -0.032917585 0.121654704 0.08136868 -0.06467848 -0.045231923 0.016952448 -0.046601526 -0.06360588 0.082425795 0.11715914 0.08731801 0.13754636 -0.054568328 0.07668132 0.098154105 0.12273254 0.10345406 0.12118641 0.12758178 0.13716528 0.041453738 0.015467918 0.03127812 0.0070486395 -0.07475683 0.07710815 -0.01266308 0.043410707 0.06881635 0.10099156 0.10632014 0.09781829 0.10984404 -0.02554478 -0.0615765 0.11497765 -0.060092438 0.123014875 0.10416124 0.08745853 0.11626619 0.08088949 0.03697452 -0.08118174 0.12416467 0.07592728 0.09347632 0.12652561 0.118016176 0.11306824 0.12472797 0.11401491 -0.0479722 0.07211381 -0.03604942 0.004573885 0.12836258 0.12410279 0.12005786 0.09592912 -0.066881664 0.028708009 0.084098615 0.13497648 -0.065210044 -0.04265967 0.11724199 0.07963583 0.079980046 0.019572586 0.11131638 0.091792375 0.105770886 -0.03053756 -0.028826738 0.04536243 -0.012901767 0.048634857 -0.039174788 0.11783481 0.018135445 0.075323746 0.0049563334 -0.04718782 0.10828599 0.11302187 0.12160567 -0.04568554 -0.020456687 0.04335244 0.117484756 0.0032075506 0.12066865 -0.01181522 0.04504036 -0.031022657 0.0027269595 0.1261617 -0.06428303 -0.061060723 0.12578036 0.04910822 0.027033983 -0.060824405 0.10499189 0.07253298 0.12375906 0.048420664 0.07276188 0.11188074 -0.046191424 0.12629482 -0.058399983 0.11186037 -0.06674636 0.10350117 -0.049278166 -0.048635058 0.11637559 0.076972514 0.07127301 -0.035859574 0.10701001 0.114168935 -0.029057978 -0.027424637 0.11498306 0.07970181 -0.009038725 0.031546455 0.045722786 0.08772298 0.048408676 0.0918098 -0.028625786 0.1183548 -0.06375059 -0.01716622 -0.0036530346 0.11010312 0.081861824 0.027735962 0.13122949 -0.035218123 -0.05871108 0.01170354 0.11195513 0.044538546 0.08266522 0.0909896 -0.012595333 0.116932064 0.12732415 -0.031781226 0.12184236 0.10236979 0.10264167 0.09351183 0.07176649 0.06935805 -0.052440118 -0.049899146 0.10235249 0.08691163 0.124802545 0.0038864138 0.08458527 -0.044715226 -0.043085936 0.09209334 -0.075167276 -0.043792643 0.11443781 0.017701894 0.10903211 0.11235942 0.11202928 0.107508294 -0.047206294 0.02338501 0.12101438 0.018972024 -0.027112568 0.12333776 0.044703513 0.10346514 0.02729603 0.10994461 -0.057551846 0.06813544 -0.06287774 0.1090763
doc_37 0.017837325 0.07777578 0.08651188 0.054425947 0.02687249 0.016625177 0.073672555 0.08445039 0.088643655 0.08019943 0.036968987 0.0816233 0.0740543 0.089660935 0.07485625 -0.02981275 0.06359647 0.0067214677 0.030531337 0.013437715 0.07677386 0.07303649 0.015799114 0.024315935 0.082661405 0.016497886 0.0065931953 0.017478257 0.08431271 0.08811634 0.032063805 0.06979452 0.074650615 0.023770772 0.07118432 0.08154698 0.008738644 0.006780686 0.004133587 0.08743559 0.007649622 0.0828734 0.08361363 0.011780981 -0.02858549 0.019225162 0.023726707 0.011749275 0.0040133744 0.022421528 0.08687554 0.0736376 0.0049464414 0.07635217 0.001427107 0.01675453 0.011007968 0.0166463 -0.0012338841 0.008314077 0.088215165 0.029886097 0.08735617 -0.009375191 0.012238926 0.024383035 0.0062922565 0.009792069 0.08634696 0.08490233 0.02002218 0.016264508 -0.028928561 0.06153686 0.073461175 0.08702881 0.022729494 0.08714452 0.015001189 0.01885552 0.011593785 0.070212126 0.0039504287 0.076255955 0.08222709 0.08105599 0.061650936 0.007222768 0.082085215 0.07776206 0.060784567 0.05573163 0.006774338 0.08662164 0.003017895 -0.024276353 0.08976997 0.08830541 0.010227835 0.0877818 0.0045462595 0.033980746 0.08376678 0.08311977 0.06320999 0.006259627 -0.018214628 -0.015958961 0.0092669185 0.08578385 0.08537179 -0.023502167 0.026194233 0.024905056 0.009077772 0.052148074 0.013489526 0.016053401 0.030613566 0.007004363 -0.03715308 0.020762755 -0.015729602 0.024467098 0.046435975 -0.03833151 0.015562156 0.012628743 0.008220785 0.07636357 0.01988683 0.016550248 0.07398368 0.08333422 0.002520544 0.021294795 0.0867157 0.08353698 0.08229506 0.014420047 0.0870277 0.020728676 0.04398971 0.013041833 0.07462262 0.081577174 0.0838337 0.014521001 0.01931243 0.089509055 0.0083775055 0.06994008 0.08242879 0.08501598 -0.001029979 0.08485105 0.07409856 0.017223574 0.062944956 0.012305392 0.012515843 0.07554053 0.014624681 0.017221358 0.013952642 0.0066641048 0.023751926 0.013539775 -0.037737165 0.08540357 0.07879589 0.025837637 0.0219324 0.08408452 0.03101528 0.08437028 0.051302686 0.027461404 0.08693547 0.08113712 0.0052174213 0.02394091 0.025147077 0.0072544822 0.013963978 0.027583081 -0.013204695 0.091685355 0.008300416 0.06373121 0.08002093 0.014192283 0.036950763 0.024514366 0.08805667 0.015043954 0.07224394 0.024875347 -0.020309623 0.014421603
doc_38 0.078688785 -0.0021697278 -0.016557302 -0.011074985 0.0742744 0.06290668 -0.01632233 -0.018494936 -0.011459395 -0.0105222 0.07658889 -0.01903604 -0.013662113 -0.010784552 -0.024908181 -0.016155116 -0.010011341 0.07297843 0.07272183 0.058660038 -0.009886695 -0.011189145 0.075883396 0.07371542 -0.0019619404 0.065802716 0.069212556 0.0650188 -0.015544994 -0.018159878 -0.013340332 -0.017508935 -0.023042776 0.07627179 -0.011835489 -0.0070659975 0.068844594 0.07817128 0.07350403 -0.00479175 0.0682416 -0.020088017 -0.020057254 0.06914379 -0.021077584 0.068182446 0.0700752 0.07354701 0.07265904 0.07413964 0.00028709648 -0.023706833 0.06771646 -0.016109556 0.070851445 0.07489024 0.07368258 0.06906104 0.069610074 0.07410016 -0.021905648 0.07045508 -0.019041639 0.044352215 0.07037736 0.071914315 0.06319872 0.07010795 -0.018587107 -0.01871709 0.07108898 0.067249365 -0.02085691 -0.018777091 -0.00039172964 -0.002262041 0.07703436 -0.018738689 0.06929451 0.06925411 0.06755348 -0.0155453505 -0.016567964 -0.010653863 -0.026896024 -0.010494445 -0.0105007 0.06801169 -0.009444147 -0.013795625 -0.017652845 -0.011074179 0.075964 -0.0040140105 0.06947088 -0.0103582805 -0.019471165 -0.010320695 0.067526296 -0.01900404 0.0699556 -0.009093321 -0.0144903185 -0.008558925 -0.022677494 0.0669776 -0.008016429 0.00383289 0.07095359 -0.018857779 -0.006955809 -0.02121371 0.08351441 0.068481825 0.07504155 -0.0060607092 0.07192262 0.076961294 -0.014633294 0.062793896 -0.02179018 0.067539215 -0.017434996 0.07263907 -0.011641908 -0.009336814 0.072144575 0.06469423 0.07691737 -0.020935992 0.07447511 0.07823416 -0.0152762085 -0.010525049 0.07184103 0.06828438 -0.00885322 -0.022941737 -0.015769824 0.068693824 -0.020017557 0.07265404 -0.025178812 0.068578385 -0.016414424 -0.018172987 -0.0157083 0.07400061 0.07161523 -0.011045751 0.0702716 -0.015097724 -0.017575497 -0.015821848 0.0735343 -0.0137394015 -0.013844593 0.07307879 -0.01816644 0.06835365 0.07094274 -0.023306612 0.06320568 0.069651686 0.06700354 0.077106975 0.07281384 0.07364111 -0.025083113 -0.015702501 -0.008524734 0.07146523 0.07572038 -0.017436886 0.06815302 -0.020738676 -0.011986144 0.074566945 -0.006008058 -0.025128763 0.066954195 0.06381787 0.069411546 0.07249477 0.07413422 0.07246977 -0.008313011 -0.017423414 0.0732219 -0.016088055 -0.02148782 0.075044416 0.06098215 0.06948305 -0.015268582 0.06448147 -0.025902763 0.071968384 -0.0155720925 0.076108165
doc_39 0.01795908 0.08285595 0.08850116 0.058960546 0.023389872 0.015133074 0.07531555 0.08509573 0.09172176 0.07959955 0.034722354 0.08337341 0.07524706 0.08927791 0.07361036 -0.02894096 0.06598087 0.0046437792 0.028894056 0.011646666 0.07902559 0.07370554 0.014460225 0.020003285 0.087594554 0.017298013 0.00523651 0.01729136 0.088206336 0.090466596 0.034301177 0.071224935 0.07790223 0.017317522 0.07364681 0.08195229 0.0074878475 0.0007767123 0.0015327847 0.08999046 0.0054772915 0.085472494 0.085068755 0.008470371 -0.028659195 0.019283514 0.022679042 0.0075508594 0.0018391828 0.020277021 0.08733174 0.07564499 0.0040685027 0.077184215 -0.00018706871 0.012425262 0.008816216 0.015452578 -0.0052452185 0.006698668 0.09097526 0.024086047 0.0855501 -0.011236189 0.009268162 0.02115218 0.0030493252 0.010267755 0.08545626 0.08624498 0.020373778 0.015721679 -0.030571833 0.06305806 0.076203056 0.08914921 0.021237908 0.088888824 0.015391036 0.017301777 0.011024635 0.072006755 0.0039313715 0.074800946 0.08502005 0.07999091 0.0613644 0.0045205834 0.085258976 0.08097583 0.059806764 0.05635637 0.0034371745 0.09130074 0.0008001374 -0.024901772 0.092742376 0.08761579 0.0068022 0.08934735 2.9961113e-05 0.038993824 0.087868616 0.0849423 0.064519964 0.0041516568 -0.016300138 -0.016340477 0.0037510754 0.0894084 0.08512251 -0.025559591 0.025670027 0.023619214 0.008032646 0.05219175 0.012909615 0.012483602 0.031189613 0.0017923266 -0.038577285 0.020231515 -0.018294115 0.022028252 0.042596277 -0.038743284 0.011819603 0.008009985 0.007841611 0.07629808 0.01631614 0.010663073 0.07430601 0.08699968 0.0012074164 0.018081505 0.08762832 0.084625706 0.08572772 0.010810565 0.092011735 0.016747413 0.04511863 0.007920111 0.07465594 0.084115125 0.086417824 0.013344178 0.016406063 0.089965 0.006614771 0.07229237 0.08168958 0.08667642 -0.003603768 0.08711679 0.07452488 0.014486081 0.06282333 0.012452533 0.0087080635 0.07715189 0.010590615 0.016776716 0.012221922 0.0018642833 0.020652292 0.011823894 -0.037167344 0.08485378 0.07861704 0.02122726 0.018376896 0.087628335 0.031714924 0.086160235 0.053956054 0.02671869 0.088367805 0.08260067 0.0032555412 0.023445373 0.022638286 0.0051053115 0.01239601 0.024429202 -0.015531471 0.09422273 0.006398032 0.06657347 0.08006991 0.011332221 0.032471057 0.022181474 0.09041748 0.011565552 0.07724545 0.020416766 -0.022972077 0.014166659
doc_40 0.058813732 -0.0025359225 -0.023831833 -0.015463866 0.052516118 0.06213059 -0.009861388 -0.013172033 -0.0148975 0.01127294 0.05398003 -0.031659283 -0.0149276275 -0.010453991 -0.024089951 -0.020471558 0.0028910772 0.056630984 0.051322386 0.053007044 -0.025281148 0.0035003184 0.05826945 0.05068552 0.008132463 0.061158456 0.059734955 0.0566755 0.0027860282 -0.007631501 0.012570907 -0.009354162 -0.023146195 0.05045095 -0.021101393 0.0007849353 0.04441014 0.054628067 0.04851571 0.017946906 0.056486055 -0.015875466 -0.013176251 0.055800952 -0.01969264 0.057619207 0.05992943 0.056261443 0.055542085 0.054806396 -0.0067165303 -0.027718253 0.06066461 0.00628376 0.050285973 0.060104083 0.05044404 0.054449927 0.05704888 0.0532446 -0.025529508 0.04557363 -0.0242222 0.009772651 0.06151434 0.058275737 0.055655386 0.05458864 -0.02775397 -0.007763133 0.049072724 0.05514687 -0.021179117 -0.017689748 0.022264011 -0.009196154 0.043253317 -0.012987906 0.056105535 0.05371947 0.05647814 -0.022043597 -0.02094006 -0.013739674 -0.017321635 -0.009911597 -0.020715086 0.065981634 -0.0064297775 -0.01012991 -0.008500476 -0.024261914 0.04898168 0.024819415 0.05640897 -0.018931028 -0.00884959 -0.0033597376 0.058035772 -0.008049729 0.055056963 -0.0048369393 -0.0042247735 -0.017907094 -0.013050989 0.05902689 -0.015988864 -0.0040234723 0.05367755 -0.002533038 -0.0059256465 -0.02202093 0.053813208 0.0512378 0.053084604 -0.0002870639 0.053837657 0.05455997 -0.027106658 0.056682155 -0.02294472 0.05446968 -0.018639568 0.05496996 -0.027470872 -0.018083725 0.059433714 0.039924506 0.04409064 -0.01849281 0.05337125 0.059326563 -0.015580604 -0.024928302 0.060728364 0.05317876 -0.013179082 -0.015342006 -0.00919916 0.057027623 -0.0010962161 0.0510462 -0.023263354 0.06525129 -0.026456892 -0.014434557 -0.014851957 0.057163652 0.053993154 -0.0041075777 0.056810223 -0.021232668 -0.025256885 -0.0032577128 0.05980646 -0.00582965 0.0030451256 0.053111687 -0.022128895 0.05528149 0.05554247 -0.020035507 0.053331558 0.053244025 0.057890087 0.05361331 0.048443228 0.04758034 -0.015789125 -0.018427115 0.0108694695 0.052630294 0.05839488 -0.012545254 0.05451966 -0.025644636 -0.016889453 0.05724117 -0.023065045 -0.020374604 0.05613796 0.032360137 0.053933084 0.052181814 0.053646877 0.058485933 -0.017325558 -0.010108723 0.058317225 -0.012561525 -0.01896201 0.0532427 0.0070049386 0.059193194 -0.0051100487 0.051127475 -0.025010845 0.04602506 -0.02167253 0.051510736
