doc_0 0.067242794 0.069895774 0.061375227 0.07860427 -0.020470504 0.061300427 -0.0064734956 0.061025955 -0.0041315546 0.0029403684 0.039247304 0.06731772 -0.033572473 0.015352254 0.049396724 0.057720568 0.031663135 0.060376026 0.06760019 0.028286394 0.07609683 0.02955022 -0.013857581 0.007882184 -0.018685957 -0.024239928 0.07187736 0.064361416 -0.013698163 0.020502562 0.06466104 0.006318488 0.035021182 0.058177527 -0.0057048737 0.055489253 0.019501582 0.030251568 0.07819696 0.027066045 0.06996043 0.010361361 -0.0034958525 0.012670532 0.061091736 0.04095457 0.06595278 0.0151743665 0.061982375 0.01241472 0.028677925 0.053536087 0.07295752 -0.018980898 0.050907075 -0.026480041 0.084874846 0.07186127 -0.035424065 0.06326027 0.022668755 0.0394973 -0.016718818 0.022701655 -0.0010135237 0.0707883 -0.01055629 0.07337318 -0.009998699 0.07142139 0.07051958 0.08135465 0.022120941 -0.01459526 -0.029017027 0.057876278 0.026597999 0.06902244 0.073979236 0.07816686 -0.018315911 0.010842485 0.05625514 0.007777807 0.01665571 0.069681115 -0.009375568 0.07096224 0.01206339 0.02673629 0.0597754 -0.030784972 0.038917784 0.027903592 -0.010850798 0.008093686 0.075222515 0.068261735 -0.024913052 0.070316546 0.062231183 0.008043766 0.03704947 0.0668128 -0.023513734 0.02846666 -0.007918963 -0.003934264 -0.03272318 0.06399186 0.063974045 -0.006789035 0.06303622 0.0644199 0.07018321 -0.018976556 -0.0031593894 0.07526059 -0.013591845 0.07816732 0.005254999 0.02122359 0.0667 0.051356647 0.020793641 0.07313808 0.07349025 -0.008342573 0.06466837 0.06868498 0.07214972 0.0009133727 0.06464368 0.06556549 -0.0071803043 0.0814493 0.030048855 0.057157777 0.016118288 0.038510147 0.07322114 0.0654196 0.044579197 -0.008959446 0.06951663 -0.030934175 -0.015621097 0.06957374 0.01575375 0.064702444 0.012538763 0.019922793 0.0012355221 0.018916909 0.005926409 0.0628879 0.071272574 -0.018874401 0.08017282 0.069928095 -0.005724558 0.069665566 0.07574943 0.0735849 0.015153852 0.072280966 0.06259556 0.057000596 0.06377536 0.07034573 0.011816709 0.056618504 -0.0029768292 0.06290098 -0.004641303 0.0763909 0.014022157 0.06792329 0.061740987 0.0100972755 0.022346312 0.022835124 0.06926104 0.07670424 0.07265807 -0.007784484 0.055535972 -0.005793215 0.007323699 0.07426911 0.07543212 -0.011044892 0.057779446 0.029821571 -0.027666727 0.02785189 0.022777766 0.07544862 0.06805568 0.07801763
doc_1 0.064808294 0.07420519 0.06845885 0.06685527 -0.02482007 0.06284377 -0.01818347 0.06306116 -0.016325608 -0.01730518 0.0027351957 0.062531345 -0.01722655 -0.0070346957 0.062109232 0.060834356 -0.0025587692 0.064354815 0.071192786 -0.0074411817 0.0711039 -0.0028042297 -0.024484409 -0.01850717 -0.02413056 -0.024465065 0.064197764 0.06663709 -0.01965077 -0.016922241 0.064998776 -0.016832236 -0.013606022 0.06551373 -0.011696837 0.06077989 -0.011935265 -0.0117313 0.06604905 -0.0099442275 0.06830369 -0.008692704 -0.018051112 -0.0011449023 0.059135698 0.0044848127 0.063300975 -0.00894776 0.06465522 -0.015802372 -0.012178417 0.06467329 0.06840148 -0.018994687 0.048438296 -0.018090049 0.06861888 0.061030988 -0.021163967 0.0648926 -0.0065004136 -0.0052238666 -0.026321534 -0.0019345182 -0.012735369 0.06504841 -0.016799038 0.06584586 -0.021860044 0.06365979 0.06362621 0.06636533 -0.004244459 -0.021914424 -0.02462117 0.06587492 -0.0050975317 0.06201186 0.066408634 0.061085496 -0.007840486 -0.013858553 0.065618165 -0.010950854 -0.013452571 0.06519848 -0.024181396 0.06351446 -0.016612867 -0.0058281342 0.06725295 -0.02217153 -0.009115228 -0.0038316445 0.02888515 -0.014565726 0.06556261 0.06709611 -0.02239154 0.06907867 0.06331325 -0.02131189 -0.0027733413 0.06462077 -0.018918835 -0.017610298 -0.016238563 -0.02114739 -0.028450523 0.06706202 0.060831197 -0.018501882 0.06916874 0.062062263 0.064482 -0.024296781 -0.012735446 0.064363845 -0.012360939 0.06645619 -0.014437715 -0.0045334175 0.062598005 0.06228926 -0.009427331 0.068390794 0.06586687 -0.017089909 0.063540496 0.06684041 0.067267284 -0.018303236 0.06642526 0.06798388 -0.019261437 0.061901424 -0.0018424741 0.06317563 -0.009780548 -0.0009772831 0.066369176 0.0658482 0.050047442 -0.021203334 0.0637517 -0.02697917 -0.018120643 0.06644381 -0.0035113215 0.06526399 -0.011456143 -0.005955626 -0.0091899 -0.008223635 -0.019740744 0.061428092 0.059127413 0.01634318 0.06627258 0.060343534 -0.010483996 -0.004294691 0.07283166 0.06393856 -0.016786253 0.06730143 0.06149972 0.04183778 0.049600646 0.062611856 -0.012706437 0.059410945 -0.021237072 0.06607233 -0.018754836 0.071380354 -0.01464859 0.07187622 0.066550985 -0.01802541 -0.004370576 0.0015577553 0.06571953 0.06681827 0.070256025 -0.015948124 0.061886992 -0.021080924 -0.010966594 0.067882076 0.064389676 -0.019388821 0.06613458 -0.005654538 -0.018291408 -0.010012112 -0.007338337 0.064842194 0.062416457 0.061283328
doc_2 0.15915726 0.13894524 0.14560908 0.1625349 -0.06281871 0.15863171 -0.065548465 0.13988416 -0.06522284 -0.05670744 -0.055421717 0.12987602 -0.056805257 -0.057219524 0.16178036 0.14693062 -0.056988686 0.15601183 0.15640038 -0.052523885 0.1667556 -0.06942502 -0.046869885 -0.067046575 -0.04282406 -0.011646312 0.1550021 0.14896566 0.014539048 -0.06838301 0.16263117 -0.04239462 -0.041192614 0.15979661 -0.02433202 0.15595496 -0.06681476 -0.062829465 0.15712908 -0.06134278 0.15393007 -0.052803174 -0.07166617 -0.04255842 0.16745523 -0.050266467 0.13557471 -0.06535339 0.12732954 -0.05447753 -0.06411746 0.16143583 0.15490492 -0.018601324 0.13273513 -0.055868883 0.12104758 0.15249647 -0.0628218 0.15848273 -0.04930584 -0.019648828 -0.06407762 -0.07507649 -0.057781994 0.16703926 -0.06546363 0.13645494 -0.01928216 0.14901356 0.14890465 0.16954985 -0.04231546 -0.04886055 -0.04753767 0.13614699 -0.07307775 0.13797563 0.15076464 0.15457559 -0.057126287 -0.04589715 0.15689442 -0.023059562 -0.06563061 0.14769652 -0.064309835 0.1529191 -0.055389717 -0.0597427 0.15906852 -0.042110525 -0.053926896 -0.0113095045 -0.03669091 -0.056889202 0.14412646 0.13225558 -0.055735026 0.1338468 0.15591958 -0.07081047 -0.062430643 0.17501587 -0.057269547 -0.051854283 -0.062622145 -0.04142244 -0.056348883 0.15470637 0.15137535 -0.0443094 0.14878808 0.15714242 0.17087674 -0.048633944 -0.053218283 0.15429261 -0.042482734 0.15770261 -0.065897144 -0.05911848 0.1436755 0.16205397 -0.06591567 0.15365097 0.14994512 -0.05415002 0.15391682 0.1529953 0.16527598 -0.04313679 0.15899777 0.1586711 -0.04014094 0.15587308 -0.06992402 0.13802502 -0.057607494 -0.049660042 0.1591428 0.15779348 0.12698638 -0.040412217 0.15696225 -0.055796973 -0.051671535 0.16475467 -0.027390977 0.15090224 -0.061278015 -0.05092602 -0.07092183 -0.05645632 -0.056877956 0.1425374 0.16525932 0.12427732 0.15726101 0.15742531 -0.016657177 0.09401996 0.16411166 0.14945671 -0.05634485 0.14702 0.15129425 0.114089906 0.11395953 0.14985059 -0.05534222 0.14759575 -0.07054505 0.14621592 -0.03971699 0.1474768 -0.06312579 0.15405218 0.16500007 -0.06471691 -0.05434496 -0.052929815 0.16779904 0.14360961 0.15300857 -0.06274831 0.15650104 -0.05454415 -0.056931816 0.1447855 0.1569369 -0.059853878 0.16238151 -0.06464688 -0.0428495 -0.06934409 -0.062859125 0.14058559 0.14857917 0.1498959
doc_3 0.040247656 0.05789938 0.045908093 0.056426104 0.0003031496 0.037431657 0.016794652 0.04794974 0.03352475 0.04060035 0.06337631 0.045009837 -0.03160465 0.063009664 0.03696755 0.03615303 0.07990413 0.047790866 0.047654778 0.07072126 0.0531126 0.061039817 -0.032525748 0.054591328 0.025779039 0.033963792 0.050802052 0.050508592 -0.019070126 0.044371046 0.04634528 0.04085678 0.050697483 0.046029314 -0.028698374 0.048849 0.05705627 0.056473143 0.052076716 0.07761606 0.044427633 0.033758875 0.02612123 0.053622317 0.05025186 0.063408166 0.057856895 0.06976941 0.044451796 0.035342716 0.045180887 0.03375591 0.054649048 -0.03300019 0.01208041 -0.03332399 0.050613802 0.06034189 -0.04220498 0.0439572 0.05345549 0.06659429 0.0067835147 0.051565025 0.01575834 0.051812362 0.026552286 0.063491955 0.022142043 0.058002885 0.062136907 0.049004205 0.04969873 -0.005627392 -0.0331129 0.037400037 0.067692064 0.051583823 0.04767984 0.06414989 -0.032044277 0.04837099 0.04170701 0.057389956 0.058357842 0.06322406 0.042546596 0.051197782 0.041570295 0.06618351 0.047120117 -0.03238032 0.07507368 0.058292452 -0.02450422 0.027598929 0.067868195 0.055920154 -0.033301953 0.040268168 0.05007189 0.042094044 0.07117017 0.0394715 -0.0126028415 0.047165535 0.015489973 0.057281546 -0.03317644 0.034711443 0.039636828 -0.014300844 0.047016945 0.056396972 0.060471147 -0.025148354 0.04380122 0.051823918 0.010646585 0.05275489 0.04536323 0.050928533 0.053925723 0.051321663 0.043330595 0.05665849 0.04714187 0.042438816 0.054280344 0.05720367 0.049806304 0.018199168 0.0505942 0.049268615 0.035053503 0.047169212 0.04975281 0.042605318 0.045224573 0.051452998 0.0647916 0.05615463 0.02120357 0.02791467 0.051783446 -0.032409023 -0.04064454 0.05636136 0.042413294 0.062145557 0.05960103 0.060762703 0.026869778 0.03881114 0.031611446 0.040698577 0.044407923 0.014452662 0.05028094 0.046822757 0.0058388277 0.03406404 0.04774091 0.04364785 0.040608916 0.046822138 0.056469962 0.029414518 0.032465246 0.04675101 0.040022947 0.038889073 0.044403087 0.053800214 -0.0075746477 0.05476333 0.03611658 0.055046353 0.03215062 0.042347 0.057225358 0.073674075 0.04650774 0.05536382 0.059480425 0.012188939 0.04274401 0.05118025 0.07181896 0.039743107 0.067295775 0.030586231 0.057232924 0.068393655 -0.032373782 0.058713395 0.07028191 0.05812802 0.048686266 0.055612955
doc_4 0.123851456 0.11352817 0.11999208 0.08994671 -0.03773556 0.10789033 -0.038338862 0.1229582 -0.027599135 -0.027134553 0.0028935373 0.09632309 -0.039801132 0.005137788 0.1165965 0.10655973 -0.0004621609 0.096131265 0.10369256 -0.008504667 0.10877915 0.017792527 -0.03775603 -0.014090224 -0.044167724 0.009766505 0.119392335 0.10583169 -0.010223014 -0.036947552 0.108168766 -0.015633777 -0.003402047 0.11665812 0.0059011374 0.0948627 -0.015747644 -0.026814958 0.09761222 0.011351093 0.11030687 -0.0099625755 -0.028606508 -0.007822827 0.122578934 0.017822387 0.109055065 -0.017734595 0.102132544 0.0088271815 0.014335772 0.12692222 0.112568066 -0.007059549 -0.012942618 -0.015204005 0.11538346 0.116165645 -0.04207408 0.12516084 -0.022823159 0.009619213 -0.034715503 0.008707309 -0.031824984 0.08013623 -0.038131073 0.12510742 -0.0039519053 0.11980128 0.11276098 0.100428954 0.010350037 -0.037773136 -0.034577686 0.10877256 0.0198849 0.10733485 0.114150986 0.11256504 -0.020880215 -0.014654715 0.10634783 -0.03670625 -0.023078077 0.1156345 -0.026163325 0.09399829 -0.002464631 0.017671568 0.11445392 -0.041405275 0.004214216 -0.005299637 -0.03168218 0.0033625094 0.114632174 0.103046164 -0.013575552 0.11940415 0.117850184 -0.009652071 -0.001469302 0.11041245 -0.027054304 -0.008162068 -0.023482978 -0.004712121 -0.039528657 0.11649002 0.11875821 -0.033804007 0.10382687 0.10822495 0.11369087 -0.03439236 -0.035817698 0.113074765 -0.01769083 0.105837 -0.024897963 0.017205466 0.091969565 0.103613384 -0.023914784 0.117409945 0.11858941 0.003626377 0.09855169 0.11276867 0.10561659 -0.040981982 0.10523182 0.10891266 -0.023850817 0.13104492 0.012447316 0.10299124 -0.010999036 0.018636422 0.10497137 0.11151782 0.086139075 -0.021741755 0.11733097 -0.019947976 -0.03328547 0.112110525 -0.020017896 0.10980785 0.027010042 0.018078007 -0.010754668 -0.0052583376 -0.024353404 0.09832238 0.117085636 0.11470653 0.11224596 0.11989124 -0.026822561 -0.043535993 0.106380105 0.106357306 -0.03947047 0.11370623 0.12475215 0.1113152 0.08206378 0.1267781 -0.010503681 0.102024935 -0.018524107 0.10514233 -0.052539937 0.08177149 -0.019214846 0.11219649 0.12731892 -0.022928646 -0.0052836165 -0.0056828293 0.11542284 0.10113664 0.11171888 -0.031851355 0.09928423 -0.020856328 -0.015578628 0.11952548 0.12995115 -0.018131847 0.11411457 0.007317902 -0.02612684 0.016271822 -0.027803373 0.094304465 0.10894102 0.10227761
doc_5 0.062345885 0.06804904 0.072645076 0.07139666 -0.024663037 0.06776159 -0.021547548 0.058453035 -0.018963244 -0.02682881 -0.0018506995 0.059715126 -0.025461555 -0.008409953 0.06375285 0.06282044 0.012293078 0.06479289 0.070604496 -0.0008818067 0.06815109 0.0017837208 -0.017008401 -0.007122588 -0.029504396 -0.015432253 0.070743605 0.0696184 -0.013096178 -0.019922141 0.06148906 -0.011984204 -0.008915277 0.060641825 -0.025511442 0.07083751 0.0067573693 -0.01327309 0.06743884 0.010421662 0.06872739 -0.003107306 -0.02487189 0.012613541 0.06855913 0.013982991 0.06386189 0.010136943 0.062542126 -0.0006596502 -0.0019529082 0.058542326 0.07332249 -0.025927419 0.030183481 -0.021637414 0.07402539 0.07502845 -0.03100785 0.06279503 0.0055607543 0.008937761 -0.031491537 0.008628799 -0.019872956 0.076227985 -0.014483695 0.06576747 -0.02470474 0.071159035 0.07354196 0.06925161 0.0075617237 -0.02699266 -0.022439249 0.05515229 0.011742192 0.07544512 0.07354092 0.06549545 -0.019767106 -0.008325185 0.06458342 -0.0055230595 -0.0073400405 0.07476157 -0.020654524 0.06069246 -0.011766579 0.005919583 0.06114246 -0.026744844 0.012327776 0.009243704 -0.008358435 -0.010871465 0.06977866 0.07390166 -0.028523665 0.06730307 0.06819843 -0.0051167673 0.015403681 0.06672418 -0.018619087 -0.017793285 -0.024646938 -0.006170572 -0.02830626 0.06449686 0.06996536 -0.0046531744 0.064707816 0.07014568 0.06933244 -0.02958716 -0.02639161 0.06934178 -0.027304683 0.06890375 -0.015511148 0.011225859 0.06832397 0.05569987 -0.012201307 0.07161324 0.07486905 -0.015279979 0.058495812 0.07039884 0.06494586 -0.02375747 0.07262115 0.06258455 -0.016808903 0.071753144 -0.009556788 0.06855248 -0.0024350756 0.0074722543 0.064075805 0.07041063 0.036064796 -0.02142239 0.06582713 -0.029042453 -0.02733112 0.06691956 0.0016614052 0.07089765 -0.008371669 0.0054470245 -0.009700391 -8.789153e-05 -0.013767697 0.064044386 0.072556466 0.018540055 0.06622649 0.0699217 -0.014753176 0.027157973 0.07620238 0.06798669 -0.017011914 0.061836667 0.06647062 0.040977806 0.04535518 0.06194006 -0.0174975 0.05373822 -0.014648843 0.06382082 -0.028127138 0.06736642 -0.0014332337 0.07223885 0.06284181 -0.0071114246 0.010481123 0.01589505 0.06784971 0.066766955 0.06770966 -0.017961577 0.06146711 -0.017374957 0.002552636 0.069526486 0.07587319 -0.021963984 0.06357917 0.006885263 -0.021195099 -0.011664787 -0.004283713 0.06819135 0.06394827 0.069342
doc_6 0.084523395 0.09856193 0.09992132 0.10476448 -0.033651546 0.07858466 -0.015455219 0.07253685 -0.008815001 -0.011007234 0.04418334 0.08591645 -0.03576184 0.02915106 0.0883443 0.08427683 0.023838192 0.09200293 0.0954134 0.018901125 0.10346336 0.025853695 -0.039275575 0.009468709 -0.030669622 -0.016954673 0.08919178 0.090152875 -0.027208487 -0.0059221718 0.09215342 0.016029406 0.0026705712 0.08609014 -0.016736716 0.071714655 0.013388325 0.004543916 0.088139035 0.031524196 0.09532356 0.029115861 -0.0009915143 0.033908032 0.08596786 0.04170648 0.09225497 0.04529099 0.08827337 0.0075927502 0.016164739 0.07984405 0.099557474 -0.03889113 0.043475248 -0.032118555 0.09342866 0.102002196 -0.043163046 0.07960881 0.020960547 0.027881956 -0.037711002 0.03892393 -0.017495206 0.0965019 -0.0008529234 0.0960311 0.0018767827 0.09218719 0.09671055 0.08933734 0.04121712 -0.029311005 -0.041424632 0.086384185 0.053526245 0.09756486 0.0995129 0.08770861 -0.029908285 0.014481164 0.08678296 0.011379995 0.0030305441 0.10048995 -0.019013816 0.09384458 0.014545866 0.013548702 0.08031481 -0.0390985 0.035446513 0.045446385 0.009610149 0.00591326 0.10439171 0.097458586 -0.039632797 0.099671654 0.09595087 0.010546982 0.042641252 0.088493586 -0.02658199 0.009705998 -0.025151385 0.01286202 -0.049249716 0.08939385 0.09209604 -0.018953402 0.09266102 0.09710627 0.0932551 -0.04366477 0.0007856448 0.095029555 -0.026559474 0.09773284 0.016252443 0.037413582 0.09778033 0.07420382 -0.005931298 0.09550804 0.09777082 -0.000982349 0.081097946 0.09479548 0.09309102 -0.016388893 0.10074617 0.087910876 -0.010190698 0.09758279 0.01787519 0.09032905 0.015744431 0.044905953 0.10293881 0.0973907 0.051993985 -0.019405438 0.09482943 -0.04955392 -0.03780655 0.0864204 0.03394803 0.099215955 0.0062677837 0.033065736 0.0069396454 0.015196218 0.011214014 0.07642064 0.09128058 0.052534994 0.103970245 0.091184825 0.007896254 0.007093628 0.09443548 0.0933741 -0.0011383165 0.09455694 0.089786604 0.03426772 0.053634055 0.089845054 -0.0031689992 0.07024807 -0.009597901 0.08603863 -0.04197145 0.09589607 0.014919432 0.100434 0.078924745 0.017322378 0.030514564 0.049729172 0.08165437 0.09477182 0.10068196 -0.017128829 0.07027441 -0.0083476035 0.026795883 0.09070868 0.10470757 -0.009085754 0.10147059 0.038835943 -0.044114012 0.030069923 0.029560536 0.09240872 0.08717683 0.08958624
doc_7 0.059733007 -0.004865667 -0.046221692 -0.033208653 0.19391306 0.05999818 0.39042926 0.085401475 0.34844533 0.3650829 0.4068279 0.045655675 -0.06777845 0.3940131 0.07676315 0.044244934 0.40608788 -0.025873944 0.031147221 0.3854114 -0.11646361 0.39847434 -0.072474144 0.38963398 0.34955406 0.39755192 -0.0018654163 0.06978958 -0.13033865 0.39348623 0.004973279 0.39351466 0.4022966 0.079165176 -0.114588834 0.044484828 0.38718286 0.40103915 0.005123698 0.4023982 0.07886186 0.22588013 0.39281678 0.34025794 0.085679725 0.38682544 0.008920016 0.3846315 0.03580206 0.2900167 0.38507622 0.06969369 -0.034726728 -0.09867001 0.0068000033 -0.08684447 0.027831778 -0.003763078 -0.1181973 0.06288799 0.39674175 0.41267627 0.3696469 0.3623711 0.26516005 -0.037603788 0.3016745 0.00987173 0.37185723 0.009242962 0.004098328 0.027631434 0.39190716 0.11742649 -0.09302079 0.07036531 0.41462278 0.052478544 -0.04404148 0.03865563 -0.10288247 0.36213478 0.026017241 0.37759683 0.3891586 -0.04034379 0.3661532 0.030245187 0.37552828 0.37246853 0.07318927 -0.11668789 0.39641958 0.373763 -0.12614585 0.38065156 0.048817337 -0.03108481 -0.061351396 0.052153 0.007470359 0.39822808 0.36389208 0.021596314 0.095789395 0.39441165 0.293817 0.36946094 -0.09116582 0.111602806 0.039149344 -0.08013754 -0.0017587666 0.027505163 0.01384734 0.0013124499 0.39397538 -0.008675811 0.34413067 -0.033369984 0.34733146 0.38571593 0.047727354 0.106534906 0.37581277 -0.06752974 -0.024062896 0.39795342 0.039880224 -0.044448808 -0.011522236 0.3753825 0.0058241263 0.050567422 0.3483488 -0.029812763 0.37600315 0.027844138 0.3277603 0.23090293 -0.000506921 -0.020569157 -0.0011310797 0.3351912 -0.02189291 -0.11160009 -0.11285012 0.020481126 0.3536814 -0.028294241 0.3757887 0.32854378 0.38728505 0.35401914 0.39318022 0.09035651 0.050913837 0.008047659 -0.047020163 0.016507452 0.037578072 -0.02662183 -0.010284527 0.058326337 0.3378271 0.058573015 -0.0059439153 0.09140625 -0.006007139 -0.08328938 0.37857777 0.074051395 0.3906039 0.042424485 0.33835697 -0.029365357 0.2702996 0.041371275 0.056542084 0.4018931 0.36261493 0.3896417 0.10590745 -0.064287364 -0.06738031 0.21569578 0.0870042 0.4091136 0.40867406 0.011576837 0.04408816 0.35726976 0.0013101308 0.39551634 -0.09094542 0.3936889 0.39385036 0.023661919 -0.022749253 -0.049876895
doc_8 0.14236137 0.15618876 0.18454164 0.17236516 -0.075081676 0.14098895 -0.08637757 0.11876 -0.018374091 -0.02779009 0.08577264 0.12552208 -0.0734375 0.046152424 0.12225606 0.16193703 0.12511599 0.17303091 0.17990023 0.037772115 0.19912851 0.066304766 -0.05730461 0.0052861595 -0.09209344 -0.058714207 0.14973992 0.1951303 -0.03752109 0.06554311 0.14174822 0.08524577 0.010192381 0.14459822 -0.025944475 0.12437167 0.090520054 0.07665534 0.16092506 0.058301575 0.17393874 -0.006390818 -0.014621048 0.048373308 0.14522114 0.16783012 0.16617753 0.1500863 0.12786879 0.009415481 -0.023540154 0.12165146 0.1819294 -0.08430826 0.047184326 -0.06748252 0.16515268 0.18191916 -0.09610664 0.12521213 0.15523656 0.20488857 -0.063036054 0.1072721 -0.04376273 0.19240932 0.07335331 0.17818898 0.0060006264 0.19210352 0.17971915 0.17488496 0.022403207 -0.057577047 -0.09343705 0.13490081 0.16051921 0.15452218 0.20350558 0.17763197 -0.08362155 0.020610025 0.16131173 0.07074321 0.0071646287 0.18286577 -0.077964224 0.16117913 -0.0051894467 0.0459333 0.11171542 -0.08766072 0.0930666 0.07644002 -0.042499475 -0.019579466 0.17966093 0.19322672 -0.08687723 0.16221921 0.15677339 -0.030362928 0.11273794 0.16656442 -0.057700373 0.0148497 -0.06746485 -0.022269212 -0.073186 0.14511834 0.16297269 -0.03448863 0.14186497 0.18477951 0.19605297 -0.08800786 0.06606123 0.15079434 -0.06713074 0.19268233 -0.005543754 0.064063944 0.17723805 0.112765044 0.032034922 0.1873218 0.19099067 -0.068078026 0.13171539 0.1957407 0.14234497 -0.07108403 0.17042935 0.17191389 -0.02108627 0.18923427 -0.033827674 0.14057149 0.04263134 0.057135776 0.1996877 0.17061831 0.07804629 -0.053386953 0.164791 -0.08846766 -0.06526152 0.13097829 -0.019923963 0.19259642 0.0012537393 0.04517356 0.09637863 -0.0135363145 0.018875657 0.13273154 0.14102443 -0.009080006 0.16355221 0.18343824 -0.062830515 -0.015021698 0.15879358 0.13725011 -0.040115923 0.13957728 0.16697146 0.026900794 0.07494377 0.17595634 -0.006360018 0.087482 -0.050613962 0.14356473 -0.10403418 0.16139723 0.014682998 0.1824864 0.124626316 0.018236062 0.09910157 0.1283248 0.12703407 0.16156417 0.16219895 -0.03293667 0.13914381 0.0077844835 0.029590854 0.1900793 0.17169343 -0.069223836 0.18652497 0.13576563 -0.073581345 0.019613124 -0.0051043644 0.16598104 0.13862562 0.17060177
doc_9 0.109366864 0.07680294 0.09609082 0.09481031 -0.009888459 0.08517031 0.0073785894 0.06612783 -0.009639261 0.0073283873 0.020301176 0.07444143 -0.019928135 0.0062489323 0.10192768 0.10005947 0.011379341 0.09803088 0.111096345 0.010577796 0.072815195 0.026303736 0.057184987 0.0111677535 0.00280815 0.0029963944 0.07848018 0.10386077 -0.02229337 0.0034211185 0.0750128 0.0021647383 0.0053879917 0.094142094 -0.021551361 0.045759358 0.008982537 -0.0072190557 0.061114676 0.0071455315 0.09882601 -0.009328665 0.011095928 -0.0062517673 0.094398424 0.0028829314 0.07937946 0.0033746157 0.08446324 -0.012080395 0.010196283 0.07943549 0.08964263 -0.02212396 0.06906625 0.06623116 0.09717883 0.091856286 -0.032022417 0.10073398 0.01406269 0.016027246 0.004537273 0.004159827 -0.0086475015 0.093039185 -0.012804184 0.073876284 -0.004089812 0.07129779 0.10213673 0.06146809 0.009056464 -0.022746192 0.043467335 0.10294158 0.020989189 0.08396496 0.07291731 0.09147719 -0.023054257 -0.0030638576 0.074259445 0.0018713456 0.0032389704 0.08111423 -0.00039791781 0.10892213 0.014941953 -0.00027519092 0.09597867 -0.023556035 0.0025404952 0.0073397364 -0.012283362 -0.0031963456 0.096835464 0.061627142 -0.033760205 0.08728801 0.07868863 -0.0031192675 0.0026430506 0.103101045 -0.010894158 -0.0023464933 -0.0090784915 0.0031745955 0.021883927 0.10360609 0.08015833 0.06506785 0.08227065 0.102577224 0.092262775 -0.0126965325 0.005459085 0.08804587 0.00328991 0.058051787 0.0052287523 0.0029641166 0.080546044 0.09635858 0.005316483 0.093483135 0.09717312 0.016493635 0.0612168 0.07088992 0.07683554 -0.006184878 0.09331177 0.07806501 0.00080301054 0.08460559 0.0062838215 0.07212062 0.00035150163 0.0042099934 0.093013525 0.089648694 0.06745242 -0.0019706488 0.09857042 -0.028211638 -0.036130846 0.08023651 0.0036569964 0.07569487 -0.0005469173 0.0050164983 0.0019010864 0.0053996798 0.010346802 0.090601906 0.091313966 -0.010696512 0.058653362 0.11004428 -0.0015944553 0.07661569 0.08311658 0.07279757 0.0033481792 0.07747494 0.09388532 0.0774001 0.049849067 0.09136367 0.010437826 0.08152554 -0.009976538 0.074605994 0.0029444303 0.07727598 -0.0046785492 0.09795882 0.09656885 0.008941604 -0.0011046771 0.0083072 0.09791495 0.057460465 0.0601577 -0.015078658 0.09736247 -0.0030288454 0.011085158 0.0896987 0.09090611 -0.0017332435 0.06252407 0.0147219505 0.041891582 0.00528791 0.010241715 0.0702173 0.09209843 0.09220584
doc_10 0.06253665 0.06886284 0.04503035 0.05415792 -0.027078914 0.061875142 -0.018280447 0.06210547 -0.011917526 -0.007314235 -0.0051214676 0.05952808 -0.016959468 -0.0031349114 0.061459422 0.066479534 -0.015770322 0.06702642 0.06979285 -0.013719954 0.06255031 -0.005295353 -0.013851621 -0.025967766 -0.024187956 -0.015392793 0.05100564 0.059479095 -0.017660365 -0.024311487 0.06656333 -0.020203043 -0.008991643 0.059102677 -0.025396805 0.05516266 -0.009525974 -0.0076056374 0.06497885 -0.014968964 0.072398044 -0.016757041 -0.0052149165 -0.008072488 0.056369547 -0.010596765 0.05727553 -0.0053156475 0.06321799 -0.024488665 -0.0058747227 0.06724577 0.058651254 -0.021816041 0.050393537 -0.01347748 0.0718357 0.066968925 -0.008700558 0.06667715 -0.00018040207 -0.008606283 -0.014242105 -0.0014873287 -0.014540144 0.052815873 -0.015815632 0.049749874 -0.020258315 0.059038684 0.060147397 0.06417098 -0.015493767 -0.027432548 -0.017544052 0.06715815 -0.0057977703 0.061157368 0.065249056 0.062783375 0.03045142 -0.009932691 0.059910994 -0.010094862 -0.008252824 0.069775544 -0.024978409 0.07607536 -0.009487395 -0.006868308 0.06319231 0.022119528 -0.016055187 -0.0050451183 0.05142217 -0.025164355 0.06362234 0.054356977 -0.005941488 0.06541153 0.042332582 -0.0037349197 -0.0004857143 0.052019924 -0.019001465 -0.009299787 -0.0037575476 -0.0066525163 -0.027064694 0.06520142 0.059811927 0.057568528 0.06564995 0.061188426 0.06457476 -0.0109040765 0.0015128526 0.06539462 -0.012757897 0.055962518 -0.01065579 -0.00040038326 0.07656559 0.06620762 -0.007421854 0.069284305 0.057179794 -0.024888795 0.053360462 0.06599556 0.0666362 -0.0066765444 0.06271489 0.06568468 -0.021339312 0.058302395 -0.0058509195 0.06271491 -0.01948763 0.0013273398 0.055543005 0.059819933 0.057039317 -0.020771574 0.053013787 -0.021288168 -0.018735861 0.05305653 -0.008478312 0.064211026 -0.0108778365 -0.0013059303 -0.0032474613 -0.008968202 -0.024601437 0.05926834 0.05018711 -0.007503777 0.06233252 0.05110334 -0.016313856 0.020055195 0.061743405 0.062470615 -0.008314881 0.07689188 0.06533549 0.030506434 0.04536005 0.06642972 -0.008884365 0.06308794 -0.018345598 0.07312022 -0.0094054965 0.064265326 -0.0153498 0.06317149 0.05620092 -0.027360724 -0.006670749 -0.00992826 0.067132704 0.05242 0.05510205 -0.028060896 0.06059084 -0.023496013 -0.011880966 0.056732938 0.06393351 -0.02841413 0.05533231 -0.015116958 -0.014104265 -0.02538181 -0.016356569 0.05919277 0.04642213 0.067584604
doc_11 0.0775681 0.0799344 0.08240946 0.08463366 -0.033142142 0.070963494 0.007855547 0.07738148 -0.015104102 -0.027872106 0.012623368 0.077306844 -0.034835864 0.002838546 0.07826828 0.07411376 0.0061559035 0.07919493 0.08630761 0.0027194258 0.08102847 0.0158469 -0.0087676775 -0.009500059 -0.019066341 -0.02869013 0.0804677 0.07950022 -0.025974926 -0.014377428 0.08465059 -0.0063599255 -0.012467414 0.08500627 -0.020481585 0.07711519 0.0082894005 -0.00028445455 0.0831976 0.010255974 0.08061873 0.0018005996 -0.00654241 0.023623498 0.07576299 0.024657447 0.08429492 0.005211409 0.075700566 0.003486121 -0.0110436035 0.074188754 0.076491445 -0.02875746 0.044212077 -0.0206869 0.07566275 0.08588944 -0.034806184 0.07503404 0.0072965864 0.0060578967 -0.031101242 0.014106514 -0.0041515185 0.08125044 -0.0055360296 0.07612993 -0.017591525 0.089283764 0.0846385 0.07857425 0.026963102 -0.02475391 -0.034011252 0.07896137 0.022393372 0.08389788 0.07870138 0.08408782 -0.0050407727 -0.0076664933 0.0798748 0.017925339 -0.011813281 0.08400634 -0.009789443 0.07480924 -0.0018435579 0.013657507 0.07519457 -0.02976902 0.0057157762 0.00836209 0.0018167993 -0.009768317 0.08088827 0.07314553 -0.030474689 0.080641635 0.07149339 -0.0047544097 0.018845474 0.076691926 -0.016725712 -0.007271135 -0.015074827 -0.013835348 -0.038486853 0.07813555 0.079934075 -0.0144129675 0.08403382 0.07779558 0.084769994 -0.025728527 -0.010687208 0.08206169 -0.028908312 0.083445266 -0.0065443953 0.010766402 0.0818839 0.06815451 -0.010771187 0.08426468 0.07893356 -0.0037634452 0.07512475 0.08712009 0.07587416 -0.017258987 0.08217582 0.07957721 0.002217666 0.07537201 -0.00618144 0.08022333 0.00469835 0.017923 0.085408285 0.08094026 0.052939195 -0.007607117 0.08099245 -0.030248396 -0.028070683 0.07673282 0.021359686 0.08120914 0.0044919946 0.017793559 -0.0147148995 0.010467745 -0.004797261 0.07180456 0.071744636 0.037863143 0.078906 0.0738947 -0.0042491006 0.03814385 0.079464294 0.078428164 -0.010581645 0.080083765 0.07616175 0.05964544 0.06211702 0.08012448 -0.012169738 0.067462526 -0.004787854 0.07849152 -0.033567775 0.07563921 0.0028038078 0.08084669 0.07870094 0.0019481326 0.022951748 0.01867097 0.075054415 0.08348616 0.08095816 -0.014726113 0.07057701 -0.009198646 0.007763423 0.08703879 0.08193948 -0.011516195 0.07936552 0.014512861 -0.02354684 0.0012747876 0.002797276 0.07577897 0.07659347 0.08347361
doc_12 -0.00438063 0.014375481 0.016793324 0.038756512 0.039929908 0.0034829206 0.066270865 0.012678253 0.043606855 0.06725881 0.08671641 0.010433016 -0.014657155 0.08347047 0.011692945 0.011265828 0.08715819 0.015388917 0.027835514 0.08162019 0.007923756 0.08524726 -0.023138857 0.059766684 0.051218715 0.05878917 0.008524621 0.016266694 -0.016923811 0.05636758 0.017863594 0.05645939 0.06311633 0.0058401674 0.013634429 -0.00351449 0.07413307 0.07118664 0.006546271 0.082064815 0.011850407 0.039781965 0.070494615 0.046078537 0.00814513 0.08021767 -0.00070542144 0.06793067 0.016195782 0.05160237 0.06689393 0.005228197 0.030542914 -0.023348458 -0.004090314 0.001199977 -0.0063015195 0.015647525 0.0029906593 -0.012976491 0.07998783 0.07916996 0.053435136 0.0726856 0.05441907 0.009181134 0.051467825 0.031859577 0.04391845 0.005274789 0.032055955 0.023140257 0.07629901 0.019550286 -0.037924435 0.0014622575 0.077299215 0.0109875025 0.012816234 0.0027927454 -0.033756606 0.06763316 0.0063852253 0.080505505 0.06554197 0.014859915 0.06263658 0.013365703 0.064252235 0.078167655 0.004397248 -0.028302267 0.08596055 0.075983465 -0.011607891 0.06762092 0.044604257 0.014313526 -0.030838497 -0.0066560623 -0.02204198 0.07649191 0.0883801 -0.0019649724 -0.0106831975 0.04220358 0.038503908 0.08167703 -0.034112412 0.027616967 0.020244356 -0.013721834 0.00538628 0.026831653 0.004926193 -0.025662366 0.07336614 0.02475062 0.054715283 0.026010351 0.05829528 0.08570498 0.014232521 0.00074085407 0.06464697 0.012005492 0.026781425 0.07303315 0.017877856 0.0027932026 0.007948469 0.04891836 0.012062545 0.005378627 0.068831876 0.031887498 0.046417605 0.002603786 0.06352635 0.054090403 0.008172357 0.020567862 -0.021583162 0.049641546 0.012364088 -0.028352382 -0.02349777 0.017252006 0.07091151 0.015635796 0.07316241 0.07422038 0.057273358 0.07305063 0.07810423 0.005739593 0.019834172 -0.03300539 0.010231238 -0.013188739 0.027208313 0.013300773 0.017141696 0.009754853 0.05071845 0.015800208 0.00861174 -0.039471857 0.007819 0.0025540644 0.057621025 0.0076271794 0.04534486 0.01446293 0.019495796 0.01529875 0.07439694 0.027325515 0.00568314 0.09145569 0.077699736 0.085936464 0.010531327 0.026797967 0.008767923 0.041992985 -0.0023916485 0.071392596 0.08654361 0.023439748 -0.008513956 0.063712776 0.01633513 0.084798664 -0.040771782 0.06891712 0.08781732 0.005562476 0.015729014 0.008637661
doc_13 0.06864782 0.07190828 0.07566406 0.08170885 -0.03574605 0.067649655 -0.020046145 0.062892266 -0.013268695 -0.004583836 0.036000114 0.063236736 -0.039170146 0.008244037 0.06598115 0.0695643 0.012399844 0.07795183 0.07544451 0.016876545 0.07631267 0.013019148 -0.02116639 -0.002313212 -0.031674854 -0.0230052 0.07298783 0.07801302 -0.021035045 -0.0070829573 0.07164553 0.011086193 0.009194476 0.06704938 -0.00633624 0.06541507 0.011246962 0.003290105 0.07186956 0.030457895 0.073714994 0.004727463 -0.016003799 0.008958097 0.06372752 0.027149368 0.078553155 0.027718943 0.070709065 0.009964714 0.016936863 0.062271487 0.07620542 -0.02794358 0.04017538 -0.025148751 0.07877393 0.08005669 -0.033808187 0.071884036 0.007139078 0.008479212 -0.029753681 0.0118819745 -0.024650365 0.08175276 -0.0098098265 0.0714964 -0.00989618 0.07768594 0.07594234 0.07737491 0.02095836 -0.03575397 -0.035474792 0.07034433 0.03726593 0.07334407 0.07456283 0.07822695 -0.030221602 0.009715769 0.06329984 0.003533577 -0.00019735191 0.08020365 -0.025521914 0.07578417 -0.003631733 0.014196953 0.06927498 -0.02873689 0.03326548 0.017138 -0.012289382 -0.013973531 0.08184894 0.07952763 -0.032211997 0.069413796 0.07010642 -0.008845606 0.035314888 0.06366026 -0.032328315 -0.01624123 -0.025676774 -0.0025488837 -0.03690687 0.07322313 0.06931447 -0.01261239 0.077081114 0.07406921 0.07928114 -0.031319574 -0.01585561 0.07310141 -0.0317905 0.07826751 0.01828147 0.025136394 0.08002889 0.060221903 -0.0057852822 0.08050357 0.07870789 -0.015717093 0.06896454 0.08312216 0.07431501 -0.024213344 0.07069519 0.06864186 -0.015790582 0.08178501 0.0019324468 0.06869063 0.011871011 0.030974299 0.077229604 0.07717739 0.042896435 -0.018945334 0.074542224 -0.0366544 -0.033202466 0.07264769 0.0065418947 0.08391301 0.0065977112 0.019757798 0.0020577011 0.0071200277 -0.014512481 0.0628384 0.07071806 0.015699372 0.08032869 0.07342766 -0.0154596865 0.006099789 0.07676396 0.075162575 -0.01434002 0.079032145 0.06991327 0.03154765 0.043933045 0.06841058 -0.008305915 0.057502154 -0.020306762 0.07517478 -0.030275047 0.072447345 0.009318588 0.076402016 0.06546616 0.00021668343 0.02821455 0.032339334 0.06501856 0.08027001 0.07197178 -0.016377633 0.059285805 -0.020536691 0.011454991 0.07858309 0.08175364 -0.0178032 0.07415801 0.013753827 -0.033521045 0.0076640975 0.0067475615 0.07081307 0.06822745 0.07469084
doc_14 0.08266805 0.0959642 0.08085511 0.087954015 -0.04888318 0.06104212 -0.043712083 0.08849362 0.01631425 -0.008374093 0.008944439 0.07280184 -0.049195074 -0.004581878 0.09873301 0.055159427 0.028256627 0.07769899 0.09318805 0.01714266 0.07516206 0.025034597 -0.022007747 -0.003961126 -0.042835206 -0.009025871 0.10311949 0.094061986 -0.03636296 0.028129105 0.07341212 0.029087158 -0.0012379978 0.09350475 -0.020116426 0.07181452 -0.018773815 0.005009271 0.08208543 0.024000471 0.092466764 -0.0057411203 -0.007619827 -0.024312811 0.08457137 0.034203917 0.086455 -0.012060573 0.07594461 0.010351003 0.016016366 0.05891057 0.06516462 -0.041891776 0.010499105 -0.033098713 0.07113293 0.09904877 -0.018424815 0.096031696 -0.0038528033 0.014098052 -0.03971722 0.0296586 -0.004697178 0.08409356 -0.020442806 0.09352817 0.033394575 0.103805885 0.07979534 0.07702987 -0.004194435 -0.039074373 -0.038153447 0.09366994 0.03616243 0.09338748 0.09137548 0.09611997 -0.041508216 0.041250132 0.08467412 0.030614743 0.025760684 0.07191558 -0.013197319 0.0706824 -0.003960453 0.024724718 0.07678196 -0.054066155 -0.0009798873 0.007821408 -0.03569902 -0.010488486 0.09593206 0.083029 -0.016728904 0.07907381 0.08488266 0.0117890835 0.04176019 0.06624937 -0.015757311 0.0037590237 -0.021361914 -0.012026875 -0.047510877 0.079318374 0.054385204 -0.025258228 0.07846866 0.0989978 0.09156548 -0.04019393 0.015751414 0.07795818 -0.011165319 0.09935605 -0.009411879 0.03087685 0.0862505 0.07660291 -0.01622254 0.10012682 0.097098075 -0.03389539 0.08766938 0.09857521 0.083819635 -0.026356302 0.09453796 0.09311239 -0.033363014 0.09273435 0.016657732 0.08679786 0.018471926 0.011008911 0.09146123 0.08743525 0.045247756 -0.0024703057 0.10022169 -0.041613016 -0.04084862 0.093360566 -0.013178214 0.10047965 0.027263176 0.0036668964 0.008106353 0.007094742 0.029967532 0.090810955 0.09822093 0.017211627 0.1036887 0.08949931 -0.021438036 0.05013594 0.065726064 0.08809169 0.03483453 0.07482821 0.089877576 0.0621807 0.026646018 0.07273787 -0.004731656 0.07450213 -0.026694229 0.09081931 -0.040540952 0.05871746 0.034270886 0.09381793 0.0626261 -0.0091987 0.01458082 0.0063994825 0.060144905 0.08811112 0.10821466 -0.019965548 0.064768806 -0.035291728 0.0052626226 0.07564868 0.10713951 -0.012519401 0.091577634 0.019285647 -0.04645198 0.02710787 0.042796895 0.09702207 0.08857684 0.09142379
doc_15 0.1055102 0.10723656 0.09764835 0.09749389 -0.041451845 0.10861315 -0.04946172 0.08256304 -0.017085068 -0.03997905 -0.018758954 0.10327081 -0.043736733 -0.021656571 0.08776512 0.09769866 0.000685052 0.106018394 0.09769411 -0.023489863 0.116549 0.017696926 0.025201024 -0.03281616 -0.001704864 -0.038303614 0.10569807 0.10595339 -0.030279718 -0.0198728 0.10826325 -0.019565063 -0.034762852 0.09126925 -0.03637438 0.0837018 0.022768993 -0.02002581 0.10847165 -0.0014662095 0.112642944 0.0014171558 -0.022357399 -0.0065918956 0.10011425 -0.012975732 0.093638115 -0.021384517 0.09296013 -0.035651315 -0.004577937 0.10285187 0.11630923 -0.020362534 0.025455851 -0.03335251 0.104053564 0.10964834 -0.021214312 0.11145002 -0.0095502 -0.0010398622 -0.047768593 -0.008183889 -0.031520635 0.103879295 -0.015505038 0.10311262 -0.014788527 0.11859723 0.10923773 0.11307196 -0.014358493 -0.0377233 -0.017941061 0.09103314 0.017199827 0.13146518 0.10290923 0.10518268 -0.054141268 -0.007199406 0.1046423 -0.026400652 -0.022328878 0.09858507 -0.041881066 0.094046265 -0.01596647 -0.0076740263 0.09267056 -0.048417065 0.018584324 0.029509237 -0.03617932 -0.033715956 0.117712826 0.100620754 -0.047963448 0.09469357 0.10855453 0.004888541 -0.008539884 0.105412774 -0.016730733 -0.025713103 -0.036511756 -0.01243256 -0.04701627 0.108960226 0.09001101 -0.03834784 0.122147925 0.11709472 0.0974744 -0.03793703 -0.033119317 0.09876667 -0.020805772 0.10918459 -0.025593376 -0.008228866 0.089447305 0.0854886 -0.034190364 0.101866305 0.12210123 -0.0073683457 0.09347958 0.112944245 0.09960498 -0.010452147 0.08246236 0.08840519 -0.013827925 0.121662945 0.016405249 0.09961047 -0.0029965458 -0.009405812 0.11117165 0.11153102 0.08943681 -0.049371913 0.10446261 -0.04246296 -0.036956936 0.102521 -0.026055485 0.11776831 -0.0033132893 -0.00041517243 -0.023992317 -0.014658498 -0.02651478 0.109873995 0.12338017 0.0150402 0.10874474 0.09344828 -0.018397564 0.014397569 0.109522715 0.10095079 -0.011672353 0.09289665 0.105944075 0.026651492 0.06095333 0.11572511 -0.026030662 0.077837214 -0.036625035 0.09174803 -0.032474734 0.10301993 -0.027432187 0.103546135 0.10087146 -0.012231959 -0.015736777 -0.013471361 0.10017398 0.11078559 0.106650576 -0.024055187 0.09113258 -0.018211253 -0.0032712596 0.08903929 0.102388896 -0.0067609968 0.101287566 -0.02225621 -0.052165374 -0.029626688 -0.031605758 0.10527848 0.10472118 0.08986068
doc_16 0.05806367 0.0653295 0.05998471 0.059598014 -0.02290633 0.060961783 -0.013713013 0.06014733 -0.007903288 -0.023467932 0.023178961 0.060807757 -0.026991004 -0.006771668 0.06830561 0.0664304 -0.009552186 0.07181813 0.06337604 -0.00082985626 0.06729768 -0.004285849 -0.01265559 -0.013976244 -0.019383403 -0.027522253 0.06905703 0.059724487 -0.014778502 -0.011793032 0.064211935 -0.008336265 -0.010478173 0.055027835 -0.018548459 0.054780215 0.005629263 0.0055148434 0.06414918 0.00488061 0.059304953 -0.0029039793 -0.01764233 -0.009435589 0.06858681 5.706027e-05 0.06372197 0.0076058684 0.05778896 -0.009397139 -0.011136927 0.062413607 0.066458784 -0.028894216 0.029003229 -0.008036904 0.061199583 0.07198849 -0.022705542 0.06948862 -0.008921986 -0.00034283614 -0.034494832 -0.008977094 -0.015673261 0.07184602 -0.021425767 0.06874123 -0.021157008 0.070753485 0.068588585 0.06784019 -0.0031146687 -0.026702687 -0.025513705 0.05733387 -0.000198188 0.07270213 0.072482385 0.059308145 -0.013601445 -0.01455114 0.059604585 -0.00892282 -0.011542141 0.06503482 -0.021186583 0.074664764 -0.0086847115 -0.012661793 0.06807039 -0.029264515 0.0055036414 0.020658897 0.001829287 -0.019160502 0.06915167 0.063855 -0.02569752 0.064724654 0.06687164 -0.016622292 0.021445308 0.06840306 -0.01633924 -0.019021228 -0.018453378 -0.012949561 -0.019341547 0.06682795 0.06534819 -0.00087944046 0.0767553 0.05698231 0.07288296 -0.019272529 -0.014107121 0.06720355 -0.032512765 0.065030366 -0.0103400685 0.0010606619 0.072297685 0.053462222 -0.017274207 0.07073601 0.0638769 -0.019609015 0.069097534 0.06928514 0.056777157 -0.014642784 0.0688915 0.07107875 -0.011337694 0.070206806 -0.0096027125 0.06220703 0.0028306134 0.0005907025 0.069615215 0.06944332 0.04928435 -0.018091582 0.061693035 -0.015283312 -0.027842386 0.06257126 -0.0040068277 0.06964633 -0.00704396 -0.00324401 -0.011918757 -0.00941598 -0.0066111586 0.05698759 0.061248504 -0.0051950375 0.059253532 0.06547162 -0.007307498 0.044572547 0.06376979 0.06300454 -0.014652121 0.07264818 0.071121715 0.038397066 0.052837506 0.06373579 -0.014086501 0.05394988 -0.019982085 0.05712478 -0.032139108 0.072387874 -0.006793487 0.07225849 0.06786524 -0.0043416508 0.00537405 0.0060746665 0.060613826 0.072844535 0.072054364 -0.021708822 0.049870495 -0.01611272 -0.012177394 0.06781244 0.073167495 -0.012599186 0.06382306 -0.0040457156 -0.011963171 -0.009921306 -0.0019489627 0.06418145 0.06606272 0.07021566
doc_17 0.037793584 0.051318027 0.05564265 0.061045416 -0.02319417 0.039678283 0.0011115677 0.035680234 0.010716676 0.0077397833 0.0560007 0.030044438 -0.033516318 0.028508889 0.04932695 0.036415827 0.028227778 0.055400282 0.055729054 0.028703205 0.05420135 0.044582758 -0.022444062 0.02494544 -0.020415222 -0.005245541 0.044261202 0.06515552 -0.028075846 0.013403687 0.06878298 0.017940355 0.01998029 0.04352575 -0.020192666 0.04515335 0.024099791 0.03610167 0.057303786 0.050537825 0.060778208 0.028348925 0.011033332 0.0411506 0.060240313 0.03305368 0.054863345 0.06016751 0.042062227 0.011509496 0.03464436 0.047265615 0.05810029 -0.023191841 0.0106460955 -0.031782966 0.060987484 0.05616762 -0.0346792 0.046359416 0.041701213 0.02696515 -0.022030294 0.04940325 -0.011191822 0.064210735 0.0023195026 0.055769205 0.010661672 0.06289984 0.05450514 0.05498099 0.04822261 -0.027312497 -0.024593012 0.048703153 0.068045564 0.057322014 0.0521635 0.053791065 -0.03392575 0.02607293 0.05374081 0.008749167 0.018834826 0.063044764 -0.010557027 0.057696752 0.025127485 0.032949712 0.036216825 -0.03592764 0.05350868 0.044231012 -0.015800633 0.02008136 0.07343558 0.07220841 -0.02187467 0.055976257 0.055475615 0.017518237 0.05691573 0.039769523 -0.014273619 0.023923602 -0.0063387644 0.020825373 -0.036895733 0.04769183 0.055695076 -0.006619552 0.05566857 0.061829723 0.061455645 -0.0162107 0.010404545 0.07120171 -0.025557168 0.0706621 0.020502409 0.047742713 0.059712596 0.045575835 0.0011232975 0.0704632 0.066091 0.026736684 0.044727772 0.06966843 0.051865015 -0.0060154493 0.060405668 0.049954742 0.003571306 0.06903504 0.014694254 0.045892872 0.037723325 0.0532347 0.06128972 0.06500463 0.03673715 -0.0051853266 0.063960336 -0.032589346 -0.03148295 0.048724893 0.028272117 0.06824706 0.028997233 0.03882719 0.037242953 0.044691153 0.018987583 0.04189383 0.04848049 0.02479094 0.06126183 0.050376117 0.016621515 0.0028129197 0.061631653 0.051764533 -0.011482358 0.059939127 0.059563424 0.005185861 0.023104532 0.057601117 0.005439108 0.034710027 0.0007706831 0.045501966 -0.03768515 0.04906089 0.03269035 0.061105542 0.047634654 0.041978452 0.04461307 0.048059743 0.042371012 0.061232336 0.047374412 0.0016588503 0.040194046 0.0094770435 0.044869628 0.051402256 0.0656687 0.0029479745 0.056754433 0.06977086 -0.022944637 0.014690929 0.05148649 0.052889004 0.056288775 0.046288773
doc_18 0.10511282 0.104432 0.09920979 0.100448765 -0.03801669 0.09865344 -0.04215124 0.10117726 -0.03671396 -0.041776743 -0.04139465 0.09278844 -0.035205517 -0.03883987 0.10464433 0.09844912 -0.04312899 0.10856791 0.10777867 -0.049272098 0.10957881 -0.038133886 -0.028672304 -0.042677317 -0.03576199 -0.0115006585 0.098768294 0.098556295 0.0132043585 -0.04208527 0.11283403 -0.04521743 -0.0404674 0.10592984 -0.012237524 0.10090547 -0.044451173 -0.03825121 0.10012754 -0.04088237 0.08980417 -0.037648566 -0.04354563 -0.024864066 0.10826104 -0.037813444 0.099440604 -0.042342056 0.09348756 -0.038890902 -0.03677275 0.10796493 0.09455445 -0.018696465 0.08524708 -0.032540694 0.09382426 0.10034555 -0.038194522 0.09785794 -0.03860219 -0.014942952 -0.044230685 -0.048740417 -0.0339216 0.09698127 -0.044172425 0.09022655 -0.025394421 0.10099542 0.10421005 0.10922103 -0.04419066 -0.03165171 -0.032559242 0.10337257 -0.0483239 0.100926146 0.114169076 0.094656125 -0.02655129 -0.029669505 0.10416891 -0.02316158 -0.033637673 0.11224993 -0.038927082 0.100664124 -0.0402114 -0.044106014 0.10804954 -0.040962204 -0.038247798 -0.01804108 -0.015400886 -0.034571044 0.09809924 0.09446661 -0.03062875 0.091747105 0.10429874 -0.0400659 -0.040982153 0.11619549 -0.03658894 -0.042167947 -0.04301214 -0.042507797 -0.03658194 0.11345883 0.10562608 -0.039286014 0.10386055 0.098215334 0.110109486 -0.03528915 -0.03252395 0.106286116 -0.03529712 0.10235247 -0.03774066 -0.046215627 0.10174496 0.11185698 -0.03909814 0.103224106 0.10443704 -0.036202684 0.10625276 0.10211639 0.10891809 -0.04503466 0.10891652 0.11018062 -0.024902765 0.10980768 -0.03790779 0.0980929 -0.03929188 -0.03532392 0.10673356 0.114317775 0.08177326 -0.03725604 0.106250726 -0.03700543 -0.033891346 0.102461815 -0.033937894 0.095774226 -0.041979928 -0.032243926 -0.037549317 -0.040954415 -0.043938395 0.0990175 0.109008685 0.09079326 0.11030282 0.10032279 -0.027979223 0.08201255 0.11105352 0.0965155 -0.042473514 0.09828122 0.09497968 0.08168609 0.06635385 0.101064175 -0.029256502 0.096527085 -0.045435883 0.10528699 -0.023898821 0.099696405 -0.03505956 0.10821546 0.10605885 -0.03774181 -0.04173139 -0.03096551 0.10631035 0.093121186 0.10329934 -0.039346706 0.09916985 -0.039029725 -0.039086945 0.09927628 0.10554368 -0.042033482 0.10003059 -0.039449893 -0.028928865 -0.03837738 -0.03711519 0.10227513 0.098732725 0.10104681
doc_19 0.12431398 0.13526253 0.14992823 0.15084822 -0.04215283 0.111383915 -0.05698365 0.107896484 -0.027228495 -0.03184689 0.084219925 0.11151768 -0.050603613 0.042991728 0.13366044 0.12199351 0.045500603 0.16140147 0.14525731 0.027037287 0.15304376 0.048087765 -0.057029575 0.0030274685 -0.048559174 -0.020588452 0.1500171 0.15699545 -0.039111283 0.017299796 0.13751046 0.0034966236 -0.0153484605 0.13958582 -0.041607365 0.11043285 0.013672831 0.044034094 0.1443182 0.12711321 0.14209488 0.051206097 0.0062948135 0.04454903 0.12394443 0.054744508 0.13933055 0.084204815 0.120769836 -0.0015070951 0.019731013 0.10527538 0.15329047 -0.07554193 0.021617573 -0.058381274 0.15016863 0.16955188 -0.067250334 0.121760346 0.05685094 0.011615037 -0.049420048 0.038229506 -0.031475 0.15386094 -0.029420642 0.14742894 0.0019661782 0.15720493 0.16322787 0.13246882 0.04392256 -0.06361589 -0.06782034 0.123166166 0.08019984 0.15550388 0.15135281 0.15293913 -0.07198399 0.04143113 0.13359517 0.024957633 0.023927381 0.16168211 -0.042663325 0.1499142 0.036386237 0.0746262 0.12395104 -0.05722862 0.094538145 0.045785524 -0.037374217 0.006086279 0.17286243 0.15292932 -0.05389572 0.12617841 0.13766114 0.0039390596 0.0980699 0.1299476 -0.05659437 -0.00050869776 -0.03175915 0.023003098 -0.07261458 0.12201692 0.14299959 -0.040651206 0.13243443 0.15947658 0.15362795 -0.059902165 0.026274195 0.15854765 -0.032296237 0.17663461 -0.013848505 0.047625236 0.14977366 0.10445493 -0.029180162 0.15167491 0.14748846 0.019242266 0.12768945 0.15338208 0.15047036 -0.02793177 0.15069015 0.12381618 -0.0031046004 0.17159559 0.00193782 0.11813241 0.017900655 0.07695949 0.16518599 0.15064299 0.063224785 0.017719278 0.16266957 -0.08053443 -0.061550166 0.13539769 0.035380095 0.16648337 0.05051572 0.070600405 -0.011379397 0.058068626 0.02757389 0.11824174 0.121433936 -0.014619741 0.16825773 0.14286199 0.010911029 0.00040356372 0.15611634 0.13450286 -0.036050133 0.12351826 0.14691448 0.048002306 0.092150666 0.13698788 -0.03124833 0.1039729 0.014568595 0.147465 -0.07761429 0.15075447 0.064449176 0.16297518 0.11821301 0.015307543 0.048099406 0.12501478 0.1353249 0.16162375 0.14891753 0.0011315873 0.11593987 0.028967481 0.035837848 0.1439157 0.16487212 0.021469152 0.14115617 0.04762244 -0.060795594 0.0128408745 0.067960426 0.1366413 0.13702406 0.13524972
doc_20 0.114683755 0.11825732 0.104514934 0.11136664 -0.046957497 0.113720834 -0.038093843 0.123723194 -0.035350434 -0.051405568 -0.042723194 0.12309546 -0.034306306 -0.04048924 0.11690937 0.1250725 -0.03614221 0.11644754 0.12830637 -0.046489242 0.11074283 -0.03198554 -0.047211166 -0.03946622 -0.04649205 -0.033331916 0.1307318 0.12902951 -0.025522105 -0.018042853 0.11134845 -0.02932564 -0.034632616 0.12198196 -0.021970298 0.10659574 -0.045348555 -0.036102 0.10492522 -0.036169987 0.11922083 -0.0321661 -0.048818953 -0.04065048 0.10565924 -0.021861024 0.10693507 -0.04067207 0.09892653 -0.04315905 -0.042433377 0.12029003 0.1100319 -0.053387597 0.07114285 -0.038059138 0.12015156 0.10206298 -0.041095655 0.10295421 -0.039254773 -0.028842734 -0.044487447 -0.016503474 -0.027270595 0.11550697 -0.035577998 0.10358953 -0.040576983 0.12201208 0.108706586 0.12224335 -0.021272546 -0.03616548 -0.044721477 0.11928508 -0.033560265 0.109293565 0.10942419 0.10239691 -0.03945287 -0.018723484 0.1003946 -0.046405848 -0.038180407 0.100579746 -0.045998067 0.11828427 -0.041336812 -0.020444417 0.11773656 -0.043353636 -0.032209706 -0.043127995 -0.01648416 -0.039682094 0.11431181 0.116256945 -0.020316703 0.13351084 0.122060664 -0.03541526 -0.03933778 0.1187469 -0.004872996 -0.05413822 -0.039826415 -0.049265526 -0.047981385 0.11247788 0.11119834 -0.028575256 0.12187928 0.114352316 0.098258 -0.045570668 -0.041018054 0.114519075 -0.029920928 0.11768386 -0.032255154 -0.029593026 0.10657972 0.107460886 -0.036272332 0.108979635 0.11014497 -0.052507296 0.11783809 0.10545082 0.10595406 -0.046259355 0.116709925 0.12880978 -0.04175683 0.10490942 -0.05284325 0.12285291 -0.0332287 -0.034839287 0.115714274 0.11259115 0.08999268 -0.04592316 0.11262703 -0.024777276 -0.027653793 0.1136518 -0.033693586 0.12008366 -0.040432695 -0.03406666 -0.03488307 -0.043987494 -0.041232657 0.11715347 0.11450314 0.09841115 0.12128522 0.10773468 -0.04431033 0.07598014 0.1252763 0.11780665 -0.04371156 0.116701074 0.11985278 0.07866779 0.09279765 0.10484347 -0.04847644 0.09228225 -0.034967467 0.103021875 -0.041806225 0.10488345 -0.03415581 0.11125334 0.12589751 -0.04563061 -0.039290424 -0.037002567 0.104453236 0.12285766 0.10066585 -0.046750963 0.11901431 -0.03469753 -0.04393955 0.114918 0.122615166 -0.033065822 0.11515364 -0.04466231 -0.033278372 -0.042998575 -0.042371824 0.10213468 0.11114374 0.12350553
doc_21 0.088118166 0.09099272 0.08746474 0.09653551 0.011316993 0.07524402 -0.026211465 0.08417704 0.018109636 0.016388789 0.027100286 0.07511152 -0.014270878 0.005949593 0.095113195 0.084489904 0.015011553 0.100842655 0.09981067 0.0070782695 0.083482094 0.029565651 -0.016268551 -0.0072022565 0.016417552 0.02889286 0.098477505 0.0752656 -0.021100897 0.029916633 0.10510983 0.015128969 0.046992905 0.09314443 -0.016373869 0.070881285 0.008584582 -0.02439486 0.09910419 0.012180721 0.09808236 0.022742778 0.03679031 0.023639847 0.104971275 0.011113178 0.08437477 0.023390913 0.08689764 0.009588103 0.020725207 0.09271294 0.10493675 -0.03609087 0.07656913 -0.01388873 0.09071151 0.1013586 -0.028071562 0.08269419 0.037517045 0.022059154 0.0034396136 0.034028683 -0.0038723222 0.08323866 0.021055318 0.09128087 0.023572782 0.10520949 0.09451219 0.092270136 0.020492671 -0.014542325 0.057858918 0.0872623 0.010201542 0.096472174 0.08887353 0.091773845 0.05169507 0.016104251 0.08422179 0.014823046 0.02182858 0.08542803 -0.02789509 0.09202651 -0.004420624 0.03396421 0.083806135 -0.047330234 0.013600097 0.025703214 -0.023002151 0.007625983 0.088621184 0.08978075 -0.019098036 0.08368568 0.08858975 0.029802639 0.02723718 0.09004625 -0.030806249 -0.0040257005 0.0025333345 0.032583877 -0.026678873 0.094147526 0.09485877 0.057743132 0.098740794 0.07281276 0.070031166 -0.036280543 0.0035471083 0.09991613 -3.011548e-06 0.08997852 0.024473637 0.023801811 0.0857797 0.07288613 0.021027597 0.0899712 0.084174804 0.012520759 0.10029431 0.09458719 0.07431011 -0.01233591 0.09217623 0.0937616 0.014469059 0.092880756 0.0075165946 0.08704159 0.030362992 -0.013854736 0.10278214 0.1026146 0.06830334 0.0012726836 0.10683059 -0.03160504 -0.03653315 0.07789919 0.012537946 0.08180838 0.005185637 0.010780414 0.0121693835 0.03649512 0.038321514 0.094881944 0.076067954 0.0074112234 0.0685741 0.0923456 0.0186162 0.02844284 0.09849111 0.081236355 -0.0022653162 0.095237345 0.08660436 0.0447711 0.08047361 0.09062745 0.0027626965 0.09421671 -0.00036229944 0.087320015 -0.042102396 0.088238396 0.021375794 0.08127689 0.074099354 0.014987303 0.015928239 0.044121873 0.09074794 0.07490692 0.09000451 0.010337748 0.07928767 0.012865312 0.00017837994 0.076480724 0.095889896 0.0093149915 0.09347101 0.015718132 -0.019648159 0.021737883 0.015735473 0.08701161 0.0865075 0.092493564
doc_22 0.12007287 0.14839934 0.15051365 0.16040428 -0.05364617 0.113681965 -0.020778205 0.09502718 0.013731582 0.014806711 0.12500429 0.114338905 -0.07853181 0.051534623 0.114669934 0.12709118 0.050822187 0.14199565 0.1494261 0.05550801 0.15126066 0.0784581 -0.06345136 0.008608061 -0.074221246 -0.0051728487 0.13642912 0.14148693 -0.05205544 0.0035147937 0.14270018 0.076118246 0.061252344 0.13007 -0.023573052 0.10477398 0.11632774 0.016590523 0.1403208 0.072076835 0.13288309 0.058857188 -0.015304289 0.09048897 0.108186275 0.098614454 0.14760928 0.14202292 0.11435423 0.038527682 0.052572157 0.11330877 0.14218204 -0.055390526 0.033766825 -0.059771523 0.13848037 0.15864433 -0.07469691 0.12714134 0.037163 0.050363805 -0.034917813 0.09653809 -0.019385427 0.16021869 0.0112098595 0.15412118 0.034083545 0.14714123 0.16371824 0.12556352 0.10849641 -0.06768113 -0.080001004 0.11770096 0.137451 0.14256236 0.13563904 0.14527155 -0.052797303 0.090962514 0.11656949 0.049977466 0.056983255 0.1664181 -0.052790876 0.14525671 0.03890504 0.058418363 0.12818794 -0.06775474 0.11491435 0.09804785 -0.016462633 -0.008416337 0.16711138 0.14638545 -0.06788249 0.12607813 0.11746835 0.015588929 0.11124303 0.12052949 -0.060241587 -0.0070286877 -0.025101824 0.096772626 -0.075838625 0.123962104 0.1275749 -0.041565422 0.13697124 0.1306486 0.16087703 -0.07433667 0.030398093 0.15129752 -0.04209577 0.15774202 0.09016164 0.09956525 0.14941706 0.09737689 0.043540455 0.16116397 0.16302788 0.019212889 0.11663937 0.16421412 0.124109104 -0.03415213 0.13237861 0.13653275 0.014299002 0.15815023 0.024261149 0.11440806 0.05338003 0.09802302 0.16175264 0.14185359 0.05697556 0.0076947953 0.14381209 -0.07812695 -0.0743941 0.13300303 0.0733655 0.16762279 0.05964066 0.09910464 0.018646495 0.045185152 0.0074743796 0.1142585 0.1311844 0.050381523 0.14697826 0.15513234 0.0119183315 -0.019779772 0.13683157 0.13605943 -0.022886554 0.13774757 0.11837053 0.057001498 0.057521384 0.13727003 0.01408718 0.105073005 -0.003373525 0.11256272 -0.08226143 0.14554301 0.04490071 0.15452515 0.11397378 0.033609346 0.07638105 0.10252081 0.112120934 0.16315085 0.15110782 -0.013582943 0.09494435 0.0017637475 0.080296665 0.14690398 0.16002199 -0.0027256862 0.14800066 0.0626685 -0.06561862 0.03832122 0.06341794 0.13656297 0.1345958 0.144656
doc_23 -0.03153405 -0.03488453 -0.023440452 -0.029677536 0.042181477 -0.03075092 0.012692617 -0.03110825 0.05835473 0.050253812 0.06675588 -0.030465702 -0.0076585356 0.052951816 -0.027872449 -0.03374874 0.049412552 -0.03272636 -0.033956297 0.04930683 -0.034059796 0.049224384 -0.014405112 0.026800305 0.044526417 0.05747532 -0.033169348 -0.034898162 -0.0039411066 0.05749911 -0.032985914 0.038471196 0.053146917 -0.028068269 -0.0065358006 -0.039310623 0.055469144 0.034949284 -0.03418704 0.05743426 -0.029601485 0.04849993 0.058882844 0.054277264 -0.03457743 0.03353563 -0.03403797 0.06845547 -0.031810857 0.035473526 0.06119832 -0.031820357 -0.026889682 -0.010229304 -0.027076628 -0.010736612 -0.030267976 -0.030513156 -0.010202362 -0.035144042 0.051923994 0.03487097 0.046969946 0.050155193 0.020932095 -0.028513279 0.048164222 -0.02762906 0.060622714 -0.027553411 -0.03271664 -0.034513824 0.05388743 0.020970318 -0.003954139 -0.038656216 0.06744698 -0.031284682 -0.032369085 -0.032497067 -0.0032166252 0.059444338 -0.028117178 0.05310818 0.040953137 -0.031092672 0.0066047106 -0.03457219 0.03221807 0.059567716 -0.031977847 -0.013489692 0.060875516 0.05507395 -0.0097120255 0.03728936 -0.02651436 -0.030028343 0.019668728 -0.03030385 -0.026845742 0.06332782 0.041011095 -0.031983197 -0.0092574805 0.03159723 0.019202031 0.060522676 -0.008527805 -0.026019985 -0.030413147 -0.010741478 -0.029062578 -0.027051102 -0.038850106 0.0019571206 0.04129653 -0.030925442 0.03268957 -0.030041464 0.0563015 0.051631976 -0.02982879 -0.029994374 0.05349673 -0.029515143 -0.028479913 0.050556526 -0.03581448 -0.029603751 -0.031216396 0.04582021 -0.028789623 -0.032037918 0.056649636 -0.030197058 0.04188901 -0.03268519 0.052693702 0.039560523 -0.024294697 -0.031095332 -0.029089818 0.056322783 -0.031229023 -0.011079668 -0.011940204 -0.030369235 0.035140913 -0.02581895 0.059916273 0.038618088 0.036793258 0.04049271 0.05984833 -0.034322523 -0.027348602 -0.012243002 -0.029490758 -0.03076682 0.047955275 -0.0123122465 -0.032692894 -0.028456 0.033299454 -0.030517213 -0.03161261 -0.027490083 -0.027838685 -0.032565523 0.054993764 -0.035222102 0.03625679 -0.024825728 -0.010075074 -0.030772856 0.045262653 -0.02884375 -0.03379475 0.041245885 0.05522023 0.046976056 -0.032685652 -0.03705479 -0.026929034 0.0291095 -0.034512207 0.030230734 0.03851311 -0.036364123 -0.02782404 0.050874747 -0.026943062 0.036342762 -0.009061929 0.05325736 0.061283074 -0.032800127 -0.031710904 -0.025937933
doc_24 0.08116709 0.09013031 0.09752749 0.09502652 -0.028252471 0.08333454 -0.029025313 0.09226943 -0.02974438 -0.030697651 -0.026521318 0.08855874 -0.017395252 -0.0266015 0.09422171 0.08806958 -0.027862776 0.07901683 0.098270476 -0.035997767 0.08127753 -0.024170553 -0.0139782 -0.025459236 -0.030903379 -0.04031276 0.08542073 0.08482502 -0.021969112 -0.03620243 0.08858563 -0.020733146 -0.021459451 0.087864 -0.019506663 0.07777749 -0.02809443 -0.038808994 0.08778265 -0.03323503 0.097727515 -0.007971279 -0.0322787 -0.026269559 0.08194904 -0.01587645 0.079360016 -0.02197956 0.09318765 -0.017723175 -0.031792436 0.09436471 0.088046506 -0.004082893 0.048149746 -0.024720134 0.09653483 0.08356848 -0.015384835 0.09506373 -0.02453395 -0.03425888 -0.03168319 -0.015897142 -0.031661183 0.09437026 -0.015203343 0.08776182 -0.024268843 0.0851012 0.08609601 0.08229703 -0.022414967 -0.016402036 -0.032065447 0.086049974 -0.025067218 0.08797374 0.09275222 0.09385266 -0.008755709 -0.025586687 0.088592835 -0.036578726 -0.020267421 0.097878 -0.011021192 0.073399246 -0.024197211 -0.03179853 0.08270183 -0.033968497 -0.03175603 -0.025716627 0.04077123 -0.036457278 0.076503135 0.07509373 -0.025086058 0.08510584 0.07910583 -0.027746588 -0.017007504 0.09456045 -0.022537556 -0.032123245 -0.025553368 -0.026730852 -0.020161092 0.07669871 0.081504375 0.011849286 0.096609086 0.1010209 0.08491163 -0.035011422 -0.03331536 0.07698325 -0.021399185 0.084856205 -0.02963558 -0.020216525 0.09214214 0.09470661 -0.027145138 0.09820763 0.0804154 -0.022031952 0.08465316 0.0960065 0.08881691 -0.030035721 0.09663378 0.09086428 -0.03393154 0.07619047 -0.023742726 0.07875225 -0.02558696 -0.018998174 0.085704416 0.07575102 0.07412275 -0.04392611 0.084942244 -0.03652109 -0.024929402 0.08518262 -0.019237855 0.08586811 -0.02796332 -0.022954522 -0.028675657 -0.021999197 -0.028686566 0.098910935 0.09322744 -0.008212179 0.08825819 0.08340572 -0.025980936 0.06640195 0.08266525 0.0887368 -0.033017054 0.089226596 0.09632567 0.049277883 0.07884301 0.09819974 -0.022550736 0.07719751 -0.023471482 0.087831855 -0.007340386 0.08505775 -0.012494634 0.078722924 0.07747026 -0.019919995 -0.023621306 -0.0246861 0.09314383 0.07588527 0.086916916 -0.022503126 0.08965167 -0.035550732 -0.025980057 0.10177337 0.07369032 -0.023803683 0.07770303 -0.032357436 -0.028826255 -0.036749188 -0.0221455 0.09477364 0.08286553 0.09942257
doc_25 0.0782299 0.086197436 0.078053564 0.07850471 -0.027766254 0.07407208 -0.019564638 0.08659158 -0.01836076 -0.02409092 -0.012036971 0.08015002 -0.01949228 -0.013542067 0.07820114 0.07755216 -0.018710345 0.07487329 0.08426945 -0.023268089 0.0881932 -0.014246686 -0.023845546 -0.026434338 -0.029194597 -0.027438555 0.07484609 0.08363487 -0.026038779 -0.023996448 0.085703656 -0.02239872 -0.020921458 0.08743485 -0.021604165 0.083007455 -0.024816303 -0.023931865 0.08225616 -0.024237275 0.08465028 -0.020987665 -0.017026765 -0.0123888 0.07822599 -0.010799172 0.07353267 -0.01899284 0.08139647 -0.022537746 -0.024128202 0.07623975 0.082770824 -0.025355224 0.06080327 -0.0252612 0.086109616 0.076384194 -0.026157 0.0859302 -0.015979646 -0.017593402 -0.027343227 -0.006566578 -0.020598844 0.080172636 -0.020469926 0.07921513 -0.02782034 0.0772197 0.07653625 0.08703156 -0.027704893 -0.030528247 -0.027760848 0.083480164 -0.019663328 0.07042806 0.07661495 0.07646553 0.0029031099 -0.021318896 0.076894715 -0.018624745 -0.021494426 0.07678803 -0.03140442 0.082997605 -0.020386279 -0.0067302664 0.08819844 -0.024897339 -0.019455146 -0.01802082 0.044709 -0.031128488 0.08018277 0.079760544 -0.025989754 0.08179914 0.07605775 -0.026370922 -0.014095924 0.079918906 -0.025134638 -0.021288047 -0.00839318 -0.022966046 -0.03312035 0.08572958 0.08331601 -0.013419963 0.08316022 0.07672609 0.08054111 -0.027858978 -0.014421349 0.08476209 -0.021896157 0.07562474 -0.023123387 -0.0153636895 0.076649785 0.082482845 -0.020697512 0.0861023 0.08154605 -0.022791924 0.08037217 0.080331035 0.08203842 -0.02628495 0.073978804 0.081917055 -0.025026757 0.07508098 -0.010955151 0.0710385 -0.017820667 -0.015089384 0.08087648 0.08380167 0.065666005 -0.025953738 0.07832593 -0.02707853 -0.023137879 0.08348222 -0.009643591 0.081564486 -0.015395079 -0.014183685 -0.01732215 -0.016807452 -0.02716622 0.0719271 0.07396156 0.0012961116 0.08262472 0.075485565 -0.013141927 0.001649321 0.084518746 0.084015384 -0.020804545 0.08239057 0.08370117 0.045551483 0.065197736 0.08231667 -0.024761468 0.077835456 -0.02439768 0.08253057 -0.014841357 0.08747059 -0.019764211 0.087792255 0.0822572 -0.03120752 -0.020674111 -0.014097324 0.07717459 0.08543969 0.07625567 -0.024758304 0.074224226 -0.025046656 -0.026199963 0.08053411 0.08128772 -0.026634589 0.08083553 -0.020363659 -0.017603474 -0.02346382 -0.0175476 0.08163598 0.08299883 0.07391693
doc_26 0.059015527 0.051469848 0.051488142 0.058541633 -0.010810228 0.056840114 -0.01807833 0.06416879 -0.016644869 -0.009119765 -0.007520385 0.057467908 -0.024154145 -0.016103383 0.063107334 0.05625456 -0.017941594 0.06061271 0.057499338 -0.014826065 0.06271076 -0.010523293 -0.01890966 -0.01102042 -0.023733908 -0.0057616914 0.05896181 0.06796018 -0.017179204 -0.013542201 0.060996324 -0.020427126 -0.013323386 0.059849896 -0.0054338677 0.06042006 -0.009307716 -0.023236714 0.06105538 -0.0147324735 0.061170965 0.005788296 -0.016049711 -0.01146275 0.05786031 -0.01191091 0.059511468 -0.004213112 0.066205576 -0.01726311 -0.006929879 0.060767755 0.0514161 -0.020821692 0.04660739 -0.023450125 0.06448707 0.05968933 -0.0042950916 0.062176786 -0.018662391 -0.0005492961 -0.009787441 -0.013561137 -0.011165884 0.05785003 -0.020586101 0.06028881 -0.007831453 0.05800034 0.053164616 0.06585807 -0.013995323 -0.01794504 -0.0036054468 0.05536636 -0.007794033 0.06187975 0.054106474 0.054060753 0.029825201 -0.0126785105 0.054908488 -0.01979141 -0.016447553 0.06507727 -0.018844433 0.062108297 -0.018206945 -0.014834756 0.059702937 0.0067592617 -0.0009647496 -0.006292716 0.042958 -0.02254642 0.051081732 0.05948958 -0.018287767 0.061048366 0.058748804 -0.0072020367 0.0025869398 0.055464853 -0.023455925 -0.012002217 -0.017329838 -0.008653801 -0.015691468 0.06341553 0.060752682 -0.019179758 0.06647848 0.064596064 0.05989427 -0.012141811 -0.00964742 0.06888767 -0.02247771 0.05893575 -0.014446394 -0.007147751 0.068487346 0.05687087 -0.014863722 0.056149505 0.067815825 -0.021320082 0.058972683 0.06498383 0.058758628 -0.012352945 0.06627299 0.058646183 -0.0184114 0.061590668 -0.021399388 0.05414685 -0.01011359 0.006014412 0.065558136 0.058286935 0.03375695 -0.01950158 0.056934986 -0.021392278 -0.02215432 0.06283342 0.0016980744 0.052969053 -0.016234092 0.0021250462 -0.0075252634 -0.004002461 -0.0038802011 0.064690225 0.057893164 0.030796278 0.057389513 0.05529309 -0.014464098 0.053625397 0.06447752 0.06276131 -0.008131433 0.0538641 0.04983465 0.050743297 0.038984396 0.06486864 -0.0115132965 0.053279772 -0.019663915 0.06083735 -0.030212032 0.05379742 -0.01764328 0.06416665 0.05936679 -0.011962909 -0.005908411 -3.8317055e-05 0.06386033 0.06348254 0.053678 -0.020303054 0.060760878 -0.0068707615 -0.019874956 0.05907736 0.06478244 -0.0144269215 0.06330927 -0.014350947 -0.022871584 -0.015523205 0.004687364 0.06099853 0.05987894 0.06448011
doc_27 0.08152736 0.07885859 0.07795692 0.08299346 -0.032692365 0.07266799 -0.029101772 0.08123688 -0.01669028 -0.02948914 -0.029908098 0.08094858 -0.025726043 -0.019276297 0.07805706 0.07676192 -0.024455609 0.073545374 0.07317586 -0.02642306 0.07779789 -0.018867077 -0.028740164 -0.021035247 -0.029392494 -0.028124643 0.0872501 0.08264493 -0.01520934 -0.0222981 0.07307991 -0.026110742 -0.022193389 0.08257446 -0.018742338 0.07857085 -0.023592185 -0.021938581 0.07854282 -0.01791047 0.08094511 -0.01996923 -0.026050085 -0.023130871 0.07258087 -0.01795803 0.07714602 -0.021786757 0.06421131 -0.026928715 -0.021140113 0.075677544 0.07104129 -0.030563572 0.057953972 -0.02420106 0.07869652 0.07202042 -0.025501369 0.080077425 -0.023566516 -0.013055279 -0.030165575 -0.024748592 -0.022322811 0.07952991 -0.016011627 0.071862675 -0.02158483 0.078043416 0.0769827 0.07560602 -0.021577204 -0.027214332 -0.030576153 0.079423696 -0.018125623 0.07571744 0.08165854 0.07519505 -0.027853394 -0.013040718 0.07352724 -0.0271766 -0.023836838 0.076674744 -0.029169247 0.07725363 -0.023489302 -0.016286593 0.08202397 -0.020020919 -0.017339407 -0.021067936 -0.008658197 -0.014885029 0.075852156 0.07769584 -0.023066014 0.085150115 0.0735837 -0.023329625 -0.012086292 0.08107482 -0.022060169 -0.029519882 -0.02463104 -0.018802525 -0.026104713 0.079376064 0.07977275 -0.005423111 0.08215642 0.08286969 0.069170736 -0.022301668 -0.021272428 0.08128019 -0.023590632 0.07345793 -0.020011744 -0.025184778 0.08173326 0.072599046 -0.030439751 0.07902386 0.06996371 -0.023084626 0.07619076 0.072648704 0.07610796 -0.031470418 0.08488013 0.08034832 -0.02992924 0.07589763 -0.03019638 0.08089019 -0.018852985 -0.0155270975 0.08623908 0.08003134 0.067368634 -0.030413836 0.07431248 -0.020866368 -0.02580489 0.07708651 -0.022353822 0.07664226 -0.022376088 -0.02452633 -0.013723466 -0.023911633 -0.024330424 0.07683936 0.07389245 0.06888857 0.078319445 0.066797435 -0.02180734 0.058807753 0.079485625 0.08346551 -0.03029297 0.077730894 0.07984681 0.063878216 0.06252652 0.07693169 -0.026513798 0.069259614 -0.02745466 0.07642511 -0.029485269 0.07286006 -0.0139865605 0.0749806 0.07595505 -0.02444362 -0.023551473 -0.012060747 0.07122458 0.08114116 0.075879104 -0.021981386 0.072262794 -0.023158746 -0.022179654 0.083539516 0.074724406 -0.028309071 0.073193185 -0.024375077 -0.028088747 -0.023488853 -0.017562985 0.076633394 0.08266466 0.072881445
doc_28 0.03964003 0.0689262 0.066974655 0.08080553 -0.03889957 0.049019437 -0.021555841 0.050611787 -0.029333556 -0.020449158 0.03928046 0.04046964 -0.00814955 0.019808214 0.041586455 0.06026958 0.02711162 0.06937721 0.049066022 0.025059186 0.07396622 0.0052451068 -0.029027607 -0.012696738 -0.030572658 -0.017646171 0.04785993 0.06386974 0.037702568 -0.022319691 0.07015611 -0.015413742 -0.0015390664 0.06699425 0.02676672 0.062272407 -0.0013848715 -0.0051577184 0.059200313 0.012633219 0.053638898 0.008467782 -0.01695328 0.009274172 0.07329355 0.019036846 0.07155077 0.027115922 0.06037739 0.0060970923 0.0049806666 0.061025552 0.06675174 -0.023115661 0.042929336 -0.031162271 0.07347978 0.082797766 -0.022817286 0.047812365 0.0088660475 0.010845402 -0.026676966 0.023997508 -0.018274963 0.054069884 -0.013017444 0.072214514 -0.0037859026 0.057575725 0.0625983 0.044545025 0.007167777 -0.029432273 -0.015394058 0.05552966 0.027570328 0.06478307 0.0736541 0.06637408 -0.011112617 -0.015332241 0.048749503 0.0065499702 0.0035139741 0.06612714 -0.033506487 0.06473863 0.00060992595 -0.0005936767 0.037557982 -0.011480063 0.019681191 0.012664828 0.06262297 -0.008529819 0.067896605 0.07010949 -0.029924732 0.03676241 0.042251647 -0.011148419 0.026781462 0.053227134 -0.016196776 0.012949628 -0.025771257 -0.0056128986 -0.020201905 0.04829584 0.050508734 -0.033540614 0.067624666 0.062489 0.060537543 -0.033304673 0.001795186 0.059161123 -0.021206165 0.08503797 0.00041064643 -0.0021124282 0.07350898 0.058312915 0.003442199 0.08733349 0.054784454 -0.02740336 0.07279992 0.059254587 0.053090032 -0.0137701705 0.060033668 0.06977597 0.002020827 0.08764554 -0.0041535846 0.046072282 0.012267139 0.009437123 0.0800196 0.08786501 0.042032853 -0.008870053 0.07531482 -0.019363916 -0.017789535 0.057377093 0.0035219286 0.05736747 -0.011237777 0.00417468 -0.0020778482 -0.012220202 -0.016319368 0.061827015 0.045315173 0.0442606 0.049379885 0.0702462 -0.01588135 0.07614739 0.0506899 0.071347326 -0.021766823 0.070057645 0.061845116 0.038995977 0.051723048 0.0546723 -0.009711441 0.03541956 -0.025268208 0.069252506 -0.024671076 0.066189624 0.0011779009 0.06728344 0.051007915 -0.00629464 0.018278122 0.028174607 0.065861 0.05444589 0.05692222 -0.010140567 0.05747748 -0.005818419 0.0034618392 0.08107406 0.08165688 -0.0071747103 0.055548985 0.015257787 -0.021154178 0.004605322 0.008275257 0.049478695 0.07109864 0.06582875
doc_29 -0.040701006 -0.032229383 -0.031457562 -0.029336955 0.012440226 -0.031554136 0.08807819 -0.034079835 0.08792013 0.08558706 0.101578005 -0.03375348 -0.0034985049 0.079245426 -0.033699676 -0.032101966 0.09338498 -0.031497188 -0.03289958 0.03461161 -0.025755607 0.09448357 -0.032788534 0.08939959 -0.005844514 0.08587509 -0.02705311 -0.033409905 -0.025821261 0.020141853 -0.03370769 0.10281935 0.07783026 -0.036120348 -0.0050688493 -0.039245352 0.025635522 0.0798106 -0.032596502 0.08997572 -0.027536154 0.07660982 0.019391278 0.083775 -0.036394883 0.03709821 -0.030548789 0.09780229 -0.033281043 0.089403234 0.09824143 -0.037521277 -0.027034234 -0.012341643 -0.039016176 -0.02802304 -0.030046523 -0.022799565 -0.017622694 -0.03567621 0.04591134 0.036701694 0.06920347 0.0948341 -0.003572164 -0.019578595 0.028725926 -0.0266485 0.099166095 -0.029559255 -0.029815126 -0.03199908 0.07101867 -0.0032894122 -0.016717393 -0.032172654 0.10653216 -0.030610157 -0.032217868 -0.03202697 -0.016160741 0.0965785 -0.034638897 0.054320205 0.092270836 -0.019646956 -0.020600209 -0.030852614 0.07976906 0.09110007 -0.030454893 -0.034655247 0.09689282 0.08834926 -0.013188469 0.09990929 -0.023834165 -0.030767823 -0.01754767 -0.036297448 -0.028982142 0.090227984 0.09220138 -0.030400833 -0.02443604 0.088533744 -0.013405502 0.08729546 -0.02353757 -0.029206475 -0.030446107 -0.025441617 -0.031899035 -0.027788557 -0.034793396 0.017875984 0.07596766 -0.027240498 -0.0032382412 -0.028174682 0.09574929 0.09609412 -0.024423152 -0.041944902 0.01946791 -0.028566796 -0.034394298 0.0902115 -0.030170036 -0.029255303 -0.037858106 0.07657845 -0.03021768 -0.029902095 0.026451625 -0.024759982 0.074088916 -0.03008943 0.07582288 0.07482206 -0.028904201 -0.029855939 -0.043519635 0.031508822 -0.027426034 -0.017633464 -0.021367472 -0.031421922 0.07477626 -0.023304662 0.076461464 0.096802734 0.08838325 0.09275168 0.08196138 -0.03408467 -0.035217416 -0.0149086295 -0.02668023 -0.027031591 0.09140042 -0.013035271 -0.032091085 -0.03647783 0.03579835 -0.03183108 -0.02966308 -0.036913425 -0.04206605 -0.03054089 0.080182545 -0.03725664 0.058528684 -0.024868885 -0.025191797 -0.030349342 0.07238039 -0.03252343 -0.03551396 0.08202742 0.08802286 0.05898487 -0.029569924 -0.03280129 -0.027896622 0.073927045 -0.037882585 0.08873752 0.100153685 -0.026953721 -0.026073702 0.07606964 -0.03242748 0.095173575 -0.017005663 0.07326284 0.09285817 -0.0318339 -0.03369557 -0.033130977
doc_30 0.057252094 0.057153013 0.058560643 0.058397166 -0.012247078 0.05948119 -0.020953218 0.06392585 -0.02244369 -0.010074593 -0.015431978 0.054205395 -0.019476661 -0.01745674 0.06666604 0.062714376 -0.014437364 0.057595927 0.056192573 -0.016705113 0.05500069 -0.012366129 -0.015752967 -0.010384057 -0.023489377 -0.015596064 0.060199052 0.06723059 -0.015621241 -0.0123978425 0.063795455 -0.025234835 -0.008570752 0.06291888 -0.0016067214 0.059256658 -0.0070282025 -0.02114393 0.061679088 -0.015443292 0.060162306 0.0044431193 -0.01134018 -0.012377245 0.06360409 -0.012306502 0.06772243 0.0021826932 0.06570508 -0.01634682 -0.006181255 0.05891294 0.05138105 -0.021506822 0.04478541 -0.019861247 0.0638874 0.05849537 -0.00603412 0.061772425 -0.018879034 -0.0045805485 -0.008888037 -0.018514028 -0.014951768 0.05892294 -0.019746795 0.05319995 -0.0115194805 0.060370237 0.056262307 0.05889745 -0.018324114 -0.019401127 -0.0026050708 0.06193009 -0.0059041316 0.058896597 0.053867415 0.055188473 0.014411901 -0.016210701 0.06049457 -0.018715369 -0.016474582 0.062764354 -0.0093643395 0.06181888 -0.019805908 -0.013692422 0.06452565 0.0070407344 0.0025362973 -0.011551908 0.04831285 -0.016722366 0.05626295 0.059066 -0.020249207 0.061235674 0.055352934 -0.005282511 0.004595963 0.054922517 -0.026562763 -0.0056142462 -0.010771079 -0.00645201 -0.014776487 0.057353657 0.06373842 -0.014603287 0.067743875 0.06698674 0.059793986 -0.012658862 -0.011325682 0.06613857 -0.02143739 0.059402987 -0.015959498 0.0012993843 0.069241345 0.056387346 -0.017687572 0.051365443 0.06098252 -0.0187421 0.06240799 0.06113662 0.06178006 -0.0105204275 0.06298259 0.054281417 -0.018880874 0.06237641 -0.017087305 0.05688077 -0.014510746 0.0028052304 0.06235664 0.05922486 0.029189164 -0.017496247 0.050659068 -0.024289908 -0.020021584 0.05775226 -0.0041009057 0.055297207 -0.016137548 -0.00071538123 -0.003825815 -0.0069883247 -0.009817661 0.059111327 0.06156522 0.036232382 0.059073396 0.059551213 -0.0096705705 0.051001403 0.053685375 0.06046624 -0.009716984 0.05446054 0.05522364 0.049120337 0.046837598 0.061311208 -0.013019241 0.05860193 -0.018319674 0.05413772 -0.023192672 0.05407778 -0.02251541 0.063807756 0.059328474 -0.01598125 -0.0050662244 0.0024347352 0.056844663 0.06665483 0.056829058 -0.017114595 0.056599356 0.00083845435 -0.020529695 0.057056695 0.061870977 -0.016884737 0.05849581 -0.017664393 -0.021076906 -0.011811944 0.001213093 0.059582934 0.054758605 0.06428343
doc_31 0.15848945 0.17274272 0.19784999 0.2031145 -0.08193751 0.15639651 -0.050840028 0.14586742 0.00057460787 -0.021268591 0.11157893 0.15292372 -0.08337044 0.08098665 0.13201824 0.14187072 0.15649731 0.18425141 0.18873991 0.03014267 0.19750588 0.10427206 -0.060718477 0.12533574 -0.07895426 -0.0071376897 0.1680921 0.20020024 -0.02605353 0.02903619 0.14996128 0.13732393 0.023896905 0.17088012 -0.04759276 0.12852174 0.067369826 0.13694398 0.17254567 0.08251851 0.18862547 0.010400031 -0.031151129 0.096402094 0.16408461 0.17550518 0.2021435 0.14353584 0.17916974 0.035897747 0.014065389 0.16881125 0.1976177 -0.076531015 0.08545619 -0.057101548 0.195647 0.19487627 -0.102152355 0.15760344 0.16528592 0.18899207 -0.062572144 0.11854834 -0.04149039 0.20951384 0.04367837 0.21153718 0.10722246 0.19863951 0.18532088 0.1651471 0.05239503 -0.066547185 -0.084983446 0.1510309 0.1608376 0.15912044 0.20051673 0.1913367 -0.080115855 0.081353776 0.16256809 0.04711587 0.01660564 0.21422932 -0.06277925 0.1585883 0.069506444 0.091860436 0.12849186 -0.08008619 0.10656315 0.11829752 -0.05854288 0.024328236 0.19203436 0.20730413 -0.080659665 0.17260148 0.18711507 0.017654173 0.15761068 0.16648763 -0.029383212 0.041773487 -0.073887974 0.04071658 -0.080679715 0.16403921 0.18592 -0.051297434 0.15346418 0.1809519 0.19610688 -0.08295901 0.10332649 0.16631284 -0.06952977 0.2024628 0.0238574 0.13018179 0.19966944 0.13403665 -0.0019507229 0.20235023 0.2102345 -0.021844672 0.15547657 0.22072709 0.1771135 -0.062448177 0.1878868 0.17445493 -0.00517831 0.17846522 -0.029739905 0.16805822 0.041422628 0.061154705 0.20171836 0.18490106 0.11252128 -0.05802669 0.16006342 -0.08126692 -0.06832829 0.16159081 0.0018560177 0.19550744 0.013697995 0.033633698 0.19852774 0.02299589 0.07613923 0.15354346 0.14820807 -0.007453435 0.18186758 0.21181077 -0.029390015 0.0014980052 0.1883921 0.15812254 -0.058305643 0.17223108 0.18840268 0.037883244 0.06954297 0.19055228 0.027641665 0.10516878 0.0077066105 0.16750531 -0.09297081 0.17705092 0.033367556 0.20757787 0.14017607 0.08120354 0.13163622 0.10729964 0.15141296 0.16665447 0.18939614 -0.005150754 0.15568292 0.08641381 0.13259202 0.19211325 0.19155759 -0.033264786 0.21851516 0.14552797 -0.089178495 0.028966231 0.03374449 0.17166197 0.17368066 0.18281682
doc_32 0.0842516 0.09956225 0.088278756 0.11001986 -0.040277667 0.08972705 -0.02171919 0.09101446 -0.012412631 -0.030999005 0.045554213 0.10280926 -0.030911688 0.0103693325 0.09178706 0.08867094 0.031392418 0.092925206 0.10422477 -0.004834134 0.10281671 0.025115427 -0.021501971 -0.016648082 -0.010420332 -0.041235786 0.11003938 0.104158245 -0.020949837 -0.013381876 0.08314315 0.011625564 -0.022360176 0.094782196 -0.02211855 0.08527067 0.019920724 0.032560755 0.10081692 0.017480122 0.10598466 -0.0036897133 -0.003238961 0.035862457 0.093998395 0.030649606 0.09138895 -0.009548567 0.1006114 -0.005412353 -0.025144896 0.08240489 0.103302956 -0.033678006 0.08195769 -0.03045101 0.105371185 0.0941468 -0.03653637 0.0938677 0.025310956 0.027337313 -0.03893908 0.0131353885 -0.0033858232 0.08818881 -0.011672601 0.106989 -0.030596634 0.081778124 0.10544293 0.104696564 -0.0013840608 -0.030613191 -0.042821515 0.10186768 -0.004096164 0.08803732 0.09867646 0.09722066 -0.011464558 -0.021815274 0.085008174 -0.0029394275 -0.023647398 0.09995368 0.013475237 0.10353722 0.0046338188 -0.0137605425 0.10477672 -0.036941316 0.007501376 0.017893244 -0.026950615 0.00044084527 0.09127337 0.10714964 -0.03110984 0.09229942 0.100352615 -0.01890665 0.046449654 0.087570556 -0.027529612 0.008035272 -0.030399293 -0.0120013105 -0.043700997 0.0884998 0.106948495 -0.039251026 0.10208246 0.09997313 0.10628526 -0.022081373 -0.027032048 0.10276826 -0.035679184 0.09938279 0.004710552 0.035579495 0.10161953 0.09760542 -0.011943278 0.10312539 0.10465442 0.012121283 0.1004749 0.103947766 0.10776389 -0.02462838 0.103795886 0.08565785 -0.011605885 0.10703377 0.009254277 0.099501625 -0.0050160186 0.028027179 0.10427342 0.10290031 0.078188755 -0.005058181 0.10129495 0.034706205 -0.03681238 0.10205507 0.03008085 0.096440956 -0.0062660566 0.008369975 -0.038139094 -0.0033311923 -0.008533505 0.10412802 0.10262726 0.08670202 0.08707207 0.10521254 -0.014623863 -0.013276645 0.10428764 0.08457987 -0.02157934 0.10077748 0.097240664 0.065740995 0.052362353 0.10452267 -0.011906837 0.08711576 -0.017191501 0.10577385 -0.04151415 0.11031902 0.006635138 0.10355787 0.09192406 0.020970037 -0.0078357505 0.028503101 0.08155937 0.102347106 0.095479906 -0.026384426 0.09502703 -0.010510478 -0.005086579 0.09300149 0.10122345 -0.011120614 0.104944 0.004472534 -0.036981653 0.040709738 0.034530226 0.09982064 0.10622138 0.08103578
doc_33 0.036469266 0.03987 0.047713473 0.052748565 -0.021900227 0.03444847 -0.024598787 0.039503723 -0.014814331 -0.00969133 0.0227666 0.038349826 -0.028372342 0.015540209 0.04166347 0.03700799 0.024132095 0.051948443 0.046503533 0.026338607 0.04850249 0.02159092 -0.022274293 -0.0015809208 -0.03341546 -0.01579036 0.045584388 0.052107442 -9.213813e-05 -0.0024770512 0.04328783 0.008396303 0.0023424237 0.044803478 -0.017994817 0.036932748 0.02199818 0.013377443 0.046409376 0.02465865 0.06024837 0.0045242654 -0.010963587 0.023507806 0.041252002 0.034678858 0.045893736 0.023142686 0.03815589 -0.0011540673 0.0058948905 0.040525626 0.048560027 -0.024233058 0.010210445 -0.021906065 0.050815724 0.056868933 -0.031938914 0.043929666 0.015451831 0.0257535 -0.026820512 0.019874709 -0.011246531 0.050264042 -0.009254196 0.050130498 -0.0158495 0.05168413 0.04991199 0.05228686 0.017453613 -0.027784403 -0.03081094 0.03732248 0.02296676 0.04532223 0.047991008 0.04357745 -0.024330385 0.011589437 0.040006917 0.0026946666 -0.00047290506 0.055689592 -0.02143695 0.053309135 -0.0016934659 0.016424298 0.047609318 -0.02618869 0.029028555 0.01659012 -0.0045621432 0.002484356 0.053779345 0.056001276 -0.023847869 0.04526298 0.044642746 0.0019492747 0.029295154 0.044268955 -0.025398416 -0.0048975972 -0.014273729 -0.00041659607 -0.030020596 0.04061256 0.04554817 -0.015572196 0.04722329 0.048070353 0.051212747 -0.022140827 0.008972224 0.048976146 -0.02022423 0.053667184 -0.0016033851 0.020805283 0.057525598 0.037820045 0.0020559588 0.05517001 0.051917825 -0.011951082 0.040304884 0.05389746 0.05018285 -0.021852132 0.04922689 0.045479093 -0.011136604 0.05290073 0.0069500995 0.041203022 0.01734129 0.03529384 0.056004424 0.04716615 0.022451907 -0.013809747 0.044761896 -0.027623078 -0.030752646 0.035785936 0.0028794238 0.057977814 0.011962442 0.009276964 0.009788282 0.0119973 0.00096602156 0.046177924 0.037104554 0.02024916 0.052648462 0.045896813 -0.007479638 0.012058573 0.051820252 0.04288018 -0.00096232374 0.050357863 0.050085798 0.0050613517 0.014378652 0.04465664 -0.0007967744 0.03360788 -0.013928197 0.039248314 -0.024323037 0.04854253 0.00792661 0.051332183 0.043861724 0.006981835 0.023429953 0.024391549 0.04015831 0.054051854 0.049373917 -0.007566091 0.034976445 -0.003153874 0.017317187 0.0481771 0.055269193 -0.018934472 0.05557979 0.016257579 -0.030413603 0.019317726 0.016316172 0.049312904 0.04778756 0.048626464
doc_34 0.12693396 0.13536635 0.13594422 0.14630054 -0.04301581 0.11433328 -0.07676181 0.110431135 -0.022696024 -0.059582777 0.07782694 0.13934821 -0.08027601 0.058315434 0.12232823 0.11637769 0.050064106 0.15879785 0.1531923 -0.019276554 0.12920973 0.07479357 -0.07303164 0.014061615 -0.06356398 -0.038229316 0.13016814 0.12865672 -0.034400824 0.0058983024 0.15503344 -0.036464915 0.021701548 0.11659402 -0.037508946 0.10102952 -0.006485815 -0.025800716 0.12626041 0.0401694 0.15590766 0.04669597 -0.046815474 0.08511168 0.10460972 0.049912374 0.15401623 0.042240314 0.1199991 0.010651547 0.013675085 0.113651045 0.14881434 -0.07498744 0.07409804 -0.040566705 0.1613571 0.16412115 -0.07129323 0.14128187 0.00871092 0.04265449 -0.024650402 0.017009793 -0.019394724 0.14718093 -0.028948408 0.1368302 -0.03276225 0.16096307 0.15003556 0.13540487 0.06441977 -0.06712655 -0.07547368 0.12115116 0.035225734 0.14670512 0.16301271 0.14171326 -0.06871922 0.057395667 0.13952176 0.015287163 0.034956295 0.15534824 -0.06538772 0.16051559 0.026654676 0.022418661 0.13053235 -0.053140648 0.055107843 0.022081958 -0.022209328 -0.031175047 0.15600084 0.14523183 -0.057841763 0.110670425 0.1185635 -0.031966865 0.0545931 0.12148949 -0.04014753 -0.025033386 -0.06889309 -0.030486692 -0.085518174 0.13080256 0.11499892 -0.048156023 0.13722377 0.13578409 0.16895895 -0.077936105 -0.034689527 0.14345942 -0.046937853 0.1738852 -0.03904207 0.07644478 0.1440219 0.09325631 -0.02686652 0.15772837 0.16111845 -0.044547178 0.15443304 0.17196438 0.12219539 -0.07193691 0.162855 0.13324992 0.0062971413 0.16986613 -0.041707266 0.14880548 0.018660164 0.07465744 0.16309555 0.13351369 0.06332253 -0.059661835 0.1513796 -0.057194114 -0.0739826 0.14748007 0.0081186015 0.1547779 0.028582217 0.06732277 -0.014452229 0.034396537 0.040815864 0.112970196 0.1448428 -0.025957907 0.16152966 0.11720368 -0.042317577 -0.03170003 0.14898399 0.13889617 -0.046578363 0.15414618 0.13105538 0.008931717 0.053234976 0.14719236 -0.054922465 0.0895667 0.02787492 0.1284771 -0.07590956 0.1225022 0.017330222 0.13610817 0.10964239 0.027976556 0.038874798 0.092830695 0.10934439 0.17037632 0.15777713 0.0051574833 0.09036718 -0.01068778 0.00084727374 0.14088525 0.15167484 -0.04947592 0.1491791 0.0018383133 -0.077773854 0.098827966 0.05326587 0.12186786 0.115217894 0.13641778
doc_35 0.06899746 0.023137443 -0.043033756 0.008286534 0.22836977 0.044325344 0.35867372 0.058404744 0.33855057 0.33506116 0.37693995 0.032304388 -0.07985662 0.37657622 0.036745593 0.037725728 0.37756157 -0.023910703 0.02865496 0.36434913 -0.0829064 0.3909417 -0.058242194 0.3748969 0.31576315 0.37143335 -0.0073034805 0.028589286 -0.123647004 0.3574562 0.029211044 0.3387922 0.37726915 0.058844022 -0.10741813 0.04943576 0.35113788 0.37351757 0.0040911236 0.3767864 0.031588536 0.22557849 0.38162926 0.32511815 0.06670352 0.3737642 0.022294378 0.3616705 0.04740138 0.31738216 0.37320825 0.0678691 -0.027642066 -0.08092278 -0.011119834 -0.0818845 0.035565194 -0.004996651 -0.11119343 0.048354987 0.37505826 0.38340077 0.3335068 0.33150855 0.27055162 -0.014891641 0.293914 0.026145127 0.35550874 -0.014630588 0.018472305 0.01766463 0.37381098 0.14255022 -0.09446174 0.06935648 0.379775 0.045012064 -0.043636538 0.03008761 -0.1009625 0.35037753 0.022881752 0.37307522 0.36187524 -0.05169994 0.3426884 0.037308708 0.36797547 0.35456586 0.053480797 -0.1032063 0.38039774 0.36545968 -0.11496392 0.35781872 0.039761823 -0.018652113 -0.05740297 0.033839654 0.0039697536 0.37945977 0.347525 0.03034783 0.07848779 0.3575204 0.27003816 0.35734147 -0.08489235 0.07597355 0.04543729 -0.063668154 0.007967843 0.04214728 0.02301947 -0.02541615 0.36215246 -0.008430522 0.33758435 0.001354107 0.3541386 0.37701848 0.047381092 0.05508338 0.3430418 -0.05233445 -0.02048638 0.3677135 0.032386202 -0.0134860035 -0.008274901 0.35372895 -0.016077831 0.03961595 0.31612283 -0.04060669 0.32979992 0.03812156 0.33006045 0.21253197 0.0021339518 -0.019019919 -0.028924195 0.3306625 -0.040176656 -0.10218415 -0.10926347 0.019369617 0.35339108 -0.021331849 0.36205557 0.33079314 0.37514842 0.3519961 0.35908216 0.085555546 0.019863686 -0.040135548 -0.030514339 0.05247165 0.055680443 -0.05036365 -0.020222047 0.044616327 0.31364042 0.042355735 0.0055979965 0.090229236 -0.010062998 -0.043451786 0.3640662 0.07182783 0.3710281 0.037483882 0.32048628 -0.025937824 0.30332717 0.013075995 0.04816627 0.37423304 0.33819672 0.37647647 0.078517124 -0.046814464 -0.04898215 0.20172311 0.0873889 0.34791747 0.36955962 0.047408246 0.001185663 0.33754888 -0.007920423 0.36366352 -0.09306037 0.3706473 0.36250237 0.012812226 -0.004241841 -0.03627292
doc_36 0.050475165 0.05150369 0.051701106 0.05569367 -0.020116547 0.044821713 -0.016863044 0.047386665 -0.015672715 -0.008434376 0.015902452 0.050131503 -0.020422883 0.011269928 0.044760846 0.04403916 0.0130843995 0.055771496 0.054603778 0.014072221 0.05210208 0.015520193 -0.011801148 -0.007467804 -0.024931736 -0.012187365 0.052025832 0.053665806 -0.019548545 -0.006502199 0.05191671 -0.008801521 0.003817434 0.04585569 -0.008194345 0.047782972 0.003797702 -0.0007315591 0.052691318 0.018043665 0.050901506 0.008939723 -0.009389335 0.010795826 0.051709272 0.021270853 0.055854864 0.019206407 0.04651574 0.0011665162 0.00085661554 0.045430467 0.057060365 -0.018659757 0.022541612 -0.015439203 0.058434673 0.056034625 -0.026617566 0.047124624 0.0077410303 0.012197771 -0.020681558 0.007880875 -0.009554355 0.05687643 -0.004410652 0.058329694 -0.01190836 0.054222584 0.058353044 0.049030717 0.007710557 -0.017874029 -0.022100115 0.04725932 0.015052782 0.055266533 0.051043835 0.052018326 -0.0067636864 0.0009560736 0.051593583 -0.0014113984 0.006404897 0.052879907 -0.016693477 0.05475706 -0.0048839967 0.008358384 0.05573939 -0.017138941 0.015558241 0.013712365 0.006985144 -0.014451611 0.059541363 0.05588085 -0.018612929 0.04597172 0.048214816 -0.004585961 0.013551084 0.050194427 -0.02154604 -0.011634394 -0.01425744 -0.0060796146 -0.026635837 0.042185243 0.053710986 -0.008031245 0.05286045 0.054458268 0.05761821 -0.028299907 -0.005702723 0.059133697 -0.019454032 0.055333585 0.00068647624 0.008383356 0.058950074 0.046945754 0.006493642 0.059422348 0.0566854 -0.010363291 0.04889996 0.056124203 0.053488564 -0.012926076 0.046177924 0.053394414 -0.0051721707 0.05679712 0.00034246733 0.0442558 0.0033421093 0.017492915 0.048380658 0.049767487 0.028850576 -0.014485541 0.054696105 -0.026140774 -0.020482244 0.049668193 0.008845804 0.056038316 0.0009460285 0.0089138495 0.0012057852 0.009712418 -0.002704328 0.052943565 0.048185907 0.032867443 0.05529685 0.052479375 -0.011692385 0.025775742 0.05391654 0.053621173 -0.0004353451 0.051867038 0.047035366 0.027788647 0.033064198 0.05533991 -0.006194654 0.042096227 -0.011943127 0.0458941 -0.019925397 0.053521138 0.004805729 0.05509396 0.04838042 0.0002322793 0.015992459 0.024932666 0.048271555 0.0541097 0.060400784 -0.003881509 0.04297624 -0.009708162 0.013419947 0.06253525 0.049047388 -0.016647689 0.054811463 0.013812395 -0.018613087 0.0052194833 0.007317217 0.049320925 0.05074301 0.05093946
doc_37 0.072984956 0.10778846 0.11257053 0.11207269 -0.025426097 0.0769201 -0.016855247 0.079500996 0.00640896 -0.00523353 0.07600472 0.0831712 -0.05293324 0.049800217 0.082143456 0.08964503 0.060094867 0.107434504 0.10327574 0.04615612 0.10461817 0.053993147 -0.04762978 0.008814875 -0.04030949 0.0038181143 0.09411524 0.10490288 -0.04239513 0.009450158 0.10431707 0.014839673 0.035324696 0.08852723 -0.0200239 0.07519174 0.044423584 0.017848922 0.09624258 0.06115081 0.10041536 0.035073046 -6.07681e-05 0.07435458 0.0953165 0.0673066 0.111311056 0.07502774 0.0891089 0.022217881 0.03735956 0.07284922 0.11139816 -0.0612995 0.010605211 -0.04373758 0.106281996 0.111968 -0.051708546 0.08506904 0.059258644 0.038482226 -0.021476667 0.07830419 -0.01110238 0.119361125 0.012852567 0.109228924 0.023103034 0.1226209 0.11443134 0.09592461 0.06507601 -0.025942072 -0.052910067 0.08857843 0.078862146 0.115166694 0.110662155 0.11001631 -0.04501605 0.044180207 0.094912425 0.038794786 0.019394541 0.12089584 -0.019081514 0.10405255 0.026075765 0.052135676 0.09169997 -0.055471946 0.089618005 0.06440013 -0.021587184 -0.007921355 0.11101063 0.105982974 -0.055375073 0.079778574 0.09086673 0.020308658 0.071632 0.09465556 -0.03704015 0.011296656 -0.02410997 0.04744888 -0.052693095 0.08444363 0.09443224 -0.02478863 0.09834576 0.10102827 0.11021193 -0.057113726 0.0140306465 0.10383491 -0.015202784 0.11586003 0.027070092 0.06574429 0.11631833 0.07409274 0.017911503 0.11809757 0.112976246 0.005576598 0.094720356 0.10479693 0.09462552 -0.019351868 0.10039545 0.106508315 0.02399866 0.12023812 0.014815042 0.09615208 0.038120333 0.05473925 0.11962282 0.10688695 0.048486967 -0.016038733 0.10917338 -0.05787579 -0.06265555 0.087908566 0.03500828 0.12349247 0.031142065 0.06097437 0.018704655 0.037597295 0.023228973 0.07455728 0.093477555 0.016478349 0.12036415 0.11028618 -0.012360966 0.002430723 0.11139356 0.094904914 -0.0077192956 0.09774623 0.089572355 0.017758343 0.040821407 0.10112831 -0.004326625 0.058262013 0.011936943 0.096863575 -0.053744584 0.093621545 0.028215693 0.11072231 0.07156582 0.03324834 0.051153224 0.0789445 0.08340013 0.1070154 0.11483154 -0.01732799 0.07644285 0.01052927 0.07781294 0.10669313 0.119753696 -0.013176304 0.11156775 0.057391595 -0.04731214 0.033633605 0.058100626 0.106646664 0.10489451 0.10247396
doc_38 0.06623967 0.07120862 0.06602912 0.064398155 -0.021413302 0.06070907 -0.018191695 0.06948043 -0.010961151 -0.016011566 0.00017456629 0.0653048 -0.018881526 -0.0040784827 0.06287135 0.05961707 -0.005525821 0.06652261 0.06976902 -0.006727228 0.068023615 -0.0065725353 -0.020461105 -0.02241116 -0.02724281 -0.016002072 0.0626063 0.06796268 -0.023831135 -0.015327537 0.070815966 -0.014180384 -0.0069947154 0.07061185 -0.01611396 0.06758984 -0.012170466 -0.016398571 0.06507097 -0.008759587 0.073316075 -0.0057751597 -0.010743106 -0.0058495114 0.06328914 0.0022974126 0.06420601 -0.0045358967 0.070039645 -0.01706503 -0.0077203144 0.06435239 0.06560485 -0.022755146 0.055342045 -0.021052714 0.07354891 0.06287776 -0.02205816 0.068516895 -0.0031642371 -0.0064806864 -0.01654411 -0.0042905277 -0.015911955 0.06865011 -0.011423485 0.06287502 -0.013297767 0.06518439 0.06302682 0.06805833 -0.011561545 -0.023566464 -0.02105814 0.06687949 -0.0063762926 0.06261825 0.06475734 0.06150292 -0.0017461338 -0.0041704257 0.06625249 -0.011748084 -0.008163357 0.061717365 -0.025221635 0.062882975 -0.010816869 0.0030938147 0.07362443 -0.018119926 -0.0061411336 -0.0032797887 0.033236023 -0.019359933 0.06624409 0.063760825 -0.024169903 0.06887139 0.05877921 -0.013474595 0.00027882168 0.06492893 -0.02592659 -0.010659514 -0.009066676 -0.013530773 -0.024575245 0.06982902 0.063126296 -0.008168937 0.06586015 0.06619766 0.06972259 -0.026124371 -0.0030094925 0.06710355 -0.009101337 0.06504498 -0.011881631 -0.0023861662 0.06358785 0.06331204 -0.0070220567 0.07244207 0.067059465 -0.015627263 0.068437316 0.06706177 0.069515474 -0.018877584 0.065225795 0.06875159 -0.017499208 0.06377573 -0.007791485 0.060292024 -0.010159923 -0.0071899737 0.06397635 0.06566783 0.05144106 -0.014808996 0.06280686 -0.022157136 -0.025805352 0.06623261 -0.0046047564 0.067284025 -0.004037861 -0.0021107814 -0.0035759383 -0.004932505 -0.015312617 0.06147122 0.057129145 0.011888993 0.062874675 0.058477707 -0.01044989 0.0087372735 0.06954606 0.066773415 -0.012798583 0.069967546 0.06723269 0.043919053 0.05289172 0.06721138 -0.016341653 0.06198705 -0.015583603 0.07177551 -0.019385552 0.07302145 -0.011005368 0.07234393 0.06456515 -0.014835237 -0.009941741 -0.0020402758 0.06482287 0.07043782 0.0660905 -0.016361661 0.059766777 -0.018362738 -0.007652771 0.068225205 0.06630129 -0.016456949 0.065682925 -0.011310894 -0.024114266 -0.013985916 -0.004061387 0.068422444 0.06629492 0.061859876
doc_39 0.09610192 0.0973122 0.095462225 0.09698993 -0.031224791 0.09554978 -0.03743118 0.0921143 -0.028087873 -0.031749457 -0.013930337 0.09713765 -0.03775194 -0.018127413 0.099340886 0.08644074 -0.012221705 0.09629241 0.09393278 -0.021904686 0.096461624 -0.00057211216 -0.025247509 -0.020053294 -0.03278269 -0.034722168 0.09664796 0.09782803 -0.026517734 -0.022177402 0.10208803 -0.02586681 -0.016456194 0.0903303 -0.022978254 0.097627416 -0.008437458 -0.0212808 0.093587756 -0.007018533 0.09522624 -0.014715104 -0.029547151 0.012134384 0.09926832 0.01229492 0.09405707 -0.012254242 0.08631557 -0.015372289 -0.018268589 0.08717954 0.09644256 -0.03155089 0.06393304 -0.017833661 0.09139135 0.0976705 -0.03819393 0.09257592 -0.01932992 -0.01581924 -0.039329365 -0.00834589 -0.026810803 0.097457044 -0.028331423 0.09810838 -0.028757459 0.10332861 0.09496061 0.09112819 -0.0045408253 -0.03104535 -0.034922298 0.10124206 -0.007601287 0.09988441 0.09408786 0.09398691 -0.029275343 -0.01812913 0.08882173 -0.011587806 -0.021782065 0.09546138 -0.030938413 0.09529615 -0.021739688 -0.010542198 0.08710929 -0.039139207 0.008837711 -0.008840432 -0.017644018 -0.024864217 0.101044856 0.09307798 -0.03525109 0.09733917 0.09492854 -0.029463578 -0.0003226119 0.09354759 -0.03170251 -0.02350515 -0.03689477 -0.018530214 -0.03854368 0.08746355 0.098899096 -0.017302541 0.09976887 0.0953043 0.097037256 -0.03725773 -0.034939528 0.103836864 -0.028635075 0.10329067 -0.032099877 -0.012272461 0.101586476 0.08231497 -0.025075471 0.09419543 0.09225437 -0.032753803 0.09516406 0.10007651 0.09674051 -0.032522477 0.098575324 0.098952174 -0.021523636 0.09474013 -0.02333811 0.09615682 -0.015180786 0.005848749 0.092709735 0.09958997 0.07384747 -0.03066621 0.08822306 -0.03730028 -0.034583446 0.093630575 -0.0031945196 0.09716806 -0.021901565 0.0036159195 -0.02586335 -0.011780162 -0.019138046 0.09302098 0.09094643 0.043928012 0.10303263 0.09862944 -0.031418413 0.022668805 0.08912866 0.098406926 -0.028819283 0.092634395 0.09257441 0.06377243 0.07922399 0.09132327 -0.033027478 0.0888178 -0.027814962 0.10152296 -0.034117673 0.09626785 -0.014217572 0.09952486 0.09244495 -0.020244662 0.011646468 0.006384406 0.09442665 0.10538434 0.09494613 -0.028667847 0.08173113 -0.026830187 -0.018350568 0.097547 0.096352585 -0.029360361 0.09369547 -0.009726266 -0.025020039 -0.019767089 -0.01322271 0.09710632 0.09532522 0.10347168
doc_40 0.0613428 0.049228184 0.056602914 0.06530072 -0.009988581 0.059196234 -0.012329518 0.062357243 -0.018759325 -0.012794688 -0.0075757066 0.05711861 -0.027142748 -0.0121043995 0.06307401 0.06320015 -0.017925093 0.05851769 0.05557497 -0.014920691 0.058318872 -0.01750692 -0.01765127 -0.01640948 -0.028133938 -0.015893027 0.06553301 0.06065252 -0.02073332 -0.019291094 0.06785954 -0.02331138 -0.0086158095 0.06263323 -0.004619158 0.06211056 -0.008199669 -0.016281396 0.06504798 -0.012614944 0.062269256 -0.0009973075 -0.012276707 -0.008155451 0.059579138 -0.019314729 0.059421092 -0.00018134044 0.06706349 -0.01275745 -0.007073435 0.055243872 0.0543364 -0.019482812 0.044319324 -0.020381521 0.05867548 0.053650662 -0.006709686 0.06496477 -0.019071229 0.00065804337 -0.014474568 -0.01865798 -0.005911231 0.061600786 -0.020359695 0.055591065 -0.010471784 0.05743163 0.053895682 0.061304063 -0.014821738 -0.02245548 -0.007837069 0.058386996 -0.011927926 0.05877293 0.05761251 0.05679145 0.013945652 -0.018400887 0.058725934 -0.019029023 -0.01987565 0.063504145 -0.011678655 0.059504863 -0.016349368 -0.013711589 0.060932957 0.00552047 0.00044665555 -0.011089527 0.042207137 -0.020302908 0.051103044 0.061305236 -0.014028694 0.06508805 0.053172447 -0.0021439716 0.0017651436 0.057694864 -0.025488261 -0.010529023 -0.012246426 -0.01060609 -0.019061303 0.058116015 0.060388878 -0.01707917 0.06785822 0.06637158 0.05718364 -0.015363075 -0.016422253 0.0626751 -0.024252918 0.057717137 -0.014240111 -0.0030452374 0.06949936 0.04981224 -0.01921123 0.05613565 0.06649166 -0.021323198 0.06678385 0.06216772 0.06313008 -0.0134740835 0.058944706 0.058938455 -0.018424239 0.057073887 -0.02066414 0.05500084 -0.014272351 0.0033731386 0.06071152 0.063974746 0.04246557 -0.023333404 0.057981383 -0.022839537 -0.019550545 0.057656683 -0.0046019573 0.0521438 -0.018331366 -0.0023003218 -0.011924299 -0.005533913 -0.005734995 0.06299211 0.061163 0.028140642 0.06268457 0.06255859 -0.0067776516 0.042672645 0.061456054 0.059378695 -0.009013332 0.05698661 0.050632324 0.052457012 0.048990678 0.05832959 -0.015569299 0.059519686 -0.021913622 0.055569172 -0.025861233 0.06146394 -0.017944995 0.06749615 0.06657424 -0.015961818 -0.009877753 -0.009003906 0.0629856 0.06588319 0.05923889 -0.017788474 0.0576849 -0.004899474 -0.014024487 0.059970994 0.058586743 -0.01858278 0.055351388 -0.013497969 -0.024434019 -0.010268675 -0.0003349086 0.062380575 0.0596381 0.059733134
