doc_0 -0.00036909198 -0.019319244 0.07099781 -0.015966974 0.0029696086 0.074376576 0.0001928286 0.074059874 -0.0034410274 0.069512784 0.06681448 0.071021825 0.072078474 0.07290651 0.071980275 0.07177227 0.0035581868 -0.021091092 -0.007039451 0.07570682 -0.023404727 0.07658727 -0.016089916 0.06505363 -0.0095741805 0.002684926 -0.025442783 0.067395024 -0.0022182022 -0.011339733 0.065418795 0.068322815 0.07026137 -0.010070331 0.07043231 0.076372035 0.07338915 0.07634808 -0.009412276 -0.028327746 0.07108963 -0.0017097879 -0.02340761 0.0013879207 0.07043405 -0.0009846803 -0.016498175 0.07738461 -0.00023464812 -0.023106182 0.07211623 -0.026183214 -0.025226822 0.07542933 0.0772072 0.072315015 -0.015005432 -0.016871521 0.07059307 -0.002167223 0.07044591 -0.0069018486 0.07170984 -0.0015301143 0.073293075 0.06831133 0.06665489 0.07440322 0.08809916 -0.016520219 0.075442016 0.073326014 -0.006812712 -0.021515425 0.0013134438 0.014096751 0.00019010622 -0.013951175 -0.002120731 -0.012257622 0.07174975 0.07328305 -0.012201482 -0.015674334 -0.0019879167 0.067297004 -0.021252485 0.0783154 -0.012119125 0.07175282 -0.011766312 -0.00011801347 -0.013831245 -0.023247348 0.06656538 0.06926734 -0.005826135 0.06701805 -0.02182797 0.06957503 -0.008452013 -0.005052988 -0.020523507 0.07087679 -0.006434488 0.06506664 0.0740122 -0.012252326 0.078907646 0.07303122 -0.019579 -0.007514837 0.07406031 -0.015456777 -0.018448295 0.06874611 -0.0009717981 0.0658121 -0.015668051 -0.0062207347 0.07079463 0.06976934 0.06999022 -0.027383732 0.06668321 0.07617914 0.07832946 -0.031347595 0.06994152 -0.009391248 0.07327139 -0.008890018 -0.013438241 -0.010270617 0.069130145 -0.0042258487 -0.011986291 -0.01677209 0.068964094 0.07307117 0.07286646 -0.007264588 0.07044767 0.07233018 0.06501116 0.07562922 0.004680763 0.074255675 0.07355145 -0.026097832 -0.016325345 -0.009817839 -0.016496174 0.074553415 0.06860209 -0.018437795 0.07170965 0.073627986 0.07142325 0.07545286 0.0069172694 -0.018872818 -0.023063475 0.07177135 0.072655156 0.019830028 0.07161599 0.07227483 0.07256711 0.076850176 0.077719584 0.06466434 0.06810242 0.06251556 0.075624205 0.006695768 0.06817567 0.07579745 0.069024354 -0.020410016 0.006645928 0.0051755263 0.07148465 -0.02514318 -0.011391442 0.071418755 -0.0057524685 0.069133446 0.075630344 -0.018514767 0.07374857 0.07257771 0.06850944 -0.021247547 0.07024796 0.07303595 -0.00423423 0.070351124 -0.0013211085 -0.023330536
doc_1 0.021312589 0.03404467 0.08141664 -0.03272764 0.008422407 0.08519207 0.025262428 0.07030542 -0.03474893 0.060117207 0.07867953 0.07636584 0.061450116 0.08165301 0.07675209 0.08660054 0.020951645 -0.0039168755 -0.02838561 0.07938839 -0.033986185 0.076587 -0.0327097 0.05229381 -0.026676927 -0.03329621 -0.043120764 0.069362886 -0.02006523 -0.01634643 0.06255672 0.08085621 0.076980166 -0.03302522 0.07491236 0.066031754 0.08226887 0.08625047 -0.044843 -0.044481944 0.08121077 -0.008915631 -0.017433627 0.0024986248 0.07326748 0.03722335 -0.015493606 0.07859778 0.005604744 -0.022406332 0.05548725 -0.039691184 -0.026714012 0.053227276 0.08567462 0.06031861 0.024759894 -0.045070864 0.08670448 -0.042271264 0.08647759 -0.012848662 0.06568151 -0.03527395 0.06269544 0.07680422 0.063897595 0.074373074 0.16839945 -0.031970046 0.048611514 0.08497606 -0.03289527 -0.030736024 -0.0029012286 0.006120205 0.018922126 -0.038124837 -0.00925662 -0.031242404 0.058638602 0.058779348 -0.014812082 -0.047853783 0.029585278 0.07103384 -0.03972589 0.06956668 -0.019334907 0.1497974 -0.027660137 -0.012315698 -0.01965188 -0.035947744 0.06921184 0.07762185 -0.019819599 0.088989824 -0.028837055 0.09102603 -0.019488856 -0.046805114 -0.040431898 0.06654516 -0.023444746 0.070213914 0.055812083 -0.03635405 0.048510827 0.07402529 -0.03538258 -0.026188713 0.07529995 -0.0036060407 -0.03448323 0.07492165 -0.004584555 0.059998702 -0.034868352 -0.02521998 0.07253114 0.058754444 0.053307615 -0.0327695 0.07467051 0.07751894 0.06538364 -0.046067595 0.07957572 -0.04139818 0.0622722 -0.042579863 -0.041219003 -0.028910078 0.069735155 0.004562687 -0.03339732 -0.038134765 0.07312848 0.06778731 0.055822935 -0.01787037 0.05830423 0.061430357 0.07100268 0.071130686 -0.026284838 0.07696039 0.07147423 -0.038822122 -0.034184348 -0.015483122 -0.029615667 0.07760309 0.05883211 -0.037884206 0.07333993 0.05811594 0.06273847 0.06712256 -0.015195699 -0.022427874 -0.036501803 0.07488877 0.079852544 0.084934734 0.060060307 0.06969036 0.084427975 0.0690772 0.0798575 0.07405823 0.050779954 0.09188968 0.06578614 -0.025313616 0.05370047 0.07111587 0.08458367 -0.016621009 -0.0065395525 0.052611835 0.07407575 -0.024239074 0.008337043 0.08216485 -0.02337061 0.062456787 0.077051096 -0.03130653 0.09263561 0.07295383 0.07197615 -0.038122226 0.07424481 0.07795754 0.014674989 0.061519746 0.0026202803 -0.035676282
doc_2 0.07145147 0.05400196 0.10086777 -0.0017091404 0.07990857 0.09612257 0.14113796 0.089230515 0.04715354 0.10600065 0.10727902 0.09497024 0.078100465 0.105042204 0.08610901 0.09270669 0.094345674 -0.031494286 0.054030135 0.11956909 -0.009956511 0.07020852 0.011431759 0.115190744 -0.02879768 0.07628454 -0.044928424 0.1064249 0.02090502 0.09397117 0.111051396 0.11267609 0.0958205 0.018445378 0.108255245 0.09597463 0.08416088 0.076034166 0.029075718 -0.061356377 0.09550061 0.016147496 -0.047962513 0.08269299 0.08927366 0.119324155 0.053261284 0.08843799 0.01384233 0.0009515553 0.11589173 -0.06282733 -0.04988295 0.09182339 0.0921611 0.08476718 -0.031161627 0.038668934 0.10685854 -0.013362428 0.08804096 0.082251675 0.09509091 -0.0057320525 0.091898344 0.10157823 0.091877066 0.1045348 0.12684602 0.031556785 0.081118464 0.12279716 0.032612644 -0.020852596 0.052068766 0.1260173 0.05417732 -0.003343784 0.06419095 -0.008381563 0.06974669 0.09805126 0.008070505 0.018789561 0.080205515 0.12329498 -0.046645902 0.101739325 0.050701343 0.13069637 0.036113746 0.0059636408 0.0025670077 -0.057147924 0.10109758 0.072254844 -0.021011299 0.09885573 0.0030902417 0.10852348 0.052116264 0.034451738 -0.05358235 0.08278748 0.059403133 0.104403056 0.08815747 0.013300674 0.075299606 0.090837486 0.01420616 0.027417682 0.10173081 0.016675394 -0.05314238 0.102107994 0.0908168 0.08181564 -0.026940593 0.09445492 0.076393954 0.079285204 0.081977226 -0.046314936 0.11056246 0.11423201 0.097007796 -0.06797252 0.103402786 0.03980735 0.08994205 0.038660333 0.011604726 0.00852449 0.10786049 0.025380285 0.072550334 -0.0464233 0.09273794 0.102438845 0.06689944 0.05424813 0.06667663 0.092459634 0.08176663 0.09389757 0.060470693 0.085451394 0.10384576 -0.058620136 0.038958125 0.06761309 -0.040731087 0.08700675 0.107669696 0.028328983 0.0868413 0.08467319 0.08351953 0.09753235 0.054119203 0.042040244 -0.040069472 0.08497583 0.09515947 0.13969593 0.07531821 0.07919459 0.08684553 0.11624552 0.09329432 0.10405927 0.09142614 0.13550465 0.10194866 0.038810924 0.09184716 0.10883868 0.08477671 0.047938913 0.0745935 0.091085956 0.09250075 -0.048641194 0.0438888 0.12640473 0.033752687 0.088965744 0.11078668 0.03418653 0.07439968 0.095960386 0.0964319 -0.052237067 0.10971711 0.082851455 0.06739411 0.08237906 0.1065701 -0.039084196
doc_3 -0.01489655 -0.025314141 0.12385311 0.001754297 0.0072446777 0.11518721 0.026624722 0.12196805 0.0052380366 0.12976812 0.13234866 0.12093633 0.13358295 0.112583935 0.12823923 0.11060152 -0.0122114 -0.019813892 0.048095807 0.122690536 -0.030705918 0.12996235 -0.011995815 0.13664447 -0.02473812 0.01950157 -0.03628563 0.110377155 0.030621972 0.03240768 0.12590125 0.12466661 0.13247788 -0.0074247494 0.13199846 0.10934272 0.12918873 0.13476577 -0.006010137 -0.036497448 0.12515919 0.030000294 -0.03206092 0.01059745 0.10605877 -0.007871125 -0.002844247 0.12156482 -0.00027656835 -0.03699774 0.11734712 -0.043549117 -0.03507235 0.12935017 0.12490625 0.12242922 -0.037592046 0.07327543 0.12050178 -0.003666421 0.11620116 0.05883309 0.11415114 -0.011705338 0.11406388 0.11512328 0.10862312 0.1317908 0.029686416 0.014378255 0.12830152 0.13048701 0.013848564 -0.03698802 0.013678025 0.009131433 -0.020100545 0.012818264 -0.018728426 0.026330782 0.111317374 0.11834569 0.012180941 0.04633204 0.01609131 0.11818228 -0.036591697 0.13315693 0.034706112 0.13636339 -0.022452693 -0.017018987 0.0561757 -0.041702278 0.11579514 0.11455233 -0.003473267 0.12318842 0.0063049337 0.1113454 0.0050490284 0.0063970434 -0.03765819 0.11929226 0.044652756 0.12040953 0.12098735 0.02340161 0.122030124 0.122543514 -0.014361556 0.030901413 0.12116428 -0.0049198605 -0.027723422 0.122777775 0.029161323 0.1279755 -0.028175125 -0.018432463 0.1376619 0.12386655 0.12751637 -0.049486622 0.122396156 0.13860284 0.1341605 -0.051997148 0.124286376 0.0075088236 0.11715755 -0.013099058 -0.019947212 0.007713458 0.1261461 -0.015951714 0.02810032 0.034386028 0.13299194 0.12689053 0.11953792 0.017169634 0.12251772 0.11690536 0.11896043 0.10438991 0.014443664 0.114063755 0.11775188 -0.03615108 -0.0031402025 -0.008033991 -0.032915518 0.117437065 0.12506184 -0.008959182 0.11295639 0.11194462 0.117557146 0.108354315 0.020313809 -0.016347852 -0.040756196 0.11229729 0.11595569 0.020181105 0.11201575 0.11821336 0.109226085 0.11745851 0.12312515 0.094485804 0.12298907 0.10781228 0.097289346 0.03121335 0.12358274 0.104596674 0.14460143 -0.010057466 0.007921487 -0.013406863 0.12292147 -0.047449205 -0.034079995 0.12038702 -0.012113268 0.12839302 0.10806523 -0.022605324 0.10292836 0.109819405 0.12731679 -0.017381994 0.12501194 0.11653863 -0.030464273 0.13111687 0.0041599874 -0.034565445
doc_4 0.035660777 0.031744324 0.039602824 0.024541624 0.03526026 0.035425745 0.03829539 0.03324552 0.028192602 0.031076666 0.037755534 0.03573672 0.032687813 0.039342184 0.03152094 0.0397024 0.03230326 0.020523097 0.024558468 0.033047915 -0.021619469 0.02203421 0.022984512 0.030706638 0.0020034963 0.022727503 -0.016503448 0.035799403 0.03371623 0.030381482 0.036020394 0.038806044 0.035262406 0.016324326 0.033857282 0.031526018 0.027220566 0.032030787 0.014884556 -0.025155772 0.033387378 0.025007764 -0.022141246 0.029074766 0.043900948 0.027270084 0.027122911 0.030206352 0.035809994 0.021870695 0.04059008 -0.027766509 -0.017521566 0.03603939 0.04116788 0.029048972 0.00030124048 0.03351227 0.03461694 0.011486091 0.030168012 0.030967582 0.0377715 0.031505898 0.040357415 0.035935037 0.03825167 0.030987894 0.06641756 0.024173334 0.03678431 0.04670182 0.010402046 -0.006281471 0.023382047 0.046836134 0.034966275 0.016469369 0.025084728 0.011242501 0.028649887 0.03147403 0.014536695 0.020982433 0.031652436 0.03884951 -0.023753608 0.03945899 0.020742634 0.050290998 0.019312065 0.032206684 0.022387192 -0.025925756 0.029065195 0.03416253 0.011638176 0.033147775 0.008572525 0.03538468 0.035157416 0.035299093 -0.027106846 0.033392604 0.026533455 0.04043086 0.03431686 0.016770963 0.029531982 0.03156418 0.016332678 0.017669994 0.036972057 0.017763358 -0.0290271 0.040452503 0.033507977 0.025437318 -0.01982403 0.020482898 0.036361225 0.030387182 0.038302075 -0.024077069 0.034481574 0.038343955 0.03490303 -0.031132923 0.039022487 0.030508611 0.041505866 0.016756866 0.018242266 0.02012328 0.040948488 0.025025882 0.022850443 0.0055905776 0.04413551 0.03587978 0.032974664 0.031634748 0.032424632 0.03246857 0.031192577 0.03142824 0.03025185 0.034592047 0.038877912 -0.020472301 0.025107782 0.020712575 -0.019211918 0.030143457 0.030407714 0.017294189 0.038438484 0.024285678 0.030255564 0.04596402 0.025285153 0.028797176 -0.016630717 0.03456548 0.03970834 0.037100364 0.03402374 0.031724617 0.041371185 0.039637964 0.036650773 0.03795237 0.02873069 0.037135027 0.027567621 0.030339785 0.03209133 0.0393653 0.029969763 0.012941131 0.028370868 0.03023814 0.037918154 -0.028134141 0.016042901 0.03133935 0.022495035 0.038726844 0.03187843 0.019563189 0.030995712 0.03223788 0.039529566 -0.023134636 0.035402387 0.03450354 0.022887005 0.03154243 0.028845642 -0.01981862
doc_5 0.011071015 0.026800895 0.041261513 0.00047754683 0.028681092 0.032150276 0.05711508 0.034514025 0.015548183 0.045480795 0.040155075 0.033440433 0.03197455 0.05010429 0.04495559 0.039771564 0.047385473 -0.009651547 0.021590231 0.035907086 -0.018746415 0.03629621 -0.0008237241 0.041397464 -0.01027274 0.015742835 -0.028656675 0.040236026 0.0030787087 0.015157363 0.036044765 0.0441785 0.03514331 0.0032877773 0.04323692 0.036471546 0.038468223 0.03912512 -0.0070890356 -0.029860225 0.03479728 0.013848861 -0.021535723 0.019200455 0.039161704 0.022018047 0.021788673 0.03672589 0.017824396 0.0016113338 0.035640247 -0.036703043 -0.020362692 0.04399813 0.03942312 0.033224404 -0.020222858 0.010026529 0.04097099 -0.0035858061 0.040617503 0.028152509 0.034446366 0.015691534 0.0439004 0.03933665 0.0389286 0.036460303 0.092244655 -0.007423289 0.031204708 0.036929037 0.011071862 -0.0083805425 0.012760249 0.036585543 0.006301612 -0.007847943 0.0413321 -0.0036210602 0.028132135 0.03173997 0.0053032176 -0.00049362786 0.043632362 0.029205522 -0.02525581 0.03825535 0.023863923 0.08348456 0.0030194614 0.004674804 -0.0015037912 -0.032090418 0.03781616 0.03939515 -0.00482666 0.042950526 0.0021474222 0.036777474 0.019258222 0.018204056 -0.025303848 0.036763363 0.021595065 0.037602425 0.03434626 -0.0048769293 0.028468309 0.034861527 0.009173854 0.016570376 0.0383868 0.015528441 -0.029679578 0.04034835 0.029984621 0.020933967 -0.022663686 0.0168488 0.028192285 0.029635351 0.031566195 -0.034730658 0.03700033 0.03387857 0.042539544 -0.035905026 0.039720416 0.016658107 0.039360058 0.010595445 0.014651295 -0.013895784 0.030941352 0.01206569 0.007385754 -0.009155551 0.03250859 0.04225358 0.031172968 0.014902573 0.03297563 0.021853851 0.030051615 0.032144573 0.0053222193 0.03268088 0.039629154 -0.028809082 0.016710373 0.019259728 -0.011107774 0.038931847 0.038771793 0.0014048207 0.036779042 0.022340655 0.03225892 0.059762675 0.021856833 0.0036270223 -0.026599368 0.03924174 0.031082183 0.08149243 0.025970262 0.036846273 0.036513545 0.035844456 0.037151933 0.030680213 0.021612696 0.03419649 0.03687804 0.029126804 0.033717766 0.040521584 0.033636484 -0.00085619 0.023906501 0.029619996 0.032386053 -0.024787651 -0.0011209715 0.04474005 0.0083676465 0.031655386 0.035419837 0.0013699546 0.027666876 0.027128307 0.033493206 -0.029211715 0.034561567 0.035716467 0.0073312074 0.03959077 0.020300848 -0.026237894
doc_6 -0.011781014 -0.020777576 0.08877307 -0.03267948 -0.03087615 0.09079344 -0.021800544 0.096599974 -0.0102649 0.0997594 0.092730284 0.089378886 0.08545264 0.0966163 0.084499046 0.088401936 -0.011194271 -0.022659516 -0.01879222 0.08826694 0.032922152 0.0902123 -0.013005891 0.09544207 -0.01775358 -0.022118682 -0.01340189 0.10127473 -0.014743468 -0.025962204 0.097174875 0.08676712 0.08463329 -0.009308771 0.09316157 0.104787074 0.09559618 0.100833826 -0.0060701827 -0.023978453 0.08627649 -0.020048574 -0.019156853 -0.025972242 0.08640048 -0.022682615 -0.0054431474 0.09710702 -0.010211745 -0.011849559 0.08324463 -0.024507977 -0.03048423 0.097981945 0.0932471 0.08959887 -0.020122394 -0.004917518 0.087255776 -0.005905279 0.09570638 -0.010027519 0.09216293 -0.02135958 0.09051917 0.07961169 0.104114175 0.09187406 0.1314063 -0.008126471 0.0998808 0.08973667 -0.022640469 -0.029631414 -0.030712863 -0.024386493 -0.02071597 -0.025863122 -0.032094065 -0.008099774 0.08011916 0.0898094 -0.027288882 -0.02758621 -0.026467983 0.09403722 -0.025599224 0.103299946 -0.013216094 0.11274348 -0.020414755 -0.015824815 -0.015257565 -0.03051517 0.0913147 0.08718271 -0.0067327144 0.092834026 -0.0009057133 0.080100045 -0.012468153 -0.0042080726 -0.02150698 0.09019896 -0.012037823 0.076833196 0.090736434 -0.020133892 0.08904506 0.09334771 -0.021902312 -0.027306305 0.08592391 -0.021990275 -0.028806299 0.08396518 -0.028151818 0.09036849 -0.0128196655 -0.010452248 0.10184942 0.10502071 0.09485541 -0.025572052 0.08561483 0.09020391 0.09919845 -0.02277104 0.087235466 -0.007201476 0.08580712 -0.011084436 -0.009763521 -0.01862283 0.09566762 -0.019478971 -0.025015036 -0.0015252929 0.089962564 0.089854136 0.09694971 -0.020761948 0.0916485 0.08979052 0.07829277 0.10224422 -0.029271435 0.10236751 0.09100636 -0.022342235 -0.022364793 -0.0347501 -0.015851894 0.095246606 0.08676142 0.00193513 0.088625684 0.09000801 0.08580879 0.11295396 -0.021082308 -0.0128983315 -0.019231474 0.08857965 0.08775711 0.107789025 0.09557307 0.09668823 0.09650904 0.09605819 0.099413194 0.08110732 0.09182605 0.09219306 0.08762969 -0.01465702 0.094310805 0.092497945 0.09469514 -0.0067143748 -0.02347047 -0.010413116 0.0848928 -0.027532114 -0.012222175 0.09344481 -0.019615399 0.08731961 0.08932449 -0.01463457 0.09466226 0.098540805 0.08626939 -0.02612637 0.09285243 0.10075799 -0.023741806 0.09578643 -0.023067119 -0.019936515
doc_7 0.060801476 -0.012463548 0.12307711 0.011280094 0.104881406 0.15515387 0.06483933 0.09532236 0.0010680328 0.12069549 0.13559198 0.13096792 0.07756254 0.13832782 0.106680445 0.14551266 0.10468696 -0.07032797 -0.032442167 0.16179727 -0.024656784 0.13196264 0.0719172 0.122172974 -0.03973621 0.013104011 -0.04728688 0.1195801 0.034221977 0.06823741 0.1121091 0.12011737 0.09382823 -0.022263706 0.12785888 0.07977438 0.108285956 0.10647815 0.0640578 -0.094875515 0.12633406 -0.054887213 -0.042075045 0.096465655 0.14884312 0.028592307 0.058956612 0.10132258 0.002709207 -0.07098298 0.12271225 -0.07524606 -0.0819257 0.112444095 0.14587554 0.08443434 -0.04851979 -0.012672437 0.13398801 -0.035960834 0.09550239 0.1598458 0.1293042 0.03439526 0.1411649 0.13754526 0.11270209 0.12401059 0.08582271 0.091887765 0.03976036 0.12923117 -0.019231537 -0.06051635 0.038108 0.16278438 0.0069748494 0.047780693 -0.0054613855 -0.037612375 0.031839903 0.13636489 -0.052482337 -0.047095887 0.00036028144 0.11411164 -0.090992324 0.13847345 0.16421978 -0.014887122 0.026093975 -0.024492612 0.100729145 -0.0958578 0.12560979 0.13982317 0.014591859 0.14868206 -0.0012407914 0.15975296 0.05266842 0.026155222 -0.074817106 0.11100056 0.05381607 0.14951909 0.08122725 0.015133946 0.08454568 0.13085364 -0.052813284 0.06352003 0.12492542 -0.040356524 -0.078350894 0.13171723 0.04081353 0.059638076 -0.031113492 0.031151295 0.05590944 0.06717628 0.1130732 -0.08773827 0.13654877 0.110583566 0.08274986 -0.0827752 0.13859603 0.010839387 0.11994591 -0.034692306 -0.030935906 0.06358234 0.15198717 0.051092613 -0.025002 -0.058953002 0.15861063 0.1347262 0.060537696 0.09872353 0.09217403 0.059204526 0.12367938 0.11748647 -0.036133055 0.088682674 0.14745864 -0.09249554 -0.04146784 0.15910572 -0.05873747 0.12393067 0.14341018 -0.046373777 0.1309812 0.026769556 0.10638437 -0.043064695 -0.01941658 0.093538 -0.08354448 0.15630576 0.1479228 0.07139039 0.051085018 0.04410978 0.10864895 0.14558384 0.10306841 0.10443357 0.06577928 0.15174615 0.10756699 0.003677308 0.10963541 0.11761591 0.09640324 -0.008694066 0.14313473 -0.009376687 0.14384654 -0.077159405 -0.061236203 0.12681545 0.012575262 0.100231305 0.143486 -0.05727306 0.09669618 0.09622426 0.14115414 -0.053335417 0.13765891 0.13255577 -0.009797772 0.08775348 0.04397381 -0.08851671
doc_8 -0.0035896846 0.0007885498 0.05695832 0.020305194 0.020137398 0.0531269 0.039992817 0.058176767 0.0104767 0.07028669 0.06657768 0.055759683 0.061754473 0.056415845 0.05549848 0.061197516 0.015120516 0.011279866 -0.0019884123 0.061775826 -0.022767505 0.06257551 0.019003397 0.06151896 0.006824272 0.024202649 -0.02054694 0.07341749 0.021862816 0.014746924 0.066476524 0.06860049 0.062808625 0.017276501 0.06033933 0.052372493 0.05332086 0.069329634 0.030280136 -0.024210362 0.05756203 0.004712379 -0.016743567 0.021496588 0.065895654 0.014646666 0.009011058 0.060426675 0.014046561 -0.013631104 0.07140023 -0.026111864 -0.028191097 0.05517522 0.068012826 0.06394502 -0.009185179 0.025962912 0.0734284 0.014849374 0.055033367 0.021719329 0.06798233 0.008174079 0.064936034 0.06476376 0.062192947 0.06843506 0.062300675 0.011851948 0.06128321 0.063708596 0.021902032 -0.02682012 0.0030390637 0.041199714 0.009235728 0.023835346 0.013787207 0.017026797 0.04990038 0.06265911 -0.00058245054 0.011987618 0.013456187 0.05959864 -0.03116614 0.062774345 0.019259062 0.07821483 0.009814088 -0.0001721885 0.01986371 -0.026149437 0.06277267 0.059239097 0.014631362 0.062396068 0.0039702887 0.057766017 0.0049035656 0.019002127 -0.014273597 0.075624205 0.007381586 0.06246038 0.05924427 0.0010712924 0.059622083 0.059755377 -0.0015209457 0.0067904834 0.06672847 0.0076831547 -0.019147504 0.06207129 0.030499706 0.04371243 -0.021698153 0.0120356465 0.05267724 0.05274442 0.059172567 -0.025942346 0.06230425 0.06633499 0.051630907 -0.025503304 0.06617603 0.012388773 0.07107601 0.0077384035 -0.00021811493 0.014518863 0.07134201 0.00047612004 0.00812599 0.023903584 0.064593844 0.06855141 0.056980625 0.019895284 0.05631009 0.055871032 0.06523497 0.06954602 0.027617253 0.05713847 0.062289037 -0.024171123 0.0041925297 0.024393074 -0.035171732 0.056199223 0.06804016 -0.005085934 0.05652304 0.057202317 0.059145227 0.060337104 0.0074836644 0.0046174857 -0.0193806 0.06817555 0.06381385 0.07630218 0.05849819 0.06700146 0.071609095 0.06886392 0.061724428 0.061906077 0.04904929 0.07270581 0.07121681 0.011522836 0.050599672 0.065577455 0.05187744 -0.0029502045 0.010823046 0.01149427 0.062378395 -0.02898337 -0.019498758 0.064946756 0.020321574 0.057900436 0.068311185 -0.0057221176 0.0709357 0.05720208 0.064665176 -0.032814417 0.064918466 0.07039227 0.013620211 0.06114012 0.023675043 -0.016285747
doc_9 0.08874741 0.092067264 -0.027581662 0.03002564 0.069682844 -0.0139516285 0.09252129 -0.041400336 0.060332432 -0.028017646 -0.023090856 -0.025820157 -0.028394911 -0.015564032 -0.038469 -0.012333541 0.088234894 0.06510439 0.055817276 -0.009931409 -0.030045478 -0.01612128 0.05449964 -0.031398643 0.050769936 0.06735666 -0.026166694 -0.018462133 0.056684256 0.054078624 -0.020119706 -0.02082566 -0.032942966 0.058339197 -0.017047735 -0.029176317 -0.029770102 -0.019304324 0.04502212 -0.03456372 -0.02742396 0.053670526 -0.017769061 0.07211568 -0.021143358 0.09888251 0.077355005 -0.029101491 0.074570626 0.056151424 -0.029599447 -0.031499863 -0.01980017 -0.03330445 -0.025423784 -0.03632471 -0.019031119 0.052380446 -0.02954471 0.05469194 -0.035962757 0.07352742 -0.032469045 0.04978834 -0.017310847 -0.023079501 -0.035432052 -0.030194506 0.050486363 0.04788486 -0.03603562 -0.011467484 0.041571796 0.027169576 0.069465384 0.09433792 0.07764226 0.036738664 0.069936216 0.045993287 -0.024406742 -0.0340954 0.05777906 0.0443365 0.08230272 -0.022969685 -0.01150219 -0.027632304 0.07512949 0.025062637 0.040353864 0.075986 0.05949708 -0.0144061195 -0.025391312 -0.022323316 0.054534245 -0.0227894 0.046619873 -0.015060127 0.06639679 0.049421586 0.014800509 -0.03084465 0.06439959 -0.018475788 -0.032028504 0.033904873 -0.03489952 -0.027418021 0.038075402 0.05703528 -0.024515323 0.079429954 -0.021030521 -0.019678913 0.06789329 -0.03184429 -0.032211516 0.07243841 -0.03579486 -0.030434204 -0.039222073 -0.024132712 -0.021811822 -0.027284048 -0.027999021 -0.031007443 -0.020249112 0.0443027 -0.024180785 0.02140916 0.04634261 0.044842534 -0.023782084 0.072101995 0.05706293 0.0096538775 -0.01901459 -0.020071669 -0.03572115 0.07340592 -0.042426974 -0.029785559 -0.03275546 -0.014840581 0.06085024 -0.026320545 -0.022146083 -0.029654011 0.033174835 0.06597599 0.03956275 -0.024569942 -0.02410343 0.058852907 -0.018075991 -0.029509889 -0.039585765 -0.0031132451 0.08224585 0.049442157 -0.026303891 -0.020097138 -0.014098167 0.045037683 -0.028291704 -0.027913302 -0.02095606 -0.012888058 -0.024561143 -0.02348658 -0.033902187 -0.013642275 -0.027663715 0.06153149 -0.030938355 -0.013055508 -0.029462261 0.058284264 0.058371387 0.087544456 -0.016518997 0.017700594 0.06246329 -0.016173286 0.056373544 -0.034838747 -0.0102776075 0.036242142 -0.022921689 -0.024995668 -0.024127401 -0.025213445 -0.014812839 -0.026197122 0.06680469 -0.029832823 0.09036027 -0.027295606
doc_10 -0.017216839 -0.015053147 0.07982795 -0.027074551 -0.015223061 0.06734099 -0.016216325 0.07491716 -0.03013235 0.079159066 0.067614965 0.08914073 0.07512893 0.07538614 0.08093941 0.07730432 -0.027424209 -0.018007457 -0.023106912 0.065384425 -0.025829764 0.07379032 -0.024720082 0.08462313 -0.022900095 -0.014714224 -0.012529134 0.0743298 -0.020622835 -0.017792434 0.07850901 0.07551348 0.07549973 -0.02328891 0.0726122 0.08327091 0.0798255 0.079656996 -0.027788153 -0.024522154 0.075372584 -0.016656369 -0.020201512 -0.02210883 0.07208574 -0.027780648 -0.023497842 0.07781561 -0.026322724 -0.030627307 0.06773155 -0.021480827 0.0196005 0.07979807 0.072106265 0.0744412 0.06253117 -0.02355674 0.078376904 -0.018233312 0.07910131 -0.028562265 0.08037341 -0.02203797 0.071315356 0.07766457 0.07542289 0.0804477 0.08007574 -0.021820547 0.07644529 0.06538665 -0.022257417 -0.029322227 -0.0133022405 -0.017813232 -0.024707556 -0.019184317 -0.023492 -0.02589175 0.07972452 0.07816534 -0.023754781 -0.018271852 -0.025263093 0.08457609 -0.0010676484 0.08575196 -0.029488305 0.068464085 -0.018040743 -0.021861795 -0.028281018 -0.021682974 0.069119535 0.07736738 -0.029846752 0.072980985 -0.023507278 0.06581465 -0.018550716 -0.0279613 -0.023114996 0.0803056 -0.027526587 0.07083294 0.0787429 -0.02006942 0.084441446 0.082696825 -0.013423165 -0.016221995 0.07666699 -0.02399557 -0.0071588373 0.07300404 -0.019003958 0.06578836 -0.019661669 -0.013097128 0.0720867 0.073666245 0.07649456 0.035691593 0.08100226 0.076991096 0.07750552 -0.013367987 0.06909746 -0.0270339 0.0780058 -0.013518909 -0.021895006 -0.018846264 0.07070557 -0.024388796 -0.018347584 -0.021139795 0.06955849 0.08101919 0.07193258 -0.015080893 0.08265142 0.0747021 0.083327055 0.07955713 -0.016180035 0.07316895 0.0651683 -0.011830693 -0.01906374 -0.024859615 -0.031019332 0.074248314 0.071559094 -0.025302185 0.062753685 0.079594836 0.0745555 0.069918975 -0.02216654 -0.02492756 -0.004586841 0.073595226 0.07733385 0.069494516 0.07568947 0.07956728 0.076220624 0.07727966 0.07559614 0.07677767 0.06833706 0.07668236 0.069261074 -0.031317655 0.077632144 0.076307744 0.06725701 -0.027392857 -0.01981516 -0.025071207 0.07950487 -0.020866787 -0.027501408 0.07580206 -0.021102011 0.07575838 0.07803287 -0.018884173 0.07644376 0.08037281 0.08119269 -0.0237693 0.070588864 0.0692631 -0.018341277 0.07891666 -0.013608089 -0.026036052
doc_11 0.03151452 0.041317012 0.056386836 -0.015877035 0.021018133 0.06430313 0.030925404 0.05549875 -0.003752783 0.05271335 0.055163886 0.06582025 0.052467395 0.062986135 0.057816233 0.061822385 0.029764395 0.009123751 -0.0068074754 0.056389757 -0.031023856 0.066569515 -0.009264265 0.043597866 -0.007441419 -0.011919174 -0.029742312 0.055255067 -0.0021606442 -0.00820976 0.056253 0.05390854 0.055176653 -0.014838144 0.05781135 0.057617042 0.06982434 0.07189251 -0.018184835 -0.03425639 0.058609635 0.002395487 -0.019468209 0.012890445 0.05272281 0.029905956 -0.0008373074 0.05901017 0.01801514 -0.0031839937 0.04748679 -0.032685384 -0.019488862 0.04203835 0.06408824 0.052768297 0.0029348521 -0.017210376 0.065421596 -0.014212057 0.06316462 0.0024631922 0.05412089 -0.010379462 0.057867356 0.055322703 0.047883473 0.061244056 0.13140607 -0.00931292 0.045067914 0.066466704 -0.010491556 -0.0071578654 0.013399674 0.016079297 0.030501802 -0.017384462 0.0047053862 -0.012154134 0.049113728 0.044386685 -0.0005659531 -0.020483695 0.026221178 0.052426532 -0.02802071 0.053744778 -0.0006820811 0.13174178 -0.0035457185 0.00928716 -0.0002666188 -0.031662036 0.055212826 0.06249044 -0.0030434642 0.07104992 -0.016626496 0.0663605 -6.3746236e-05 -0.015902452 -0.028565459 0.054709084 1.2003351e-05 0.056405734 0.055703472 -0.016371857 0.048314344 0.056274712 -0.017032258 -0.010566482 0.05954657 0.012337826 -0.02949915 0.05965639 0.0055785724 0.059924457 -0.028391477 -0.005121476 0.06508146 0.051369116 0.04560987 -0.028450772 0.06199524 0.058102608 0.055824943 -0.033213902 0.05679112 -0.013188394 0.057239667 -0.025945932 -0.015778435 -0.0036477707 0.059094895 0.016806277 -0.0023325426 -0.019857014 0.06099386 0.05726823 0.048894905 0.0070226244 0.059058093 0.055273898 0.055659875 0.05883708 -0.0025052596 0.06532472 0.061335873 -0.027296852 -0.010459415 0.0020674309 -0.019651685 0.055103324 0.047007583 -0.008262953 0.05618739 0.055958014 0.044818718 0.041866682 0.006721407 -0.004347302 -0.028346904 0.05554763 0.06674608 0.090235695 0.049526244 0.0604633 0.070658445 0.04694441 0.06638241 0.06966127 0.04868199 0.06799177 0.048114315 0.0014845827 0.05022119 0.050524034 0.06625144 -0.0009516855 0.0016088742 0.050863396 0.059869684 -0.012208651 0.025223918 0.06522928 -0.004324994 0.050960258 0.06103002 -0.009030963 0.069809794 0.058628507 0.06027563 -0.029755548 0.060170062 0.06145469 0.0309456 0.055324472 0.0142797455 -0.026854064
doc_12 -0.009426391 0.03622933 0.07417014 0.0008693731 0.017399697 0.07613233 0.047086973 0.075632006 0.0031393801 0.07342456 0.07499127 0.06827807 0.060063355 0.08094528 0.07395245 0.08041872 0.026297685 -0.012253207 0.006342485 0.07539576 0.03277598 0.07471684 -0.002409795 0.06504076 -0.015665911 0.0053132265 -0.02535001 0.08352107 0.009187748 0.024889996 0.06651042 0.07949422 0.07695232 -0.011663469 0.06805671 0.06398329 0.08335033 0.07895156 -0.011647128 -0.028770868 0.08164295 -0.00065749977 -0.033049714 0.015049614 0.070343174 0.02400415 0.019969901 0.059071437 0.005504068 -0.008043896 0.07878892 -0.038842794 -0.032012038 0.075416245 0.08279294 0.07147543 -0.025163688 -0.0023357722 0.07600857 -0.012107022 0.07993433 0.0035910788 0.068936735 0.011535374 0.07165194 0.08165617 0.08041584 0.06950165 0.08566959 0.012548742 0.06502572 0.07383169 0.0045267977 -0.031187445 0.008886995 0.021021003 -0.0004389903 -0.005694694 0.02372645 -0.00819866 0.060768474 0.07363985 -0.0031717038 0.026097592 0.032563474 0.070782565 -0.030816507 0.07819375 0.014969128 0.074444085 0.012013681 -0.0063088844 -0.00074012356 -0.028421115 0.08094789 0.075868234 -0.0071117682 0.07435758 -0.009663246 0.06999452 0.0035772484 0.023482652 -0.024062458 0.076527044 0.008857392 0.07491694 0.061398387 -0.0098472 0.072216235 0.07448858 -0.0063052312 0.009071216 0.07559913 -0.011032036 -0.02605105 0.08189129 0.03123036 0.05666638 -0.025049321 -0.00027818023 0.060511965 0.08050515 0.06549519 -0.034970812 0.0622437 0.07459521 0.08377757 -0.030410577 0.07658668 0.026029147 0.07788878 -0.015279684 -0.0024547763 -0.00087698875 0.075008035 -0.0069720973 0.005384286 -0.022171643 0.075243644 0.06690426 0.07839212 -0.0007830765 0.07061028 0.07530182 0.06251683 0.07675703 0.018702382 0.06181227 0.07046038 -0.031396165 0.0061422274 0.023307933 -0.029310592 0.07933683 0.078196645 -0.006120147 0.06821491 0.07568434 0.064988114 0.055997368 0.018137908 -0.0043640714 -0.02341145 0.070361204 0.07708945 0.09700941 0.06101448 0.07828497 0.0737481 0.07174422 0.072397575 0.062478676 0.060067203 0.0774358 0.07907288 0.0006387895 0.08199611 0.07539589 0.06634849 -0.022838308 0.026669236 0.014448283 0.07409549 -0.03183479 -0.011219117 0.07014192 -0.00039116316 0.05398698 0.07446155 -0.0015073298 0.06625113 0.0755371 0.06830891 -0.03125424 0.070821285 0.07651792 -0.001191811 0.078062505 0.027588908 -0.02947717
doc_13 -0.018359546 -0.027894828 0.11419594 -0.030372808 -0.0029853478 0.12243326 -0.0001431473 0.11979085 -0.024217093 0.1162699 0.10912296 0.10977874 0.12433948 0.12092475 0.12118968 0.10308638 0.0012776295 -0.040643618 -0.023898626 0.11468243 -0.039497446 0.1245013 -0.03746463 0.107914634 -0.030140394 -0.0019472095 -0.040384956 0.112011425 0.008909247 -0.03019841 0.105442174 0.10371673 0.117893286 -0.024245856 0.11609133 0.12500992 0.118288584 0.124210685 -0.026888529 -0.044853274 0.12007246 0.0028460438 -0.037369516 0.00906603 0.111008115 -0.01054357 -0.027049592 0.12046987 -0.014918262 -0.037552696 0.12129473 -0.040516812 -0.038436215 0.11460036 0.12233917 0.11671642 -0.022793833 -0.039800175 0.11778341 -0.00863693 0.11702465 -0.026891395 0.117977604 -8.946424e-05 0.120656446 0.1154512 0.10721123 0.11852042 0.116640866 -0.03151365 0.12188792 0.10981967 -0.024950359 -0.036750495 -0.019182008 0.017395454 0.014666891 -0.027850967 -0.015526436 -0.03172526 0.11728388 0.11207073 -0.029472983 -0.02453018 -0.023471609 0.10896637 -0.031403217 0.12373286 -0.029986974 0.08183369 -0.027877374 0.00045601325 -0.03225926 -0.04092199 0.10691658 0.11453805 -0.015231196 0.10382549 -0.034613863 0.11294939 0.001286074 -0.0139060635 -0.035437867 0.11623911 -0.009337939 0.1130042 0.12623245 -0.026543276 0.12849511 0.124011554 -0.036060587 -0.021976527 0.11775655 -0.030640483 -0.021481236 0.113696516 -0.0066425214 0.1068899 -0.026233811 -0.02752925 0.12074768 0.11576929 0.11259437 -0.04102037 0.10738931 0.11825856 0.12230821 -0.044555806 0.11043804 -0.026776753 0.11731144 -0.019206662 -0.031079378 -0.02099709 0.1073176 -0.0022987737 -0.012484118 -0.037891265 0.11239601 0.10773236 0.11560551 -0.00837411 0.107719086 0.12347129 0.105523124 0.121101856 -0.008443793 0.11608455 0.11900754 -0.037018206 -0.034656987 -0.026640072 -0.03647086 0.1138495 0.119005665 -0.032464866 0.12140544 0.118548006 0.11876622 0.10365425 0.008594003 -0.040466353 -0.040530585 0.11451438 0.10771455 -0.01886836 0.11823619 0.12329942 0.116971195 0.11537614 0.12072502 0.117717564 0.11564189 0.104953974 0.115364894 0.024418363 0.11108555 0.11494723 0.11425652 -0.039316364 0.020644058 0.0023952224 0.11852966 -0.039583966 -0.018175408 0.10803884 -0.023075838 0.12642704 0.11280963 -0.025707196 0.11511151 0.11286109 0.10982362 -0.04037589 0.11317797 0.11956049 -0.0083624385 0.11332378 -0.013840998 -0.027963547
doc_14 -0.064412065 -0.062848255 0.18824834 -0.041475233 -0.07001083 0.18269457 -0.0775449 0.16838469 -0.0557049 0.18728246 0.18956776 0.1893892 0.19853996 0.19071092 0.21089499 0.18741307 -0.0593129 -0.073531315 -0.062466033 0.17816201 -0.03861171 0.18467513 -0.06417563 0.16720018 -0.06590513 -0.066365115 -0.07278816 0.19287215 -0.042497333 -0.06198872 0.19816218 0.19125971 0.19572437 -0.058522694 0.18553437 0.17063114 0.17480756 0.21136394 -0.05299041 -0.0401077 0.186693 -0.054152608 -0.06224969 -0.065696344 0.1642548 -0.08720565 -0.060211804 0.19505474 -0.06674029 -0.07054239 0.18746033 -0.047636952 -0.04943578 0.16837795 0.19180164 0.19933817 -0.046255995 -0.04827983 0.19370651 -0.06570104 0.19773808 -0.06041902 0.167401 -0.06695469 0.1923619 0.19381216 0.18106827 0.20782739 0.100899115 -0.06695524 0.1678088 0.18415846 -0.05716172 -0.06534925 -0.051472716 -0.08048011 -0.06385187 -0.050203864 -0.074989766 -0.0685117 0.17238681 0.17570113 -0.069033146 -0.050764553 -0.066271275 0.19340944 -0.05662638 0.1963775 -0.06867045 0.20810083 -0.058604967 -0.032774046 -0.06492902 -0.05864571 0.1727088 0.1904829 -0.053900905 0.16925229 -0.0604658 0.18324926 -0.05168144 -0.06050869 -0.07067522 0.1783085 -0.062845744 0.18780433 0.20291518 -0.056523804 0.20138223 0.20086664 -0.0062570637 -0.06350545 0.19122595 -0.064891495 -0.057894994 0.18325722 -0.059536435 0.17304164 -0.061288826 -0.07029841 0.1904049 0.18391113 0.19795005 -0.015678056 0.15700637 0.17002535 0.19433174 -0.07515122 0.17997101 -0.06130816 0.17398411 -0.059642326 -0.03719282 -0.061598472 0.18951915 -0.03383153 -0.051378015 -0.04296948 0.19255854 0.17883262 0.19153216 -0.047921836 0.16146876 0.192496 0.17978305 0.18818411 -0.06948392 0.18700042 0.19685927 -0.063818105 -0.053352572 -0.06516405 -0.0662137 0.20002757 0.16757128 -0.05501372 0.17959706 0.18390307 0.20792876 0.18283999 -0.06930255 -0.047011796 -0.06830539 0.1945415 0.1851306 0.07369919 0.17999975 0.1939642 0.19549589 0.1765394 0.19124214 0.18478766 0.18017626 0.18285027 0.1910167 -0.06739215 0.18005669 0.19276126 0.18589643 -0.05337517 -0.07831908 -0.07194759 0.18315656 -0.053220645 -0.06301768 0.18792307 -0.046848264 0.1984946 0.19381393 -0.04772978 0.18247013 0.1992608 0.1679719 -0.061024636 0.18240525 0.20076856 -0.051792793 0.19612212 -0.08067088 -0.070879295
doc_15 -0.013885495 -0.011519106 0.07332431 -0.031021614 -0.012564481 0.072657086 -0.0041544186 0.06662948 -0.01788219 0.0694713 0.07258823 0.07107123 0.07143552 0.0733448 0.070312805 0.064527415 -0.011944018 -0.018077493 -0.028003808 0.07745251 -0.00573648 0.07519919 -0.0208481 0.07525495 -0.018250104 -0.017417291 -0.026927607 0.0713199 -0.028024033 -0.020480491 0.07008426 0.07644236 0.07184345 -0.008236502 0.07539791 0.074689426 0.06980399 0.08086099 -0.012161087 -0.02852931 0.06556013 -0.026911814 -0.01823176 -0.01683604 0.068168215 -0.017337207 -0.02555269 0.078054085 -0.01312588 -0.02095596 0.07459552 -0.024365168 -0.028205603 0.07046958 0.07262612 0.06913216 -0.019814096 -0.006020886 0.07490227 -0.041004084 0.072382696 -0.013986239 0.07219614 -0.017996823 0.07699959 0.073791504 0.069073975 0.07823485 0.09512142 -0.027907755 0.072749466 0.07581 -0.02501074 -0.024213009 -0.016866932 -0.001133048 -0.027888855 -0.032891545 -0.019347075 -0.034854632 0.064482674 0.075768396 -0.028291514 -0.030796848 -0.018746361 0.07482318 -0.02614626 0.07865964 -0.011165083 0.09829216 -0.017604731 -0.025299814 -0.0289048 -0.027702866 0.070204355 0.06996426 -0.013155259 0.07279614 -0.025680767 0.07160502 -0.023047483 -0.005535566 -0.035444904 0.07067426 -0.012280512 0.073367804 0.0723104 -0.026042487 0.065590896 0.07365124 -0.028599724 -0.034153994 0.074197225 -0.020275675 -0.02712593 0.07768352 -0.009628853 0.06277813 -0.02010397 -0.015998155 0.07471268 0.068027064 0.07834419 -0.025086733 0.069864385 0.07583613 0.07422149 -0.032120265 0.07634285 -0.018485997 0.07044131 -0.031404562 -0.02628359 -0.031066537 0.07377773 -0.022457138 -0.027781492 -0.012298848 0.07110514 0.06915202 0.07849834 -0.019979548 0.063282795 0.063477725 0.07591353 0.07470847 -0.0142809525 0.070505664 0.07499813 -0.026153278 -0.021813247 -0.025646139 -0.022038432 0.07371849 0.07109058 -0.010792602 0.07794803 0.06721877 0.066062436 0.08693807 -0.020590598 -0.012569198 -0.022033533 0.07382931 0.0744586 0.08591145 0.06707582 0.0701212 0.07675413 0.07147175 0.07060315 0.073663846 0.06757165 0.068208866 0.0682887 -0.015291607 0.06992258 0.07375258 0.066381924 -0.033243425 -0.013341101 -0.011773147 0.071778595 -0.031537242 -0.030234974 0.07676568 -0.020537008 0.074267566 0.06783294 -0.025446989 0.07118005 0.068784006 0.071513414 -0.02140002 0.06980802 0.07330002 -0.026067771 0.07033652 -0.009843194 -0.027180765
doc_16 -0.003837366 -0.020496726 0.078585275 -0.024270799 -0.008266553 0.07730167 -1.6807113e-05 0.080599815 -0.011476304 0.073593326 0.067990564 0.07683868 0.07862094 0.07874494 0.07316102 0.07636307 -0.0043633515 -0.015178813 -0.013996661 0.07650448 -0.024892591 0.07871216 -0.02244431 0.07048766 -0.008487738 -0.0053354 -0.027634315 0.07701575 -0.0093575185 -0.012187091 0.06939953 0.07140946 0.07533058 -0.0013958362 0.07327062 0.083283044 0.07614436 0.08599025 -0.015487933 -0.028509794 0.07477672 -0.0073536495 -0.021345703 -0.0072900336 0.07363736 -0.0092937155 -0.01767611 0.07844877 -0.0025864332 -0.023430908 0.07577544 -0.030119777 -0.026067173 0.078651756 0.08156998 0.07661988 -0.010658579 -0.024135076 0.07836546 -0.010701938 0.07866314 -0.0105119655 0.07504274 -0.014702616 0.074775875 0.07302748 0.0738992 0.08199354 0.09751229 -0.015956294 0.07782883 0.076919384 -0.017551508 -0.025505083 -0.006039016 0.0063578896 -0.002055873 -0.021376062 -0.004399403 -0.016412005 0.07341293 0.07496627 -0.012851003 -0.021206895 -0.008478538 0.07482035 -0.025354542 0.08206341 -0.0131463595 0.08360959 -0.010785095 -0.006067533 -0.023390822 -0.026725134 0.07317613 0.07558908 -0.002858745 0.07383862 -0.022366542 0.07552642 -0.0111886095 -0.009354636 -0.023630448 0.07550324 -0.008622782 0.069940224 0.07716013 -0.02002687 0.08338345 0.07779341 -0.021273462 -0.008707792 0.07716695 -0.010214017 -0.02105479 0.07259865 -0.008108253 0.07035558 -0.017452799 -0.015735678 0.07798693 0.07784541 0.07430309 -0.031451054 0.07094662 0.07860852 0.08297899 -0.02891819 0.07289318 -0.014687492 0.08065466 -0.023792617 -0.01691689 -0.021002535 0.07194173 -0.009855375 -0.019513965 -0.02101972 0.07297266 0.075240746 0.07989107 -0.012629091 0.077049926 0.077040434 0.0728574 0.08062455 0.0008273868 0.07828918 0.080079645 -0.02772064 -0.020899307 -0.010225488 -0.021107417 0.079648815 0.07470888 -0.018561976 0.074925385 0.07533711 0.07616985 0.0816996 -0.0026037027 -0.023874586 -0.025040155 0.07337785 0.074614316 0.035703592 0.076272674 0.081487514 0.07703559 0.07831066 0.0787559 0.073485844 0.071241215 0.07163258 0.07488588 -0.0052135065 0.07228612 0.07767545 0.07403148 -0.026435947 -0.0026024338 -0.00732782 0.076779775 -0.020529112 -0.015812593 0.07566201 -0.01594703 0.07356075 0.07764594 -0.017632306 0.0768868 0.07661053 0.075136974 -0.025120704 0.07759091 0.08018966 -0.009056954 0.07502427 -0.00046933233 -0.023303095
doc_17 -0.14208336 -0.13404267 0.36963025 -0.115396135 -0.13024344 0.3805889 -0.15199512 0.34428447 -0.13810642 0.38214514 0.36615938 0.37086388 0.36263108 0.38637015 0.36613613 0.3731339 -0.08910695 -0.14907892 -0.07861357 0.3812405 -0.05731368 0.36300156 -0.12684394 0.3584815 -0.13110736 -0.12728247 -0.10600156 0.3759212 -0.11140033 -0.10552529 0.3350861 0.35298952 0.36422554 -0.09118399 0.37459168 0.3525278 0.3574523 0.37943447 -0.115792684 -0.112716675 0.3621796 -0.05714103 -0.066264644 -0.14630017 0.37839437 -0.13316983 -0.018112207 0.3862426 -0.11465064 -0.14762998 0.3776316 -0.112877004 -0.058197245 0.35684603 0.39421752 0.35916495 -0.043385193 -0.10970011 0.38113737 -0.099965796 0.34992138 -0.12687191 0.39065954 -0.14120589 0.38325444 0.36735412 0.38345465 0.35773587 0.24704076 -0.062354703 0.37815925 0.3895624 -0.11394173 -0.14506586 -0.086879954 -0.19296299 -0.13037026 -0.048435356 -0.12848364 -0.13863339 0.35723218 0.35950702 -0.079643086 -0.11465657 -0.13852727 0.38560632 -0.05803219 0.36608657 -0.13468708 0.33000636 -0.05377835 -0.08715255 -0.1339467 -0.07477981 0.36182117 0.34527522 -0.119919635 0.3639643 -0.12356127 0.3495784 -0.1320381 -0.067875855 -0.14987312 0.37239304 -0.12842742 0.3693445 0.38174298 -0.11954113 0.33233058 0.38485977 -0.12398802 -0.13116905 0.3872772 -0.1478428 -0.113506444 0.36826518 -0.14325754 0.34984714 -0.03165703 -0.1384969 0.373827 0.38917115 0.3703748 -0.079250075 0.35136414 0.35050663 0.40087622 -0.09699717 0.32830393 -0.059348796 0.37075588 -0.1294442 -0.09740013 -0.099327214 0.3907014 -0.14129558 -0.049689956 -0.1345569 0.36372966 0.36448893 0.36527455 -0.11044846 0.3916341 0.34277353 0.35703197 0.38036805 -0.14710107 0.37983552 0.35757175 -0.11403654 -0.093525164 -0.10259122 -0.089164525 0.3570655 0.3463779 -0.12713657 0.37974504 0.33108318 0.34902686 0.34720576 -0.12371132 -0.13925458 -0.08504751 0.34321037 0.35181496 0.13115153 0.36182815 0.3442683 0.38635948 0.35765442 0.37187466 0.3753211 0.35717303 0.3498183 0.33312765 -0.13845572 0.38822258 0.35120094 0.3348897 -0.12843475 -0.16498727 -0.09875691 0.34332865 -0.13337196 -0.113662854 0.33795103 -0.047761668 0.3724146 0.34306777 -0.12367385 0.3919188 0.37504575 0.38270044 -0.10462354 0.3402296 0.3826052 -0.025692306 0.33044788 -0.13406971 -0.0768284
doc_18 -0.09499594 -0.14928648 0.33273005 0.0370514 -0.123958945 0.34208494 -0.12628601 0.2981185 -0.11340066 0.29945597 0.3268296 0.32992584 0.2748349 0.33030576 0.29282308 0.33770543 -0.15836224 -0.17029333 -0.13490967 0.33302855 -0.09034084 0.32354295 -0.13669138 0.2979834 -0.15532932 0.06505669 -0.13253812 0.32755265 -0.15284012 -0.0828945 0.32417953 0.32992488 0.30673835 -0.09997726 0.29471177 0.29033 0.34254897 0.30660957 0.100203104 -0.080935836 0.33374754 -0.10007909 -0.056062546 -0.10214781 0.34635058 -0.0952919 -0.10612286 0.31281728 -0.14049786 -0.14204666 0.29808554 -0.109185 -0.1297529 0.31945533 0.2972523 0.3352898 -0.09600609 -0.10859645 0.35031474 -0.13704932 0.24814747 0.005300793 0.33492178 -0.01689826 0.3309034 0.33553028 0.30869132 0.32493576 0.026516886 -0.10949406 0.29710814 0.33440968 -0.01850788 -0.14524464 -0.08690537 -0.026493484 -0.14378652 -0.052923094 -0.14386776 -0.10579085 0.2405302 0.3244526 -0.15145114 0.10472468 -0.050869007 0.34586054 -0.12846933 0.30517668 -0.15431644 0.1376713 -0.055134624 -0.106687546 -0.14878497 -0.14963952 0.33051154 0.3196135 -0.1411417 0.30884722 -0.11961077 0.3379866 -0.007156804 -0.07370338 -0.13324106 0.3247093 -0.14773446 0.3328414 0.28435165 -0.12600818 0.27874488 0.3373049 -0.025932577 -0.13184723 0.33868572 -0.096298695 -0.111052044 0.29302928 -0.052081596 0.24457018 -0.053719092 -0.14427501 0.26256853 0.2638558 0.2740347 -0.11809886 0.3219708 0.33843675 0.2894254 -0.15730883 0.33676356 -0.12284508 0.3018874 -0.034228727 -0.12876861 -0.12224953 0.32505977 -0.10699357 0.027058372 -0.11942041 0.3255934 0.327575 0.25697926 -0.09045811 0.28568152 0.26674664 0.26674312 0.308728 -0.119646624 0.3053938 0.31198853 -0.10640771 -0.12445066 -0.12807792 -0.15641789 0.32502115 0.3095334 -0.051749922 0.3151399 0.29226354 0.29288626 0.15299974 -0.12813713 -0.12430802 -0.0802048 0.3266818 0.3169431 0.1123506 0.23098738 0.2928848 0.33622637 0.31656566 0.29155856 0.32845694 0.27046707 0.3242807 0.33371368 -0.14094743 0.30639583 0.33248374 0.2916846 -0.15722215 -0.05128988 -0.15348573 0.32957682 -0.15533295 -0.024001295 0.3189073 -0.14275642 0.2930041 0.31578442 0.09034317 0.32637563 0.31105837 0.33159864 -0.127465 0.3139472 0.32756972 -0.057138324 0.27980813 -0.12505881 -0.09113142
doc_19 -0.05598582 -0.045445252 0.14252006 -0.04787871 -0.051505942 0.13201784 -0.053952437 0.13973883 -0.05500071 0.16393012 0.13853048 0.14634055 0.13740283 0.13020714 0.14552115 0.124440774 -0.050654076 -0.05006033 -0.047094274 0.14629312 -0.008632747 0.12328316 -0.051421635 0.14631549 -0.023724858 -0.053221375 -0.044213373 0.15607281 -0.05366797 -0.04228506 0.15244024 0.13251647 0.14429903 -0.046714045 0.11836744 0.15801826 0.13632876 0.14485474 -0.050572734 -0.04245762 0.125765 -0.037542384 0.10063053 -0.046008784 0.13030364 -0.04609724 -0.049246218 0.1307932 -0.04179283 -0.048096493 0.123335205 -0.039511003 -0.005059761 0.15048788 0.13829412 0.16010287 -0.030332373 -0.042395297 0.13219078 -0.04607086 0.14316194 -0.048850898 0.1366634 -0.044617448 0.12648009 0.12532265 0.14180924 0.1410863 0.17046647 -0.027209781 0.1465422 0.14700945 -0.047636867 -0.056806773 -0.061628018 -0.048016038 -0.03977917 -0.048944693 -0.05550057 -0.042120058 0.15438175 0.14422554 -0.050134867 -0.057015806 -0.06434714 0.14350535 -0.0407807 0.14765368 -0.05762532 0.16059124 -0.04889674 -0.050969936 -0.041661173 -0.009171527 0.14516623 0.116846204 -0.04125574 0.1288736 -0.05399009 0.14076602 -0.042943574 -0.04191201 -0.05270897 0.14378309 -0.05823549 0.1446974 0.15160766 -0.048084743 0.14015964 0.15361722 -0.049982637 -0.05450176 0.1542428 -0.042982545 -0.016340429 0.14911583 -0.05828884 0.14352125 0.039037753 -0.03727523 0.14604166 0.14041255 0.14898351 -0.038532298 0.1306952 0.1505648 0.15193494 -0.042030167 0.1326895 -0.027479762 0.1411407 -0.05357346 -0.041291498 -0.055030126 0.14626318 -0.041706465 -0.04161298 -0.045366514 0.14890757 0.12428358 0.16331206 -0.055649154 0.14738406 0.13183512 0.1422646 0.14609021 -0.054818213 0.12711461 0.13538587 -0.044237774 -0.06254356 -0.033896826 -0.059132602 0.14369741 0.14180307 -0.039992183 0.1392416 0.16148986 0.15438898 0.12552327 -0.0645402 -0.047051884 -0.03543987 0.14165108 0.12338164 0.075363606 0.1362033 0.14038257 0.13813573 0.13123679 0.1537819 0.14982101 0.13419056 0.14901398 0.14768139 -0.05143237 0.1374292 0.14046858 0.16270435 -0.042758252 -0.050299894 -0.04843547 0.15463911 -0.047557212 -0.045382574 0.13404082 -0.050179403 0.14640106 0.13953377 -0.0443012 0.12792125 0.15242061 0.14786056 -0.002053787 0.14232355 0.15593484 -0.050604828 0.15201308 -0.051073156 -0.044539955
doc_20 0.003669267 -0.02719674 0.1116019 -0.042496547 -0.02287347 0.11906935 -0.05751242 0.10281033 -0.043415736 0.12780458 0.11838075 0.100537784 0.118425205 0.13268164 0.117605746 0.109575965 -0.022085676 -0.019128082 -0.026417077 0.12589619 -0.029525876 0.10551431 -0.036906265 0.11862245 -0.024562016 -0.04624053 -0.0296987 0.11824752 -0.050537765 -0.035577923 0.124133274 0.10823247 0.115555525 -0.0022674215 0.12361012 0.13090044 0.1131571 0.13836998 -0.0031741722 -0.042512055 0.113776684 -0.050215352 -0.014509759 -0.038309768 0.101617776 -0.021149077 -0.031784736 0.107984595 -0.020262003 -0.03543707 0.12823373 -0.04350233 -0.02443131 0.117631264 0.11137985 0.108523495 -0.02894747 -0.01273766 0.12340538 -0.05001281 0.13405055 -0.018793464 0.11840627 -0.027253764 0.12022678 0.117874116 0.13970052 0.123466104 0.15315875 -0.038567327 0.12439604 0.12156178 -0.03677436 -0.045178544 -0.015790118 -0.030992068 -0.026765063 -0.061262656 -0.04130492 -0.05348095 0.11822749 0.114961326 -0.036903527 -0.038623847 -0.044752542 0.12116312 -0.03799748 0.12738807 -0.03001224 0.13973364 -0.03931412 -0.010707974 -0.035064634 -0.037454642 0.12128188 0.12094508 -0.005870671 0.10140522 -0.037996024 0.101492405 -0.028609505 -0.013459813 -0.05151637 0.12191784 -0.04246501 0.12179613 0.116051 -0.05258798 0.11877631 0.12996921 -0.062061854 -0.011002017 0.104811296 -0.031146564 -0.03366294 0.10756239 -0.047067188 0.12201959 0.06250708 -0.039801218 0.114419974 0.12461334 0.12048864 0.05042404 0.1179181 0.114549786 0.12670203 -0.050807666 0.121516414 -0.016237324 0.11703328 -0.05505419 -0.038959995 -0.039471053 0.1236054 -0.025399415 -0.014806094 -0.033512913 0.12538518 0.12566757 0.11634657 -0.03179802 0.12281051 0.1292347 0.121915 0.12821832 -0.0040533626 0.109294824 0.121773675 -0.03200709 -0.051791307 -0.012616482 -0.042285316 0.12294534 0.1042853 -0.031615734 0.1185833 0.11382978 0.11712932 0.104082 -0.026089586 -0.046899203 -0.025010416 0.11474253 0.1207757 0.1655827 0.123249605 0.11697161 0.12415676 0.11510829 0.11479498 0.12647825 0.1098882 0.114783496 0.116941445 -0.02432531 0.120736 0.11689935 0.1181992 -0.047206122 -0.022320664 -0.02626587 0.13767864 -0.024681557 -0.066747524 0.10715971 -0.032659516 0.11878968 0.11190195 -0.02310545 0.12260946 0.11475419 0.104196414 -0.042194907 0.11030622 0.11539539 -0.047750354 0.12522402 -0.032994356 -0.032853622
doc_21 -0.027081596 -0.0157524 0.07720137 -0.020052342 -0.014068943 0.062440734 -0.03395416 0.07088496 -0.02473495 0.074370116 0.07120207 0.08280657 0.0738406 0.068835035 0.07430254 0.06615465 -0.02390866 -0.028267888 -0.02501914 0.06818254 -0.008904071 0.065334104 -0.023594983 0.07880245 -0.018909685 -0.013379598 -0.010218992 0.073180154 -0.0221066 -0.018692354 0.07151586 0.07243417 0.06908485 -0.02058516 0.06683311 0.073858455 0.07383343 0.06717515 -0.023572648 -0.021161763 0.07124149 -0.024450965 -0.021198848 -0.020113222 0.06879486 -0.029268503 -0.020539328 0.07357353 -0.021797284 -0.025134686 0.057810172 -0.02178129 0.009972926 0.076507926 0.0748454 0.069848254 0.06065626 -0.022585066 0.07216808 -0.02363719 0.068739556 -0.025058778 0.07728496 -0.015960783 0.06839843 0.06758841 0.06748095 0.075336054 0.07297401 -0.0142761925 0.07040536 0.06310519 -0.026417429 -0.027277466 -0.016557986 -0.030589595 -0.016019348 -0.017874088 -0.021092111 -0.024304958 0.07497889 0.06267672 -0.022389773 -0.013601311 -0.028370868 0.07441184 -0.010213239 0.078924574 -0.02263475 0.06450366 -0.021291938 -0.015570027 -0.010257992 -0.027127096 0.07590692 0.07269751 -0.028468091 0.07669996 -0.026581246 0.06409201 -0.015164837 -0.020656405 -0.024423424 0.07670243 -0.025497867 0.063297644 0.07210646 -0.028498564 0.07790493 0.07506667 -0.013521934 -0.02840618 0.06404333 -0.030075468 -0.023369245 0.074386045 -0.02030072 0.06354852 -0.017736068 -0.022644673 0.068199374 0.070198655 0.06961333 0.019379623 0.06897669 0.071494974 0.08069904 -0.012677694 0.06690706 -0.024194386 0.07632689 -0.022139559 -0.022836827 -0.011560433 0.06801124 -0.023112828 -0.017855225 -0.014670372 0.06531459 0.06917954 0.07434262 -0.025088146 0.080115534 0.0767883 0.07507093 0.078150414 -0.015471194 0.06987613 0.07049022 -0.014216333 -0.02396999 -0.02016318 -0.022692703 0.071318485 0.0662737 -0.022315215 0.05713463 0.07702332 0.07392673 0.06656469 -0.022853464 -0.015803114 -0.0026654098 0.07221988 0.07215775 0.07304341 0.07253434 0.07152008 0.0788158 0.06933655 0.06880774 0.070391916 0.07352747 0.0711958 0.06711511 -0.025635622 0.07509508 0.06921852 0.07132315 -0.029852169 -0.017142199 -0.02575033 0.06813546 -0.014447967 -0.034438238 0.07668607 -0.015701411 0.0703271 0.074029036 -0.03014996 0.07053164 0.07637833 0.08020723 -0.022759361 0.06709603 0.06679946 -0.024138536 0.07067296 -0.026678048 -0.024319297
doc_22 -0.015618705 -0.017836682 0.07500637 -0.03158002 -0.014209513 0.067492895 -0.0153856035 0.07523926 -0.02862886 0.079487726 0.07053652 0.0855387 0.07530643 0.0743024 0.084370375 0.0706009 -0.020746298 -0.024308689 -0.023818633 0.06518777 -0.01989417 0.06604479 -0.023515945 0.08116133 -0.017536202 -0.014828371 -0.013138253 0.07655698 -0.016789932 -0.018496584 0.07323972 0.084040135 0.0728748 -0.02249815 0.076910146 0.08037612 0.07754259 0.080181085 -0.023404969 -0.01810512 0.08141035 -0.014304517 -0.025569353 -0.017562592 0.07025983 -0.022360409 -0.026110737 0.07767693 -0.018808816 -0.024974402 0.06803788 -0.020095365 0.016855163 0.075985916 0.06808868 0.07685216 0.060596004 -0.025964238 0.075542025 -0.018790228 0.07895207 -0.023437401 0.079515174 -0.023273863 0.073038444 0.08119437 0.076598905 0.0815773 0.0774516 -0.026932431 0.08249664 0.061993603 -0.026444793 -0.023848627 -0.0146484515 -0.021329395 -0.015104115 -0.01784901 -0.023422794 -0.021922018 0.08004114 0.06841061 -0.027370222 -0.019830588 -0.027688151 0.08025372 -0.012625812 0.08262372 -0.022946863 0.0725496 -0.025070895 -0.017363567 -0.02229546 -0.023867682 0.079875395 0.074964136 -0.024208965 0.07245376 -0.024096444 0.06456525 -0.014635686 -0.026872927 -0.02977941 0.081622526 -0.02865025 0.065854065 0.07046361 -0.020447839 0.08164575 0.086228654 -0.009809246 -0.013247959 0.07282021 -0.03136028 -0.011641128 0.072908476 -0.018714022 0.07008929 -0.021331087 -0.015560556 0.07138735 0.07731598 0.08214381 0.028525906 0.07664594 0.070644625 0.0777745 -0.017399056 0.067169935 -0.023940424 0.07737255 -0.014512809 -0.029136742 -0.016443579 0.07213506 -0.025205748 -0.021607652 -0.015775574 0.075008415 0.07884869 0.07331994 -0.018396612 0.07682816 0.07332845 0.07766577 0.07972071 -0.016161157 0.07986291 0.07442582 -0.010072138 -0.016507095 -0.022447549 -0.031024205 0.07934192 0.06776976 -0.024778841 0.062196054 0.076787874 0.07086936 0.06940928 -0.017047837 -0.017771143 -0.008285431 0.08001965 0.07841891 0.06953567 0.07602592 0.07870329 0.08080282 0.07712039 0.07728103 0.07286234 0.068335995 0.07757318 0.07205368 -0.025252808 0.07387857 0.07591621 0.07196151 -0.025686799 -0.014592514 -0.02694958 0.08244356 -0.027224312 -0.028426547 0.07675262 -0.014959776 0.0712337 0.07919461 -0.020052811 0.08181778 0.07603948 0.076868385 -0.024623286 0.06803804 0.071032755 -0.017768454 0.075425826 -0.023252705 -0.023140006
doc_23 -0.07302193 -0.12103006 0.2715894 -0.0043816455 -0.06364097 0.2674961 -0.094555154 0.23787653 -0.07050609 0.24581668 0.26295817 0.27238253 0.23355371 0.27080444 0.23273714 0.28806636 -0.12773491 -0.14209202 -0.105464056 0.27585852 -0.07474775 0.26174784 -0.1064663 0.2279576 -0.12939362 0.13389315 -0.10518897 0.2672757 -0.12755617 -0.01648132 0.2622329 0.2610709 0.26134372 -0.0711877 0.24537645 0.21494691 0.26823893 0.25544277 -0.047778446 -0.07653009 0.27469906 -0.054080106 -0.03447004 -0.0559527 0.28719822 -0.011402918 -0.08334806 0.25178397 -0.11076614 -0.11154465 0.24785437 -0.1062211 -0.117222846 0.26389927 0.24512179 0.26553553 -0.083751395 -0.10933835 0.27631086 -0.10929141 0.20495991 -0.024676854 0.26716268 -0.010514492 0.27813092 0.28551283 0.25672942 0.26293683 0.001341753 -0.08364268 0.23292258 0.28450513 0.03554936 -0.123552345 -0.08074236 -0.012076624 -0.09680983 -0.061618477 -0.12431819 -0.07408302 0.17546587 0.26526886 -0.12038179 0.065991074 0.007611884 0.28210446 -0.11895716 0.23221594 -0.13327861 0.062238723 -0.06125468 -0.11566314 -0.12810443 -0.1295521 0.27246374 0.26145318 -0.10553213 0.2511118 -0.09852064 0.28075552 0.049030315 -0.06330048 -0.0831175 0.2568362 -0.112159126 0.28138548 0.23481178 -0.09636021 0.20796788 0.2768416 -0.054794177 -0.098817736 0.2841758 -0.10034689 -0.10327779 0.24994406 -0.065304406 0.17454116 -0.04591901 -0.113997124 0.21801569 0.19586276 0.23080808 -0.09570791 0.28580916 0.27225885 0.22087702 -0.13383949 0.26657727 -0.09691345 0.24667934 -0.056092877 -0.084173 -0.08396551 0.27660054 -0.08990571 -0.013968326 -0.09076988 0.263669 0.2747078 0.20399413 -0.024238009 0.2274904 0.22083125 0.21029098 0.25240412 -0.106437474 0.2447471 0.24513614 -0.08484845 -0.05945736 -0.12089049 -0.1291002 0.26813373 0.25434706 -0.069275185 0.25102398 0.21635738 0.22269382 0.06779978 -0.09175341 -0.09552192 -0.08105152 0.27492085 0.24834348 0.073197834 0.16040586 0.21722345 0.27100617 0.26327005 0.22867833 0.25905523 0.21391629 0.26335853 0.2703694 -0.11150073 0.2510181 0.26766372 0.22664914 -0.13300022 -0.03873064 -0.12550586 0.25392398 -0.1269655 0.039832212 0.25026703 -0.097556986 0.22221854 0.2558965 0.0028512292 0.261698 0.23913254 0.27084565 -0.10296027 0.25787398 0.26816028 0.045381214 0.2276581 -0.08341132 -0.08386801
doc_24 0.11106823 0.10224245 -0.063598774 0.010273563 0.09210815 -0.059142683 0.12520254 -0.068807684 0.08417003 -0.05272806 -0.05864873 -0.07105989 -0.05978968 -0.059103955 -0.06247776 -0.039267015 0.09427548 0.10251005 0.12101686 -0.05670902 -0.033240356 -0.06828534 0.11424126 -0.06404333 0.09187049 0.079219036 -0.021830505 -0.05050948 0.07036408 0.09853534 -0.06688993 -0.06233694 -0.05994997 0.08344151 -0.05656008 -0.062288772 -0.06537957 -0.058918893 0.073761 -0.022853713 -0.06596058 0.095225304 -0.019283358 0.113279335 -0.0585066 0.13413799 0.085786894 -0.062378027 0.11956866 0.06662736 -0.06309824 -0.021940805 -0.024701597 -0.06234084 -0.062058978 -0.064362355 -0.02028253 0.071391836 -0.06888696 0.0675496 -0.052533865 0.13638961 -0.06487617 0.08950953 -0.050350323 -0.055329926 -0.054424338 -0.058929004 -0.0015766015 0.09505691 -0.058799215 -0.051914573 0.09863589 0.07354552 0.12667201 0.10667811 0.11593515 0.079688 0.106168084 0.07926053 -0.06075987 -0.056375075 0.058751546 0.08222173 0.116855964 -0.05660572 -0.018009705 -0.061208926 0.10638139 -0.03632851 0.077578776 0.10593574 0.13250634 -0.010231128 -0.058150664 -0.07083603 0.12682383 -0.057447653 0.10469089 -0.059238598 0.0875702 0.09765899 0.0039151567 -0.0677486 0.11872159 -0.053418573 -0.0681589 0.04826166 -0.062980205 -0.06726638 0.06695972 0.11828451 -0.057041246 0.14535315 -0.009741118 -0.07086521 0.11771606 -0.077188015 -0.021968896 0.07068897 -0.06215781 -0.06837459 -0.06640715 -0.02468851 -0.06857233 -0.05865412 -0.06333775 -0.02270579 -0.057343263 0.087694 -0.048259042 0.017071355 0.08348935 0.09063715 -0.056548428 0.10697842 0.09326247 -0.004532733 -0.054458704 -0.05736435 -0.071263246 0.108875595 -0.06433927 -0.058936365 -0.06087796 -0.058513086 0.07856008 -0.05945641 -0.05999096 -0.022317233 0.092064984 0.09301369 0.043660637 -0.060565498 -0.06271954 0.057804957 -0.05609763 -0.055487268 -0.068249375 -0.029230982 0.11659634 0.06828548 -0.019873131 -0.057247076 -0.062865786 -0.0053568496 -0.07365548 -0.058231834 -0.061737012 -0.056525633 -0.06019125 -0.067180194 -0.06889288 -0.05698613 -0.05743618 0.08423921 -0.073819205 -0.047375437 -0.068008564 0.09427772 0.09602346 0.10611898 -0.06551747 0.029198708 0.09406698 -0.054822173 0.07380573 -0.07688153 -0.049045414 0.08868427 -0.065081276 -0.057248518 -0.06486446 -0.02185876 -0.05832944 -0.07561406 0.0955553 -0.0643968 0.123639315 -0.018352617
doc_25 0.07799356 0.080782 -0.013351221 0.03601301 0.06596284 -0.005476673 0.074710004 -0.020471515 0.055864822 -0.014032629 -0.010864724 -0.0060986364 -0.015473907 -0.0062048463 -0.021016227 -0.01124071 0.07812288 0.06514889 0.057472374 -0.010531277 -0.027905442 -0.0059275166 0.05046294 -0.015074566 0.038340997 0.06446547 -0.020220662 -0.0060652434 0.056981936 0.051801104 -0.0121843815 -0.014982192 -0.013980597 0.048632443 -0.007839169 -0.009066834 -0.015676625 -0.004680344 0.04607317 -0.019430082 -0.015863024 0.053984813 -0.015565255 0.0682531 -0.013490094 0.08113034 0.068880156 -0.016570842 0.07145712 0.0504912 -0.014414938 -0.022974739 -0.01473197 -0.019491797 -0.009738414 -0.019975686 -0.0005445468 0.05071551 -0.009852188 0.0493647 -0.012186919 0.06594041 -0.015831469 0.04775899 -0.012059222 -0.012157792 -0.013840508 -0.012934928 0.042019024 0.056157123 -0.020690497 -0.008015983 0.043417633 0.042782217 0.066696644 0.069227755 0.07620336 0.053654864 0.06143919 0.04456669 -0.013666176 -0.01569474 0.058060396 0.04842096 0.079397224 -0.01250159 -0.01393925 -0.011426864 0.058642056 0.031349063 0.047148224 0.068586245 0.050917253 -0.013590777 -0.013263146 -0.009166537 0.050512172 -0.0078199245 0.040989537 -0.0023970779 0.07245071 0.04311042 0.006577573 -0.016992088 0.06601175 -0.012674862 -0.016142 0.036300153 -0.019079229 -0.018915242 0.038502425 0.05965858 -0.011644022 0.06890762 -0.020812405 -0.010660795 0.06453912 -0.013395596 -0.023054875 0.056514245 -0.013931897 -0.013050878 -0.018029084 -0.017878462 -0.0073212897 -0.0108593935 -0.009713959 -0.021087196 -0.012822406 0.047886286 -0.010676834 0.03186047 0.0511901 0.050088856 -0.010684662 0.076423965 0.05877473 0.001855958 -0.0067209 -0.010740281 -0.012776222 0.06303836 -0.02093202 -0.012106832 -0.015747847 -0.014655832 0.05402291 -0.009774218 -0.00948683 -0.016765341 0.040441666 0.061991125 0.032852616 -0.015602309 -0.016706359 0.047941223 -0.0071649156 -0.011690233 -0.023401592 -0.012846692 0.0680044 0.055800285 -0.018903067 -0.009407105 -0.0046283375 0.016319191 -0.015060911 -0.014319956 -0.01018738 -0.013155094 -0.009761316 -0.0060103904 -0.017842876 -0.0057755886 -0.019173818 0.061994232 -0.015029436 -0.0136790695 -0.010717212 0.055135086 0.061342172 0.08537888 -0.008222262 0.016964747 0.06909139 -0.008228716 0.057540976 -0.016789395 -0.008153285 0.04309431 -0.014347788 -0.013482525 -0.009003629 -0.017222207 -0.00963515 -0.016053857 0.07137333 -0.0100388015 0.071736716 -0.019655146
doc_26 -0.048673 -0.013019435 0.15859717 -0.043595504 -0.0484055 0.13712049 -0.050574265 0.15908977 -0.02199895 0.14650814 0.14831106 0.12665236 0.16647702 0.13214481 0.14624897 0.14726529 -0.045141995 -0.012731676 -0.049686287 0.13372862 -0.024499223 0.1210953 -0.043820433 0.17027432 -0.041428674 -0.01707956 -0.026553264 0.14134905 -0.0423886 -0.040775385 0.13712196 0.15429287 0.12932654 -0.030231418 0.14260787 0.15507513 0.15626839 0.15989216 -0.033715706 -0.028178608 0.14126283 -0.032253962 -0.023831084 -0.05099507 0.14382246 -0.039598513 -0.04765854 0.14131483 -0.0389731 -0.051249668 0.14502041 -0.043313958 -0.035376944 0.13591143 0.14460257 0.14705822 -0.028537827 -0.02605859 0.15012744 -0.04405495 0.13964581 -0.042614885 0.14977242 -0.04876055 0.15179992 0.14354587 0.13489987 0.14691077 0.13484915 -0.046402257 0.1458059 0.14828569 -0.033456147 -0.041539792 -0.04111731 -0.0538113 -0.043052707 -0.043977328 -0.033217512 -0.028055433 0.14847521 0.14098667 -0.055687886 -0.03264228 -0.042459875 0.14624684 -0.036907338 0.16300641 -0.046677023 0.12915012 -0.05532682 -0.051682517 -0.05179759 -0.047035344 0.14525662 0.13990116 -0.04493871 0.13623357 -0.05384995 0.12539323 -0.042070843 -0.0255251 -0.054582715 0.1534322 -0.0488457 0.1420494 0.12757802 -0.032631654 0.13485959 0.14032398 -0.020244598 -0.04828643 0.13675722 -0.044951003 -0.05218843 0.15628514 -0.03749199 0.14970371 -0.0070427014 -0.052787505 0.14470762 0.14882785 0.16711107 -0.04348015 0.1393217 0.15004423 0.15850215 -0.026707869 0.15175553 -0.03813607 0.16212076 -0.04822864 -0.040713303 -0.04670616 0.15136623 -0.049742196 -0.05032394 -0.017685354 0.14265779 0.15535174 0.14276552 -0.03995652 0.14990516 0.14561543 0.15033087 0.15571286 -0.02076582 0.14466366 0.13073787 -0.033892363 -0.044576645 -0.053709444 -0.047073178 0.16908838 0.13007641 -0.045892917 0.15781191 0.15525818 0.15563124 0.14342472 -0.045701474 -0.032336477 -0.018533029 0.14854914 0.13175966 0.17114983 0.13972318 0.1517086 0.15853398 0.14288151 0.1394078 0.1471535 0.13211006 0.13692722 0.14694004 -0.033821158 0.15727188 0.13879403 0.14349934 -0.0492094 -0.033851985 -0.047129933 0.14516354 -0.023289844 -0.051916458 0.14120305 -0.04751148 0.158058 0.12607485 -0.042575397 0.16154194 0.14730695 0.15261221 -0.039868 0.15402354 0.1560102 -0.04161578 0.1373061 -0.047992323 -0.046813246
doc_27 -0.010148853 -0.0206768 0.086684376 -0.015357598 -0.017050782 0.08067668 -0.015591713 0.08030151 -0.011993645 0.1048089 0.072007634 0.09519577 0.079191126 0.09250006 0.061685726 0.077845335 -0.016349755 -0.023422604 -0.011578756 0.07840566 -0.013711157 0.06742184 -0.009561098 0.07949696 -0.008286004 -0.018181406 -0.01804734 0.07087655 -0.009174926 -0.0057414565 0.09148568 0.08165014 0.075549245 -0.015381401 0.10138518 0.09201215 0.08392099 0.077331506 -0.010439582 -0.018565424 0.07789009 -0.020189136 -0.008934953 -0.03329717 0.07825299 -0.019990895 -0.026125148 0.08476538 -0.0100422315 -0.0065022837 0.08774882 0.038811676 0.0828552 0.07984032 0.093871355 0.07490686 -0.005933662 -0.010290226 0.09810288 -0.0177369 0.06762472 -0.023794733 0.06793198 -0.012741084 0.075645275 0.07391685 0.083517194 0.090489015 0.12659404 -0.017340796 0.094698764 0.09353095 -0.01576835 -0.025858492 -0.014847541 -0.027043637 -0.016279006 -0.015861562 -0.011937166 -0.01396897 0.07753162 0.07205634 -0.025592253 -0.0145267835 -0.019501463 0.09355376 -0.016607508 0.076169655 -0.015931055 0.12571035 -0.020714698 -0.0026018412 -0.009208371 -0.008431498 0.08061223 0.0808861 -0.017530479 0.078096464 -0.014435273 0.084763534 -0.017882762 -0.015438228 -0.008075212 0.10023981 -0.007587503 0.072908536 0.093267575 -0.020366792 0.079788655 0.07130688 -0.0075033624 -0.012595383 0.08225506 -0.013736183 -0.010213681 0.07352845 -0.019312562 0.0961683 -0.01381867 -0.015483425 0.09005053 0.083173126 0.097093895 -0.016574405 0.08778663 0.08311386 0.104068175 -0.017644113 0.07710119 -0.021095222 0.08697708 -0.0192429 -0.016589746 -0.022207137 0.083596334 -0.013480835 -0.02373645 -0.014146742 0.0860859 0.083737426 0.079694234 -0.027874844 0.08695348 0.072521254 0.08818954 0.086575076 -0.018402645 0.07367648 0.08344614 -0.016293786 -0.02644875 -0.010159778 -0.014420456 0.08394374 0.07545076 -0.007618749 0.07962738 0.08505389 0.08121174 0.10430585 -0.017408721 -0.017509993 -0.010824259 0.08597933 0.08287166 0.12342854 0.09257281 0.079816885 0.09427817 0.072602294 0.1070395 0.09151579 0.06790816 0.06924741 0.07344622 -0.0093253525 0.09979886 0.081730366 0.09281185 -0.0199401 -0.020975232 -0.01805614 0.07532871 -0.013730967 -0.01577931 0.09555812 -0.016369307 0.09404225 0.07375836 -0.02366442 0.08955573 0.10037784 0.08715722 -0.017572919 0.08030182 0.0839881 -0.02336894 0.07690855 -0.015744127 -0.010639777
doc_28 -0.041460954 -0.04635622 0.13998495 -0.0023911688 0.02171711 0.14516135 0.036890514 0.13009892 -0.047476213 0.12795375 0.13917798 0.13593379 0.119640425 0.14538285 0.12242796 0.1460811 -0.023425333 -0.048021454 -0.007933358 0.16010432 -0.04345833 0.15057395 -0.024734318 0.111563265 -0.034729566 -0.046251763 -0.065491095 0.13202728 -0.023616698 -0.012818947 0.15479015 0.12712504 0.12333082 0.0014164192 0.13010213 0.107500315 0.14135218 0.13010062 -0.013417718 -0.0798245 0.12836541 -0.018207246 -0.04662239 0.0011568423 0.16059335 0.0005785231 -0.03539413 0.13255385 -0.018055301 -0.036375396 0.14727373 -0.07609947 -0.06479066 0.13770598 0.1441223 0.1152565 -0.051275305 0.07245296 0.1397737 -0.048387013 0.12700436 -0.005675098 0.14739856 -0.009001326 0.14270075 0.1492435 0.14190277 0.14652206 0.16724086 -0.059617415 0.115736425 0.13216111 -0.013926979 -0.09261015 -0.025440374 0.023684999 -0.059337188 -0.016229669 -0.026719205 -0.026925154 0.106212765 0.12249109 -0.057636887 -0.039942343 0.015241284 0.13369128 -0.068433605 0.13903992 -0.012075743 0.1826432 -0.023540549 -0.0024355866 0.045769833 -0.085843384 0.11571253 0.13498345 -0.010141627 0.12817167 -0.03329585 0.15230842 -0.008086911 0.054212946 -0.08882521 0.14933994 -0.028441057 0.14344805 0.13148764 -0.043059032 0.08105605 0.13881424 -0.026220625 -0.024702528 0.13336931 -0.019371118 -0.06296075 0.14781366 0.020623716 0.09628212 -0.0438062 -0.026702998 0.11220724 0.11371329 0.106756665 -0.07409468 0.1123178 0.13399063 0.10433167 -0.07884644 0.15120244 0.024698965 0.14275785 -0.056028944 -0.019519918 -0.010281882 0.14047422 -0.039882917 -0.04292147 -0.02834877 0.14567252 0.15971154 0.10668096 -0.027497126 0.13628086 0.09480845 0.11281181 0.13219294 -0.0061348025 0.14317869 0.12478972 -0.07246272 -0.005539492 -0.014109263 -0.082849815 0.12722182 0.13672224 0.006612118 0.13736561 0.1011322 0.12817954 0.13921982 -0.025874138 -0.018621 -0.06253702 0.14437719 0.15503299 0.17918415 0.09591034 0.102237284 0.13038658 0.16740075 0.148438 0.13262746 0.0981191 0.14233157 0.15619561 -0.01726493 0.14003836 0.12984852 0.107674785 -0.044996973 0.009931098 0.0035322732 0.13725269 -0.09085421 -0.028362777 0.1406491 -0.025010884 0.09198665 0.14665066 -0.0025958787 0.12758636 0.14538777 0.13584065 -0.060932394 0.12949464 0.12966801 -0.0361976 0.1330851 0.0051764646 -0.06601866
doc_29 -0.02419423 -0.012844197 0.10518866 0.004253409 -0.01761261 0.106717005 -0.021014541 0.11427063 -0.01873156 0.121530496 0.10545635 0.10135 0.11673165 0.11555499 0.12555256 0.118343025 -0.0039052418 -0.031089954 -0.020294707 0.11853211 0.0015638004 0.111476466 -0.0047728717 0.10859939 -0.030791061 -0.011391791 -0.024564546 0.11074591 -0.017318895 -0.0044931644 0.103640035 0.11785368 0.117306635 -0.011607699 0.119627714 0.1158544 0.1180873 0.12574455 -0.015249024 -0.032812446 0.106854394 -0.050904956 -0.023041727 -0.010599395 0.110098034 -0.029706383 -0.02586209 0.12110342 -0.022778274 -0.03483352 0.11447624 -0.039840348 -0.033816848 0.12564725 0.1254295 0.11576084 -0.024618119 -0.014951985 0.119590715 -0.035280474 0.11855979 -0.010736346 0.1289109 -0.033714432 0.11419617 0.11186449 0.12601233 0.11891171 0.050071627 -0.016509257 0.12189265 0.11074789 -0.024482867 -0.039647665 -0.015864464 -0.0028918777 -0.026681298 -0.0032311277 -0.016484555 -0.021527864 0.10451354 0.12593563 -0.022045348 -0.035493128 -0.025031984 0.10631867 -0.032419655 0.123479754 -0.0036421935 0.11155808 0.010640528 0.003898968 -0.026365241 -0.028756045 0.11113269 0.11689228 0.01288721 0.11055301 -0.021577345 0.112337336 -0.010337297 0.0075941337 -0.042704698 0.115863286 -0.026399571 0.12892498 0.11850542 -0.028150765 0.11838634 0.10805404 -0.0046248613 -0.014763474 0.11395105 0.012207102 -0.03065803 0.11354531 -0.025142312 0.11238715 -0.0061488594 -0.0015807513 0.11339348 0.122210935 0.12350054 -0.022559255 0.11232271 0.10990717 0.12634352 -0.041978125 0.120889485 0.017212156 0.112421446 -0.036853638 -0.022901677 -0.016162597 0.11971312 -0.02902086 -0.022121713 -0.030782338 0.12082979 0.123141676 0.09817448 -0.0008799839 0.11701037 0.11858358 0.122796476 0.11698126 -0.032403458 0.11337623 0.11420927 -0.025050152 0.017159574 0.0139525 -0.042536426 0.1090251 0.114662826 -0.011914467 0.10713328 0.11068057 0.12536645 0.10293277 -0.026749844 -0.018967595 -0.029519835 0.10688338 0.12392507 0.13872725 0.11731484 0.11996945 0.111067526 0.118788056 0.12508716 0.11483768 0.11945335 0.12278759 0.117521234 -0.025779305 0.12775256 0.11332995 0.11619758 -0.028515328 -0.013041262 -0.046849377 0.111045286 -0.0394867 -0.032927223 0.107010834 0.016721562 0.10871001 0.108412005 -0.024277896 0.11357893 0.1221435 0.106280304 -0.035237644 0.118378796 0.113272026 -0.02923517 0.12317362 -0.011783005 -0.022319153
doc_30 -0.0032998784 -0.00986109 0.11241256 0.010138422 0.021507844 0.102579765 0.04952838 0.11455143 0.017298948 0.118274525 0.1240434 0.10083468 0.11578359 0.10249048 0.11888722 0.10070614 0.0014476816 0.004750844 0.064279936 0.11435957 -0.033975046 0.119448975 -0.0033514833 0.12356066 -0.022822585 0.039687905 -0.042417757 0.10202796 0.05062379 0.041915454 0.11753909 0.113829106 0.11869901 -0.006944989 0.12154162 0.09663021 0.11476318 0.122552775 -0.0068082297 -0.042884514 0.11759789 0.04127192 -0.031191412 0.027474087 0.09732828 0.0070163417 0.0058844136 0.109675065 0.017200636 -0.036664397 0.1107388 -0.04558829 -0.03812278 0.12100479 0.11535475 0.11331579 -0.043927953 0.069593795 0.110107005 -0.007184417 0.10317802 0.067766674 0.097322926 0.0020571717 0.10554684 0.10975306 0.09511905 0.11634833 0.033773728 0.023554811 0.11432514 0.122357875 0.02622864 -0.038369797 0.038729545 0.023210293 -0.0025584926 0.014191979 0.0007236656 0.0374254 0.09568789 0.10458935 0.021580972 0.05711366 0.03441308 0.10903894 -0.04351645 0.115210816 0.05177002 0.11469197 -0.012587561 -0.019431133 0.067707635 -0.040785644 0.10763033 0.10529496 0.006098235 0.11458249 0.0059392266 0.09944645 0.022897664 0.0033365395 -0.042032227 0.1081105 0.06076515 0.11313209 0.10841064 0.036081865 0.1081415 0.112001516 -0.008307709 0.04898557 0.11150365 0.016932096 -0.03093775 0.11031276 0.044438653 0.11548376 -0.029785143 -0.014985897 0.12121442 0.10855345 0.114252515 -0.053165473 0.10289301 0.1244289 0.1203151 -0.053145688 0.11251425 0.013989357 0.10272905 -0.012376862 -0.01187288 0.018574623 0.11442744 -0.0044163004 0.03800176 0.031695582 0.124692425 0.12426425 0.10289599 0.025318062 0.109738804 0.10059624 0.110562705 0.08865268 0.032029603 0.10069021 0.106421694 -0.039783098 0.01003717 0.013527034 -0.039228417 0.10992286 0.11188768 -0.016092205 0.103993684 0.09550474 0.10573535 0.094545774 0.041640118 -0.011393141 -0.04667706 0.100734055 0.106432065 0.016068473 0.09542689 0.10066237 0.09760834 0.11135244 0.112932146 0.08449648 0.10929083 0.09744333 0.08752706 0.038908165 0.11198071 0.09747443 0.13245633 -0.0075683696 0.02495003 0.00063028606 0.11179742 -0.050106 -0.024290716 0.11422668 -0.0035115248 0.11409805 0.099388994 -0.023628522 0.093247004 0.09851055 0.12116677 -0.027103705 0.116491035 0.10737066 -0.01654495 0.1183193 0.020857085 -0.03780189
doc_31 -0.020271666 -0.004949318 0.06934746 0.0020911917 0.002140897 0.06593874 -0.007449627 0.06790374 -0.0076013934 0.06670098 0.061644528 0.057012137 0.06942169 0.06412868 0.065012105 0.05681187 -0.011253006 -0.024635281 -0.014383772 0.06179667 0.023914507 0.06826593 -0.012783491 0.06875504 -0.02333746 0.0014664552 -0.013746451 0.063743316 -0.00024970877 -0.012600714 0.07074864 0.060524985 0.06746808 -0.014419123 0.06331908 0.06713871 0.066501856 0.06899452 -0.012592957 -0.017916052 0.0624315 -0.008032403 -0.017187595 0.0043520792 0.059638884 -0.0066014426 -0.009014495 0.06463844 -0.01624488 -0.018310238 0.056403205 -0.018621255 -0.022518836 0.058972716 0.06318528 0.066627346 -0.012741124 0.0014443798 0.070597045 -0.00898867 0.061093517 -0.01320113 0.06637826 -0.023504501 0.06587671 0.06544699 0.06663455 0.07099724 0.0634865 0.00802367 0.074532084 0.06332464 -0.004679875 -0.0214939 -0.0010786904 -0.0027237402 -0.014958755 0.0016735299 0.0030418877 -0.012112463 0.06095966 0.06539353 -0.025890723 0.0144210905 -0.009917215 0.06657031 -0.013033297 0.06695461 -0.010538423 0.075151 -0.011102723 -0.004259337 -0.007980166 -0.024148265 0.059278652 0.06455206 -0.019516628 0.065122366 -0.014366051 0.051522776 -0.004141217 0.00068884017 -0.015439846 0.064819165 -0.009117929 0.06428187 0.064690016 0.0008595523 0.06718152 0.06580592 0.007338673 -0.007027827 0.05876334 -0.0043674177 -0.022941615 0.060244385 -0.0037789568 0.059258446 -0.0065665278 -0.0045076534 0.066953935 0.057311527 0.06483312 -0.004209866 0.057927698 0.07163613 0.06440589 -0.018918198 0.06569715 -0.0064636227 0.0680381 -0.0031976975 -0.013975991 0.0037359134 0.062731944 -0.020983623 0.000404104 -0.0016071445 0.060175374 0.06650806 0.06797308 -0.0011123448 0.060093395 0.0658252 0.07305506 0.06733239 0.0029894235 0.06318135 0.06638539 -0.013142171 -0.0038906506 -0.011317927 -0.024437916 0.06726464 0.06652814 -0.01619381 0.069004744 0.06413388 0.06736005 0.06403841 0.0039953347 -0.01647724 -0.010060836 0.06533835 0.070298254 0.069721125 0.06772174 0.071168624 0.063586704 0.061701454 0.071885645 0.070904754 0.06264622 0.071967125 0.06582177 -0.01334061 0.064038314 0.060760785 0.06473126 -0.016050512 -0.0064268666 0.001581343 0.061536007 -0.0267301 -0.008811804 0.067348756 -0.006876384 0.064879104 0.06549857 -0.01814387 0.06648186 0.068393365 0.06432377 -0.018338319 0.06554583 0.06628476 0.0041597714 0.061516166 -0.011705086 -0.018446764
doc_32 -0.060700215 -0.061765462 0.18703984 -0.03970887 -0.06522806 0.18025881 -0.06846909 0.16776736 -0.050792575 0.18181872 0.18573426 0.19174187 0.19694814 0.18641765 0.20635347 0.17831147 -0.057921324 -0.0678174 -0.059426308 0.17592576 -0.035225723 0.17912383 -0.06767602 0.16162877 -0.06853931 -0.066589706 -0.066836104 0.18467027 -0.047543045 -0.061901107 0.18898354 0.18992648 0.19005805 -0.059363157 0.18604554 0.16307376 0.17150934 0.2014282 -0.055973858 -0.040826138 0.17988738 -0.053818077 -0.057035584 -0.06872272 0.15785684 -0.08759959 -0.05913414 0.1924536 -0.06720109 -0.06756284 0.18720736 -0.04353164 -0.049591843 0.16771208 0.18358539 0.19169974 -0.049334496 -0.040698644 0.18909745 -0.06607184 0.19156563 -0.05951863 0.16830544 -0.061230116 0.18786065 0.18670684 0.17683287 0.1978028 0.098967455 -0.06254957 0.16372003 0.18238609 -0.058999892 -0.065562576 -0.05547347 -0.085841335 -0.061861765 -0.051958468 -0.06799846 -0.0631433 0.16706844 0.16536686 -0.07127094 -0.04432939 -0.06438608 0.18673299 -0.057734866 0.19248776 -0.06696133 0.19649369 -0.05552551 -0.032738965 -0.062587276 -0.059493873 0.16936232 0.18521109 -0.053606465 0.1672549 -0.0552893 0.17720702 -0.050498508 -0.056842756 -0.06879641 0.17553978 -0.05968151 0.18482447 0.19545466 -0.057082463 0.19622265 0.19154847 -0.0072420514 -0.06286442 0.18454291 -0.064646 -0.054227114 0.17928542 -0.059114218 0.17101261 -0.059437335 -0.06547633 0.18935454 0.18585469 0.1934987 -0.010838969 0.15406866 0.16828342 0.18716735 -0.0736748 0.17411125 -0.05882037 0.16831088 -0.05685629 -0.040426783 -0.06612449 0.18463686 -0.03163808 -0.053342737 -0.039622635 0.18371765 0.17622174 0.18579143 -0.052176595 0.15718485 0.19182876 0.16885185 0.18325715 -0.0631975 0.18854964 0.1875351 -0.06758654 -0.04395949 -0.06257416 -0.06352441 0.19558792 0.16510111 -0.054579284 0.17026587 0.17856878 0.20226863 0.1771135 -0.06558563 -0.051563524 -0.06281017 0.19180298 0.18221208 0.07613517 0.17590272 0.18447351 0.19619802 0.16951081 0.1823811 0.17946228 0.17351183 0.17730737 0.18218139 -0.06654514 0.17475265 0.1882383 0.18140875 -0.051195264 -0.07886999 -0.06743955 0.18009178 -0.04971626 -0.061089892 0.1790752 -0.049803004 0.19042857 0.18642724 -0.04869582 0.18285641 0.19004351 0.16227904 -0.06583506 0.1741517 0.19364314 -0.046576902 0.18838723 -0.079845816 -0.06576613
doc_33 0.38628176 0.39150053 -0.20256852 0.23137397 0.3879261 -0.20387118 0.43966123 -0.20590092 0.39006028 -0.20414224 -0.18769868 -0.21702188 -0.20797294 -0.1859065 -0.2109084 -0.18682957 0.42571315 0.21833906 0.4266012 -0.18515408 -0.009816165 -0.20738286 0.28312373 -0.20315269 0.25088915 0.38550103 -0.07054339 -0.18551058 0.24711365 0.3752737 -0.19898659 -0.18070276 -0.20595734 0.32456857 -0.21084811 -0.1940765 -0.20719855 -0.20239867 0.31363082 -0.0583103 -0.20138107 0.32244712 -0.04878767 0.37055582 -0.19632016 0.36285937 0.39281833 -0.20921981 0.3501442 0.3242705 -0.19544566 -0.078105554 -0.044909082 -0.20555648 -0.20465422 -0.21774271 -0.027115159 0.32401732 -0.20795506 0.2611432 -0.20445362 0.401201 -0.20773306 0.30129102 -0.1883347 -0.18918526 -0.20168614 -0.21738642 0.05108184 0.3363367 -0.21608709 -0.19046587 0.30263868 0.2645626 0.3398798 0.42327002 0.32371762 0.21529748 0.40737653 0.2574048 -0.19892043 -0.19019419 0.32457393 0.3240373 0.4041211 -0.20063224 -0.034773827 -0.21105929 0.37989002 -0.07886495 0.35662457 0.30487356 0.23038177 -0.044461094 -0.20403267 -0.19554144 0.19701774 -0.19393882 0.32069936 -0.17696567 0.40823907 0.3143103 0.16275443 -0.22339669 0.38898134 -0.20932613 -0.2089634 0.20808125 -0.21695279 -0.19898374 0.34362695 0.3490426 -0.19343995 0.38949993 -0.049639795 -0.20236452 0.3810689 -0.21364625 -0.06237068 0.3738962 -0.20206173 -0.21352565 -0.21564129 -0.066566125 -0.19319059 -0.20872623 -0.19981666 -0.036387485 -0.18337004 0.40548772 -0.19095774 0.31874108 0.32442772 0.22102694 -0.20296761 0.35669118 0.33204997 0.10968847 -0.19386101 -0.19586793 -0.20854032 0.3802542 -0.2219907 -0.20370959 -0.20359482 -0.20779623 0.20416239 -0.20875274 -0.19765982 -0.058319118 0.37657648 0.40045232 0.22630389 -0.2177951 -0.20041461 0.31221214 -0.19934785 -0.1978102 -0.21507502 -0.10173762 0.4103772 0.36066583 -0.051874157 -0.21962422 -0.20755051 0.029973276 -0.19802247 -0.19625491 -0.2212604 -0.19600016 -0.20277698 -0.18705662 -0.21315058 -0.18421035 -0.20930351 0.3604008 -0.21810266 -0.1811279 -0.2153772 0.34438625 0.36889595 0.41641983 -0.2164321 0.03292381 0.3229871 -0.20008135 0.26677132 -0.1996357 -0.1968309 0.36035082 -0.213174 -0.2141336 -0.2233907 -0.06347602 -0.20515966 -0.21921428 0.3179292 -0.20253049 0.3798516 -0.051218953
doc_34 -0.011587871 -0.00612344 0.08971581 -0.04750137 -0.021620948 0.09958136 -0.011004114 0.10454871 -0.04402343 0.09536767 0.0892916 0.104226045 0.10157928 0.09838141 0.110455856 0.099014655 -0.020274958 -0.040009946 -0.05080998 0.08769904 -0.031572007 0.107834786 -0.0422074 0.08209258 -0.031338345 -0.0675766 -0.0359883 0.08493217 -0.04164877 -0.04913115 0.09603742 0.09264666 0.09249676 -0.054558445 0.0923482 0.10165282 0.11290093 0.10801731 -0.059391305 -0.03715945 0.103388526 -0.03724683 -0.020499624 -0.036829166 0.086841635 -0.021508016 -0.062176198 0.10496993 -0.02328322 -0.039838433 0.08145112 -0.03260708 -0.023286873 0.08238165 0.10315709 0.09998391 0.0028452114 -0.066849805 0.100112885 -0.058959093 0.102974914 -0.038862217 0.09648902 -0.053455193 0.09536236 0.0916541 0.08288818 0.100227244 0.18050636 -0.06188944 0.09581163 0.097575985 -0.042132676 -0.03304028 -0.02738986 -0.026164714 -0.022593666 -0.06475782 -0.030285168 -0.048242517 0.086189315 0.086342424 -0.041162185 -0.064550236 -0.03301352 0.09337716 -0.033664946 0.09113587 -0.0377327 0.17768525 -0.034173142 -0.0401152 -0.040958155 -0.038283624 0.08927429 0.09447118 -0.03770473 0.11331727 -0.06446848 0.09495282 -0.056318853 -0.052807797 -0.040259395 0.09782486 -0.047241196 0.09788464 0.10372138 -0.05961772 0.097769335 0.098786056 -0.0383413 -0.061847597 0.09254314 -0.02880824 -0.03211123 0.092954844 -0.042881925 0.10151037 -0.028988658 -0.047128122 0.11293946 0.08780722 0.0891975 -0.036965054 0.09431992 0.090041384 0.0984185 -0.033798255 0.08978438 -0.052756708 0.09341894 -0.06374018 -0.06701109 -0.039694067 0.09454726 -0.021011004 -0.04898367 -0.026770253 0.09115993 0.091497295 0.08871594 -0.029483972 0.11062204 0.09546987 0.100267924 0.09901668 -0.047161754 0.107675456 0.09440699 -0.033768468 -0.03906702 -0.05068929 -0.045036077 0.09497773 0.082064345 -0.05192702 0.08713116 0.096258 0.08662854 0.075606644 -0.03692927 -0.047646705 -0.037167165 0.08784582 0.10149621 0.14558834 0.09013327 0.1135443 0.113564834 0.08024724 0.10536225 0.10523466 0.09155762 0.09840451 0.0919544 -0.041504078 0.09300252 0.08826486 0.111580074 -0.03898248 -0.038951695 0.003991844 0.093358845 -0.029173236 -0.021650564 0.098206796 -0.047482643 0.094265506 0.09955455 -0.03697932 0.11729508 0.09951686 0.093244314 -0.030554695 0.09674354 0.10390689 -0.017220018 0.096859485 -0.023324661 -0.027275939
doc_35 -0.026488679 -0.011589407 0.099079095 -0.032095406 0.006043364 0.09233661 0.008319165 0.10286266 0.0052830707 0.1003305 0.09411159 0.101835914 0.0950791 0.1028335 0.08216218 0.10796251 -0.02532399 -0.04176492 -0.05207172 0.09899845 -0.03053838 0.08030848 -0.031251922 0.09889882 -0.001094702 -0.00078054116 -0.03716911 0.08765893 -0.0108661 0.0015788076 0.10042993 0.10143622 0.09280497 -0.03527248 0.094004706 0.09602508 0.10062236 0.08682599 -0.032621387 -0.04778078 0.08643678 -0.03502492 -0.029592164 -0.048468973 0.09815829 0.0013386408 -0.00065324164 0.08554335 -0.03642119 -0.0029989458 0.088791825 -0.04296398 -0.027048668 0.09534353 0.08362126 0.08508118 -0.036462698 -0.03247823 0.11245678 -0.01921032 0.089882225 -0.030652996 0.08847696 -0.034547567 0.09447817 0.10114775 0.096190974 0.105789594 0.1562599 -0.00017233903 0.09185516 0.109152764 -0.028434776 -0.05184585 -0.044944007 -0.022314966 -0.042401038 -0.015725235 -0.019568957 -0.009957482 0.06893066 0.095605485 -0.006941424 -0.041335605 -0.029476443 0.10251601 -0.04784213 0.09325879 -0.030108018 0.12876192 0.0016307521 -0.04370346 -0.052001856 -0.03525591 0.107352465 0.09945506 -0.0449922 0.10051146 -0.020229388 0.09464437 -0.0072333324 -0.021531537 -0.04662006 0.09319043 0.006406724 0.10018505 0.090217724 -0.027164338 0.08820051 0.09359557 -0.00060593936 -0.046269633 0.09066755 -0.006500877 -0.0374639 0.099380545 -0.02919521 0.086283825 -0.026468813 -0.04694484 0.083343 0.076061405 0.082090445 -0.047090184 0.10180736 0.10574635 0.087276585 -0.047208097 0.10373658 -0.046725273 0.10053726 -0.0147100855 -0.0172761 -0.022201857 0.10289281 0.011445308 -0.043134272 -0.002971543 0.09913359 0.096304156 0.09157699 -0.020203207 0.10065574 0.08171108 0.09317761 0.0919394 -0.012311711 0.08744685 0.09500683 -0.04011478 0.0032020726 -0.018279374 -0.042777475 0.09215562 0.09403984 -0.0033797645 0.103316545 0.091289036 0.09119501 0.11484035 -0.036672346 -0.0005562535 -0.046866167 0.09872843 0.09035068 0.112104096 0.0749911 0.08650009 0.09007207 0.101587094 0.09258637 0.09464341 0.07787662 0.09282805 0.09349566 -0.042064656 0.08081352 0.09360718 0.0782147 -0.018673958 -0.030080667 -0.0038749683 0.095913485 -0.053839095 -0.013461121 0.09653335 -0.0051775137 0.084187865 0.09810338 0.0078292005 0.088359185 0.082725115 0.095924154 -0.04456843 0.10151326 0.10791309 -0.009183441 0.095042236 -0.0060454146 -0.020457814
doc_36 -0.025995426 -0.028337337 0.060746063 -0.0048831347 -0.03447166 0.06344663 -0.023564316 0.061413378 -0.026235621 0.060502928 0.053986482 0.058014408 0.06421791 0.05518398 0.07040571 0.057006523 -0.026344981 -0.023471853 -0.012338692 0.052159697 0.02141024 0.06346698 -0.023209427 0.057044446 -0.016495267 -0.027730078 -0.015139928 0.06357154 -0.024091812 -0.032133214 0.05245116 0.056696467 0.057953194 -0.020863933 0.058753144 0.059807826 0.057196934 0.060773496 0.0011019502 -0.020529341 0.0510613 -0.015928045 -0.0030932687 -0.021658268 0.057679348 -0.02241406 -0.032334685 0.05706159 -0.01904677 -0.02687933 0.059759744 -0.015977204 -0.018437173 0.06484324 0.0626829 0.06599787 -0.0110049425 -0.010899618 0.05474799 -0.032817826 0.055196047 -0.03092605 0.058638174 -0.00015035644 0.063335195 0.05785287 0.059462804 0.06696698 0.0809901 -0.035819247 0.059529636 0.05786219 -0.012542683 -0.023544485 -0.03219801 -0.0035533067 -0.019483592 -0.018912487 -0.029372856 -0.018026294 0.058435295 0.055627033 -0.022953255 0.0060241027 -0.027545646 0.06075696 -0.018972147 0.060118258 -0.02494111 0.07414973 -0.009410136 -0.022445425 -0.016135585 -0.011587195 0.061368376 0.052282672 -0.02345606 0.059995104 -0.024394378 0.056923117 -0.008180181 0.002202906 -0.023590868 0.057427272 -0.020647874 0.05756517 0.062512726 -0.017843783 0.05610999 0.05840065 -0.037710585 -0.02296547 0.060319077 -0.021195458 -0.020593371 0.062174305 -0.026517624 0.060254093 -0.0077643553 -0.027758716 0.06501153 0.0645935 0.0587488 -0.021311114 0.05551661 0.065621816 0.060675155 -0.019653745 0.05364775 -0.021367107 0.06560418 -0.004584536 -0.022827227 -0.030814754 0.05730544 -0.031497534 0.010207398 -0.021703172 0.052422814 0.052902963 0.051882047 -0.012799312 0.06216318 0.060446385 0.05982833 0.045918345 -0.029209329 0.062821954 0.06098873 -0.021273091 -0.023995036 -0.018856507 -0.017102193 0.062148057 0.058592897 -0.014338301 0.060631517 0.05693161 0.054662153 0.06299545 -0.03502198 -0.02674738 -0.019275403 0.06019477 0.057265006 0.06753442 0.056370005 0.06873645 0.064031795 0.054930978 0.064843185 0.059294682 0.04466027 0.061164897 0.060800888 -0.018398594 0.0646871 0.056180876 0.053841807 -0.028584292 -0.027973857 -0.041041166 0.06489767 -0.023666216 -0.017998122 0.05371891 -0.031044066 0.05947768 0.057573263 -0.0047351923 0.058421556 0.06329638 0.054460295 -0.018195743 0.055672377 0.058676157 -0.01771408 0.056190427 -0.038664706 -0.018722914
doc_37 -0.072043054 -0.1347637 0.30315125 0.037203565 -0.08701014 0.30854526 -0.10072061 0.26670864 -0.095379196 0.26632985 0.30423996 0.29806423 0.2325804 0.30029574 0.26211748 0.30935913 -0.1386025 -0.16283646 -0.1173995 0.30746594 -0.08981589 0.29377884 -0.1271167 0.26391512 -0.14643164 0.12578301 -0.12698625 0.2988039 -0.14136773 -0.038929854 0.29317018 0.29670784 0.2717662 -0.08224357 0.2684719 0.23879018 0.3097727 0.27332965 0.0983012 -0.07975205 0.30811885 -0.08964919 -0.056807976 -0.06793928 0.32481602 -0.068877965 -0.090946086 0.2774005 -0.1272279 -0.12497282 0.26928005 -0.11771019 -0.1256276 0.29000556 0.26991454 0.29566973 -0.099557415 -0.09524212 0.31998307 -0.12500049 0.22082166 0.042334046 0.30651942 -0.014096439 0.3051925 0.3092483 0.2768394 0.29495153 -0.018515559 -0.09481141 0.2559507 0.30811873 -0.0017426015 -0.13793172 -0.065569185 -0.0075033107 -0.11923117 -0.030527722 -0.1253491 -0.07734978 0.19826275 0.29378062 -0.13943504 0.10946771 -0.014144132 0.31396857 -0.122757755 0.27029362 -0.14606823 0.08160642 -0.039712694 -0.09366011 -0.13842027 -0.14223151 0.30197686 0.29082373 -0.12011529 0.27786392 -0.101666115 0.31418937 0.015097793 -0.047981303 -0.10571262 0.29206052 -0.12846121 0.31074622 0.25048247 -0.1093712 0.23421265 0.31214908 -0.010395101 -0.11659051 0.3133152 -0.072207026 -0.1069115 0.26981604 -0.01555406 0.19544867 -0.053484242 -0.12635373 0.22759824 0.21838659 0.24393527 -0.11677107 0.3056974 0.30861297 0.24389353 -0.15237506 0.31329522 -0.108481534 0.26423883 -0.026483135 -0.10595445 -0.10782604 0.30226308 -0.10456119 0.04132746 -0.09886159 0.29739052 0.30006483 0.22252297 -0.049068168 0.2495075 0.23478003 0.23431498 0.27628988 -0.10082021 0.27473968 0.28880855 -0.10133783 -0.0939619 -0.11335917 -0.14686187 0.2949719 0.28800994 -0.030246602 0.29175723 0.239561 0.2580646 0.10112443 -0.10425357 -0.101463854 -0.07134259 0.30020002 0.2891616 0.07046448 0.18371902 0.2550509 0.30222282 0.29801232 0.2569125 0.2976429 0.23735915 0.30248535 0.29985696 -0.116422005 0.26833418 0.30719954 0.24887305 -0.14862755 -0.006891624 -0.13757707 0.30116045 -0.14691125 0.021971017 0.29716992 -0.13259941 0.26534495 0.2946057 0.094709344 0.2980025 0.27682343 0.3078302 -0.122843355 0.2898874 0.29839987 -0.0256804 0.24996531 -0.10137152 -0.07772288
doc_38 -0.043373615 -0.030466478 0.12978055 -0.021783464 -0.042861745 0.1267451 -0.045019396 0.12954271 -0.042922515 0.12836687 0.12848525 0.13044527 0.12005812 0.12055514 0.1252233 0.117109075 -0.047669657 -0.047363378 -0.054746527 0.13009174 -0.019094013 0.12745991 -0.044713277 0.11606278 -0.039945856 -0.037721213 -0.023274627 0.12359034 -0.04797042 -0.044976413 0.13215381 0.12143324 0.12530662 -0.03816222 0.12730208 0.123112336 0.12209104 0.1302686 -0.032473486 -0.03174819 0.11695859 -0.045675915 -0.03833787 -0.035426475 0.115043566 -0.036921326 -0.047331937 0.12058084 -0.03681687 -0.038480416 0.13139632 -0.036885403 -0.036080334 0.12730204 0.11914364 0.12899046 -0.02399114 -0.018204993 0.13069685 -0.06520873 0.12659469 -0.056082822 0.121120825 -0.026438497 0.12909204 0.12855713 0.12779576 0.12959489 0.1253773 -0.040416 0.12556128 0.1161507 -0.053297278 -0.048056368 -0.032406617 -0.026746033 -0.043377236 -0.039851297 -0.04318576 -0.03521681 0.105720446 0.12165075 -0.040790133 -0.037582926 -0.044470288 0.13081492 -0.019598115 0.124003045 -0.03844049 0.13479972 -0.047104757 -0.020871716 -0.03701337 -0.04360873 0.11853574 0.12410052 -0.039064422 0.120340705 -0.041764054 0.121621676 -0.050235603 0.0057213763 -0.04862597 0.1293104 -0.041058075 0.12120432 0.12739082 -0.046337657 0.12443352 0.122008115 -0.024271866 -0.04853226 0.12372919 -0.044462055 -0.049340803 0.13079506 -0.041782234 0.122628555 -0.015783438 -0.049067464 0.13335098 0.1215456 0.124510534 -0.027966516 0.12622595 0.12430966 0.12615778 -0.042305842 0.11295854 -0.022336021 0.13304818 -0.04370552 -0.040737227 -0.0683345 0.11521529 -0.048148945 -0.040776126 -0.041832183 0.12257935 0.12000635 0.13063388 -0.033120647 0.1231456 0.12742798 0.13695024 0.12802225 -0.039451398 0.12806867 0.119168706 -0.038631156 -0.0550807 -0.051879197 -0.046630252 0.11817857 0.12472287 -0.04093718 0.12163447 0.119944856 0.11517678 0.11680074 -0.034060884 -0.04670754 -0.03792543 0.12612632 0.12409546 0.13456999 0.11056013 0.12565784 0.12869635 0.121788666 0.14044596 0.12174763 0.13156617 0.1344302 0.12710643 -0.043838084 0.12751779 0.12649782 0.12744081 -0.03602956 -0.041100606 -0.0570491 0.12733626 -0.04179648 -0.051636137 0.12384313 -0.04412543 0.12826276 0.12280921 -0.04548347 0.12426891 0.13058442 0.112551 -0.03005565 0.11157334 0.12172086 -0.049012955 0.1294138 -0.033057675 -0.031618547
doc_39 -0.0026363698 -0.00020655384 0.09368722 -0.0028706202 -0.0017887724 0.08770811 0.0084536 0.08742922 -0.011488536 0.08614841 0.08957157 0.09242739 0.0944158 0.092867315 0.09257097 0.099799484 -0.0029604526 -0.02961674 -0.013700354 0.088177465 -0.026594555 0.08749836 0.003794544 0.08920491 -0.018072773 -0.015873672 -0.03455054 0.09570553 -0.0025305273 -0.010038302 0.0858071 0.09119132 0.0916988 -0.021340568 0.08720828 0.093766086 0.091685064 0.08949062 -0.000865276 -0.03627196 0.08223609 -0.0060205865 -0.026953042 -0.016936254 0.08682454 0.020023003 -0.0050805034 0.101162314 -0.01650473 -0.03098985 0.088484704 -0.037864666 -0.034889054 0.09193463 0.09220247 0.09879737 -0.027063224 -0.0067413934 0.084602155 -0.020158965 0.09021869 -0.010038582 0.08613122 -0.022569532 0.08744514 0.09526977 0.090648726 0.090163484 0.11762001 -0.014136262 0.082565315 0.093188584 -0.016880518 -0.037104543 0.012227646 0.010698273 -0.002753079 -0.0067291576 0.004579588 -0.008068917 0.081038475 0.08872832 -0.023933366 -0.007855052 -0.0045651896 0.08982426 -0.02804403 0.090982385 -0.010484164 0.1264051 0.0040590037 0.0061409567 -0.015708413 -0.033422492 0.08891485 0.08849008 -0.0155157065 0.08741956 -0.007862577 0.09233853 -0.011504386 -0.0014321313 -0.03401693 0.09140189 -0.008193651 0.0840748 0.08536722 -0.02156977 0.08404596 0.084069245 -0.029518517 -0.0145673705 0.08893854 -0.01644503 -0.040852863 0.09411448 -0.00095974177 0.09019528 -0.024679972 -0.0024250094 0.09083631 0.09044337 0.09452871 -0.034493946 0.08608406 0.0940005 0.09124734 -0.04220017 0.09117017 0.0034087165 0.09504078 -0.006891102 -0.012503071 0.0013114938 0.09043248 -0.008686607 -0.0037834614 -0.016056694 0.09455786 0.091643535 0.08389455 -0.004860074 0.089363486 0.089764096 0.08175283 0.083346255 -0.017556591 0.08759326 0.08781831 -0.027355295 0.0010283055 -0.006299623 -0.038380377 0.090259165 0.08595554 -0.017084347 0.09291537 0.07984601 0.08843978 0.1192468 0.0029730797 -0.012753372 -0.027235072 0.08870766 0.09364354 0.09584443 0.086097606 0.0847145 0.101154 0.09111822 0.08944339 0.09312888 0.084165715 0.094232395 0.0915466 0.0002144404 0.090435684 0.0924546 0.096206956 -0.014957391 -0.009422321 0.012697838 0.09651199 -0.038393117 0.0014888084 0.08696417 0.0051124045 0.09386508 0.08754577 -0.019483574 0.08984401 0.08900554 0.087305196 -0.033815343 0.084386766 0.08630115 0.010240217 0.094564565 -0.0033690154 -0.030359184
doc_40 0.01090705 0.052121755 0.061215706 0.01455462 0.097345814 0.07101862 0.12270344 0.072389945 0.04688621 0.06524835 0.07740765 0.073081225 0.044426892 0.08645189 0.07560024 0.100298084 0.03350417 -0.009686908 0.01013836 0.09933117 0.012213575 0.07695586 0.016421769 0.052109413 0.039868344 0.044700243 -0.06316859 0.08572936 0.037613805 0.06381695 0.0783864 0.085777596 0.06594049 0.04990903 0.09567201 0.048967812 0.072447464 0.062819965 0.045380745 -0.07593238 0.075251184 0.03178128 -0.052214213 0.042315956 0.095807634 0.07665839 0.04677327 0.058561407 0.008466782 0.044854876 0.08226391 -0.07761351 -0.063987605 0.07542241 0.07402487 0.04948001 -0.038730398 0.07414273 0.08954105 0.03096641 0.07715817 0.03998011 0.066227086 0.037232 0.07782987 0.095626384 0.06404318 0.07982749 0.1886307 0.031273853 0.03789241 0.098006666 0.030452982 -0.07615414 0.02134328 0.10681234 -0.004003604 0.0416349 0.05993428 0.03286831 0.04631772 0.077890724 0.020084279 -0.006924046 0.074915364 0.05915249 -0.07539135 0.08558358 0.030693414 0.09996082 0.04251054 0.005549389 0.04220041 -0.075650334 0.07545834 0.07963144 0.01643454 0.0832436 0.022865497 0.097699 0.06556862 0.061759852 -0.066574745 0.068899915 0.059596777 0.099617206 0.051890016 0.031742264 0.03698142 0.07722106 0.0429295 0.028891461 0.099701814 0.04005285 -0.06809933 0.08669663 0.07174633 0.03478276 -0.046541058 0.034277964 0.054665547 0.04824624 0.0575118 -0.084821254 0.083845496 0.085749075 0.043685183 -0.09024032 0.097401515 0.042414684 0.07736271 0.018157627 0.04711788 0.029943366 0.09328516 0.027903827 0.0027742598 0.044372987 0.09366213 0.10540019 0.036279216 0.058660068 0.052917186 0.037133045 0.05739776 0.076184876 0.059728485 0.050995868 0.08728552 -0.0905443 0.063230835 0.040827557 -0.061407942 0.07846262 0.083896495 0.044667352 0.07619844 0.050225794 0.05018676 0.09295855 0.033454146 0.052787784 -0.06602109 0.08756373 0.08515562 0.1656192 0.03996193 0.031256203 0.061393473 0.09358825 0.077013865 0.06507592 0.034655612 0.10372796 0.070315704 0.0066832053 0.0622514 0.088924006 0.04779149 0.011283465 0.06926795 0.05960419 0.079390086 -0.081859484 0.030270945 0.08081377 0.059707876 0.043355774 0.095205486 0.052096955 0.06734291 0.072686814 0.08736959 -0.07055141 0.07859371 0.06385734 0.033618875 0.05504057 0.066746004 -0.06766763
doc_41 -0.07567894 -0.093451664 0.19249432 -0.060383134 -0.045088697 0.15933292 -0.03817266 0.14728941 -0.06999241 0.19202921 0.2058332 0.16424817 0.20100012 0.1565212 0.18534665 0.17239447 -0.062000204 -0.06207761 -0.058572646 0.17730927 -0.06688139 0.1791378 -0.06898341 0.16825293 -0.056587216 -0.05934017 -0.011611182 0.17440009 -0.06609457 -0.014186899 0.15844037 0.1780174 0.18241443 -0.08749051 0.15864635 0.17293735 0.17933826 0.19250467 -0.063674405 -0.043018404 0.18244573 -0.064719185 -0.027168699 -0.056021404 0.19631648 -0.0320184 0.022744562 0.18904702 -0.031211423 -0.07782819 0.17838866 -0.017247073 -0.06054016 0.16494627 0.1967872 0.18930277 -0.027497787 -0.026118534 0.16649729 -0.040984835 0.18728317 -0.03682912 0.1780565 -0.06671416 0.17142718 0.18086034 0.19356546 0.17095736 0.20200127 -0.0610148 0.19968525 0.16567959 -0.056986563 -0.07263673 -0.060442105 -0.025765043 -0.08361628 -0.0031188559 -0.05074728 -0.07185388 0.14444673 0.1825763 -0.073550396 0.036085866 -0.022468042 0.19293298 -0.020728612 0.19215699 -0.03186811 0.19825463 -0.041222364 -0.051495355 -0.029667282 -0.055572346 0.18041755 0.16181344 -0.06352167 0.19815859 -0.0824584 0.18224141 -0.033501007 -0.066933714 -0.051064286 0.18999106 -0.07639918 0.17821626 0.18463916 -0.05168033 0.21881765 0.19333138 -0.07992229 -0.0633844 0.17559756 -0.047359563 -0.050566074 0.19827874 -0.022613678 0.1762363 -0.035335526 -0.06964906 0.2016467 0.17291425 0.1504499 0.020035299 0.2105174 0.20056382 0.20351788 -0.05237218 0.19736998 -0.07991022 0.18625396 -0.042473845 -0.08626793 0.0065856534 0.19958913 -0.033601705 -0.024851318 -0.0530631 0.19761144 0.1655169 0.16708362 -0.04333876 0.16324766 0.18908554 0.1880112 0.20352519 -0.054648966 0.16864377 0.19875742 -0.045205276 -0.027019707 -0.06033344 -0.06170787 0.19131936 0.16543394 -0.055934403 0.19298886 0.1814763 0.21053776 0.17836708 -0.05997233 -0.06530905 -0.0022139475 0.20944257 0.15485378 0.11713444 0.18582824 0.15119368 0.19656856 0.18608919 0.1689713 0.15913337 0.16131723 0.16137886 0.19576375 -0.0540204 0.16716504 0.16153425 0.2092925 0.0025078207 -0.047262195 -0.03407078 0.19913456 -0.057502404 -0.0552045 0.1722252 -0.065359324 0.17347392 0.1730727 -0.07825938 0.18444559 0.18391687 0.17480162 -0.05423897 0.18793486 0.17807212 -0.04753446 0.18750452 0.02706447 -0.043671507
