doc_0 -0.016461508 0.06971636 0.1312452 0.12768665 0.1332779 0.18069693 0.3340515 0.19744506 -0.012817647 0.09672289 0.3064629 0.18861957 -0.05534923 0.04848577 0.11208951 0.20998505 -0.0889328 -0.032023743 0.08577963 -0.035877615 -0.036771245 -0.044315778 -0.03908644 -0.010111611 0.14518379 0.14029764 -0.016757896 0.27088973 0.082243 -0.04026807 -0.029745415 0.114330366 -0.040933736 0.31542644 -0.024328718 -0.058633145 -0.024702309 0.06580762 0.28442335 0.019021003 0.12459877 -0.059505463 0.032465484 0.19004263 0.12738326 -0.039215032 -0.08946661 -0.014539876 0.04424566 -0.08541615 0.074110314 0.14067765 0.10605769 0.15106814 -0.10658242 -0.10892926 0.36654758 0.34555006 0.33574566 0.04294705 0.042306654 0.009218298 -0.005260858 -0.02627632 0.08964444 0.009292899 -0.037613034 -0.013692127 -0.045308467 0.13299756 -0.028226333 -0.14519657 -0.036841955 0.2649971 0.11866552 -0.078434244 0.025360415 0.15046804 0.083442606 -0.087384716 0.005534521 -0.078787275 0.113491885 0.10749424 -0.0382185 0.020345211 -0.038279105 0.011252984 0.16776071 0.116061926 -0.01617266 0.022206817 0.123924755 0.37160394 0.06045026 -0.034536034 0.053926162 0.1859956 -0.004202193 0.15061077 0.018129984 -0.0022638612 0.019989494 0.13366504 0.08357982 -0.11886702 0.16498525 -0.119227566 0.13923995 -0.037869755 0.04408536 0.2154331 -0.0064301207 0.0151696 -0.072504185 -0.016411196 0.063215666 -0.022468418 0.08640057 -0.056818724 0.011833215 0.097017616 0.21917439 0.016284384 -0.15973513 0.06832419 0.034206446 0.27213305 0.027276095 0.24584188 0.29841098 0.014340692 -0.061033055 0.047816403 -0.000917536 0.104132965 0.11775682 0.20042126 -0.00447513 0.082479365 -0.021666348 0.008976614 0.16234587 -0.03961706 0.09140723 0.086897925 0.3539635 -0.011268142 -0.03832435 0.019031437 0.08304612 0.15709154 0.22899398 0.17704612 0.13871929 0.13555528 0.3289708 0.08666494 0.07963159 0.08465901 0.09689313 0.2578762 0.059542987 -0.0059368587 0.109439224 0.16510285 0.16410314 -0.0055991746 -0.06454122 0.09248979 -0.008325946 0.020144528 0.066984825 0.13499439 0.020658411 -0.007908631 -0.07933431 0.09909113 -0.05776346 0.07012689 -0.035557494 -0.01642116 0.16098835 0.061028868 -0.012865709 0.07508886 -0.0008756288 0.10224284 -0.047902554 0.033470318 0.009526475 -0.03849894 -0.106663264 0.027691063 0.12340845 -0.05328386 0.14063184 0.15960711 -0.0032937066 0.14445747
doc_1 0.14071733 -0.004636136 0.26319656 0.13753895 0.09188095 0.18872729 -0.0682576 -0.037607364 0.18865915 -0.024163056 0.06902419 0.025890032 0.13150863 0.16943243 -0.033891093 -0.05578447 0.12996164 -0.056064244 -0.020890173 0.23176958 -0.043089166 -0.037690703 -0.04239723 -0.054756645 0.002865834 0.26816466 0.101841345 -0.06854289 0.10262557 0.054236356 0.14384027 0.18643588 0.2193166 -0.015390905 0.11802204 0.0017014844 0.0016897604 0.07312439 -0.050629035 0.09492241 0.11098967 -0.023293674 0.17223126 0.2556132 0.18732347 -0.045302913 -0.04125436 0.23432001 -0.07046358 0.21592109 0.013211034 0.19563287 -0.027863802 0.18056707 -0.06327276 -0.051711757 -0.067445785 0.22161646 -0.093652345 0.030808125 -0.03949904 0.2426116 -0.0036839168 -0.031841394 -0.0367339 0.06289798 -0.035723872 0.20326294 0.1330881 0.1702138 0.13703951 -0.01935944 0.19898877 0.2510284 0.0030508973 -0.013403449 -0.08510685 0.22183114 0.1991546 0.307014 0.004009574 -0.046967383 0.04767854 -0.06528556 0.08994142 0.188602 0.023216056 -0.04464433 0.22317746 -0.058098167 -0.03299719 0.13065524 0.10236712 0.29209816 0.13913345 0.19420958 0.12336931 0.28212407 0.09056322 0.28104702 0.12452074 0.020890746 0.2441257 0.31528547 -0.037327427 -0.025966614 0.13510199 -0.05376667 0.20631771 -0.034471564 0.05953585 0.19969063 -0.003609675 -0.02143236 -0.063543566 0.21803902 0.09991357 -0.033214252 0.004944121 -0.02275762 -0.08630772 0.18965065 0.21537451 0.10358739 -0.022466881 -0.045646966 0.110079326 0.26575625 0.09148644 -0.035616957 0.3134481 0.024430783 -0.08768402 0.17662069 0.031251945 0.12938243 0.20473042 -0.039585687 0.23556666 0.12411504 0.18476537 0.048626073 0.13844393 -0.011375524 -0.0004959502 0.09309268 -0.033512585 0.20894456 -0.037042297 -0.02821394 -0.04661817 0.014320715 0.14307348 0.18511419 0.018200852 0.11771993 -0.04294327 0.12472113 0.043414034 0.13011737 0.15437296 0.18477345 -0.04732784 0.16679278 0.09752428 0.0030236174 0.004740333 0.028987015 0.28293648 0.21219231 0.1526296 -0.061182637 0.092871405 0.27958527 0.14135468 0.13282655 -0.02803085 0.20823677 -0.061812654 0.018967591 0.17922477 0.07116085 -0.06592281 0.272566 0.05741322 0.040009074 0.17728797 0.1721494 0.2053382 0.15169749 0.11263117 -0.022460226 0.029746352 0.18306743 -0.083851084 -0.036770906 -0.014189007 0.06452652 0.19623613 0.14162777
doc_2 0.27035943 0.24072394 -0.051486365 0.30205035 0.037400134 -0.05100254 0.119664475 -0.11301719 0.33665702 -0.067150325 -0.02382143 -0.11729334 0.12596437 0.04087827 0.42296118 0.21642622 0.19163507 0.31046873 -0.19625166 -0.09730653 0.21907452 0.31167924 -0.08159102 0.05776251 0.20750384 0.00028515607 0.20003882 0.29994214 0.24568687 0.4199937 0.02403484 0.23161213 0.21777274 -0.05260139 0.22938621 0.39284 0.25624412 0.23837495 -0.06910648 -0.09443503 0.04014154 0.3093251 -0.04504715 -0.14633222 0.03832213 -0.036820598 -0.008285191 0.28457022 -0.1611457 0.03008689 0.18541178 0.088216335 -0.012988195 0.31419283 0.112308726 -0.18697435 -0.080007866 -0.22105892 -0.21124934 0.07885137 -0.036188845 -0.040599167 -0.03554052 0.28611362 -0.035851613 0.16065958 -0.05429498 0.31610006 0.056286898 -0.06008283 0.3398131 -0.22651556 0.16055846 -0.042591613 0.20393232 -0.09085587 0.12004438 -0.054446094 0.43747926 0.043365717 0.30330324 0.23257987 0.29659408 0.33033758 0.1053192 -0.06722957 0.19158465 -0.083456144 0.20462343 0.17092767 0.40167746 -0.03574309 0.28952292 -0.07864971 0.061007764 0.23267236 0.22351284 0.17589822 0.04328654 -0.025505178 0.38369164 0.24570893 0.2790183 -0.04533849 0.14740571 0.06643982 0.20803966 -0.006132491 -0.07374093 -0.112877786 0.1964849 0.23437798 0.2566311 0.1459311 -0.009827895 0.23557436 0.20794442 -0.12638743 0.30059707 -0.025696484 -0.26481846 0.15638031 -0.04380107 0.17980376 -0.04659503 0.31600168 0.37255606 -0.17614259 0.20442174 0.12783127 -0.030219102 0.070397936 -0.2278637 -0.08769412 0.26641846 -0.057145342 -0.0031194333 -0.032646496 0.13914035 0.09142542 0.11370097 0.12650324 0.42033026 0.29866695 0.07178184 0.1788156 -0.15901044 -0.03483303 -0.045491353 0.19439656 0.20220804 -0.095278755 -0.024425363 0.16553245 0.12878777 0.07184005 -0.08867702 0.07575161 0.23936464 0.06270478 -0.05983405 -0.1318213 0.33065706 0.2200354 0.09495096 0.37587643 0.1657174 0.15733413 -0.10230228 0.11272754 0.21543926 0.07715353 0.31328455 -0.026075738 0.24626264 -0.025932569 -0.2686536 0.08760236 -0.19624959 0.19058931 0.026552917 0.064119756 0.22678736 0.27517328 0.15424134 0.16470757 0.38134626 -0.0014719851 0.39129806 0.0857296 0.14556344 -0.041484937 -0.0074219154 0.06622348 0.09848482 -0.0014933515 -0.06428396 0.2737176 0.14811678 0.055948265
doc_3 -0.053996984 -0.08558585 -0.033673305 -0.09000727 -0.10258323 -0.037716273 0.24963325 -0.077803686 -0.053288702 -0.011955082 -0.062624104 -0.090939775 0.17478348 -0.012397835 0.022323273 -0.08863582 0.21370415 0.19692881 -0.066421136 -0.07662003 0.23692356 0.22018047 -0.034059186 -0.0559856 -0.082981065 0.24955818 0.14600125 0.2143024 -0.03121086 -0.059427664 -0.10687462 0.02093186 -0.05554034 0.22051363 -0.05227742 0.25260258 -0.083787106 -0.09273829 0.23334041 0.018481422 -0.05578567 0.005119752 -0.09675581 0.01821125 -0.088241756 -0.039317988 0.24620555 -0.0069737635 -0.04495853 0.24021664 -0.006631538 -0.017363735 -0.088855565 -0.06507275 0.22502093 0.008778941 0.028209131 0.0016846666 -0.004108218 -0.0361264 0.05813958 0.1422334 0.009586805 -0.015906304 0.06749215 -0.0663092 -0.025169328 -0.038343433 -0.058133345 -0.105279125 -0.059866194 0.117352664 0.07038553 0.015391429 -0.064325854 0.22403076 -0.083924964 0.19287486 -0.033554435 0.27015585 0.069006555 0.028298518 -0.085484356 -0.063924104 -0.011784264 0.06369685 0.091224894 0.25695124 0.042184554 -0.067895345 0.19158196 0.08185257 -0.07956338 0.045378458 -0.07314297 -0.08286046 0.026438937 -0.04998303 -0.05010615 -0.009066644 -0.06536049 0.08759017 0.22156218 0.0059618056 -0.058315217 0.24794349 -0.056386918 0.25637752 -0.047921363 -0.024819396 0.04132974 -0.08106705 -0.011628808 0.26404107 0.20262921 -0.05757407 -0.09561269 -0.039427273 -0.050832056 0.17671667 -0.019578021 -0.060899097 -0.05804001 -0.056215864 0.23686823 -0.07611561 -0.03638238 -0.081506535 -0.05472255 -0.08079136 -0.043444052 0.05737518 -0.024113784 -0.03975437 0.10540433 -0.032677867 -0.013781341 0.077497184 -0.02770249 -0.028008621 0.012846131 -0.06932566 -0.05119129 0.25944433 -0.010459393 -0.05360985 -0.002136489 -0.0028049904 -0.036566198 -0.084710225 -0.10042897 -0.061790276 0.0026670252 -0.024727447 -0.034279045 -0.05011584 -0.042134494 -0.023512274 -0.0930538 -0.05345925 0.035013217 -0.08070557 -0.010188446 -0.09671272 -0.10383972 -0.08696509 -0.04590944 0.053408418 -0.0127905365 0.13248542 0.047517277 -0.047028307 -0.015404159 -0.0113954 -0.014930885 -0.07483703 -0.04793174 -0.05702568 0.25896263 -0.054002494 0.102003604 -0.09525724 -0.0728274 0.24184188 0.11768471 -0.07810892 0.054984093 -0.05636137 -0.053254478 -0.096951894 -0.086422145 0.24002405 0.2406776 -0.05153858 -0.08750682 -0.012153855 0.24989143 -0.0714478 0.053930696 -0.0772535
doc_4 -0.016105704 -0.03556349 -0.046995793 -0.015189356 -0.030875277 -0.04249548 0.272263 0.05520332 -0.06590712 0.092337914 0.03202394 0.046210747 0.020643797 -0.02986797 -0.012236211 -0.041100692 -0.011810756 -0.03756203 -0.05324559 -0.014535918 0.047576286 0.006959973 -0.028045349 -0.0281731 0.057538316 0.01977988 -0.007964854 0.09857157 0.019722315 -0.047411863 -0.041614324 -0.07008715 -0.026800249 0.2936177 -0.04285853 0.0720774 -0.054490857 -0.043137513 0.251754 0.013597255 -0.037742484 0.040996 0.0062920623 0.109107606 -0.0056080427 -0.038261868 0.075874396 -0.088900834 0.0030033616 0.00830327 -0.0006386684 0.034578376 0.005342217 -0.0012440693 0.0142919 -0.03337942 0.31729394 0.26293477 0.26991254 -0.0361401 -0.0467029 0.0077339876 0.13631035 -0.014227665 -0.056451283 -0.011497891 -0.03224802 -0.0017267107 -0.05008015 0.0034498493 -0.03201972 -0.06436039 -0.024912901 -0.10326389 0.0046829763 0.17757717 0.051045246 0.04683472 0.0014109191 0.12411072 -0.017546609 0.13209982 -0.030775487 -0.042102158 -0.04040353 -0.016167056 -0.032689746 0.17350383 -0.010470511 -0.045185477 0.021281503 0.020914344 0.018584926 0.30364048 -0.033616815 -0.013879859 -0.026875382 0.016478479 -0.039813086 0.11352281 -0.025237374 -0.026077805 0.017696846 0.12934877 -0.014959415 0.0692731 0.030446136 0.10691661 -0.019694168 -0.01918581 -0.020302739 -0.040533084 -0.03508474 0.16265139 -0.027331617 0.003019033 -0.021646546 0.090087004 -0.025096152 0.013771929 0.14113629 -0.0098100165 0.07175717 -0.031559285 0.026377106 -0.060407173 -0.024815256 0.092522904 0.016547874 0.10682452 -0.008497865 0.018883437 0.15845977 0.023279618 -0.03273676 -0.024894886 0.046116747 0.012658343 -0.09251409 -0.018268611 -0.038523 -0.039996542 0.06374544 0.078977436 -0.0073529095 -0.012430479 0.2473997 -0.04802912 -0.025165407 -0.028952003 -0.03983965 0.020150978 0.14818989 0.10101071 0.037907872 -0.0077010836 0.2056373 -0.004553292 -0.020896934 -0.02520255 -0.024529155 0.06714343 0.13799223 -0.049508784 -0.025810745 -0.02424881 0.04228344 -0.043968804 0.00044690166 0.063124225 -0.027205862 -0.059932485 0.0046243933 -0.06900989 -0.023229219 -0.029200098 -0.069669835 -0.0104525555 0.15501079 -0.014744101 -0.010272954 -0.019945234 -0.03699856 0.13247997 -0.000557539 -0.019650666 -0.007362191 -0.015699523 -0.027540319 -0.042020556 -0.07122164 0.088672 0.046137802 -0.045160428 -0.046480387 -0.031034809 0.0738152 0.06031553 -0.01226613 0.001572703
doc_5 0.02073915 0.1651204 -0.05398267 0.1361414 0.20958336 -0.059482317 0.261745 0.18772607 -0.0505983 -0.05273516 0.26664317 0.18412665 -0.07013835 0.11691916 -0.0430373 0.22942528 -0.057103746 -0.08243285 0.27842352 -0.100518055 -0.08012761 -0.040168606 -0.05172753 -0.05369633 0.12246639 0.25812986 0.029669942 0.25812098 0.0807771 -0.0619605 0.03640051 -0.08381845 -0.083980136 0.24883528 -0.071447596 -0.043193325 0.077990115 0.16124117 0.19936326 0.03637313 0.20190082 -0.01923834 0.030432994 0.21059856 0.14730869 -0.045630105 -0.009104028 -0.013953269 0.076183595 -0.04731869 0.118930034 0.090637706 0.15380634 0.18509057 -0.10103905 -0.036215894 -0.05454667 0.21071216 0.26196095 0.14508674 0.16566756 -0.050284784 -0.047388524 0.21886823 0.17148608 0.05779446 -0.05224321 -0.08349809 -0.07975552 0.16104451 -0.05544461 -0.09946405 -0.0870673 0.32729107 0.14037499 -0.094676346 -0.0685051 0.21594119 0.043994784 -0.04837847 0.08914577 -0.04019918 0.16247876 0.16093737 -0.04253594 0.14695452 -0.03379329 -0.07211839 0.16358143 0.26461914 -0.03696951 0.042782385 0.09679975 0.27217034 0.07756265 -0.08106336 0.14416724 -0.06684922 0.027259387 -0.03504412 -0.06479674 0.03505037 0.08889713 -0.067912035 0.10132363 -0.05849749 0.13206732 -0.031766675 0.19201075 -0.022255372 0.14146006 0.23791368 0.03978141 -0.055373475 -0.06853952 -0.007848951 0.14498031 -0.07700699 0.17097673 -0.069576226 -0.06560443 0.18086644 0.19471201 0.11563747 -0.059188835 0.20247346 -0.015702756 0.17256741 0.002927491 0.23083085 0.21786033 0.08122803 -0.08925917 0.071517594 0.08596486 -0.042091884 0.06733776 -0.040562615 -0.10501911 0.15569061 0.041851055 0.060023103 0.14195764 -0.027643 0.1583382 0.12854907 0.259952 -0.06180853 -0.022509623 0.06825789 0.16889834 0.15060537 0.1564293 -0.0532508 0.16988567 0.1596669 0.27306926 0.12247446 0.120880656 0.145599 0.21773627 0.21197912 -0.039321605 -0.0567161 0.20328155 0.19490029 0.18464479 0.08105277 -0.06934878 0.11912882 0.009686492 0.1605557 0.11737928 -0.11446685 0.044302564 0.07274405 -0.047769003 0.15383598 -0.076915294 0.16063832 -0.06692754 -0.02104458 0.21890685 0.09354558 0.021167161 0.14508751 -0.061591044 0.15591781 -0.031963922 0.13539575 0.04311256 0.13991833 -0.026709633 0.10159133 0.20001777 0.20481664 0.23656839 0.14706773 0.058573138 0.16844952
doc_6 0.17564577 0.18029769 0.039420143 0.05094357 0.17482883 -0.05631031 -0.0020931354 0.22690634 0.1102316 0.06096166 -0.024282387 0.14893486 0.2337352 0.10118391 -0.14417416 0.20942815 0.24016508 0.08414324 0.23109728 0.25815624 -0.07670559 0.1360315 -0.04704337 0.29551044 0.1565625 -0.0018515831 0.0864087 -0.06738923 0.07922229 -0.072880656 0.1913228 -0.011847848 0.25270593 0.22875138 0.14401515 -0.1272949 0.18572417 0.19444072 0.20266356 0.23050648 0.11784941 0.07113766 0.21476504 0.25586852 0.17990819 -0.033165738 -0.034164436 0.27084735 0.24305975 -0.009112619 0.13613443 -0.017054338 0.2083314 -0.0026614424 0.25515294 0.23124772 0.041483898 0.33630615 0.30959183 0.16758734 0.010302748 -0.013962856 -0.037081823 -0.027101351 -0.045854673 0.1693412 -0.035684202 0.07624069 0.20764221 0.12109037 0.14384724 0.2055988 0.23108312 -0.088488504 0.09985189 0.329382 0.25057697 0.22024041 -0.03842278 0.25888237 -0.018894734 0.26546767 0.022153266 0.14894016 0.18708158 0.191065 0.16849953 0.25036275 -0.03388404 0.19712612 -0.045463998 0.10890775 0.07276596 0.020250935 0.14717439 0.23466805 0.06853615 -0.06113585 0.18126184 0.13427502 -0.028937312 0.1021966 -0.03464706 0.19226718 0.14418101 -0.039603144 0.03637894 -0.0404698 0.111624464 -0.00635756 0.04594977 0.025833895 0.14897265 0.029484332 0.20941883 0.24224909 0.13705719 0.33118224 0.050821923 0.23537812 0.32170194 0.1445891 0.082440384 0.10965052 0.27891195 0.04441671 -0.053396612 0.29590768 0.1647687 0.25082088 -0.0037282174 0.18293825 0.22379056 0.23263064 0.065126695 -0.012302706 0.14587468 -0.07161889 -0.03659754 0.10650079 0.13150334 0.17037803 -0.022830542 -0.05314549 0.14899057 0.044226587 -0.009256421 0.041911036 -0.043014728 0.19506723 0.18264502 0.084809504 -0.003899537 -0.0061233924 0.12468272 0.10807361 0.013789708 -0.04198707 0.102231786 0.17566428 0.13993576 0.28024054 0.0013026702 0.18631724 0.1247998 0.0048877955 0.05214477 0.025493063 0.27530414 -0.0032863496 0.07936561 0.09409006 0.02132713 0.11941819 0.06573331 0.20324504 0.23365292 0.29264468 0.29577732 0.06831995 0.18467909 0.25947565 0.14694087 0.011515878 0.10961958 0.16789567 -0.03242465 0.1320997 -0.029700894 0.20820042 0.1799821 -0.044673346 -0.08974466 0.14011998 0.21951017 -0.038318947 -0.032936253 0.004861576 0.09083992 0.06594496
doc_7 -0.06917715 -0.085152484 -0.006993902 -0.07955336 -0.012404381 0.0058948603 0.40278754 0.09332124 -0.14898576 0.10966222 0.16409422 0.06889122 -0.06780202 -0.041831173 -0.1946449 -0.018214758 -0.12249983 -0.074236944 0.01550695 -0.033274435 -0.04039944 -0.10917606 -0.049212337 -0.10954765 0.034541875 0.1252814 -0.050202023 0.093295544 -0.03125904 -0.119240746 -0.09256079 -0.042589694 -0.12592024 0.45458114 -0.109751225 -0.070172474 -0.12883998 -0.0946186 0.42207897 -0.0079254825 -0.026271338 -0.07462956 -0.040138118 0.28170145 0.024497308 -0.05703802 -0.04627547 -0.18823002 -0.045163248 -0.054322593 -0.038889278 0.039267108 -0.0468747 -0.0221831 -0.13442452 -0.05403593 0.4331273 0.49778393 0.4721929 -0.083739504 -0.03984036 -0.0018007876 0.09500465 -0.038920224 -0.048401322 -0.0729465 -0.05006608 -0.0781985 -0.09994843 0.027575416 -0.09403383 -0.07643893 -0.078946054 0.0886537 -0.025641158 0.19370726 -0.015981821 0.22925167 -0.035600312 0.13447317 -0.04091767 -0.10059314 -0.068057895 -0.10765871 -0.10607028 -0.013855223 -0.07814326 0.0070758397 0.010240804 -0.06273357 -0.053896174 -0.028229956 -0.021529812 0.54488754 -0.07044225 -0.10032091 -0.05444683 -0.10614536 -0.077221826 0.0021990873 -0.07607622 -0.07110906 0.047404416 0.07857739 -0.05115354 -0.04768234 0.008902323 -0.016729435 0.005141564 -0.055773847 -0.04259638 -0.00516787 -0.0974049 0.04591364 -0.053453535 -0.08212747 -0.064397514 -0.06024387 -0.069020994 -0.07195642 -0.057909258 -0.015905669 0.14615735 -0.07512032 -0.13365991 -0.08725325 -0.13313127 0.27659956 -0.032834835 0.17490956 0.03860069 -0.03555046 0.0028974274 0.015219453 -0.061945498 -0.032787353 0.033249345 -0.13669613 -0.11616765 -0.03794411 -0.06597831 -0.0975979 0.03335565 -0.07039129 -0.014543192 -0.030850967 0.36658674 -0.060439125 -0.044178344 -0.078440025 -0.09954997 -0.0061682714 0.18470433 0.051663388 0.040807705 0.030271646 0.27673063 0.0013593251 -0.051561266 -0.044273853 -0.006895445 0.17980276 0.018775953 -0.09981959 -0.050988324 -0.05532355 0.028617254 -0.07371469 0.008088402 0.059923384 -0.07505022 -0.088222586 -0.036757614 -0.062111646 -0.07433647 -0.07953313 -0.15218782 0.056111325 -0.074056536 -0.038033318 -0.07665506 -0.11835606 -0.07459128 0.1462803 -0.065875694 -0.07323018 -0.0594737 -0.008450087 -0.10813673 -0.071792655 -0.11629683 0.016254682 -0.06844605 -0.07118667 -0.08638481 -0.04603185 0.11277691 0.031415723 -0.029457066 -0.0307955
doc_8 0.23968878 0.24045567 -0.048412673 0.22490369 0.091233596 -0.077307045 -0.083547756 -0.062368464 0.25046086 -0.031182997 0.16787031 -0.017924825 0.17463668 0.08962989 0.35999742 -0.014744513 0.31107298 0.17550065 -0.043678332 -0.06742403 0.15439352 0.30080175 -0.04673701 -0.022469163 0.13967137 -0.104292326 0.10620095 0.31264356 0.16997038 0.29872516 0.061702468 -0.074780986 0.29967096 -0.12728846 0.1529038 0.30317375 0.17415045 0.27614662 -0.09203447 -0.056843247 -0.032536402 0.25777608 0.023773514 -0.09491393 0.11560424 -0.0188246 -0.021384738 0.35664275 -0.042687416 -0.04195473 0.16796975 0.036357474 0.11236447 0.24467576 0.27936664 -0.007733569 -0.0022133954 -0.121679805 -0.11154063 0.14500487 -0.048901744 -0.06135538 -0.037951484 -0.03342803 -0.042904124 0.13124667 -0.010677944 0.31892943 -0.0061044497 -0.045627024 0.26297927 -0.021879457 0.27921188 -0.03612728 0.17940938 -0.1381722 0.08949148 -0.1175392 0.113177784 0.14762866 0.041284386 0.26161063 0.21509384 0.26760602 0.025402294 0.07774823 0.17885368 -0.0067767585 0.17441873 0.18366592 0.2630271 -0.025974652 0.15970455 -0.09799308 -0.036816537 0.28924614 0.18642084 0.2756282 -0.036850236 0.16053472 0.29296598 0.15140654 0.30686685 -0.030468218 0.15862668 -0.059898276 0.082942 -0.07648489 0.049278498 -0.044752624 0.048700817 -0.06194596 0.2249579 0.04693135 -0.035441667 0.35649654 0.21216373 -0.016029092 0.15841867 0.0472422 -0.008304226 0.1897423 -0.054811314 0.12606397 0.18687044 0.22740647 0.29028055 -0.09187004 0.13167685 0.27088124 0.14984891 0.11068167 -0.02403961 -0.05274064 0.15806033 0.10551343 -0.031774092 0.35224193 -0.094341934 0.110037126 0.002463415 0.09762657 0.1663667 0.0011169759 0.05693222 0.03348058 -0.05860987 -0.05695033 -0.022365006 0.1615867 0.20266035 -0.035598025 -0.04314345 -0.05662177 0.035751555 -0.0010938896 0.062091205 -0.036607336 0.12973218 0.052539263 -0.028257102 0.28285298 0.25662002 0.16399337 0.08443818 0.17637907 0.21380086 0.037583023 -0.0013005118 0.04090868 0.13739976 -0.03755399 0.24345817 -0.01414985 0.17003001 -0.0047449055 -0.06293664 0.32943308 -0.007848247 0.077870674 0.13655353 0.2785026 0.16834761 0.20521246 0.14711986 0.1132774 0.30567044 0.030936968 0.24851571 0.12432291 -0.001479136 0.17859738 -0.040696178 0.040671278 0.08924584 -0.03748239 -0.09595343 0.141357 0.14202468 0.027803283
doc_9 0.040537644 0.13592216 0.20084111 0.017264271 0.09545891 0.31881782 -0.027479291 0.2040534 0.20746264 0.3220233 -0.028193165 0.15587094 -0.0007126904 0.051611137 0.18787102 0.25481156 0.008384319 0.24689671 0.13422838 0.25009114 0.09214507 0.16599214 -0.034750868 0.2805137 0.14696063 -0.025800128 0.11647232 -0.028613377 0.102575466 0.25158238 0.15519653 0.30829316 -0.0071707545 -0.018809881 0.12248655 0.2697027 0.16630633 -0.029666303 -0.054870613 -0.05828907 0.1258915 0.009790863 0.104384325 -0.049167387 0.111469366 -0.049326975 -0.03247536 -0.0015157022 0.19919181 -0.037452772 0.02727275 0.10929849 0.09653018 -0.0039448985 -0.0025221314 -0.004367424 0.23567198 -0.054555364 -0.0016105026 0.06393373 0.23640534 0.27402794 -0.024887929 -0.037457414 0.26297992 0.11602582 -0.050635867 -0.011710244 0.20223919 0.18820353 0.11974985 -0.05873834 -0.049596984 0.0012788372 0.04892082 -0.0066719013 0.2350634 -0.023392484 0.24816802 -0.01876376 0.21329427 -0.0031458326 0.18569066 0.17644355 0.20526788 -0.0367216 0.066342935 0.007264549 -0.053489037 0.18387102 0.22046195 0.17142372 0.17823838 0.06444354 0.14990593 -0.016923724 -0.0035590893 -0.004583151 0.19824468 0.061120786 0.19091144 0.1257974 -0.034856036 0.11379133 0.123048544 -0.047085486 0.09618938 -0.04598079 -0.027811592 -0.016585376 0.15151134 0.19639032 0.081884995 0.042317018 0.24906084 0.016850134 0.04322947 0.0025158245 0.16473088 0.085227445 0.2458451 0.04477469 0.20616385 0.1445817 0.017724505 0.22291282 0.21654709 -0.0513157 0.1462101 -0.045771644 0.06955213 0.07810829 -0.028841756 0.10251165 0.1282696 0.07448131 0.08512599 0.24225235 0.2471852 0.07504635 0.17450778 0.14259213 0.20442298 0.32285362 0.086567044 0.17278315 -0.022213394 0.2393375 -0.045572866 0.15169895 0.16896015 0.19273776 0.11354761 0.28558528 0.16445588 0.16062956 -0.0103409765 0.28969553 0.18228662 0.05867461 0.045900006 -0.06332656 -0.02442806 0.20766884 0.1109052 0.22998697 0.04636618 0.17674723 -0.024559021 0.048541244 0.12483912 0.23694898 -0.0021312525 0.08631234 0.14957339 0.148442 -0.047492757 -0.050751697 0.05862309 0.20175633 -3.9819162e-05 -0.024418164 0.18552658 -0.058182098 0.04797096 0.1485815 0.006018843 0.11173101 0.19326173 0.09670192 0.22581327 0.017945062 0.25116733 0.09876485 0.18166147 -0.03130733 -0.06303625 0.17962788 -0.019316187 0.113524035
doc_10 0.12680003 0.11185488 0.03712194 0.1659031 0.12982851 0.07004373 0.23587863 0.094941035 0.030085798 -0.072843105 0.27578107 0.1195337 0.08524789 0.12687352 0.1954888 0.13234076 0.0935014 0.09134629 0.076569945 -0.018091787 0.20515373 0.082646266 -0.028573822 -0.12478175 0.123181246 0.0050759353 0.11571774 0.2576143 0.13944618 0.08596939 0.05170449 0.067297086 0.03339587 0.18845962 0.072866865 0.14811549 0.0859098 0.16171126 0.18894698 0.12142046 0.14810717 0.068931185 0.08601586 0.12413769 0.11427833 -0.03082603 0.16820353 0.04479324 0.037594195 0.15001278 0.13363436 0.11464515 0.11561306 0.1552508 0.11396772 -0.010802561 0.02200476 0.15830092 0.11366728 0.1200065 0.107921995 0.07045678 -0.029165456 -0.02610428 0.1652758 0.09884674 -0.015348434 0.12390935 0.049720135 0.087777674 0.08152245 -0.04559622 0.09043672 0.16237827 0.14628175 -0.08966135 0.002195137 0.15165423 0.09355602 0.14661527 0.112654634 0.013038776 0.13319415 0.1443212 0.06226868 0.1433105 0.11618412 -0.061020747 0.1961698 0.17690179 0.1247405 0.076117076 0.112072706 0.18460289 0.089256875 0.0714387 0.14372393 0.16943242 0.047100816 0.095286034 0.10693183 0.12226484 0.20248246 0.18065491 0.1361208 0.088650554 0.13189764 -0.030341655 0.15824513 -0.027427332 0.119399555 0.123437196 0.13307676 0.20902638 0.05359064 0.10275896 0.12431527 0.104397655 0.16226807 0.093323775 -0.112780966 0.15386422 0.11173988 0.111968994 0.15996994 0.14562492 0.08902437 0.12558481 0.08555326 0.18824364 0.11532981 0.12105265 -0.12334314 0.0764984 0.14581795 8.8990084e-05 0.109879464 0.11536721 -0.07641443 0.13144952 0.08968121 0.09795733 0.110194065 0.12673172 0.122432604 0.1257451 0.21861313 0.06247425 -0.026966032 0.072084635 0.12751701 0.116780736 0.14456016 -0.04507129 0.12335853 0.124070436 0.2337052 0.12339353 0.11447293 0.13185911 0.16081706 0.15723845 -0.020102367 0.021408964 0.13042866 0.14676487 0.1721832 0.10843223 0.108770534 0.15405734 0.116522595 0.11099024 0.1505333 0.1567595 0.10969512 0.07621547 -0.087520696 0.10469973 -0.029654821 0.1322219 0.06598888 0.03552352 0.16548984 0.2338608 0.13096787 0.122734025 0.14845777 0.110937156 0.08873186 0.101465836 0.01889188 0.096423835 0.12081225 0.09544553 0.12603498 -0.03300902 0.18536095 0.121041134 0.13496952 0.14930697
doc_11 0.21560526 0.20261656 0.05165703 0.1946332 0.05150093 -0.07985307 -0.061076388 -0.059015717 0.25986356 0.01012388 0.07350673 -0.015020987 0.17376605 0.090651155 0.38037068 -0.05342399 0.30002597 0.0830791 -0.10565105 0.0015831119 0.14271016 0.23896727 -0.042407308 -0.069806226 0.09870684 -0.01029993 0.080683954 0.25524366 0.13322859 0.22720173 0.098714195 0.11094659 0.32844833 -0.05834849 0.14460126 0.25921342 0.13036312 0.20357469 -0.060701955 -0.0180842 -0.0143826455 0.19662015 0.08477468 -0.012287549 0.100866616 -0.040895227 0.14180304 0.3628834 -0.055638704 0.009770706 0.121611245 0.04780189 0.04793697 0.227489 0.17631282 -0.03865985 0.018249935 -0.039156545 -0.12878938 0.09813967 -0.04639633 -0.02225867 -0.04467522 0.014006386 -0.041400053 0.11446746 -0.033957593 0.3098843 0.029118419 0.001515024 0.20245868 -0.03728569 0.2727481 0.07670104 0.13973695 -0.06294631 0.03777683 -0.023726966 0.19686927 0.19183753 0.037737086 0.2753753 0.15849563 0.23015279 0.011876761 0.090605944 0.13646394 -0.002905021 0.12691274 0.09670475 0.22515064 -0.035997767 0.101790994 -0.033293534 0.01999967 0.25664255 0.14961402 0.3687618 -0.027023304 0.22342762 0.2368206 0.08996226 0.2817847 0.020511419 0.08320911 0.047456834 0.09845784 -0.027489146 0.06856592 -0.04063795 0.013547147 -0.013229814 0.17582627 0.0419948 -0.036804277 0.35956308 0.18072271 -0.045757532 0.10894734 0.06684006 -0.018033233 0.16542979 -0.03146781 0.080582306 0.11790517 0.18030852 0.28553072 0.041166686 0.08598139 0.21367812 0.036305636 0.05598567 -0.043903515 -0.00095853186 0.11816011 0.18536401 0.0031886972 0.3409064 0.14281099 0.057848286 0.053780746 0.059851695 0.13408038 -0.006573306 -0.005925942 0.017336234 -0.052237235 0.0009868678 -0.041199997 0.08521849 0.1276394 -0.03978129 -0.010447202 0.07335429 -0.039539024 0.014804674 0.031772092 -0.04067431 0.067555554 0.061738987 -0.019263968 0.23705378 0.20780177 0.13784917 0.05851251 0.11997677 0.11040355 -0.010089003 0.115744606 0.03287911 0.09821511 -0.045680977 0.1874112 0.12825505 0.13063118 0.021172367 -0.040123325 0.328934 -0.054844283 0.02811991 0.124189034 0.21141496 0.05553548 0.209769 0.094477236 0.04183283 0.28178665 0.01538233 0.2009289 0.10067539 0.044901364 0.11901599 0.014041382 0.04429875 0.070348576 -0.04893444 -0.044906575 0.075315244 0.14256339 0.028012984
doc_12 -0.063198276 -0.095503226 0.022701975 -0.095693775 -0.10439582 -0.02234194 0.2566849 -0.083563335 -0.04778189 -0.004236304 -0.067946024 -0.10411686 0.16947293 -0.015002804 0.018052973 -0.09323808 0.22409372 0.20624678 -0.07859997 -0.070214815 0.24986005 0.21572766 -0.034278076 -0.057587214 -0.08709523 0.25721815 0.1495127 0.21115586 -0.040823523 -0.05148639 -0.10522644 0.060611986 -0.06253725 0.23574859 -0.046815388 0.26267344 -0.10009353 -0.103125304 0.23890656 0.015129373 -0.061711658 0.00037900824 -0.096064225 0.014155885 -0.097100146 -0.030628594 0.25249493 0.0002534939 -0.05565905 0.25402662 -0.017873503 -0.016267203 -0.09826271 -0.07816246 0.2224108 0.028694268 0.020401247 0.0013522804 -0.013903751 -0.040321276 0.06594353 0.14821431 0.009285033 -0.02266285 0.070861414 -0.06274065 -0.023049984 -0.040705174 -0.0571602 -0.10443677 -0.06196353 0.13382362 0.073490135 0.039769385 -0.06960952 0.23829588 -0.08236033 0.20845225 -0.039580986 0.2816462 0.062092684 -0.00787411 -0.09488372 -0.07759245 -0.014711516 0.06646926 0.09320729 0.2723189 0.039745662 -0.07307942 0.19336961 0.07649537 -0.084741265 0.036491834 -0.07230021 -0.073673755 0.017465169 -0.016994284 -0.045295835 0.013556373 -0.061872624 0.08923678 0.22036017 0.048619606 -0.05766277 0.260862 -0.061570197 0.27377617 -0.040927336 -0.028757177 0.043528154 -0.08122492 -0.023217542 0.27534065 0.21027827 -0.07316683 -0.0986011 -0.037089787 -0.053816743 0.18907018 -0.03969657 -0.06772518 -0.05904604 -0.055652015 0.25009125 -0.083094895 -0.047842987 -0.08369872 -0.059122432 -0.097806096 -0.042456083 0.048910342 -0.04350681 -0.043348685 0.10180044 -0.007916468 -0.017496793 0.07314332 -0.0025152853 -0.032816518 0.009697122 -0.07732713 -0.04999675 0.26867983 -0.008554392 -0.05526135 0.0016876091 0.008135195 -0.03548298 -0.0882519 -0.10839188 -0.067913316 -5.3792726e-05 -0.015096185 -0.040293723 -0.055492833 -0.05019535 -0.01938499 -0.09984809 -0.0572394 0.03619598 -0.09616836 -0.011507658 -0.09321171 -0.115572155 -0.10092642 -0.045512926 0.059613165 0.006745067 0.13136706 0.03857722 -0.054337665 -0.022799283 0.018705877 -0.022349399 -0.07148496 -0.04199934 -0.07687559 0.26704645 -0.059302386 0.10605623 -0.09837924 -0.07704905 0.2604013 0.115719326 -0.08140979 0.057993192 -0.059881072 -0.047644876 -0.100581825 -0.0933998 0.24962986 0.24779369 -0.05721128 -0.10774873 -0.013921493 0.26845276 -0.06667953 0.050410293 -0.08060689
doc_13 0.042220328 0.13072021 0.2058356 0.0028357636 0.10878642 0.26994067 -0.048602827 0.18169186 0.22204888 0.31596747 -0.033158045 0.15797684 0.00055779424 0.043862544 0.21472216 0.25097293 0.01036537 0.24436095 0.13506636 0.24993359 0.11548833 0.16116819 -0.03684837 0.27461505 0.12960003 -0.007556027 0.10480703 -0.04493717 0.08958732 0.2278605 0.1633963 0.26670012 -0.006087796 -0.026636317 0.14240924 0.24166663 0.17568418 -0.02109329 -0.05320607 -0.05135296 0.15194048 0.018925484 0.09715338 -0.044526827 0.12194553 -0.038239133 -0.028079297 0.007498837 0.1801255 -0.04347105 0.049613334 0.113955125 0.079705775 -0.003785457 -0.010955481 0.00026074424 0.28890273 -0.045949847 -0.025440138 0.052613422 0.24722257 0.29007795 -0.024425456 -0.047050167 0.2627857 0.12063122 -0.048451185 -0.004877295 0.21214268 0.16648933 0.109090656 -0.06509124 -0.04859771 0.0007997444 0.03163077 -0.0055572013 0.25746965 -0.05202833 0.26102775 -0.041440707 0.21724375 0.118098125 0.14814603 0.15910186 0.20368688 -0.012035964 0.060470432 -0.02511574 -0.071640484 0.15670547 0.21074747 0.17439443 0.19665287 0.026941525 0.16053766 -0.015918013 -0.010252889 -0.0016717195 0.20773621 0.045735262 0.20204093 0.11547975 -0.05035152 0.16196185 0.09915277 -0.0578705 0.11842696 -0.05211982 -0.03155626 -0.02642022 0.15326972 0.1916467 0.07065112 0.040500004 0.2253773 0.016380157 0.028115187 0.04785329 0.15843745 0.08361819 0.15320826 6.614579e-05 0.21101679 0.14798528 0.006062316 0.2018092 0.23068053 -0.031897366 0.15642606 -0.051760096 0.050963417 0.060127188 -0.052675657 0.1020641 0.12417696 0.05503208 0.081509985 0.2848365 0.23584108 0.07844566 0.18043776 0.14122492 0.20138858 0.3268083 0.09699458 0.19104658 -0.036907647 0.23407054 -0.056005616 0.1426363 0.14373559 0.22479677 0.102934584 0.29014477 0.1825797 0.15970722 -0.02726375 0.2659969 0.19277817 0.06895692 0.050404947 -0.06572355 -0.03053656 0.182666 0.12726839 0.20576358 0.04231903 0.19032292 -0.028661601 0.043696143 0.12792726 0.23183137 -0.008005826 0.017875195 0.14731783 0.1497958 -0.036401764 -0.025369909 0.051411316 0.19929615 0.005211796 -0.005487581 0.19424054 -0.033328053 0.05187785 0.1619945 -0.012286733 0.10671563 0.17689598 0.090192735 0.25273195 0.021451486 0.19440672 0.09408961 0.19743226 -0.042308226 -0.056188166 0.17381938 -0.029484488 0.10966875
doc_14 -0.057979863 -0.08007539 -0.029809019 -0.08884971 -0.099299416 -0.030947825 0.24487911 -0.080064714 -0.048252277 -0.008369951 -0.060347542 -0.09908009 0.17476477 -0.012138698 0.022301551 -0.08980526 0.21291566 0.19730845 -0.0709946 -0.076605156 0.23804273 0.2135592 -0.033554696 -0.051309444 -0.081645794 0.24271284 0.14138614 0.21192549 -0.03424097 -0.052824177 -0.1075148 0.027421169 -0.054418672 0.22944556 -0.046694722 0.24969333 -0.08650942 -0.08952981 0.23489851 0.023009427 -0.052499156 0.0058814073 -0.09841108 0.017540898 -0.09020745 -0.03662355 0.24879274 -0.008311614 -0.050710265 0.23277456 -0.006021377 -0.015886303 -0.08783396 -0.07315468 0.22304824 0.0045206365 0.02976911 0.003979399 0.0018408066 -0.041950632 0.056035317 0.14245759 0.012061892 -0.019227069 0.06259306 -0.0679521 -0.030462893 -0.030112315 -0.05754234 -0.10512321 -0.055125542 0.117563084 0.070932284 0.013216902 -0.062636025 0.23060554 -0.080563754 0.20095596 -0.031076811 0.2646176 0.068023436 0.0321139 -0.0895215 -0.061842512 -0.014382136 0.06712133 0.09079095 0.2609219 0.035648614 -0.06170086 0.19087401 0.077813335 -0.08854206 0.04579949 -0.06762265 -0.078146145 0.024358224 -0.050376683 -0.050835762 -0.01228662 -0.06034164 0.08712307 0.22215709 0.008175613 -0.060069527 0.24759786 -0.055139758 0.2528398 -0.043511298 -0.026637217 0.039676182 -0.07486936 -0.018063268 0.26522714 0.20510721 -0.062589645 -0.09406107 -0.04423283 -0.047007274 0.17474523 -0.02213735 -0.058022734 -0.05674894 -0.056754876 0.2384422 -0.073453695 -0.03971483 -0.08540667 -0.048862685 -0.08224857 -0.04632976 0.05786062 -0.018672535 -0.043890353 0.10496848 -0.035695106 -0.01422986 0.079080574 -0.019637046 -0.033174783 0.008115502 -0.0705074 -0.051663533 0.2601116 -0.013074873 -0.04728142 0.0014843429 0.00035344803 -0.0338381 -0.08023332 -0.105038635 -0.05916126 -0.004994809 -0.030479705 -0.038293682 -0.04701889 -0.04899634 -0.016858103 -0.095466025 -0.059791036 0.032790888 -0.086419106 -0.0152165685 -0.097004145 -0.11003025 -0.091587625 -0.04201037 0.055672828 -0.014513347 0.13043454 0.04028155 -0.04904143 -0.017343804 -0.014238038 -0.010532351 -0.07136437 -0.048194285 -0.052383907 0.26050258 -0.04994028 0.10384801 -0.08905209 -0.073003784 0.24757685 0.1166973 -0.07574318 0.057625912 -0.05596958 -0.04562778 -0.093926445 -0.085578695 0.23779973 0.24288304 -0.05213795 -0.090659425 -0.017263997 0.2555013 -0.07234066 0.051039256 -0.071295366
doc_15 0.09926073 0.13290304 -0.04685402 0.019351328 0.049450006 -0.027055541 -0.03850228 0.021741426 0.105805896 -0.023400016 0.026434138 0.023941297 0.073307425 0.005119335 0.23224057 0.07128052 0.1495809 0.050513934 0.0030604326 0.047884386 -0.029259488 0.1334212 -0.048549302 0.095850565 0.065294474 -0.05950585 0.0051329695 0.061240174 0.035941366 0.12304239 0.067750156 0.001739976 0.1470738 -0.005270265 0.052043237 0.14822042 0.09235742 0.06964853 0.003942158 0.017706513 0.0062120412 0.15856758 0.041294735 -0.0025951108 0.054874144 -0.0249593 -0.05970245 0.22393416 0.072892524 -0.058259513 0.05514335 0.0031732458 0.07148258 0.049757984 0.06390871 -0.011929044 0.0052059516 0.11385665 0.005979493 0.040161707 0.028580599 -0.007251781 -0.028275918 -0.029720956 0.04337094 0.073774904 -0.029256206 0.09822768 0.059687622 0.020486444 0.08186907 0.01276855 0.12724799 -0.09919203 0.03731239 0.016937915 0.13585939 0.011595792 0.122481555 0.070210345 0.049547445 0.27720553 0.07611383 0.13694452 0.059019048 -0.0043737306 0.06717608 -0.011688016 -0.015706442 0.083901346 0.10396182 -0.0034565742 0.032124933 0.004567772 0.019045878 0.096362025 0.023216179 0.14116429 0.029194012 0.037329234 0.089986175 0.032575093 0.071635626 -0.028860329 0.056303706 -0.015990991 0.031666934 -0.045952037 -0.015762523 -0.024620702 0.020818418 -0.0042934692 0.084810995 -0.086699896 0.026570074 0.16884296 0.055360086 -0.0119535895 0.04489526 0.04662041 0.08658098 0.05204551 -0.0025758466 0.024353929 0.07471394 0.08297796 0.14864466 0.085419156 0.06498576 0.12083849 -0.04877373 0.018272184 0.013201345 0.021898307 0.033896383 0.0034600308 -0.005274196 0.17919108 -0.010807804 0.010266886 0.019451298 0.06898055 0.072206214 0.07974199 0.009589514 0.020804325 -0.05807462 0.024800533 -0.032125443 0.061427843 0.09381167 0.0057265866 -0.023194939 0.040580872 0.03276198 0.017118977 -0.056491897 0.027317138 0.046504904 0.021543272 -0.034189805 0.15974087 0.003836788 0.091969974 0.019978322 0.06545917 0.024840435 0.0048108343 0.00027474837 -0.027506456 0.026905118 0.020210916 0.022546977 -0.050160445 0.03358395 0.06717117 0.009240118 0.22775424 -0.012202068 0.040408455 0.050282918 0.12395631 0.05121864 -0.06318005 0.018151535 0.05271861 0.053141154 0.01382798 0.07359881 0.05746363 0.051354736 -0.062262952 -0.011730279 0.012123795 0.09993095 -0.043906905 -0.07364255 0.014179769 0.0054245386 -0.016611874
doc_16 0.0022783955 0.17654005 -0.04566205 0.15948759 0.18007089 -0.058081046 0.2561129 0.21084456 -0.068471424 -0.050842945 0.27527732 0.1687087 -0.06799961 0.11796668 -0.05560077 0.25296414 -0.065665275 -0.07798322 0.23426165 -0.06498688 -0.052825015 -0.040095013 -0.049866393 -0.04389233 0.17933495 0.2407532 0.030118091 0.2664382 0.07055604 -0.038149145 0.00094016123 -0.07710557 -0.083624594 0.21752062 -0.061672166 -0.04195571 0.060974013 0.18280837 0.18284617 0.067447804 0.20961682 -0.031486064 -0.012598068 0.24011272 0.14234987 -0.023516517 -0.011864001 -0.0034459191 0.0965426 -0.05624615 0.12565728 0.092016816 0.13709949 0.19778524 -0.10581428 -0.039154686 -0.036625326 0.2192826 0.26179996 0.11015083 0.1485022 -0.078933865 -0.015642665 0.21853521 0.16894604 0.06410644 -0.056502238 -0.072767906 -0.07784385 0.15885767 -0.02858043 -0.09076579 -0.0978107 0.3472739 0.15022425 -0.08148015 -0.066454075 0.19603732 0.03210284 -0.030875139 0.08946952 -0.038331572 0.15760137 0.160469 -0.05767378 0.15993863 -0.04570336 -0.067995675 0.1677658 0.25455788 -0.054402895 0.06754209 0.12477172 0.2658305 0.07448339 -0.098499276 0.120443165 -0.07159869 0.03608519 -0.041302428 -0.051082972 0.032555275 0.08511922 -0.060142994 0.1201951 -0.044227883 0.13481772 -0.028580556 0.1718054 -0.04729131 0.13767074 0.23715554 0.043074954 -0.05797661 -0.07401927 -0.008697278 0.12164129 -0.0973881 0.14925891 -0.06572873 -0.07586733 0.1738622 0.17571008 0.11248816 -0.06861773 0.18708256 -0.047222883 0.19772725 0.017298145 0.21770057 0.17508785 0.062705725 -0.08458776 0.07036477 0.07991252 -0.06425468 0.0905419 -0.043773707 -0.11762555 0.14719668 0.049242076 0.07157349 0.12046675 -0.024626479 0.18493673 0.13685964 0.23370202 -0.07177152 -0.042831697 0.0831241 0.15962528 0.1435578 0.15052038 -0.06125264 0.15224175 0.1541628 0.23815824 0.13344826 0.096070565 0.1579481 0.17695613 0.19019902 -0.04559646 -0.05647292 0.17518224 0.19134158 0.18366571 0.087129235 -0.07464244 0.09677824 0.039971672 0.15601717 0.106159225 -0.09431047 0.07668402 0.059694335 -0.03544603 0.0980779 -0.07962187 0.18481062 -0.058059268 -0.062425673 0.2583236 0.13232082 0.021655805 0.15199235 -0.050542545 0.14522175 -0.07297267 0.115854375 0.1022298 0.027564097 -0.037360705 0.12259593 0.19178808 0.21598981 0.2734771 0.15242793 0.04936603 0.15281807
doc_17 0.088099755 0.2970887 -0.14626242 0.0083106905 0.33428028 0.010586616 0.1820297 0.3784091 -0.0058438443 -0.006392666 0.15815169 0.25304046 0.07668503 0.07174404 -0.2422954 0.46138355 0.053657617 -0.046076514 0.38296452 0.1763281 -0.20163453 0.012884436 -0.05964943 0.2670063 0.17951539 -0.043396637 -0.048046898 0.036555022 -0.0023171054 -0.15178156 0.12796867 -0.2034904 0.06411128 0.44595414 0.0006844776 -0.172599 0.09318047 0.24061424 0.430285 0.29979733 0.1944495 0.026275028 0.15677404 0.43637955 0.2246699 -0.05168915 -0.09874713 0.16002679 0.3129955 7.857138e-05 0.13649239 -0.03524886 0.31174335 0.0023471327 0.13791539 0.17019884 0.12598675 0.66767377 0.6371958 0.22460209 -0.040153418 -0.11668607 -0.018829249 -0.05028333 -0.12554625 0.14268973 -0.07708663 -0.069585055 0.118046865 0.13529043 0.04579056 0.30068782 0.060285382 -0.029807698 0.16151638 0.37889493 0.24973738 0.37764928 -0.12218646 -0.07336123 -0.07500208 0.050559923 0.033948295 0.2642673 0.09862043 0.14546742 0.056847543 0.11260131 -0.042835053 0.34031808 -0.12999745 0.015847346 0.003602947 0.34044683 0.10256146 0.049873024 0.060579382 -0.2401581 0.07239693 -0.00016097864 -0.09219625 0.012981522 -0.017616216 0.062287174 0.13116868 -0.15109324 0.06176452 -0.07627609 0.10072039 -0.064045444 -0.0065942314 0.13057373 0.09422469 -0.07867942 0.10929292 0.19009912 0.07372809 0.17668815 0.031141372 0.1446863 0.14638111 0.1836161 0.13528956 0.031969152 0.14055161 0.056954972 -0.12506883 0.5493162 0.072351396 0.45803982 -0.093661554 0.12000412 0.20202145 0.24590717 -0.011875992 -0.13126887 0.110857666 -0.22821853 -0.19428097 0.0853753 0.014885279 0.14017576 -0.067486785 -0.09741094 0.20234977 0.041104477 0.14024359 -0.12681827 -0.06786039 0.11388859 0.25566006 0.034434624 0.032441705 -0.09960882 0.16766164 0.1634154 0.19110471 -0.07705013 0.046142183 0.23968562 0.13909394 0.50629497 -0.2035826 0.08413215 0.15461367 -0.0016777974 0.119826704 -0.04149327 0.07227933 -0.050420653 0.0041534305 0.008382366 -0.028885452 -0.049467158 -0.004520922 0.22871314 0.32495987 0.5833423 0.12971775 0.03042791 0.09462418 0.24227892 0.26481247 -0.16403186 0.017565548 0.1792386 -0.12508465 0.13985696 -0.16397558 0.24121033 0.14588398 -0.14793493 -0.07390666 0.09131511 0.37290412 -0.06652678 -0.053145614 0.022184273 -0.0067558256 0.041738607
doc_18 0.014211257 0.1569913 -0.03145981 0.145675 0.2107036 0.01920882 0.2528372 0.2118222 -0.06392644 -0.06886664 0.28259894 0.17230262 -0.07180931 0.15208557 -0.040707577 0.24144375 -0.059342485 -0.07195894 0.24493454 -0.097013064 -0.06689934 -0.043425232 -0.046339184 -0.061321065 0.18228519 0.24836925 0.050108142 0.26092562 0.0664407 -0.03360508 0.034737997 -0.08431834 -0.091231495 0.23324023 -0.047105923 -0.05423365 0.07306949 0.16725206 0.17677936 0.06337231 0.19549257 -0.04052957 -0.002863066 0.24230212 0.20992874 -0.031141141 -0.022787126 -0.0030462067 0.08589868 -0.05246769 0.14054665 0.11151205 0.16431014 0.15908033 -0.096969396 -0.026714178 -0.035524815 0.24086164 0.24966292 0.1107098 0.16257797 -0.071030326 -0.033082567 0.3125 0.1393641 0.060902897 -0.05065442 -0.09367162 -0.064987026 0.16766319 -0.057484936 -0.07579355 -0.07703264 0.32823268 0.14658684 -0.07672253 -0.06736242 0.22402738 -0.028211555 -0.048942253 0.068168424 -0.038874928 0.16335881 0.1521726 -0.027655806 0.12646876 -0.04104135 -0.069102824 0.14262855 0.23263319 -0.036153458 0.07430759 0.10826685 0.29110923 0.084588535 -0.09367817 0.15420769 -0.06041853 0.03014298 -0.055981245 -0.047284495 0.06217184 0.11897778 -0.05599755 0.124365725 -0.035218164 0.1374475 -0.028554756 0.16406135 -0.024380602 0.11345114 0.24289949 0.036703523 -0.06060913 -0.03396098 -0.017219847 0.07608282 -0.085199386 0.1598422 -0.063801 -0.05497424 0.14340316 0.20990272 0.1174409 -0.048753634 0.2093241 -0.041547526 0.19476202 0.0010537787 0.24605075 0.27656844 0.06497015 -0.08635431 0.054882582 0.090596296 -0.056677546 0.08855729 -0.04762859 -0.09171378 0.15905683 0.017274456 0.0788822 0.14450832 -0.053569183 0.196213 0.13752703 0.27314204 -0.040318515 -0.028065348 0.07620146 0.1589547 0.12806682 0.17100546 -0.06665732 0.17292218 0.15676957 0.23589854 0.14458081 0.102986954 0.15349163 0.19399984 0.17087945 -0.029393697 -0.02814249 0.21228418 0.18445992 0.22347713 0.07543308 -0.056633517 0.13372077 0.0111961 0.116577886 0.08480088 -0.114868216 0.05021965 0.09501091 -0.04538048 0.059365857 -0.09489711 0.19005714 -0.05875431 -0.0555344 0.2429499 0.076114364 0.05175882 0.16936004 -0.055259768 0.13849567 -0.06592389 0.117235154 0.04154171 0.020190278 -0.032998253 0.11856288 0.22317493 0.2724981 0.26386547 0.14978354 0.045797028 0.17675616
doc_19 -0.009650679 -0.005414368 0.2203947 0.16087961 0.020225644 0.3009014 0.11407448 -0.014345622 0.12283051 0.21432672 0.23746806 -0.015495812 0.006632525 0.018752892 0.28718007 -0.01408221 -0.0019259993 0.19885091 0.026069663 0.051169626 -0.05082663 -0.027805813 -0.031566553 0.22275573 0.03300987 0.13652976 0.038863864 0.23136307 0.02207265 0.24534553 0.10744412 0.2736163 0.017566988 -0.07679953 0.16182092 -0.007926542 0.03946373 0.09385949 -0.05820051 0.032860674 -0.011394206 0.06995492 0.12336631 0.0070403717 -0.0025511184 -0.024835657 -0.102950774 0.066293605 0.0644128 0.19565532 -0.01746708 -0.00012622122 0.09771959 -0.0050398214 0.19460371 0.2599683 0.13617636 0.00058239605 -0.08746901 0.032441635 0.045688245 0.15107436 -0.024120897 -0.03105077 0.2159741 0.028410932 0.20330817 0.15121457 0.016828988 0.014635334 0.1445516 -0.07694565 0.023905395 0.19423804 0.0024801304 -0.09805095 -0.0030337286 -0.013579162 0.16579992 0.08412038 -0.0012113962 0.11903411 0.0440664 0.05058414 0.020258527 -0.0022387845 0.011154091 0.28837377 0.129128 -0.012945692 0.095922634 0.06006588 0.07216523 0.036859885 0.04990298 0.18289131 0.0014860271 0.27926838 0.09909148 0.30150473 0.1513673 0.029908616 0.031655554 0.28395528 0.0670555 -0.09635308 0.0167952 -0.08772138 0.105537824 -0.030625036 0.04334711 0.040985763 0.017657587 -0.12500681 0.18002579 0.005658876 0.08619049 0.30713436 0.100113496 -0.049110755 0.3018905 -0.0030335025 -0.009621227 0.08385771 0.21342896 0.078784175 0.25083405 -0.012143899 0.03642993 -0.06461755 0.05175519 0.028536871 0.20999214 -0.009387421 0.053900555 0.24687715 0.037768867 0.10423974 0.269891 0.008308439 0.00541384 0.06670332 0.0036536357 0.013564384 0.014334715 0.002536125 0.1868442 0.12955554 0.10340991 0.13875812 0.10119717 0.1943548 0.14422275 0.27487078 -0.0063226465 -0.007349333 0.2400576 0.009089765 0.1279404 -0.0046846387 0.071313575 0.08405171 0.2494949 0.0536425 0.08658037 0.08962298 0.13035223 0.09393011 0.27963826 -0.005210801 0.03252516 0.15860757 0.0895304 0.2794855 0.08243038 0.003850909 0.095543444 0.008781896 0.32419333 0.13926697 0.008723214 0.19775556 0.0842406 -0.047710337 0.043425053 0.033609573 0.021947205 -0.0016726381 0.22641526 -0.006007661 0.014555008 -0.0925698 -0.09343616 0.049487572 -0.022948418 -0.037356276 -0.10613566 0.1415256 0.059243843 0.1565954
doc_20 0.026044339 0.08607201 0.018676942 -0.020588774 0.025042882 0.14279148 -0.07526337 0.06832162 0.121022664 0.14740399 -0.08486165 0.05894252 0.04244641 0.007529762 0.23060016 0.1290659 0.1008921 0.121889085 -0.07662482 0.0940606 0.10271025 0.16243832 -0.027602077 0.1442544 0.047229417 0.02145457 0.030871656 0.03299231 0.022714768 0.16785495 0.05280015 0.1252713 0.027608648 -0.021984924 0.06304408 0.23067527 0.099726394 -0.006360166 -0.00901217 -0.034105238 0.051652826 0.0847439 0.0019447004 -0.028089166 0.03226117 -0.040534534 0.04676908 0.06461466 0.081396125 -0.0011570738 0.020230206 0.019697346 0.021343866 0.0023147485 0.043852586 -0.097162396 -0.02108094 -0.111466564 -0.114838704 0.030593064 0.10986331 0.110373564 -0.028389154 -0.022975324 0.1372158 0.0634777 -0.039389066 0.038130753 0.081037186 0.07574282 0.050934248 -0.100964375 0.031726923 -0.025517365 0.0024031862 0.007462362 0.124870405 -0.0007105344 0.153228 0.03832753 0.13226652 0.20507734 0.099610865 0.13957454 0.10198461 -0.02306429 0.058627013 -0.04594449 -0.031434268 0.090532444 0.1608674 0.062822014 0.07636804 -0.05515143 0.06425833 -0.03502734 0.0017611859 0.0015675661 0.10181813 -0.022290632 0.09792635 0.06037605 0.14527892 0.016275948 0.053300448 -0.017251162 0.04546503 -0.022079183 -0.03440319 -0.033502754 0.07663905 0.09374356 0.07906647 -0.045313578 0.13917322 0.04623833 0.006528884 -0.070729606 0.080959566 0.057417803 -0.00021076645 0.0010816699 0.078294635 0.055841368 0.04713912 0.12539205 0.18832506 -0.04324197 0.05465976 -0.0287226 0.005010583 0.009310309 -0.13678068 0.025675816 0.06818766 -0.015286851 0.009773371 0.23554449 0.13114981 0.019432208 0.06871425 0.051629055 0.109289855 0.19453451 0.021506105 0.092381895 -0.11590061 0.10426434 -0.03370894 0.058346666 0.07806996 0.08561386 0.03298983 0.16427056 0.08075356 0.07195846 -0.08309068 0.14650908 0.081306346 0.006560676 -0.014164034 -0.048648473 -0.01862284 0.081983805 0.031578567 0.12329956 -0.009825584 0.08294765 -0.076610535 0.00034974376 0.051881507 0.11765183 -0.0065027326 -0.008198032 0.058474723 0.065253325 -0.091547534 0.062440313 -0.04516816 0.08659849 -0.008904219 -0.049390215 0.07756388 0.045102127 0.045010857 0.06823863 0.044955015 0.017850421 0.08692566 0.024667662 0.10381144 0.02631985 0.09071125 0.031816863 0.11001298 -0.036184244 0.003441688 0.056287408 -0.017329447 0.01711094
doc_21 0.022880584 0.17680672 -0.059650723 0.16577633 0.20592518 -0.056560613 0.28608212 0.21028794 -0.05438659 -0.040881306 0.27524906 0.17533629 -0.06371525 0.13821559 -0.04243002 0.24668236 -0.06372234 -0.06805753 0.2316196 -0.09667102 -0.084006436 -0.058614865 -0.032850638 -0.060663678 0.18507694 0.24436532 0.041571576 0.27537674 0.084794186 -0.034691665 0.0074436627 -0.09643763 -0.08919439 0.22430758 -0.06068288 -0.03814376 0.055041783 0.15391092 0.23046464 0.04218766 0.18711978 -0.04583852 -0.012541117 0.24225388 0.14700858 -0.05228103 -0.011621802 -0.019418411 0.08696136 -0.044305928 0.10307498 0.103129804 0.135391 0.15302745 -0.10944827 -0.04014357 -0.05669679 0.22504173 0.26522627 0.1163695 0.15165247 -0.057649635 -0.020928826 0.29413962 0.17357692 0.043937165 -0.035141945 -0.074882105 -0.0777308 0.17818525 -0.023600888 -0.085253924 -0.08103983 0.28690884 0.17595601 -0.07064846 -0.03630131 0.24249826 0.01833322 -0.041315384 0.07085507 -0.04278872 0.1575372 0.1625894 -0.052872762 0.15922038 -0.00835916 -0.046947226 0.13635488 0.24192737 -0.03633136 0.027414901 0.088437945 0.25021726 0.09750043 -0.1056206 0.11795856 -0.054535512 0.069720924 -0.02937301 0.044900607 0.049166203 0.0955422 -0.053868733 0.09480569 -0.03633753 0.12985276 -0.03803859 0.19877921 -0.04446268 0.14378971 0.2568299 0.04461095 -0.050971467 -0.07079221 -0.022151716 0.15497988 -0.09281804 0.14747725 -0.073736705 -0.069699466 0.14983456 0.20367138 0.10316429 -0.044478644 0.1734053 -0.03161782 0.16569869 0.035752956 0.21336976 0.20257334 0.056908026 -0.09882616 0.08924827 0.06090423 -0.06298177 0.08712807 -0.06784675 -0.091472186 0.13558286 0.026728475 0.08058716 0.14456318 -0.056880552 0.16383134 0.12918021 0.26809394 -0.05229346 -0.031548895 0.084050946 0.17112604 0.14916426 0.17311098 -0.081694305 0.14787857 0.1564786 0.232594 0.14052247 0.10124963 0.14610195 0.20662393 0.18758804 -0.03544883 -0.051781077 0.1759801 0.17097402 0.20440128 0.05035917 -0.07933873 0.10433369 0.031603877 0.11740522 0.10960461 -0.11367623 0.06888836 0.09481883 -0.068006635 0.15393497 -0.08091198 0.18008536 -0.06449038 -0.06199143 0.22366922 0.1237992 0.066040486 0.13295895 -0.0415845 0.15460218 -0.037182193 0.13139655 0.0844895 0.012452551 -0.025191152 0.12206991 0.20718965 0.22120485 0.26356372 0.13138531 0.04243854 0.18891707
doc_22 0.2554794 0.3032205 0.16429165 0.12437078 0.27315158 0.18629354 0.099083856 0.34035385 0.17715837 0.15004858 0.13999188 0.26253673 0.25435868 0.1962764 0.0073587326 0.3559824 0.27227104 0.121910855 0.31122136 0.35381758 0.00381618 0.18212463 -0.05547051 0.4102099 0.20738792 0.18010125 0.10138834 0.075014316 0.13283268 0.033108916 0.29903054 0.06590196 0.35171652 0.24636361 0.14210889 0.057332616 0.22810714 0.26166135 0.2300818 0.30466622 0.18961166 0.25741285 0.2816791 0.33707237 0.29284978 -0.050887108 0.038225435 0.3479675 0.32167172 0.06736558 0.19278851 0.07575798 0.2956006 0.109117046 0.26826513 0.22396146 0.15693751 0.40394768 0.4305216 0.23932526 0.06780895 0.043602686 -0.02762779 -0.048393674 -0.026345067 0.24338432 -0.08456951 0.14038403 0.27248612 0.23578617 0.2170862 0.25783828 0.2543913 0.12606828 0.18890877 0.3114353 0.33631083 0.29501224 0.093874365 0.23509505 0.047465295 0.22862144 0.1636821 0.26429468 0.2119 0.2406999 0.18683226 0.25431004 0.08591084 0.2825183 0.015823852 0.13863143 0.14991559 0.23705225 0.22573058 0.27429378 0.14826567 0.05997212 0.2017431 0.24582689 0.039422616 0.14716817 0.06545779 0.3054722 0.23427317 0.14801228 0.13077208 0.018409047 0.21480635 -0.042524844 0.11988224 0.21383652 0.20590316 0.08463421 0.20502436 0.34334862 0.20290358 0.3648657 0.14804156 0.2636962 0.31131828 0.20473531 0.17660229 0.17415743 0.2692641 0.16068909 0.052718874 0.35841164 0.20067729 0.3450176 0.08751483 0.19997565 0.34301198 0.29457688 0.084022954 -0.054151297 0.17422803 0.09648972 0.13965599 0.14930345 0.14117981 0.2309884 0.04492447 0.10834442 0.22578627 0.1377679 0.15570843 0.08578367 -0.03706872 0.25381923 0.28463462 0.12797034 0.10998109 0.0617175 0.22618723 0.20135058 0.11274205 0.04045762 0.18988672 0.24264435 0.2075021 0.32791182 -0.07967906 0.24884126 0.23352948 0.12508202 0.1470375 0.07195125 0.30563414 0.07027506 0.13003893 0.15919217 0.094364524 0.25402808 0.14630798 0.27713516 0.4141711 0.3830788 0.3035233 0.15756917 0.22441766 0.33650705 0.2455629 0.10291794 0.12196734 0.24130899 0.0529415 0.20014894 0.046966877 0.30622607 0.2860417 0.09031361 0.17562199 0.21292706 0.32367498 -0.045650166 0.16652077 0.14312878 0.13354874 0.14000612
doc_23 -0.06137149 -0.08498576 -0.01641185 -0.09779278 -0.115013644 -0.035743542 0.26239315 -0.090747654 -0.054624926 -0.014727235 -0.06562602 -0.10352682 0.184151 -0.018199606 0.026598606 -0.09633863 0.23461446 0.21008031 -0.07643684 -0.078578964 0.24511985 0.23159656 -0.032761328 -0.0569641 -0.0886897 0.26026782 0.14880104 0.22731203 -0.03927386 -0.06478966 -0.11197964 0.043057792 -0.06378695 0.23194239 -0.046678536 0.26504147 -0.0951728 -0.104907624 0.24216567 0.024390914 -0.057064068 0.0037034368 -0.100452736 0.021521643 -0.103894085 -0.035123624 0.25856024 -0.004789536 -0.04635844 0.25243142 -0.013858843 -0.01442915 -0.10314434 -0.07365133 0.22972806 0.014220888 0.026678255 0.0032087732 -0.0014779912 -0.044807468 0.059131783 0.14690542 0.01268295 -0.020514412 0.0689564 -0.06811811 -0.02954474 -0.033371706 -0.053569116 -0.117274255 -0.05967397 0.1337237 0.0676622 0.028904874 -0.069198884 0.24315323 -0.088979095 0.20891118 -0.04032091 0.2785517 0.07400932 0.016614737 -0.097313 -0.07636645 -0.015586286 0.06669446 0.100943506 0.26876014 0.037631534 -0.07486075 0.20342669 0.083887145 -0.093220115 0.053530637 -0.078871235 -0.08817266 0.024024937 -0.0488246 -0.047369696 0.005498918 -0.061641343 0.08860762 0.22810087 0.016896173 -0.062259823 0.26056683 -0.061779812 0.2688801 -0.04260988 -0.028197778 0.04931625 -0.07922089 -0.018250436 0.28154138 0.20900802 -0.071549654 -0.1048578 -0.05264227 -0.053536467 0.19269265 -0.026125994 -0.060237203 -0.063716896 -0.062211297 0.24990594 -0.08110924 -0.04399556 -0.08593812 -0.053035714 -0.09382675 -0.03959962 0.05753936 -0.018787667 -0.043638643 0.107430816 -0.029603854 -0.021703504 0.07849716 -0.022856679 -0.034239538 0.008712229 -0.07097338 -0.060234208 0.27240026 -0.0032120154 -0.049829267 0.002466896 0.008455668 -0.040063832 -0.08685471 -0.10871957 -0.06725301 -5.016895e-05 -0.027149573 -0.03884854 -0.05379845 -0.048918743 -0.020991527 -0.10099404 -0.059859037 0.03267458 -0.089829944 -0.015629753 -0.10294636 -0.11634437 -0.0974736 -0.046239365 0.059850477 -0.010570733 0.13770936 0.041602574 -0.04873678 -0.023266926 -0.011077698 -0.01722936 -0.074688084 -0.049971916 -0.06482185 0.27328062 -0.05431039 0.10671541 -0.097418725 -0.08007444 0.26105386 0.12528817 -0.078757465 0.06308244 -0.05231925 -0.05649712 -0.1021975 -0.0956772 0.25203714 0.25072777 -0.059425604 -0.098055564 -0.016456868 0.26800823 -0.07624634 0.06125731 -0.08013366
doc_24 0.32964218 0.29980862 -0.08712105 0.31421298 0.13407002 -0.031372227 -0.17090252 -0.05827147 0.33809075 -0.03280495 0.051083177 0.087042555 0.26280612 0.16818996 0.40278324 0.015996225 0.38488004 0.34623617 -0.08992944 -0.06274243 0.34966746 0.3335174 -0.03987865 -0.06871071 0.272533 -0.0073067816 0.2167972 0.42539597 0.33250177 0.43963584 0.16852206 -0.060442455 0.41032243 -0.11802502 0.24243213 0.3752333 0.29378027 0.32941738 -0.04832952 -0.04610504 0.048813228 0.475556 0.10891452 -0.06868425 0.16774179 -0.034253825 0.27352247 0.44779643 -0.086156204 -0.06370379 0.321393 0.12713307 0.18963416 0.33318868 0.30216336 -0.05552685 -0.031145176 -0.094957836 -0.2988668 0.26314202 -0.011676312 -0.046014287 -0.03380979 -0.03996585 0.007235335 0.20712474 -0.04966219 0.49087816 0.037967864 -0.030276718 0.31754917 -0.08559964 0.395893 -0.02158472 0.30363572 -0.30226216 0.19599988 -0.0588768 0.32133916 0.03344735 0.22083722 0.29981786 0.34685025 0.3802695 0.07791767 0.11536243 0.27476588 -0.01185504 0.30098993 0.33635524 0.4227326 0.02833147 0.30554852 -0.23094259 0.10083731 0.34362513 0.2671933 0.34448722 -0.013384193 0.14422604 0.40226522 0.25557277 0.3969265 -0.05526642 0.286786 -0.016288228 0.21292771 -0.042778514 0.14020413 -0.029547948 0.16878365 -0.05134223 0.26726338 -0.006323249 -0.04909885 0.39809844 0.33654386 -0.07663802 0.30824488 0.13460492 -0.15038618 0.2842286 -0.017369958 0.1880851 0.18410495 0.39083332 0.46259782 -0.068554625 0.22192968 0.3727825 0.051714793 0.21278891 -0.07892221 -0.019491702 0.31763875 -0.05363355 0.007795385 0.37858886 -0.06742028 0.19876055 0.09259787 0.18275993 0.31413323 -0.004134912 0.16698353 0.13878493 -0.031670343 -0.06805895 -0.052976936 0.2566989 0.31581226 -0.0614266 -0.044073727 -0.006457207 0.08474694 0.15891607 -0.014421672 -0.050507195 0.26393408 0.14675611 -0.033683106 0.28051656 0.08934156 0.22702932 0.2091965 0.37094268 0.34237432 0.10703377 -0.05985754 0.07220944 0.22905464 -0.011704269 0.34201542 -0.069948375 0.24057397 0.0062115286 -0.085482754 0.36275116 -0.08049281 0.20616345 0.1903797 0.3236489 0.3041684 0.31131145 0.22936216 0.2565617 0.36974972 0.07830816 0.31673744 0.20051935 0.089631885 0.2827938 -0.0323073 0.14059566 0.20291942 -0.044849474 -0.033972614 0.28006715 0.2898353 0.09517376
doc_25 0.20010258 0.2112571 -0.03906139 0.039032552 0.21921143 0.13439691 -0.053337682 0.24114868 0.13074073 -0.023665603 -0.06066639 0.15542218 0.23125558 0.1409626 -0.011474234 0.26337737 0.29118177 0.096135244 0.30749962 0.28710717 -0.09301795 0.13714677 -0.025402967 0.30476612 0.15231514 -0.072355576 0.064187676 -0.09239959 0.07091903 -0.027899722 0.22279361 0.0075580217 0.29655835 0.24153243 0.1428442 -0.10044935 0.19799474 0.20488593 0.26531562 0.24595177 0.13943563 -0.026683012 0.23055556 0.32502726 0.2086563 -0.03727586 -0.0114775235 0.26987183 0.29480025 -0.01394405 0.13091868 -0.023182537 0.23411608 -0.019391777 0.30109543 0.30334637 -0.03944032 0.3357203 0.35456422 0.19202843 -0.005818794 -0.03436347 -0.016211107 -0.033894617 -0.05037128 0.18669908 -0.03549561 0.08416015 0.20844032 0.14678223 0.10982797 0.322109 0.2662784 -0.008606205 0.10867952 0.38879168 0.27037233 0.2573811 -0.03288637 0.29308388 -0.005663123 0.23771209 0.049588364 0.1997921 0.22925198 0.22961695 0.16944866 0.2728663 -0.0251357 0.24566491 -0.07341246 0.1322782 0.073692314 -0.06753485 0.17884453 0.23945662 0.10378369 -0.05998428 0.18711865 0.15827654 -0.018523071 0.13462071 0.02117005 0.18670262 0.20639467 0.089532614 -0.014379728 0.049664307 0.12565497 0.26605695 0.037116557 0.043984827 0.18771666 -0.042191546 0.24296789 0.26853698 0.16638622 0.3329618 0.040854916 0.25729018 0.30565816 0.15679604 0.08670609 0.14241971 0.3196696 0.06764861 -0.008396751 0.31411362 0.17914315 0.24974263 -0.03354359 0.19816667 0.35916063 0.2545919 0.06442716 -0.037584476 0.14823395 -0.02432298 -0.01627422 0.11898089 0.15337527 0.2034444 -0.03465752 -0.07277582 0.19547015 0.046530683 -0.097604945 0.06649847 -0.043409586 0.20828174 0.23107386 0.05122493 -0.012193436 -0.008460574 0.14981769 0.13495006 -0.10611835 -0.03491978 0.11121251 0.19813958 0.15937999 0.26954782 -0.011772711 0.24008441 0.169226 0.037946984 0.06626225 0.058288757 0.26784256 -0.013836982 0.08058635 0.08873597 0.042778127 0.19101231 0.0861474 0.21906659 0.29833254 0.31950146 0.33448103 0.062474836 0.23893073 0.28016752 0.18678987 -0.06649347 0.11037028 0.18749562 -0.024983428 0.16381356 -0.022969015 0.20605381 0.24129204 -0.045257386 -0.017334713 0.17224446 0.22737576 -0.03421002 -0.11075141 0.003231029 0.10361793 0.036176734
doc_26 0.05378672 0.13118295 0.20975149 0.024410488 0.10380825 0.30074334 -0.00055478327 0.17499377 0.21177118 0.3135912 -0.0023949998 0.17566167 0.007313111 0.053548165 0.18763815 0.25234583 0.022519188 0.24378513 0.124736585 0.21556914 0.10770607 0.17025544 -0.025354981 0.25987396 0.14163311 -0.0028339792 0.118654996 -0.0076909475 0.107340515 0.23843867 0.1343196 0.2861737 -0.001818456 -0.009576231 0.12779108 0.24800327 0.16199079 -0.0053726844 -0.033484045 -0.03795063 0.14721467 0.040387567 0.09965597 -0.032139752 0.11497615 -0.034404956 -0.029121177 0.01970221 0.20001538 -0.03157245 0.044599954 0.11103016 0.082894556 0.038292237 0.0051356745 -0.03821111 0.21313517 -0.042854503 0.03776703 0.06724745 0.22537197 0.2779823 -0.026515393 -0.03533693 0.24145861 0.13752817 -0.029740406 0.0025160967 0.20029831 0.15988363 0.12688796 -0.060727198 -0.02988802 -0.0061793206 0.05521783 0.030780979 0.23238367 -0.008441585 0.24598643 0.026535025 0.1953496 0.004771563 0.18280211 0.15834461 0.19761378 -0.015897414 0.10131413 0.028481567 -0.047541585 0.17137593 0.20181201 0.18625809 0.17331453 0.085803166 0.15370643 -0.0043738685 0.0143298125 0.024881864 0.19566639 0.10734267 0.18172337 0.11448239 -0.028149066 0.17594425 0.1216569 -0.059237447 0.11073673 -0.051923025 -0.017850574 -0.028350433 0.14815614 0.2071975 0.08136655 0.05106683 0.22113268 0.018071394 0.049581204 0.06356178 0.15758893 0.06577464 0.18064044 0.016775472 0.19221416 0.12545574 0.03352591 0.2070574 0.23627433 -0.031916335 0.15134223 -0.03277823 0.119581655 0.0717773 -0.008774137 0.1115451 0.11941407 0.09454198 0.088599674 0.25619194 0.26237023 0.072899744 0.15912744 0.13429211 0.20914122 0.29635972 0.08883023 0.15992296 0.014836502 0.2350423 -0.03508054 0.14133467 0.15647411 0.17393146 0.13580064 0.26514983 0.17511344 0.16599791 0.021711223 0.24729766 0.1849876 0.06127589 0.031774726 -0.049620915 0.0032448166 0.17973605 0.123085484 0.20739986 0.036619067 0.16687925 -0.014219601 0.039294604 0.121325016 0.22328319 0.028736137 0.07100602 0.1319351 0.16036619 -0.05032634 -0.024670899 0.07601189 0.18722248 0.014415439 -0.005586075 0.17053436 -0.031772908 0.057954665 0.15192664 0.018723687 0.08825236 0.1755699 0.0839408 0.22378626 0.0106175775 0.2368688 0.121076934 0.1735435 -0.040614244 -0.045993585 0.16857314 0.0022052943 0.10510398
doc_27 0.12243465 0.023274919 0.15540175 0.10870862 0.09226688 0.1244655 -0.04430508 0.004150666 0.16020074 -0.032538537 0.13482128 0.061810795 0.12023914 0.15503538 0.18204798 -0.024650041 0.12264216 -0.052724924 -0.005356718 0.18220985 -0.04202553 -0.058149073 -0.046385497 -0.05903479 0.051990315 0.19463375 0.10695949 -0.04826923 0.10282448 0.12912327 0.12973131 0.12332806 0.18602757 -0.009590127 0.12411534 0.09730247 0.039016537 0.07401772 -0.011889134 0.07257727 0.09026637 -0.013801391 0.14230923 0.22042918 0.1470024 -0.040105518 -0.020533497 0.10902901 -0.057914503 0.09974153 0.036663014 0.14753994 -0.026589468 0.1400582 -0.01930385 -0.016269874 -0.03209592 0.15428641 0.008826503 0.027962018 -0.038627803 0.20420785 -0.013294351 -0.035517823 -0.047504056 0.06363378 -0.031917583 0.1350329 0.10942822 0.16095561 0.12202459 0.103649706 0.15141112 0.22289027 0.051192045 -0.004544613 -0.05451365 0.17784844 0.17426124 0.22653098 0.043045666 0.15294002 0.060327847 -0.043984864 0.09045668 0.15768065 0.028185977 -0.022433456 0.16711582 -0.04509966 -0.059674054 0.1343404 0.09636014 0.2441546 0.123615064 0.15087348 0.124468885 0.22271432 0.09716076 0.22821717 0.11738017 0.050541833 0.178218 0.23769806 -0.021736192 -0.013193281 0.12759377 -0.04378336 0.14135648 -0.047537357 0.0663083 0.1571013 0.043993823 -0.013552881 -0.04995483 0.16109453 0.08825921 0.1543702 0.054589752 -0.0076622907 -0.0543893 0.13717017 0.17409712 0.1110492 0.054415684 -0.051844038 0.08045638 0.19490509 0.10738854 -0.036203574 0.20222759 0.07955972 -0.048382424 0.1365111 0.070484824 0.030555645 0.13456523 0.20258772 0.19417943 0.117582776 0.15487726 0.07615028 0.121408746 0.023440843 0.015282798 0.06862073 0.030795027 0.18328379 -0.028901564 -0.023861492 -0.056812093 0.039288137 0.11614017 0.19116522 0.051201712 0.10844915 -0.023799034 0.14429256 0.06614335 0.11684471 0.11230014 0.10790684 -0.042610068 0.14493562 0.09947339 0.01700924 0.048096567 0.057561312 0.21947843 0.16731292 0.12756366 -0.027745398 0.097394645 0.2182754 0.12277399 0.10429902 -0.025753342 0.1071107 -0.040478587 0.022365373 0.14141367 0.030669931 -0.06280815 0.24338521 0.08890599 0.070658095 0.1456208 0.124600835 0.19513008 0.103915066 0.103740744 0.12893407 0.10417328 0.1340996 -0.02493094 -0.034342855 0.066221945 0.10812643 0.16472149 0.122820616
doc_28 0.13026308 0.049088605 0.14468777 0.107444555 0.092391275 0.11812009 -0.04402784 0.026092723 0.13775355 -0.0376859 0.14158548 0.0734977 0.11143718 0.14667167 0.16462834 0.027080728 0.12247714 -0.06908878 0.0332404 0.19562493 -0.056774154 -0.07075237 -0.039114833 -0.041080814 0.059450775 0.20027961 0.09631153 -0.06257131 0.08963577 0.11802897 0.13976945 0.112864956 0.18988205 0.0013904348 0.111138985 0.07833021 0.034419812 0.08847631 0.009333861 0.07375793 0.0972405 -0.0034614638 0.14268331 0.22438306 0.15883082 -0.030098908 -0.03275218 0.16338198 -0.046021685 0.08751135 0.031393163 0.14046785 -0.0034986655 0.12148704 -0.04060641 0.017404549 -0.083245 0.18238601 0.07287666 0.035347007 -0.046535525 0.19884658 -0.00862323 -0.0327643 -0.051323168 0.07396208 -0.030832753 0.12739825 0.10932055 0.15576686 0.11866756 0.1557703 0.15131253 0.23998418 0.058994077 0.010451255 -0.04173063 0.18667614 0.16691081 0.22000217 0.033960544 0.118341304 0.0600199 -0.030726802 0.08383906 0.1633146 0.029631829 -0.037163105 0.15402125 -0.017339502 -0.0636067 0.101371914 0.10180126 0.24984273 0.13334246 0.15306997 0.11091119 0.22218554 0.09874984 0.22258018 0.09846951 0.041135218 0.15253495 0.22538625 -0.020021467 -0.04254348 0.1226068 -0.06201039 0.14412226 -0.043636143 0.06350498 0.1658806 0.04633862 -0.05265753 -0.051886257 0.1735584 0.08644061 0.14330553 0.053782046 -0.0034355454 -0.08659508 0.13610277 0.17020416 0.09873368 0.04860049 -0.046533074 0.074812576 0.22361015 0.09723541 -0.0023754819 0.18363102 0.06939532 -0.041269593 0.15535598 0.05212806 0.029089931 0.12861086 0.18094388 0.1797927 0.1205832 0.14480512 0.07729601 0.11521654 0.0097505 0.030323451 0.06056777 0.004509915 0.15808353 -0.046212222 -0.02941108 -0.038543917 0.037682027 0.10778932 0.18252876 0.049122304 0.10268845 -0.0123050185 0.11463194 0.05907032 0.11833764 0.119746335 0.1492105 -0.04500798 0.12765005 0.09684961 0.019413847 0.043808516 0.04488177 0.22453113 0.14798659 0.11301164 -0.04288973 0.07040428 0.2326232 0.10687287 0.11900005 0.03533703 0.15184495 -0.02055763 0.0029286845 0.14073586 0.04787493 -0.037234534 0.21978325 0.07184751 0.07786508 0.12691548 0.105855085 0.17233534 0.12891297 0.111425325 0.09132312 0.072631255 0.12193455 0.0058052577 -0.03301229 0.077775195 0.10508278 0.14466855 0.11742469
doc_29 0.22807285 0.25431865 -0.11897467 0.06139327 0.27404016 0.07679371 -0.1978713 0.29804915 0.20961815 -0.06267809 -0.1817705 0.24622904 0.35948616 0.19448304 -0.17546576 0.26014268 0.33762908 0.12932062 0.30313456 0.40570283 -0.17706753 0.22704428 -0.054528125 0.45710254 0.21555339 -0.13989018 0.10918753 -0.24132095 0.17025077 -0.118171416 0.32153445 -0.07620837 0.40102136 0.28237545 0.24330983 -0.17484026 0.2769584 0.27027887 0.23194672 0.35683864 0.19212444 0.118222125 0.28125343 0.3387933 0.23822397 -0.045510978 -0.15864535 0.33578768 0.35237023 -0.14071243 0.20349964 0.022302546 0.3581373 0.084022105 0.33276016 0.48982823 -0.18123738 0.35945064 0.3634289 0.256255 -0.059649467 -0.09348734 -0.035347357 -0.044762004 -0.06899465 0.28511268 -0.04980764 0.17775166 0.3174006 0.21583784 0.2450799 0.2525436 0.34197253 -0.026465349 0.19732857 0.46378466 0.37120703 0.3061779 -0.08163504 0.42044172 -0.016602738 0.21284607 0.11133508 0.24937762 0.30274546 0.29658386 0.24511677 0.35182405 -0.057367098 0.32142755 -0.09542221 0.16032167 0.09018122 -0.17358983 0.2692166 0.3917174 0.16395858 -0.21683156 0.25482646 0.16014613 -0.10201828 0.11540505 -0.097429894 0.16189253 0.25827774 -0.038526054 0.08721344 -0.09485328 0.23704818 -0.042289212 0.111871615 0.008784517 0.189982 -0.21181868 0.31439266 0.36608493 0.22971156 0.40881604 0.051870726 0.33322474 0.42385894 0.22608198 0.054640274 0.18885742 0.30363956 0.11757907 -0.15370482 0.37356508 0.24719201 0.33547637 -0.04323072 0.24575496 0.43799776 0.31572127 0.12865372 -0.08708372 0.19013178 -0.15282756 -0.065107174 0.16316296 0.20622067 0.27219415 -0.06669494 -0.11763656 0.27496576 0.021125427 -0.3018497 -0.011494667 -0.044637144 0.32199267 0.24364191 0.09088634 -0.12792094 -0.14634593 0.14986399 0.123971365 -0.21694653 -0.069377996 0.19980538 0.25796616 0.19991954 0.35988024 -0.06427655 0.30650973 0.20122683 -0.026336951 0.055789452 0.07934294 0.37520498 -0.018933998 0.14400801 0.16619094 0.07358035 -0.025760576 0.17622253 0.30054072 0.479135 0.34525213 0.36218417 0.15198016 0.30217797 0.3609467 0.22791746 -0.13491723 0.2056736 0.24955049 -0.060808025 0.21484026 -0.06777491 0.3003021 0.35216874 -0.19604954 -0.12594089 0.20874478 0.3378987 -0.056652874 -0.18949126 0.0065737437 0.1397106 0.113489024
doc_30 0.07157787 0.06317556 0.1766195 0.020877885 0.059442054 -0.030668162 -0.034982663 0.022561554 0.10540509 0.01231285 -0.042903 -0.0031024625 0.060507137 0.025075708 -0.02121634 -0.034932308 0.12466487 -0.03720827 0.101050556 0.18334329 -0.09152388 -0.010408731 -0.041112047 0.074579634 0.017411578 -0.06372892 -0.03859147 -0.054951586 0.0014609984 0.014577119 0.12741867 0.069818884 0.27095944 0.041999374 0.038226813 -0.059361868 0.030803192 0.07165329 0.0381409 0.121582 -0.026731052 0.044180658 0.13436753 0.19843614 0.096882366 -0.03009001 -0.07543988 0.31489357 0.037224185 -0.04288365 0.0017446856 -0.0016483859 0.07663659 0.028337736 -0.02840309 0.09554038 0.026003754 0.3129494 0.17292921 -0.006305439 -0.066928014 0.010615119 -0.041113295 -0.032986697 -0.033109494 0.04625752 -0.018545331 0.06921008 0.07351109 0.04464231 0.047542654 0.19165604 0.16036531 0.12968133 -0.021483395 0.0784873 0.04484032 0.10608631 0.029811256 0.23632048 -0.039514106 0.08189471 -0.0135307945 -0.008751827 -0.0025992023 0.057145033 -0.015087457 0.03816882 -0.020506905 -0.019248214 -0.013722002 -0.030458163 0.0024946714 0.12648284 0.024114445 0.21771325 -0.026866555 0.23148441 -0.01845267 0.23710354 0.004282629 -0.029412113 0.045865223 0.27631745 -0.0045751818 -0.06295664 0.004689415 -0.040669482 0.035532482 -0.013666639 -0.03835665 0.00435563 -0.0063380245 -0.059586078 -0.025803309 0.24764284 0.048531696 0.23913233 -0.027267898 -0.010360415 0.22554398 0.060400672 0.014888724 0.0027340222 -0.014029017 -0.017889561 0.007353032 0.28457254 0.035992216 0.09199073 0.16686024 -0.00042936648 0.22784607 0.08068115 -0.035062924 0.25346175 0.027711675 -0.02587535 0.118543684 -0.0020405226 0.019965447 0.036464587 -0.018039841 -0.07848668 -0.0147846835 -0.050203867 -0.011926169 0.0051033646 -0.027182493 0.016108036 -0.0028771213 -0.0019707708 -0.022642922 0.017301753 -0.029733952 -0.005017615 -0.028833326 -0.061868027 -0.0041402006 0.030735182 -0.0008997859 0.29263282 0.00636434 0.1250584 0.014351016 -0.018110884 -0.013225803 -0.044980835 0.28596672 -0.035067238 -0.013638847 -0.023444247 -0.003572343 0.19727576 -0.01569463 0.043676637 0.1423065 0.3615604 0.047567006 -0.021028131 0.08433599 0.23672879 -0.029472781 -0.08949696 -0.033376466 -0.015004234 -0.02140082 0.020665605 0.037297823 0.07973867 0.05590767 -0.1185716 -0.069504134 0.010359092 0.033771966 -0.040522404 -0.11696399 -0.014043564 0.010862665 0.006862168
doc_31 -0.02425379 0.0060709137 0.4007733 0.017957943 -0.0063560037 0.32618564 -0.08873025 -0.024000304 0.302396 -0.048111394 -0.04027622 -0.07067898 -0.008752606 0.027445527 -0.08936101 0.03806489 -0.002175051 -0.046855327 -0.021169247 0.338249 -0.007965571 -0.021424808 -0.036039196 0.03521194 -0.048949547 0.09760648 -0.059519503 -0.07462838 -0.058871742 0.25270927 0.20871556 0.4460672 0.03527643 -0.017811168 0.10299242 -0.0745055 -0.0012834431 0.00065314287 -0.0060458677 -0.0039700847 -0.04987252 -0.038523797 0.13264224 0.06386709 -0.036804654 -0.033777874 -0.02488616 -0.01269888 0.025660705 0.3387651 -0.051275343 -0.055219978 -0.0070257685 -0.052019894 -0.00013244199 0.020878933 -0.082169406 -0.034451373 -0.029808767 -0.02275336 -0.081055894 0.2452713 -0.03211571 -0.027214611 -0.052764047 -0.019138087 -0.022844788 0.13324541 0.027353588 0.09700389 0.12618884 0.003074303 0.010080585 0.40068096 -0.046199627 -0.03194799 0.034662895 -0.006761358 -0.061643407 0.018399337 -0.08708085 -0.002774438 -0.041917037 -0.017404081 0.010887344 -0.0155240055 -0.04713 -0.01017696 0.00920372 0.0037717235 -0.08505265 -0.0379371 -0.029489577 -0.10319656 0.023586133 0.23552388 -0.074235685 0.34641677 0.06461432 0.18504766 -0.034587603 -0.054398313 -0.06977626 0.36334217 -0.041037984 0.0006007236 -0.06582517 -0.0042401426 0.028389027 -0.045345955 -0.0695998 0.17263581 -0.0423811 -0.03680965 0.012574993 -0.009961167 0.023413608 0.3008724 -0.043036364 -0.0018091985 0.07456633 -0.04768796 -0.06519132 0.033308618 -0.0058213267 -0.030838693 -0.030928094 -0.029055165 -0.04553146 -0.02261689 -0.057921924 -0.03437881 -0.011888516 0.0003809322 -0.0549467 0.35135695 -0.011125365 -0.02352628 0.45859346 -0.055086877 0.03063537 -0.0069727376 -0.073848255 -0.03896172 -0.041386094 -0.056272916 -0.1780695 0.27638656 -0.033167563 -0.0040708194 -0.018037468 -0.005504566 0.019528782 0.39061573 -0.048920356 -0.06274109 -0.072382346 -0.08581467 0.04952836 -0.02969192 0.039517917 -0.011865563 -0.0735994 0.10970516 0.05369243 -0.07604998 -0.052929115 -0.028206708 0.34876025 -0.06430643 -0.029086858 -0.013156046 -0.05313102 0.39933616 -0.015972048 0.01071777 0.0019375508 -0.036262937 0.026948161 -0.023392042 -0.011781698 0.19101085 -0.032464284 0.013236874 -0.054047067 -0.025579879 -0.041075885 -0.03799322 0.3243675 0.0020276324 0.07112737 -0.036228847 -0.0354712 0.023920147 0.0027255337 -0.033531863 -0.01828715 -0.017680883 0.006917871 0.071729034
doc_32 -0.1485072 0.022544995 0.34476966 0.17720869 0.13484903 -0.16181889 0.73008275 0.41702026 -0.22973862 0.15352142 0.6065352 0.388713 -0.24954864 -0.086558685 0.18696937 0.35768998 -0.24737729 -0.2950509 0.088863835 -0.23314743 -0.15654436 -0.23539567 -0.08233454 -0.18122777 0.2762582 -0.020804148 -0.18758743 0.5705658 0.07762726 -0.13746843 -0.21703202 -0.16622928 -0.3303478 0.72382206 -0.2093096 -0.16403554 -0.22981451 -0.001545351 0.60674685 -0.10471277 0.17316301 -0.081189975 -0.050428778 0.28490996 0.1716238 -0.069010414 -0.15175605 -0.4682269 -0.07645153 -0.14613481 0.044074155 0.1696107 0.11385758 0.2144743 -0.32007325 -0.33162934 0.8595943 0.7935587 0.77710855 -0.03305685 -0.13199085 -0.18221274 -0.021813646 -0.052499555 -0.13613966 -0.06686499 -0.07970179 -0.15046678 -0.26283348 0.15912624 -0.20979998 -0.4172358 -0.25380653 0.49830496 0.20754641 -0.29429033 -0.13986647 0.12688291 -0.0733579 -0.3423836 -0.15735306 -0.32155815 0.14666316 0.0953864 -0.24615766 -0.16520612 -0.2138956 -0.224438 0.23407446 0.10833909 -0.13089082 -0.1368729 0.17733541 0.8769072 -0.01693558 -0.23264533 -0.05625324 0.29422137 -0.16110578 0.031245288 -0.089997396 -0.1682303 -0.0691023 0.1961167 0.07320977 -0.261168 0.33908805 -0.23565468 0.15893655 -0.08727667 -0.06320145 0.19145644 -0.17404921 -0.15070897 -0.24162897 -0.19953364 0.025081038 -0.355152 0.0712419 -0.24793163 -0.14566675 0.09441765 0.4655046 -0.12894231 -0.41224805 -0.05109287 -0.0008138325 0.5951228 -0.071369514 0.5303177 0.5014013 -0.12191873 -0.33999035 -0.051940933 -0.14480874 -0.08204651 0.12178331 0.21504238 -0.289845 0.07692055 -0.17608657 -0.1699202 0.25646162 -0.27486065 0.020258013 0.08956497 0.8092655 -0.24665543 -0.07414323 -0.16190843 0.04179159 0.26390207 0.4811557 0.2547941 0.20281547 0.18403539 0.91907376 -0.07592296 0.028783528 0.06196935 0.040929932 0.58136034 0.16822407 -0.17979687 0.1289141 0.22554138 0.32315704 -0.17069578 -0.3194551 0.07456229 -0.13020642 -0.14965096 -0.03754617 0.10618171 -0.13388303 -0.19211636 -0.4113987 0.087200195 -0.38460815 -0.07183993 -0.23092824 -0.20177469 0.15793674 -0.06670269 -0.14058667 0.03975618 -0.11368013 0.115102164 -0.19059148 -0.0763994 -0.16951373 -0.2520932 -0.18483973 -0.1178628 0.09780097 -0.06823242 0.03839786 0.29377154 -0.13768187 0.22256944
doc_33 0.15437786 0.1755206 -0.025949482 0.19422351 0.116491355 -0.043423742 0.11148278 0.04970932 0.10640348 -0.058280613 0.19539535 0.08201624 0.13340975 0.1150724 0.28301805 0.03293003 0.18281917 0.11355265 0.003798568 -0.03234586 0.23284115 0.16716258 -0.04402573 -0.11390217 0.11995485 -0.018017549 0.12869616 0.29011065 0.15635964 0.15644448 0.04357956 -0.018668525 0.12611134 0.0051424094 0.09256946 0.27807057 0.10791506 0.21271472 0.072019935 0.047356956 0.10934041 0.27713466 0.051487017 -0.0034356313 0.100853935 -0.03332856 0.17663458 0.22724223 -0.015701476 0.0045158863 0.17305991 0.08778398 0.12138623 0.1786929 0.19669017 -0.013577187 -0.003037826 0.033178017 -0.009437265 0.12683816 0.034102723 -0.015329634 -0.017293973 -0.033306397 0.0033004866 0.12520158 -0.0070019816 0.2057901 0.019977815 0.040866494 0.12023112 -0.03303111 0.16715817 0.014142302 0.1601662 -0.04328292 0.009683607 0.060508966 0.10201889 0.08336633 0.10338261 0.14350656 0.1622059 0.19257587 0.05690001 0.12260596 0.13892403 -0.038518116 0.193369 0.18682575 0.2217696 0.036643233 0.10776372 -0.0073648007 0.051307168 0.16218995 0.17686461 0.21164852 -0.007362683 0.0061090766 0.1495048 0.13373207 0.27242193 0.002399988 0.13566503 -0.00094905146 0.14105582 -0.036841158 0.14092475 -0.03202604 0.10357879 -0.006202 0.18765758 0.0022765729 -0.00055178045 0.17700455 0.14477096 0.0023053582 0.18107277 0.07062804 -0.093583666 0.1769854 0.033306506 0.09279483 0.0952156 0.1953578 0.19073229 -0.0017836154 0.08443452 0.20610845 -0.0014932186 0.12411737 -0.093420185 0.025611293 0.16865449 -0.010160259 0.050156444 0.20815578 -0.09830741 0.13071547 0.07418106 0.095793284 0.13229288 0.041802336 0.12041431 0.109097295 0.0033833806 0.0020399084 -0.03911868 0.092393935 0.14445938 0.029661573 0.068539985 -0.06753003 0.07625004 0.09901916 0.08294937 0.06652358 0.114886194 0.10980567 0.09597408 0.16571428 -0.017817102 0.031993832 0.11443417 0.18413104 0.17976113 0.0875519 -0.015807722 0.11724604 0.122008584 0.042215236 0.17760026 0.0031992393 0.1439142 0.035257492 -0.09561376 0.19515094 -0.03316602 0.1127979 0.07828771 0.10363031 0.16741206 0.21114953 0.13520057 0.1413638 0.20208886 0.076775566 0.14312555 0.11453356 -0.0062658214 0.05558515 -0.0024862892 0.09132395 0.116317034 -0.025440896 0.011666712 0.1259819 0.15025331 0.12483894
doc_34 -0.048166763 -0.075608596 0.04722748 -0.017608302 -0.009561751 -0.1622693 0.24212569 0.024066266 -0.10260364 -0.14708926 0.27540442 0.017867643 0.01772489 0.14441551 -0.120006666 -0.09415802 0.08535978 0.09355436 0.2147416 0.040987402 0.119437896 0.0028504878 -0.02704644 -0.14058442 -0.06678383 0.26746416 0.0896262 0.053104863 0.07451089 0.009794559 -0.05143111 -0.006806232 0.007218864 0.27076387 0.038244523 -0.04231472 -0.04846174 0.010424558 0.26136762 -0.010164414 0.03290952 -0.014628574 -0.038220286 0.114808515 0.10682954 -0.03695265 -0.001835335 0.21218517 -0.020137554 0.08676752 -0.047376253 0.09418428 -0.07544963 -0.032330148 0.07525422 0.40692228 -0.010611892 0.11089739 0.24132654 -0.01315348 0.08817389 0.054979682 -0.03367894 -0.036299337 0.20762347 -0.058778588 -0.03659679 -0.056690946 0.074810594 -0.019587485 -0.03693739 0.3115546 0.08295563 0.2718616 0.047162898 0.18212369 -0.07970062 0.20560662 -0.063372694 0.27546993 -0.07569237 -0.10712887 -0.0664096 -0.11377677 0.012895387 0.048023496 0.08556176 0.062606566 0.13410985 0.05225607 -0.0076018944 0.035695843 0.04538756 0.26762348 0.049679868 0.07608411 0.08694924 -0.10048671 -0.0137454495 0.14335868 -0.012924468 0.08899463 -0.0057133827 0.032464463 -0.01806742 0.12530588 -0.072326675 0.06212571 0.14800186 0.103066444 0.0515572 0.018733397 -0.05006728 0.12786072 -0.0079134125 0.006082911 -0.037084308 -0.15079714 -0.043975405 -0.0073838923 -0.1701083 -0.011113144 0.07372834 -0.002032224 0.17005014 -0.019513682 -0.06830424 0.05564589 -0.03605895 0.10547976 0.22131944 -0.041540667 -0.022690361 0.003617756 0.018378096 -0.09760247 -0.0270632 -0.05309603 -0.025848389 0.0548181 0.11317656 -0.07258072 -0.038031626 0.08966096 0.06448804 -0.053439237 0.2120156 0.08146746 -0.03660936 -0.018879563 -0.08929985 -0.054506935 -0.022174917 -0.13922629 -0.04381821 -0.021574188 0.034377795 -0.076481946 -0.052705362 -0.016878072 0.1482087 0.015837152 -0.12804598 0.02809018 -0.045329355 -0.03920822 -0.03431668 0.035504177 -0.0010780953 0.10845431 0.0032576919 0.035542995 0.0751171 0.009183615 -0.03460546 -0.023611581 -0.024975758 -0.070984766 0.051735245 -0.04467147 0.09795114 -0.08789939 -0.07941162 0.19949925 -0.023633292 -0.05472821 -0.017725233 0.08871117 -0.025838701 0.059827086 -0.02398282 0.15172406 0.12186591 0.0946284 -0.114795245 -0.021262819 0.15207602 -0.08937517 -0.022214347 -0.038032185
doc_35 -0.005111754 -0.08546893 0.06344177 -0.038505234 -0.07818974 0.08131442 0.10733962 -0.05489431 -0.0095263645 0.06992822 -0.10737182 -0.055028446 0.083952785 -0.045285 0.19252065 -0.11985278 0.11533245 0.08729118 -0.055636883 -0.07369939 0.16620375 0.21147452 -0.03457791 0.049044177 -0.049159188 0.18633111 0.03872864 0.07964446 -0.017708227 -0.026855191 -0.042659257 0.0588038 -0.027821064 0.18400842 0.015437899 0.26164216 -0.010461466 -0.05402897 0.12889113 0.1052909 -0.03715639 0.16347693 -0.026398862 -0.0027111182 -0.06669629 -0.031027697 0.1753403 -0.06626657 0.051752176 0.13615829 0.0066315006 -0.056413345 -0.024870303 -0.057508834 0.17010921 -0.021931497 0.101734586 0.041047346 -0.0011854377 0.03416539 -0.05052884 0.049890213 0.120246224 -0.01730646 0.0015013597 0.022085495 -0.017214999 0.105648495 -0.07243538 -0.07219802 -0.030797718 0.024557162 0.03304768 -0.10326569 -0.016807806 0.23658936 0.016021073 0.10799357 -0.01291255 0.14077589 0.12576608 0.26695815 -0.041695587 0.022240307 0.052152365 0.032961722 0.051806275 0.18900362 0.0118260775 -0.036366515 0.17881435 -0.0018479187 -0.059514306 0.013373303 -0.044015054 -0.06064713 -0.007700048 0.034570824 -0.034294497 0.0774742 0.006109293 -0.0071245558 0.12735504 0.014350415 -0.008273976 0.16531232 0.026359482 0.16031015 -0.03596368 -0.024502385 -0.015538374 -0.09328722 0.08462596 0.1748022 0.19640215 -0.00451245 -0.057977423 0.031157786 0.06679119 0.15361196 0.17312427 -0.053202644 -0.05707913 -0.026327128 0.20225586 -0.052951604 0.03273886 0.029003318 -0.009213796 -0.022708684 -0.0050645517 0.046872728 0.20675664 -0.037458863 0.065771356 0.054676067 -0.011747846 0.115606785 -0.027425498 -0.01766221 -0.02056222 0.0034983107 -0.049534764 0.11227397 -0.046841506 0.0015858344 0.02552596 -0.055730008 -0.032840386 -0.016648544 -9.838148e-05 -0.004381988 0.06350486 0.11809107 -0.0360064 -0.033396907 0.11621839 0.07381384 -0.03583379 -0.015200096 -0.05353289 -0.032077093 0.0664026 -0.08716098 -0.056596905 -0.08435592 -0.015627673 -0.014513679 0.051307432 0.03925536 0.04021081 -0.050759144 -0.011043017 0.13112785 -0.002511122 -0.011930542 0.009152092 0.003634829 0.13727513 -0.033524238 0.041863363 -0.053406686 -0.010329718 0.11349435 0.06849934 -0.0065001007 0.0800608 -0.04047416 -0.041679222 -0.07155245 -0.09976005 0.18311831 0.16817565 -0.05323746 -0.014898139 -0.018607426 0.17274466 -0.04388931 0.026348043 -0.028162956
doc_36 0.23064852 0.34448013 -0.011058114 0.048392955 0.300618 0.009726495 -0.0417263 0.30965468 0.1059553 0.021491852 -0.06489545 0.20833965 0.34719485 0.15822485 -0.0016655177 0.3807571 0.36213827 0.016360734 0.26695722 0.40979993 -0.0011046529 0.19914219 -0.06840485 0.46262228 0.27103782 -0.000120677054 0.056058243 -0.06600036 0.11155878 -0.03683126 0.26977977 -0.016729936 0.44272387 0.26419306 0.18817095 0.0021932572 0.30679604 0.32012618 0.27063894 0.3454533 0.20200218 0.022544343 0.29265523 0.31650835 0.26006573 -0.05872721 -0.002858974 0.48750818 0.47803992 -0.04832482 0.20171857 -0.018007696 0.32705104 0.07850871 0.47616506 0.25540403 -0.03726826 0.42341435 0.42456293 0.28765786 -0.02520879 -0.039578617 -0.011795292 -0.088912666 -0.06480366 0.25236183 -0.021663528 0.028040066 0.28873342 0.18447867 0.23363738 0.51017433 0.34519008 -0.08095811 0.14070421 0.46327806 0.39262515 0.3325857 -0.007367119 0.3294173 -0.020877894 0.2375448 0.060686376 0.2813257 0.29624805 0.26953557 0.27685925 0.29009056 -0.054009 0.32907623 -0.049058326 0.13833657 0.005610943 -0.0015807897 0.2562303 0.3617259 0.01140202 -0.024221947 0.29384637 -0.04063475 -0.04751551 0.069533184 -0.052824523 -0.12719649 0.29248968 -0.02339176 0.09568721 -0.012402937 0.17641632 -0.06377664 0.06471911 0.042034514 0.25376317 -0.010802828 0.2688777 0.3770387 0.27492896 0.43803567 0.14639102 0.3185289 0.5011544 0.2509974 0.0004032068 0.18827209 0.48099452 0.090437934 -0.063494734 0.47719985 0.26010212 0.32453242 -0.058205664 0.245767 0.24785347 0.32973894 0.019577257 -0.104105644 0.18597832 -0.050015517 0.027094714 0.1518109 0.1503334 0.24230474 -0.05612859 -0.008506633 0.22124054 0.042253423 -0.026411109 -0.020118184 -0.017984984 0.25547484 0.2614591 0.07795727 -0.057802748 -0.0020398796 0.14486265 0.12791853 -0.021124123 -0.026829362 0.08884804 0.31163943 0.2539115 0.4289629 -0.08165747 0.26085818 0.19972035 -0.03683317 0.09588374 -0.0023637041 0.41953462 -0.02867981 0.1382795 0.12416774 0.045918368 -0.0015507676 0.15892316 0.28732997 0.3203727 0.4263973 0.4640229 -0.013422299 0.26866764 0.37492168 0.2685481 -0.02960492 0.10326353 0.23955512 -0.056056835 0.25320187 -0.065213546 0.29138017 0.31480965 -0.030152448 -0.0068008266 0.20432018 0.3208461 -0.0458673 0.0088195875 0.0034732781 0.09392071 0.02903682
doc_37 -0.056758314 -0.07958042 0.020963604 -0.07550595 -0.09373602 -0.01643769 0.26603615 -0.07372907 -0.04283965 -0.013537083 -0.045639966 -0.08925483 0.17784679 -0.0132472655 0.032867406 -0.07615347 0.22979146 0.20585285 -0.063302614 -0.07710703 0.2506788 0.22187416 -0.032861397 -0.068075664 -0.07923681 0.26577222 0.15500233 0.2353678 -0.025380068 -0.05959648 -0.101143606 0.06860965 -0.051787212 0.23522238 -0.051968955 0.26386604 -0.09286335 -0.08640013 0.24590622 0.019326119 -0.057335537 -0.00065425376 -0.08935046 0.028537592 -0.08237629 -0.033706628 0.25702226 0.008063264 -0.05374784 0.251187 -0.006079301 -0.00805368 -0.08473884 -0.062333703 0.23296909 -0.0014442522 0.040122014 0.02406478 0.020549066 -0.037287544 0.058970116 0.14616995 0.0086091645 -0.022666544 0.068184555 -0.060088027 -0.031046128 -0.032193903 -0.054192364 -0.09580898 -0.058975827 0.11608322 0.07426022 0.061224464 -0.05932604 0.2381098 -0.086532116 0.21424197 -0.02595829 0.2794227 0.076750465 0.0068961727 -0.07824713 -0.06450646 -0.015912052 0.06670032 0.09234177 0.2710417 0.047360945 -0.06417048 0.2061382 0.0838362 -0.076224394 0.07818883 -0.07163378 -0.081361584 0.03279905 -0.0066168746 -0.046719097 0.036312915 -0.05189685 0.08964943 0.2373702 0.05649261 -0.05732296 0.25537637 -0.05386093 0.27079684 -0.037649862 -0.027775377 0.04713702 -0.06096395 -0.0085777035 0.2822743 0.21082966 -0.048214346 -0.085314736 -0.04936109 -0.05333065 0.18731603 -0.022114279 -0.0608865 -0.058838334 -0.059745222 0.25384063 -0.065064706 -0.023173619 -0.06334748 -0.049924582 -0.07403794 -0.022572305 0.06262725 -0.0131671475 -0.041741427 0.10759486 -0.011980168 -0.013049218 0.09504759 -0.011796614 -0.021963399 0.014342652 -0.07517262 -0.04996562 0.27074727 -0.0012442034 -0.042880375 0.020973574 0.004688618 -0.037044477 -0.07777704 -0.09503828 -0.06835965 0.0003103521 0.0002919786 -0.040079653 -0.04805772 -0.024816861 -0.013067511 -0.08865395 -0.050405864 0.04220371 -0.06901842 -0.014894624 -0.08965906 -0.09777194 -0.07727894 -0.040654946 0.06493156 0.018105945 0.13384281 0.04825818 -0.0482469 -0.020200074 0.025651637 -0.007863952 -0.07459665 -0.050702453 -0.045368895 0.2643535 -0.05217254 0.10562596 -0.08661984 -0.07340165 0.25716007 0.123595625 -0.07019719 0.0707075 -0.053788975 -0.044305366 -0.08545261 -0.089728065 0.25285798 0.25633356 -0.057042617 -0.09058259 -0.018750437 0.26595348 -0.061560318 0.061819833 -0.071904644
doc_38 0.164574 -0.01863657 0.24874273 0.12996006 0.072381884 0.085007794 -0.06437371 0.012074581 0.21058133 -0.027863765 0.025557538 0.044149656 0.15061808 0.19271201 -0.014431889 -0.06356575 0.13651204 -0.052583784 -0.033752408 0.24008419 -0.02271292 -0.06200194 -0.033425376 -0.056980014 0.031908907 0.25045595 0.10775247 -0.05221873 0.101698145 0.049907044 0.15993991 0.17976965 0.2294618 -0.03089296 0.14173776 0.0188695 0.0030925046 0.07921395 -0.06134995 0.072618544 0.11890891 -0.040081516 0.16368872 0.24988633 0.17076413 -0.03815788 -0.029480547 0.1886548 -0.07373691 0.1680767 0.035336338 0.21736117 -0.013543662 0.175153 -0.059695233 -0.024318177 -0.0669485 0.21445681 -0.074433334 0.01851742 -0.05696996 0.2530249 0.19944178 -0.036425453 -0.03805444 0.07526629 -0.015022427 0.19563946 0.15015656 0.15683289 0.10981878 -0.028194685 0.20189512 0.26620558 0.011544889 -0.020925933 -0.08382476 0.21434006 0.20309556 0.2901796 0.005058789 -0.044319548 0.084415086 -0.04700238 0.07868411 0.20979604 0.02614847 -0.03454747 0.21032384 -0.051256366 -0.047282346 0.12460123 0.09952757 0.28012303 0.14013438 0.21266668 0.13507915 0.23648897 0.08829869 0.27722678 0.11978118 -0.005117275 0.23197474 0.26900303 -0.05755446 -0.014115879 0.17474173 -0.043425508 0.18842153 -0.041591417 0.06394035 0.2071938 -0.004861688 -0.024244785 -0.03994679 0.2212891 0.091311775 -0.036646653 -0.009405516 -0.028504575 -0.057223815 0.19662759 0.20687103 0.09490006 -0.018427707 -0.015932795 0.0293991 0.26578137 0.0974026 -0.085869245 0.26558608 0.025448069 -0.0604139 0.1412349 0.029470235 0.13726526 0.17613372 -0.046234675 0.21865231 0.13283427 0.19546755 0.05798663 0.14469376 0.059435498 0.013770744 0.08176912 -0.016384661 0.21993439 -0.029139357 -0.028054811 -0.05367355 0.025182439 0.13548537 0.14415388 0.044461813 0.100431405 -0.043787137 0.12355797 0.06259128 0.13348968 0.15510285 0.18178697 -0.02896373 0.17841722 0.11692241 -0.010723399 -0.0012304027 0.057995208 0.28364378 0.19834425 0.1308356 -0.06933579 0.08622835 0.27798426 0.12508166 0.12618525 -0.015351519 0.22373539 -0.043370657 0.012571497 0.17684263 0.06613806 -0.058975916 0.3280196 0.0575719 0.042385835 0.1628811 0.13996966 0.21297245 0.14202292 0.1397922 -0.036607925 -0.0030895239 0.1969348 -0.03695284 -0.04809513 0.039457243 0.06313917 0.19136377 0.15668556
doc_39 0.12756799 0.015773922 0.15949278 0.11829007 0.0845337 0.12543218 -0.028530492 0.0007382982 0.16861226 -0.020594144 0.14304136 0.064756356 0.12031354 0.14863114 0.19367214 -0.008364115 0.12156181 -0.053019773 -0.014854819 0.1847832 -0.03752204 -0.056674235 -0.03647682 -0.041120447 0.05650955 0.18955377 0.1108283 -0.038137473 0.10555288 0.13275032 0.13045523 0.12576121 0.18386453 0.0076478315 0.12821501 0.100778 0.031031173 0.07334044 0.0024759534 0.064689666 0.1054682 -0.007932713 0.1420019 0.21159455 0.16101745 -0.036047086 -0.019716542 0.12381612 -0.06591044 0.10022491 0.05285321 0.15689526 -0.023021597 0.13278584 -0.027840994 -0.02177477 0.0072771735 0.15570313 0.032168236 0.023536643 -0.04475384 0.20632595 0.00340387 -0.03178992 -0.049036328 0.060510237 -0.02512824 0.1370749 0.11313304 0.1562208 0.13414356 0.095676705 0.15791965 0.22269791 0.047600374 0.0024494517 -0.0469514 0.17260282 0.18286985 0.23092403 0.04386008 0.16575 0.06716591 -0.041691035 0.09613042 0.15417734 0.035149187 -0.002749071 0.16053481 -0.04523698 -0.06140414 0.13194296 0.10225057 0.2556242 0.12980208 0.15774336 0.12244336 0.2268418 0.09755244 0.2249772 0.124073565 0.03435607 0.1722167 0.23354562 -0.024363585 -0.014082294 0.14057632 -0.04248745 0.15150465 -0.038057625 0.075922 0.1512054 0.05187904 -0.009578057 -0.061385497 0.15445776 0.09393135 0.16796798 0.051219616 -0.0022654936 0.00014187768 0.14920622 0.18069921 0.09841344 0.057757154 -0.04224131 0.0846178 0.19305174 0.096118525 -0.024845054 0.19861075 0.07966076 -0.0046521137 0.14629738 0.058763847 0.044485055 0.1383907 0.21503784 0.18385464 0.10747288 0.16126841 0.06727733 0.12800317 0.020101376 0.027081184 0.07304824 0.06575458 0.18405133 -0.037388586 -0.018552914 -0.057402927 0.045836598 0.119940035 0.19761421 0.055225484 0.10857214 -0.0007570933 0.14063743 0.0672193 0.12492262 0.109444916 0.110713325 -0.011394753 0.13458581 0.104921624 0.02336793 0.0490497 0.061716996 0.22188434 0.16364388 0.13001245 -0.029096436 0.10083556 0.22876438 0.12297269 0.10011395 -0.012946497 0.11351894 -0.008572144 0.01412547 0.13784958 0.03919745 -0.05211017 0.23575673 0.07943086 0.065124415 0.1489293 0.111101225 0.18576081 0.10356897 0.10908468 0.14030406 0.09686726 0.14185558 -0.037703343 -0.04327724 0.06673247 0.11137631 0.1607522 0.12957808
doc_40 -0.077949405 -0.11316485 0.48435336 0.30668914 -0.008879085 0.54013294 0.20770964 -0.07287731 0.2851746 0.25617772 -0.25476897 -0.061554946 -0.066051066 -0.007397957 -0.20213778 -0.15114082 -0.068745695 0.3432348 -0.18228099 0.18068479 -0.049816996 -0.08077765 -0.051094607 0.39962986 0.0420953 0.3226359 0.07878517 0.37692618 -0.03789253 0.36833325 0.24403085 0.48026434 -0.016660212 -0.09335217 0.29101557 -0.041161552 0.09093787 0.25374767 -0.1172979 0.08402622 -0.048943873 -0.0625726 0.20055085 -0.026165333 -0.11470523 -0.051786594 -0.04800172 -0.21550143 0.10439075 0.41456535 -0.058801465 -0.048478663 0.18112434 -0.061518345 0.399992 0.5057317 0.26899666 -0.14634375 -0.19997256 0.020293003 0.1102689 0.27113897 -0.031338736 -0.03918125 0.43966988 0.01347794 -0.09502222 0.24878515 -0.051070586 -0.009293637 0.26493648 -0.0768621 -0.074229605 0.34285232 -0.044645436 -0.06818229 -0.08503631 -0.06868772 0.39481598 -0.023637868 -0.06324606 -0.17877057 0.10379645 0.11371956 0.043509275 -0.034744576 -0.059809152 0.48776883 0.24806489 -0.101949655 0.11794001 0.0643139 0.13639653 -0.113542154 0.09486888 0.3593489 -0.058379695 0.44282025 0.14721663 0.46717548 0.26733014 0.050355602 -0.04896969 0.48595694 0.1502409 -0.007861905 -0.0684029 0.100393385 0.25304052 -0.038760643 0.061963532 0.06296029 -0.025936222 -0.03254973 0.3087114 -0.041902516 0.23868492 0.4930815 0.19127889 -0.08747808 0.48038882 -0.03802157 -0.072908595 0.19048634 0.44395933 0.22134422 0.48415104 -0.06853517 0.09010186 -0.12220033 -0.009060862 0.051948473 0.49655825 -0.062164973 0.1131045 0.39836702 0.035309803 -0.2237529 0.46544066 0.009148138 -0.072569914 0.16397521 -0.06406116 -0.062726706 0.044012494 -0.013259641 0.3700677 0.26192653 -0.04408256 0.28275123 0.15255412 0.27087846 0.25826454 0.47196442 -0.08308897 -0.05964906 -0.19338207 -0.09853098 0.25760671 -0.05613129 0.21547438 0.18761002 0.3088308 0.10833614 0.21239616 0.17911 0.24505465 0.1851181 0.426116 -0.08005705 0.0922986 0.26900768 0.17833301 0.49232784 0.08409619 -0.046408765 -0.08532856 -0.108572654 0.49593064 0.23801538 -0.08196707 0.4452252 0.17197043 -0.040164147 0.04154503 0.032224648 -0.050171867 -0.06485247 0.3809367 0.0008807541 0.024430523 -0.03957451 0.052644297 0.06846669 -0.15851538 -0.02478443 -0.039877735 0.24652737 0.111863464 0.22478187
doc_41 -0.058591742 0.021417476 0.34554416 0.14492227 0.078146234 -0.04776854 0.38068342 0.19620001 -0.09774048 0.04484004 0.39385822 0.20091696 -0.014581987 -0.0067202337 0.33361626 0.19189864 0.018174518 -0.10134542 0.050419465 -0.12768577 0.0517293 0.013915928 -0.050535034 -0.12341614 0.13891779 0.19367118 -0.04611431 0.37318715 0.057564553 0.0061254906 -0.1073073 -0.014661968 -0.16079599 0.40632513 -0.07164283 0.11972366 -0.08237284 0.0490488 0.34104666 0.034290925 0.12195209 0.09004837 -0.007624751 0.19607128 0.11075364 -0.047503375 0.13462256 -0.12167052 -0.037664678 0.14294061 0.07619966 0.11252855 0.056055456 0.15084875 -0.033937752 -0.14357318 0.38823313 0.38583422 0.3755892 0.05342572 -0.04902736 -0.08848332 -0.05966146 -0.046074927 -0.013077011 0.0007046906 -0.04820966 -0.01739655 -0.11982439 0.09882367 -0.09056019 -0.11880874 -0.037119385 0.40198296 0.13920124 -0.036274824 -0.07963975 0.20882903 0.052488126 0.031882077 -0.043086495 -0.01469448 0.11070282 0.092002414 -0.09069753 -0.03700439 -0.072181664 -0.10368285 0.17456757 0.13077578 -0.024244063 -0.04282772 0.120577626 0.46137768 0.03449192 -0.09716616 0.035999306 0.2930076 -0.060177043 0.21468641 -0.017333724 -0.042971246 0.12674804 0.18786216 0.08199669 0.012744246 0.19051275 -0.028669953 0.14285924 -0.052609578 0.0059286375 0.15076773 -0.015785718 -0.043242358 -0.036848027 -0.0833245 0.06069974 -0.2439181 0.10059836 -0.016623829 -0.09771174 0.09161958 0.24964306 -0.026701355 0.017083475 0.018301355 0.10674325 0.2940474 -0.015072532 0.27224287 0.4297557 0.012168125 -0.15938996 -0.02503918 -0.027676988 -0.017387679 0.0873239 0.35508168 -0.0777566 0.080344506 -0.07794496 -0.07218898 0.17538364 -0.012798212 0.06214489 0.08395168 0.40020922 -0.105701044 -0.06103478 -0.062189065 0.036212172 0.15484677 0.26865166 0.2727361 0.12062423 0.13154218 0.4592103 -0.008388182 0.063292064 0.08737381 0.09217582 0.26569504 0.08180276 -0.093903914 0.07873731 0.15705577 0.19506359 -0.0640294 -0.15351903 0.10753965 -0.032109853 -0.06666779 0.018493362 0.28836858 -0.030842656 -0.07851009 -0.17777498 0.024202839 -0.091952905 -0.012635139 -0.05267506 -0.13584718 0.14143923 0.042125147 -0.0074661365 0.06032724 -0.015579118 0.08338652 -0.06991981 -0.012995103 -0.08890832 0.018031232 0.108909376 -0.011118748 0.07241311 -0.06197545 0.20280409 0.17648919 -0.036994413 0.1572224
