doc_0 0.08060285 -0.018855173 0.08502726 0.016980093 -0.013806174 0.079994 0.08751524 -0.025999228 0.07844638 0.07839569 -0.015912343 -0.020329338 0.07728032 -0.024209414 0.087686226 -0.029788183 0.09198487 0.09171362 0.09866881 0.09298283 0.08525281 0.084180325 -0.013603603 -0.019093234 0.08796998 0.092289954 -0.015403176 0.097364806 0.079556495 0.082389444 -0.00969869 -0.015509041 0.0969581 0.08054461 0.08218074 0.08914324 0.08926835 0.09186323 -0.02128202 0.082046665 0.081028506 0.090700276 0.10346055 0.08280634 -0.017326806 -0.02836319 -0.02416778 0.08735967 0.089741565 -0.019246522 -0.01717382 0.087545365 -0.01022689 0.0864351 0.084833845 -0.0192704 0.08591838 0.085768335 0.0899224 -0.013638856 -0.012862804 -0.023456847 0.08810204 0.0835394 0.0923564 0.089515835 0.03453371 0.08758008 0.0799625 -0.026368652 0.093909584 0.09182586 0.09162715 0.08235452 0.08877362 0.08662302 0.091004714 -0.014271127 0.08456509 0.09791599 -0.0023417664 -0.022934332 -0.0218362 0.08360097 -0.02605627 0.08117028 -0.03204183 0.08081681 -0.021596152 0.088300854 -0.014398584 -0.02954622 -0.012907307 0.09834931 0.083013356 0.086163506 -0.028640604 0.09253276 0.08153195 -0.014078132 0.08885224 0.081526466 -0.035069656 0.0885222 0.08817021 0.08666517 -0.034109466 0.08127974 -0.032769933 0.091441415 -0.021021953 0.07615972 0.09086325 0.088068284 -0.017477233 0.088965304 -0.024086148 0.0858479 0.08514493 -0.020103144 0.0822474 -0.021951469 -0.012017811 -0.0041351942 0.079895735 -0.00941071 -0.029943794 0.07856679 -0.026590953 -0.027442243 0.08110582 -0.020543104 0.08295814 -0.013299276 -0.01836965 -0.026731439 0.080152884 0.09247664 -0.011803219 -0.019838389 0.089239806 0.08897915 0.088851035 0.0919217 0.094477996 -0.017271465 0.08985301 0.081333734 -0.026537994 -0.025399983 -0.020491326 -0.0030829532 0.08303098 0.09176685 0.08328329 -0.019959636 0.07616463 -0.031174896 0.08503314 -0.022531902 0.09086918 -0.023858426 -0.022185646 0.08780531 0.08831613 -0.020987114 0.085274726 0.09356104 -0.025817467 0.089282475 0.009811615 0.093914375 0.09022008 -0.021870151 -0.022899028 0.09575911 0.09074728 0.0910204 0.092142686 -0.009984996 -0.012330374 0.097176656 0.08351988 0.08278731 0.09329305 -0.016373893 0.08837597 -0.027326152 0.09128265 0.08511614 0.09046377 -0.024196284 -0.026341645 -0.016025493 -0.02024189 -0.020583011 -0.022317078 0.08708969 0.08713904 -0.02260804
doc_1 0.07212636 -0.02578629 0.08517066 0.0885971 -0.028119406 0.08386764 0.08132523 -0.015381174 0.07924276 0.07618734 -0.023027878 -0.01966848 0.081196584 -0.019033074 0.0770551 -0.011171605 0.08471804 0.07059887 0.073493615 0.08345387 0.08638464 0.073894516 -0.01999642 -0.022280889 0.08032384 0.086436 -0.03236749 0.08730967 0.06721048 0.075235 -0.008016365 -0.018444309 0.07807419 0.07138013 0.08359015 0.06059762 0.08204357 0.068846725 -0.01396231 0.07635607 0.08627722 0.07258632 0.081609614 0.06501182 -0.011957207 -0.014332488 -0.018587612 0.071519814 0.06440106 -0.016299441 -0.023247154 0.08530651 -0.0207986 0.07760379 0.07841221 -0.024428949 0.07813134 0.07984866 0.06832687 -0.0075985715 -0.03755485 -0.006838305 0.07179771 0.07724049 0.080395885 0.07264749 0.10283432 0.08127514 0.092139855 -0.0031275996 0.06596645 0.08259752 0.09437953 0.06881123 0.08285878 0.06505919 0.08024884 -0.03389773 0.06581449 0.07930205 -0.018724633 -0.01786071 -0.016970769 0.07283978 -0.02159516 0.08449836 -0.029779408 0.07060353 -0.013716412 0.07015557 -0.028021904 -0.013337138 -0.020637395 0.07881595 0.07581463 0.07392951 -0.01686998 0.0766532 0.08857165 -0.02364528 0.07692784 0.07056444 -0.01927087 0.066986635 0.07078489 0.08419517 -0.026570372 0.08060931 -0.02575856 0.074071474 -0.023192273 0.079526275 0.081043676 0.0832764 -0.028679177 0.07310805 -0.025826404 0.07558848 0.07684873 -0.025757942 0.08220376 0.02573399 -0.018045403 -0.0064021456 0.082877114 -0.0032909657 -0.026326153 0.07777558 -0.022124942 -0.018219179 0.08682974 -0.018029895 0.088985056 -0.024626479 -0.022773387 -0.006596273 0.07605367 0.08327124 -0.028774498 -0.015398859 0.07286159 0.092487805 0.07750575 0.08057539 0.06740889 -0.017751157 0.07806987 0.077305846 -0.020346245 -0.023427932 -0.03144681 -0.017182956 0.07936513 0.080659136 0.0734581 -0.02732732 0.08221482 -0.008579439 0.08037242 -0.027455175 0.07194604 -0.0069195814 -0.023427593 0.0806746 0.08557262 -0.018240035 0.08263231 0.06930924 -0.028620224 0.06962482 0.0030321297 0.0826183 0.093690954 -0.034459203 -0.016648384 0.08240599 0.087949626 0.08255547 0.086590104 -0.01768928 0.06344888 0.07631309 0.08669541 0.072657056 0.073304325 -0.037178453 0.08709684 -0.021587249 0.07597459 0.07931554 0.07910235 -0.009387754 -0.0101518 -0.032209557 -0.028848344 -0.024867402 -0.011611464 0.07837189 0.077374 -0.018191505
doc_2 0.006227933 0.0041803033 0.013387421 -0.064034924 0.026323406 0.134891 0.023817128 0.010917215 0.045467436 -0.039259322 0.043997046 0.00076631823 0.050979707 0.04007562 0.03764969 -0.12614773 0.10230547 0.1291492 -0.03049032 0.09372086 0.1626963 0.1325701 0.005237589 -0.038641047 0.13520828 0.013290372 0.060252335 0.046218447 0.14543642 0.115714 -0.006381999 0.12226732 0.16725473 -0.122889124 0.049504925 0.048298225 0.13666755 0.13546948 -0.045357563 0.0761257 0.16131276 0.16114576 0.07723811 0.13661885 -0.04666495 -0.10883334 -0.012487196 0.049303133 0.123839274 -0.00050991145 0.1335836 0.13176402 -0.0030861418 0.12680402 0.1361101 0.003149448 0.06564236 0.12461105 0.124817945 0.0006378389 -0.016277278 -0.0060665575 0.16383737 -0.014180848 0.11846063 0.082481444 0.10766182 0.1583473 0.020189295 -0.105402775 0.010606103 0.06825322 -0.0065716994 0.110098265 0.12494015 0.15788943 0.084907934 0.08710554 0.14704001 0.13363259 -0.03316392 0.14200619 -0.09983046 0.108009696 0.010766157 0.04596058 -0.004201916 0.18384136 0.028294336 0.15351152 0.09016322 -0.10775811 0.1528992 0.14165872 0.106461205 0.060021605 -0.12569535 -0.01569038 0.13054483 0.044821907 0.029465027 0.11675097 0.04075595 0.09203464 0.06966891 0.1511706 0.011462982 0.087303415 -0.119944625 0.12906812 -0.006724321 0.0055541946 0.1020357 0.11022014 -0.0094769485 0.10089965 -0.04965177 0.073611945 0.10014563 0.19170997 0.13620193 -0.11135015 0.013817667 -0.096065335 0.1603909 -0.100282185 -0.008492332 0.11768457 -0.0071156714 0.017125541 0.13987416 0.006527433 0.113749005 0.07033383 0.04141741 -0.009468788 0.10929888 0.1155232 0.06349078 -0.021747964 0.027362602 0.0749895 0.06011214 0.15113711 0.124147266 -0.013748382 0.18001385 0.0690947 -0.12787679 0.037750114 -0.015843682 0.006985128 0.15670618 0.14593974 0.12923968 0.23892745 -0.036053624 -0.017709207 0.13501155 0.088706546 0.09929571 -0.033728737 0.20039694 0.15438403 0.14331418 -0.00056863145 0.14577375 0.13154627 0.087797515 0.1344682 -0.09558038 0.11171136 -0.015188629 0.097297154 0.04670005 0.050563745 0.023437036 0.1398145 0.053783637 0.026818737 -0.10761618 0.16179699 0.05806639 0.13893136 0.109436214 0.092714384 0.018497976 -0.10144181 0.073353425 -0.016545814 0.1502405 -0.14125626 0.007427581 0.005284893 0.041654263 0.112843804 -0.020373343 0.026010733 -0.017734572 0.0031285167
doc_3 0.11348906 -0.0034680609 0.12475656 0.12964904 -0.006704979 0.13083118 0.1239049 -0.0077630994 0.14013764 0.13228934 -0.008243314 -0.0021707073 0.10595085 -0.0029672403 0.11513721 -0.041138962 0.12121342 0.120614395 0.10606992 0.121464536 0.1254595 0.1256954 -0.010000456 -0.019754155 0.11252328 0.11266429 -0.009834015 0.11631432 0.11304944 0.11234993 0.008054882 -0.0011515985 0.10843489 0.123841 0.1094944 0.11075509 0.12362162 0.12206088 0.0040999088 0.124378495 0.11172042 0.11239548 0.11405337 0.120985374 -0.019772079 -0.04366023 -0.0032639517 0.1148748 0.1117283 -0.008857211 0.012780401 0.1207566 -0.028182177 0.13501607 0.11749238 0.008333979 0.12323458 0.11830598 0.109124735 0.004352292 0.009308808 -0.015097901 0.10779489 0.10041788 0.12004373 0.12038522 0.07696916 0.12885791 0.12355373 0.06992132 0.11324755 0.117277086 0.1296792 0.12517266 0.11894993 0.12097046 0.11467293 -0.003156304 0.117718026 0.12165215 -0.015091604 0.013990074 -0.038107798 0.10965317 0.017800294 0.13614538 -0.03345591 0.122135006 -0.014562819 0.12074457 -0.011608554 -0.04328662 -0.027134035 0.109181955 0.11762106 0.11634916 -0.04287921 0.12326966 0.13440885 0.016086765 0.09865964 0.11228944 0.022436565 0.119854145 0.10988842 0.12238995 -0.025470963 0.11402412 -0.026421594 0.11511424 -0.007860349 0.12378854 0.11711056 0.122174844 -0.019732077 0.12068409 0.006462484 0.12812734 0.11090472 -0.010363001 0.11537894 -0.014082249 0.0076334556 -0.034763955 0.11748049 0.05978276 -0.014011576 0.12690112 -0.009943398 -0.0013571698 0.12644431 -0.020616293 0.11420082 -0.0021271934 0.0081018815 -0.019522661 0.11973937 0.12118677 0.00793253 -0.010368155 0.11905654 0.121445775 0.118551135 0.10645476 0.12717874 -0.014922455 0.11279219 0.12521511 -0.042618833 0.00021755183 -0.0023362706 -0.0025582241 0.11886915 0.12033743 0.10428071 0.006044658 0.14862093 -0.0071987626 0.12100917 0.006586046 0.12886934 -0.0026657141 0.009777471 0.12158279 0.13397226 -0.020111805 0.12505108 0.12320923 -0.0034026778 0.122662544 -0.00035618152 0.12523612 0.12901731 -0.012214106 0.0010010134 0.11833405 0.12337434 0.13079326 0.11412429 -0.011018758 0.036820907 0.12539461 0.118243456 0.10742724 0.10467719 0.020063544 0.11742928 -0.028544087 0.11020445 0.12685844 0.11932353 -0.04580527 -0.0074957865 -0.0019820184 0.0020839707 0.00013800152 -0.008284681 0.12121166 0.10204146 0.02155232
doc_4 0.042347778 -0.023951387 0.077697866 -0.028451249 -0.020576095 0.11539018 0.07686428 -0.056138538 0.10336177 0.025352614 -0.052876905 -0.05652368 0.07649682 -0.056552455 0.08961631 -0.07781727 0.11337246 0.13324885 0.03595113 0.075885415 0.1362674 0.122196496 -0.057219524 -0.08533027 0.15005535 0.043501604 0.01336617 0.10415519 0.13283147 0.13935946 -0.040742926 0.042549785 0.16041015 -0.10446125 0.062321365 0.07746838 0.12957588 0.12580375 -0.090182826 0.103243425 0.15896988 0.15675446 0.1062326 0.13504398 -0.033004757 -0.07349918 -0.08005518 0.09093659 0.108231515 -0.042324275 0.001906107 0.14984946 -0.08038323 0.13843575 0.14496118 -0.07706294 0.09812419 0.0801423 0.1318311 -0.058179162 -0.062017307 -0.038545437 0.14483713 0.022748487 0.11720464 0.099957444 0.04401428 0.14271957 0.029813882 -0.07408578 0.04433944 0.09828764 0.049202483 0.11365422 0.11172235 0.14295158 0.13864166 -0.049520694 0.13761973 0.13366961 -0.07246556 -0.020289285 -0.08179126 0.14202517 -0.059398137 0.07037493 -0.06489607 0.15931511 -0.03899298 0.1351455 -0.026011707 -0.07798682 0.02895941 0.12982595 0.111626826 0.06679521 -0.09688027 0.030536948 0.14653541 -0.040147815 0.07442105 0.10122739 -0.047351006 0.12190481 0.10215801 0.14654979 -0.07206186 0.08874677 -0.072822385 0.14452435 -0.07954571 0.05598452 0.077344775 0.12594205 -0.05124252 0.118088126 -0.07076466 0.09021806 0.09196375 0.10383154 0.14726093 -0.08487546 -0.042368203 -0.083924696 0.15639535 -0.0544688 -0.054457285 0.14526093 -0.060749955 -0.04382897 0.1533895 -0.08497846 0.11056219 -0.028805148 0.011338342 -0.061262067 0.1197279 0.11717305 -0.02322057 -0.046926405 0.061319195 0.08502829 0.06508375 0.14565071 0.12022286 -0.029569805 0.14173993 0.08067907 -0.09596069 -0.025331091 -0.056216594 -0.070529684 0.16619888 0.1521725 0.10903253 0.12470459 -0.018468643 -0.08333391 0.14579248 -0.027899032 0.11221638 -0.06813981 0.11348905 0.14994897 0.13782965 -0.08817235 0.1323888 0.10425932 -0.04456147 0.13913019 -0.09817304 0.1291447 0.05800291 0.0054840725 -0.060141046 0.06170435 0.06366664 0.13680719 0.08922144 -0.0006276155 -0.10563521 0.12685737 0.07081569 0.11481112 0.13157792 0.007785389 0.07780878 -0.08588494 0.11237196 0.06342777 0.14304703 -0.10041849 -0.08555892 -0.07287072 0.00724091 0.04584606 -0.054392636 0.045999642 0.04223325 -0.029839138
doc_5 0.15072277 -0.048616808 0.14801869 -0.0043026204 -0.03427685 0.15457143 0.16703184 -0.05457226 0.14630693 0.12935558 -0.0481555 -0.046215255 0.14919631 -0.04840393 0.14892805 -0.041512407 0.15239777 0.16072695 0.14758149 0.14564358 0.1528179 0.14709757 -0.043793157 -0.044670194 0.15502158 0.15281591 -0.0404964 0.17443293 0.1568947 0.1340149 -0.04226554 -0.038735155 0.15020879 0.11716972 0.14183651 0.15035158 0.15918969 0.16372663 -0.05213171 0.14640784 0.14443636 0.15070237 0.15266354 0.14747573 -0.03684931 -0.05888278 -0.028650474 0.14581381 0.16720235 -0.057869714 -0.033957556 0.15745856 -0.039326694 0.14163457 0.16248868 -0.042654447 0.15914227 0.16930775 0.15872297 -0.048419468 -0.05436349 -0.02977856 0.15452987 0.14856368 0.16762827 0.15142818 0.012375898 0.13260747 0.14867052 -0.052219696 0.14288314 0.16435082 0.14586921 0.15554024 0.1461723 0.12968455 0.14392588 -0.03988026 0.16633816 0.16511619 -0.055737663 -0.04520923 -0.052536827 0.1589914 -0.0436977 0.14091873 -0.024258625 0.1633354 -0.05513788 0.13357922 -0.053201757 -0.053159267 -0.047219537 0.14951178 0.15360609 0.14941029 -0.052690834 0.14291768 0.14273882 -0.04922793 0.15005648 0.15339668 -0.033603776 0.15254685 0.15470345 0.16336001 -0.05747791 0.1448372 -0.02982964 0.14462331 -0.043590445 0.14273927 0.14421032 0.15754765 -0.03853526 0.14767884 -0.04521037 0.15046033 0.15221137 -0.028448269 0.15721452 -0.051276498 -0.048951253 -0.051127832 0.14281368 -0.03693607 -0.04930075 0.15792537 -0.05073295 -0.052047957 0.15935984 -0.05367782 0.14625463 -0.04688327 -0.048697215 -0.060122572 0.16693439 0.15731923 -0.057127763 -0.047186922 0.16315766 0.1540778 0.15487781 0.14167017 0.14861813 -0.044297118 0.15336339 0.14533213 -0.056054085 -0.05008202 -0.047136568 -0.05348386 0.15732132 0.14505161 0.16080768 -0.03331482 0.10947448 -0.055648528 0.1565808 -0.028193131 0.15894794 -0.045376636 -0.015777115 0.14945672 0.13794169 -0.049627293 0.15073508 0.1406918 -0.014672539 0.15305181 -0.057225518 0.16735457 0.1434758 -0.047881223 -0.051313717 0.14484869 0.15644756 0.15443 0.15762018 -0.037827596 -0.04320423 0.13395438 0.14320593 0.16533853 0.15186112 -0.0064079864 0.15501484 -0.05046717 0.15390395 0.15417455 0.15931268 -0.058026157 -0.053443413 -0.05092679 -0.019500095 -0.023434773 -0.028535508 0.16498893 0.15827627 -0.051136717
doc_6 0.16265829 -0.08308272 0.15303059 -0.017304806 -0.055375084 0.17048962 0.14500815 -0.041595507 0.16696426 0.14727628 -0.058537625 -0.058759086 0.14094348 -0.062970445 0.14735544 -0.056089476 0.16775577 0.14826262 0.124998294 0.14376332 0.14019506 0.14417614 -0.06370894 -0.062480617 0.16211787 0.14986765 -0.07775499 0.13745596 0.14792538 0.15398848 -0.06261974 -0.031994727 0.14878179 0.099037774 0.15455955 0.15069062 0.14556338 0.16177814 -0.052416414 0.1697031 0.15802784 0.15836814 0.1464363 0.16051956 -0.050041843 -0.033454776 -0.07056655 0.15328921 0.17298177 -0.06437297 0.0010179773 0.16436146 -0.069196664 0.15873463 0.14020216 -0.06470386 0.15763456 0.1694491 0.1615311 -0.07073543 -0.072475895 -0.033786617 0.1577633 0.17095496 0.15334314 0.14774631 0.009276854 0.15974553 0.15637012 -0.047680773 0.16547734 0.14999461 0.15173283 0.17001817 0.15569937 0.16940577 0.16352646 -0.02797688 0.15663707 0.16272895 -0.05662673 -0.0002563506 -0.06447952 0.16917823 -0.06762975 0.14472847 -0.056996886 0.15560241 -0.067521736 0.15609686 -0.07958448 -0.0130525 -0.06759985 0.16561228 0.17285284 0.15125407 -0.035060067 0.15355824 0.16800694 -0.06414412 0.1560604 0.15562016 -0.056420706 0.13944867 0.16149436 0.15275647 -0.05838954 0.1655732 -0.045501657 0.16411786 -0.06313984 0.14135003 0.15044335 0.16468257 -0.06752735 0.15474592 -0.058607645 0.17068714 0.16591851 -0.0557614 0.12775752 -0.054332923 -0.067707315 -0.016358249 0.14586754 -0.048275076 -0.014762139 0.16256116 -0.068212844 -0.062560506 0.1608508 -0.049267665 0.17083403 -0.06582425 -0.08117118 -0.0346901 0.15588659 0.15976179 -0.046580993 -0.059737228 0.14379649 0.18139313 0.15838535 0.15954122 0.15884548 -0.05546589 0.1559051 0.1478236 -0.04684636 -0.08874919 -0.06412414 -0.061456624 0.15910217 0.16957766 0.159949 0.017521925 -0.026953224 -0.032534886 0.16466615 -0.06357168 0.16293374 -0.060394693 -0.04550695 0.1644419 0.13206701 -0.062057987 0.16255991 0.15830095 -0.07866056 0.16402414 -0.03525872 0.166328 0.14137861 -0.06893329 -0.061443463 0.13954222 0.13586798 0.15812153 0.16499914 -0.07992611 -0.029237201 0.1487837 0.13033895 0.14004296 0.16208586 0.0002141273 0.16603291 -0.035366558 0.16596378 0.14945398 0.15454 -0.03136465 -0.068175144 -0.055402324 -0.07166194 -0.04015767 -0.074339546 0.16262726 0.14017119 -0.062557526
doc_7 0.04149715 -0.023210526 0.07784116 -0.028505702 -0.018087765 0.11348585 0.07784852 -0.053208075 0.10218809 0.027888546 -0.05108835 -0.05329266 0.07592484 -0.054998163 0.0897567 -0.077960595 0.113635816 0.13297255 0.036550924 0.07349076 0.133652 0.120910525 -0.05660294 -0.082651146 0.14872809 0.04386805 0.013731966 0.10424949 0.12999356 0.1387837 -0.036631107 0.044647444 0.15696272 -0.097532995 0.060941342 0.07787219 0.12796462 0.12553364 -0.08774636 0.10277733 0.15655777 0.15547574 0.104186825 0.13184276 -0.03138799 -0.07155437 -0.07638225 0.091095865 0.1050163 -0.038818013 0.00024923868 0.14880194 -0.07911149 0.13643022 0.14276078 -0.0746247 0.09786871 0.079318754 0.12936231 -0.056605555 -0.058700066 -0.0337714 0.14493257 0.022723187 0.11550007 0.100184865 0.04452187 0.14013273 0.03287911 -0.07307772 0.04548255 0.09849251 0.05059257 0.111891635 0.11045282 0.14052169 0.13950913 -0.04897581 0.13606738 0.13220334 -0.06976026 -0.020735722 -0.07909013 0.14082207 -0.056998283 0.06959613 -0.06387071 0.15610014 -0.03599146 0.13429606 -0.025699304 -0.076071136 0.029611561 0.12817697 0.11163063 0.06746602 -0.096595176 0.0296783 0.14364602 -0.036417603 0.074879706 0.09952794 -0.044487305 0.12246546 0.102894396 0.14516199 -0.0686036 0.08919739 -0.07232032 0.1441756 -0.07845281 0.05560676 0.075211145 0.12445019 -0.048564434 0.116985925 -0.066732526 0.08944798 0.09117477 0.100886516 0.14777558 -0.083412044 -0.04016247 -0.08191964 0.15374798 -0.053416535 -0.054838534 0.1445294 -0.05903663 -0.042130224 0.15143721 -0.083859995 0.10903392 -0.02739465 0.0145091135 -0.058253027 0.11741361 0.11471744 -0.026072454 -0.04400762 0.061363686 0.08422505 0.06563979 0.14383218 0.11664149 -0.026135009 0.13823973 0.08165531 -0.09533475 -0.024636798 -0.053186856 -0.06730638 0.16381556 0.15082757 0.10788515 0.12222197 -0.016098619 -0.079380184 0.14318171 -0.026806217 0.11067506 -0.06451646 0.11164224 0.14860046 0.13719417 -0.085932754 0.13023041 0.10154975 -0.043515045 0.13714848 -0.09875373 0.12808552 0.05770524 0.005389937 -0.059790246 0.061729588 0.063315265 0.13547449 0.08908652 0.0017968809 -0.10607036 0.12496406 0.069406934 0.11256138 0.13054888 0.008810427 0.07788578 -0.08462174 0.11203659 0.063771315 0.14295694 -0.09528183 -0.08402879 -0.06968899 0.008247439 0.0460035 -0.050171975 0.04835766 0.042415194 -0.029257314
doc_8 0.06647783 -0.0225576 0.056782883 0.057546187 -0.02054175 0.048646316 0.05901394 -0.011528423 0.06284097 0.052438587 -0.019073304 -0.016842004 0.07098921 -0.014616302 0.059159517 -0.015154647 0.059405062 0.05323103 0.066104926 0.061965887 0.060034014 0.061340354 -0.012825503 -0.015694883 0.05587217 0.05677095 -0.020906176 0.062068485 0.054614015 0.061070483 -0.012422213 -0.020254098 0.060340106 0.057008717 0.054374628 0.06978538 0.052836455 0.06470804 -0.015552361 0.052616388 0.053301476 0.05321221 0.06366323 0.05407191 -0.01115671 -0.008512816 -0.017018829 0.05112814 0.060110588 -0.014421495 -0.014761277 0.06033621 -0.02056287 0.058197804 0.0588341 -0.014356413 0.062168308 0.045218438 0.062252976 -0.018083893 -0.014140529 -0.010639074 0.05633696 0.06023547 0.06199625 0.06807876 0.05425951 0.04871588 0.06117419 -0.0231247 0.06203506 0.059510518 0.060783554 0.055653 0.06255077 0.050193544 0.055857673 -0.021194449 0.05087736 0.059210017 -0.011825334 -0.019939203 -0.019883242 0.058196392 -0.01899343 0.06725307 -0.022302233 0.061772827 -0.014704064 0.05434988 -0.024849135 -0.014012659 -0.022826705 0.05839131 0.06449782 0.06867199 0.029391728 0.061643213 0.052813888 -0.010802615 0.0671844 0.053316943 -0.017213434 0.060790494 0.056669775 0.058409717 -0.018285472 0.061454073 -0.0106084505 0.049883556 -0.013067278 0.054712877 0.059697445 0.056663673 -0.010022484 0.060022444 -0.0123937065 0.0571762 0.057784885 -0.016972061 0.06082382 -0.015198409 -0.011684682 -0.0031784691 0.06308324 -0.008186644 -0.018212121 0.061187558 -0.023912448 -0.012986699 0.05953643 -0.020208541 0.05957885 -0.022760674 -0.020759173 -0.011194818 0.062424432 0.06149499 -0.015712498 -0.015262796 0.05559811 0.059002884 0.05741477 0.0650546 0.06467655 -0.01457876 0.05589012 0.057670817 -0.011947546 -0.018059907 -0.014892109 -0.016689986 0.051076703 0.051010564 0.06489742 -0.019607652 0.06883954 -0.008060336 0.062227294 -0.017333975 0.05757826 -0.0143119 -0.022861062 0.05494009 0.058202352 -0.018190311 0.0478452 0.05224794 -0.015050258 0.06000539 -0.013397789 0.05518928 0.06510357 -0.012964186 -0.019825522 0.06227956 0.059506636 0.048993696 0.05911146 -0.019029088 0.0035737539 0.052006576 0.056707203 0.06442928 0.06475966 -0.013648562 0.06632501 -0.017829204 0.062253997 0.057866298 0.05448461 -0.017689265 -0.018488744 -0.012779346 -0.023411937 -0.023571027 -0.0146461055 0.07176766 0.06334025 -0.020035125
doc_9 0.058388643 0.018354528 0.06641188 0.014916608 0.044427145 0.100641586 0.080646165 -0.026574038 0.07883591 0.062164217 0.025143478 0.002583596 0.07244521 -0.014382642 0.07357863 -0.038225234 0.09264287 0.098320454 0.050162077 0.07841974 0.100036286 0.08695955 0.014287276 -0.024305305 0.10127014 0.070108816 0.020300006 0.0760105 0.096454166 0.09085371 0.035212252 0.06432099 0.0969205 0.03813147 0.07664739 0.055303365 0.09742215 0.09480233 0.0050076446 0.08464341 0.09368191 0.093000636 0.071740165 0.09371962 -0.044909112 -0.05100067 -0.014572584 0.07349131 0.08100685 -0.007057324 0.03212195 0.08458306 -0.016129615 0.084910385 0.08899785 0.0027358728 0.07044366 0.083075434 0.08737874 0.0017474345 0.01669258 -0.013826571 0.08483 0.045658883 0.094410665 0.07051183 0.11715039 0.09694156 0.06844665 -0.041325953 0.057107463 0.08445037 0.060565732 0.08864317 0.09202778 0.07920246 0.08500949 0.026611362 0.100399405 0.09666723 -0.005629096 -0.0004921335 -0.04626583 0.08616317 0.022103477 0.061563965 -0.038813766 0.0957797 -0.019811852 0.09514748 0.021624222 -0.054150466 0.034802258 0.09900096 0.08248714 0.069507524 -0.054888673 0.06645114 0.092406385 -0.00076539186 0.06337029 0.08110541 0.009712749 0.08384133 0.082329385 0.084591754 -0.04644851 0.07583928 -0.0522205 0.09652378 -0.020584533 0.060343497 0.08119736 0.07820259 0.006764201 0.088046454 -0.010881531 0.081248835 0.078716196 0.031419948 0.07931342 -0.045918193 0.040751066 -0.04657833 0.097224936 -0.039168123 -0.0055650836 0.08518196 -0.005140081 -0.007284916 0.09373848 -0.029343614 0.07763363 0.02378184 0.03847482 -0.030523466 0.08877179 0.1005519 0.004170337 -0.008869472 0.07803878 0.08097566 0.07321539 0.09094407 0.079237424 -0.016587052 0.08748474 0.08351159 -0.052037407 0.03974573 0.0224481 -0.010641051 0.0841446 0.090336315 0.090597846 0.06796112 0.066597916 -0.015025064 0.086671144 0.0061752927 0.07155061 -0.0013789929 0.08486757 0.10402619 0.09350318 -0.033472564 0.09960572 0.07908367 0.027335541 0.09258826 -0.053241786 0.087084986 0.0750496 0.035440568 0.024073841 0.06830245 0.050497033 0.089597486 0.083875194 0.024435654 -0.022086987 0.096294366 0.06205117 0.08066456 0.08683673 0.04034509 0.06427141 -0.048490778 0.0813438 0.06445265 0.08595567 -0.061295874 -0.0072377 0.021840638 0.041414686 0.055995286 0.009784388 0.07793193 0.054181192 0.014611274
doc_10 0.0779236 -0.02027144 0.076970026 0.056622423 0.061555266 0.114544965 0.096161895 -0.056643043 0.093344554 0.06666728 -0.004019305 -0.048444103 0.124682896 -0.058202226 0.098042585 -0.016399851 0.11749916 0.12455185 0.10344842 0.098307 0.11890551 0.12676457 -0.038461823 -0.05436582 0.12046737 0.10045453 -0.060253613 0.10270271 0.1162272 0.12282588 0.0041649695 0.024611583 0.13112411 -0.051669233 0.104729526 0.09684462 0.10841004 0.104647785 -0.047520474 0.12665929 0.10883364 0.11804337 0.095139146 0.1124638 -0.030821461 -0.05676121 -0.050796703 0.11348151 0.118254945 -0.0026588934 0.040939316 0.100526616 -0.030920718 0.10795819 0.11271158 -0.022733603 0.10716031 0.12934478 0.11735121 -0.05541921 0.014818435 -0.045905214 0.08537783 0.095930606 0.101399325 0.118445605 -0.030933537 0.102351785 0.088524275 0.098537 0.10293722 0.12668614 0.11714103 0.118356206 0.11991962 0.12528257 0.10862552 0.013024075 0.09981981 0.12148589 -0.055954054 -0.03821961 -0.06045689 0.12433267 -0.032530896 0.09039972 -0.04551615 0.12365066 -0.057844806 0.13408403 -0.00059938966 -0.056673512 -0.028051307 0.11906037 0.094113566 0.10085513 -0.045249388 0.093936995 0.12135098 -0.00609593 0.10033484 0.12513196 -0.029010179 0.10335518 0.09903396 0.14009514 -0.041777197 0.088287346 -0.03890669 0.103282936 -0.06484814 0.06789252 0.12863913 0.07959451 -0.03129855 0.09730335 -0.048570715 0.10664535 0.1186022 0.057487294 0.12072007 -0.03971986 -0.017503176 -0.048102945 0.1332121 -0.049584817 -0.05448345 0.12024037 -0.06791065 -0.05238917 0.0984402 -0.059241973 0.10821315 -0.037918154 0.008054613 -0.05534022 0.108687215 0.114530906 -0.042287797 -0.04229918 0.11339833 0.10605377 0.1274043 0.13560344 0.086984485 -0.05274335 0.13900736 0.12906516 -0.06195115 0.0056931106 -0.016371205 -0.072136775 0.11610525 0.09937284 0.1262913 0.039010767 -0.02267857 -0.03906776 0.10990784 -0.030248169 0.106278405 0.01822724 0.116812706 0.12787727 0.10779801 -0.06312308 0.11642483 0.12493363 0.005429037 0.10138836 -0.050588865 0.12629606 0.09642043 -0.031615615 -0.012289925 0.08890409 0.059825756 0.097151525 0.12233883 -0.0137092 0.023329694 0.111267634 0.082419276 0.12129993 0.07675498 -0.008008383 0.10190318 0.084311105 0.12090794 0.089182355 0.10218275 -0.07468323 -0.06133413 -0.051158316 0.053726535 0.054417685 -0.015034018 0.07605451 0.084587745 0.056410834
doc_11 0.08722332 -0.027377866 0.08097208 -0.02875763 0.023809278 0.09192992 0.08499138 -0.01879059 0.08925691 0.07847684 -0.009799582 0.0009021639 0.07368154 -0.034424026 0.071949385 -0.05421103 0.09512406 0.1231836 0.07329526 0.1085276 0.12532814 0.09742125 -0.009836304 -0.043285046 0.109820805 0.086190656 0.007414468 0.10107724 0.09698333 0.090519734 -0.008767666 0.0521615 0.10821572 -0.04428984 0.07548587 0.10927279 0.09356702 0.09570879 0.0052690273 0.11512164 0.0903234 0.07489253 0.09343497 0.114415035 -0.04796961 -0.050003428 -0.019607758 0.07962304 0.11199601 -0.024307426 0.015987147 0.11255433 -0.04131729 0.119579576 0.12001468 -0.005541499 0.11377254 0.08120477 0.086593404 -0.013399022 -0.014753564 -0.03189742 0.07515732 0.095991135 0.1157403 0.10791002 0.040652514 0.10681837 0.07973089 -0.059935074 0.08870574 0.08903369 0.076978356 0.09737821 0.11884199 0.10941869 0.09430842 -0.0060383575 0.09981563 0.1085666 -0.017467918 -0.013859503 -0.045749914 0.08893776 -0.007329748 0.09298565 -0.033434678 0.08927985 -0.01756619 0.10824342 -0.018172845 -0.062087838 -0.0046037952 0.10967634 0.08262134 0.09814721 -0.058462817 0.09385183 0.1091986 0.013164772 0.09243935 0.09934819 -0.016763343 0.09460295 0.09497426 0.0960435 -0.031038985 0.09986811 -0.03847623 0.10957383 -0.021801626 0.067314655 0.095655 0.100375645 -0.033708584 0.0946275 0.004252962 0.09174438 0.1007687 -0.0047654095 0.11642054 -0.06443498 0.025422867 -0.04162882 0.12458203 -0.044567652 -0.012312327 0.10829827 -0.033068605 -0.011838471 0.09504958 -0.02700221 0.08219928 -0.00256504 0.008378256 -0.047209363 0.09147166 0.107073955 -0.0499884 -0.031857617 0.067184806 0.12601763 0.10685343 0.09392888 0.10651265 -0.024004467 0.11500106 0.11232597 -0.055148028 -0.022974197 -0.01363885 -0.0048850905 0.08771196 0.108293205 0.0814015 0.031594254 0.11214174 -0.017935146 0.10465494 -0.0053009554 0.07837187 0.0007406543 0.048487443 0.09042936 0.09468742 -0.02057736 0.099301115 0.10785421 0.019551978 0.101599805 -0.05090486 0.08795132 0.095226884 0.032269444 -0.01127132 0.07905901 0.10023543 0.091819845 0.079276465 -0.004899348 -0.030430296 0.107865244 0.10547212 0.1019597 0.09124552 -0.0014951437 0.09266284 -0.047100592 0.098640665 0.08132945 0.098619156 -0.054488644 -0.013635334 -0.0062726187 0.037689883 -0.008306933 -0.032162067 0.08164941 0.09236981 -0.031348146
doc_12 0.092129745 -0.03689169 0.087448746 -0.015392287 -0.03656971 0.08088081 0.087194785 -0.039887905 0.08493301 0.09164432 -0.035346806 -0.034400787 0.088600084 -0.036916185 0.09465047 -0.03033698 0.08293912 0.0823081 0.08871335 0.08407964 0.084929146 0.086555265 -0.030673103 -0.035435397 0.086251564 0.08534099 -0.028705627 0.081836544 0.08832544 0.08650975 -0.035134632 -0.02982529 0.0921102 0.068436585 0.08674565 0.085314676 0.08327959 0.08031629 -0.032773312 0.08618771 0.08388543 0.09082363 0.08694413 0.090870366 -0.026668841 -0.023176521 -0.035005566 0.08516866 0.083276 -0.031444028 -0.03598185 0.084951974 -0.029166998 0.08455574 0.07606427 -0.029526476 0.0931624 0.07920236 0.0828893 -0.035523124 -0.037142046 -0.038763907 0.08827218 0.083094634 0.08950601 0.08803042 0.092317194 0.07860686 0.08946136 -0.031668752 0.08477018 0.08320794 0.08432785 0.08670063 0.08214838 0.086840406 0.08417348 -0.031027928 0.09222717 0.08326443 -0.031807695 -0.03490127 -0.02044087 0.083847284 -0.032146215 0.08628654 -0.032775845 0.09338816 -0.03658791 0.087420024 -0.031975977 -0.032349028 -0.037430346 0.08788839 0.087822475 0.08858632 -0.033425633 0.085190274 0.08860409 -0.033344954 0.087435 0.08730078 -0.038252413 0.086900204 0.08674149 0.08973771 -0.032916944 0.082251474 -0.032252442 0.08932887 -0.033726186 0.09031594 0.08164904 0.08637785 -0.035433624 0.08587116 -0.03741313 0.09537272 0.08999048 -0.03406231 0.08381928 -0.0257042 -0.031335954 -0.027206039 0.08935806 -0.005375953 -0.038125794 0.08432722 -0.0350037 -0.029618498 0.08474059 -0.031721674 0.085901596 -0.035157487 -0.026585447 -0.03491263 0.09060645 0.0898625 -0.0338813 -0.03486586 0.08877232 0.084486715 0.08974486 0.09160929 0.080806345 -0.032539424 0.09685929 0.08637512 -0.030187206 -0.036198437 -0.031137826 -0.03298876 0.080853656 0.08698798 0.08177599 -0.013864583 0.08278602 -0.028904844 0.07616289 -0.0418794 0.08472302 -0.03888624 -0.031251717 0.08544586 0.089464426 -0.032577083 0.08905595 0.088026494 -0.029245302 0.08440171 -0.018636176 0.08446916 0.086755306 -0.031676676 -0.029395215 0.088878244 0.085255176 0.079500236 0.08828833 -0.0401854 -0.017529704 0.083245516 0.097033784 0.07989472 0.08737899 -0.030643327 0.09285199 -0.026476823 0.0857082 0.08222097 0.089364864 -0.031017935 -0.030150682 -0.033463795 -0.03747731 -0.028117787 -0.041243788 0.092490554 0.07921266 -0.03157899
doc_13 0.070261866 -0.013504921 0.07113058 -0.0064926506 -0.015696274 0.06695389 0.064466126 -0.016920922 0.06147517 0.061775737 -0.019104984 -0.02032679 0.06948693 -0.016300216 0.063174784 -0.019745639 0.06595963 0.06309917 0.06700185 0.06689061 0.06518119 0.06579753 -0.018447394 -0.020138685 0.06438 0.06469938 -0.0076881386 0.067210965 0.06632229 0.059297718 -0.014153483 -0.015793892 0.06220057 0.061064597 0.06739435 0.06814597 0.07166551 0.06440826 -0.021936521 0.06382327 0.058498092 0.06879556 0.07017861 0.06649712 0.043158904 -0.0007527818 -0.020033652 0.06412218 0.06522293 -0.023333522 -0.021208122 0.06097136 -0.016989533 0.06353827 0.06753216 -0.020882113 0.062130928 0.060129065 0.0600664 -0.016022919 -0.01859606 -0.023540163 0.0663072 0.062277053 0.064003035 0.066265814 0.07193827 0.06243407 0.06402699 -0.023842989 0.06829555 0.067483485 0.070236206 0.06046801 0.06648142 0.06449214 0.06254821 -0.015463784 0.06330543 0.06028338 -0.022282273 -0.026197607 -0.016156968 0.06505688 -0.019208351 0.06381316 -0.022650965 0.065495595 -0.018274564 0.060496904 -0.019747356 -0.023498112 -0.021271188 0.059164874 0.06900799 0.061790604 -0.025075356 0.056343906 0.06284227 -0.022068534 0.06400106 0.06832007 -0.01964778 0.066478 0.06602838 0.066005304 -0.024892189 0.065359674 -0.023808947 0.06489029 -0.024152402 0.06776817 0.06541765 0.0671609 -0.016518863 0.065417476 -0.024163513 0.06753577 0.06328476 -0.0085506 0.06250127 -0.022393977 -0.015702263 -0.019857908 0.06088606 -0.02553591 -0.023046434 0.06765783 -0.018389277 -0.021692295 0.066676795 -0.022172648 0.06815533 -0.020436585 -0.014740681 -0.023611251 0.06296077 0.062208135 -0.0009789573 -0.021404076 0.06843236 0.07128574 0.059882544 0.06933254 0.068970926 -0.022044815 0.06684969 0.07245074 -0.024853878 -0.0207133 -0.019635715 -0.018357977 0.05928386 0.06743227 0.06367268 -0.009632187 0.062362995 -0.025810467 0.064758964 -0.021867832 0.06582647 -0.020448565 -0.009513378 0.0647127 0.06666677 -0.022228274 0.060294557 0.06816864 -0.025535697 0.065551125 -0.025169361 0.061843544 0.06540668 -0.02141645 -0.019988684 0.069985114 0.07036227 0.060425725 0.069131605 -0.02172037 -0.020215344 0.06536226 0.061026633 0.06342937 0.06679033 -0.009046599 0.06548064 -0.015121216 0.06987734 0.06847158 0.064907804 -0.025702482 -0.025158104 -0.019713543 -0.017194415 -0.0145362085 -0.02875958 0.07061545 0.062248584 -0.023408847
doc_14 0.06108777 -0.022074264 0.0625194 -0.008640999 -0.012009535 0.06041364 0.06455928 -0.02761313 0.0625585 0.05841842 -0.013539127 -0.020251643 0.061643597 -0.01855795 0.06537283 -0.025715549 0.06669148 0.06523386 0.06124029 0.060720433 0.06449671 0.065326385 -0.018728506 -0.023647731 0.06418949 0.06067983 -0.010359953 0.062422376 0.062409125 0.06423991 -0.017240103 -0.003807623 0.073323056 0.048091702 0.057262097 0.060368914 0.06772132 0.059332497 -0.020871101 0.06364932 0.05894099 0.06361981 0.06534903 0.06501169 -0.027313305 -0.025258964 -0.020766182 0.05946364 0.06288024 -0.020351315 -0.011798699 0.063740805 -0.011072195 0.06785221 0.06484002 -0.015182413 0.06356097 0.05960146 0.06499973 -0.022658262 -0.019235376 -0.024353988 0.06616908 0.05617759 0.06700197 0.059228178 0.070399046 0.059834503 0.060240924 -0.027605036 0.058366943 0.06399602 0.062189385 0.062046066 0.06558022 0.064226 0.06690765 -0.0011533325 0.065619245 0.06806431 -0.027009664 -0.015969217 -0.024651691 0.060740627 -0.015330119 0.05772984 -0.02685998 0.06909102 -0.020598168 0.06905662 -0.01630997 -0.028316936 -0.012500256 0.065531686 0.06419741 0.05635301 -0.028760254 0.06055656 0.06642464 -0.014465195 0.062429707 0.06719292 -0.021209136 0.06485062 0.06721675 0.07119946 -0.028769316 0.064948656 -0.029432397 0.06901566 -0.020843538 0.065504715 0.06335093 0.06154703 -0.017696988 0.06112259 -0.02126202 0.06956482 0.05907276 -0.015140587 0.06660489 -0.024274815 -0.009838628 -0.023850106 0.07431402 -0.0024447143 -0.028522095 0.06365012 -0.012164951 -0.010213109 0.06334713 -0.024099048 0.06639563 -0.012155532 -0.009623727 -0.025958015 0.06338411 0.06751433 -0.018102996 -0.022013536 0.061949242 0.06287504 0.057200946 0.06754113 0.06201668 -0.022644775 0.072240345 0.06374696 -0.021286825 -0.0103466 -0.013950974 -0.022451399 0.06565785 0.06664734 0.06484379 0.004765951 0.04768527 -0.022897825 0.058145836 -0.021574084 0.062019616 -0.016541064 0.0037436367 0.06483603 0.06652979 -0.025271019 0.061537694 0.06467354 -0.015781123 0.0650626 -0.03156561 0.06599172 0.061373137 -0.008645604 -0.018860836 0.062122863 0.060181703 0.062938705 0.06619383 -0.009816571 -0.033845887 0.06344934 0.0688154 0.06318168 0.059074905 -0.0089256875 0.059664395 -0.024483021 0.05965774 0.056574903 0.06664394 -0.02576464 -0.025186168 -0.011861116 -0.009483409 -0.00075543835 -0.020722788 0.060107954 0.053492613 -0.013029073
doc_15 0.07288801 -0.016781745 0.0719593 -0.003990867 -0.012588476 0.06439124 0.06707975 -0.023123942 0.067398496 0.07155844 -0.01710778 -0.019898845 0.07163127 -0.018160498 0.069741815 -0.023099162 0.06855893 0.06786116 0.07072535 0.06769523 0.066749275 0.067286834 -0.013724638 -0.022181801 0.06452502 0.0648846 -0.01451864 0.06220712 0.06630792 0.06939169 -0.016931675 -0.006720159 0.07178375 0.05918239 0.065396994 0.07005523 0.0687202 0.063999675 -0.019275803 0.06798392 0.06326666 0.06714439 0.06756356 0.066987924 -0.020940108 -0.018760735 -0.011870199 0.064826235 0.06848153 -0.015787281 -0.015388096 0.07014782 -0.011050681 0.070861295 0.0639025 -0.010722517 0.069270104 0.064367644 0.06805969 -0.016670257 -0.02145552 -0.024683345 0.06911048 0.06796822 0.07222207 0.06722847 0.060995117 0.062276307 0.07027699 -0.022449194 0.06602679 0.07064892 0.07105531 0.0668007 0.06469627 0.069017485 0.07118215 -0.009162009 0.06958931 0.06748002 -0.016295768 -0.014273403 -0.02110507 0.06656357 -0.013656808 0.06948565 -0.02324018 0.070118554 -0.019484902 0.070504606 -0.014540571 -0.024942694 -0.015525819 0.06862853 0.066980146 0.06527405 -0.02588016 0.07236836 0.06960254 -0.014521615 0.06902422 0.07236159 -0.016509188 0.06910532 0.06879447 0.07508701 -0.026656723 0.0684914 -0.024252074 0.07136136 -0.020469967 0.068979256 0.06997849 0.069984265 -0.010233165 0.06622605 -0.021745238 0.072681665 0.064149804 -0.013252267 0.06558135 -0.01796196 -0.010682314 -0.02191825 0.07401788 0.0013647174 -0.023630232 0.0662728 -0.014488777 -0.015281078 0.06760924 -0.024856072 0.068938404 -0.013735869 -0.01091117 -0.019781847 0.07171933 0.07365515 -0.019191394 -0.019061876 0.06983757 0.06906574 0.06462988 0.0728972 0.06393361 -0.022752114 0.07320072 0.06906477 -0.018754251 -0.011962803 -0.0026865392 -0.01976464 0.06653198 0.066279635 0.06934015 0.0023760814 0.065227196 -0.0139599135 0.057298277 -0.01955795 0.068283215 -0.012069825 0.0055496846 0.06931856 0.069168635 -0.022898214 0.06622403 0.0690279 -0.011290727 0.06671465 -0.02356561 0.06995453 0.070137836 -0.012588804 -0.013179056 0.06956276 0.0684169 0.062256105 0.072024375 -0.016982723 -0.0252072 0.06594703 0.074233346 0.06974423 0.06407174 -0.008170087 0.071198374 -0.020608181 0.06413296 0.064657696 0.07040292 -0.024415169 -0.025909398 -0.013210714 -0.010676883 -0.0041034 -0.021642823 0.069935545 0.06494804 -0.008425488
doc_16 -0.07730936 0.13384952 -0.08063978 -0.012989083 0.1481666 -0.06813461 -0.070870504 0.15280782 -0.078065254 -0.07942388 0.09175466 0.14431024 -0.08463212 0.15946046 -0.077958256 -0.037305202 -0.07042929 -0.06546864 -0.072245784 -0.07313435 -0.057160214 -0.073920585 0.14879803 0.12840362 -0.073800385 -0.080976285 0.14947791 -0.07282871 -0.07053512 -0.06918836 0.13770539 0.15882638 -0.055063028 -0.052616555 -0.073194236 -0.07757134 -0.061685503 -0.06643189 0.13755846 -0.07201568 -0.06510067 -0.06051392 -0.07822997 -0.06878414 -0.016345374 -0.022991914 0.074283674 -0.07406027 -0.068938226 0.14303124 0.13487464 -0.07109386 0.12953877 -0.06210737 -0.073426045 0.12138897 -0.07578091 -0.07637438 -0.070089884 0.108661324 0.1386948 0.15271997 -0.06724636 -0.08631048 -0.070613965 -0.0660718 0.011030674 -0.062400617 -0.08561471 -0.0049037524 -0.07017415 -0.06788461 -0.07537087 -0.07522841 -0.0739715 -0.06979668 -0.061411683 0.094926775 -0.07302481 -0.06381111 0.09486747 0.1452344 0.09867622 -0.071439005 0.09393705 -0.07194922 0.09371535 -0.062456515 0.10433693 -0.06843402 0.0682159 -0.02627126 0.1413941 -0.079584524 -0.06631278 -0.079208754 -0.030148244 -0.07609869 -0.07166075 0.15871245 -0.07465557 -0.072632894 0.15253733 -0.06426056 -0.060575802 -0.06843789 0.14067096 -0.06406038 -0.040624436 -0.07577817 0.06662807 -0.08039166 -0.080761954 -0.08162284 0.12830284 -0.07629699 0.15511726 -0.07061866 -0.077627644 0.12751973 -0.07489526 -0.0114943115 0.095288984 -0.01226603 -0.06493071 -0.010636365 0.14365649 -0.06345746 0.13758524 0.13367838 -0.06813564 0.07151204 -0.079212606 0.13760437 0.15469891 0.14605528 -0.07463898 -0.06486269 0.08198538 0.111051254 -0.075864635 -0.07041589 -0.08056584 -0.07203608 -0.064123124 0.1458843 -0.06420087 -0.07167253 -0.025008176 0.15676779 0.13061172 0.16241947 -0.061611116 -0.07755731 -0.072138615 0.1016553 -0.044889018 0.08473115 -0.067360155 0.14228493 -0.07457027 0.14380367 0.14659953 -0.060396627 -0.07968373 0.09730013 -0.06709583 -0.058413062 0.101107724 -0.06983671 -0.017684164 -0.077484205 -0.07687275 0.11331111 0.13185796 -0.08738864 -0.07703097 -0.059590615 -0.088951856 0.13532306 -0.02496296 -0.06824745 -0.083881825 -0.07805643 -0.07932488 0.15771233 -0.074597225 -0.037762024 -0.07217356 -0.07956533 -0.06695598 0.07616014 0.14931676 0.1539158 0.16451347 0.13536096 0.14916514 -0.07730732 -0.088114604 0.14836332
doc_17 0.09460578 -0.025583016 0.10215227 0.10568285 -0.012695382 0.102051206 0.08394767 -0.027634386 0.11086157 0.08366945 -0.028087076 -0.019760214 0.092271365 -0.02386083 0.10725187 -0.009982842 0.11103202 0.11339028 0.09745817 0.10453567 0.096620575 0.11279315 -0.02312667 -0.036683466 0.1065593 0.09882457 -0.024200289 0.08112159 0.088325545 0.10800484 -0.025229486 -0.034674205 0.09610604 0.106561214 0.11833351 0.10935314 0.10140771 0.09669042 -0.016739843 0.11072366 0.106685996 0.09509027 0.088300005 0.0984739 -0.012817639 -0.021550927 -0.023374517 0.10247154 0.10378712 -0.023424624 -0.026823316 0.11149007 -0.016365513 0.07202771 0.10384314 -0.039130956 0.09020114 0.106827706 0.08678901 -0.028043464 -0.031468973 -0.037756108 0.099819325 0.1030557 0.10020574 0.11557123 0.097939104 0.110208064 0.108297765 0.087129 0.09781604 0.12135728 0.112032585 0.112321384 0.09951134 0.110693485 0.09817281 -0.03658186 0.10043867 0.09816298 -0.033396505 -0.041514426 -0.025767433 0.10430268 -0.03526895 0.10909179 -0.022427473 0.10965413 -0.038008668 0.08972972 -0.027275855 -0.03055108 -0.023469187 0.083615914 0.11170849 0.07647092 -0.021469139 0.08802077 0.105406284 -0.035973318 0.10928133 0.10924458 -0.029211054 0.09394565 0.10611497 0.0892974 -0.026795473 0.10810155 -0.035058632 0.105642945 -0.02323356 0.09931429 0.10793644 0.11044724 -0.037594937 0.12037315 -0.025215283 0.108329125 0.10898501 -0.03124841 0.097034454 -0.01633974 -0.02750383 -0.030071538 0.10907544 0.041216545 -0.015421752 0.09898901 -0.016496163 -0.031489994 0.10453145 -0.027946496 0.09210515 -0.027444001 -0.035113066 -0.021158976 0.08587465 0.09970391 -0.0069104047 -0.028514601 0.09450945 0.093369365 0.10858035 0.11105429 0.09036595 -0.023421377 0.092970036 0.12682492 -0.045955345 -0.022941792 -0.028874496 -0.027389573 0.08607735 0.09931067 0.114451885 -0.022087155 0.07880654 -0.032388985 0.10409197 -0.012581929 0.09748496 -0.037540846 -0.0034742663 0.09097488 0.10555581 -0.028790137 0.09076606 0.106162965 -0.032414597 0.1120528 -0.027181966 0.112807766 0.1020163 -0.037639212 -0.036077335 0.09912394 0.1050255 0.10025661 0.099317804 -0.027173406 -0.02339166 0.106572516 0.12175077 0.1137279 0.101682715 -0.034542292 0.09518702 -0.023354508 0.096854575 0.11091453 0.09649271 -0.027235782 -0.03643409 -0.0147235 -0.04441475 -0.022814661 -0.029670041 0.104269564 0.10572444 -0.023297178
doc_18 0.15001522 -0.078925624 0.13876049 0.043064587 -0.07244216 0.12981242 0.14960408 -0.06627685 0.15826258 0.13789688 -0.08788335 -0.06528059 0.14382638 -0.056863703 0.16370526 -0.046297338 0.14804769 0.1387096 0.1701933 0.15833251 0.13870287 0.14138414 -0.07102316 -0.057723098 0.14304051 0.14126574 -0.062077705 0.15911257 0.12874436 0.14875779 -0.06694178 -0.08341061 0.13901451 0.12245384 0.14795008 0.15293175 0.15352273 0.14120395 -0.0685715 0.16006428 0.1558396 0.14470333 0.15958089 0.13960895 -0.04345876 -0.053431753 -0.06886808 0.15809512 0.13819188 -0.08057032 -0.09227058 0.14283073 -0.057203583 0.14634322 0.14731959 -0.08950266 0.14377126 0.14639741 0.1359943 -0.055814214 -0.061738707 -0.054030817 0.14087756 0.13120702 0.14150983 0.16550317 0.013295434 0.1385988 0.14151937 -0.04591833 0.13951872 0.13460723 0.16164546 0.13122919 0.14577053 0.13272892 0.13413309 -0.07841103 0.13528705 0.14737752 -0.0673838 -0.060396932 -0.049233034 0.13400315 -0.08671118 0.16343309 -0.047820322 0.14778388 -0.056536958 0.13706404 -0.08206703 -0.04938715 -0.09159079 0.140498 0.15335037 0.15064438 -0.044282172 0.14276281 0.15292288 -0.07536976 0.15367414 0.14367548 -0.074202165 0.14783901 0.14791898 0.1350283 -0.05677969 0.15709695 -0.045825303 0.13645001 -0.050924636 0.17195562 0.15791048 0.13603905 -0.09087159 0.15350777 -0.07201706 0.14801447 0.14924835 -0.07449954 0.14921576 -0.04160964 -0.086655624 -0.043650847 0.14638822 0.003510815 -0.054605737 0.13993064 -0.051793993 -0.07897815 0.13504028 -0.062418647 0.1413635 -0.07273146 -0.08109466 -0.05300741 0.12745067 0.15272844 -0.0607986 -0.059579086 0.15384094 0.149185 0.1422144 0.14774683 0.14263558 -0.071339235 0.13417843 0.15789896 -0.044444963 -0.07260987 -0.054310888 -0.070820354 0.13898446 0.13467655 0.1542341 -0.08413474 0.108395904 -0.049787555 0.13540018 -0.08402024 0.15907572 -0.06035363 -0.07571213 0.14027306 0.14241958 -0.04848016 0.15020631 0.13804595 -0.06988233 0.14502391 -0.030884605 0.13895862 0.15985593 -0.076673105 -0.08113897 0.14597642 0.15855297 0.14423874 0.13138483 -0.066735595 -0.043542303 0.14525032 0.15304753 0.15137899 0.1310378 -0.04817517 0.14334626 -0.05055996 0.1528039 0.15035212 0.14832534 -0.056278348 -0.06864536 -0.08216891 -0.0877389 -0.083400495 -0.06723219 0.17015716 0.14726014 -0.057831056
doc_19 -0.008793208 0.08332921 -0.010724546 -0.012059279 0.10724521 -0.01161536 -0.011286997 0.09677722 -0.0064109364 -0.020808507 0.09196596 0.0991404 -0.023902597 0.07127529 -0.024436116 -0.046502247 -0.00924705 0.0035950309 -0.028321696 -0.009785988 -0.0015304892 -0.010460579 0.09491983 0.068154916 -0.014835313 -0.02402405 0.104387276 -0.017513826 -0.0068644676 -0.010428549 0.09531902 0.10796251 -0.010865942 -0.011632599 -0.016118366 -0.0026100783 -0.006371506 -0.014186413 0.09083128 0.0014459195 -0.012639518 -0.0054178583 -0.0132212015 -0.0140454685 -0.029710768 -0.040735636 0.08649188 -0.014232991 -0.011916466 0.08640235 0.098482594 -0.0110534225 0.04823765 0.002034929 0.010481749 0.10219906 -0.009624628 -0.021070166 -0.019805541 0.10475096 0.08582182 0.07016873 -0.018448206 -0.026205987 0.0021204434 -0.001656105 -0.0069393693 -0.0038466384 -0.014568133 -0.022070006 -0.016729962 -0.0061339606 -0.015148579 -0.0002729362 0.015244008 0.005329419 -0.011006314 0.092982695 -0.005376808 -0.010741512 0.0781666 0.097516686 -0.0111108385 0.0009439436 0.08969326 -0.0094159 0.04647227 0.008275512 0.09394439 -0.0042537265 0.06957884 -0.04574156 0.08827595 -0.0057829986 -0.023690192 -0.010931799 -0.03534299 -0.011718249 0.007836536 0.0930795 -0.027416991 -0.0028883324 0.10402567 -0.0018521908 -0.010144626 -0.027537715 0.07254154 -0.016847227 -0.014920312 -0.016515471 0.09387761 -0.021969834 -0.013248826 4.5499764e-05 0.064582475 -0.021050707 0.099159665 0.00042165583 -0.011409387 0.09378581 -0.011523901 -0.03972585 0.10423681 -0.0038620653 -0.002955089 -0.019225 0.08294761 -0.001445051 0.09205192 0.09884102 -0.0076785176 0.08639188 -0.016303604 0.08973465 0.10312598 0.08261868 -0.017423097 0.0006416484 0.06515661 0.074002065 -0.024181563 -0.005998874 -0.018511139 -0.0035804762 -0.011164976 0.08871318 -0.008366404 -0.0027667864 -0.04367962 0.08179338 0.08427218 0.08350577 -0.0072634537 -0.012681305 -0.017681431 0.08752928 0.005419499 0.09582006 -0.012087025 0.08292062 -0.012179326 0.09327558 0.10399318 -0.02006173 -0.00021318975 0.06761694 -0.011433114 -0.0034107456 0.09280696 -0.005721554 -0.04359195 -0.024699448 -0.014758913 0.10014251 0.08280086 -0.013037859 -0.01996636 -0.0066058803 -0.014370668 0.09073001 -0.020273905 0.014763896 -0.012678048 -0.010691721 -0.009449281 0.10125893 -0.018459635 -0.031222975 -0.009408078 -0.017011603 -0.0014646725 -0.03251051 0.09073709 0.09824325 0.11355553 0.07937502 0.09528481 -0.018485418 -0.021544905 0.09572113
doc_20 0.05847855 -0.0042520175 0.06466052 0.019495092 0.011969192 0.084260374 0.071140744 -0.030668126 0.077981204 0.06203627 -0.011624429 -0.0127842035 0.06528164 -0.027659377 0.062728636 -0.04842494 0.08048649 0.0911109 0.05123542 0.07627386 0.088830285 0.08930177 0.0046492275 -0.03451111 0.08250922 0.06083644 0.011157457 0.073417544 0.08307623 0.089623794 -0.00031481922 0.046376757 0.09326662 0.054893225 0.061553266 0.06035334 0.09042723 0.080896005 -0.018981984 0.07945721 0.08480096 0.09274723 0.075495765 0.086203374 -0.038543977 -0.04687503 -0.012483372 0.07058309 0.079861596 -0.02042937 0.017386511 0.08953202 -0.021855809 0.08349077 0.084432505 0.009010143 0.077891536 0.08473065 0.08786976 0.0009698261 -0.009868704 -0.035837933 0.08711801 0.050451234 0.08687054 0.074806966 0.109443925 0.0892904 0.063384995 -0.044778585 0.05790193 0.08075662 0.059424456 0.076743945 0.08640951 0.07758573 0.08284319 0.011925781 0.09292537 0.09045605 -0.008672106 0.0014606507 -0.04745345 0.081658326 0.0053849756 0.06492567 -0.03222081 0.09117968 -0.020523058 0.086588375 0.013027863 -0.049152352 0.012993861 0.087559536 0.07589908 0.061300002 -0.048942614 0.057762798 0.09207326 -0.013999224 0.063439645 0.0727691 -0.0045872675 0.07427199 0.07369713 0.08245775 -0.041680362 0.07545885 -0.048328344 0.08522007 -0.025971513 0.060811106 0.076919965 0.074491225 0.005730319 0.07553027 -0.021784538 0.0732687 0.074702464 0.01873079 0.08943801 -0.04419334 0.020157231 -0.047128018 0.09682906 -0.04102399 -0.024406241 0.09255598 -0.012810824 -0.01601203 0.084243216 -0.035890903 0.07429543 0.019867443 0.017091485 -0.024665656 0.08121887 0.08701975 -0.014284271 -0.018871462 0.06753933 0.07593354 0.06600701 0.08030804 0.07750071 -0.028100321 0.08695083 0.07495537 -0.05200766 0.009785172 0.0026330003 -0.020205667 0.079495706 0.09457479 0.08498076 0.046415757 0.0800881 -0.014187006 0.080498174 -0.007222983 0.07166234 -0.005507206 0.053056348 0.092210844 0.08810506 -0.03384842 0.08963807 0.08248512 0.0012378405 0.08247297 -0.04577667 0.07613788 0.06277652 0.008592318 0.005354606 0.058784146 0.055265315 0.0902103 0.07171761 -0.0014448996 -0.030699546 0.09066387 0.059390347 0.08048787 0.08134225 0.015944216 0.06542833 -0.047753505 0.08203749 0.057281494 0.08990133 -0.053389404 -0.03315983 -0.0076455553 0.021613795 0.04925652 -0.022166092 0.06619824 0.060949087 -0.0011898011
doc_21 0.12745592 -0.036568545 0.13329002 -0.006709436 -0.014497779 0.15639694 0.1574407 -0.05200628 0.13294177 0.13129066 0.014239931 -0.0056220824 0.13788828 -0.029129028 0.15083587 -0.05993317 0.15803038 0.17329943 0.11271759 0.14570147 0.1725256 0.17023604 -0.04258331 -0.0058422107 0.1762225 0.10466576 0.025563022 0.13801356 0.17200296 0.15209739 -0.044406667 -0.015496865 0.16960086 -0.025246054 0.11337705 0.1295205 0.16911632 0.15541872 -0.0055681053 0.15657184 0.15338425 0.1688408 0.13105778 0.17516896 -0.058917645 -0.06601262 -0.05279497 0.13631512 0.13607937 -0.0054477123 -0.015679164 0.16320483 -0.07213597 0.14460745 0.17177889 0.02131275 0.13846828 0.17397654 0.16614625 0.0057902024 -0.020117499 0.0021995842 0.15331227 0.10738669 0.16795048 0.120717175 0.050739717 0.14877973 0.10409965 -0.07976059 0.1267127 0.15470201 0.10433158 0.15065014 0.17539562 0.17316568 0.15765895 -0.03838622 0.16488793 0.16591746 -0.019854672 -0.04850789 -0.06497502 0.16552839 -0.036521427 0.110271744 -0.057460163 0.15694138 -0.04361251 0.1641143 -0.03841731 -0.08775804 0.051256627 0.16584428 0.13252054 0.12798478 -0.07912032 0.11390012 0.15644577 -0.03998344 0.12658273 0.16323005 -0.01854975 0.17271565 0.15849586 0.16639827 -0.035388723 0.14529234 -0.082806125 0.17191851 -0.057968494 0.1051415 0.14438587 0.15610482 -0.004968399 0.1592201 0.019826477 0.14242952 0.155139 0.0035105378 0.16014168 -0.0774503 -0.042966343 -0.08284918 0.17868106 -0.041588712 -0.048052646 0.16008554 -0.03702779 -0.0407881 0.15297833 -0.016718095 0.14058661 -0.029060481 -0.020248156 -0.042507987 0.17539056 0.16447711 0.008784194 -0.03570065 0.1437574 0.1357182 0.14546433 0.1702692 0.1636546 -0.033912305 0.164809 0.11890171 -0.06660621 -0.017798511 -0.02710481 -0.034730364 0.15753043 0.15090849 0.153718 0.1291713 0.021382153 -0.0722025 0.16220596 -0.013526516 0.14008862 -0.064269446 0.100100204 0.16734807 0.18025075 -0.058251716 0.13537857 0.14752236 0.032950882 0.1578793 -0.070248954 0.14552434 0.10323834 0.037648074 0.019335333 0.13482618 0.12891997 0.14537905 0.13591932 -0.048150208 -0.038050976 0.16014314 0.13761859 0.14565817 0.16393177 -0.03196731 0.111986175 -0.07134492 0.14661752 0.116345726 0.17401913 -0.08788878 -0.00392418 0.0013527407 0.049842473 0.009926673 0.040038995 0.108448744 0.11214907 0.0050361855
doc_22 0.080939755 0.01543317 0.061233215 -0.009157803 0.0315089 0.08414076 0.07868267 -0.025114391 0.085843176 0.033373043 0.03997256 -0.006504953 0.088022366 0.026794838 0.067177445 -0.04834964 0.05901116 0.07760855 0.055771425 0.034584817 0.07898591 0.08701442 0.0024413285 -0.012776066 0.055699073 0.043917987 0.05459865 0.067531355 0.09273663 0.084655985 0.018319305 0.024148807 0.07406935 0.059406273 0.072051525 0.09296812 0.081970416 0.08201546 0.0038120234 0.082760856 0.097404286 0.098030165 0.08317099 0.09005289 -0.01351457 -0.033986107 -0.00991215 0.10175158 0.07463371 -0.0033698666 0.015771834 0.07991437 0.014270081 0.0921515 0.088723935 0.00034736143 0.05588478 0.084729925 0.080100924 0.01701725 0.046705958 -0.0019125298 0.056808513 0.03325084 0.08497129 0.067633495 0.10453496 0.07907834 0.094389334 -0.04232672 0.055846438 0.07306194 0.06751318 0.07426561 0.084216304 0.09661529 0.11088183 0.050213642 0.10830692 0.07863006 -0.0030025712 0.005480097 -0.053498603 0.084437266 0.011694833 0.04940761 -0.008004396 0.08323254 0.0059971143 0.021766393 0.014009283 -0.06260574 -0.000829024 0.060151227 0.04826189 0.024751635 -0.03023695 0.026510395 0.08325914 0.03600398 0.056601062 0.07419664 0.027032044 0.058805253 0.09449029 0.07844925 -0.046225443 0.07030698 -0.052317053 0.09702933 0.009867712 0.08204071 0.067946196 0.059576314 0.009193495 0.0681101 0.020523952 0.044278868 0.087244496 0.038793802 0.05630596 0.006480092 0.03606698 -0.04021512 0.09488068 0.0037851771 0.0019529667 0.07003833 0.002596882 0.02383931 0.0709292 -0.015749073 0.08249387 0.02420288 0.043858316 -0.018065372 0.08702424 0.060613852 0.009580333 0.00042454887 0.024636101 0.06293501 0.050459303 0.09268654 0.09101622 0.018113403 0.07086277 0.07870727 -0.06834909 0.05103643 0.0062734378 0.014879397 0.056159213 0.11067815 0.07840194 0.08188275 0.06883479 -0.009114559 0.103706725 0.03352132 0.073232256 0.0026247816 0.013475444 0.110867605 0.10281135 -0.03677065 0.08232319 0.08282916 -0.012407768 0.071993336 -0.049965598 0.08668125 0.086679615 0.019265603 0.0031078076 0.07271287 0.07104893 0.065041155 0.09334639 0.048497573 0.10308486 0.08520061 0.0565243 0.10642059 0.070160925 -0.012189772 0.052684333 -0.037291285 0.08564992 0.08310454 0.08266536 -0.052917857 0.0044614743 0.050982557 0.088551514 0.066635095 0.02627639 0.05056177 0.060023934 0.055101354
doc_23 0.12768003 -0.03895837 0.1324965 -0.007228784 -0.016100857 0.15926336 0.15635046 -0.053180136 0.1328536 0.12748459 0.019802045 -0.008497049 0.13565952 -0.025279926 0.14938402 -0.05964356 0.15791233 0.17610723 0.111177705 0.1471821 0.17267527 0.17067252 -0.04117729 -0.0035289046 0.17845061 0.1038027 0.030688465 0.13562623 0.17594855 0.1532092 -0.046070836 -0.015430772 0.17240766 -0.03198951 0.11498804 0.12845337 0.16915382 0.15576151 -0.0062213605 0.15855837 0.1536167 0.16920777 0.12968002 0.17610627 -0.058243535 -0.06667094 -0.05830576 0.14029457 0.13598682 -0.0032870697 -0.016259339 0.1617248 -0.072941914 0.14413765 0.17072783 0.017711569 0.13816008 0.17535685 0.16834247 0.010121543 -0.022883333 0.0013980143 0.15312396 0.104139715 0.17097501 0.119383276 0.050876454 0.151168 0.10294208 -0.081620276 0.12587874 0.1539169 0.10103594 0.15491745 0.1757885 0.17610252 0.15595634 -0.038805284 0.16679211 0.16863853 -0.019297542 -0.04841871 -0.06709101 0.16739342 -0.034797747 0.10826739 -0.05894689 0.15602195 -0.045675073 0.16364767 -0.04008535 -0.08873525 0.05881385 0.16817467 0.13364524 0.12955248 -0.08149225 0.11251943 0.15804943 -0.04234011 0.12726422 0.1647187 -0.018499691 0.17571697 0.15900984 0.1677327 -0.036202952 0.14686754 -0.08182046 0.17463084 -0.06070904 0.1019891 0.14626983 0.15797658 -0.0037129074 0.16008903 0.019754263 0.14139342 0.15800375 0.005911682 0.16148369 -0.07761665 -0.046699494 -0.08544498 0.17806365 -0.041456327 -0.046578255 0.16065183 -0.038713384 -0.041282274 0.15245233 -0.014273646 0.1418195 -0.030825276 -0.021189827 -0.04029466 0.17650487 0.16430646 0.012235512 -0.037629526 0.14167444 0.13805355 0.1455973 0.17282864 0.16427527 -0.033573527 0.1674194 0.11842254 -0.06852062 -0.016219005 -0.027513754 -0.035957754 0.15866871 0.15111573 0.15306772 0.13511442 0.018465167 -0.07257404 0.16347134 -0.015484255 0.14036879 -0.06576817 0.10453731 0.16812491 0.18313098 -0.06060302 0.13556111 0.14784262 0.03144648 0.16070653 -0.071190864 0.14610067 0.10032722 0.0407858 0.024554571 0.13464783 0.12793316 0.146016 0.13739254 -0.048344772 -0.039449766 0.15972614 0.13605608 0.1484964 0.16550389 -0.030127484 0.111454114 -0.07367024 0.14892335 0.11596104 0.17388692 -0.08791684 0.0029031937 0.0037125277 0.05152897 0.0077700308 0.04332651 0.104803905 0.10826338 0.0020521395
doc_24 0.096050516 -0.029947711 0.10180623 0.017390858 -0.016609756 0.096912205 0.11268792 -0.032472875 0.092030495 0.098434076 -0.013632234 -0.022785656 0.0947198 -0.015454663 0.10543671 -0.035589777 0.10747962 0.10550437 0.11108945 0.11982095 0.09980942 0.107768044 -0.015951388 -0.0075648655 0.10365096 0.1041014 -0.018907648 0.11613973 0.10305848 0.1008927 -0.006184821 -0.008722377 0.10747294 0.11199908 0.09799774 0.10387485 0.103690535 0.10459382 -0.027390784 0.10127378 0.09875592 0.109546736 0.117571875 0.102018125 -0.009828183 -0.030572109 -0.028670853 0.10328807 0.10974002 -0.027437722 -0.019528475 0.103033975 -0.002197552 0.09481862 0.1041803 -0.025166228 0.10972213 0.102065906 0.104038924 -0.019458352 -0.0050554974 -0.0224417 0.10542397 0.102903046 0.1140838 0.1069564 0.05737985 0.10870304 0.103217 -0.026440613 0.1165113 0.107313246 0.10369615 0.10204698 0.107192025 0.1054827 0.10616036 -0.0037867208 0.10478757 0.105808735 -0.011238905 -0.0065312134 -0.026034385 0.100873485 -0.030008603 0.09979137 -0.03769382 0.10735304 -0.0321927 0.11278241 -0.022253582 -0.0407012 -0.01851821 0.107671045 0.10215968 0.100995235 -0.029995106 0.11293361 0.09829345 -0.012270905 0.10857066 0.10548549 -0.02817609 0.10298559 0.11127086 0.09991058 -0.032194797 0.09994534 -0.037952717 0.11454448 -0.025443893 0.1036449 0.11164378 0.10631405 -0.020721493 0.113172166 -0.02469377 0.100458555 0.10701473 -0.02266169 0.097684085 -0.0288885 -0.010450814 -0.000578329 0.10146985 -0.005332673 -0.029269587 0.10477273 -0.030222245 -0.034485646 0.103689246 -0.03084702 0.1033976 -0.0066454113 -0.014878509 -0.02609827 0.102255195 0.107821114 -0.0066670263 -0.022855373 0.11052801 0.10942185 0.101938345 0.11211303 0.11712093 -0.02664139 0.10388337 0.103933305 -0.03473957 -0.018058024 -0.027474927 -0.006328067 0.10335819 0.11134847 0.09330257 -0.0056824377 0.10453276 -0.027292538 0.10807278 -0.035678204 0.112300694 -0.020619882 -0.0035982989 0.10620462 0.10249527 -0.025250088 0.107197106 0.11411073 -0.031841528 0.105411805 0.021581827 0.11007241 0.11021456 -0.02024388 -0.022850383 0.11570845 0.11151591 0.11075745 0.109512664 -0.0066181803 -0.017563967 0.11067019 0.10963105 0.10268891 0.10760024 -0.0038455876 0.107906595 -0.031195946 0.10991534 0.11108196 0.106690675 -0.03484615 -0.020781796 -0.014766412 -0.01963342 -0.006532549 -0.020412652 0.10809813 0.10845435 -0.024435071
doc_25 0.12908302 -0.038332347 0.13441986 -0.00678631 -0.014938123 0.15787862 0.16034737 -0.05192327 0.13578697 0.1322186 0.012907259 -0.0075368285 0.14117132 -0.03139718 0.1526223 -0.06035072 0.15775993 0.17307052 0.11398657 0.14711861 0.17666768 0.17023213 -0.043417476 -0.006348154 0.17659841 0.10688691 0.02598976 0.13987681 0.17325525 0.15280999 -0.045328107 -0.015143768 0.17225918 -0.025930207 0.11657519 0.13388303 0.17048906 0.15712833 -0.0076940237 0.15863916 0.15581942 0.17110212 0.1342123 0.17723079 -0.059419196 -0.06455541 -0.052687634 0.13847655 0.13796863 -0.0075702444 -0.01662965 0.16534261 -0.07235342 0.14647126 0.1740817 0.020115146 0.1405007 0.175105 0.1680335 0.004069387 -0.02125807 0.0011515259 0.15683857 0.108006224 0.17059849 0.1241862 0.050124332 0.1510472 0.105331086 -0.07868491 0.12905724 0.15604994 0.10638103 0.15254135 0.17792192 0.17637022 0.15861599 -0.039707575 0.16702043 0.16981038 -0.021607134 -0.049776334 -0.06684602 0.16830702 -0.038643874 0.111032315 -0.05847459 0.15938547 -0.043433778 0.1669245 -0.039077334 -0.08687834 0.050449066 0.16812222 0.1336496 0.13036059 -0.08103265 0.11554326 0.15611339 -0.039408993 0.12997226 0.16314113 -0.017687248 0.1722998 0.16074023 0.16683039 -0.036783934 0.1471498 -0.08401988 0.1717414 -0.0601381 0.1080274 0.14756761 0.15898108 -0.0056058047 0.16015942 0.018544372 0.14439407 0.15455624 0.0038242172 0.16195384 -0.07718329 -0.041405946 -0.08158043 0.17829481 -0.04151209 -0.0478517 0.164509 -0.03971692 -0.04115798 0.15327464 -0.0195473 0.14045997 -0.028418709 -0.021282146 -0.04220593 0.17819336 0.16725233 0.010272195 -0.037443645 0.1451851 0.13888727 0.14726219 0.17303245 0.16615011 -0.03593966 0.16846314 0.121803485 -0.06840976 -0.019947045 -0.026799805 -0.0363855 0.15733515 0.15320475 0.15419151 0.13278444 0.02076213 -0.07273807 0.16335025 -0.013055929 0.14000241 -0.0646242 0.09997166 0.16850856 0.17984504 -0.059896875 0.13702704 0.1499072 0.031069137 0.15934825 -0.07281776 0.14936242 0.1035584 0.038858034 0.019381069 0.13685168 0.13016348 0.14763328 0.13758118 -0.04950491 -0.036612473 0.1630136 0.13865615 0.14753273 0.16634798 -0.032984912 0.11328231 -0.07143728 0.14705616 0.11763696 0.1744827 -0.08955206 -0.0052195294 -0.00094306143 0.04844401 0.008244721 0.03860311 0.11129514 0.112206995 0.0056689084
doc_26 0.06698873 -0.026560524 0.07651417 0.03851177 -0.012621494 0.06613149 0.07532191 -0.029853875 0.067899704 0.07372218 -0.025400212 -0.031466093 0.0749274 -0.031558275 0.07229437 -0.028647723 0.0679719 0.06920688 0.072766945 0.0812057 0.06976828 0.0755179 -0.014796232 -0.023130072 0.062265106 0.080032036 -0.026491648 0.08276478 0.06967793 0.074448474 -0.014171627 -0.005113885 0.07951583 0.06800548 0.071017526 0.070692115 0.07521789 0.07128271 -0.02788468 0.073692575 0.07252812 0.07801743 0.07795338 0.074146286 -0.008822042 -0.026133897 -0.028887495 0.07357874 0.071931295 -0.0371574 -0.019691197 0.07321177 -0.032448616 0.07302881 0.07045231 -0.015255212 0.07647296 0.07423023 0.07719866 -0.013894935 -0.03228585 -0.032783877 0.07511459 0.07026613 0.08019785 0.07978412 0.069389224 0.06941522 0.0684439 -0.025753016 0.07774087 0.08724748 0.06527244 0.07512054 0.07280958 0.07930264 0.07957566 -0.017661296 0.072952546 0.082493536 -0.019282933 -0.023311576 -0.03342837 0.07841928 -0.02360004 0.08009332 -0.027933933 0.075914755 -0.036635764 0.07899872 -0.02546734 -0.027899161 -0.014571841 0.06955762 0.07519377 0.07758726 -0.02608232 0.07644506 0.07865364 -0.031747613 0.06608873 0.07937459 -0.03030155 0.06765849 0.0702175 0.07143062 -0.028729353 0.0671692 -0.028880207 0.077272214 -0.03427485 0.072741464 0.077093065 0.07011993 -0.01663737 0.06737115 -0.037054695 0.07232781 0.07262024 -0.030400373 0.07524405 -0.024370614 -0.01737996 -0.018873693 0.07701661 -0.012680863 -0.0294543 0.08367179 -0.024397045 -0.029785538 0.07209952 -0.030509826 0.0684676 -0.016944611 -0.019768931 -0.027615631 0.07784323 0.07508008 -0.037601978 -0.0307082 0.08162578 0.07313354 0.07970076 0.08150595 0.077423394 -0.034507748 0.073162965 0.07658378 -0.02935244 -0.02618851 -0.020505644 -0.029972881 0.067859985 0.07232716 0.07197931 -0.01356689 0.084406175 -0.024472648 0.0716387 -0.027873011 0.080325134 -0.019996442 -0.0022430615 0.074030936 0.076301806 -0.028952591 0.08276375 0.0753309 -0.018774059 0.07934706 -0.010453505 0.077297136 0.070332 -0.015613221 -0.025095249 0.06754042 0.077468954 0.0749821 0.071933284 -0.023609333 -0.02699607 0.07499943 0.073401734 0.07522025 0.07448235 -0.014992094 0.070531644 -0.025248744 0.07513872 0.07755847 0.07477416 -0.029866407 -0.03138027 -0.031659633 -0.025075017 -0.0054490995 -0.027214155 0.071635075 0.078310095 -0.02548814
doc_27 0.05206833 0.004645115 0.06352478 0.024695849 0.007443626 0.0596731 0.056100987 -0.018149553 0.0517401 0.051864907 0.0149420425 -0.017533433 0.051847152 -0.027367692 0.06566671 -0.014913255 0.06434598 0.054263245 0.04832326 0.060931817 0.059456207 0.059293117 -0.012952674 -0.01430722 0.06263981 0.05481811 0.013251832 0.06061408 0.05999459 0.056556948 0.0012423052 0.01760592 0.05329445 0.048034463 0.051982675 0.06582956 0.05835632 0.05883776 -0.009912845 0.05336596 0.0614092 0.050478812 0.054155033 0.056749426 -0.016249634 -0.008988333 -0.022515168 0.06346182 0.06336906 -0.017764794 0.01722838 0.06269431 -0.022757791 0.055854592 0.059250545 -0.01905881 0.055272367 0.05511399 0.059849456 -0.020466527 -0.00460341 -0.022853343 0.055569552 0.050037596 0.060185567 0.06353825 -0.010954728 0.056174755 0.063103884 -0.011511973 0.053826205 0.058066204 0.06228238 0.057340093 0.058201116 0.060434483 0.060774073 -0.019001434 0.053018205 0.058385707 -0.011349504 -0.018560966 -0.0073089325 0.061876796 -0.01965687 0.05407389 -0.0055143125 0.05602036 0.01257006 0.065325394 -0.012653711 0.0047590258 0.020779243 0.054047752 0.05206836 0.066700846 -0.0241304 0.047331676 0.06026284 -0.0043673995 0.056839287 0.061746866 0.0021111 0.05291101 0.057718813 0.059223983 -0.024226677 0.054420244 -0.008633157 0.057092823 -0.001980723 0.0619459 0.06365015 0.05964468 -0.019768659 0.05319296 -0.0061534066 0.060303267 0.05886571 0.02260631 0.06412462 -0.011971695 0.0097946 -0.027513392 0.05809717 -0.020955414 -0.005407353 0.06038116 -0.0004605262 -0.014481683 0.056129694 -0.02949385 0.057089098 -0.012890807 0.011079713 -0.018080689 0.063122906 0.06426898 0.015367797 0.0061786063 0.05499103 0.06787722 0.056728005 0.055978566 0.06602569 0.010093224 0.048852935 0.057139724 -0.022716986 0.013943974 -0.013027978 0.0032732664 0.06585065 0.064837 0.059500016 -0.0009037829 0.05098036 -0.021517156 0.06667788 0.00907273 0.050175063 -0.020439329 -0.00096235634 0.05615563 0.053835616 -0.019872501 0.06371464 0.057091895 -0.014517499 0.065058514 -0.02428536 0.061808612 0.06379748 0.011097823 -0.021195702 0.053544443 0.061731983 0.054914646 0.061109222 0.013825531 0.038454067 0.050160326 0.058987375 0.06336694 0.054707363 -0.013783917 0.043720596 -0.020450793 0.057908695 0.052706465 0.058744088 -0.025220081 -0.0127243195 -0.0234033 -0.0032958332 0.017810944 -0.014194486 0.06349218 0.06265416 0.004155155
doc_28 0.07816681 -0.011980489 0.06912907 0.0041239844 0.0049355375 0.07301518 0.080564015 -0.00026856456 0.077645294 0.07122379 -0.010594722 -0.003381107 0.0693302 -0.0075080516 0.08568182 -0.025230844 0.07798901 0.08665902 0.069251165 0.07031404 0.077090345 0.072249115 0.011672112 -0.01612923 0.07834959 0.06892962 -0.0076110354 0.07550784 0.072205 0.071419366 0.0082209315 0.018294586 0.076671116 0.072598435 0.06855928 0.083442375 0.07151871 0.08650676 -0.0013480913 0.07234147 0.082423 0.07080127 0.06692044 0.07648906 -0.026538214 -0.024434827 -0.02856864 0.0672278 0.07709865 -0.008115458 0.010440061 0.073915906 -0.025011262 0.07971816 0.08111581 -0.01126596 0.072919905 0.07088913 0.07637835 -0.013241673 -0.007427804 0.004971195 0.072518215 0.06973825 0.07373302 0.075768 0.04686466 0.07517216 0.0766834 -0.02799859 0.0721353 0.06894225 0.06907162 0.07596386 0.08098688 0.07971824 0.08185513 0.006420768 0.078287594 0.07434305 -0.017246384 -0.0017438997 -0.01588338 0.07379121 -0.017743211 0.079718694 -0.021248518 0.075095065 -0.010663944 0.07788178 -0.014012628 -0.03355606 0.004433468 0.07335627 0.07950944 0.080592364 -0.033937737 0.07351655 0.07780195 0.008920265 0.06857433 0.07185759 0.0013337163 0.08504781 0.08678454 0.07831743 -0.004172678 0.084437415 -0.032053687 0.07984839 -0.027602633 0.06439484 0.08142229 0.08258878 -0.01564172 0.0765629 -0.0012829881 0.07640586 0.07352446 0.00019830093 0.08320526 -0.028553106 0.002385207 -0.019184565 0.07580941 -0.028576283 0.0029186513 0.07809623 -0.017719597 -0.011817998 0.08207962 -0.011318674 0.07510048 -0.0012695026 0.007516952 -0.002326645 0.081857316 0.0729263 -0.02142129 -0.01981305 0.08306495 0.07483676 0.07090278 0.080571845 0.06991096 8.335151e-05 0.067799345 0.08135822 -0.03344422 0.0065383837 0.005162596 0.0029468518 0.07875635 0.08061023 0.071662195 0.024140652 0.090375766 -0.011615107 0.07423812 0.004331995 0.07071833 -0.0019321814 0.027432589 0.0695706 0.07634788 -0.0142356325 0.084731825 0.072800614 -0.0036846073 0.07697563 -0.031442 0.07969239 0.07520688 -0.005305008 -0.014205611 0.06457928 0.070219666 0.077635184 0.07640579 -0.0026621055 0.009028023 0.07335575 0.06329827 0.07524656 0.072795525 0.016771078 0.07057201 -0.030138459 0.07578037 0.07803973 0.080578566 -0.00995461 -0.011657039 -0.0059063975 0.009243263 0.022805285 -0.008711996 0.08499362 0.07506638 -0.0077225436
doc_29 0.0812068 0.05938232 0.08544992 0.038947366 0.06889945 0.09602204 0.09634553 0.0629949 0.10339509 0.08939878 0.06772035 0.09600375 0.078017995 0.05593264 0.07800769 -0.035457 0.079452045 0.102791466 0.068313636 0.08237433 0.075619474 0.08420056 0.045476265 0.015554223 0.072371036 0.084086716 0.083262645 0.08096584 0.07853364 0.063205406 0.06721756 0.07692993 0.07823955 0.08750895 0.05990808 0.07234065 0.093403354 0.09919497 0.07142077 0.085927196 0.075054355 0.06954723 0.07821434 0.08749593 -0.015788017 -0.021681825 0.03677638 0.08874571 0.091745995 0.054231 0.07861677 0.07862329 0.024967149 0.10647125 0.09432389 0.05498875 0.09383044 0.0660574 0.07197817 0.054544646 0.09141558 0.08472365 0.09773329 0.06704674 0.07972112 0.08427488 0.060002543 0.1054824 0.094193816 0.032816373 0.069532484 0.087361805 0.088638306 0.061193302 0.09101493 0.08607264 0.076268986 0.0627359 0.08290237 0.09852664 0.07637347 0.093929395 -0.035047717 0.07886322 0.106853865 0.08945869 -0.0024221707 0.09769785 0.028592307 0.0850127 0.073239595 -0.05317137 0.051031925 0.08340425 0.063554436 0.10240068 -0.046972554 0.08667286 0.09647933 0.067232005 0.08394077 0.06431579 0.08491506 0.088314675 0.08320884 0.09526418 0.009742431 0.08859525 0.014717972 0.082748465 0.04453554 0.08187174 0.090753764 0.08753696 0.063475385 0.09035575 0.06639991 0.095292576 0.064293906 0.067047365 0.07981332 0.012462436 0.088566855 -0.025344118 0.09291448 -0.01585741 0.06545014 0.10010576 0.051205985 0.08467845 0.0901978 0.06341592 0.07823556 0.05678041 0.073934354 0.057071276 0.06982546 0.08822244 0.061314538 0.022374205 0.0732935 0.08125533 0.076016456 0.08158472 0.0850534 0.0395449 0.09453843 0.091808714 -0.044715844 0.054757282 0.05618183 0.03895533 0.0849243 0.0786851 0.068351954 0.08392639 0.11037599 0.059451908 0.093656264 0.083649434 0.0726518 0.06098491 0.10358969 0.08631923 0.07803611 0.056893732 0.070921674 0.0942202 0.08384762 0.090850055 -0.017003331 0.07524962 0.09980818 0.09262898 0.077333614 0.07936737 0.08885133 0.09722091 0.07882288 0.05468819 -0.015158264 0.071730554 0.0919859 0.07764818 0.08606817 0.116914585 0.079427265 -0.052707233 0.07552818 0.06693037 0.09371715 -0.047315307 0.07425363 0.060296573 0.09415096 0.079565614 0.07137199 0.07384364 0.09262644 0.06555282
doc_30 0.079372816 -0.033201817 0.07461978 -0.017116588 -0.029439602 0.0680611 0.07857844 -0.03036649 0.07250884 0.07732454 -0.027523736 -0.027451681 0.07094181 -0.02969678 0.07874656 -0.024513926 0.07380548 0.076580636 0.07341929 0.07429469 0.07487268 0.07387768 -0.022640852 -0.032516938 0.0734735 0.07111315 -0.024082802 0.074609734 0.07331744 0.07648241 -0.026516983 -0.019907307 0.07859471 0.064917944 0.07075566 0.07618034 0.069371805 0.067270234 -0.028631225 0.07059947 0.07149341 0.073719226 0.068810225 0.0763004 -0.023062792 -0.023138361 -0.015234995 0.074836604 0.06974431 -0.024844883 -0.027152784 0.07830207 -0.019432971 0.074314475 0.06512335 -0.026500769 0.077517696 0.06992009 0.07098122 -0.024489475 -0.03495112 -0.032468043 0.073800765 0.06587682 0.07492537 0.0726081 0.07877271 0.06595376 0.07287316 -0.017473103 0.07501027 0.06785727 0.07689887 0.073201485 0.07197157 0.0732859 0.07230333 -0.020719381 0.07440556 0.07489929 -0.02460716 -0.026038768 -0.021532979 0.073891886 -0.025215032 0.06981875 -0.024550881 0.08011551 -0.028298091 0.0723894 -0.023684634 -0.028297871 -0.025906932 0.07506538 0.06925514 0.07029544 -0.028684244 0.0776721 0.07361262 -0.025066813 0.068165466 0.076766655 -0.028418688 0.07393543 0.073085725 0.07597959 -0.03171973 0.072862886 -0.026440874 0.0742494 -0.029282745 0.073080614 0.072743565 0.06709213 -0.022813927 0.06917101 -0.030121518 0.07845638 0.06776605 -0.02572824 0.07591817 -0.018213844 -0.0211882 -0.024107184 0.08117 -0.0015410436 -0.031456206 0.06652855 -0.027912792 -0.027413914 0.0725159 -0.026981283 0.072021045 -0.023607528 -0.019727575 -0.02804956 0.077543385 0.07761286 -0.021751579 -0.032042623 0.07527903 0.07305807 0.07234221 0.07761697 0.0704446 -0.029810254 0.082591936 0.07102834 -0.024550214 -0.022256268 -0.017227033 -0.029711025 0.07467657 0.07158672 0.06487255 -0.0070728217 0.074482635 -0.023349265 0.06632458 -0.033378337 0.07118051 -0.022748446 -0.011012886 0.06924099 0.07233435 -0.029570995 0.07543584 0.071966745 -0.026572743 0.07429177 -0.0166249 0.07404865 0.06883805 -0.023650307 -0.024803039 0.07369032 0.06898747 0.06974781 0.08085508 -0.0319021 -0.013461338 0.07079802 0.07973957 0.072617225 0.07376003 -0.0208254 0.07286978 -0.02164536 0.068872206 0.06718938 0.07134439 -0.028910812 -0.029183164 -0.025458494 -0.02900676 -0.014324474 -0.033712562 0.07881057 0.06610212 -0.024967078
doc_31 -0.079347685 0.085991435 -0.06969294 -0.028050814 0.10754691 -0.04550758 -0.07523962 0.06152496 -0.063128315 -0.08975224 0.105791435 0.08998113 -0.07832385 0.15676698 -0.08152285 -0.03475212 -0.070233494 -0.057371132 -0.10342981 -0.080513395 -0.05857087 -0.073275715 0.12562388 0.08264145 -0.06329477 -0.08051675 0.19320893 -0.06759263 -0.05296173 -0.06957297 0.086360335 0.16689964 -0.059687834 -0.07964423 -0.069089465 -0.07959292 -0.056388743 -0.05832669 0.07481723 -0.055591613 -0.056519642 -0.05505745 -0.07471565 -0.06934062 -0.040467113 -0.03382321 0.081755765 -0.058471285 -0.0599738 0.10658653 0.11045397 -0.067265175 0.11363875 -0.04707849 -0.04924936 0.08139056 -0.09026461 -0.07187764 -0.06796985 0.079274796 0.16300882 0.10157152 -0.071336344 -0.091877535 -0.056972235 -0.0868232 0.01172257 -0.05017376 -0.08157655 -0.04748343 -0.084424496 -0.08718747 -0.08359169 -0.073036954 -0.06826538 -0.05831767 -0.05872565 0.15577832 -0.047016446 -0.071335 0.060601566 0.09322158 -0.03029478 -0.058462255 0.094742954 -0.06400716 0.03157865 -0.058273613 0.08158966 -0.05542928 0.12306154 -0.051375363 0.14540854 -0.05212219 -0.07497278 -0.0820772 -0.039485946 -0.08702634 -0.06505282 0.11650184 -0.08864499 -0.057683777 0.05272364 -0.057239387 -0.058959506 -0.064444155 -0.014898275 -0.05893264 -0.04868727 -0.06057519 0.14349529 -0.07859701 -0.07539034 -0.08735608 0.08661469 -0.076072186 0.12683323 -0.07425287 -0.06314221 0.12578937 -0.06153228 -0.039844245 0.15615927 -0.031099938 -0.057955064 -0.03517423 0.070595294 -0.057917014 0.10997133 0.10806855 -0.052794777 0.057312556 -0.055295713 0.11080699 0.11631615 0.03434117 -0.056628954 -0.07127055 0.10093188 0.056774393 -0.08079692 -0.07249833 -0.064259 -0.05244124 -0.051303793 0.08876984 -0.055068463 -0.061204236 -0.047386114 0.12566912 0.11731685 0.09406631 -0.06867334 -0.05807438 -0.06958391 0.12815362 -0.050318636 0.059435263 -0.060637496 0.12819742 -0.07125316 0.15773815 0.14985727 -0.05364288 -0.046948414 -0.0019920697 -0.05043409 -0.038094204 0.08113226 -0.0564033 -0.049714968 -0.05423072 -0.088657126 0.17089035 0.09773101 -0.06998227 -0.07550593 -0.05675961 -0.07498623 0.124447 -0.02294612 -0.04859274 -0.08616378 -0.06971015 -0.05500602 0.09012998 -0.07772364 -0.036322057 -0.07067654 -0.0903837 -0.061155252 -0.049711518 0.093881354 0.16308448 0.19547717 0.15199386 0.13865705 -0.08494537 -0.08399136 0.11651884
doc_32 0.14199385 -0.047854427 0.14308172 0.031487014 -0.006090914 0.14068748 0.1547683 -0.052820075 0.15100431 0.13300394 -0.058695786 -0.06160337 0.14496568 -0.06473575 0.13932669 -0.04252282 0.15403742 0.14208862 0.15026408 0.13858563 0.15930535 0.1422254 -0.064238444 -0.06362342 0.1498013 0.1513195 -0.05509296 0.15542915 0.1504853 0.15853158 -0.054283183 -0.033473782 0.14722332 0.0455157 0.15153518 0.14013574 0.13672002 0.1505098 -0.060204 0.15113792 0.128 0.12971511 0.14919236 0.1393707 -0.049046833 -0.047592588 -0.056167945 0.15665062 0.14521295 -0.037984572 -0.01768177 0.14090478 -0.028125055 0.15367529 0.13464214 -0.048576824 0.14355013 0.13928764 0.13836367 -0.053877003 -0.042468376 -0.05173663 0.13268358 0.1511902 0.13243827 0.15461561 -0.0008119885 0.14968659 0.15103321 0.0671376 0.15206139 0.147924 0.15931861 0.1593399 0.15497454 0.15437138 0.16322023 -0.024343632 0.13614106 0.16784465 -0.06881271 -0.049611613 -0.049601622 0.1515988 -0.053700525 0.1654956 -0.06525254 0.13702801 -0.07037034 0.14001991 -0.03754151 -0.04900435 -0.04161273 0.15737967 0.15926605 0.13367245 -0.047908835 0.1437027 0.16095102 -0.04809504 0.13497491 0.15674064 -0.06521495 0.1384183 0.14145292 0.15286422 -0.06302753 0.12931226 -0.055334184 0.14062606 -0.059428193 0.13527349 0.16199721 0.14292848 -0.049131975 0.14806136 -0.052755307 0.16004267 0.16005768 -0.009016896 0.14108054 -0.036668252 -0.0627283 -0.05585722 0.16617495 -0.04493356 -0.0646103 0.15091386 -0.07289078 -0.05896008 0.14762563 -0.06442174 0.15728569 -0.0469681 -0.033887606 -0.07140297 0.14317986 0.1349172 -0.05271112 -0.056625232 0.14929843 0.15082698 0.15093233 0.15809569 0.15992834 -0.05315371 0.16479385 0.16831233 -0.059295867 -0.040297378 -0.048332173 -0.056317985 0.13796628 0.14108966 0.15003201 -0.029011426 0.11844205 -0.05890736 0.13695006 -0.049410593 0.13783073 -0.031575497 0.03796482 0.151428 0.1587156 -0.067173965 0.15228596 0.16152677 -0.04055878 0.124485545 -0.05396193 0.15431696 0.15991175 -0.053818993 -0.052946225 0.12725323 0.123669386 0.14019273 0.14326657 -0.060005065 0.04369219 0.13396242 0.13797668 0.15736577 0.1294463 -0.058932193 0.15642793 0.06711821 0.15157752 0.13820808 0.15181541 -0.056198888 -0.0766834 -0.050046466 -0.03304542 -0.021383436 -0.043991797 0.12965237 0.15087086 -0.0013218173
doc_33 0.099682614 -0.036185563 0.09742613 0.083942354 -0.040442344 0.09787226 0.10010559 -0.035798136 0.095789164 0.10392808 -0.031902168 -0.03263734 0.09004826 -0.03745386 0.104338884 -0.0350901 0.09086725 0.10057211 0.1029478 0.09792962 0.08204448 0.100561425 -0.03258375 -0.037115883 0.07932914 0.10146991 -0.026447851 0.098646 0.09044458 0.087484695 -0.031103594 -0.024908997 0.09637851 0.07814413 0.09328022 0.093989365 0.08950129 0.09912913 -0.04015653 0.09358491 0.08672468 0.09587225 0.09891176 0.086611085 -0.023568625 -0.0280651 -0.0332983 0.10283849 0.09541033 -0.03018937 -0.03229896 0.09605705 -0.031712215 0.09746295 0.090435 -0.037266772 0.08996314 0.09503051 0.08983736 -0.033545792 -0.03223623 -0.03929721 0.09386141 0.086841166 0.10036172 0.10223481 0.061832365 0.09654044 0.09636192 -0.008791553 0.09458546 0.09082146 0.09992285 0.09327401 0.09021981 0.09929378 0.09627247 -0.03690561 0.09211519 0.094689175 -0.0326439 -0.028402602 -0.031993777 0.09267456 -0.03604346 0.09767771 -0.036399394 0.088847876 -0.03711768 0.09518348 -0.034209955 -0.033208188 -0.030068161 0.090732224 0.09948812 0.10373511 -0.035139672 0.09417621 0.08965032 -0.039974872 0.09775082 0.10017445 -0.03628433 0.08664726 0.10942579 0.09660906 -0.034749914 0.09420187 -0.03834306 0.0909098 -0.03401768 0.09541635 0.10598579 0.09101557 -0.0402605 0.08948048 -0.0304627 0.088016994 0.102253534 -0.028217835 0.082875706 -0.018569285 -0.037283756 -0.023472855 0.08915928 -0.024813399 -0.033820026 0.10319996 -0.033012547 -0.036984794 0.095063575 -0.04063398 0.09656398 -0.027599597 -0.03393269 -0.03657946 0.09609951 0.091645174 -0.035336945 -0.035642836 0.09799559 0.10358047 0.08970939 0.09625598 0.09845411 -0.033134885 0.08726286 0.091961205 -0.031363577 -0.033214815 -0.027705595 -0.030417968 0.09272892 0.088792 0.094331704 -0.030408068 0.08849809 -0.035897966 0.096303746 -0.03766665 0.102275796 -0.032834996 -0.026573863 0.09585036 0.08397745 -0.026534542 0.08847219 0.10094664 -0.039738994 0.09298181 -0.024593834 0.09886789 0.08131941 -0.02596544 -0.033870183 0.09173673 0.10265577 0.09563248 0.09121417 -0.0326143 0.01586533 0.09921336 0.10251119 0.096226156 0.08606694 -0.032358065 0.08770485 -0.028922807 0.099484056 0.08796671 0.10046099 -0.036809582 -0.03495821 -0.03249497 -0.02944079 -0.028574642 -0.034394454 0.100688085 0.10179047 -0.032478657
doc_34 0.06271422 -0.015382063 0.062801376 0.03560114 -0.008103645 0.065975785 0.06953968 -0.020608138 0.058102556 0.06472988 -0.0062681353 -0.019223448 0.05974446 -0.0107243955 0.069156766 -0.021684099 0.066852584 0.064955965 0.06457928 0.0724978 0.061597686 0.07100897 -0.015066294 -0.007968657 0.066015966 0.066778034 -0.013850266 0.06744685 0.06716173 0.06592821 -0.0050629494 -0.0011060643 0.06996012 0.06847626 0.062201213 0.06381683 0.06560755 0.06510118 -0.015581958 0.06399699 0.06519787 0.06747809 0.06656097 0.06870067 0.007342602 -0.022466399 -0.017363373 0.0626458 0.06584314 -0.0148316985 -0.0070157605 0.065251395 -0.008432602 0.06311444 0.06447304 -0.018345717 0.07012384 0.061813302 0.06554599 -0.012913807 -0.0020713178 -0.017998584 0.06791115 0.06630427 0.0720948 0.068202056 0.056751944 0.064899 0.06657464 -0.019747248 0.07117082 0.069484085 0.064315066 0.0644459 0.068912975 0.06984033 0.06986446 -0.0041885595 0.066870406 0.06656478 -0.012600938 -0.0062515307 -0.02269166 0.06857714 -0.017388333 0.06575383 -0.020242337 0.06708613 -0.019329742 0.06913618 -0.013335681 -0.026535887 -0.00751498 0.061116077 0.06485188 0.06573461 -0.02374944 0.069648966 0.06773799 -0.011874002 0.06523338 0.066306636 -0.01785139 0.0637512 0.06749695 0.06802504 -0.01923624 0.064248584 -0.023427773 0.06605422 -0.01657317 0.066906966 0.06862965 0.065801345 -0.0069455737 0.067479126 -0.01064391 0.06263489 0.0727768 -0.009361085 0.06361836 -0.016047712 -0.009460878 -0.013189644 0.065786324 0.00015084539 -0.018121494 0.06792587 -0.016527623 -0.020848213 0.066861436 -0.020612836 0.06638257 -0.0035965 -0.014667405 -0.012444888 0.069557846 0.06519016 -0.005413502 -0.020818422 0.066090964 0.06783528 0.06252096 0.07242651 0.07097091 -0.01602603 0.063469246 0.065546416 -0.02195937 -0.0040908605 -0.015747024 -0.0057961084 0.060507745 0.064702466 0.059976187 -0.002457364 0.07302496 -0.016359001 0.06690419 -0.02069176 0.068173036 -0.008072053 -0.0013564704 0.068702005 0.06283659 -0.020013437 0.066027425 0.06909843 -0.019318074 0.06455162 0.012460781 0.07305218 0.06613007 -0.006961626 -0.016882231 0.071315646 0.06758459 0.06754511 0.06999474 -0.006477881 -0.022828769 0.06392091 0.06916529 0.06423415 0.064325266 -0.0023523108 0.06427382 -0.020552356 0.06992491 0.07322274 0.064184174 -0.027085392 -0.016839888 -0.0059004957 -0.004908595 -0.0024946989 -0.010055634 0.066316724 0.06912981 -0.011460306
doc_35 0.11463877 -0.048004624 0.09803803 -0.011119894 -0.040930934 0.10351878 0.1079116 -0.03980577 0.11043521 0.10652918 -0.040554132 -0.040754862 0.10674733 -0.03976287 0.10930051 -0.02720755 0.103469394 0.09947566 0.11137282 0.11086096 0.09951822 0.10733464 -0.035912875 -0.040908888 0.10583349 0.09827407 -0.04581197 0.104505464 0.099339254 0.09931353 -0.038576663 -0.037753887 0.1025468 0.08363108 0.11278669 0.10756485 0.10467544 0.101694465 -0.03991368 0.10448385 0.09902825 0.103468694 0.095442496 0.10744916 -0.02977164 -0.026405342 -0.055583876 0.100883886 0.1058372 -0.037046142 -0.047196716 0.10313171 -0.032045923 0.10696304 0.09461919 -0.043046758 0.10940423 0.11024017 0.103733376 -0.037871663 -0.0335779 -0.037008755 0.10441778 0.10075152 0.109303445 0.10731749 0.122921556 0.09995596 0.10985831 -0.02913926 0.10194509 0.101687744 0.108950615 0.10122708 0.105340436 0.1007422 0.10363915 -0.04542036 0.10183965 0.10268387 -0.04382832 -0.03848365 -0.02604188 0.10839722 -0.038966212 0.102695525 -0.035382688 0.10607937 -0.039319057 0.10649822 -0.040161423 -0.0377657 -0.03981872 0.10622068 0.10580185 0.10103901 -0.03605947 0.10857927 0.10858009 -0.045495916 0.10393691 0.098273575 -0.039377697 0.10688903 0.10366591 0.106933385 -0.04561141 0.10504157 -0.035429724 0.1049525 -0.036429208 0.1032812 0.10631117 0.10632307 -0.03723827 0.102212 -0.04218902 0.10919122 0.10148355 -0.04347557 0.1005133 -0.028376354 -0.04871822 -0.026037054 0.10489568 -0.020446753 -0.038235445 0.10409596 -0.0410796 -0.03769414 0.10135112 -0.036774125 0.10301774 -0.0419667 -0.033265732 -0.035925083 0.10268055 0.104539774 -0.040122822 -0.035814486 0.10798968 0.09931371 0.10650637 0.10873166 0.09969628 -0.035109136 0.11385256 0.10857445 -0.034994207 -0.04549806 -0.04318249 -0.04112939 0.100253984 0.10252682 0.109171994 -0.04678268 0.089691475 -0.04320491 0.092643574 -0.04098601 0.10407864 -0.041311935 -0.03436669 0.104177326 0.10131146 -0.033305034 0.10608695 0.10749534 -0.045519732 0.10379848 -0.02162574 0.10904536 0.10760476 -0.04677409 -0.033031147 0.10639499 0.10179136 0.10711023 0.11000539 -0.04610321 -0.014444495 0.10050768 0.11328034 0.10528411 0.09904558 -0.046132207 0.107490465 -0.03638395 0.09882845 0.10633175 0.110162914 -0.03804461 -0.037742153 -0.037667755 -0.037732318 -0.046133224 -0.040636722 0.11079611 0.1044482 -0.03868687
doc_36 0.064798966 -0.014743852 0.066993356 -0.003431136 -0.009850472 0.06452416 0.060344253 -0.017096218 0.05619186 0.057610378 -0.016448481 -0.018277235 0.06498182 -0.01703994 0.06017538 -0.021251488 0.06142113 0.06160808 0.06219876 0.06386807 0.06257212 0.0647042 -0.014208246 -0.019554242 0.06313902 0.060863603 -0.009268526 0.06201463 0.062266137 0.057381723 -0.011177786 -0.0077346475 0.058092434 0.057120215 0.06248609 0.062254097 0.06653194 0.06329213 -0.022125063 0.06041749 0.057548802 0.063748784 0.06427884 0.06409124 0.037947595 -0.0026833182 -0.017867895 0.061689902 0.061892893 -0.022362094 -0.0182566 0.054585274 -0.018501362 0.05963165 0.06496533 -0.015758758 0.058783535 0.057515647 0.05841075 -0.010722486 -0.016668098 -0.023901496 0.06348094 0.057338923 0.061126485 0.062005907 0.07334928 0.05873714 0.058917135 -0.025340058 0.06295975 0.062753 0.064833246 0.05719251 0.065122806 0.06176197 0.059894152 -0.010362986 0.061774243 0.0569044 -0.019343134 -0.022911012 -0.017576346 0.062409125 -0.015043303 0.060248394 -0.025098376 0.0625051 -0.018287292 0.057963178 -0.015165862 -0.022664227 -0.017902002 0.057192057 0.064134 0.05889731 -0.026408436 0.05249872 0.061425027 -0.019842526 0.05929418 0.06436778 -0.015709566 0.06335598 0.06260061 0.0633507 -0.02517391 0.060377758 -0.02505152 0.061844878 -0.023290977 0.062874116 0.062417544 0.06264276 -0.008604866 0.061503723 -0.023636522 0.06354519 0.059663735 -0.0074889655 0.05944773 -0.02195368 -0.008117465 -0.020323852 0.057132468 -0.025106313 -0.021760387 0.06519817 -0.0145916045 -0.018728305 0.06283424 -0.021218086 0.06419329 -0.015994672 -0.007425959 -0.019911477 0.05977173 0.06078948 -0.0036387222 -0.019626418 0.06375067 0.06586116 0.05778479 0.065333776 0.06626784 -0.021348294 0.061263405 0.06555691 -0.027702974 -0.018079929 -0.016383575 -0.017608713 0.056573115 0.064648196 0.061083466 -0.00436244 0.063264936 -0.022815038 0.061418224 -0.021078452 0.06352082 -0.018667448 0.0005984308 0.06271764 0.06516727 -0.023981111 0.05779215 0.06304317 -0.020355003 0.062665164 -0.024640867 0.06148109 0.06143194 -0.0179151 -0.01832637 0.06594732 0.06549424 0.057220984 0.0659836 -0.019088691 -0.019551812 0.062633194 0.056209564 0.060421027 0.0629889 0.00038092004 0.061658237 -0.015685026 0.06721947 0.064718746 0.062952064 -0.026776653 -0.02521995 -0.017360466 -0.012921436 -0.009084988 -0.02497873 0.06627685 0.05907568 -0.019991204
doc_37 0.06714407 -0.1507241 0.08207186 0.021780966 -0.11192698 0.17220668 0.090032704 -0.12642998 0.06783767 0.03757054 -0.14814708 -0.14471738 0.10380615 -0.123475306 0.10738719 -0.10220267 0.12774515 0.15943618 0.06675388 0.13151497 0.096964836 0.15279348 -0.086885504 -0.03257831 0.14798474 0.020397665 -0.14199406 0.11723279 0.12409336 0.16553731 -0.046109546 -0.1083829 0.16528489 0.0022631942 0.07760553 0.091684476 0.097996704 0.18468729 -0.0057701888 0.07761413 0.17626028 0.19742897 0.09751008 0.14791372 -0.05984909 -0.11041658 -0.109645136 0.09361747 0.14038867 -0.11805686 -0.16542672 0.10997936 -0.10160394 0.11826473 0.17001279 -0.086378895 0.11844842 0.13900435 0.18080613 -0.086660616 -0.11985941 -0.041841596 0.1380461 0.02655757 0.061405305 0.11028952 0.05648908 0.16793041 0.053878188 -0.097967446 0.0682189 0.12763715 0.049916826 0.1141271 0.14995591 0.14930286 0.15847714 -0.12889892 0.17064984 0.14132005 -0.07614413 -0.14880705 -0.051706374 0.13288128 -0.12799071 0.07139347 -0.05077034 0.14161631 -0.12686378 0.15086852 -0.08151047 -0.115488954 -0.13104814 0.15247568 0.10822874 0.04428782 -0.11030129 0.070212685 0.15938815 -0.14804974 0.07449564 0.10572484 -0.10097844 0.13560282 0.11290601 0.100413844 -0.123801805 0.099909715 -0.07408602 0.15308632 -0.13204353 0.032560416 0.10907169 0.09059572 -0.10399113 0.12651648 -0.11678526 0.095593646 0.11272007 -0.15798438 0.15163602 -0.070349574 -0.100620225 -0.0949206 0.19531393 -0.060311574 -0.09474915 0.13465412 -0.0945492 -0.103861615 0.15467589 -0.13415298 0.086188935 -0.11218753 -0.046890546 -0.100582115 0.10985103 0.13280429 -0.038870662 -0.06404498 0.11701848 0.13410838 0.055905294 0.13057208 0.123097725 -0.124579184 0.16288584 0.060521085 -0.07601724 -0.11802121 -0.09473464 -0.13412839 0.15634681 0.17513874 0.1500153 -0.12998158 0.053483706 -0.09600632 0.14426674 -0.11331607 0.13148771 -0.13064606 0.04158249 0.1674075 0.1541375 -0.07076481 0.14189526 0.14385639 -0.11435313 0.14983398 -0.09829431 0.12855527 0.07461753 -0.12753113 -0.12605518 0.05502388 0.03602371 0.2012951 0.08552563 -0.10353187 -0.0727234 0.16437215 0.07875036 0.13118343 0.15436442 -0.106884226 0.05228835 -0.073127486 0.14343038 0.09727039 0.14465776 -0.08201721 -0.13315031 -0.13284472 -0.13223372 -0.13087435 -0.049484573 0.061768103 0.052284442 -0.10120829
doc_38 0.07682947 -0.015785918 0.078967586 0.0048022754 0.008726269 0.0928494 0.088071376 -0.032053865 0.09779758 0.076712005 -0.011034187 -0.016538637 0.0768679 -0.017140416 0.07685376 -0.034643706 0.08564349 0.09543814 0.07282005 0.08058393 0.07963231 0.08832457 0.0013773805 -0.02526332 0.08541347 0.07677648 0.008989832 0.07526808 0.0885408 0.087345995 0.002493272 0.022572622 0.085832015 0.07580087 0.08725003 0.0746368 0.086810745 0.09021792 -0.018016262 0.087367885 0.08572243 0.090643294 0.07576105 0.08775404 -0.01755092 -0.035196967 -0.013125025 0.089213364 0.08797207 -0.015763862 -0.000325892 0.0749263 -0.024419842 0.07192786 0.09019389 -0.013474625 0.08658392 0.08202454 0.08401282 -0.013797807 -0.015961137 -0.019777948 0.08617336 0.0746839 0.07870286 0.08007501 0.11942866 0.085949056 0.08391485 -0.023476467 0.08103929 0.07978017 0.079857275 0.08164768 0.08242937 0.080685794 0.08672167 0.013069482 0.09357134 0.08979269 -0.021043893 -0.00995629 -0.035025842 0.084328145 0.006779507 0.08143651 -0.028903464 0.090473115 -0.03046031 0.09033159 0.012515139 -0.04237255 0.009124519 0.09015316 0.087402515 0.072921306 -0.03589364 0.06851313 0.0824295 -0.02757855 0.08041662 0.08139295 -0.008191244 0.09150256 0.09004406 0.08351514 -0.04019284 0.07978803 -0.037661973 0.08562915 -0.0244677 0.07634716 0.083055176 0.086020775 -0.0070225354 0.080454305 -0.027567925 0.087804414 0.07766158 -0.0042175027 0.08151748 -0.035626583 0.019405229 -0.034585927 0.08303005 -0.030580828 -0.034190174 0.086594105 -0.013166411 -0.015112762 0.08713463 -0.03586967 0.09132391 0.013614168 0.0096297 -0.016533948 0.08539373 0.08699053 -0.014514665 -0.02609762 0.078228295 0.0815244 0.08614734 0.08426417 0.08708069 -0.028674511 0.082572 0.08987972 -0.040221147 0.0040774834 0.0035650893 -0.012901648 0.07227215 0.09411405 0.08036794 0.021128025 0.106520735 -0.016426684 0.083793886 -0.012670601 0.08951414 0.0019597027 0.036783837 0.09617386 0.09021262 -0.033776168 0.09301441 0.07874235 -0.004827325 0.08602368 -0.038188566 0.08292909 0.07821157 0.0047207284 0.005889292 0.07846846 0.07484793 0.0890084 0.09307318 -0.0057037394 -0.01914695 0.08345837 0.07517883 0.07849593 0.07835548 -0.004852209 0.086803705 -0.0386407 0.087796785 0.083076045 0.091479324 -0.04288486 -0.03458424 -0.018985862 -0.00195251 0.015143257 -0.019208752 0.08939423 0.07973059 -0.011044652
doc_39 0.07378751 0.013154033 0.07222997 -0.03223184 0.056526385 0.10464029 0.103195086 -0.008595033 0.09029587 0.05936333 0.05906892 0.03387189 0.073562674 -0.02792562 0.07241461 -0.09605139 0.08579203 0.121454395 0.02677342 0.09382299 0.12140646 0.1136219 0.033279646 -0.009583782 0.11603181 0.056231037 0.073306665 0.08783737 0.111663215 0.105515555 0.033295576 0.13000494 0.12352958 0.07372578 0.06413942 0.07654895 0.1193183 0.10591877 -0.002428024 0.11346895 0.11074862 0.11316459 0.09866947 0.11527908 -0.055384897 -0.09177255 0.011437032 0.084562495 0.107759245 0.0092907 0.07225332 0.11114082 0.002494295 0.117372744 0.13667713 0.009842806 0.084314995 0.09909051 0.103214554 0.046223182 0.039405435 0.0070640687 0.10855371 0.044981822 0.117057316 0.088805854 0.10361833 0.114185885 0.057680763 -0.08669515 0.07029385 0.08734386 0.070954636 0.104631834 0.12567064 0.12252461 0.11142749 0.04687045 0.12213718 0.118028454 0.010340925 0.048060674 -0.07399385 0.12529102 0.010647837 0.06298258 -0.032761265 0.14074196 0.0013259595 0.13617036 0.03536324 -0.07886683 0.05108829 0.12599386 0.08339785 0.080338545 -0.087772526 0.06681673 0.12724867 0.014523271 0.06433949 0.11309879 0.024159303 0.099535085 0.11262548 0.113087565 -0.029326007 0.09681979 -0.083914526 0.12107165 -0.00800648 0.061766636 0.0979221 0.11847999 0.0048648166 0.09369987 0.02496253 0.094027415 0.10481665 0.07490797 0.12543462 -0.079728454 0.072249986 -0.08292489 0.1277992 -0.07225772 -0.01653513 0.10223585 0.0030291744 0.047055956 0.109120265 -0.016819838 0.084299 0.034969445 0.06256894 -0.016737277 0.110342465 0.11395333 0.012671613 -0.013548972 0.09041419 0.12197664 0.0640223 0.10810016 0.1132329 0.011244426 0.11434132 0.1009907 -0.09013087 0.07942617 0.022385204 -0.0027147601 0.10758593 0.12758237 0.11436022 0.11956583 0.08252766 0.011653853 0.115497686 0.037638996 0.09054554 0.024746452 0.12060933 0.09793192 0.12452836 -0.025433537 0.114040546 0.11488854 0.051699877 0.117836714 -0.08401444 0.09088832 0.06791855 0.048568703 0.018767389 0.06922937 0.06851008 0.11890756 0.08233985 0.07008536 -0.054284196 0.12709711 0.072781846 0.09016782 0.12159832 0.03829996 0.067700244 -0.08252911 0.10122504 0.065200515 0.13035873 -0.08638138 0.008821178 0.029793555 0.10195655 0.1081327 0.011168143 0.05870238 0.056315657 0.037055206
doc_40 0.12734525 -0.009612954 0.15245354 0.039761607 -0.03331425 0.18083324 0.14009829 -0.07920839 0.17262658 0.12864001 -0.041099746 -0.04908159 0.13930935 -0.05512812 0.13869137 -0.08384722 0.1508734 0.18760669 0.11216798 0.15026434 0.18566407 0.17896405 -0.03995691 -0.0672977 0.1708025 0.1208622 -0.03564202 0.14378092 0.16702433 0.18027124 -0.056039035 0.0027905395 0.17477605 0.07924554 0.105309695 0.13656314 0.17440869 0.1560982 -0.036669966 0.15047106 0.16459203 0.17911275 0.16145702 0.18516037 -0.07187959 -0.08499413 -0.06695494 0.14633065 0.16210254 -0.036975525 -0.03388469 0.19528104 -0.061477505 0.15365723 0.18576261 -0.037157547 0.16564329 0.17715135 0.16974127 -0.06233492 -0.0547522 -0.074710436 0.16259179 0.09486248 0.16590694 0.13926525 0.14467971 0.18535629 0.118906945 -0.07386034 0.113602884 0.15453997 0.111002244 0.16707873 0.17260206 0.1717113 0.16658379 -0.0043162056 0.1746886 0.15481433 -0.055221744 -0.03857115 -0.08471618 0.17083514 -0.055259608 0.14191169 -0.05135671 0.17226715 -0.06011525 0.1565054 -0.028127246 -0.08763326 -0.016627692 0.17286211 0.16351995 0.11710364 -0.085210584 0.1280542 0.17864853 -0.04819834 0.1160732 0.14844935 -0.061773542 0.15158077 0.17307134 0.16813171 -0.075882494 0.15992522 -0.088062495 0.18825407 -0.07575244 0.11862948 0.13656004 0.16435368 -0.023719486 0.17634581 -0.058156658 0.17550159 0.14162523 0.012205312 0.18529606 -0.07816724 -0.02338703 -0.064652905 0.18104248 -0.058778003 -0.059588343 0.18231836 -0.072480336 -0.052163728 0.17996874 -0.06359885 0.15527149 -0.020840118 -0.026751544 -0.072871566 0.16858996 0.1778242 -0.046038408 -0.044872683 0.12279626 0.16846399 0.12291153 0.1794965 0.15760106 -0.064571455 0.15898886 0.13025315 -0.08830536 0.028046016 -0.0059387013 -0.0683484 0.15718952 0.16432047 0.16752085 0.08447404 0.03181429 -0.06678376 0.17851324 -0.030563382 0.16117157 -0.06756802 0.06611148 0.17404251 0.1781928 -0.06811473 0.17951716 0.16412452 -0.03166354 0.17252885 -0.0780593 0.16800752 0.11750631 -0.03161973 -0.032827586 0.10807308 0.1129347 0.19047499 0.15918072 -0.039288238 -0.057429057 0.16295452 0.11808486 0.15357928 0.18067905 -0.0354034 0.13900608 -0.08321694 0.12946421 0.115704715 0.17936017 -0.0905583 -0.059155308 -0.042129193 0.032247476 0.051737297 -0.046007413 0.13291752 0.11114046 -0.024795035
doc_41 0.14214826 -0.04965589 0.12787367 -0.009907872 -0.05487989 0.124042146 0.12984622 -0.045900773 0.14521691 0.14069988 -0.045644976 -0.05272113 0.14014265 -0.044571787 0.13608883 -0.019919615 0.13131338 0.13113987 0.14733282 0.14142142 0.12824804 0.1299252 -0.047004223 -0.04305459 0.13564867 0.12698966 -0.049761854 0.14019834 0.12518086 0.12816758 -0.047384758 -0.0499183 0.13443503 0.11589221 0.14293906 0.13307227 0.1369395 0.12965584 -0.042375438 0.13398258 0.12313542 0.12799558 0.1182307 0.1305338 -0.038074207 -0.01793353 -0.04604707 0.13182034 0.13524844 -0.046964362 -0.057209168 0.13667814 -0.040175233 0.13553068 0.12353823 -0.043155663 0.13618779 0.13512439 0.12379937 -0.040616106 -0.049456976 -0.04572062 0.13070332 0.13156307 0.13358298 0.13607566 0.15134127 0.11911552 0.13022885 -0.042554032 0.12512097 0.1312541 0.13570547 0.12718645 0.122747034 0.12835047 0.13614112 -0.070492856 0.12784767 0.1295467 -0.044627637 -0.045117002 -0.041048247 0.12853622 -0.046728477 0.1418231 -0.038067896 0.13395295 -0.049720105 0.13055451 -0.044611376 -0.043384183 -0.049217187 0.1307358 0.13118596 0.13224939 -0.04714945 0.14074856 0.1275993 -0.046441685 0.1402181 0.13138095 -0.047240637 0.1314815 0.13338268 0.13246281 -0.050375108 0.12617023 -0.04059751 0.13451168 -0.038667884 0.1267991 0.13858429 0.13597427 -0.04009344 0.13375245 -0.042485077 0.13466349 0.11987633 -0.06339519 0.13007906 -0.04329965 -0.06311423 -0.03925098 0.13111746 -0.020684252 -0.048939586 0.12725858 -0.042537406 -0.048451915 0.12741277 -0.045783836 0.12734012 -0.055792112 -0.048620377 -0.04800725 0.12428051 0.1366102 -0.047269117 -0.020302908 0.14269029 0.1250796 0.12992074 0.12809916 0.12726685 -0.049082167 0.1390467 0.14195086 -0.047867578 -0.050085653 -0.060335908 -0.045641314 0.13101822 0.12877297 0.13008055 -0.06403517 0.12471508 -0.0418308 0.11528258 -0.04901643 0.1286145 -0.04249314 -0.050710578 0.13664721 0.12264909 -0.041365266 0.13305071 0.13862522 -0.054459233 0.12827964 -0.048078343 0.13693303 0.13776357 -0.05266496 -0.047654863 0.14122829 0.12525046 0.12408096 0.13560867 -0.050054166 -0.02104129 0.12676571 0.14047974 0.13618597 0.1298337 -0.055564746 0.13048358 -0.045226824 0.1308805 0.13647285 0.138121 -0.047154844 -0.05011256 -0.047196783 -0.054793235 -0.059392817 -0.045511786 0.14083032 0.13448526 -0.038596142
