doc_0 -0.022287935 0.042347614 -0.019599833 -0.019262988 0.05965009 0.016276553 -0.032518286 -0.013114811 0.063472904 0.022463039 -0.028984688 -0.0024339189 0.0022317225 0.042886484 0.019230194 -0.015941758 -0.009567748 0.0028764317 -0.016425394 -0.008687424 -0.013919115 -0.02179932 0.038575724 -0.02203688 -0.015407544 -0.017345386 -0.025011875 -0.021232812 0.025371168 0.021447126 0.0279225 -0.022329686 -0.023562208 -0.017329339 0.048580665 -0.027049098 -0.018658083 -0.008648344 0.04082518 -0.018607514 -0.015760444 0.017453378 -0.02426884 -0.008746324 -0.0069765565 0.041982323 -0.01648167 -0.01843018 -0.021505691 -0.016559592 -0.02153867 0.029657206 -0.011255176 0.011130363 -0.029250596 -0.024661798 0.012721665 -0.021597087 0.05219886 -0.014564256 -0.008837884 0.040066816 -0.021595392 0.026325502 -0.017074052 -0.022253502 -0.00107302 -0.017805712 -0.023880763 0.007912831 -0.023325797 -0.022371974 0.020776842 -0.030428216 -0.0139128 -0.024345811 0.033652466 -0.01422804 -0.007501058 -0.010186296 0.031114724 -0.0142136775 0.03987182 -0.02338995 -0.0057208217 -0.013442321 -0.0027009416 0.05878186 -0.01152939 -0.024722759 0.03300688 -0.009406675 -0.011712115 -0.034094978 -0.018002886 0.020067435 -0.02588077 -0.007466836 0.0396104 -0.018234218 -0.012193788 0.01808501 0.027367609 -0.017972587 0.024438376 0.03335252 0.030536637 -0.02610432 -0.0067169433 0.05320763 0.038873415 -0.016597832 0.03449325 -0.032033216 -0.017119806 -0.024815843 -0.009004858 0.035586923 -0.015916288 -0.034434557 -0.020576598 -0.009395307 -0.010937956 -0.023166163 -0.02671954 -0.013004175 -0.014852939 0.0482777 -0.025596462 -0.008415637 0.040970538 0.0034342867 -0.033997457 0.037980527 -0.020620232 -0.019558452 -0.020687563 0.03744547 -0.022879176 -0.018147822 -0.0045697773 -0.022270452 0.037353735 0.02293526 -0.0131813465 -0.017264321 -0.015722029 -0.021378225 -0.011723664 -0.01905207 -0.013683733 0.023988185 0.04273651 -0.018964043 -0.015430484 0.021926451 -0.017997216 -0.029447747 -0.014474027 0.019326014 0.027467728 -0.017528411 -0.019679185 -0.006504317 0.03945056 -0.0003527929 0.03635306 0.026042242 0.06767444 0.0064597335 -0.022712775 -0.00572103 -0.019377058 -0.019845169 -0.01743598 -0.022670623 0.033942007 -0.017558932 -0.028921299 0.043077532 -0.00511775 -0.012796895 -0.019455465 0.050751373 -0.0071279965 0.021706402 -0.021348933 -0.0070673656 -0.027687034 -0.007986611 -0.02335307 0.03069438 -0.009848143 -0.022694428 -0.027565423 0.032701034 -0.014309384 0.029558718 -0.022072244 -0.021431534
doc_1 0.058501177 -0.016492605 0.051572084 0.05673095 -0.005927991 -0.010399168 0.057886235 -0.032637186 -0.01300389 -0.011381396 0.061850134 0.059746597 -0.014410435 -0.021573905 -0.013347573 0.052388165 -0.011047638 -0.019402549 -0.017405631 0.055610012 0.0575458 -0.01271664 -0.01145758 0.053162348 0.055699248 0.053066593 0.052440263 0.058349993 -0.012300813 -0.011036628 -0.01536573 0.05531218 0.05727934 0.056586936 -0.011836512 0.055785105 0.052146062 -0.026968561 -0.017716106 0.058817107 0.061989166 -0.006677132 0.060504843 0.054438237 0.060210023 -0.010787665 -0.027398191 -0.020490749 0.05851787 0.06127491 0.059660632 -0.01970949 0.054088745 -0.01680019 0.047875144 0.051496413 -0.014891311 0.061314937 -0.009574268 0.05875684 0.05598744 0.08293066 0.061013903 -0.017442388 0.059786376 0.053183854 -0.029683653 0.050105963 0.057325114 -0.009915784 0.05451147 0.06109862 -0.014927028 0.056041833 0.056195635 0.05754373 -0.010447089 0.05231511 0.056582812 0.046883173 -0.01579881 0.05661993 -0.018239137 0.053106762 0.054947227 0.054329377 0.05153085 -0.013927942 0.055795543 0.04814503 -0.013859833 0.058966663 0.057023793 0.057621934 0.056213163 -0.02116656 0.051592767 0.064001806 -0.009430812 0.054324534 0.062325627 -0.01191632 -0.015601578 -0.015772369 -0.021810757 -0.014789395 -0.019388756 0.047297534 0.057144854 -0.0055851215 -0.010034809 0.057374038 -0.018395687 0.06128496 -0.020080898 0.0500381 -0.027949538 -0.015123823 0.058496617 0.05896273 0.057075225 -0.022671385 -0.027436055 0.05519781 0.055289272 -0.024220986 0.056964867 -0.021491742 0.061587613 0.053998124 -0.012042323 -0.019651469 0.051217996 -0.016121436 -0.019290965 -0.022214456 0.048860904 -0.017423358 0.052925587 0.052347817 -0.012482281 -0.008937002 -0.018839022 -0.018182954 0.0554967 0.06344339 0.054851558 0.051255737 -0.015040267 -0.020629114 0.06590771 0.038329218 0.0654676 0.060573302 -0.020722225 -0.019068675 0.05649011 0.054033842 0.05820506 -0.014379059 -0.023072148 -0.016935954 0.061041635 0.049892947 -0.01672277 -0.021813763 -0.026241919 -0.020867907 0.003176075 -0.02313855 0.05650522 0.05636089 0.049903825 0.05575553 0.054988123 0.053396344 -0.011125433 0.05457861 0.061933096 -0.017812995 -0.015374804 0.054237906 0.058390137 -0.016761374 -0.008903991 -0.013187284 0.058826916 0.054949924 -0.029128494 0.054884892 0.05742768 -0.019238126 0.05479951 -0.020407727 0.055577725 0.05249986 -0.024600558 -0.013490649 0.060531843 0.0531964
doc_2 -0.15965277 0.18229316 -0.15918659 -0.18638906 0.05567058 0.26379353 -0.18013541 -0.055248648 0.24814627 0.25437123 -0.16244903 -0.12909 -0.059037667 0.23553793 0.26137745 -0.14368753 -0.026900172 0.05867487 -0.11237048 -0.15105425 -0.11305338 -0.08448973 0.2601337 -0.15721379 -0.13263616 -0.1468891 -0.16082452 -0.16951028 0.2383924 0.20051701 0.22724272 -0.15815692 -0.18080029 -0.14464588 0.30517444 -0.16991644 -0.16284466 -0.10217557 0.18460447 -0.13637994 -0.14283137 0.18679932 -0.16382635 -0.10255044 -0.12507361 0.21581648 -0.056290604 0.09015025 -0.1604236 -0.16646662 -0.13561726 0.24823742 -0.15920164 -0.07852078 -0.17259353 -0.1686437 0.015001364 -0.121424146 0.3003512 -0.11868306 -0.12296612 0.0301503 -0.13871443 0.26023948 -0.12694259 -0.13710266 0.00932983 -0.12914559 -0.17121314 0.047409743 -0.17644271 -0.18381885 0.24841578 -0.17604761 -0.13826264 -0.16946264 0.17229354 -0.13128932 -0.12647945 -0.15142223 0.2561373 -0.12954953 0.24357654 -0.16983488 -0.12617303 -0.16290294 -0.14942949 0.19931577 -0.13769336 -0.1744227 0.17564869 -0.11633438 -0.13951555 -0.18808277 -0.12307958 0.01534769 -0.18902472 -0.104848735 0.26239035 -0.13894603 -0.11729296 0.19571316 0.22825441 -0.05093354 0.18727423 0.21431294 0.2272791 -0.17020333 -0.10752186 0.33481136 0.37006918 -0.14487109 0.27330455 -0.1868319 -0.06931426 -0.16473489 0.015789194 0.20293146 -0.16858801 -0.19635417 -0.1935368 0.17449684 -0.106293015 -0.15693896 -0.13711633 -0.117939554 -0.10792988 -0.045787748 -0.16185258 -0.1162901 0.24831873 0.058336876 -0.18939193 0.232776 -0.047287483 -0.07899234 -0.15652621 0.26375642 -0.17908467 -0.13664904 -0.04795021 -0.07280996 0.30572984 0.28075328 -0.1310408 -0.13661158 -0.10462016 -0.14907219 0.07783411 -0.03161321 -0.13163373 0.035724442 0.08744905 -0.15151632 -0.07877361 0.11649602 -0.12550493 -0.19019882 -0.1271484 0.22751814 0.19541669 -0.05411781 -0.11103347 -0.13022697 0.23336506 0.12271837 0.07755035 0.1549068 0.3835643 0.074778415 -0.16161337 -0.11037857 -0.13189319 -0.13286275 -0.109121606 -0.1915012 0.026507191 -0.16974775 -0.17003793 0.24050245 -0.05327539 -0.14171675 -0.16593006 0.32685062 -0.029536737 0.21499303 -0.12594096 -0.13890886 -0.098565154 -0.12221617 -0.14168872 0.11745592 -0.13721621 -0.09774079 -0.15887164 0.081530385 -0.09836 0.24820022 -0.1545511 -0.17107524
doc_3 0.031194992 -0.025182057 0.019103348 0.0010261277 -0.03068119 -0.032384116 0.0059739677 -0.04178391 -0.011439029 -0.02374018 0.025836706 0.03560668 0.020651134 -0.012748076 -0.031470023 0.048957907 -0.044042073 -0.022521038 -0.050564643 0.038273934 0.041349933 -0.043775573 -0.025755081 0.03429299 0.03554241 0.009036362 0.018707188 0.007691593 -0.019015076 -0.028624533 0.009606316 0.024235409 0.014503839 0.017023498 0.024646811 0.004093721 -0.0058781495 -0.04622074 -0.022233257 0.02742867 0.02788565 -0.027148508 0.0014691965 0.037274294 0.042426903 -0.0010072101 -0.05997933 -0.04398141 0.02705181 0.01630596 0.030592568 -0.032768656 0.014935825 -0.04447768 0.024133366 0.010034397 -0.045570634 0.051411845 -0.03197414 0.050071888 0.03618709 0.093704194 0.003655102 -0.033995472 0.035550617 0.036497097 -0.018334711 0.034305014 0.00411142 -0.018882113 0.00514348 -0.016062617 -0.036721196 -0.010120804 0.023374137 -0.019228859 -0.008648083 0.031806767 0.033538405 0.038302436 -0.0075841295 0.038604684 -0.023203295 0.011276195 0.03375124 -0.013586918 0.034589026 0.003948598 0.04664426 -0.010344911 -0.010935459 0.03840964 0.027797 -0.0062836963 0.037514646 -0.044441435 -0.010947487 0.03840219 -0.022120915 0.026744068 0.044090506 -0.023230523 -0.025507977 -0.012571268 -0.032778654 -0.013882087 -0.02031632 0.0035378113 0.038972445 -0.007472966 -0.020566052 0.0021905098 -0.021687087 -0.0043782243 -0.036748413 0.0060594906 -0.042325225 -0.019872569 0.03421846 -0.011740723 0.0013177935 -0.027281227 -0.041765857 0.02377393 0.03078514 -0.056653656 0.059907436 -0.040963586 -0.018505095 0.02996446 -0.03808977 -0.024028458 -0.011005832 -0.022132512 -0.03608071 -0.05072096 0.02444906 -0.03915967 -0.0002939927 0.0319414 -0.02537864 -0.044188656 -0.017945377 -0.027184328 0.009028849 0.002994436 0.041326687 0.01994233 -0.03947797 -0.05178172 0.029194772 0.029541478 0.047339536 0.028873676 -0.026741983 -0.018247437 0.05189455 -0.024311433 0.035700366 -0.029172854 -0.02204231 -0.032795496 0.030702943 0.05123176 -0.029305343 -0.028261146 -0.036428373 -0.027636446 0.03462793 -0.028047804 0.014862427 0.055488948 0.039036788 0.042249266 0.05825285 -0.010630475 -0.03275949 0.039078712 -0.01171967 -0.023516448 -0.03652467 0.038417313 0.0016023733 -0.03871037 -0.025555614 -0.034387916 0.037583526 0.032661673 -0.041522816 0.045521237 0.045687284 -0.013229114 0.04998778 -0.0581097 0.0028440622 0.085090026 -0.0439123 -0.030950736 0.024367018 -0.0072636087
doc_4 0.03654001 -0.004711675 0.04034352 0.022438837 -0.0039750063 -0.006892894 0.04053974 -0.055122912 -0.0019051017 -0.013690146 0.03120541 0.053543262 -0.032288045 -0.012895087 -0.028098505 0.06567133 -0.046610896 -0.037673973 -0.043132544 0.06428572 0.06817082 -0.044854566 0.019759525 0.035839714 0.06406439 0.042616114 0.031450313 0.031445924 0.003121871 -0.011786568 0.018009517 0.043875057 0.026738977 0.061643645 0.06711698 0.038173147 0.02245221 -0.058313202 -0.037325695 0.053035367 0.050014008 -0.015071456 0.04105495 0.06623381 0.06766817 -0.021145277 -0.05370211 -0.027517153 0.044227477 0.026031436 0.05585442 0.0624959 0.03636439 -0.04602036 0.03522185 0.030373251 0.0020654188 0.05331172 0.024766978 0.065164246 0.06404369 0.07839896 0.04487793 0.043411132 0.047090895 0.053330515 -0.036475662 0.054225255 0.034181245 -0.030302724 0.031498235 0.021828692 -0.0045692925 0.033939615 0.06385038 0.018725624 -0.021653634 0.051988624 0.06885818 0.051619366 0.054122817 0.036410198 0.0009440972 0.04228474 0.056003455 0.025166405 0.04286085 -0.00786481 0.07014319 0.03630895 -0.004191937 0.06343396 0.04818986 0.010392594 0.060148865 -0.052758053 0.030505383 0.061219387 0.049050502 0.049063455 0.0664044 -0.018061096 -0.0064958325 -0.008445734 -0.013422342 0.00075317355 -0.03884331 0.0141962245 0.062278222 0.095453866 0.04943076 0.05731526 0.05900289 0.010095296 -0.057003997 0.037329458 -0.04680486 -0.003759853 0.027383324 0.012772711 0.008344467 -0.030725578 -0.05572873 0.047827635 0.056715228 -0.064193726 0.06075722 -0.05025105 0.03346485 0.067022555 -0.0075607128 -0.043203607 0.028339388 -0.02113411 -0.047157355 -0.049948376 0.042377245 -0.01565519 0.027291134 0.05215149 0.013692889 -0.036095586 -0.0047186594 -0.008773084 0.032527756 0.04080248 0.058448173 0.031235838 -0.0136596495 -0.044792574 0.049764786 0.034229487 0.06685054 0.033039566 -0.02137943 -0.027195761 0.06464128 0.011807855 0.050096203 -0.009701284 -0.03857434 -0.033920042 0.06147604 0.0492054 0.019239932 -0.046141524 -0.0413284 -0.021656005 0.0919731 -0.04327547 0.032958314 0.058655713 0.06148774 0.04726192 0.06617543 0.02782589 -0.031378105 0.056731764 0.026544563 -0.010408004 -0.04361314 0.043217804 0.044832103 0.08374603 -0.04594335 -0.024280798 0.049210582 0.05690956 -0.058891486 0.053271055 0.041241504 -0.033182114 0.057763726 -0.045828063 0.04338911 0.058701333 -0.050295293 0.0014973385 0.04509008 0.022806393
doc_5 0.12090703 -0.044012967 0.113198236 0.12563315 -0.06887096 -0.033126216 0.12740566 -0.029050257 -0.054642353 -0.040091682 0.12659834 0.10596453 -0.025347304 -0.035826053 -0.030081198 0.111536205 -0.026756447 -0.029487522 -0.010205528 0.11831371 0.10928936 -0.0066639204 -0.051110413 0.10197428 0.11464797 0.12909472 0.10942039 0.11665383 -0.028544571 -0.02884955 -0.040178373 0.11774413 0.115519434 0.109927855 -0.048299324 0.11253573 0.119412795 -0.02498263 -0.035782743 0.112729296 0.1058734 -0.029633936 0.1157957 0.107943594 0.10347288 -0.040185504 -0.027746765 -0.034727152 0.10746877 0.11762361 0.123292685 -0.04789453 0.10902799 -0.040615384 0.12123462 0.11384752 -0.023682326 0.114326246 -0.0389231 0.10809364 0.106401876 0.13099979 0.10773003 -0.03228345 0.11032438 0.11322232 -0.033757813 0.11362524 0.113622785 -0.0071472432 0.12300094 0.11419057 -0.025432019 0.115006715 0.12028627 0.11508442 -0.027462639 0.10746449 0.11836455 0.11235375 -0.044555396 0.11651997 -0.051057212 0.11779865 0.11056851 0.11694141 0.113663234 -0.049910393 0.11188499 0.1189331 -0.054338228 0.11406544 0.10907795 0.11256863 0.11228557 -0.026342377 0.11467544 0.11854884 -0.06741045 0.101269685 0.11335655 -0.04064269 -0.013060917 -0.010903329 -0.05136717 -0.038095158 -0.03747187 0.106710315 0.11451163 -0.046707623 -0.048950024 0.1055046 -0.040124428 0.12180389 -0.024838943 0.12610112 -0.032106154 -0.043373775 0.11399301 0.11078692 0.108783804 -0.02443194 -0.025951914 0.11411473 0.106823996 -0.03490723 0.10716416 -0.030971766 0.11628564 0.095259726 -0.029585095 -0.03570631 0.117166094 -0.040309418 -0.024065964 -0.028029451 0.10118454 -0.034418836 0.12116887 0.11590595 -0.02573162 -0.015774434 -0.025831757 -0.04610167 0.103088595 0.10032218 0.10520158 0.13255763 -0.026904091 -0.0286882 0.11465411 0.13090543 0.11486201 0.111880384 -0.01617058 -0.045961253 0.11514506 0.10907466 0.117617995 -0.04707621 -0.021636046 -0.023612898 0.11882143 0.10585947 -0.04351239 -0.020852314 -0.028469233 -0.030419027 -0.036289595 -0.031685334 0.122930534 0.10488331 0.10158827 0.10200918 0.11318908 0.11809979 -0.017859712 0.12172927 0.110792734 -0.038204677 -0.034573704 0.120108865 0.110182755 -0.052294936 -0.020120833 -0.035781328 0.10307718 0.10667289 -0.02459792 0.098845094 0.11043339 -0.029987369 0.1185525 -0.020851668 0.111515954 0.017076978 -0.025568772 -0.03888246 0.12358166 0.111648
doc_6 0.06323101 -0.01374892 0.066666655 0.047199827 -0.009525759 -0.023368033 0.052685667 -0.030556478 -0.008702807 -0.02649165 0.050871763 0.062771305 -0.0254227 -0.023003004 -0.03130997 0.066332564 -0.034355294 -0.025531052 -0.03379199 0.05676714 0.066054896 -0.026938636 0.00041619473 0.056290295 0.0691063 0.052926492 0.060643617 0.05774562 -5.467626e-05 -0.020801514 -0.006663547 0.058445945 0.054507606 0.059185576 0.013526513 0.062181428 0.058938257 -0.028834287 -0.025996048 0.06479795 0.060731754 -0.03463446 0.05972417 0.0664178 0.061543852 -0.023767488 -0.028569607 -0.03560338 0.061347295 0.05515639 0.06338879 0.0029517978 0.06305646 -0.03383752 0.059130173 0.05772166 -0.031403862 0.059819903 -0.007338792 0.06741617 0.06623942 0.022771511 0.063401446 0.011657555 0.059242863 0.0637672 -0.03466124 0.06446038 0.058613 -0.030479027 0.06004131 0.048820376 -0.026788298 0.058819577 0.058764905 0.05586794 -0.02855553 0.05540244 0.06536959 0.06378535 -0.009400627 0.059554577 -0.02569486 0.059260517 0.06903858 0.053765196 0.06273425 -0.012812459 0.06486423 0.06010478 -0.021192716 0.0597659 0.064218275 0.051033296 0.06527606 -0.037272587 0.059746683 0.05494595 -0.026233137 0.056724004 0.061419025 -0.023867043 -0.022522332 -0.02931202 -0.022737455 -0.027774796 -0.028901512 0.05543795 0.06763838 0.022708591 0.018203827 0.065762416 -0.0033647153 0.058582436 -0.03486923 0.0611145 -0.03054406 -0.02510989 0.066933155 0.049187064 0.044426568 -0.03259672 -0.029458625 0.05920934 0.06311833 -0.029175095 0.06336734 -0.033078294 0.05655919 0.061789315 -0.013233025 -0.033717744 0.06409404 -0.024914503 -0.030758407 -0.026661297 0.05685427 -0.005146127 0.055505227 0.060942266 -0.02414568 -0.017224165 -0.02136919 -0.012586335 0.058237474 0.058481105 0.06378122 0.059395295 -0.03406724 -0.032059386 0.060549878 -0.004995813 -0.01699119 0.06498788 -0.019678926 -0.033192713 0.05783254 0.048906628 0.06390336 -0.013685122 -0.030575372 -0.024011403 0.05505248 0.053951345 -0.02289214 -0.026783016 -0.033371616 -0.03108383 0.03131395 -0.030558577 0.059560407 0.0658291 0.060953327 0.06843738 0.067860916 0.057055704 -0.030473344 0.06564564 0.05234622 -0.022991693 -0.037066318 0.06476904 0.06962873 0.012145237 -0.031618137 -0.019635305 0.070183165 0.058013212 -0.028128264 0.06234859 0.061612457 -0.028961848 0.0647642 -0.024082659 0.053185187 0.00827088 -0.03037521 -0.026207425 0.0671397 0.06366919
doc_7 0.11241804 -0.035911743 0.10997161 0.123394765 -0.024750864 -0.04977093 0.12466884 -0.04593013 -0.036585033 -0.04073726 0.11873273 0.11880062 0.05698271 -0.031803116 -0.044981625 0.13045062 -0.03953413 -0.03787008 -0.037291232 0.12274357 0.115645654 -0.045614783 -0.017639944 0.12627748 0.11751719 0.1387808 0.1111723 0.11227796 -0.033957325 -0.029080458 -0.026711542 0.103988715 0.12997648 0.12136579 -0.019023359 0.11477097 0.13941365 -0.040749684 -0.029957203 0.1296248 0.11467739 -0.039613657 0.11888455 0.12060319 0.11045355 -0.019742379 -0.025127316 -0.03337025 0.12441968 0.13176428 0.12534975 -0.057889305 0.13423581 -0.039476793 0.110795416 0.12570898 -0.033623494 0.11326578 -0.022137163 0.1191562 0.108229324 0.05995513 0.13216913 -0.03779116 0.11712493 0.13162309 -0.043024827 0.12622823 0.11718241 -0.038343467 0.11433757 0.09711091 -0.04797408 0.12617238 0.12682469 0.12129544 -0.042358615 0.120845616 0.11476666 0.12913586 -0.03507311 0.12074911 -0.02856378 0.122142635 0.11562887 0.11467898 0.1253235 -0.029525843 0.111831754 0.13206491 -0.029364048 0.123490654 0.1114397 0.11946147 0.113392904 -0.037058547 0.1271614 0.12972121 -0.028585272 0.10140761 0.12465736 -0.04192866 -0.037774563 -0.029433427 -0.026751237 -0.03546949 -0.045355003 0.11039515 0.110470414 -0.022655021 -0.024106028 0.12438771 -0.02976592 0.10919847 -0.047655348 0.12200537 -0.056266908 -0.032696452 0.12650132 0.12926947 0.10457434 -0.05673562 -0.057409607 0.13054946 0.1190395 -0.04598941 0.1305188 -0.031239918 0.12629919 0.11473984 -0.034238912 -0.033326793 0.118151285 -0.03720937 -0.045235336 -0.036889397 0.12642846 -0.03823295 0.11486554 0.12391862 0.044094376 -0.03821051 -0.043598525 -0.040887732 0.12852421 0.12825577 0.12359725 0.12783647 -0.04118523 -0.03201632 0.12454141 0.0625623 0.14550917 0.11751135 -0.038248904 -0.037826553 0.11202289 0.12919073 0.12455158 -0.046507757 -0.032593526 -0.04704821 0.1091824 0.12042543 -0.032130927 -0.04431392 -0.049471807 -0.033290178 -0.021074383 -0.049632773 0.13289286 0.10835116 0.10632784 0.11712924 0.1155412 0.1173035 -0.035542328 0.10503501 0.12166933 -0.03747496 -0.027650282 0.12226777 0.122127354 -0.037172195 -0.02943953 -0.031620838 0.11029058 0.11994646 -0.042506598 0.118866876 0.11404989 -0.037833553 0.11202515 -0.05623064 0.12046481 0.14419197 -0.042385314 -0.025290435 0.10744091 0.11326383
doc_8 0.069859676 -0.002273173 0.08269705 0.069034785 -0.009674586 -0.00031414465 0.07885434 -0.0446967 0.00013326504 -0.007450437 0.079983026 0.078718 -0.028898492 -0.011447199 -0.01275872 0.07703872 -0.03551701 -0.026768824 -0.032103322 0.08379418 0.074806765 -0.03543929 -0.0073971706 0.07549831 0.08268817 0.08140884 0.06596131 0.070668235 0.0069599315 0.003807553 -0.0005242792 0.07765272 0.0654343 0.07566205 0.015356481 0.08284511 0.073040955 -0.03833089 -0.02712984 0.075161606 0.067272194 -0.0063344133 0.08154698 0.08217034 0.069640785 -0.0033995314 -0.04366068 -0.027308261 0.07814077 0.06784762 0.08602817 0.0014874465 0.073109515 -0.041292462 0.07709923 0.06751165 -0.014416396 0.083919086 0.0021748254 0.08647737 0.08216175 0.08624898 0.07870873 -0.02349623 0.079318464 0.07857292 -0.025409449 0.0802378 0.0709168 -0.016749103 0.0794568 0.063198015 -0.0023100802 0.07062741 0.08102022 0.07291545 -0.014008461 0.076937355 0.088783376 0.077842064 0.006159734 0.07329914 -0.010245507 0.06549205 0.074494295 0.07410465 0.07606192 -0.006975352 0.08484427 0.081473365 0.0006396554 0.080289766 0.081198156 0.06570546 0.08348839 -0.0361472 0.06349873 0.08441953 0.0069386987 0.08126946 0.084671244 -0.014063768 0.00018473831 -0.01535827 -0.00275409 -0.002889528 -0.01817283 0.06958896 0.07513366 0.019763058 0.02411541 0.08330744 0.005814336 0.07088457 -0.034144655 0.07650215 -0.037634946 -0.0072789825 0.074871995 0.069479495 0.0727773 -0.021291515 -0.040415335 0.080039494 0.08251608 -0.04150726 0.081816584 -0.032014634 0.07807453 0.0861529 0.0021128766 -0.028710596 0.07917803 -0.009885503 -0.030885095 -0.03891688 0.07042713 0.0048692063 0.07045944 0.08484397 -0.023606434 -0.028178602 0.00075503415 -0.0016717967 0.07771757 0.07548527 0.075841814 0.08329109 0.0013224509 -0.038263194 0.07600614 0.08553851 0.04711452 0.077026226 -0.03154009 -0.019476688 0.082495116 0.07465677 0.0777558 0.0046569663 -0.023921106 -0.036901776 0.08464335 0.076252915 -0.004709646 -0.023970284 -0.022752285 -0.025180139 0.020739377 -0.031110985 0.06720751 0.07900032 0.080291174 0.08051069 0.08193358 0.0724823 -0.011276415 0.078023516 0.08074964 -0.0022637194 -0.040688585 0.07796147 0.07228513 0.019493679 -0.025659721 -0.0024205246 0.08235415 0.080873474 -0.03921298 0.08124195 0.07270437 -0.014751076 0.08109661 -0.03583323 0.070875734 0.059906483 -0.036796324 0.0014226616 0.08144434 0.076871224
doc_9 0.08882397 -0.004965847 0.080528356 0.07609475 -0.029065749 -4.58617e-05 0.065908894 -0.03471116 -0.009003804 -0.0023321589 0.07907655 0.09146 0.05358012 0.008479074 -0.00986198 0.0892645 -0.016348112 -0.029864404 -0.037278198 0.09037056 0.087616235 -0.035050686 0.010339041 0.07693048 0.09145488 0.0875283 0.074443914 0.07987183 0.0077919513 -0.009839214 0.012813551 0.07566809 0.06436483 0.08418055 0.006318555 0.078270465 0.06808745 -0.040720638 -0.008440606 0.06948338 0.070987865 0.017480336 0.07906778 0.07907017 0.082123436 -0.0056819813 -0.034113757 -0.023064975 0.081429124 0.07015826 0.07404552 0.0025573499 0.07614773 -0.021367569 0.07786396 0.08066141 -0.02702154 0.0640012 0.019643147 0.07776447 0.079725824 0.1213502 0.08787701 0.0018156318 0.09077406 0.08417983 -0.029754424 0.07450564 0.0831451 -0.02900474 0.06379409 0.07301998 -0.009998499 0.07820293 0.08454606 0.07936026 -0.013304438 0.09586012 0.087890565 0.08262405 0.00028401776 0.086077355 0.0051461267 0.08207571 0.08330243 0.067484595 0.06919042 -0.0005465308 0.08720003 0.06698122 0.0043105627 0.09407373 0.09024546 0.07361848 0.07756481 -0.01980083 0.06548721 0.08353766 0.0068100793 0.08596701 0.08140507 0.009361766 -0.018490043 -0.0033081523 -0.02346146 0.013989009 -0.009260211 0.08250807 0.08596791 0.038033567 0.005972736 0.07511337 -0.0028577931 0.07117176 -0.030187733 0.06954547 -0.028266395 -0.017319731 0.08670027 0.07204261 0.07294062 -0.02609742 -0.037659522 0.079485856 0.08975954 -0.03329946 0.08192384 -0.019034036 0.08338624 0.08728013 0.006753982 -0.015313797 0.078790724 -0.008032934 -0.031306647 -0.033032995 0.07983048 0.005001845 0.08200954 0.08530356 -0.0017347146 -0.027707394 -0.010077641 0.025596235 0.081255764 0.086889096 0.08293625 0.082078665 -0.013015653 -0.036892407 0.07563127 -0.010316561 0.08191595 0.07865968 -0.027434267 -0.015676761 0.084107764 0.06741864 0.08319461 -0.014152774 -0.00023991009 -0.023593483 0.08078335 0.09401555 -0.0067420714 -0.020829577 -0.012628171 -0.023907341 0.028338704 -0.030558903 0.08641271 0.09269712 0.082557425 0.086981066 0.08520725 0.060050298 -0.026024386 0.07708092 0.081375316 0.01052841 -0.036732264 0.08796659 0.079361886 0.013293166 -0.03119053 -0.0086319605 0.08329987 0.08941763 -0.037163634 0.07656165 0.0906463 -0.018854514 0.084899284 -0.043387838 0.08253622 0.07985644 -0.03474493 -0.02124148 0.0753523 0.07873322
doc_10 0.0837217 -0.03259463 0.063686416 0.08159199 -0.037858568 -0.05591442 0.03580941 -0.03274245 -0.04981738 -0.056305245 0.06580315 0.05411371 0.040705178 -0.052285966 -0.036052763 0.065843955 -0.034017984 -0.04212824 -0.026697395 0.06641159 0.08159605 -0.027525691 -0.06273367 0.07625996 0.061444174 0.052809842 0.04393268 0.10416502 -0.053847972 -0.040319316 -0.057580926 0.06851412 0.06342371 0.076446086 -0.052086174 0.06502038 0.078411005 -0.040663604 -0.044150773 0.05786273 0.075564645 -0.058159586 0.052024044 0.059837878 0.07337823 -0.053046077 -0.028929785 -0.03138272 0.01775311 0.06174559 0.06735672 -0.060663205 0.07784179 -0.029252077 0.040617608 0.054427147 -0.03322935 0.057813715 -0.058802534 0.07652418 0.05810861 0.04558555 0.06651422 -0.05084582 0.061718877 0.07495217 -0.030075118 0.06391764 0.019941306 -0.036497604 0.06170383 0.022011494 -0.051282823 0.070146166 0.06351666 0.06798199 -0.037229624 0.07036994 0.053899657 0.052453976 -0.038526945 0.0671025 -0.05631782 0.06117754 0.09171324 0.039422464 0.051307492 -0.061263595 0.044263434 0.06625391 -0.0351462 0.05019192 0.06531124 0.06848226 0.06726176 -0.031178387 0.04967508 0.07483669 -0.06870163 0.058470905 0.04313693 -0.046720155 -0.056931145 0.101880535 -0.053550627 -0.03576901 -0.051484574 0.04954439 0.076260164 -0.09014656 -0.06923068 0.072786555 -0.058749963 0.046832964 -0.03278185 0.07387836 -0.030247916 -0.045608196 0.057926834 0.041404195 0.06066293 -0.04767485 -0.04257504 0.073974445 0.061854273 -0.038782854 0.048680935 -0.03155781 0.046959218 0.06750806 -0.06276213 -0.036023196 0.056908183 -0.056629132 -0.032795347 -0.029862933 0.07547547 -0.05652348 0.054271847 0.06120479 -0.00077173644 -0.01358129 -0.051385816 -0.07339591 0.0609064 0.0803988 0.06436832 0.067452416 -0.03188132 -0.0121417325 0.0910684 -0.010621151 0.08366181 0.08668473 0.03750459 -0.049214203 0.08455169 0.057670906 0.04470112 -0.05288991 -0.04787224 -0.03724154 0.047357947 0.051300727 -0.047076404 -0.016192375 -0.037129685 -0.052291922 -0.07537401 -0.029067963 0.0710438 0.099071875 0.047933664 0.07802699 0.07384245 0.06694434 -0.03878115 0.077779695 0.039612755 -0.047408834 -0.060075767 0.058368616 0.072080016 -0.06170138 -0.032154933 -0.05729153 0.054009214 0.06768651 -0.021385776 0.056456275 0.05802188 -0.044093378 0.04359016 -0.031082354 0.06627006 0.017510867 -0.03885967 -0.05138417 0.07261698 0.07409942
doc_11 0.08077928 -0.026092986 0.08098774 0.076336235 -0.021531057 -0.028179612 0.0740498 -0.019194694 -0.021120781 -0.029412335 0.06960643 0.0704811 -0.019061625 -0.02893174 -0.02931643 0.077719405 -0.033742767 -0.026095249 -0.02859427 0.0676117 0.07154836 -0.023057234 -0.011733397 0.0724064 0.07648668 0.071684435 0.07057597 0.072975665 -0.015678752 -0.01963205 -0.021680325 0.07810736 0.07853281 0.069383055 -0.010082652 0.08014859 0.07461603 -0.027284158 -0.02274087 0.07839696 0.069570504 -0.031466655 0.07337117 0.07540512 0.07497285 -0.02791813 -0.018395534 -0.030699715 0.07523937 0.071539186 0.07733738 -0.01363565 0.07030967 -0.032010935 0.08249537 0.075382136 -0.032769524 0.075402334 -0.022183305 0.07991344 0.0753204 0.03965655 0.075416856 -0.007249496 0.07057756 0.07455436 -0.032737143 0.07789339 0.07207729 -0.032219697 0.07173706 0.07154379 -0.03293764 0.07979765 0.08030441 0.07988988 -0.030986018 0.06623221 0.074255064 0.07438122 -0.019202212 0.07136185 -0.024821864 0.07532297 0.07476675 0.07456758 0.07641295 -0.025083257 0.070290156 0.076635264 -0.032851588 0.07072213 0.07508073 0.07408197 0.07491351 -0.03168663 0.07504304 0.06389763 -0.021853922 0.07413835 0.072600305 -0.024564112 -0.026580779 -0.021323556 -0.02379834 -0.028049681 -0.027439797 0.075200215 0.07450461 -0.006677496 -0.0008711738 0.077631004 -0.015939314 0.07427971 -0.029539855 0.080262564 -0.023138834 -0.022132382 0.08267873 0.07040123 0.06458433 -0.03126549 -0.030291455 0.072104394 0.07555539 -0.025632761 0.07579767 -0.028590385 0.076019056 0.074871175 -0.030544534 -0.030173577 0.07694465 -0.03081028 -0.025919847 -0.02654035 0.07207791 -0.018979328 0.0724818 0.07732249 -0.01895151 -0.017296271 -0.026437944 -0.027812986 0.06945128 0.07283923 0.0696212 0.07742548 -0.031932876 -0.028259909 0.070675656 -5.2697607e-05 0.006653781 0.075910404 -0.01964788 -0.023480132 0.07194892 0.06781061 0.07825057 -0.025927091 -0.028398283 -0.02170892 0.068446025 0.0696607 -0.033521026 -0.023890635 -0.032052033 -0.030221488 -0.0031532107 -0.029641856 0.08310774 0.06893211 0.07388397 0.07636003 0.07111375 0.07410072 -0.030652791 0.080667526 0.06670789 -0.025019709 -0.03185966 0.070697226 0.0820412 -0.0127025535 -0.02443916 -0.026115758 0.07885702 0.06575993 -0.022011902 0.07130597 0.07688906 -0.030102506 0.070081085 -0.019523684 0.07187177 0.010453942 -0.029495746 -0.028195754 0.07732687 0.07550628
doc_12 0.09407423 0.34314772 0.05620954 0.112027444 0.34414735 0.35302657 0.106634885 0.36533102 0.3754587 0.36861873 0.01820984 -0.019450909 -0.0712557 0.3491919 0.3252222 0.044651598 0.3124787 0.3842743 -0.12922825 0.0012643372 0.017433967 -0.004046048 0.2878402 0.06302949 0.028897882 0.07142581 0.094832264 0.07324619 0.31967637 0.2971331 0.18207945 0.056505077 0.15117969 0.019360906 0.2998195 0.10814194 0.040413037 0.23029068 0.35067168 0.065662414 0.039058194 0.2913966 0.09965619 0.004843616 0.07450042 0.3584742 0.36511645 0.04039324 0.16458033 0.06894968 0.055056036 0.26898998 0.036401927 0.3798186 0.06325593 0.08195148 0.021974202 0.08676528 0.28313655 0.016314672 -0.0077642854 0.026022248 0.10773214 0.068798155 -0.013138297 0.025947303 0.35072747 -0.0035545828 0.09951375 0.22675788 0.07233378 0.05506586 0.3302156 0.042037018 0.05474223 0.053584337 0.33465597 0.0009401008 -0.06816595 0.022913897 0.3418434 0.081168264 0.3838482 0.036247224 0.043324832 0.15961313 -0.031147927 0.35298586 -0.0061807167 0.090846054 0.2498786 -0.029455313 0.0072651412 0.15466754 0.0692165 0.34353474 0.120795734 -0.017327696 0.36559555 0.07507461 0.038479876 0.37251827 0.32024112 -0.103825726 0.37372795 0.33276936 0.3817664 0.17184997 0.042514816 0.33329275 0.3402533 0.03366782 0.26907814 0.12653376 0.3723124 0.07099317 0.37384698 0.37619397 0.08780706 0.13930687 0.088861495 0.37529334 0.37049964 0.017734274 0.0039937436 0.35167652 -0.025842959 0.20864654 0.079015434 -0.033632815 0.32065648 0.37505314 0.12739329 0.35079962 0.05315936 0.060085997 0.14555876 0.32725456 0.087764144 -0.041953113 -0.119879514 -0.11207461 0.36765525 0.22932668 0.07643165 0.051705517 0.024807826 0.047514923 0.11731357 0.35356793 0.044187836 -0.10510363 0.08719686 0.117123894 -0.11717116 0.29929712 0.053594265 0.107968874 -0.019612305 0.16750649 0.37379092 0.0045728567 -0.027917288 0.0033636657 0.2927741 0.36234394 0.37356594 0.3204196 0.31935847 0.3298987 0.06877786 0.071647786 0.018084465 0.0014673056 -0.0059546027 0.08469764 0.35552627 0.0676126 0.10737399 0.34815747 0.17778486 0.031966053 0.042244416 0.3073058 0.20486729 0.36568448 0.0477871 0.06205191 0.30776694 -0.0073115765 0.008074716 0.3174091 0.039626725 -0.09546876 0.060747474 -0.052294202 0.35961875 0.3206581 0.04288123 0.004617175
doc_13 0.15616404 -0.068183884 0.18684955 0.18077138 -0.070440084 -0.08837545 0.13297595 -0.062336057 -0.071826115 -0.065814674 0.16090077 0.17753766 -0.054083116 -0.06824851 -0.04490804 0.1758864 -0.047089584 -0.06402912 -0.0746918 0.15665588 0.18783963 -0.06831777 -0.06370003 0.16537076 0.18858226 0.17489837 0.14235617 0.17405699 -0.078880824 -0.061443143 -0.0313558 0.16736875 0.18715811 0.17908849 -0.04819658 0.17797951 0.17932442 -0.056144923 -0.05196996 0.16113687 0.18173149 -0.061746076 0.1801864 0.17767906 0.16306108 -0.05224654 -0.028090935 -0.06512711 0.17263483 0.17882691 0.18321948 0.012225621 0.17863286 -0.015963787 0.1594356 0.18168823 -0.05508199 0.16807044 -0.07476639 0.18091585 0.17576389 0.14882824 0.17641659 -0.013220429 0.17468596 0.17991386 -0.06546285 0.17446437 0.18064953 -0.056691173 0.20207088 0.1895317 -0.09149828 0.1724351 0.16101673 0.18244533 -0.0044782795 0.15522644 0.19203188 0.17407261 -0.013188312 0.18855122 -0.122131735 0.14118776 0.18346931 0.12593977 0.1352305 -0.060602374 0.1890656 0.18191615 -0.048286945 0.17882189 0.16679583 0.1721968 0.15865934 -0.07337069 0.176078 0.16776572 -0.07006379 0.1503 0.1839668 -0.062049344 -0.074150346 -0.019593505 -0.06161528 -0.06470683 -0.08486144 0.15928352 0.16840786 -0.05064301 0.043384165 0.18049395 -0.055740654 0.16752046 -0.080512755 0.14632131 -0.035894435 -0.05298366 0.16247258 0.1749574 0.17602701 -0.09794092 -0.007041458 0.16002552 0.18444103 -0.07429825 0.17879297 -0.07124147 0.18592891 0.16505428 -0.053725157 -0.07818523 0.18136868 -0.06740014 -0.06067344 -0.034663565 0.1804244 -0.06023409 0.16103002 0.17994815 -0.06299921 -0.043775916 -0.10271325 -0.06297065 0.19405808 0.16838801 0.13920176 0.1537033 -0.062486745 -0.015223292 0.18821459 0.027478084 0.0062068924 0.18680617 -0.011995638 -0.06355641 0.18575296 0.15168849 0.16813822 -0.09894757 -0.104472786 -0.012673187 0.15899579 0.16841453 0.014373527 -0.06651702 -0.06322589 -0.06979927 0.046579015 -0.052911155 0.18627942 0.17685154 0.15949531 0.19089276 0.18080688 0.15531056 -0.06745029 0.17627332 0.16481361 -0.04978743 -0.044274542 0.19056608 0.15182444 -0.10389231 -0.05558006 -0.035649143 0.16289373 0.14135136 -0.08248963 0.14810498 0.18113443 -0.06047754 0.15696563 -0.051625375 0.16986112 -0.007495427 -0.07789922 -0.08275403 0.18099934 0.1871204
doc_14 0.001465058 0.0076623866 -0.0043137334 -0.015593864 0.008466756 -0.0059697437 0.019930078 -0.03654161 0.030037008 -0.011518482 -0.012844412 0.03535976 -0.014274812 -0.03590306 -0.039333865 0.023108514 -0.0160332 0.006843021 -0.022974394 0.023660015 0.023548914 0.052830115 -0.023617093 -0.0041252254 0.015682887 0.022850664 -0.0048563206 -0.009603601 -0.027768292 -0.030560827 0.055717774 -0.0046714284 0.011677667 0.014315298 -0.03593129 -0.00027865265 -0.003237788 -0.021950444 -0.023856185 0.022041775 0.0075466866 -0.012823811 0.022237308 0.028176341 0.02024566 -0.02376484 0.01885 -0.03641058 0.023556449 0.017213153 0.015209116 0.064312525 0.006040806 -0.028274577 0.009724129 0.003621858 0.02453279 0.0066642873 -0.03565988 0.016252039 0.028526105 -0.079912305 0.029014468 -0.016021255 0.031799853 0.021585405 -0.002499139 0.012408607 -0.012541344 -0.025146157 0.003711896 0.0026905835 -0.027614392 -0.0044568414 0.007246012 -0.005547299 -0.029463748 0.026814066 0.032451175 0.003976427 -0.03321769 0.017367272 -0.045218177 -0.0058720605 0.02295227 -0.042277556 0.00034652976 -0.0365071 0.037600156 0.01272599 -0.0142236175 0.014061153 -0.01966646 0.004610318 0.029701604 -0.040235687 0.010342783 0.01407177 -0.04458483 0.017798679 0.027888166 -0.036919326 0.07542021 -0.026064083 -0.03662952 -0.02055231 -0.044399507 -0.0030899928 0.031289406 0.092434034 0.0011476779 -0.004350573 -0.020271266 0.012751004 0.00058291305 -0.0054803705 -0.026892882 -0.007010195 0.025448766 0.01223409 -0.00810311 -0.03520153 -0.032289423 0.018634127 0.0116829695 -0.03290898 0.029955164 -0.03506062 -0.0019522165 0.0074956855 0.020248722 -0.03239414 0.01841777 0.094517514 -0.03126716 -0.006217948 -0.0026068836 0.029928066 -0.0013326881 0.0105278585 -0.021265753 -0.02926278 -0.029594414 -0.031962283 0.016438985 0.014799452 0.012619033 0.0052052336 -0.0030047125 -0.019486777 0.024936154 -0.048722427 0.055590328 0.024151769 -0.017372841 -0.047779653 -0.00842649 0.009437335 0.028307073 -0.006655227 -0.04037315 -0.024144186 0.019260552 0.02440842 0.010135482 -0.045091882 0.009263799 -0.037635125 -0.020039788 -0.031326313 -0.0015359505 0.04079519 0.043939114 0.023234947 0.017835047 0.00910469 -0.034377344 -0.00013203174 -0.0049957256 0.04353697 -0.031730354 0.024254814 0.012759741 0.013234872 -0.035708204 0.03115065 0.008044965 0.028094107 -0.03735265 0.008174137 0.0059168683 -0.042662386 0.0100368885 -0.021331333 -0.0013168114 -0.069527075 -0.034631073 -0.011602113 0.022122089 0.024108892
doc_15 0.02492628 0.002462757 0.040598914 0.02219909 0.032193907 0.00014094124 0.030116204 -0.03361401 0.016846906 0.012739991 0.032782592 0.048657946 -0.022192646 -0.007379173 -0.01971368 0.061050892 -0.044953186 -0.04196319 -0.017470315 0.048573494 0.05507822 -0.03104985 0.02657194 0.044629086 0.052558433 0.03144775 0.033101413 0.039994415 0.020701952 0.0044996715 0.05165466 0.0337659 0.016182145 0.05328199 0.04181857 0.045449633 0.031141143 -0.03996694 -0.03435897 0.03173646 0.030609373 -0.004109907 0.042857077 0.05499231 0.045876004 0.007413482 -0.038245566 -0.025824877 0.041307703 0.029160758 0.05703938 0.060204823 0.035042495 -0.037778657 0.044622783 0.032094385 0.0067253513 0.054257706 0.04490327 0.06648558 0.040609684 0.032649867 0.033798058 0.04060428 0.050102174 0.03789221 -0.026555508 0.045837477 0.024313983 -0.009917659 0.028344514 0.023432247 0.0064422446 0.030158136 0.05867589 0.030349586 -0.023222692 0.038120866 0.04877085 0.045663595 0.056210905 0.028529039 -0.010010118 0.030212857 0.048257653 0.024205402 0.03878294 0.01701343 0.05515364 0.045372546 0.037134383 0.04844044 0.02367151 0.024654608 0.048067924 -0.038744252 0.019829135 0.063880384 0.02657767 0.050566003 0.061029993 -0.011877045 0.011066985 -0.01258843 0.025648843 0.010460083 -0.016316267 0.04987132 0.051177435 0.064366974 0.0529892 0.06260679 0.027429372 0.019122899 -0.048301853 0.03360285 -0.040182177 0.015651537 0.04815639 0.01822914 0.031583253 -0.027008513 -0.04051608 0.039098963 0.061992645 -0.039379038 0.0521801 -0.033393193 0.034405913 0.051802106 0.034408595 -0.03401824 0.041771796 -0.0044099144 -0.023381528 -0.037826333 0.037787065 0.03095192 0.017892867 0.04709963 -0.024555793 -0.027059292 0.026884276 0.023862282 0.046363354 0.04523685 0.04447017 0.04333417 -0.0073449477 -0.048320074 0.05054452 0.06110661 0.011996893 0.040550407 -0.03856926 -0.019212874 0.04138989 0.026448164 0.057827733 0.016005877 -0.012092459 -0.03690118 0.056520678 0.05245004 0.028441176 -0.036019403 -0.024963545 -0.022338064 0.057765156 -0.028750457 0.033022724 0.054784346 0.05942041 0.054741234 0.062458515 0.03391305 -0.0048682583 0.04700042 0.01851132 0.023268094 -0.044352893 0.032909248 0.04840043 0.073375374 -0.028756395 0.018349282 0.049421806 0.04308557 -0.033968136 0.055772133 0.04201945 -0.03256725 0.05018307 -0.03184387 0.046590228 0.009390255 -0.039847482 0.017893055 0.042843636 0.03159409
doc_16 0.1590843 -0.049005333 0.16655748 0.1490455 -0.031910367 -0.075334094 0.1230716 -0.10321687 -0.04320176 -0.06407897 0.14087413 0.19151118 -0.014075068 -0.046628818 -0.059215073 0.19902077 -0.0763321 -0.07807823 -0.08451044 0.18173149 0.20064555 -0.093411826 -0.0034113138 0.16875188 0.18460113 0.14966194 0.14632064 0.15769707 -0.008169443 -0.040640555 0.05211606 0.14962369 0.13262285 0.16094884 0.03009412 0.14233224 0.17328916 -0.102976725 -0.080419354 0.19031698 0.17233214 -0.05847761 0.16283053 0.2112713 0.18307745 -0.06339068 -0.11110341 -0.058013417 0.18317068 0.15010354 0.17131221 -0.019439112 0.16621149 -0.07527394 0.14459726 0.16515255 -0.05766535 0.16474536 0.01184368 0.18950012 0.19067699 0.116651915 0.19783609 0.021768853 0.20226462 0.1738 -0.030077763 0.17235564 0.17941342 -0.051973738 0.14743833 0.11768957 -0.051067296 0.16458055 0.1826426 0.11494588 -0.037543647 0.18452694 0.20236498 0.18375711 -0.03745822 0.18413717 -0.073825166 0.13789627 0.20480944 0.14120664 0.1902509 -0.006814041 0.19761671 0.14937882 0.008739345 0.20442125 0.16419709 0.105825365 0.1945101 -0.09077473 0.14945619 0.19414826 -0.029190624 0.16488577 0.20611195 -0.062330022 -0.06392464 -0.0711571 -0.063818924 -0.017365227 -0.05569884 0.13629524 0.20402262 0.011303915 0.00993407 0.17993313 0.013913578 0.13648513 -0.09293161 0.15356794 -0.102418505 -0.07271567 0.16006729 0.11882726 0.11863907 -0.08219278 -0.0888352 0.17547087 0.16902906 -0.096236676 0.19442497 -0.09283726 0.15139595 0.20982431 -0.0071017686 -0.081403255 0.14853917 -0.046429764 -0.07217958 -0.08004664 0.17034563 -0.024611576 0.14965548 0.20169589 -0.02245008 -0.08930699 -0.021440044 0.00020391028 0.18674202 0.1665801 0.19790044 0.17459467 -0.05695164 -0.06809729 0.18566437 0.007878911 0.07553823 0.1494135 -0.09556284 -0.061537273 0.17568696 0.106392525 0.1992889 -0.033366397 -0.096339785 -0.03394923 0.19016245 0.18107775 -0.021842038 -0.09711098 -0.08521402 -0.08056797 0.14121456 -0.0602417 0.14012884 0.19037057 0.19326259 0.18098088 0.19899458 0.11816338 -0.06483703 0.17322908 0.13535038 -0.049040504 -0.062001 0.17676315 0.16800436 -0.00820015 -0.030803002 -0.062166188 0.1839527 0.18639033 -0.09761254 0.17485198 0.1827855 -0.06985567 0.18984157 -0.10004755 0.1654367 0.11037567 -0.09352642 -0.05124225 0.18135528 0.13081291
doc_17 0.10578175 -0.040264778 0.10314886 0.10045494 -0.03651261 -0.045895185 0.11701113 -0.043973725 -0.036521874 -0.04094253 0.098633036 0.09408502 -0.024394577 -0.052804273 -0.042876694 0.08998121 -0.034202218 -0.04343248 -0.033130698 0.10523264 0.09840426 -0.03432829 -0.041854776 0.103026904 0.10707164 0.103236705 0.096507505 0.09784971 -0.0507393 -0.047820237 -0.04524024 0.10350618 0.10236676 0.10019638 -0.059809975 0.0898717 0.09236932 -0.03938231 -0.035766654 0.103417784 0.10417262 -0.048444763 0.10176934 0.0970767 0.09318778 -0.048485182 -0.042565845 -0.042040844 0.1023719 0.1044725 0.0945196 -0.05082557 0.0941894 -0.03553828 0.09502039 0.103928104 -0.02453139 0.095900685 -0.047864955 0.10206931 0.089783825 0.022767013 0.09690909 -0.0426804 0.0905033 0.09519419 -0.035012 0.10692389 0.09063496 -0.045919105 0.09717561 0.100503735 -0.042721525 0.09866704 0.10457482 0.10301334 -0.039164543 0.09937698 0.10081833 0.08824053 -0.037169136 0.09275623 -0.04213559 0.10299142 0.09267824 0.097023435 0.10185987 -0.045567483 0.09298364 0.11051522 -0.040387515 0.10342313 0.0941893 0.10455488 0.10467096 -0.034941196 0.11398737 0.09717527 -0.0474519 0.09878494 0.10165807 -0.034936316 -0.045491945 -0.031462904 -0.039817255 -0.039290205 -0.04132291 0.10778113 0.09641572 -0.036988378 -0.053475194 0.09847726 -0.046090115 0.11298871 -0.03674368 0.089934334 -0.038434777 -0.04890093 0.102811456 0.086492494 0.10863287 -0.042355213 -0.045979183 0.09137819 0.09433866 -0.037347887 0.09785698 -0.040368065 0.11319712 0.08181548 -0.039338272 -0.04214068 0.09689541 -0.045370992 -0.038582005 -0.041478973 0.10959384 -0.037412655 0.10074905 0.090994015 -0.02476908 -0.016210277 -0.049317665 -0.04638627 0.102180034 0.087966725 0.09236582 0.104646966 -0.03505644 -0.040231593 0.100667685 0.0033885394 0.02692465 0.101433985 -0.03410387 -0.040053584 0.10154359 0.10434643 0.09079031 -0.04984487 -0.038098544 -0.032776024 0.09187484 0.09516503 -0.046243034 -0.05446534 -0.04356372 -0.042127956 -0.05117328 -0.042470016 0.10244558 0.09482687 0.09735587 0.10399633 0.09660027 0.10321458 -0.049915023 0.0920401 0.09949158 -0.042788565 -0.041129567 0.10392174 0.107241094 -0.05371554 -0.04310902 -0.050059162 0.08576919 0.08926275 -0.045495767 0.093803875 0.09966303 -0.040441602 0.0925543 -0.033484332 0.10251455 0.08802506 -0.037426032 -0.047654215 0.09683957 0.096555755
doc_18 0.06903622 -0.022464402 0.0701668 0.06740401 -0.020526892 -0.021335203 0.06281881 -0.013320076 -0.023436004 -0.026441893 0.073597796 0.05964425 0.063720874 -0.025449088 -0.014970672 0.07141491 -0.022219976 -0.023334049 -0.02598631 0.067112446 0.07107412 -0.024419298 -0.01773785 0.06742528 0.0705299 0.07166195 0.07500303 0.07277425 -0.014204007 -0.026584482 -0.0069226753 0.06250028 0.07047015 0.070651196 -0.016316995 0.0726067 0.08079626 -0.023927985 -0.013271708 0.066221915 0.062260948 -0.015870119 0.076262645 0.06493748 0.060419194 -0.011124787 -0.015216013 -0.025418341 0.075407654 0.065747015 0.07007971 -0.018361527 0.059936468 -0.007972626 0.06307633 0.067885585 -0.01537107 0.07006811 -0.01613193 0.06554705 0.063470885 0.028143592 0.06972262 -0.013020522 0.071485564 0.0601639 -0.023398818 0.066318475 0.07341678 -0.020888718 0.061338186 0.065127574 -0.023208302 0.071055174 0.06900958 0.06469932 -0.017639212 0.06485586 0.06939612 0.071622044 -0.0070060994 0.069587804 -0.022189539 0.071985714 0.070545875 0.06864506 0.064321704 -0.013708141 0.06660583 0.067619324 -0.006429074 0.068206504 0.06489135 0.07422349 0.06920283 -0.026094764 0.06966026 0.06099385 -0.026077945 0.07423877 0.06249818 -0.010345953 -0.02762764 0.05256754 -0.02710661 -0.023936732 -0.029125582 0.0641906 0.067795955 -0.015247218 -0.020516437 0.055902295 -0.015746854 0.06252317 -0.014312074 0.06629402 -0.01764534 -0.019294236 0.06710316 0.07201193 0.0720857 -0.03109028 -0.026964724 0.07024669 0.06056124 -0.024948644 0.064385645 -0.019036766 0.06918264 0.065671876 -0.01877416 -0.015396051 0.07558583 -0.020441862 -0.011618812 -0.014834657 0.0731322 -0.025941668 0.06995331 0.06111936 0.023261674 0.0005843062 -0.025013253 -0.017172094 0.064059004 0.056119137 0.072393574 0.076928794 -0.026594756 -0.021586893 0.057543054 -0.016564114 0.0056275744 0.07106583 -0.01311521 -0.0139523735 0.06648501 0.06780817 0.068706065 -0.020237962 -0.024782933 -0.009940469 0.06445214 0.06383146 -0.016585734 -0.022232782 -0.02629657 -0.014157003 -0.007461746 -0.024720967 0.07510931 0.07193885 0.06822604 0.06968405 0.059937283 0.07127521 -0.0095668975 0.07427071 0.07074988 -0.012663441 -0.0130392825 0.06241397 0.068408765 -0.021453233 -0.024113417 -0.0072746444 0.072117515 0.07034004 -0.013898151 0.06847349 0.07068842 -0.029151319 0.07064221 -0.023911579 0.075971864 0.07118403 -0.018000916 -0.021971812 0.070046015 0.0665139
doc_19 -0.016506298 0.0017463272 -0.008285275 0.027672712 -0.0061217593 -0.0054453565 0.0368061 -0.034347374 0.021767884 -0.011489597 -0.05478546 0.023810465 -0.025157101 -0.029011518 -0.027452823 0.04460106 0.0020622988 0.010306396 -0.0036660524 0.028436402 0.014478323 0.103249 -0.04849172 0.021050608 0.023906 0.02343444 0.05246388 0.036216777 -0.028223922 -0.02506373 -9.588897e-06 -0.00819798 -0.0041617975 0.045276918 -0.0277326 -0.04434514 0.03970102 -0.022350151 -0.035138685 0.03769403 0.029054284 -0.020276794 0.037241213 0.022001015 0.05356494 -0.03752207 -0.002834932 -0.019164216 0.015574806 0.061958898 0.03894221 0.0015642364 0.017165877 -0.034510326 0.029440261 0.022544105 0.011990692 0.028310802 -0.030999158 -0.0434545 0.019463899 0.13845867 0.05186083 -0.013812516 0.03371488 0.02404495 -0.013446778 0.03870762 -0.015194453 -0.019343954 0.035295635 -0.008685734 -0.025493452 0.034258183 0.04789652 0.036462303 -0.038581222 0.06673106 0.025716763 0.0620764 -0.031962514 0.028767753 -0.028826881 0.046138603 -0.016439777 -0.029372023 -0.008175297 -0.043155342 0.005348474 0.033460476 -0.01919729 0.008842893 -0.012340611 -0.0018546563 0.024893459 -0.036772538 0.03630262 -0.009430432 -0.055779867 0.02786055 0.028581731 -0.009211461 -0.0037807429 0.07126197 -0.03944401 -0.017445968 -0.026938671 -0.02977105 0.029282004 0.052740756 -0.0073884604 -0.006609829 -0.025498938 -0.026441092 0.003423743 -0.014077336 -0.026981656 -0.033305403 0.036534812 -0.038117036 -0.03318988 -0.024117466 -0.03646203 0.050391674 0.02115924 -0.034418326 0.04452598 -0.030776285 0.041842382 0.019985279 0.017144293 -0.010521872 0.05740382 0.01854602 -0.011371659 -0.01820176 0.06477305 -0.011956694 -0.067995846 -0.015786242 -0.013121111 -0.029656192 -0.04709147 -0.0452341 0.019600848 0.023430955 0.065555476 -0.060676426 -0.0073626824 -0.0060337894 0.021344358 0.07757994 0.098113924 0.051589906 -0.0067078746 -0.023771813 -0.026808575 0.07810154 -0.022367626 -0.019338997 -0.03251845 -0.012019589 0.03234213 0.042331524 0.0054442193 -0.030567143 0.0021076996 -0.030846078 -0.03331085 -0.031999536 0.027331874 0.071751416 0.02940447 0.025678266 0.027570069 -0.0195189 -0.023706723 0.034329493 0.044303313 0.022757025 -0.00838745 0.018465154 0.06270254 -0.04003577 -0.030939002 0.020918705 0.04147292 0.04015312 -0.019384986 -0.027668118 0.036285978 -0.024655992 -0.028904095 -0.029103218 0.027673045 0.14931421 -0.040796377 -0.016009819 0.06045005 0.04367615
doc_20 0.072817735 -0.023692943 0.072926015 0.06562063 -0.020037109 -0.017869031 0.06440586 -0.02456671 -0.019364357 -0.021314478 0.078121774 0.05931289 0.058883075 -0.024870526 -0.0164425 0.07010595 -0.020488584 -0.015713159 -0.029494474 0.06607664 0.06537762 -0.016633984 -0.021554481 0.06751309 0.07059469 0.07211569 0.06856861 0.06589323 -0.014623388 -0.021791242 -0.00932417 0.06258182 0.070398614 0.06979493 -0.013584356 0.0721665 0.078233175 -0.02500644 -0.014564332 0.06907882 0.065774485 -0.0120995175 0.06832761 0.062033143 0.05956644 -0.008864485 -0.013776002 -0.0244065 0.07325242 0.06443603 0.06956296 -0.022270927 0.063145675 -0.014696398 0.06273355 0.06855464 -0.020914288 0.07048143 -0.017181484 0.061834626 0.0688657 0.023967694 0.07601109 -0.015140871 0.071443394 0.06089423 -0.024654537 0.068982095 0.07225436 -0.015414612 0.069282934 0.06928463 -0.026502289 0.07338122 0.06978019 0.07010035 -0.01742338 0.06843886 0.06305456 0.06332633 -0.0072063375 0.072378576 -0.027412381 0.06527522 0.069187276 0.06303374 0.060540788 -0.013866823 0.061956197 0.07221089 -0.01665799 0.068418294 0.06549137 0.073730774 0.06942624 -0.025804244 0.07123141 0.059548408 -0.024236623 0.07251572 0.068190195 -0.01192821 -0.02164997 0.050123982 -0.025088191 -0.024163863 -0.027803522 0.06980993 0.066033304 -0.0077486397 -0.014173726 0.060777765 -0.018155083 0.07077372 -0.016923634 0.06567314 -0.019297494 -0.02299319 0.06717262 0.077695206 0.074878745 -0.030806938 -0.028531954 0.070690796 0.060162 -0.030399567 0.07151484 -0.016771123 0.068962 0.06519795 -0.021540038 -0.012456575 0.07210284 -0.020795854 -0.007756486 -0.01626167 0.0745755 -0.019325003 0.075349525 0.060421944 0.025618041 -0.002724027 -0.015980763 -0.011944829 0.06291197 0.055826627 0.072820894 0.073971584 -0.024759429 -0.025391217 0.060656056 -0.016396347 -0.0012681559 0.06376567 -0.012597425 -0.0074221417 0.06945267 0.0749895 0.06998941 -0.021994783 -0.029245723 -0.010646104 0.0705444 0.07099295 -0.02146154 -0.023796795 -0.024034288 -0.015639942 -0.009175693 -0.027643345 0.071513794 0.067014 0.06479795 0.07050411 0.067411356 0.07689498 -0.006305813 0.073292375 0.0677415 -0.012942655 -0.018177774 0.061918214 0.06663298 -0.026012868 -0.018683232 -0.0136055555 0.06498066 0.07137503 -0.017966423 0.06555544 0.07461401 -0.029197881 0.06661648 -0.025894854 0.07495743 0.08026074 -0.019900419 -0.019215608 0.06428851 0.06149757
doc_21 0.063834265 -0.0021411253 0.06757156 0.06102437 -0.00950175 0.00079205923 0.065812446 -0.042058498 -0.0019510672 -0.010794512 0.06924495 0.074993886 -0.03209422 -0.018944312 -0.018735884 0.06412662 -0.033956133 -0.029500622 -0.031177832 0.072806366 0.07585432 -0.03500988 0.0026100068 0.07109026 0.07075341 0.068012826 0.057922263 0.062737904 0.008203266 0.00020452985 0.012734698 0.06871013 0.052089423 0.069874115 0.023411127 0.06722896 0.062995575 -0.04017065 -0.028224114 0.06812939 0.061089627 -0.005441822 0.068305604 0.07423473 0.0590812 -0.005958289 -0.039875735 -0.031588156 0.0676105 0.05904475 0.074827105 0.017833231 0.059761047 -0.034524135 0.065494426 0.058557965 -0.0033339516 0.077442355 0.004738588 0.085184515 0.07407485 0.05789252 0.070975475 0.0024226466 0.07491916 0.070962876 -0.02984048 0.06595146 0.066610865 -0.016438218 0.06448774 0.055372287 -0.0061381906 0.06548182 0.073449895 0.06099352 -0.01736278 0.072608456 0.07651685 0.06711724 0.021865893 0.06600118 -0.009187539 0.06350796 0.071346804 0.057560258 0.06378983 -0.0068625994 0.07136943 0.06566163 -0.0030931912 0.072196774 0.069822274 0.053606123 0.07778387 -0.032251015 0.05515581 0.07687977 0.018655706 0.0666594 0.08035508 -0.010668828 -0.0058537144 -0.0008505693 -0.00067132583 -0.0029263925 -0.018009715 0.059813425 0.07606448 0.035610363 0.028545884 0.07398949 0.013075744 0.058251526 -0.034926083 0.06112135 -0.036730077 -0.002625663 0.05907805 0.058701824 0.058477413 -0.033997882 -0.039970107 0.06766289 0.07473627 -0.044697143 0.07382099 -0.027924374 0.0681176 0.07833074 0.0030305283 -0.032099716 0.064578146 -0.00818175 -0.03468039 -0.033401072 0.069244035 -0.0017561447 0.061453 0.0672836 -0.024123436 -0.033429917 -0.0019675752 -0.001589796 0.072266236 0.07358357 0.06993378 0.06566764 0.0002447936 -0.039581034 0.06799438 0.075530395 0.038503844 0.067379124 -0.028277008 -0.019498736 0.07226846 0.06390332 0.073695 -0.002252636 -0.02247938 -0.04016083 0.07442353 0.07431539 0.0029675302 -0.029590469 -0.023819193 -0.025373906 0.03983265 -0.03436871 0.056324165 0.07722184 0.07452111 0.0736336 0.07813919 0.055927616 -0.011136341 0.07019967 0.062004946 -0.0002987797 -0.03682919 0.071126744 0.061285164 0.03140282 -0.033677924 -0.004569993 0.07348616 0.078727424 -0.044926915 0.07249408 0.07029758 -0.016805563 0.072799385 -0.03635353 0.06852702 0.05629942 -0.042757686 -0.0019078993 0.0655038 0.06666
doc_22 0.1383699 -0.02269106 0.15013516 0.13508308 0.024572618 -0.042652965 0.14605424 -0.09942111 -0.017067024 0.004361254 0.14964557 0.17296608 -0.033018347 -0.038798448 -0.03541093 0.14721307 -0.07618011 -0.044608064 -0.085032545 0.15073141 0.17037746 -0.07148628 -0.01685154 0.16425844 0.17497464 0.14862813 0.15063968 0.13736932 -0.03013666 -0.031239169 -0.0051399535 0.1581354 0.1485482 0.16322052 0.043645933 0.12972935 0.1539857 -0.09016164 -0.03528454 0.15449646 0.1459786 -0.019545918 0.14743355 0.16711073 0.17018561 -0.044140138 -0.094807945 -0.05528016 0.14834738 0.14221403 0.16174711 -0.019651396 0.15721689 -0.07986373 0.13240401 0.14884114 -0.05105453 0.15964521 -0.0014927611 0.17718838 0.19397049 0.16390473 0.15160297 -0.00042142323 0.16592279 0.15981427 -0.0753801 0.16840576 0.1288854 -0.021721778 0.14867783 0.11796469 -0.032055937 0.1611773 0.15901923 0.13991106 -0.02915477 0.15924223 0.15479404 0.15912774 -0.017656963 0.13635503 0.018464629 0.13691214 0.17371148 0.13749902 0.14806828 -0.005466061 0.18569094 0.16152889 -0.0082972655 0.14950943 0.16046353 0.12334154 0.16619043 -0.07093835 0.13204052 0.18752216 0.03787407 0.15834902 0.17560892 0.007993898 -0.008365223 -0.050838545 -0.03640468 -0.023572084 -0.05578555 0.13423456 0.17330402 0.06094635 0.07198231 0.15227832 0.07032414 0.12796372 -0.06557547 0.14856881 -0.091174796 0.013035213 0.16556856 0.09850582 0.11802296 -0.061970603 -0.09515308 0.16331653 0.17107801 -0.07899129 0.16976896 -0.036657814 0.15466905 0.15948682 0.008450523 -0.07777724 0.15487619 -0.05398969 -0.06447293 -0.07965765 0.15290768 -0.051382266 0.1258912 0.15619342 -0.036211755 -0.0677379 -0.022721594 -0.009600222 0.15886994 0.17408092 0.18129016 0.13417101 -0.010659169 -0.076042175 0.15683568 0.08232027 0.14035895 0.14727308 -0.07862504 -0.032188114 0.15842582 0.13332725 0.15896189 -0.0014096575 -0.07530077 -0.06496627 0.15763056 0.17536221 -0.008086204 -0.06059335 -0.052252065 -0.044530876 0.0520401 -0.08077639 0.15304545 0.17058158 0.15804659 0.15476891 0.17510784 0.1318914 -0.009553901 0.15494287 0.1514864 -0.013630427 -0.05977197 0.16099274 0.15667398 0.07398426 -0.06267542 -0.036697626 0.15477464 0.17216429 -0.093673885 0.17547405 0.14496382 -0.037942804 0.16421716 -0.07369974 0.1464913 0.13293368 -0.07308441 -0.011987636 0.16026804 0.14577936
doc_23 0.17614105 0.039016124 0.15144417 0.19053906 0.05124646 0.06664505 0.19089396 0.06494052 0.06473189 0.063854806 0.16250986 0.11961362 -0.036462612 0.08170624 0.024071535 0.16866003 0.0033409838 0.06383163 -0.05873873 0.15669143 0.1797878 0.005693081 0.004787959 0.1890582 0.16585164 0.14311862 0.18296252 0.18645903 0.040064353 0.021448174 -0.034734257 0.15055697 0.18298034 0.15486698 0.024737751 0.19121498 0.18036783 0.00338192 0.03635336 0.1826975 0.15199612 0.043772772 0.18224756 0.136354 0.16173281 0.06114012 0.06699639 -0.023613816 0.20252062 0.16079947 0.17189059 0.0106800115 0.1481583 0.078111745 0.19061524 0.18069065 -0.05969777 0.16397841 0.0072616967 0.15583289 0.13268743 0.101635784 0.17198339 -0.071697615 0.13841042 0.15526798 0.043657422 0.11776332 0.17164671 -0.0069685318 0.15657017 0.20007704 0.034323964 0.15919691 0.14808083 0.14952043 0.034925696 0.1323942 0.097478755 0.13503861 0.025253557 0.1762443 0.06283438 0.17296077 0.1510055 0.17567174 0.13100153 0.024431864 0.15362293 0.16815129 0.013962239 0.111672655 0.13896008 0.18806571 0.15961337 0.062028196 0.16505249 0.11187302 0.06399684 0.18171796 0.17808911 0.05682139 0.03617334 -0.009951629 0.060748048 0.026966017 0.07952483 0.17014387 0.14171736 0.022598384 0.03681527 0.14710636 0.024048088 0.18405221 0.06964967 0.15981166 0.068502925 0.073701344 0.17604707 0.17185366 0.17337425 0.07692747 0.07917563 0.15877244 0.1547815 0.042526353 0.12388537 -0.028743248 0.16180484 0.12342922 0.028323663 0.08536108 0.1893346 0.057313528 -0.045167033 -0.031574417 0.19106899 0.028204028 0.18261832 0.10613144 -0.023321612 -0.044346847 0.08615135 -0.020965505 0.16390587 0.16403982 0.14781725 0.17331752 -0.07264718 0.042051945 0.16385898 0.030133337 0.14810623 0.15787596 -0.059896532 0.014596995 0.16314392 0.18090773 0.119080804 -0.028288279 0.07274672 -0.0308181 0.118295714 0.1649028 0.012476344 0.05678598 0.066438414 0.032372728 0.028516382 0.042336937 0.18032226 0.15146053 0.13098201 0.1545447 0.12596199 0.17080027 0.054166473 0.16351269 0.17009203 0.061868384 -0.048991285 0.1360003 0.11818892 0.002677189 -0.038201366 0.065576434 0.15720637 0.15814039 0.042410843 0.16387972 0.13466358 0.05066999 0.15819244 -0.04063328 0.16413373 -0.02075494 0.040553197 0.041589156 0.17049369 0.16492575
doc_24 -0.04349837 0.060362503 -0.046045456 -0.04990416 0.08251648 0.08927041 -0.046397522 -0.021566818 0.067693144 0.072771676 -0.041613545 -0.02798026 -0.014174216 0.057602126 0.06145572 -0.035838496 0.004022709 0.016372992 -0.033793733 -0.04509582 -0.031033665 -0.03184612 0.08843087 -0.04281375 -0.038515553 -0.037272822 -0.045880318 -0.048789192 0.05002067 0.054009058 0.071072884 -0.042798683 -0.046377882 -0.027537834 0.08597423 -0.044637393 -0.048333444 -0.03138379 0.036644377 -0.037390422 -0.038088355 0.035892814 -0.039979756 -0.032725506 -0.027550006 0.07279754 -0.037235983 0.009128507 -0.038680162 -0.057133224 -0.041039605 0.089167394 -0.04468814 -0.014080153 -0.048023377 -0.037991364 0.056617796 -0.035875034 0.08523983 -0.028377907 -0.030671421 0.039730925 -0.03941633 0.07574608 -0.031820107 -0.03642788 0.03132967 -0.035862207 -0.040265508 0.03500365 -0.05344584 -0.05375723 0.046478435 -0.054111667 -0.03333736 -0.053652603 0.040020555 -0.03215515 -0.034583803 -0.034970265 0.08696218 -0.03697961 0.0572943 -0.046120618 -0.032468967 -0.042205237 -0.035541467 0.06923453 -0.026758594 -0.047597073 0.05553764 -0.025819644 -0.03684082 -0.05980123 -0.038747568 0.028628094 -0.05538156 -0.027754696 0.08082868 -0.03393387 -0.035024084 0.09341643 0.050373774 -0.0107079 0.086736865 0.06486849 0.041987147 -0.04585086 -0.021863958 0.11109241 0.098491706 -0.038253006 0.08255098 -0.05119986 0.022783201 -0.045975152 -0.013159361 0.069282226 -0.05193987 -0.062811695 -0.06512131 0.037173565 -0.025928972 -0.04918396 -0.036402114 -0.046501976 -0.024736462 -0.009546123 -0.03996915 -0.037714288 0.06766084 0.012232895 -0.04152411 0.060761627 -0.036216885 -0.031713866 -0.038709026 0.08402269 -0.05628193 -0.034349352 -0.0061498214 -0.03520897 0.08883296 0.082436405 -0.045644503 -0.039413903 -0.02914865 -0.046820987 0.046529755 -0.012690119 -0.03481144 0.025216969 0.044810258 -0.038832266 -0.028738722 0.039941177 -0.032520603 -0.05066534 -0.032951973 0.06828036 0.0061032283 -0.014410937 -0.030243753 -0.0293696 0.062366083 0.021919806 0.03246915 0.042366784 0.12065481 -0.0051379963 -0.050417796 -0.028532932 -0.03244168 -0.043751623 -0.026715182 -0.05160119 0.03179041 -0.040743977 -0.053487737 0.06299615 -0.026699059 -0.03671156 -0.05003611 0.10001612 0.0039571915 0.06654345 -0.029604148 -0.0364983 -0.042738434 -0.027348667 -0.030428967 0.040412568 -0.03805738 -0.039105337 -0.04300779 0.059656143 -0.027723396 0.0816335 -0.046086356 -0.051624984
doc_25 0.060125295 -0.022629248 0.05781095 0.06318279 -0.010217829 -0.024546834 0.062169366 -0.03446746 -0.01159188 -0.011775723 0.062919244 0.061833285 -0.011583384 -0.020414218 -0.023755606 0.068115585 -0.027736053 -0.025397668 -0.019038048 0.07065384 0.06897025 -0.02196321 -0.009840716 0.06581976 0.06886951 0.059569523 0.060107082 0.061082397 -0.009486819 -0.015517851 -0.014541393 0.062732406 0.05391081 0.063926905 -0.007659659 0.06451771 0.067629926 -0.029392837 -0.026460147 0.064586505 0.059889946 -0.020994885 0.06515428 0.066769265 0.06806822 -0.012824792 -0.04017561 -0.022736846 0.06374177 0.06439883 0.06805153 -0.01611842 0.06288989 -0.023343178 0.056425642 0.06741852 -0.012557458 0.057643734 -0.0075285546 0.074025474 0.06626611 0.07151491 0.058388967 -0.02088898 0.062066086 0.06984255 -0.022482712 0.065734655 0.06266927 -0.022811629 0.05048455 0.05139877 -0.019528322 0.06292129 0.06507724 0.056929115 -0.024117846 0.061382223 0.060770925 0.06765858 -0.0036825356 0.064915106 -0.018791575 0.05380711 0.06328699 0.056687765 0.05935591 -0.013801629 0.06021692 0.061402 -0.015127277 0.061056137 0.06250132 0.060319953 0.06309462 -0.029787175 0.04915789 0.06667641 -0.015797378 0.06307901 0.0667717 -0.016123543 -0.016419273 -0.00035800767 -0.008402329 -0.022592481 -0.024425257 0.07006497 0.070314825 -0.00013540848 -0.008091005 0.07092829 -0.0148858065 0.052572925 -0.025673699 0.055864867 -0.022332264 -0.005106186 0.0679065 0.04930601 0.05491848 -0.026524559 -0.029076178 0.0680997 0.06785596 -0.029328922 0.06058862 -0.021743309 0.06629031 0.068620674 -0.019219868 -0.02788119 0.062239617 -0.016956259 -0.021388918 -0.032131396 0.0647941 -0.017048527 0.05291259 0.06528043 -0.019910272 -0.024659831 -0.006044233 -0.012308581 0.06334492 0.06772894 0.06212586 0.06592401 -0.015510082 -0.026615571 0.064336054 0.07029732 0.049692824 0.0641717 -0.023864817 -0.028495394 0.06379953 0.06488579 0.06654359 -0.0138621 -0.027922252 -0.021500366 0.06277844 0.06711714 -0.016736962 -0.025878135 -0.025988238 -0.02208383 -0.0019030643 -0.028071815 0.063106574 0.06379436 0.06506052 0.059346616 0.06807062 0.06423882 -0.015863746 0.05821308 0.06317779 -0.010279798 -0.03497182 0.057570063 0.068479374 -0.007591114 -0.018383399 -0.006964054 0.061163343 0.06328798 -0.030578446 0.06185727 0.06058177 -0.019463774 0.06259526 -0.028165141 0.066804655 0.06888927 -0.02608232 -0.01829601 0.06285439 0.06164536
doc_26 0.04804947 -0.010889502 0.04717163 0.04385229 -0.01396616 -0.002517714 0.037688706 -0.032152344 -0.0021515011 -0.013448996 0.0594466 0.05205258 0.009331711 -0.003738082 -0.0054982565 0.052545883 -0.022355815 -0.014782268 -0.03144559 0.055415902 0.059696585 -0.03452254 -0.0068082707 0.050606083 0.057662476 0.04838756 0.052644867 0.042388503 -0.0029680948 -0.010838903 0.0065641375 0.04330756 0.045277953 0.05117992 0.016226795 0.044723336 0.045213763 -0.033802867 -0.01553418 0.0481345 0.051535577 -0.0039314497 0.054750625 0.05857393 0.051522642 -0.0021852944 -0.02495099 -0.01052845 0.052585736 0.051337305 0.054650143 0.0014922124 0.04996205 -0.0231221 0.046286352 0.044954304 -0.022839205 0.056884225 0.0026339975 0.059583943 0.060232524 0.10617815 0.055109676 -0.0075177057 0.056069113 0.052644156 -0.013368069 0.05941519 0.062131546 -0.01440443 0.04549935 0.04230474 -0.005117258 0.04822628 0.05831806 0.03979651 -0.013253537 0.059126146 0.052717973 0.05366822 0.00475898 0.045357004 -0.008434491 0.046086688 0.059758987 0.043207314 0.057075303 0.0020256825 0.05594591 0.053579077 -0.017554158 0.06292421 0.056673758 0.04540547 0.050701916 -0.020849178 0.033336416 0.06035759 0.0036175845 0.048583455 0.057248916 -0.005828107 -0.0066266707 -0.008723742 -0.0029883678 -0.010048284 -0.004631779 0.041845582 0.056454275 0.028336227 0.018691346 0.050581653 0.008514352 0.038666654 -0.023888089 0.050308045 -0.023029521 -0.0054391026 0.053787626 0.035448823 0.04517608 -0.013153862 -0.035383504 0.047305863 0.052267134 -0.040360354 0.056611087 -0.021831881 0.045039278 0.055238098 -0.006901981 -0.02567412 0.036264166 -0.0062945983 -0.02736132 -0.033998825 0.05197153 0.0050680223 0.04184034 0.04891103 -0.014856399 -0.03302392 -0.003871219 -0.0028197812 0.044270292 0.045852464 0.059545193 0.05583836 -0.010902054 -0.02760208 0.052082792 0.032161605 0.054228615 0.049152054 -0.025216712 -0.015997553 0.04904551 0.045750685 0.05177735 -0.020545257 -0.007832262 -0.025539702 0.058790196 0.056032926 0.00026489398 -0.013170466 -0.0107973525 -0.012017961 0.041797664 -0.018888434 0.042379938 0.057070263 0.060019795 0.0531849 0.0579694 0.044895228 -0.0022174427 0.049339734 0.04624673 -0.008197184 -0.026237192 0.05281691 0.049209468 0.0042965948 -0.019859701 -0.008716589 0.05623807 0.052468315 -0.03703014 0.060661923 0.052189894 -0.008580968 0.055889957 -0.032854524 0.052823644 0.068716705 -0.031840887 -0.009513778 0.045799162 0.04288029
doc_27 -0.09777791 0.1843635 -0.09936025 -0.10640899 0.16334829 0.15615338 -0.0978751 -0.0064246883 0.19869083 0.17709437 -0.10112606 -0.08401542 -0.0209249 0.18212415 0.11334805 -0.094382584 0.18584807 0.18687811 -0.031400286 -0.09491501 -0.09146623 -0.038398653 0.14660676 -0.09733719 -0.08495754 -0.0934552 -0.09775527 -0.09280298 0.1512417 0.08348881 0.10734497 -0.10038787 -0.107430995 -0.10114141 0.17235097 -0.10372859 -0.082672454 0.14750147 0.10815655 -0.09401015 -0.100351356 0.14887577 -0.10161018 -0.083791986 -0.074559495 0.18998645 0.19008034 0.14183635 -0.10421701 -0.08733769 -0.0893562 0.12364146 -0.0967175 0.14868756 -0.095392175 -0.10005113 0.12992693 -0.09130311 0.18011679 -0.08619409 -0.09688622 0.05842357 -0.0826936 0.13123542 -0.09655705 -0.09475337 0.16140269 -0.08481131 -0.09635935 0.19053206 -0.09274814 -0.10916554 0.08755807 -0.11039254 -0.098533414 -0.104976125 0.14848517 -0.07755888 -0.09904332 -0.08884137 0.19222142 -0.108754106 0.20679536 -0.101039425 -0.09180768 -0.10132247 -0.10465022 0.20348074 -0.0936981 -0.09816228 0.19041792 -0.09391094 -0.10131421 -0.09909502 -0.09400929 0.20504944 -0.09968836 -0.08518748 0.21899797 -0.10061375 -0.09357102 0.19778496 0.10636605 -0.02901883 0.19615427 0.17018935 0.15921944 -0.09412568 -0.08807222 0.21330096 0.19578485 -0.09996356 0.21907698 -0.10744285 0.17554294 -0.10209981 0.1160908 0.20815846 -0.10404276 -0.10344208 -0.10025816 0.16273369 0.06521623 -0.095502004 -0.10097593 -0.043462064 -0.096110106 0.12577833 -0.09738419 -0.09169614 0.15855414 0.16277671 -0.105982885 0.13340046 -0.0015163529 -0.02671668 -0.08981263 0.13870917 -0.090633765 -0.07465015 -0.0236755 -0.032217305 0.16327816 0.14913855 -0.08971992 -0.101529635 -0.09599679 -0.103509195 0.117630914 0.17187417 -0.10255014 0.03953721 0.061952986 -0.0978882 -0.03041757 0.15847223 -0.09570528 -0.10360185 -0.08831324 0.15144461 0.12970522 0.09801448 -0.100596175 -0.09016693 0.17192906 0.20970759 0.07204212 0.19261262 0.2031634 0.11813526 -0.10025793 -0.08695553 -0.099345446 -0.10098417 -0.09847434 -0.10492311 0.20072892 -0.09215275 -0.09819392 0.18622473 0.1641539 -0.10237391 -0.095304854 0.15608846 0.110813946 0.1864826 -0.10552794 -0.0876178 0.019711718 -0.07484183 -0.102756746 0.12581034 -0.09366457 -0.0399338 -0.10679645 0.050651956 0.13510965 0.17375872 -0.09036686 -0.0934601
doc_28 0.028091997 0.034482155 0.0017237419 0.019128222 0.022960313 0.017377155 0.01921594 0.016399825 -0.01930256 0.027750023 0.031535283 -0.02111743 0.099104546 -0.017815627 -0.02159736 0.02721831 -0.0053979787 0.0053407797 -0.026351726 0.023499474 0.024171595 -0.015871324 0.027074937 0.035949986 -9.619282e-06 0.02222069 0.0024381543 0.05807265 -0.010854039 -0.022141006 -0.038567502 0.030130941 0.016440066 -0.014396711 0.01936814 0.016949898 0.028687483 -0.011304989 -0.00693635 0.027969496 0.02235212 -0.009158881 -0.014832722 0.025076116 0.036178924 -0.0070657907 0.0037787268 -0.02253127 0.0043529756 0.03062913 0.020294445 0.023901781 0.026512885 0.004601389 -0.006970039 0.019952465 -0.020223072 0.010535713 -0.02385627 0.015218352 0.016741559 0.11487675 0.021663873 -0.03356191 0.02310659 0.0344353 0.023402264 0.025981026 0.0023216798 -0.0145402085 0.017764756 0.0036080945 -0.038207803 0.023611378 0.030850358 0.020504588 0.02738912 0.03413081 -0.008941225 0.0061804904 0.01826909 0.007000459 -0.020080877 0.008773216 0.051231727 0.009165969 0.012698408 -0.016705804 0.013561635 0.015315329 -0.017426027 0.023054551 0.000104402076 0.011766873 0.029720593 0.0303173 -0.024510117 0.02456422 -0.0049261255 0.0215693 0.00655633 -0.0030226274 -0.029441625 0.08493781 -0.007760782 0.003563363 -0.023106307 -0.009835798 0.023446374 -0.025085216 -0.037604704 0.02105601 0.023988396 -0.021640604 -6.262632e-05 0.013619377 0.029520066 -0.0054535307 -0.01632152 -0.008467232 0.015328055 0.009630954 -0.016129524 0.040332615 0.025307924 -0.029452572 -0.023315677 0.0046139006 0.0027750623 0.02034588 0.016796473 -0.0006128596 0.017181981 -0.011802522 -0.025036618 -0.029630095 0.03386601 -0.025972607 0.0055020927 0.009404231 0.06393195 -0.011738217 -0.01031825 -0.029921424 0.016506178 0.03796055 0.02192255 0.01352308 -0.015325678 0.03330495 0.029611478 0.004668653 0.05446953 0.043024763 -0.0020245942 0.015419679 0.046228718 0.0037465747 -0.014550836 0.015727552 -0.023126863 -0.017183512 0.0045927456 0.023544595 -0.006552647 0.014641003 -0.009027501 -0.014093798 -0.027769975 0.011250393 0.045475505 0.05304182 0.015628919 0.030611608 0.012767139 0.0014450921 -0.013863779 0.019226078 0.002505959 0.03191685 0.009104985 0.021791037 0.040222272 0.0034123042 -0.0011788573 0.0143485125 0.011345966 0.017689515 0.011299568 0.009261344 0.012136035 -0.013257417 -0.003827781 -0.02639587 0.011268979 0.09261852 -0.016610162 -0.008229418 0.019261714 0.033881977
doc_29 0.014531637 0.0067327414 0.021626478 0.007287513 0.0018018072 -0.0004309386 0.016000018 -0.012349458 0.003857944 -0.0024381569 0.021788618 0.016946383 -0.0027938301 0.0013695186 -0.0009697871 0.026461989 -0.005657242 -0.002945094 -0.012183322 0.010750784 0.028417395 -0.012656901 0.0044603916 0.017598184 0.026742682 0.017559364 0.012481011 0.0143244285 0.007115205 -0.00034871884 0.015882876 0.01583929 0.01357374 0.0150564555 0.026493574 0.019530624 0.015790772 -0.013888645 -0.0008966691 0.019263588 0.02292141 -0.0057536555 0.011390689 0.02250155 0.01786764 0.006270253 -0.01606077 -0.0030642916 0.02041643 0.012217053 0.022473468 0.010387773 0.01528115 -0.009205088 0.011799792 0.013892296 -0.0057662223 0.023343097 0.008829769 0.025441434 0.025783079 0.05846928 0.014087054 0.014049692 0.021425918 0.019575194 -0.0015409631 0.019534588 0.016364334 -0.005392016 0.015273642 0.011710476 0.006646684 0.0101022385 0.024951015 -0.003038046 0.0051776627 0.025055647 0.018995 0.019016854 0.0076872655 0.02060158 0.005686685 0.010502517 0.023924068 0.013698832 0.022475047 0.0065612076 0.028755607 0.015863806 0.0068541775 0.01685166 0.018832328 0.017257925 0.023729488 -0.008062069 0.011269008 0.012608387 0.0038069184 0.02933406 0.02862074 -0.000638654 0.0054433066 -0.0013691094 -0.00019186933 0.00352302 0.0048705908 0.012101516 0.027884984 0.01891778 0.016156428 0.01832843 0.0118090445 0.009131678 -0.0075549567 0.010401004 -0.003776982 -0.003183826 0.022076942 0.009907351 0.0050719106 -0.003452608 -0.015359578 0.02038511 0.013790203 -0.019779852 0.023953896 -0.012447745 0.013898579 0.02162303 0.006382895 -0.0016292548 0.0035032206 0.003644869 -0.0141895935 -0.014994085 0.009938839 0.0025478904 0.003956619 0.028581649 -0.008472648 -0.018612947 0.014169823 0.01241811 0.016178085 0.02007937 0.026309572 0.01738354 -0.00032388605 -0.005235296 0.017901447 0.046614982 0.03688347 0.017610982 -0.008645097 -0.0023980536 0.023792867 0.011279652 0.02258326 0.007406624 -0.0016317151 -0.005187437 0.022186862 0.023564495 0.0054433923 0.0040182285 0.0009063503 -0.0052255616 0.028902875 -0.0020496356 0.017585494 0.024596917 0.006274326 0.022260804 0.02873408 0.0072403224 -0.011035364 0.01990191 0.0104971565 0.007578469 -0.008154408 0.013707969 0.014705379 0.012937168 0.001301496 0.0030437696 0.024822317 0.022446768 -0.017601117 0.027561875 0.018641405 0.0023528088 0.031975616 -0.02041725 0.00660891 0.022590263 -0.01078487 0.0014149239 0.01716668 0.014103776
doc_30 0.08218346 -0.039161183 0.08462407 0.08005865 -0.040083915 -0.03532264 0.0854026 -0.050996054 -0.032419562 -0.032024033 0.09950031 0.09146629 -0.021817164 -0.03343275 -0.03309637 0.09477548 -0.048998605 -0.03486958 -0.03377174 0.0882439 0.098815046 -0.033897568 -0.03545593 0.096057534 0.09378152 0.08815716 0.08718524 0.09385272 -0.032853413 -0.028799444 -0.043644767 0.08946205 0.098795146 0.09214528 -0.02608659 0.07311843 0.07473154 -0.037101857 -0.04332435 0.08549305 0.09078343 -0.03972241 0.08248078 0.08987182 0.09954894 -0.03289077 -0.051017474 -0.03412906 0.07555775 0.09069421 0.09272688 -0.013723795 0.07972787 -0.04592254 0.07876664 0.088193364 -0.03358523 0.09256416 -0.014685178 0.0930045 0.09561461 0.1547917 0.084087275 -0.027438732 0.09167932 0.09381317 -0.03979823 0.09293361 0.08546919 -0.027523786 0.0699036 0.086547226 -0.031209808 0.0912467 0.09471552 0.088394076 -0.045643575 0.09645527 0.08972245 0.09449934 -0.03253007 0.08773905 -0.03531366 0.0801206 0.09650958 0.09460207 0.09316189 -0.029365344 0.09796517 0.08855067 -0.024424385 0.0930604 0.09287676 0.09589009 0.09566584 -0.0492686 0.07846749 0.09858855 -0.03043912 0.08167365 0.09301493 -0.03629773 -0.037251372 -0.028784862 -0.030361766 -0.032939952 -0.025319388 0.08763678 0.105928384 0.0032416987 -0.015387405 0.08930739 -0.02411642 0.09468374 -0.045229863 0.103398666 -0.05238413 -0.037234716 0.10229823 0.08265772 0.08467258 -0.042678334 -0.041652545 0.09257334 0.08604845 -0.04582162 0.100355 -0.039886683 0.09511547 0.090540186 -0.03269777 -0.038614716 0.095284194 -0.028778106 -0.034263715 -0.039907478 0.09190523 -0.046477284 0.073453784 0.089500695 -0.026386727 -0.03548535 -0.024592487 -0.03084578 0.08672263 0.09844599 0.1050849 0.08625044 -0.04948982 -0.048632946 0.094932795 0.028571753 0.09642473 0.08718969 -0.027441941 -0.03310922 0.107913576 0.073360346 0.09713984 -0.049705204 -0.036902837 -0.028979959 0.09776522 0.088194065 -0.033860594 -0.035937663 -0.044799253 -0.039656874 -0.00050694495 -0.049347743 0.08997366 0.091045246 0.09478946 0.08293112 0.10079475 0.084547155 -0.04707068 0.09577071 0.093634486 -0.03876641 -0.037127443 0.09362159 0.08404325 -0.015891526 -0.027834728 -0.036715038 0.08501423 0.093284175 -0.051705003 0.098451026 0.08868689 -0.040767733 0.097028956 -0.03810946 0.08932512 0.07520618 -0.044849724 -0.031882852 0.08904177 0.08026902
doc_31 0.051855695 -0.012307098 0.05739836 0.06080964 -0.01813422 -0.01363325 0.060041677 -0.015205418 -0.005870511 -0.0133073665 0.057394702 0.056536663 -0.0033053241 -0.011249497 -0.013503486 0.04890564 -0.009572651 -0.008210234 -0.015440723 0.052380774 0.060180083 0.0056121806 -0.013764244 0.057339437 0.0514073 0.042397894 0.046361364 0.05469439 -0.01559051 -0.015341971 -0.015345271 0.058669914 0.061416928 0.059525423 -0.015125422 0.059594795 0.05091665 -0.011608725 -0.020607661 0.055850584 0.05931076 -0.014486599 0.050524212 0.059350718 0.055945046 -0.010311436 -0.017097931 -0.010778476 0.052616067 0.057286404 0.0641346 -0.014802701 0.053263195 -0.008257114 0.05116601 0.05348166 -0.013250743 0.050640736 -0.011704815 0.053489447 0.05197149 0.083964095 0.062544405 -0.022160862 0.052435163 0.050694074 -0.019143373 0.047671653 0.059474953 -0.01150381 0.04900162 0.06253053 -0.01431956 0.058426164 0.05465801 0.051935807 -0.015045355 0.056923766 0.05840979 0.05912391 -0.011255499 0.050153386 -0.0153746605 0.05444904 0.06370885 0.059309155 0.05578058 -0.016458549 0.050972063 0.05259377 -0.016530406 0.052677196 0.052618213 0.060543776 0.06395583 -0.01603327 0.051225737 0.056160133 -0.014396992 0.055218015 0.050184537 -0.014256086 -0.01439265 -0.014634001 -0.011948818 -0.014597525 -0.011403378 0.05005913 0.05630092 -0.010849373 -0.010475993 0.058952555 -0.014258354 0.056327343 -0.012029027 0.053527333 -0.016389724 -0.009826169 0.057570063 0.053928632 0.046628267 -0.018356947 -0.01515585 0.050577335 0.05744325 -0.016879987 0.062298246 -0.0086462395 0.06050385 0.05488015 -0.005471994 -0.010722821 0.062244423 -0.010163546 -0.008874418 -0.018027343 0.049689606 -0.01927645 0.05112196 0.05998138 -0.00904307 -0.005301615 -0.0022928827 -0.016276766 0.056969654 0.06487694 0.061252493 0.060360357 -0.009488266 -0.008996239 0.056693457 0.04456442 0.06854246 0.04668094 -0.015467371 -0.018955616 0.052707437 0.054246712 0.059892517 -0.017640049 -0.008808978 -0.0047818446 0.05776749 0.056173686 -0.018189585 -0.011453893 -0.008897694 -0.012413926 -0.005430067 -0.0102591785 0.056211956 0.06842605 0.051151387 0.057185836 0.051944133 0.058227792 -0.016249595 0.05857125 0.05690343 -0.010665591 -0.011767026 0.053486615 0.0669174 -0.01486961 -0.0009077415 -0.008687795 0.051195502 0.048285257 -0.018115388 0.056833148 0.045305125 -0.009479672 0.054883957 -0.022820905 0.06069334 0.03279874 -0.00866571 -0.010623813 0.054157965 0.046021126
doc_32 0.09765381 -0.022722738 0.110700056 0.099899895 -0.033764258 -0.011449021 0.10074677 -0.063919716 0.015139025 -0.0073628896 0.110525645 0.11327799 -0.0012900991 -0.018537825 -0.003082927 0.11548563 -0.048829958 -0.034831528 -0.0565026 0.114566736 0.1249179 -0.06130554 0.011183299 0.11856256 0.1118866 0.11438342 0.11104182 0.10097621 -0.016454829 -0.0217976 0.0060765697 0.11039343 0.09380727 0.115505755 0.020664157 0.10477639 0.10875116 -0.06616646 -0.026189424 0.115770005 0.113052346 -0.0036454177 0.112445794 0.11720751 0.11067689 0.013003157 -0.07798257 -0.019898381 0.11655251 0.11358125 0.10409493 0.020348512 0.098689616 -0.057295144 0.09129245 0.09659111 -0.03678984 0.111752056 0.0027795096 0.117756054 0.1256434 0.18429194 0.1277152 -0.017921843 0.10763419 0.10882814 -0.048192702 0.11358571 0.11658617 -0.03819674 0.1025752 0.08115137 0.007862099 0.098484114 0.114904605 0.09098963 -0.017088322 0.112940304 0.10967154 0.11776847 0.0018209411 0.102234714 -0.030178469 0.08555053 0.12717931 0.087544136 0.10931851 -0.010937362 0.1097252 0.09389238 -0.024662083 0.120052755 0.12098411 0.0870197 0.12064544 -0.059365645 0.08439691 0.116914354 -0.0067737424 0.10519313 0.12330689 -0.0012333959 -0.011604913 -0.04017689 -0.005709025 -0.02634204 -0.005788463 0.09617339 0.114855915 0.034064863 0.03823684 0.10818388 0.020439187 0.094065815 -0.054061156 0.1101059 -0.057712413 -0.0023302801 0.11950382 0.089229606 0.09811694 -0.04240159 -0.07164569 0.096520714 0.12536755 -0.07691992 0.12104806 -0.046505556 0.09878304 0.119953066 0.004692615 -0.042349905 0.10177514 -0.0040835165 -0.04259137 -0.06032503 0.12009101 -0.0020631882 0.10146357 0.11874028 -0.03185923 -0.05891253 0.0025444198 0.00067136413 0.10330695 0.11024322 0.12737875 0.11145067 -0.028579768 -0.05797631 0.118568346 0.05787792 0.10624697 0.10511228 -0.060111992 -0.02476186 0.10624433 0.08549949 0.11050827 -0.021521375 -0.030675292 -0.054791234 0.12490515 0.11660984 0.012454131 -0.04030277 -0.028848188 -0.031650398 0.05599497 -0.04220572 0.10153422 0.13070823 0.11261865 0.10528024 0.121419884 0.10497532 -0.016463997 0.11306094 0.122208625 0.0007496133 -0.055947334 0.11558612 0.114309154 0.035478298 -0.037230544 -0.00778593 0.11065756 0.11422228 -0.06686843 0.1131923 0.108105026 -0.0075064795 0.117335916 -0.06447292 0.11105714 0.07953547 -0.071117654 -0.012845324 0.100229554 0.09319775
doc_33 0.07286964 -0.016524449 0.07136938 0.07383982 -0.009778916 -0.02192163 0.07314265 -0.03642508 -0.0060444614 -0.01670234 0.08058788 0.07384326 0.06412675 -0.018312398 -0.021154698 0.07485588 -0.015240125 -0.013836709 -0.023760803 0.07526169 0.07439466 -0.022922978 0.0014822142 0.079728305 0.078048445 0.0808247 0.07275902 0.07021477 -0.013830665 -0.013762224 -0.0115653165 0.06529407 0.07759238 0.066524096 0.0057205707 0.06674931 0.08371533 -0.027080694 -0.01617707 0.07930069 0.07557227 -0.015424288 0.06707627 0.080346584 0.0667341 -0.0044861767 -0.027570572 -0.0176103 0.07542814 0.07727026 0.07398281 -0.020281034 0.078079075 -0.021745948 0.06508971 0.08173017 -0.01590463 0.070295386 -0.0020702905 0.0704736 0.071681574 0.09128863 0.08097346 -0.013866541 0.07644092 0.07955183 -0.01906768 0.08173545 0.07524149 -0.0095615005 0.06863188 0.059474442 -0.026788523 0.0793102 0.08095373 0.0643924 -0.016126078 0.070238225 0.07658973 0.07745935 -0.0068697394 0.07378365 -0.012919948 0.06535233 0.06712808 0.07246496 0.08115112 -0.0045683337 0.0839119 0.081974514 -0.018012488 0.08002191 0.0729218 0.06678295 0.073098086 -0.019316388 0.0754506 0.0852817 -0.004283533 0.07044783 0.07794582 -0.01527476 -0.021873428 -0.020022012 -0.012966353 -0.016163476 -0.030614773 0.06667384 0.0745457 0.0108783115 -0.005979075 0.078789346 -0.0063159773 0.069054514 -0.023066657 0.0802673 -0.027174052 -0.01567497 0.07867876 0.0751158 0.06516937 -0.030510774 -0.031308413 0.07434815 0.076002374 -0.035859816 0.08019479 -0.018310316 0.08160279 0.06410756 -0.013263244 -0.019193536 0.07009198 -0.01750515 -0.03125351 -0.029479112 0.081183046 -0.019156395 0.07460267 0.068577915 0.040450856 -0.023811908 -0.013284896 -0.015097864 0.075875655 0.07377388 0.07758789 0.083261296 -0.017240876 -0.016885774 0.084947325 0.03407167 0.107488915 0.076088846 -0.024737623 -0.016428616 0.07201197 0.07077774 0.07336917 -0.019102348 -0.020540627 -0.020580271 0.072753176 0.06839348 -0.010340035 -0.030901492 -0.033247273 -0.009384809 0.008748758 -0.021140762 0.07737621 0.07525428 0.07456781 0.06902659 0.0785418 0.07311015 -0.014460289 0.06912299 0.068497114 -0.0076704724 -0.019906648 0.07329751 0.07764521 -0.013447361 -0.018221084 -0.011250467 0.07777115 0.072433226 -0.037585396 0.073568866 0.07165079 -0.027247608 0.07324341 -0.035556447 0.080447115 0.1011161 -0.026937664 -0.010480776 0.07538017 0.07516734
doc_34 0.09498915 -0.016151732 0.09483573 0.08791411 -0.00042650104 -0.009159804 0.0911692 -0.036855437 -0.0026908638 -0.025205662 0.079566576 0.096879415 -0.039248567 -0.013885224 -0.03010189 0.09523432 -0.042616025 -0.033312526 -0.034620225 0.098749466 0.09890827 -0.042326044 0.011689408 0.09440919 0.100981586 0.08553298 0.08877794 0.08992249 0.0005760561 -0.0041305656 0.0028293892 0.08865812 0.08994255 0.094154015 0.027807811 0.0991242 0.09001694 -0.045621566 -0.032672 0.08496982 0.08747979 -0.025814842 0.0867384 0.091902964 0.09271566 -0.030190466 -0.04243393 -0.046401016 0.09276759 0.09441399 0.10036548 0.018501585 0.09247107 -0.043146968 0.094381995 0.080306485 -0.040606983 0.097938776 -0.002529545 0.08919273 0.098665565 0.07120564 0.08770347 -0.0037915201 0.08814726 0.09977636 -0.04705551 0.094024174 0.09217407 -0.04169851 0.0833657 0.07983725 -0.023218645 0.08733305 0.09754543 0.09508935 -0.036256105 0.09157028 0.09589318 0.09605409 0.01226832 0.09285022 -0.019813254 0.0818036 0.09182826 0.08702282 0.09725194 -0.015588721 0.091838345 0.092166714 -0.020124411 0.09522143 0.10148562 0.08067595 0.09807263 -0.04301785 0.09133039 0.0927209 0.0256749 0.09988684 0.10484215 -0.023474287 -0.017843857 -0.036381703 -0.019985607 -0.025455449 -0.02721834 0.09141451 0.095086806 0.060989883 0.04012855 0.09248128 0.026511889 0.088613786 -0.047784824 0.09167199 -0.035599634 -0.011019974 0.08780459 0.08286178 0.08066942 -0.03164401 -0.04347216 0.08432793 0.09763616 -0.05090202 0.09980084 -0.037755165 0.09285175 0.1019535 -0.02345202 -0.04644059 0.088001706 -0.024429053 -0.03700747 -0.04572694 0.096367404 0.0042386865 0.08735636 0.09714417 -0.039231356 -0.03945229 -0.015913896 -0.017639738 0.08678184 0.08851136 0.088884756 0.09336091 -0.036708143 -0.051481914 0.09934033 0.037308287 0.029595463 0.09239269 -0.032915942 -0.03856893 0.09374552 0.07381357 0.09165975 -0.005859724 -0.03479231 -0.038304407 0.09706215 0.09151586 -0.021978281 -0.025544792 -0.036932774 -0.034096405 0.05287828 -0.037827827 0.08855505 0.0890172 0.09244881 0.09647099 0.09577295 0.087079644 -0.03505016 0.099604994 0.08417755 -0.013021607 -0.04782053 0.08815809 0.09695755 0.025686966 -0.04228712 -0.017773211 0.08711132 0.09409779 -0.043474246 0.09877066 0.09251948 -0.022409577 0.09505836 -0.035157382 0.08490336 0.044015802 -0.045127675 -0.012497757 0.09382155 0.08400825
doc_35 0.06961575 -0.0071587227 0.0701083 0.066260286 0.0013399355 -0.009995045 0.06225157 -0.0040138415 -0.0032117446 -0.009920242 0.06962153 0.07243307 0.09293981 -0.006831488 -0.008744997 0.0677212 -0.011866747 -0.0087980945 -0.0145938555 0.06734142 0.0641962 -0.02005475 -0.0010021257 0.06437324 0.066481315 0.06121896 0.0717976 0.06274894 -0.01614442 -0.00352457 -0.018865105 0.056843936 0.064528905 0.07345945 -0.012230003 0.06442542 0.06077454 -0.02027376 -0.008987913 0.064442 0.0724738 -0.000874056 0.06798445 0.073659085 0.06368427 -0.01681354 -0.016268242 -0.0041838135 0.0635899 0.07429047 0.06251046 -0.0060059163 0.055744678 -0.008951738 0.07289885 0.0670748 -0.0058841817 0.07429415 -0.0055981185 0.069226965 0.05933577 0.054856475 0.06550156 -0.004111705 0.0631992 0.064478576 -0.015709016 0.059372652 0.06644909 -0.008005165 0.070773356 0.07344003 -0.006076892 0.067100495 0.07126507 0.06857253 -0.00597111 0.061523728 0.06505408 0.057315238 -0.012984694 0.064289294 -0.011105005 0.059279546 0.064897954 0.07075759 0.068996586 -0.021827033 0.06153408 0.07143624 -0.009695038 0.0697133 0.06948128 0.06054097 0.07298947 0.00041142385 0.0697616 0.061253104 -0.0122326445 0.06627218 0.062374525 -0.0034228652 -0.0062253457 0.048263833 -0.009634176 -0.011934355 -0.0020965114 0.07144874 0.06449783 -0.01826487 -0.01568576 0.05933857 -0.0060026813 0.067448504 -0.0047519365 0.05725555 -0.010422105 -0.006826455 0.0648177 0.06449599 0.06655546 -0.012559432 -0.0011037281 0.066722445 0.060112618 -0.012160717 0.0641658 -0.0037477876 0.06966651 0.06310049 -0.0013015736 0.0019306152 0.06878644 -0.014171962 -0.009385337 -0.010325291 0.06312376 -0.01845738 0.07143489 0.060810484 -0.0053663813 -0.011921517 -0.01177728 -0.012569106 0.07266972 0.061284125 0.06566504 0.06806383 -0.0029621376 -0.006851049 0.059004165 0.0006952513 0.087941796 0.067386284 -0.013464041 -0.0006068002 0.0661957 0.06385882 0.060841933 0.00020690588 -0.010337484 -0.013439833 0.059787124 0.0631033 -0.0056458483 -0.0012079622 -0.0008949735 -0.020117754 -0.018297924 -0.0110364035 0.067114875 0.06614968 0.06941278 0.07418026 0.061573453 0.06369985 -0.012325479 0.06840074 0.06614011 -0.00929749 -0.010370461 0.06812213 0.072134405 -0.008446349 -0.007664529 -0.012597977 0.06289924 0.062975965 -0.0032689946 0.05154843 0.05811372 0.0029079216 0.06843085 0.013439195 0.073616125 0.089305855 -0.007350145 -0.004850502 0.06914367 0.0725634
doc_36 0.15052557 -0.046049513 0.16196576 0.14376736 -0.03377515 -0.069584765 0.117847234 -0.10405018 -0.045672506 -0.06656614 0.13621874 0.18598753 -0.011734203 -0.043053225 -0.059574977 0.1963883 -0.076218754 -0.079960175 -0.08248171 0.17745866 0.19531582 -0.093245775 -0.0063617537 0.16472489 0.1793705 0.14274438 0.14279142 0.1509929 -0.0111967055 -0.043706466 0.040941395 0.1451361 0.12730336 0.15413257 0.028949112 0.13645108 0.17042664 -0.101409815 -0.07965559 0.1845122 0.16803077 -0.056182377 0.15835997 0.2056788 0.18159002 -0.06581393 -0.11019297 -0.059023082 0.17844056 0.14381248 0.16314006 -0.019256048 0.1606313 -0.07516359 0.13936852 0.16234198 -0.057850823 0.15882704 0.015238397 0.18460076 0.18650664 0.11671696 0.19436416 0.017066583 0.19674076 0.16798404 -0.032395978 0.16883343 0.17398319 -0.05199931 0.14337718 0.1146436 -0.04595507 0.15890254 0.17476669 0.10935255 -0.037214823 0.17864834 0.1983872 0.1799222 -0.03930894 0.17708701 -0.07784104 0.13265668 0.19790407 0.134563 0.18363357 -0.011446168 0.19190556 0.14378037 0.005114768 0.19791184 0.15866028 0.10179255 0.18958631 -0.08785918 0.14323987 0.19040649 -0.033989772 0.1632871 0.1995652 -0.057513826 -0.06364962 -0.070678234 -0.06384786 -0.01710181 -0.059261274 0.13012867 0.2011831 0.015770368 0.008698531 0.17430376 0.013215013 0.13040574 -0.09543758 0.14773369 -0.102028064 -0.0694614 0.15375228 0.11336979 0.1137463 -0.08770656 -0.09392527 0.16975673 0.16270931 -0.09484726 0.18812609 -0.08800738 0.14707199 0.2062772 -0.0014204851 -0.08349464 0.14408267 -0.046847407 -0.069850974 -0.07661886 0.1641341 -0.030103859 0.14570239 0.19606675 -0.020118818 -0.088633366 -0.025993316 0.00033010216 0.18028411 0.16111155 0.19243765 0.16991176 -0.058301225 -0.065845944 0.18115549 0.01323289 0.07566083 0.14471012 -0.09300738 -0.06578865 0.17347328 0.10395174 0.19389716 -0.03227969 -0.099761225 -0.033534367 0.182582 0.17516872 -0.027175855 -0.09550775 -0.08528629 -0.07789584 0.13612941 -0.062888704 0.13478968 0.18650982 0.1869674 0.1763183 0.1939175 0.114520505 -0.069482826 0.16893494 0.13191766 -0.048738275 -0.06364262 0.17158553 0.16430263 -0.004778032 -0.034074884 -0.05918859 0.17790054 0.17968152 -0.10020049 0.17038712 0.17584467 -0.07319465 0.18243979 -0.09629504 0.1616891 0.10400642 -0.08989396 -0.05370742 0.17473884 0.12644589
doc_37 0.08441885 -0.03502828 0.09542297 0.08385261 -0.031698227 -0.036179677 0.08184622 -0.053115007 -0.025709957 -0.043820947 0.08706557 0.09711432 -0.020517355 -0.03205493 -0.046554957 0.09952434 -0.047097627 -0.04066898 -0.04145108 0.089925066 0.1071094 -0.047331907 -0.030236581 0.09096873 0.09860001 0.094902486 0.095098905 0.09696889 -0.036736287 -0.04535947 -0.03692928 0.0886173 0.07346131 0.098021366 -0.03012549 0.085826635 0.09153137 -0.047079705 -0.04090556 0.08957868 0.10015198 -0.057026733 0.09857582 0.09421635 0.102407455 -0.038240172 -0.045516502 -0.052511062 0.10218772 0.10003879 0.089694664 -0.029443612 0.08283323 -0.032922503 0.085637376 0.08802496 -0.036788195 0.09517024 -0.03369296 0.10265558 0.098558694 0.13471757 0.098266944 -0.050926715 0.09884379 0.100959145 -0.04974423 0.102817655 0.0993826 -0.038803883 0.0885097 0.09231845 -0.048119787 0.089357615 0.09154934 0.09388619 -0.05530495 0.10568166 0.08950591 0.10290749 -0.036442723 0.09017497 -0.029631956 0.08764474 0.10375354 0.08545876 0.0866075 -0.03883868 0.08960558 0.08555791 -0.039145257 0.0982977 0.09403718 0.06987902 0.0930703 -0.047854483 0.0733854 0.103834145 -0.02601518 0.096806005 0.08856865 -0.033573896 -0.033192694 -0.029840695 -0.02805331 -0.03985471 -0.034766436 0.086517125 0.0981063 0.011983348 -0.013857159 0.089085005 -0.028887756 0.07056773 -0.033469032 0.08685699 -0.038413756 -0.0165659 0.08905129 0.065260775 0.08943723 -0.05191325 -0.05738516 0.097713776 0.101676315 -0.039661244 0.10288098 -0.041442856 0.083990075 0.093143135 -0.026426537 -0.043445155 0.078756 -0.043661743 -0.036649164 -0.048568472 0.088486806 -0.03583542 0.09436994 0.103858486 -0.031212686 -0.03473789 -0.03142427 -0.016932687 0.08576869 0.0943636 0.1011886 0.08852555 -0.050172344 -0.04749248 0.091617115 0.030989232 0.074731365 0.08590369 -0.039190054 -0.03515104 0.08867895 0.06921841 0.094123825 -0.04790893 -0.041999847 -0.030187706 0.0946828 0.09867955 -0.024044767 -0.0568295 -0.050691046 -0.04454196 0.0057077277 -0.036458697 0.08876128 0.1059842 0.09606401 0.09345011 0.0971483 0.08980343 -0.03612476 0.09651362 0.08340188 -0.022700444 -0.03254727 0.0956584 0.09150096 0.008504786 -0.02905219 -0.02921757 0.103969954 0.09951121 -0.051549938 0.10141975 0.08577062 -0.042421266 0.108257994 -0.034299858 0.1045468 0.056899175 -0.04589908 -0.04864238 0.092513725 0.08547935
doc_38 0.06516807 0.054570623 0.073048234 0.047747087 0.015990283 0.035306294 0.056976017 -0.055491153 0.064993426 0.017369464 0.068421036 0.09758971 0.010182667 0.034579203 0.026847558 0.093605876 -0.021417774 0.0023744495 -0.08648043 0.09357556 0.10665293 -0.08603965 0.059592005 0.07875687 0.09487518 0.075211026 0.062980905 0.065575905 0.03876425 0.026167877 0.029585076 0.06854777 0.052137684 0.085108995 0.08451656 0.07394321 0.069066025 -0.058461227 -0.010735996 0.08497212 0.09506985 0.028780289 0.074410275 0.11201565 0.09958074 0.037485987 -0.03257711 -0.025412563 0.07960885 0.07034384 0.09497292 0.058505762 0.06980365 -0.027265195 0.06217621 0.06972027 0.01129426 0.081407875 0.08238028 0.113007374 0.11679826 0.2149347 0.09813606 0.051976763 0.102565475 0.08776783 -0.008181321 0.09339355 0.06372076 0.028983641 0.060737923 0.0414079 0.022326417 0.06918761 0.09772544 0.053627938 0.020559069 0.09238737 0.098123506 0.090108134 0.053893097 0.09059367 0.02530961 0.058875214 0.109736145 0.061326224 0.091676764 0.06385039 0.10763758 0.058753096 0.03978784 0.09111396 0.091128185 0.048039384 0.09687496 -0.023920648 0.046804883 0.10630832 0.07078841 0.09111615 0.11106052 0.04139583 0.027242398 -0.013043006 0.030736178 0.023007609 0.02225251 0.067697994 0.1150106 0.12639263 0.090042725 0.08970552 0.07061643 0.04790622 -0.025890937 0.068293184 -0.029931221 0.040671736 0.07092662 0.04649612 0.040667746 -0.017260062 -0.05326493 0.077777326 0.093792014 -0.0690083 0.0926804 -0.028618861 0.0857677 0.09882054 0.040024612 -0.00016862038 0.062567025 0.029668188 -0.06495772 -0.073633224 0.079843335 0.047537383 0.06694669 0.098903365 -0.018928686 -0.07656064 0.08321368 0.04507114 0.09034437 0.09451576 0.11147142 0.072051495 -0.00064734044 -0.03371532 0.09600152 0.075964816 0.16609232 0.07362452 -0.0787471 0.0031551104 0.08859795 0.04034466 0.09120618 0.039270382 -0.002636971 -0.052837573 0.10661085 0.08813552 0.034921546 0.006203765 -0.017557088 0.012605928 0.12858188 -0.026306333 0.06678881 0.11949052 0.08695005 0.08781082 0.11305285 0.054477353 -0.01173061 0.08279011 0.056881227 0.04535919 -0.05309119 0.076087736 0.07945004 0.09034295 -0.007859756 0.032469653 0.09942618 0.10306986 -0.059951883 0.10821792 0.08345361 -0.00938809 0.10445628 -0.088279665 0.07562366 0.16193572 -0.044937667 0.034717657 0.07824906 0.058536302
doc_39 0.064642325 -0.004490322 0.05619373 0.060026966 0.00044488814 -0.016555725 0.05923844 -0.03794995 -0.0013424342 -0.0048413696 0.059991583 0.05952187 -0.014194306 -0.004192486 -0.020088766 0.063429184 -0.013651974 -0.0049434393 -0.028235601 0.06456483 0.062034313 -0.026033984 0.002341087 0.06188371 0.065414675 0.0596059 0.060140174 0.05986704 0.00041202642 -0.011840393 -0.020554222 0.06220451 0.05068263 0.06526706 0.0024324532 0.06340224 0.067572534 -0.022942439 -0.018285528 0.06351562 0.06226836 -0.0039212704 0.060588736 0.0671845 0.06666382 0.0013374063 -0.037618488 -0.0079105655 0.061759964 0.062256508 0.06640875 -0.016077727 0.058058128 -0.018034091 0.052162327 0.06555929 -0.003733344 0.053088084 -0.00043376582 0.068855084 0.070009254 0.08588493 0.05932862 -0.015995372 0.061564595 0.06965454 -0.0034715123 0.06709113 0.06445038 -0.009041417 0.05193509 0.05151866 -0.025019236 0.06187333 0.059638724 0.05286283 -0.01084005 0.059035994 0.060335483 0.06680317 0.0051208586 0.070338026 -0.0039043287 0.05420797 0.05787977 0.05674912 0.05946399 -0.0013713073 0.05880713 0.0548646 -0.008493876 0.059023988 0.06049021 0.061088648 0.061521575 -0.01470276 0.04400089 0.06203652 0.004782194 0.05736406 0.064587586 -0.0013942907 -0.0034582317 0.0022349684 0.0017267996 -0.006863569 -0.014241528 0.06870352 0.06659289 0.008908573 0.0037035435 0.0651931 -0.011423128 0.049252115 -0.0034271167 0.053541206 -0.017292254 0.011205962 0.0680853 0.046886384 0.05458 -0.024110919 -0.028555023 0.06625273 0.06681204 -0.031776328 0.0604302 -0.009432627 0.06597465 0.069431245 -0.012265703 -0.011645406 0.056466907 -0.009665785 -0.022685641 -0.033245847 0.063510336 -0.023690812 0.052146792 0.064640895 -0.02619157 -0.024531113 0.001768965 -0.0028563351 0.058702618 0.06997311 0.06559913 0.06179118 0.0055305557 -0.0148420315 0.062708326 0.06583172 0.070800185 0.063507944 -0.027235972 -0.014420491 0.06297148 0.05858475 0.057838995 -0.0056600077 -0.023910312 -0.011755271 0.059885785 0.064243175 -0.00569845 -0.01550738 -0.018507034 -0.0045474535 0.008403212 -0.022945473 0.06501093 0.062556654 0.062285654 0.05813438 0.065714374 0.055139773 0.0028224504 0.05413267 0.058668993 0.0020085825 -0.023253875 0.06120587 0.068958506 -0.0022565634 -0.006568268 -0.003696176 0.05946409 0.057833906 -0.03677479 0.062075038 0.059925076 -0.0033977912 0.060395665 -0.030896397 0.06546149 0.07991413 -0.016319517 -0.0058284537 0.06047295 0.0625745
doc_40 0.068674445 -0.021195073 0.06644334 0.06812853 -0.014133303 -0.019113913 0.07364099 -0.030070372 -0.019789318 -0.01693869 0.0637219 0.061436098 -0.017439652 -0.01851264 -0.027407896 0.06373701 -0.02598054 -0.029557351 -0.024821581 0.06167338 0.06161256 -0.021069882 -0.018379763 0.068760216 0.06578185 0.06471896 0.0664947 0.060012035 -0.017504761 -0.022767697 -0.019999193 0.06085163 0.066033185 0.06172346 -0.016232196 0.07061553 0.07319696 -0.026331708 -0.02445371 0.06653812 0.06341567 -0.023049528 0.058699585 0.062082116 0.06588371 -0.022572495 -0.028713917 -0.027299393 0.06250438 0.07158205 0.069922924 -0.006653525 0.063923836 -0.026863791 0.067558244 0.07177304 -0.009665668 0.06811271 -0.020670732 0.069127575 0.0685345 0.08882843 0.06736191 -0.008538937 0.06679696 0.06609653 -0.026333028 0.06869033 0.06243702 -0.019798692 0.0648844 0.06363304 -0.022977388 0.063052915 0.06953934 0.067415185 -0.022047304 0.072046936 0.06977904 0.06878459 -0.025483513 0.07162732 -0.021110315 0.0657785 0.06410332 0.060596503 0.062528536 -0.019674078 0.05677256 0.07016544 -0.026350252 0.061786287 0.063266054 0.07309508 0.06833335 -0.031487662 0.06826346 0.06575965 -0.01651371 0.0686331 0.06178677 -0.016257297 -0.020727148 -0.012906986 -0.027500812 -0.023040365 -0.021322444 0.06267215 0.06472925 -0.007011962 -0.018028606 0.065729305 -0.021680702 0.0669637 -0.024264269 0.06833106 -0.025253436 -0.021790534 0.06517413 0.06359485 0.065087765 -0.027317319 -0.029101593 0.06444843 0.06133911 -0.023836104 0.062415723 -0.024920115 0.06858257 0.06588051 -0.024277829 -0.025835782 0.06236221 -0.020606052 -0.01633833 -0.021031942 0.07069004 -0.022833351 0.06759432 0.067767896 -0.016599812 -0.018095557 -0.017254326 -0.015919443 0.07343024 0.056449823 0.0658709 0.065317795 -0.03189458 -0.023614373 0.065987185 0.005170932 0.04370964 0.070731774 -0.024579037 -0.030995471 0.06939841 0.06145239 0.060754776 -0.01858571 -0.024251256 -0.01938235 0.063712955 0.06496343 -0.014016482 -0.020546453 -0.028502744 -0.0286939 -0.005582528 -0.027245186 0.06518384 0.06304176 0.06369111 0.070041224 0.066055566 0.063918784 -0.01875014 0.06796171 0.0594175 -0.02425294 -0.02915845 0.062229507 0.06668259 -0.015828563 -0.026246382 -0.022573952 0.07129969 0.06103939 -0.023625618 0.06656517 0.060994744 -0.029375816 0.06696574 -0.024337322 0.06848441 0.079509825 -0.026887402 -0.02183878 0.065297864 0.06427725
